
\data\
ngram 1=43
ngram 2=794
ngram 3=2417
ngram 4=2278
ngram 5=914

\1-grams:
-1.563439	#	-0.8080888
-2.073802	$	-0.6205924
-2.003344	1	-0.3854178
-2.258616	3	-0.6348393
-1.812809	5	-0.639082
-0.7855422	</s>
-99	<s>	-1.309569
-1.249276	@	-1.257854
-2.997095	D	-0.456347
-1.670954	E	-1.009049
-2.595039	H	-1.140214
-1.163371	I	-0.7990044
-2.277922	J	-0.7118697
-2.222404	N	-1.115571
-1.858416	P	-1.72402
-1.745283	Q	-0.9474937
-1.881564	R	-2.360033
-2.294008	S	-0.4482914
-2.49977	T	-0.4765676
-2.146128	U	-0.3337489
-1.848023	V	-0.9346915
-3.541163	Z	-0.3123999
-2.173186	_	-0.8085278
-1.657502	b	-0.8100563
-1.577375	d	-0.8981094
-1.806097	f	-0.7925228
-1.818255	g	-0.7539172
-2.254856	h	-0.7770812
-1.957587	i	-0.4696216
-2.185776	j	-0.9484884
-1.314993	k	-0.8493527
-1.361228	l	-0.4767845
-1.500429	m	-0.4145105
-1.321928	n	-0.9027833
-1.496493	p	-0.7281239
-1.384816	r	-1.637569
-1.239771	s	-0.9680855
-1.248907	t	-1.095286
-1.984861	u	-0.3475377
-1.984861	v	-0.7299029
-2.054497	w	-1.030374
-2.128983	z	-0.5913642
-1.533273	{	-1.214586

\2-grams:
-2.170995	# </s>
-0.3353041	# I	-0.07016641
-2.773055	# J
-1.568935	# R	1.207302
-2.472025	# S
-0.828572	# U	-0.2544048
-2.773055	# Z
-2.074085	# _	-0.313238
-1.927957	# b	-0.08053348
-1.693873	# d	-0.04515284
-1.773055	# f	-0.6831199
-1.731662	# g	-0.2227928
-2.295933	# h	-0.2151154
-1.927957	# k	-0.04458212
-1.568935	# l	-0.5779296
-1.568935	# m	-0.03890558
-1.267905	# n	-0.2464893
-2.074085	# p
-2.074085	# r	-0.04607718
-1.325897	# s	0.03579569
-1.472025	# t	0.1804983
-2.295933	# v
-2.773055	# w
-2.472025	# z
-1.380211	$ </s>
-2.283301	$ J
-0.9610819	$ R	1.095328
-1.982271	$ T
-1.681241	$ b	-0.1054571
-0.9822713	$ d	0.1238139
-1.681241	$ f	-0.3530185
-1.50515	$ g	-0.09116504
-1.80618	$ k
-0.8519375	$ l	-0.4125116
-1.329059	$ m	-0.04764983
-0.90309	$ n	-0.1467616
-1.584331	$ p	-0.1713522
-1.10721	$ r	-0.2068828
-1.380211	$ s	-0.004226744
-1.052852	$ t	0.1523246
-2.283301	$ z
-2.357935	1 $
-0.8808136	1 </s>
-2.056905	1 @	-0.4049995
-2.357935	1 E
-2.357935	1 I
-2.357935	1 Q
-2.357935	1 S
-2.357935	1 T
-1.880814	1 _	-0.06531104
-1.243991	1 b	-0.3032172
-1.079181	1 d	-0.1567861
-2.357935	1 f
-1.454845	1 g	-0.1193861
-1.454845	1 k	-0.2620661
-1.211807	1 l	-0.2192393
-1.755875	1 m	-0.6125216
-0.8955368	1 n	-0.4165024
-1.278754	1 p	-0.01264924
-1.316542	1 s	-0.317951
-0.9599949	1 t	-0.2146546
-1.403692	1 v	-0.1851868
-1.278754	1 z	-0.0936342
-2.117271	3 D
-1.64015	3 J	-0.1923938
-1.163029	3 R	1.437751
-1.418301	3 _	-0.06366907
-1.33912	3 b	-0.2146015
-1.214181	3 d	-0.1387145
-1.816241	3 f
-1.515211	3 g	-0.09850509
-1.163029	3 k	-0.05096616
-1.33912	3 l	-0.007691331
-0.9411801	3 m	-0.1781095
-1.214181	3 n	0.01184611
-1.272173	3 p	-0.04550491
-1.418301	3 s	-0.0110826
-0.8385177	3 t	-0.1661772
-1.33912	3 v	-0.1561529
-2.117271	3 z
-2.531479	5 #
-0.424269	5 </s>
-2.531479	5 @
-2.531479	5 I
-2.531479	5 J
-2.531479	5 S
-2.230449	5 T	-0.3276822
-1.628389	5 b	-0.06820902
-1.577236	5 d	-0.133872
-2.054358	5 f
-1.577236	5 g	-0.06565617
-1.252725	5 k	-0.2094793
-0.9516953	5 l	-0.3601319
-1.355388	5 m	-0.1809631
-1.252725	5 n	-0.129115
-1.577236	5 p	-0.01074281
-1.327359	5 s	-0.1930123
-1.100115	5 t	-0.02118927
-1.577236	5 v	-0.1814201
-1.929419	5 z	-0.2213464
-2.15786	<s> #	0.1036663
-2.15786	<s> $	-0.256402
-2.496678	<s> 1	-0.1437467
-3.237041	<s> 3
-2.458889	<s> 5	-0.1427461
-1.782196	<s> @	-0.2044829
-2.936011	<s> D	-0.1113659
-2.215852	<s> E	0.1447479
-1.797708	<s> I	-0.2649025
-1.936011	<s> J	-0.538266
-2.259317	<s> Q	-0.1807205
-1.865973	<s> S	-0.3142525
-2.106707	<s> T	-0.2400678
-2.538071	<s> V	-0.01982601
-1.839101	<s> _	-0.2889964
-1.154255	<s> b	-0.5651635
-1.344946	<s> d	-0.7639256
-1.287651	<s> f	-0.5517006
-1.385782	<s> g	-0.5147093
-1.516881	<s> h	-0.03218472
-2.634981	<s> i
-2.259317	<s> j	0.07477215
-0.9381877	<s> k	-0.8424637
-1.508687	<s> l	-0.4525424
-1.241406	<s> m	-0.7990094
-1.789883	<s> n	-0.6826426
-1.074178	<s> p	-0.6675311
-1.529471	<s> r	-0.2686158
-0.7672188	<s> s	-0.8214859
-1.2221	<s> t	-0.8187689
-3.538071	<s> u
-1.692973	<s> v	-0.3974625
-1.711996	<s> w	0.142817
-2.538071	<s> z	-0.3001924
-1.711996	<s> {	0.1990212
-0.8273112	@ </s>
-2.60061	@ J
-0.7217053	@ R	0.07981563
-2.776701	@ S
-2.29958	@ T	-0.1058335
-2.232633	@ _	-0.3366703
-1.776701	@ b	-0.10673
-1.509529	@ d	-0.1094258
-2.232633	@ f
-2.174641	@ g	-0.142616
-2.475671	@ h	-0.03650606
-1.475671	@ k	-0.1654622
-1.158653	@ l	-0.1711707
-1.220399	@ m	0.001348853
-0.8152801	@ n	-0.2399716
-1.58637	@ p	0.07477352
-1.11869	@ r	0.02148294
-1.082096	@ s	-0.3082454
-1.337368	@ t	0.08110887
-2.174641	@ v	-0.1576079
-3.077731	@ w
-1.99855	@ z	0.09875748
-1.414973	D #
-0.7160034	D </s>
-0.4607309	D @	-0.472864
-1.113943	D E
-1.113943	D H	0.5642715
-1.414973	D I
-1.076388	E @	-0.4785713
-2.366423	E D	-0.2925968
-2.190332	E J	0.01941302
-2.667453	E N
-2.065393	E S	-0.1421067
-1.889302	E T	0.0130205
-1.889302	E _	-0.1148216
-1.822355	E b	-0.02286289
-1.463333	E d	-0.06148162
-1.889302	E f	-0.3002448
-2.667453	E g
-0.968483	E k	-0.4204234
-0.861273	E l	-0.1226842
-1.366423	E m	-0.1816249
-0.7132105	E n	-0.1834349
-1.62606	E p	-0.1913385
-1.305725	E r	-0.7211137
-1.004695	E s	-0.3505057
-1.123385	E t	-0.09835523
-1.588272	E v	-0.3335018
-2.366423	E z
-0.04139268	H </s>
-1.740363	H d
-1.740363	H t
-2.864511	I #
-3.165541	I $
-2.68842	I 1	-0.1983677
-1.961421	I 5	-0.1548221
-1.072119	I </s>
-1.097355	I @	-0.0897634
-2.262451	I D	-0.3631779
-2.38739	I E	-0.2162085
-2.38739	I J	-0.01401073
-1.522088	I N	-0.122426
-2.864511	I Q
-2.320443	I S	-0.1421067
-2.563481	I T	0.003311008
-2.864511	I Z	-0.3521825
-2.019413	I _	-0.05870566
-1.634062	I b	-0.07854342
-1.366201	I d	-0.2045394
-1.597339	I f	-0.3443203
-1.621473	I g	0.01502752
-3.165541	I h
-3.165541	I i
-1.152704	I k	-0.06221157
-1.136157	I l	-0.1422518
-1.267914	I m	-0.1115297
-0.8371615	I n	-0.08641559
-1.597339	I p	-0.202243
-2.019413	I r	-0.0002983809
-1.148508	I s	-0.236192
-0.9533535	I t	-0.4510589
-1.563481	I v	-0.4026863
-2.864511	I w
-1.647027	I z	-0.02083051
-2.211298	I {	-0.1326256
-1.132117	J #	-0.4251899
-1.78533	J 1
-2.08636	J 3
-1.78533	J 5
-0.3703565	J </s>
-1.18327	J @	-0.01332795
-1.308209	J E	-0.06511949
-0.9102685	J I	-0.04174109
-1.78533	J Q
-1.78533	J V
-1.78533	J i
-2.08636	J u
-1.241262	J {	-0.04139268
-0.8586708	N </s>
-1.812913	N @
-0.5824645	N g	-0.3536279
-0.2878686	N k	-0.4519522
-1.812913	N s	-0.3790594
-2.113943	N t
-0.01053799	P </s>
-2.465383	P j
-2.465383	P n
-2.465383	P t
-1.015713	Q I	-0.09833157
-1.993436	Q J	-0.4577082
-1.481553	Q N	0.3455518
-1.817345	Q S	-0.6861748
-2.118375	Q T	-0.0724097
-2.294466	Q _	-0.3205836
-1.340224	Q b	-0.162953
-1.481553	Q d	-0.1068726
-1.516315	Q f	-0.2228517
-1.641254	Q g	-0.1542141
-1.090346	Q k	-0.2687512
-1.015713	Q l	-0.1760399
-1.104135	Q m	-0.04844224
-0.9053001	Q n	-0.1216741
-1.365047	Q p	-0.2364149
-1.215285	Q r	-0.5164437
-1.133098	Q s	-0.03675503
-1.148338	Q t	-0.157048
-1.993436	Q v	-0.1133719
-1.993436	Q z	-0.1012065
-0.001587916	R </s>
-2.093422	S #
-1.792392	S $	-0.4586379
-1.6163	S 1	-0.5407904
-2.093422	S 3
-2.093422	S 5
-0.5136381	S </s>
-1.491362	S @	-0.269794
-1.491362	S E
-2.093422	S H
-1.139179	S I	-0.04958515
-2.093422	S P
-2.093422	S U
-1.394452	S V
-1.31527	S i	-0.3033747
-2.093422	S m
-2.093422	S p
-0.9794784	S r	-0.05021182
-1.792392	S u	-0.3997534
-1.052029	S {	-0.03312275
-1.897627	T #
-1.897627	T $
-1.897627	T 3
-0.5358993	T </s>
-1.420506	T @
-1.897627	T H
-0.8976271	T I	-0.1397147
-1.596597	T P	1.143164
-1.596597	T Q	-0.4439179
-1.596597	T V
-1.897627	T i
-0.6935071	T r	-0.1098004
-1.897627	T w
-1.897627	T {
-1.444565	U </s>
-0.7455952	U @	-0.3931412
-2.222717	U E
-1.620656	U I	-0.3711436
-1.523746	U J	-0.126715
-2.222717	U T
-2.222717	U _
-1.620656	U b	-0.09644026
-1.523746	U d	-0.01382606
-2.222717	U g
-1.444565	U k	-0.1749159
-0.9439629	U l	-0.2199948
-1.620656	U m	-0.0596797
-0.7603185	U n	-0.3513318
-2.222717	U p
-1.745595	U r
-1.444565	U s	-0.3759429
-1.076588	U t	-0.4809646
-1.319626	U z	-0.157455
-2.1959	V D	-0.2925968
-2.1959	V J	-0.2358595
-1.218176	V N	0.06796873
-1.59384	V S	-0.3639555
-1.651832	V _	-0.4158517
-1.29281	V b	-0.4639829
-1.542687	V d	-0.0946382
-1.135202	V f	-0.2875876
-1.417748	V g	-0.5896413
-1.241657	V k	-0.1449723
-1.019808	V l	-0.2465604
-0.7809263	V m	-0.4802706
-0.9406272	V n	-0.1195649
-2.1959	V p
-1.651832	V r	-0.200749
-1.065566	V s	-0.387117
-1.49693	V t	-0.1940516
-1.59384	V v	-0.1111505
-1.651832	V z	-0.2716939
-0.60206	Z 1	-0.4158516
-0.60206	Z </s>
-0.90309	Z @
-1.278754	_ #	-0.02988997
-1.880814	_ $	-0.4191293
-1.880814	_ 3
-1.704722	_ 5
-0.5190858	_ </s>
-0.9265711	_ @	-0.3887763
-1.102662	_ E	-0.05682293
-0.90309	_ I	-0.009014651
-1.482874	_ Q	-0.1600738
-1.403692	_ V	-0.2408592
-1.336746	_ i	-0.2184156
-1.482874	_ u	-0.04880991
-1.403692	_ {	-0.04898543
-1.339722	b #	0.08285862
-1.837047	b $	-0.1758398
-1.903994	b 1	-0.06567506
-1.727903	b 3	-0.09045281
-1.568202	b 5	0.01663613
-1.125843	b </s>
-1.048677	b @	0.00450176
-1.426873	b E	0.02821554
-1.048677	b I	-0.03921181
-0.9661418	b P	0.3650123
-1.536017	b Q	0.007071711
-2.080085	b U	-0.06013214
-1.381115	b V	0.02029121
-2.682145	b _
-1.682145	b i	-0.2105902
-1.837047	b j	-0.07695985
-1.113943	b l	-0.3218191
-2.682145	b n
-0.843296	b r	0.8511094
-2.381115	b s	-0.4425066
-1.682145	b u	-0.1710652
-2.682145	b z
-1.163631	b {	0.02636719
-1.39794	d #	-0.06753924
-1.61354	d $	-0.2065011
-1.680487	d 1	0.03273856
-2.282547	d 3
-1.583577	d 5	-0.05791211
-0.4500377	d </s>
-1.08757	d @	-0.2162448
-1.458638	d E	0.03732428
-2.060698	d H	0.2632414
-0.9888158	d I	0.1233595
-1.146884	d P	-0.002964497
-1.645725	d Q	-0.03770283
-2.458638	d U
-1.555548	d V	-0.01015484
-2.060698	d i	-0.02653006
-1.91457	d j	-0.1159839
-2.458638	d l
-2.759668	d m
-2.282547	d n	-0.197375
-1.116215	d r	0.1297745
-2.458638	d u
-2.458638	d w
-2.759668	d z
-1.759668	d {	-0.06379922
-1.308627	f #	-0.2895273
-1.539076	f $	-0.1139433
-1.937016	f 1	-0.08704627
-1.937016	f 3
-1.937016	f 5
-0.8763183	f </s>
-1.308627	f @	-0.04481235
-1.283804	f E	-0.1486936
-2.061955	f H	0.4393327
-0.9370161	f I	-0.04382497
-1.392948	f P	0.4441935
-1.425133	f Q	-0.1693335
-2.539076	f T
-2.539076	f U
-1.693978	f V	-0.09246137
-1.584834	f i	-0.0625277
-1.584834	f j	-0.01907387
-0.8858636	f l	-0.3069557
-1.033926	f r	0.04491216
-1.196653	f t	-0.3238412
-1.584834	f {	-0.06753726
-1.32351	g #	-0.09929585
-2.050509	g $
-2.2266	g 3
-1.272357	g 5	-0.3250486
-1.080472	g </s>
-0.8648721	g @	-0.09076631
-1.92557	g E	-0.1121435
-1.448449	g I	-0.119566
-0.9835619	g P	0.5292042
-1.573387	g Q	-0.08725035
-2.2266	g U
-1.486237	g V	-0.123669
-2.050509	g j	-0.2409227
-1.147419	g l	-0.1317078
-1.82866	g m	-0.720069
-1.749479	g n	-0.05221097
-0.7015551	g r	0.53401
-2.050509	g u	-0.1615142
-1.92557	g w	-0.2747703
-2.52763	g z
-1.297181	g {	-0.1113506
-0.6515453	h #	0.1712662
-1.414973	h $	-0.146128
-2.113943	h 1
-1.414973	h 3
-1.812913	h 5
-1.812913	h @	-0.4427524
-1.159701	h E	-0.07026963
-1.268845	h I	-0.06234563
-1.072551	h Q	-0.1153132
-2.113943	h U
-0.9378521	h V	-0.1287942
-1.812913	h i
-1.511883	h j	-0.3378327
-2.113943	h u
-0.7917241	h {	0.08552141
-2.103804	i 5
-1.062411	i </s>
-1.927712	i @	-0.1518653
-2.404834	i D
-1.802774	i J	-0.4577082
-2.404834	i Q
-1.705864	i S	-0.0876048
-2.404834	i T
-2.404834	i _
-1.626683	i b	-0.0533651
-1.258706	i d	-0.03551674
-2.404834	i f
-1.802774	i g	-0.0498619
-2.404834	i h
-2.404834	i j
-1.103804	i k	-0.3699911
-1.228742	i l	-0.3054345
-1.228742	i m	-0.342164
-0.761381	i n	-0.2970508
-1.501744	i p	-0.1917953
-1.258706	i s	-0.1495466
-1.103804	i t	-0.30103
-1.705864	i v	-0.1204614
-2.404834	i w
-1.103804	i z	-0.188613
-2.167317	j #
-2.167317	j $
-2.167317	j 3
-1.690196	j 5
-1.088136	j @	-0.1253017
-1.690196	j E	-0.1575402
-2.167317	j I
-0.7693774	j U	-0.4069479
-2.167317	j V
-2.167317	j i
-0.2482392	j u	0.07754165
-1.690196	j {
-1.459057	k #	0.1506104
-1.693141	k $	-0.01336396
-1.760087	k 1	-0.1177363
-1.973967	k 3	-0.002125993
-1.538239	k 5	-0.03906402
-0.7723217	k </s>
-0.9325744	k @	0.1373053
-1.869232	k E	-0.1684681
-1.402576	k I	-0.2879957
-1.496846	k P	0.08880591
-1.237208	k Q	0.08011055
-2.71433	k S
-2.71433	k U	-0.4612307
-1.583996	k V	-0.05401772
-2.71433	k d
-2.061117	k i	-0.06005308
-1.901416	k j	-0.2988085
-1.30779	k l	-0.3760285
-2.71433	k m
-2.4133	k n	-0.1111888
-1.06597	k r	-0.04530948
-1.202446	k s	-0.4365591
-1.402576	k t	-0.3376441
-1.973967	k u	0.01788563
-3.01536	k v
-1.237208	k w	0.1399676
-1.170262	k {	0.1760912
-1.166486	l #	-0.1053851
-1.972666	l $	-0.05912143
-1.557692	l 1	0.04562384
-2.194514	l 3	-0.1174147
-1.428598	l 5	-0.1331631
-0.7767659	l </s>
-0.9995378	l @	-0.04581892
-1.28247	l E	0.02314278
-0.8688619	l I	-0.006145
-2.273695	l J	-0.126715
-1.416363	l Q	-0.03536734
-2.671636	l S	-0.318198
-2.671636	l T	-0.3276822
-2.671636	l U	-0.3911254
-1.428598	l V	0.008927673
-2.370606	l _	-0.1444923
-2.495544	l b	-0.1811778
-1.592454	l d	-0.5801809
-2.018423	l f	-0.2485024
-2.495544	l g	-0.1581118
-1.525508	l i	0.0344851
-1.972666	l j	0.2887954
-1.893484	l k	-0.4279033
-2.194514	l m	-0.06845361
-2.671636	l n
-1.893484	l p	-0.134446
-2.972666	l r
-1.893484	l s	-0.04003912
-1.467516	l t	-0.3471063
-1.671636	l u	0.03288414
-2.069576	l v	-0.2742368
-1.121407	l {	0.01250559
-1.280654	m #	0.1738541
-1.991859	m $	-0.006733388
-1.757776	m 1	-0.0007137135
-2.359835	m 3
-1.606508	m 5	0.1970252
-0.743535	m </s>
-0.9024583	m @	0.1057929
-1.359836	m E	-0.1624937
-0.9918587	m I	-0.09439546
-2.234897	m P	0.9213148
-1.632837	m Q	-0.05500557
-2.836957	m S
-2.836957	m U
-1.305478	m V	-0.06089401
-1.224173	m b	-0.1962235
-2.535927	m d
-2.234897	m f
-1.836957	m i	-0.05373546
-1.836957	m j	-0.2018985
-2.836957	m k
-2.836957	m l
-2.359835	m n	-0.197375
-0.9075378	m p	-0.1836009
-2.836957	m r
-2.836957	m s
-2.836957	m t
-2.359835	m u
-2.234897	m z
-1.137987	m {	0.1198058
-1.647723	n #	0.09678325
-2.310481	n $	-0.05883936
-2.106361	n 1	-0.08044926
-1.687232	n 5	-0.2036207
-0.4896229	n </s>
-1.261263	n @	-0.1285548
-1.83336	n E	-0.1229495
-1.111824	n I	0.1779493
-1.667028	n J	-1.120466
-2.009451	n P	0.5788921
-1.895508	n Q	-0.02574119
-2.53233	n S
-2.106361	n T	-0.1929836
-2.708421	n U	-0.4612307
-2.055208	n V	-0.1247658
-1.62924	n _	-0.3219471
-0.9720244	n d	-0.4449739
-2.106361	n f	-0.2867393
-3.009451	n h
-2.310481	n i	-0.07352662
-1.708421	n j	-0.04353604
-2.53233	n k
-3.009451	n l
-1.238599	n s	-0.2742972
-0.9375689	n t	-0.08692151
-2.106361	n u	-0.09814391
-2.106361	n v	-0.0142731
-1.968058	n z	-0.06298389
-1.895508	n {	-0.08016948
-1.257805	p #	0.08868819
-1.883346	p $	-0.06305174
-1.661497	p 1	-0.1020372
-1.934498	p 3
-1.758407	p 5	0.06366906
-0.7768906	p </s>
-1.138618	p @	0.1374637
-1.257805	p E	0.1147847
-1.066736	p I	-0.03787583
-1.582316	p P	0.3415312
-1.257805	p Q	-0.06914577
-2.138618	p U	-0.2054183
-1.661497	p V	0.0005032122
-1.723645	p i	-0.1165421
-1.796196	p j	0.03218466
-2.536558	p k	-0.4595846
-1.066736	p l	-0.3334377
-2.837589	p m
-2.536558	p n	-0.4728509
-0.9344984	p r	0.1782677
-1.99249	p s	-0.20208
-1.934498	p t	0.01195094
-1.837588	p u	-0.0007564873
-1.130018	p {	-0.08322775
-0.919825	r #	-0.2374765
-1.764923	r $	-0.04726866
-1.287802	r 1	-0.1180993
-1.141674	r 5	0.2203996
-0.8691322	r @	0.0356372
-1.20862	r E	0.0397287
-0.6857417	r I	0.2382349
-1.216738	r Q	0.09509271
-2.162863	r U	-0.07125957
-1.250818	r V	-0.1265494
-1.233444	r i	-0.05001119
-2.941014	r j
-1.384712	r u	-0.03177661
-1.021936	r {	-0.1137249
-1.597483	s #	-0.158759
-2.243747	s $	-0.1560314
-2.185755	s 1	-0.09138925
-1.974901	s 3	-0.1291377
-1.942716	s 5	-0.03541663
-0.6909046	s </s>
-1.520643	s @	0.05050156
-1.597483	s E	-0.08073509
-2.134602	s H	0.04139268
-1.115717	s I	0.06819701
-1.787815	s P	0.7549834
-1.942716	s Q	-0.1904804
-3.088845	s U
-2.088845	s V	-0.1521269
-3.088845	s b
-2.611723	s f	-0.1684941
-1.858396	s i	-0.02438012
-2.486784	s j	0.06010738
-0.9185829	s k	-0.3334031
-1.381274	s l	-0.3829775
-1.810091	s m	-0.1603131
-1.597483	s n	-0.4646682
-1.134602	s p	0.1721416
-0.6943929	s t	0.04128659
-2.310693	s u
-1.641687	s w	0.3145324
-1.912753	s {	-0.06866676
-1.455932	t #	0.1999307
-2.037789	t $	-0.07517752
-1.848732	t 1	-0.08409674
-1.875061	t 3	-0.1522416
-1.632023	t 5	-0.04390141
-0.3640139	t </s>
-1.062148	t @	-0.006442845
-1.425969	t E	-0.1173289
-2	t H	-0.07255065
-1.19269	t I	0.3480058
-1.616783	t P	0.1431636
-1.933053	t Q	-0.01082856
-2.778151	t U	-0.3911254
-1.823909	t V	-0.09150214
-3.079181	t f
-1.647817	t i	-0.06773987
-1.965238	t j	-0.2988085
-3.079181	t k
-2.778151	t m	-0.419039
-3.079181	t n
-1.007299	t r	0.5840331
-2.079181	t s	-0.06377731
-2.079181	t u	-0.05360878
-1.875061	t w	-0.02161115
-1.455932	t {	-0.03895283
-2.378398	u #
-2.378398	u $
-0.7873333	u </s>
-1.901277	u @	-0.1906127
-2.378398	u D
-2.378398	u E
-1.679428	u I	-0.2282096
-2.077368	u J
-2.378398	u T
-2.378398	u Z
-1.679428	u _	-0.2114391
-1.475308	u b	-0.06406438
-1.174278	u d	-0.215764
-2.077368	u f
-1.776338	u g
-1.424155	u k	-0.1896641
-1.337005	u l	-0.3876438
-1.264455	u m	-0.1203153
-0.8870362	u n	-0.4465354
-1.147949	u p	-0.2088003
-1.337005	u s	-0.2320432
-1.123125	u t	-0.06220579
-1.600247	u v	-0.003491625
-1.424155	u z	-0.08387767
-1.327823	v #	-0.2349063
-2.068186	v $
-1.767156	v 1	-0.2397603
-1.223088	v 3	-0.1705304
-1.892095	v 5
-0.756432	v </s>
-0.9068179	v @	-0.009340018
-1.165096	v E	-0.1663314
-1.524118	v H	0.1383027
-0.7257632	v I	0.05039039
-1.138767	v P	0.3650123
-1.767156	v Q	-0.2569838
-2.369216	v U
-2.068186	v V	-0.4335099
-2.369216	v i
-2.068186	v j
-2.369216	v l
-1.892095	v r	-0.1215677
-1.255273	v {	-0.1289913
-0.9120448	w #	-0.2441352
-1.088136	w $	-0.06193244
-1.447158	w 1	-0.0134689
-1.389166	w 3	-0.08437407
-1.690196	w 5	-0.1101935
-1.991226	w @
-1.036984	w E	-0.1236633
-0.60206	w I	0.009901494
-0.7871061	w Q	-0.06618124
-1.991226	w U
-1.213075	w i	-0.04014739
-1.991226	w u
-1.447158	w {	-0.4268295
-1.760925	z #	-0.2099699
-1.937016	z 1
-1.635986	z 3
-1.937016	z 5
-0.4598949	z </s>
-1.124103	z @	-0.2149678
-1.334956	z E	0.004128993
-1.158865	z H	0.5642715
-1.007597	z I	-0.06475754
-1.158865	z P	0.5063415
-1.937016	z Q
-2.238046	z V
-2.238046	z _
-1.937016	z b
-1.635986	z i	-0.06351362
-1.760925	z l	-0.5389504
-1.459895	z m	-0.1971903
-2.238046	z u
-2.238046	z {
-2.79934	{ D
-1.954242	{ J	0.0718393
-1.127243	{ N	0.3385149
-1.653213	{ S	-0.3725557
-2.79934	{ Z
-2.322219	{ _	-0.1638568
-1.544068	{ b	-0.2821145
-1.595221	{ d	-0.08029875
-1.653213	{ f	-0.08400083
-1.401401	{ g	-0.1185286
-1.075065	{ k	-0.3160675
-1.043466	{ l	-0.1347214
-0.9420081	{ m	-0.3990764
-0.8170693	{ n	0.0258441
-1.437613	{ p	-0.2288617
-1.176091	{ r	-0.7320435
-1.118099	{ s	0.05228221
-1.155888	{ t	-0.09254521
-1.544068	{ v	-0.2571245
-1.757948	{ z	-0.2848326

\3-grams:
-0.4771213	<s> # I	-0.09377198
-1.217484	<s> # U
-1.217484	<s> # g
-1.217484	<s> # m
-1.041393	<s> # t	-0.4820847
-0.2632414	J # I	-0.02957442
-0.5642715	J # n	-0.1300784
-0.3424227	_ # I	-0.05156872
-0.7403627	_ # U
-0.4771213	b # I	-0.0582833
-0.8750613	b # U	-0.2479732
-1.176091	b # b
-1.176091	b # s
-0.2863067	d # I	-0.2230131
-0.9852768	d # R	0.6283889
-1.161368	d # U
-0.2218488	f # I	0.008376032
-0.69897	f # U	-0.1522883
-1.113943	g # R	0.7533277
-0.9378521	g # U
-1.113943	g # g
-1.113943	g # l
-1.113943	g # n
-0.4988405	h # I	0.0005833358
-1.010724	h # U
-1.311754	h # l
-1.311754	h # t
-0.9120448	k # I
-0.7359536	k # U	0.03857891
-1.389166	k # b
-1.088136	k # d	-0.0669468
-1.389166	k # p
-1.389166	k # r	-0.3679768
-1.213075	k # s
-1.213075	k # t
-0.3507178	l # I	0.0719175
-0.827839	l # U	0.01099537
-1.568202	l # d	-0.3679768
-1.39211	l # m
-1.09108	l # n	-0.07572071
-1.170262	l # s	-0.01806401
-0.5936268	m # I	-0.1766307
-1.10551	m # U	-0.1522883
-1.40654	m # _
-1.40654	m # h	-0.2552725
-1.230449	m # m
-1.230449	m # t
-0.4121805	n # I	0.005868934
-0.8893017	n # U	-0.09061071
-1.190332	n # n	-0.4101745
-0.5141048	p # I	-0.06976312
-0.9912261	p # U	0.03959717
-1.389166	p # d
-1.389166	p # k
-1.213075	p # l	-0.3233064
-1.088136	p # s
-1.213075	p # t
-0.336422	r # I	0.09457684
-0.6804866	r # U	0.1511007
-1.282547	r # f	0.1760913
-1.759668	r # g	-0.3606157
-1.759668	r # l	-0.4024876
-1.759668	r # m
-1.157608	r # n	-1.490116e-08
-1.361728	r # s	-0.1130395
-1.759668	r # t
-0.1702617	s # I	0.04943669
-1.267172	s # U
-0.5797836	t # I	0.03476205
-1.056905	t # R	0.4522977
-0.9777236	t # U	0.007299244
-1.454845	t # k
-1.454845	t # n
-1.454845	t # p
-1.454845	t # t
-0.243038	v # I	-0.1551933
-0.845098	v # s
-0.1836444	w # I	-0.1144119
-1.161368	w # n
-0.39794	z # R	0.7533277
-1.217484	<s> $ b
-0.615424	<s> $ d	-0.04473742
-0.916454	<s> $ g	0.008773908
-0.819544	<s> $ r	-0.01223447
-0.1760913	S $ </s>
-0.1760913	_ $ n
-0.5642715	b $ l
-0.7403627	b $ s	-0.4101745
-1	d $ </s>
-0.455932	d $ R	0.4393327
-1	d $ n
-0.90309	f $ l
-0.60206	f $ m
-0.4259687	h $ n
-1.217484	k $ R	0.8653015
-1.217484	k $ d
-0.916454	k $ n	-0.2867895
-0.916454	k $ p	0.05799194
-1.217484	k $ s
-0.90309	l $ R	0.8653015
-0.90309	l $ d
-0.90309	l $ n
-0.90309	l $ t
-0.8129134	m $ l
-0.6532125	n $ R	0.8653015
-0.8750613	p $ l
-0.69897	p $ t
-1.060698	r $ d	-0.3836996
-0.5835766	r $ l	-0.6560417
-1.060698	r $ n	-0.3659708
-0.5642715	s $ l	-0.5177391
-0.7403627	s $ r
-0.9294189	t $ R	0.8653015
-0.9294189	t $ l	-0.288065
-0.9294189	t $ m
-0.9294189	t $ n
-0.9294189	t $ t
-1.09691	w $ d
-1.09691	w $ f	-0.30103
-0.79588	w $ l	0.0429282
-0.9208187	w $ t
-0.9542425	<s> 1 g
-0.9542425	<s> 1 l
-0.7781513	<s> 1 p	-0.1760913
-0.39794	I 1 z
-0.1249387	S 1 </s>
-0.1760913	Z 1 </s>
-0.7403627	b 1 s
-1.041393	d 1 </s>
-1.041393	d 1 t	-0.3617278
-0.544068	f 1 n
-0.8129134	k 1 </s>
-1.113943	k 1 b
-1.113943	k 1 d	-0.2253093
-0.9378521	k 1 l	-0.1191864
-0.9378521	k 1 p
-1.113943	k 1 t
-0.9890046	l 1 </s>
-1.113943	l 1 d
-1.113943	l 1 m	0.09691
-1.290035	l 1 n
-0.9890046	l 1 t	-0.0280287
-1.290035	l 1 v	-0.2082759
-1.290035	l 1 z
-0.845098	m 1 n	0.1055102
-1.021189	m 1 t	-0.447158
-0.845098	n 1 b
-0.845098	n 1 d
-0.7596679	p 1 n	0.02632895
-0.7596679	p 1 s	0.0669468
-1.060698	p 1 t
-0.9107768	r 1 </s>
-0.9777236	r 1 d	-0.003460526
-1.454845	r 1 k	-0.1346986
-0.8016323	r 1 n	-0.288065
-1.454845	r 1 p	-0.4313638
-0.9107768	r 1 t	-0.20412
-1.278754	r 1 v	-0.3332147
-1.056905	r 1 z	-0.1375279
-0.845098	s 1 b
-0.845098	s 1 l	-0.2775489
-0.9378521	t 1 b	-0.0457575
-0.9378521	t 1 n	0.1055102
-1.113943	t 1 p
-0.8129134	t 1 t	0.1268732
-0.30103	v 1 </s>
-0.8129134	w 1 n
-0.90309	b 3 b
-0.90309	b 3 g
-0.9777236	k 3 m
-0.8016323	k 3 t
-0.69897	l 3 R	0.5228788
-0.69897	l 3 t	-0.2833012
-0.69897	s 3 k	-0.08398014
-0.8239087	s 3 t	-0.02802874
-1	s 3 v
-0.90309	t 3 R	0.39794
-1.079181	t 3 b	-0.2218488
-0.7781513	t 3 m	-0.09275404
-0.90309	t 3 n	-0.1079054
-0.69897	v 3 m	-0.09275404
-0.5228788	v 3 t	0.02996324
-0.6690068	w 3 l	-0.1346986
-1	<s> 5 m
-1	<s> 5 p
-0.8239087	<s> 5 v	-0.1079054
-0.2808266	I 5 </s>
-1.021189	I 5 t
-0.6766936	b 5 </s>
-0.8016323	b 5 l
-0.8016323	b 5 n
-0.3679768	d 5 </s>
-1.021189	d 5 t
-0.1962947	g 5 </s>
-1.041393	g 5 s
-0.4449366	k 5 </s>
-1.113943	k 5 k
-0.8920946	k 5 l	-0.1567861
-1.290035	k 5 m	-0.3853509
-1.290035	k 5 s	-0.3309932
-0.30103	l 5 </s>
-1.041393	l 5 k
-1.342423	l 5 n	-0.2082759
-1.342423	l 5 t
-1.130334	m 5 </s>
-0.8293038	m 5 l
-1.130334	m 5 n
-0.9542425	m 5 t
-0.3899711	n 5 </s>
-1.130334	n 5 d
-0.8293038	n 5 m
-1.130334	n 5 t
-0.8016323	p 5 </s>
-0.8016323	p 5 l
-0.9777236	p 5 z
-0.6423546	r 5 </s>
-1.596597	r 5 f
-1.420506	r 5 g	-0.154902
-1.596597	r 5 k
-0.9945371	r 5 l	-0.3786348
-1.420506	r 5 m
-1.119476	r 5 n	-0.1571234
-1.420506	r 5 s	-0.07572071
-0.9433846	r 5 t	0.05570017
-1.420506	r 5 v	-0.4423592
-0.69897	s 5 </s>
-1	s 5 b
-0.60206	s 5 l	-0.05987608
-0.4542584	t 5 </s>
-1.267172	t 5 k
-1.267172	t 5 n	-0.2082759
-1.09108	t 5 p
-1.267172	t 5 s
-1.09108	t 5 t
-0.544068	w 5 t
-0.1760913	1 @ n
-1.158363	<s> @ b
-1.380211	<s> @ d	-0.1638568
-1.158363	<s> @ k
-1.012234	<s> @ l	-0.2214053
-1.079181	<s> @ m
-1.380211	<s> @ n	-0.2153505
-0.9542425	<s> @ p	-0.03285852
-1.255273	<s> @ r
-0.90309	<s> @ s	-0.03856339
-1.556303	<s> @ v	-0.4045706
-0.1383027	D @ R	1.403692
-0.2218488	E @ R	0.910777
-1.352183	E @ n	-0.1888032
-0.8750613	E @ r	0.006608956
-1.352183	E @ t
-1.11059	I @ </s>
-0.4384919	I @ R	0.6766937
-1.41162	I @ d	0.01472326
-1.265492	I @ l	-0.07323191
-1.41162	I @ m	-0.1136902
-1.156347	I @ n	-0.08025488
-0.9344984	I @ r	-0.2912222
-1.2075	I @ s	-0.2179537
-1.2075	I @ t	-0.3915998
-0.6690068	J @ R	1.755875
-0.30103	S @ l	-0.2083463
-0.3802112	U @ R	1.153815
-1.255273	U @ d	-0.258278
-0.8573325	U @ l	-0.5503532
-1.255273	U @ n
-0.8573325	U @ r	-0.01538535
-0.2825466	_ @ n	-0.1771649
-1.060698	_ @ p
-1.060698	_ @ r
-1.122216	b @ </s>
-0.8791778	b @ R	1.454845
-1.122216	b @ l	-0.1326256
-0.8211859	b @ n	0.1286172
-1.247155	b @ r
-1.025306	b @ s	0.2116296
-0.8791778	b @ t	-0.0303826
-1.247155	b @ z
-0.69897	d @ </s>
-0.4850902	d @ R	1.079181
-1.439333	d @ k	-0.370227
-1.263241	d @ l
-1.041393	d @ m	-0.5238646
-1.041393	d @ n	-0.07965875
-1.439333	d @ r
-1.113943	f @ </s>
-0.7160034	f @ R	1.579784
-1.113943	f @ d
-1.113943	f @ g
-1.113943	f @ l
-1.138303	g @ </s>
-0.7861202	g @ R	1.357935
-1.263241	g @ l
-0.6611814	g @ n	-0.4987881
-1.041393	g @ r
-1.138303	g @ s	-0.2832204
-1.138303	g @ t	-0.0303826
-1.138303	g @ z	-0.07918125
-0.1760913	h @ r	-0.4374119
-0.39794	i @ </s>
-0.5563025	j @ </s>
-0.9542425	j @ d	-0.258278
-0.9542425	j @ n	-0.1888032
-1.022777	k @ </s>
-1.136721	k @ R	1.316542
-1.835691	k @ d
-1.358569	k @ l	-0.1497008
-1.057539	k @ m	-0.09953415
-0.5239367	k @ n	0.0256364
-1.835691	k @ p
-1.022777	k @ r	-0.02151352
-1.095328	k @ s	0.04921803
-1.437751	k @ t	0.1615029
-0.5939421	l @ </s>
-1.071063	l @ R	1.357935
-1.548185	l @ b
-1.548185	l @ d	-0.00300552
-1.548185	l @ k
-1.122216	l @ m	0.154902
-0.8791778	l @ n	0.03918689
-1.247155	l @ p	-0.3429945
-1.423246	l @ r
-1.122216	l @ s	0.1816664
-1.122216	l @ t	-0.1189975
-0.5936268	m @ </s>
-1.163502	m @ R	1.454845
-1.30963	m @ T	-0.1127043
-1.70757	m @ d
-1.70757	m @ h	-0.3309932
-1.40654	m @ k	-0.03923381
-1.70757	m @ l
-0.7533277	m @ n	-0.06177148
-1.10551	m @ r	0.05379581
-1.40654	m @ s
-1.531479	m @ t	0.04879862
-0.394711	n @ </s>
-1.525045	n @ R	1.880814
-1.525045	n @ d
-1.224015	n @ k	-0.3388186
-1.348954	n @ m	-0.5766554
-1.127105	n @ n	-0.2209879
-0.8718323	n @ s	-0.1485219
-1.197281	p @ </s>
-0.8962505	p @ R	1.403692
-1.498311	p @ l
-1.100371	p @ n	0.1791736
-1.322219	p @ p	-0.2025436
-0.845098	p @ r	-0.1332908
-0.7201593	p @ s	0.05672762
-1.498311	p @ t
-0.8966559	r @ </s>
-1.649984	r @ R	1.755875
-1.348954	r @ b	-0.1091445
-1.525045	r @ d	-0.1276446
-1.525045	r @ f
-1.649984	r @ g	-0.1079054
-1.047924	r @ k	0.01445106
-0.7846821	r @ l	-0.8361433
-1.282007	r @ m	0.05799197
-0.9229848	r @ n	-0.1260124
-1.649984	r @ p
-1.085712	r @ s	0.08475637
-1.428135	r @ t	0.0665274
-1.649984	r @ v	-0.1079054
-1.39794	s @ R	1.880814
-0.9208187	s @ k	-0.1221094
-1.09691	s @ l	-0.1848652
-1	s @ m	-0.1136902
-1.221849	s @ n
-1.09691	s @ p
-1.39794	s @ r
-1	s @ s	-0.3624017
-1.39794	s @ v
-0.9220578	t @ </s>
-0.5241178	t @ R	0.8016325
-1.767156	t @ b
-1.591065	t @ d	-0.00300552
-1.767156	t @ k
-1.369216	t @ l	-0.09564201
-1.026793	t @ m	-0.1928714
-0.9542425	t @ n	-0.2051937
-1.223088	t @ r	0.02120846
-1.113943	t @ s	-0.5842505
-0.39794	u @ l	-0.2493232
-0.9890046	v @ </s>
-0.6879746	v @ R	1.403692
-1.113943	v @ l
-0.9890046	v @ n	0.14219
-0.8920946	v @ t	0.0665274
-0.9542425	z @ </s>
-0.4771213	z @ m	-0.5908114
-0.7781513	z @ n	-0.313742
-0.544068	<s> D E
-0.1760913	E D @	0.08715019
-0.39794	I D </s>
-0.39794	I D @	-0.1346986
-0.1760913	V D @	0.08715019
-1.230449	<s> E @
-1.230449	<s> E f
-1.230449	<s> E k
-1.230449	<s> E l
-0.9294189	<s> E m
-1.230449	<s> E n
-0.4771213	I E n
-0.6532125	I E t	-0.2415928
-0.7403627	J E r
-0.9542425	_ E l	-0.4449366
-0.5563025	_ E n	-0.08761442
-0.9542425	_ E s	-0.1842091
-1.146128	b E @
-0.748188	b E l
-1.146128	b E n
-0.9700368	b E r
-0.7923917	d E l
-1.190332	d E m
-1.01424	d E n	-0.1770364
-1.190332	d E p
-1.190332	d E s
-0.7781513	f E @	0.09691003
-0.7781513	f E l
-0.90309	f E n	-0.1426675
-1.079181	f E s	-0.1842091
-0.7781513	f E t	-0.2473451
-0.544068	g E t
-0.8750613	h E k	-0.3295185
-0.8750613	h E l
-0.8750613	h E r	-0.2662679
-0.39794	j E l
-0.544068	k E @	0.3107898
-1.021189	k E J
-1.021189	k E l
-1.113943	l E @	0.19382
-1.335792	l E _	-0.0457575
-0.7715207	l E k	-0.09543529
-1.335792	l E m	-0.085629
-0.8129134	l E n	0.01836
-1.511883	l E p
-1.335792	l E s	0.07106337
-1.511883	l E t
-1.335792	l E v
-1.290035	m E T
-1.290035	m E d
-0.8920946	m E l	-0.1829307
-0.4449366	m E n	-0.2103852
-1.290035	m E s
-1.290035	m E t
-0.7596679	n E k	-0.02848849
-1.060698	n E s
-0.8846066	n E t	-0.3665316
-1.060698	n E v
-0.9120448	p E @	-0.02802873
-1.213075	p E d	-0.1346986
-0.9912261	p E k	0.03845826
-0.7359536	p E l	-0.006839417
-0.9912261	p E n	-0.02996324
-1.389166	p E r
-1.213075	p E s
-1.389166	p E t
-1.537819	r E S	-0.1760913
-1.537819	r E _
-1.060698	r E d	-0.08894108
-1.060698	r E k	0.06045257
-1.236789	r E l
-1.236789	r E m	-0.009908289
-1.139879	r E n	-0.02996324
-1.361728	r E p
-0.7596679	r E s	0.1051826
-1.139879	r E t	0.03140847
-1.124939	s E k	-0.07424602
-0.90309	s E l
-0.60206	s E n	-0.04622175
-1	s E s	-0.05532064
-1	s E t	0.08940041
-1.30103	s E v
-1.263241	t E @	-0.20412
-0.7861202	t E k	-0.1891428
-1.138303	t E l	-0.228009
-1.041393	t E m	-0.2752227
-0.6264194	t E n	0.07410172
-0.9622114	t E r	0.3638208
-1.439333	t E t
-0.8653014	v E k	-0.03078035
-0.5642715	v E n	-0.03839639
-0.7403627	v E s	0.1467841
-1.09691	w E @	-0.07918125
-0.49485	w E l	-0.02435934
-0.79588	w E n	-0.1197991
-0.845098	z E n
-0.845098	z E s
-0.1760913	D H </s>
-0.07918125	d H </s>
-0.1249387	f H </s>
-0.04575749	s H </s>
-0.03476211	t H </s>
-0.05799195	v H </s>
-0.1760913	z H </s>
-1.328088	# I </s>
-0.792975	# I @	0.1848357
-1.775246	# I D	-0.146128
-2.173186	# I _
-1.519974	# I b	-0.04020265
-1.298125	# I d	0.05631834
-1.519974	# I f	-0.3279021
-1.360273	# I k	-0.1142149
-1.112488	# I l	-0.1992709
-1.298125	# I m	-0.3245111
-0.9060146	# I n	-0.2268596
-1.696065	# I p	-0.1981707
-1.328088	# I s	-0.2840175
-1.059243	# I t	-0.02165908
-1.195463	# I v	-0.1461281
-1.629118	# I z	-0.3388186
-1.775246	# I {	-0.1249387
-1.537819	<s> I N	-0.3613259
-1.361728	<s> I d	-0.5653372
-1.139879	<s> I g	-0.06963594
-1.361728	<s> I k
-1.537819	<s> I l
-0.8846066	<s> I m	-0.1134042
-0.4586379	<s> I n	-0.366423
-1.079181	J I k
-1.079181	J I m	-0.37787
-0.90309	J I n
-1.079181	J I t	0.1056336
-1.079181	J I z
-0.7533277	Q I </s>
-0.8044802	Q I l	-0.3693952
-1.10551	Q I n	-0.1760913
-1.10551	Q I s	-0.174873
-1.40654	Q I t
-1.10551	Q I z	-0.1627273
-0.9294189	S I 5	-0.154902
-0.7269987	T I @
-0.90309	T I l	-0.3236378
-0.90309	T I s
-0.4771213	U I n	-0.2608524
-0.4771213	U I s
-1.176091	_ I b
-1.176091	_ I k
-0.8750613	_ I n	-0.4827012
-1.176091	_ I s
-1	_ I t	0.3609061
-0.9622114	b I </s>
-1.439333	b I @
-1.439333	b I d	-0.1393685
-1.263241	b I k	-0.1572495
-1.041393	b I l
-1.041393	b I n	0.1071244
-1.138303	b I s	-0.2383202
-0.69897	b I t	-0.05406725
-1.439333	b I z
-1.102662	d I 5	0.0669468
-1.181844	d I </s>
-1.278754	d I @
-1.403692	d I N	-0.1060534
-1.278754	d I g
-1.278754	d I k	-0.1281049
-1.278754	d I l	0.007355437
-1.579784	d I m
-1.278754	d I n
-0.9777236	d I s	0.001370743
-0.9777236	d I t	0.05987614
-1.579784	d I v
-1.423246	f I @
-1.423246	f I N	-0.1667513
-1.247155	f I d
-1.423246	f I k
-0.8211859	f I l	-0.05934606
-0.7242759	f I n	-0.1987045
-1.122216	f I s	-0.1274859
-1.122216	f I t	-0.1162152
-0.9542425	g I </s>
-0.7781513	g I n
-0.6532125	g I t	0.2817249
-0.8129134	h I b	-0.4271473
-1.230449	k I </s>
-1.40654	k I d
-1.40654	k I l
-0.7075702	k I n	-0.2108533
-1.40654	k I r
-0.4522977	k I t	0.0854302
-1.872156	l I 1	-0.2552725
-1.094005	l I </s>
-1.474216	l I @	-0.08134014
-1.328088	l I N	-0.1272427
-1.872156	l I _	-0.2900346
-1.696065	l I b
-1.872156	l I d	-0.1393685
-1.474216	l I f	-0.02338383
-0.9427373	l I k	-0.1422436
-1.328088	l I m	-0.02568749
-0.8307636	l I n	-0.1653518
-1.270096	l I p	-0.1146246
-1.173186	l I s	-0.0004053116
-0.9690663	l I t	0.2817249
-1.872156	l I v
-1.161368	m I </s>
-1.161368	m I @	-0.2291929
-1.462398	m I N	0.08852124
-1.638489	m I T
-1.240549	m I d	0.2286083
-1.638489	m I g	-0.4054281
-1.240549	m I l
-0.6607656	m I n	0.007033944
-0.9852768	m I s	0.1286037
-1.240549	m I t	0.2147781
-1.638489	m I {
-0.845098	n I </s>
-1.213075	n I @	0.03140847
-1.690196	n I b
-1.514105	n I f
-1.292256	n I g	-0.03745125
-0.9912261	n I k	-0.01730484
-1.690196	n I l
-1.292256	n I m	-0.103399
-1.690196	n I n	-0.2608524
-1.514105	n I p	0.005949318
-1.213075	n I s	-0.04748756
-0.9120448	n I t	-0.5311885
-1.690196	n I v	-0.4271473
-1.690196	n I z	-0.4357286
-1.164353	p I </s>
-1.261263	p I @	0.05064781
-1.562293	p I N	-0.1667513
-1.085172	p I d	-0.08821595
-0.9602329	p I k	-0.02935078
-1.018225	p I l
-1.261263	p I n	0.07014082
-1.562293	p I r
-1.164353	p I s	-0.07796302
-0.8219302	p I t	0.2517616
-1.562293	p I v
-1.826075	r I 5	-0.2798407
-0.9809768	r I </s>
-1.189253	r I @	0.05368486
-1.458098	r I N	-0.1272427
-1.826075	r I _	-0.4149734
-1.525045	r I b
-1.458098	r I d	0.1414581
-1.303196	r I f	0.1062501
-1.458098	r I g	-0.06424089
-1.047924	r I k	-0.006309479
-1.525045	r I l	-0.2724853
-1.099076	r I m	-0.004259706
-1.047924	r I n	-0.07542112
-1.525045	r I p	-0.02747443
-1.127105	r I s	-0.0510173
-1.348954	r I t	0.3139095
-1.604226	r I v	-0.1095639
-1.458098	r I z	-0.0201626
-1.564271	s I </s>
-1.138303	s I @	0.07366154
-1.740363	s I E	-0.30103
-1.439333	s I N	0.009340018
-1.439333	s I d	0.03672281
-1.564271	s I g	-0.1823402
-1.138303	s I k	-0.02935078
-1.263241	s I l	-0.04542583
-1.08715	s I m	-0.1802225
-0.8109438	s I n	0.142609
-1.740363	s I p
-1.564271	s I r
-1.138303	s I s	0.003665
-0.9274493	s I t	0.197404
-1.740363	s I v
-1.740363	s I z
-0.8728284	t I </s>
-1.685742	t I @	-0.2803454
-1.685742	t I J
-1.384712	t I N	-0.03033268
-1.685742	t I S
-1.685742	t I Z	0
-1.685742	t I b
-1.685742	t I d	-0.1393685
-1.384712	t I f	-0.1202938
-1.50965	t I g	-0.1823402
-1.141674	t I k	-0.02180535
-1.032529	t I l	-0.03501704
-1.20862	t I m
-1.083682	t I n	-0.1261538
-1.685742	t I p
-1.50965	t I s	-0.0956918
-1.685742	t I t
-1.685742	t I v	-0.2615215
-0.60206	u I d	-0.1393685
-0.60206	u I t	0.1056336
-1.293731	v I </s>
-1.469822	v I @	-0.2803454
-1.469822	v I E	-0.3679768
-1.071882	v I d	-0.030224
-1.168792	v I k	-0.1281049
-0.9927008	v I l	-0.1859248
-1.293731	v I n	-0.1928205
-1.293731	v I s
-0.770852	v I t	0.2817249
-1.342423	w I @
-1.518514	w I N
-1.342423	w I b
-1.342423	w I d	-0.2643072
-1.518514	w I f
-1.217484	w I g	-0.3706659
-1.041393	w I l	-0.1539893
-0.819544	w I n	0.06099747
-1.518514	w I p	-0.2493232
-1.342423	w I s	-0.0956918
-1.342423	w I t	0.3609061
-1.342423	w I z
-0.6532125	z I </s>
-1.130334	z I l	-0.431732
-1.130334	z I t	0.1056336
-0.39794	3 J @
-0.7269987	<s> J #	0
-1.380211	<s> J 1
-0.90309	<s> J E	0
-0.6398485	<s> J I	-0.01504792
-1.380211	<s> J Q
-1.380211	<s> J V
-0.8361432	<s> J {	0
-0.39794	E J </s>
-0.3521825	I J </s>
-0.09691001	Q J </s>
-0.243038	U J </s>
-0.1760913	V J </s>
-0.09691001	i J </s>
-0.243038	l J </s>
-0.01930515	n J </s>
-0.7403627	{ J </s>
-0.7403627	{ J @
-0.7403627	{ J I	-0.4393327
-0.7178553	I N </s>
-0.6307052	I N g	-0.1865567
-0.2918866	I N k	-0.04926836
-0.60206	Q N </s>
-0.7269987	Q N g
-0.4259687	Q N k
-0.7596679	V N g	0.104928
-0.2477845	V N k	-0.4357286
-1.122216	{ N </s>
-1.423246	{ N @
-0.5481846	{ N g	0.03529209
-0.3440646	{ N k	0.05270633
-0.1760913	T P </s>
-0.02482358	b P </s>
-0.01046543	d P </s>
-0.02996322	f P </s>
-0.03672281	g P </s>
-0.01296498	k P </s>
-0.09691001	m P </s>
-0.04139268	n P </s>
-0.0234811	p P </s>
-0.06366908	s P </s>
-0.01472326	t P </s>
-0.02482358	v P </s>
-0.03476211	z P </s>
-0.9700368	<s> Q b
-0.748188	<s> Q k	-0.06456234
-0.748188	<s> Q r	-0.01223446
-0.1760913	T Q s	-0.3402833
-0.4259687	_ Q I	-0.1863764
-1.113943	b Q l
-1.113943	b Q t
-1.041393	d Q k
-0.8653014	d Q l
-1.041393	d Q m	-0.4325391
-0.9777236	f Q I
-0.9777236	f Q l
-0.6766936	f Q n	-0.03803386
-0.8016323	f Q r	-0.02996324
-0.8750613	g Q I
-0.8750613	g Q b
-0.8750613	g Q n
-0.9542425	h Q b
-0.7781513	h Q l
-0.9542425	h Q r
-1.176091	k Q I
-1.273001	k Q N	-0.09691
-1.574031	k Q f
-1.176091	k Q k	-0.02783954
-1.09691	k Q l	-0.112605
-0.8750613	k Q m	-0.1865567
-0.7611179	k Q n	0.07296911
-1.39794	k Q p
-1.574031	k Q r
-1.39794	k Q s	-0.1008051
-1.39794	k Q t
-1.0086	l Q I	-0.2836559
-1.230449	l Q S	0.243038
-1.40654	l Q b	-0.3409015
-1.230449	l Q g	-0.4101745
-1.230449	l Q n	-0.06378061
-1.230449	l Q p	-0.3864602
-1.40654	l Q r
-1.230449	l Q s	-0.0850108
-0.9294189	l Q t	-0.2243234
-1.113943	m Q I
-0.9378521	m Q d
-1.113943	m Q k
-1.113943	m Q r
-1.113943	m Q s
-1.060698	n Q I
-1.060698	n Q b
-1.060698	n Q s	-0.3560776
-1.088136	p Q I	-0.1106557
-1.389166	p Q k	-0.3828513
-1.088136	p Q l	-0.08062649
-0.9912261	p Q m	-0.06845738
-0.6901961	p Q n	0.119574
-1.213075	p Q p
-1.088136	p Q s	-0.02508435
-1.213075	p Q t	-0.0202034
-1.544068	r Q I
-1.243038	r Q N	-0.1760913
-1.544068	r Q T
-1.243038	r Q f	0.005139619
-1.066947	r Q k	-0.1004266
-1.544068	r Q l	-0.3344538
-1	r Q m	0.02171926
-1.146128	r Q n	-0.001050293
-1.243038	r Q p	-0.4833702
-1.146128	r Q s	-0.06728202
-1.066947	r Q t	0.04346572
-1.021189	s Q f
-0.544068	s Q l
-1.021189	s Q r
-1.09691	t Q k
-1.09691	t Q m
-1.09691	t Q r
-0.30103	v Q I	-0.1375279
-1.342423	w Q S	0.3679768
-1.041393	w Q b	-0.2382391
-1.041393	w Q d	-0.09497552
-1.342423	w Q f
-0.9444827	w Q l	-0.06145248
-1.342423	w Q m
-1.166331	w Q n
-1.166331	w Q r	-0.4101745
-1.342423	w Q s
-1.166331	w Q t	-0.0202034
-0.02632894	# R </s>
-0.02020339	$ R </s>
-0.04575749	3 R </s>
-0.00190899	@ R </s>
-1.469822	<s> S @	-0.1760913
-1.168792	<s> S E
-0.925754	<s> S I
-1.071882	<s> S V
-0.6916708	<s> S r	-0.0334238
-0.7294593	<s> S {	0
-0.30103	E S </s>
-0.30103	I S </s>
-0.06694679	Q S </s>
-0.154902	V S </s>
-0.6532125	i S i	-0.30103
-0.1760913	l S </s>
-0.1512677	{ S </s>
-0.1760913	5 T </s>
-0.845098	<s> T I	-0.01896785
-1.243038	<s> T V
-0.3679768	<s> T r	-0.02645233
-0.3521825	@ T </s>
-0.69897	E T </s>
-0.69897	E T I	-0.4191293
-0.544068	I T </s>
-0.39794	Q T </s>
-0.1760913	l T </s>
-0.2632414	n T </s>
-1.221849	# U </s>
-1	# U @	-0.1597008
-1.30103	# U J	0
-1.39794	# U d	-0.09691
-1.30103	# U l	-0.6812413
-0.537602	# U n	0
-1.221849	# U s	0
-0.9208187	# U t	-0.3869446
-1.09691	# U z	0
-0.544068	b U @
-0.5371192	j U @	-0.1249387
-1.01424	j U b	-0.07572071
-0.5371192	j U l	-0.3967804
-1.190332	j U m
-0.1760913	k U k
-0.1760913	l U @
-0.1760913	n U k	-0.2218488
-0.60206	p U l
-0.60206	p U t
-0.7403627	r U k	-0.2218488
-0.1760913	t U @
-0.7533277	<s> V l
-0.9294189	<s> V m	-0.3424227
-0.6532125	_ V N
-0.4771213	_ V m	-0.08715019
-1.01424	b V N	0.1398791
-1.190332	b V b	-0.2552725
-1.190332	b V f
-1.01424	b V k
-1.190332	b V l
-1.190332	b V n
-1.190332	b V s
-0.9208187	d V b	-0.09691003
-0.9208187	d V l
-0.9208187	d V m
-1.09691	d V n
-0.7781513	f V N
-0.7781513	f V n
-0.6283889	g V l
-0.9294189	g V n
-0.9294189	g V s	-0.2730013
-0.7403627	h V m	-0.01142947
-0.8653014	h V n
-1.041393	h V r	-0.1760913
-0.8653014	h V s	-0.1480626
-1.290035	k V d
-1.290035	k V f
-0.7459666	k V l	-0.03014682
-1.113943	k V m	-0.1512677
-1.113943	k V s
-1.290035	k V t
-1.113943	k V v
-1.088136	l V S	-0.1760913
-1.389166	l V _
-1.213075	l V f	-0.4471581
-1.389166	l V g	-0.2552725
-1.213075	l V k
-0.7871061	l V m	0.1113659
-1.213075	l V n	-0.1706962
-1.389166	l V s
-1.389166	l V t
-1.389166	l V v
-1.079181	m V N	0.2155998
-1.380211	m V _
-1.20412	m V f
-1.20412	m V g
-1.079181	m V l
-1.20412	m V n
-0.90309	m V s	-0.02312383
-1.380211	m V t
-1.380211	m V z
-0.69897	n V f	-0.0669468
-0.8750613	n V g
-1.060698	p V N	-0.1153934
-1.060698	p V l
-1.060698	p V m	-0.3324385
-0.7596679	p V n
-1.060698	p V s
-1.31527	r V S	-0.07918131
-1.01424	r V b	0.1037494
-1.190332	r V f	-0.146128
-1.31527	r V g
-1.491362	r V k
-0.6462637	r V m	-0.03342378
-0.9472936	r V n	-0.1415078
-1.093422	r V s	0.0949755
-0.69897	s V k
-0.69897	s V m	-0.1918855
-0.8750613	s V n	-0.3679768
-1.130334	t V b
-1.130334	t V d
-0.7323937	t V m	-0.06942141
-0.8293038	t V n	-0.03698356
-0.1760913	v V l
-0.1760913	I Z 1	0
-0.243038	# _ @	0.1742071
-0.39794	1 _ </s>
-0.60206	3 _ </s>
-0.60206	3 _ @	-0.1567861
-1.093422	<s> _ #	-0.1047354
-1.491362	<s> _ $	0
-1.491362	<s> _ 3
-1.491362	<s> _ @	-0.4376127
-0.8893017	<s> _ E	0.003026456
-0.9472936	<s> _ I
-1.093422	<s> _ Q	0
-1.01424	<s> _ V	0
-1.31527	<s> _ i	-0.30103
-1.190332	<s> _ u
-1.093422	<s> _ {
-0.69897	@ _ #
-0.39794	@ _ E	-0.004798889
-0.4771213	E _ </s>
-0.6532125	E _ @
-0.455932	I _ </s>
-0.8239087	I _ I	-0.1760913
-0.1760913	Q _ </s>
-0.4771213	V _ </s>
-0.3521825	V _ @	-0.3786349
-0.30103	l _ </s>
-0.1836444	n _ </s>
-1.161368	n _ @	-0.1567861
-0.243038	u _ </s>
-0.39794	{ _ I
-0.7781513	# b I
-0.7781513	# b P	0.7781513
-0.544068	$ b @
-0.7781513	1 b @	-0.540542
-0.4771213	1 b P	0.4101745
-0.9542425	1 b i	-0.3802113
-0.3521825	3 b @	-0.332629
-0.845098	5 b </s>
-0.845098	5 b I	-0.4269547
-1.182851	<s> b #	-0.007825345
-1.635149	<s> b $	0.04139267
-1.71433	<s> b 1	-0.02199431
-1.51021	<s> b 3	-0.00415596
-1.568202	<s> b 5	-0.09843116
-1.4133	<s> b @	-0.0502411
-1.299356	<s> b E	-0.05799194
-1.182851	<s> b I	-0.128869
-1.371907	<s> b Q	-0.02435935
-1.936179	<s> b U
-1.267172	<s> b V	-0.0884219
-1.635149	<s> b i	0.0475484
-2.11227	<s> b j	-0.2218488
-0.8818209	<s> b l	-0.0405519
-0.6424478	<s> b r	-0.06845737
-2.11227	<s> b u
-0.9661418	<s> b {	-0.009883195
-1	@ b </s>
-1.176091	@ b I
-1.176091	@ b P	0.7781513
-1.176091	@ b V
-0.8750613	@ b u	0.02996321
-1	@ b {
-0.8129134	E b P	0.7781513
-0.9637879	I b </s>
-0.8846066	I b @	-0.04411554
-1.361728	I b E
-0.9637879	I b I	-0.1627273
-0.8846066	I b P	0.4101745
-1.361728	I b j
-1.185637	I b r	-0.1888485
-0.5698753	Q b </s>
-1.113943	Q b I
-0.8129134	Q b P	0.5563025
-0.544068	U b P	0.7781513
-0.39794	V b </s>
-1	V b I
-0.60206	V b P	0.8872957
-0.7403627	i b </s>
-0.39794	l b @	-0.4156032
-1.113943	m b 5	-0.1983676
-0.9378521	m b @	-0.1208222
-1.414973	m b I	-0.3802113
-0.4855544	m b P	0
-1.113943	m b r	-0.1131278
-1.414973	m b u
-1.414973	m b {
-0.6690068	u b I
-0.5351132	{ b </s>
-0.90309	{ b @
-0.90309	{ b I	-0.1249387
-0.90309	{ b P	0.6532125
-0.6532125	# d </s>
-0.7781513	# d @	-0.1249387
-0.9542425	# d H	0.30103
-0.7132105	$ d </s>
-1.190332	$ d @
-0.8893017	$ d I	-0.09782337
-1.09691	1 d 5	-0.2340832
-0.3565473	1 d </s>
-0.9208187	1 d I
-0.8129134	3 d @
-0.6368221	3 d P	1.021189
-0.8129134	5 d #
-0.8129134	5 d </s>
-0.5118834	5 d @	-0.20412
-1.00508	<s> d #	-0.05611596
-1.633469	<s> d $
-1.332438	<s> d 1	-0.02075522
-1.934498	<s> d 3
-1.758407	<s> d 5
-1.059437	<s> d E	0.001651302
-0.8738006	<s> d I	-0.04139268
-1.194136	<s> d Q	-0.0206518
-1.156347	<s> d V	-0.01959555
-1.758407	<s> d i
-1.457377	<s> d j	-0.3679768
-0.6673267	<s> d r	-0.0484634
-1.934498	<s> d u
-1.934498	<s> d w
-1.235528	<s> d {	0
-1.380211	@ d #	-0.1608513
-0.90309	@ d $	-0.2388821
-0.4024876	@ d </s>
-1.380211	@ d I
-1.380211	@ d Q
-0.4973246	E d </s>
-0.7403627	E d I	-0.09782337
-1.041393	E d P	1.146128
-0.2671717	I d </s>
-1.568202	I d @
-1.09108	I d I	-0.1314209
-0.9661418	I d P	0.6690068
-0.7781513	Q d </s>
-0.4771213	Q d P	0.7781513
-0.9542425	Q d r
-0.4259687	U d </s>
-0.6368221	V d </s>
-0.5118834	V d P	0.9242793
-0.39794	i d </s>
-1	i d I
-0.1303338	l d </s>
-0.9542425	l d @	-0.0496878
-1.774517	n d $
-1.598426	n d 5	0.02118929
-0.2902171	n d </s>
-0.7745169	n d @	0.149298
-1.774517	n d E
-1.121304	n d I	-0.1910684
-1.121304	n d P	0.6232493
-1.021189	u d 5	-0.2340832
-0.3679768	u d </s>
-0.845098	u d P	1.021189
-0.4973246	{ d </s>
-0.7403627	{ d @	-0.4179998
-1.041393	{ d P	1.146128
-0.4771213	# f </s>
-0.30103	# f t	-0.2752227
-0.4771213	$ f </s>
-0.4771213	$ f I
-1.173858	<s> f #	0.09691
-1.384712	<s> f $	-0.006733403
-1.810681	<s> f 1
-1.810681	<s> f 3
-1.986772	<s> f 5
-1.810681	<s> f @
-1.173858	<s> f E	0.0503051
-1.009048	<s> f I	0.03454652
-1.20862	<s> f Q	0.02348113
-1.442704	<s> f V	0
-1.384712	<s> f i	-0.01142947
-1.442704	<s> f j	0.07918125
-0.6345892	<s> f l	0
-0.8728284	<s> f r	-0.01974407
-1.384712	<s> f {	-0.00415596
-0.6532125	E f @
-0.4771213	E f t	-0.03218472
-0.4679779	I f </s>
-1.371068	I f @
-1.194977	I f H	0
-1.194977	I f P	0.5740313
-0.7690079	I f t	0.04699659
-0.7533277	Q f </s>
-0.5314789	Q f I	-0.01833707
-0.9294189	Q f t	0.09275404
-0.5228788	V f </s>
-1	V f I	-0.1310413
-0.6320232	V f P	0.2730013
-0.4149733	l f </s>
-0.8129134	l f @
-0.7781513	n f #
-0.60206	n f E
-0.7781513	n f r
-0.39794	s f I
-0.8653014	{ f </s>
-1.041393	{ f @
-1.041393	{ f I
-0.8653014	{ f P	0.5740313
-0.6283889	# g 5	-0.2596373
-0.9294189	# g I
-0.9294189	# g Q
-0.5228788	$ g @	-0.4951658
-0.6368221	1 g 5	-0.1627273
-0.8129134	1 g @
-0.544068	3 g P	0.6139593
-0.544068	5 g @
-0.845098	5 g r
-1.113943	<s> g #	-0.05086689
-1.892095	<s> g $
-1.892095	<s> g 3
-1.892095	<s> g 5
-1.414973	<s> g @	-0.2930611
-1.716003	<s> g E
-1.494155	<s> g I
-1.414973	<s> g Q	-0.02500227
-1.892095	<s> g U
-1.238882	<s> g V	-0.01819301
-0.8709053	<s> g l	-0.009441555
-0.4527619	<s> g r	-0.01762599
-0.9890046	<s> g {	-0.02322982
-0.6368221	@ g @	-0.1149545
-0.8129134	@ g u	-0.2552725
-1.361728	I g #
-1.361728	I g 5	-0.03778857
-0.8846066	I g </s>
-0.8176598	I g @	-0.05435763
-1.060698	I g P	0.3921105
-1.361728	I g l
-1.060698	I g m	0.07918125
-1.060698	I g n
-1.361728	I g r	-0.4301247
-0.9138138	N g 5	-0.3388186
-0.9138138	N g @
-0.3575113	N g P	0.2671718
-1.311754	N g r
-1.311754	N g w	-0.30103
-0.447158	Q g </s>
-0.39794	V g </s>
-0.69897	V g I	-0.1127043
-0.69897	V g P	0.4890205
-0.544068	i g r	-0.3843672
-0.39794	l g @
-0.615424	{ g </s>
-0.615424	{ g @	-0.1169698
-1.041393	{ g P	0.4890205
-1.217484	{ g r
-0.39794	# h @	0
-0.6605736	<s> h #	-0.01908693
-1.473487	<s> h $	-0.09691
-1.376577	<s> h 3
-1.774517	<s> h 5
-1.121304	<s> h E	0
-1.297396	<s> h I
-1.075547	<s> h Q	0.02482358
-0.8994557	<s> h V	0
-1.774517	<s> h i
-1.598426	<s> h j	0.09691
-0.7745169	<s> h {	-0.01395442
-0.544068	@ h #
-0.4771213	S i </s>
-0.6532125	S i S
-0.30103	_ i n	0.1679734
-0.5740313	b i s	-0.1014576
-0.69897	b i z	0.1517319
-0.6532125	d i n
-0.8750613	f i n
-0.8750613	f i s
-0.8750613	f i t
-0.8750613	k i m
-0.8750613	k i n
-0.8750613	k i t	-0.1760913
-1.311754	l i J	0.2218488
-1.135663	l i d	0
-1.135663	l i k	-0.2455127
-1.311754	l i m
-1.010724	l i n	-0.02391213
-1.311754	l i s
-0.9138138	l i t	-0.0669468
-1.311754	l i z	-0.1035406
-0.9294189	m i g
-0.9294189	m i n
-0.9294189	m i t
-0.6532125	n i k	-0.1205739
-1.021189	p i </s>
-1.021189	p i @
-1.021189	p i l	-0.2552725
-1.021189	p i t
-1.021189	p i z	-0.1035406
-0.9744459	r i </s>
-1.518514	r i J	0.2218488
-1.120574	r i k	-0.01142946
-1.041393	r i m	-0.5663444
-0.8653014	r i n	-0.338306
-1.120574	r i s	-0.006482139
-1.217484	r i t	-0.39794
-1.041393	r i z	-0.05238807
-1.113943	s i </s>
-0.9378521	s i d	0
-0.9378521	s i k	-0.1856366
-1.113943	s i l
-1.113943	s i m
-1.113943	s i n
-1.102662	t i </s>
-1.278754	t i k	-0.1205739
-1.278754	t i l
-0.5797836	t i n	-0.1378555
-1.102662	t i p
-1.278754	t i z
-1.021189	w i k	-0.1205739
-1.021189	w i l
-1.021189	w i z
-0.544068	z i n	-0.2000034
-0.9542425	<s> j 5
-0.9542425	<s> j E	0
-0.5862657	<s> j u	-0.08482151
-1.130334	<s> j {
-0.4771213	b j U	-0.07290976
-0.3521825	b j u
-0.1760913	d j u	-0.06082124
-0.2340832	f j u
-0.1249387	g j u	-0.1527678
-0.09691001	h j u	-0.1106557
-0.4771213	k j U	-0.05518098
-0.2730013	k j u
-0.6690068	l j @
-0.6690068	l j U	-0.1776451
-0.6690068	l j u	-0.1527678
-0.60206	m j U	-0.453121
-0.2340832	m j u	-0.1840602
-0.6197888	n j @
-0.3565473	n j u	-0.05958568
-0.845098	p j U	-0.3281823
-0.243038	p j u	-0.08201055
-0.30103	s j u
-0.5740313	t j U	0.002810955
-0.2218488	t j u	-0.05083701
-0.60206	# k </s>
-0.2632414	1 k </s>
-0.8750613	3 k </s>
-0.8750613	3 k @
-0.8750613	3 k I
-0.9378521	5 k 5	-0.02872416
-0.7160034	5 k </s>
-0.5698753	5 k @	-0.1909788
-1.258408	<s> k #	-0.07819527
-1.474008	<s> k $	-0.02885048
-1.665894	<s> k 1	-0.0621479
-1.775038	<s> k 3	0.002082951
-1.620136	<s> k 5	-0.1044171
-0.856708	<s> k @	-0.2120423
-1.717046	<s> k E	0.04139269
-1.717046	<s> k I	-0.02962248
-0.92994	<s> k Q	-0.02573699
-2.319106	<s> k U	0
-1.474008	<s> k V	0.02632894
-2.319106	<s> k i
-1.921166	<s> k j	0.3309932
-0.9866676	<s> k l	-0.02879423
-0.8277444	<s> k r	0.1055102
-1.157738	<s> k w	0.008233368
-0.8958602	<s> k {	0.006434083
-1.439333	@ k $
-0.6611814	@ k </s>
-1.263241	@ k P	0.9294189
-1.263241	@ k Q
-1.439333	@ k i
-1.439333	@ k j	-0.1461281
-1.138303	@ k s
-1.263241	@ k u	-0.1472151
-1.263241	@ k {	-0.1497623
-1.293731	E k </s>
-1.293731	E k @	-0.06739941
-1.469822	E k P	1.054358
-0.4486327	E k s	-0.1027396
-0.5404031	E k t	-0.06826484
-1.612784	I k 1	-0.5295094
-1.788875	I k 5
-0.6749318	I k </s>
-0.8594562	I k @	-0.03416947
-1.244807	I k I	0.08260092
-1.089905	I k P	0.4900862
-1.788875	I k Q
-1.788875	I k j
-1.612784	I k l
-1.788875	I k n
-1.010724	I k s	0.03308851
-1.390935	I k t	0.02536747
-1.788875	I k u
-1.612784	I k w	-0.4320429
-1.788875	I k {
-1.585461	N k 5	-0.2839967
-0.2632414	N k </s>
-1.284431	N k @	-0.1132112
-1.585461	N k I
-1.041393	N k P	0.6283889
-1.585461	N k l
-1.409369	N k s	-0.2099496
-1.585461	N k t
-1.585461	N k w	-0.3071042
-1.311754	Q k 5	-0.2839967
-0.7096938	Q k </s>
-0.8346326	Q k @	-0.0677009
-1.311754	Q k I	-0.288065
-0.7676858	Q k s	0.1490724
-1.010724	Q k t
-0.3521825	U k </s>
-1.113943	V k 5
-1.113943	V k </s>
-0.9378521	V k @	-0.1785499
-0.7160034	V k P	0.7533276
-0.9378521	V k s
-0.251812	i k </s>
-1.09691	i k @	-0.3226719
-1.09691	i k w
-0.3309932	l k </s>
-0.5740313	l k @
-0.1760913	p k I	-0.3823349
-1.217484	s k #	-0.09370749
-1.615424	s k $
-1.518514	s k 1	-0.07438237
-1.740363	s k 3
-1.518514	s k 5	-0.01099539
-0.8372727	s k </s>
-1.372386	s k @	-0.2093062
-1.439333	s k E	-0.008773908
-1.176091	s k I	0.1153934
-1.615424	s k Q
-1.263241	s k V	-0.0621479
-1.740363	s k i	-0.1597009
-1.916454	s k j	-0.1461281
-0.916454	s k r	-0.1019895
-1.615424	s k u
-0.9387304	s k w	-0.003047645
-1.138303	s k {	-0.08609325
-0.5118834	u k </s>
-0.6368221	u k @
-1.511883	{ k 5	-0.2839967
-0.7337321	{ k </s>
-1.511883	{ k @
-1.210853	{ k I	-0.1119737
-1.511883	{ k P	1.054358
-1.511883	{ k m
-0.6667853	{ k s	-0.08137649
-0.7715207	{ k t	-0.05381376
-0.8016323	# l </s>
-0.3245111	# l @	-0.189008
-0.6766936	# l I	-0.09351571
-0.4522977	$ l </s>
-1.230449	$ l d	0.1091445
-0.9294189	$ l s	-0.03698356
-0.7533277	$ l t	-0.318289
-0.4336556	1 l </s>
-0.6766936	1 l I	-0.1313043
-0.7403627	3 l </s>
-1.361728	5 l 5	-0.1760913
-0.5488145	5 l </s>
-0.9637879	5 l @	-0.1208222
-1.361728	5 l E
-1.185637	5 l I
-0.7596679	5 l d	-0.3679768
-1.060698	5 l t	-0.172161
-0.7605661	<s> l #	-0.1419156
-1.480725	<s> l 1	-0.1113659
-1.480725	<s> l 5	-0.2596373
-1.383815	<s> l @
-0.9366573	<s> l E	0.03990173
-0.6848454	<s> l I	-0.01480424
-1.605664	<s> l Q
-1.781755	<s> l U	0
-1.605664	<s> l V
-1.383815	<s> l i
-1.605664	<s> l u
-0.8786654	<s> l {	0.0484418
-1.146128	@ l #	0.0601532
-1.690196	@ l 5	-0.1760913
-0.3891661	@ l </s>
-1.213075	@ l @	-0.1275937
-1.514105	@ l E
-1.088136	@ l I	-0.1960296
-1.514105	@ l Q
-1.690196	@ l V	-0.399709
-1.690196	@ l d	0.1091445
-1.514105	@ l i	-0.1772666
-1.514105	@ l u
-1.322219	E l 5	-0.39794
-0.8103359	E l </s>
-1.146128	E l @	-0.04780123
-1.079181	E l I	-0.1545131
-1.623249	E l J	-0.1091445
-1.447158	E l d	-0.1706962
-1.447158	E l f	-0.01099539
-1.447158	E l m	-0.0669468
-1.322219	E l p	-0.4850902
-1.079181	E l t	0.01189923
-1.447158	E l v	-0.1346986
-1.816241	I l 1
-1.64015	I l 5	-0.30103
-0.5262067	I l </s>
-1.03809	I l @	-0.008117884
-1.418301	I l E
-1.003328	I l I	-0.09199452
-1.816241	I l J
-1.515211	I l d	0.2852358
-1.816241	I l j
-1.64015	I l k	-0.3290587
-1.163029	I l t	-0.03746241
-1.221849	Q l 5	-0.30103
-1.09691	Q l </s>
-0.552842	Q l @	0.02170175
-0.8538719	Q l I	-0.01993833
-1.39794	Q l f
-1.39794	Q l j	-0.3723859
-0.69897	U l </s>
-0.49485	U l @	-0.8265638
-0.9208187	U l I	-0.5527254
-1.156347	V l I
-1.332438	V l _	-0.1760913
-1.031408	V l k	-0.0280287
-1.031408	V l p	0.06775178
-1.031408	V l s	-0.03698356
-0.9344984	V l t	0.3226891
-1.332438	V l v	-0.3899711
-0.9731278	b l #	0.1473034
-1.194977	b l 1
-1.070038	b l E	-0.07357737
-0.9731278	b l I
-0.9731278	b l Q
-1.070038	b l V
-0.9731278	b l i	-0.07614422
-1.070038	b l {
-1.056905	f l #	0.09108049
-1.278754	f l $
-1.278754	f l 1
-1.153815	f l E
-1.278754	f l I
-1.278754	f l Q
-0.9777236	f l V
-1.153815	f l u
-0.7144822	f l {	-0.05753261
-1.066947	g l #
-1.066947	g l E
-1.066947	g l I
-1.066947	g l V
-1.243038	g l i
-1.066947	g l u
-1.066947	g l {
-0.39794	i l </s>
-1	i l @
-0.8239087	i l d	-0.01579428
-0.9472936	k l #	-0.05158699
-1.491362	k l 1
-1.190332	k l 5	-0.1259247
-1.190332	k l E	-0.07357737
-0.8893017	k l I	-0.1563569
-0.8893017	k l Q	-0.03581897
-1.491362	k l V
-1.31527	k l i
-0.750999	k l {	-0.02270348
-1.073107	p l #	0.001175344
-1.550228	p l $	-0.4191293
-1.073107	p l 1	-0.06428729
-1.249198	p l @	-0.1120483
-1.152288	p l E	-0.1236004
-1.249198	p l I	-0.2316474
-1.00616	p l Q	-0.02773832
-1.073107	p l V
-1.550228	p l i
-0.6751671	p l {	-0.09812029
-0.9542425	s l #	0.06192228
-1.498311	s l $	-0.4191293
-1.498311	s l 1
-1.498311	s l 3
-1.322219	s l 5
-1.322219	s l E
-0.9542425	s l I
-1.197281	s l Q
-0.8962505	s l V	0.01526432
-1.322219	s l i
-1.322219	s l u
-0.9542425	s l {
-0.243038	u l </s>
-0.845098	u l I	-0.4531541
-0.1249387	z l I	-0.1853831
-1.568202	{ l #	-0.465222
-1.568202	{ l 1	-0.4301247
-1.09108	{ l 5	-0.544068
-1.568202	{ l </s>
-0.6387828	{ l @	-0.1145732
-0.8692317	{ l I	-0.03947127
-1.568202	{ l b
-1.568202	{ l g	-0.2552725
-1.39211	{ l k	-0.4673615
-1.39211	{ l p
-1.568202	{ l v	-0.2808266
-0.90309	# m </s>
-0.6812412	# m @	-0.07633339
-0.90309	# m I	-0.1908145
-0.8750613	$ m 5
-0.8750613	$ m </s>
-0.8750613	$ m @
-0.09691001	1 m </s>
-0.845098	3 m </s>
-0.4191293	3 m I	-0.0526905
-0.845098	5 m </s>
-0.7201593	5 m @	-0.5711834
-0.845098	5 m E	-0.4089354
-0.845098	5 m {	-0.123239
-0.8639379	<s> m #	0.005139619
-1.627366	<s> m $
-1.481238	<s> m 1	-0.02908498
-2.025306	<s> m 3
-1.372093	<s> m 5	-0.04575749
-1.212392	<s> m @	-0.09349036
-1.180208	<s> m E	0.1694606
-0.8492146	<s> m I	-0.2158167
-1.212392	<s> m Q	-0.01370127
-0.9283959	<s> m V	-0.04666135
-1.481238	<s> m i	-0.05958568
-1.724276	<s> m j	-0.3187588
-0.7352713	<s> m {	-0.102305
-1.467361	@ m #
-1.643453	@ m 5
-0.3534181	@ m </s>
-1.245513	@ m @	-0.2836559
-1.467361	@ m E	-0.02872416
-1.467361	@ m I
-1.467361	@ m i
-1.245513	@ m p	-0.09141571
-1.643453	@ m {
-0.9378521	E m </s>
-0.5698753	E m @	-0.06395049
-1.113943	E m I
-1.113943	E m b
-0.7160034	E m p	-0.06338699
-0.5705429	I m </s>
-1.01424	I m @	-0.01670569
-1.269513	I m E	-0.1748522
-1.190332	I m I	-0.06144477
-1.269513	I m b	0.06279081
-1.667453	I m j
-0.6897293	I m p	0.0457575
-1.667453	I m {
-1.010724	Q m </s>
-1.135663	Q m @
-1.010724	Q m I	-0.0391177
-1.010724	Q m b	-0.1290947
-0.5713912	Q m p	-0.1298739
-0.544068	U m </s>
-0.8239087	V m </s>
-1.176091	V m @	-0.1287539
-0.5740313	V m b	-0.07011682
-1.477121	V m d
-1.477121	V m n	-0.2552725
-0.5477023	V m p	-0.2317244
-0.07918125	g m @	-0.07633339
-0.3245111	i m </s>
-0.6766936	i m @	-0.01834145
-0.5228788	l m </s>
-1.161368	s m #	-0.3493347
-1.161368	s m E	-0.4175356
-0.9852768	s m I
-0.763428	s m V	-0.08111576
-1.161368	s m u
-0.1760913	t m @
-0.4336556	u m </s>
-0.9777236	u m @
-0.3521825	z m @	-0.1732434
-1.010724	{ m </s>
-0.8724211	{ m @	0.02519944
-1.311754	{ m I
-1.436693	{ m P	0.09691
-0.7676858	{ m b	-0.07987666
-0.4824501	{ m p	-0.1105897
-1.612784	{ m z
-1.146128	# n 5	-0.3748162
-0.845098	# n @	-0.2019539
-1.322219	# n I
-1.021189	# n J	0.6627578
-1.322219	# n d
-0.7201593	# n s	-0.09322432
-1.021189	# n t	-0.334271
-0.6462637	$ n </s>
-1.190332	$ n @
-0.8893017	$ n I	-0.08940042
-1.01424	$ n J	0.7596678
-0.7132105	$ n t	-0.06126967
-0.2762064	1 n </s>
-0.9294189	1 n _	-0.236572
-0.8325089	1 n t	-0.4134522
-0.6368221	3 n </s>
-0.8129134	3 n I
-0.3357921	5 n </s>
-1.113943	5 n @
-0.7846821	<s> n #	-0.2287976
-1.525045	<s> n $
-1.224015	<s> n 1	-0.07918125
-1.348954	<s> n 5
-0.9229848	<s> n E	-0.01484913
-1.127105	<s> n I	-0.08640136
-0.9809768	<s> n Q	-0.03304213
-1.224015	<s> n V
-1.047924	<s> n j	-0.593286
-1.525045	<s> n u
-1.224015	<s> n {
-1.82823	@ n #
-2.004321	@ n 5
-0.3141253	@ n </s>
-1.82823	@ n E	-0.1388745
-1.460253	@ n I	-0.05799194
-1.82823	@ n Q
-1.191408	@ n d	-0.07323191
-1.703291	@ n f	-0.0669468
-1.82823	@ n k
-1.263959	@ n s	0.1078692
-0.9436235	@ n t	-0.3513043
-1.703291	@ n v	-0.04139269
-2.004321	@ n z
-2.004321	@ n {
-1.054358	E n </s>
-1.10551	E n @	-0.01902321
-1.0086	E n I	-0.07695978
-1.230449	E n J	0.5166298
-1.70757	E n S
-0.7781513	E n d	-0.2032067
-1.70757	E n j
-1.10551	E n s	-0.1443768
-0.6283889	E n t	0.1240622
-1.70757	E n z
-1.888367	I n #	-0.009240672
-1.666518	I n 5	0.0231238
-0.4064466	I n </s>
-1.251545	I n @	0.1192794
-1.888367	I n E	-0.1611509
-1.189397	I n I	-0.07665034
-1.763428	I n J	0.6627578
-1.763428	I n T	-0.3565474
-1.411245	I n _	-0.537602
-1.189397	I n d	0.0631316
-1.888367	I n f
-1.888367	I n j	0.02996323
-1.189397	I n s	-0.03026894
-0.967548	I n t	0.30103
-0.5155795	Q n </s>
-1.293731	Q n I	-0.1751053
-0.6569086	Q n d	0.1435808
-1.469822	Q n j
-1.071882	Q n s	-0.07743006
-1.293731	Q n t
-1.469822	Q n v
-0.6863809	U n </s>
-0.4900862	U n d	-0.3247031
-0.8325089	U n s	-0.1187784
-0.8325089	U n t	0.1605791
-1.352183	V n </s>
-1.176091	V n I	-0.154902
-1.051152	V n J	0.6627578
-1.176091	V n P	0.4393327
-0.9542425	V n _	0.09442121
-0.6532125	V n d	0.2916434
-0.8081145	V n t	-0.5383909
-0.39794	d n @
-0.7403627	g n I
-1.247155	i n 5	-0.3748162
-0.3263358	i n </s>
-0.8791778	i n @	-0.2531065
-1.122216	i n I	-0.2340832
-0.544068	k n I
-0.39794	m n @
-0.1760913	p n P	0.5642715
-1.135663	s n #
-1.311754	s n $
-1.311754	s n 1
-0.7676858	s n I	-0.1114363
-1.010724	s n V	-0.04921804
-1.311754	s n i
-0.9138138	s n u	-0.04219769
-1.010724	s n {
-0.1760913	u n </s>
-0.9542425	u n @	0.07788676
-1.752048	{ n 5	-0.4436975
-0.8769872	{ n </s>
-1.274927	{ n @	0.06911285
-1.053078	{ n I	-0.04085519
-1.752048	{ n P	0.5642715
-1.575957	{ n T
-1.451018	{ n _
-0.6728672	{ n d	0.09027016
-1.354108	{ n s	-0.1187784
-0.8769872	{ n t	0.2730013
-1.451018	{ n z	-0.0881361
-0.4259687	$ p @	-0.1300784
-1	1 p </s>
-1	1 p @
-1	1 p P	0.8016324
-1	1 p r
-0.60206	3 p </s>
-0.7269987	5 p </s>
-1.146128	<s> p #	-0.01737407
-1.886491	<s> p $	-0.04921804
-1.7104	<s> p 1	-0.004175939
-1.789581	<s> p 3
-1.643453	<s> p 5	0.002082951
-1.312459	<s> p @	-0.05140774
-1.146128	<s> p E	0.02023593
-1.090611	<s> p I	-0.1346286
-1.146128	<s> p Q	-0.04895011
-2.01143	<s> p U	-0.09691003
-1.409369	<s> p V	-0.001450062
-2.187521	<s> p i
-1.643453	<s> p j	-0.5351132
-0.8653014	<s> p l	0.03680587
-0.7032209	<s> p r	-0.00743556
-0.9444827	<s> p {	-0.1172832
-1.361728	@ p #
-0.7596679	@ p </s>
-1.361728	@ p E
-1.185637	@ p I	-0.1910348
-1.361728	@ p Q
-1.361728	@ p i
-1.185637	@ p l	-0.1835038
-1.361728	@ p {
-0.9294189	E p 5
-0.7533277	E p </s>
-0.9294189	E p @
-0.9294189	E p t
-1.389166	I p 5	-0.4024876
-0.3891661	I p </s>
-1.088136	I p I	-0.10888
-1.389166	I p P	0.8016324
-1.389166	I p l
-0.4074853	Q p </s>
-1.060698	Q p @
-0.8846066	Q p I
-0.4771213	i p </s>
-0.7781513	i p Q
-0.4101745	l p </s>
-1.39794	m p #	0.01258911
-1.522879	m p 1	-0.5190858
-0.49485	m p </s>
-1	m p @	-0.2276011
-1.39794	m p E	-0.2443024
-1.221849	m p I	-0.1843413
-1.154902	m p P	0.3756636
-1.221849	m p Q	-0.05577049
-1.522879	m p l
-1.69897	m p t
-1.69897	m p u
-1.522879	m p {	-0.1776451
-1.130334	s p #	0.01694471
-1.556303	s p $
-1.556303	s p 1
-1.556303	s p 3
-1.188326	s p </s>
-1.431364	s p @	-0.08715019
-1.130334	s p E	-0.2018985
-1.033424	s p I	-0.05137281
-1.556303	s p Q
-1.732394	s p V
-1.556303	s p i
-1.188326	s p l	-0.01502898
-0.8872957	s p r	-0.03286593
-1.431364	s p u
-1.130334	s p {	-0.1588244
-0.5351132	u p </s>
-0.7781513	u p @	-0.08715019
-1.079181	u p i
-0.5509075	{ p </s>
-1.028029	{ p @	-0.154902
-1.20412	{ p I
-1.20412	{ p P	0.8016324
-1.20412	{ p n	0
-1.20412	{ p s
-0.6532125	# r @	-0.4182023
-0.5228788	$ r @	-0.2503836
-0.69897	$ r I	-0.1170898
-0.8239087	$ r {	-0.1651211
-0.7346855	<s> r #	-0.02769142
-1.357935	<s> r 1	-0.0608398
-1.454845	<s> r 5	-0.09359899
-0.9777236	<s> r E	0.02062321
-0.7346855	<s> r I	-0.07565585
-1.454845	<s> r Q
-1.755875	<s> r U
-1.056905	<s> r V	-0.08266953
-1.211807	<s> r u	-0.3294826
-0.9107768	<s> r {	-0.01676545
-1.058595	@ r #	0.1576079
-1.535716	@ r 1
-0.933656	@ r 5	-0.2796207
-0.7575647	@ r @	-0.207349
-1.410777	@ r E
-0.7118073	@ r I	-0.1744513
-1.167739	@ r Q	-0.0336326
-0.9714445	@ r i	-0.30103
-1.410777	@ r {
-1.113943	E r 1
-0.4149733	E r @	-0.04946874
-0.3735807	E r I	-0.160249
-0.845098	I r #
-0.845098	I r @
-1.021189	I r E
-0.845098	I r I
-0.9700368	Q r 5	-0.1095515
-0.447158	Q r @	-0.1281677
-0.447158	Q r I	-0.05146108
-0.69897	S r #	-0.03272381
-0.69897	S r I
-1.060698	T r 5
-0.8846066	T r E
-1.060698	T r I
-0.8846066	T r Q
-0.8846066	T r V
-1.060698	T r {
-0.30103	V r I	-0.06122093
-0.9138138	b r #	0.1129375
-1.436693	b r $
-1.311754	b r 1
-1.436693	b r 5
-1.135663	b r @	-0.2028013
-1.436693	b r E
-0.7998705	b r I	-0.09102207
-1.135663	b r Q	-0.07456104
-1.612784	b r V
-1.311754	b r i
-1.135663	b r u
-1.010724	b r {	-0.005420279
-0.845098	d r #	0.2700609
-1.271067	d r 5
-1.049218	d r @
-1.146128	d r E
-0.9700368	d r I
-0.9700368	d r V	0.02400028
-1.447158	d r u
-0.9700368	d r {	-0.05971192
-1.156347	f r #	0.04645741
-1.332438	f r $
-1.156347	f r 1
-0.9344984	f r E
-0.9344984	f r I
-1.332438	f r Q
-1.332438	f r V
-1.156347	f r i
-0.9344984	f r {	-0.06730841
-0.8920946	g r #	0.207913
-1.193125	g r 1
-1.113943	g r 5
-1.414973	g r @
-1.591065	g r E
-0.7160034	g r I	-0.1474729
-1.414973	g r Q	-0.1829307
-1.414973	g r V
-0.9890046	g r i	-0.02555411
-1.414973	g r u
-0.9378521	g r {	-0.1326256
-1.163502	k r #	0.08297426
-1.70757	k r $	-0.3458424
-1.163502	k r 1
-1.40654	k r 5
-1.70757	k r E
-0.8325089	k r I	-0.0862232
-1.230449	k r Q
-1.70757	k r U
-0.9672075	k r V	-0.05084108
-0.8946568	k r i	0.01608682
-1.230449	k r u	-0.02915823
-0.8946568	k r {	-0.06214789
-0.8798602	p r #	-0.1153933
-1.658011	p r $
-1.48192	p r 1
-0.8798602	p r 5	-0.1105858
-1.113943	p r @
-1.356981	p r E
-0.7037689	p r I	-0.1695604
-0.8798602	p r Q	-0.07438236
-1.658011	p r i
-1.356981	p r u
-1.356981	p r {	-0.1186898
-0.9098234	t r #	0.06178492
-1.636822	t r $
-1.159701	t r 1	-0.1905774
-1.335792	t r 5	-0.04078143
-0.9098234	t r @	-0.1431081
-1	t r E	-0.04152471
-0.9098234	t r I	-0.1090544
-1.268845	t r Q
-1.113943	t r V	-0.05711547
-1.414973	t r i	-0.07493037
-1.511883	t r u	-0.0881361
-1	t r {	-0.01523997
-0.39794	v r I
-0.8846066	{ r 5	-0.7328008
-0.2477845	{ r @	-0.08555272
-0.7085153	{ r I	-0.1004963
-0.7231037	# s </s>
-1.267172	# s I
-0.7900504	# s k	-0.3577039
-0.9661418	# s p	-0.6698676
-0.8692317	# s t	-0.2142439
-0.845098	$ s I	-0.4225003
-0.845098	$ s t
-0.447158	1 s </s>
-0.447158	1 s t	-0.2142439
-0.6532125	3 s t	-0.3233883
-0.544068	5 s </s>
-0.4771213	5 s t	-0.3233883
-1.485721	<s> s #	-0.0338583
-2.184691	<s> s 1	-0.07918125
-1.745359	<s> s 3	-0.02118932
-1.941653	<s> s 5	0.01099537
-1.672808	<s> s @	-0.1404509
-1.485721	<s> s E	0.04948536
-1.114654	<s> s I	-0.02306527
-1.745359	<s> s Q	-0.02217297
-1.786751	<s> s V	0
-2.485721	<s> s f	-0.2552725
-1.941653	<s> s i	-0.07169321
-0.7781513	<s> s k	-0.3455519
-1.096555	<s> s l	-0.01817393
-1.556303	<s> s m	-0.01472327
-1.29539	<s> s n	0
-0.9059379	<s> s p	-0.2003188
-0.7260536	<s> s t	-0.6130977
-2.087781	<s> s u
-1.355388	<s> s w	-0.02060279
-1.640623	<s> s {	-0.01287954
-1.748188	@ s #
-1.748188	@ s $	-0.3388186
-0.2103689	@ s </s>
-1.447158	@ s E	-0.02118932
-1.271067	@ s I	-0.01424044
-1.572097	@ s i
-1.572097	@ s k
-1.350248	@ s t	-0.1107802
-0.7242759	E s </s>
-1.423246	E s I
-1.423246	E s P	0.3881802
-1.122216	E s k
-0.3093025	E s t	-0.2385668
-1.376577	I s #	-0.2891308
-0.5984257	I s </s>
-1.774517	I s @
-1.774517	I s H	0.5228788
-1.297396	I s I	-0.03252922
-1.473487	I s P	0.5642715
-1.598426	I s i
-0.871427	I s k	-0.4744811
-0.5984257	I s t	-0.6030831
-0.1760913	N s t
-0.5682017	Q s </s>
-1.267172	Q s I	-0.4225003
-1.267172	Q s k	-0.4088564
-1.09108	Q s p
-0.6139592	Q s t	-0.07986355
-0.30103	U s </s>
-0.60206	U s t	-0.3233883
-1.028029	V s </s>
-0.7269987	V s P	0.02020341
-0.80618	V s k	-0.4405274
-0.4259687	V s t	-0.2306096
-0.1760913	b s I
-0.6766936	i s </s>
-0.4336556	i s t	-0.397284
-0.225779	k s </s>
-1.267172	k s @	-0.1003706
-1.568202	k s H	0.5228788
-0.9149892	k s I	-0.07918124
-1.568202	k s t
-0.6532125	l s </s>
-0.9542425	l s @
-0.9542425	l s I
-0.9542425	l s t
-1.550228	n s 3	-0.4065402
-1.550228	n s 5	-0.3521825
-0.3598967	n s </s>
-1.152288	n s @
-1.374137	n s E
-1.249198	n s I
-1.249198	n s P	0.1663314
-1.249198	n s t	-0.07699061
-0.30103	p s </s>
-0.50515	t s </s>
-0.2730013	u s </s>
-1.08636	{ s </s>
-1.18327	{ s @	-0.09061071
-0.8310874	{ s I	-0.03778856
-1.4843	{ s P	0.3881802
-0.8822398	{ s k	-0.09890582
-1.4843	{ s m
-1.18327	{ s p	-0.1297376
-0.8310874	{ s t	-0.1852802
-1.161368	# t </s>
-0.9852768	# t @	-0.06747675
-0.6173	# t I	-0.06244627
-1.161368	# t i
-1.161368	# t r	-0.4200827
-0.8129134	$ t </s>
-0.8129134	$ t @
-1.113943	$ t E	-0.3995164
-1.113943	$ t I
-0.3309932	1 t </s>
-0.6320232	1 t @	-0.09017662
-1.176091	1 t r
-0.4436975	3 t </s>
-0.9208187	3 t H	0.5118833
-1.09691	3 t I
-0.9208187	3 t P	0.8750612
-0.6532125	5 t </s>
-0.7112045	5 t @	-0.06959009
-0.9542425	5 t I	-0.08363559
-1.255273	5 t V	-0.4074853
-1.255273	5 t i
-1.071494	<s> t #	-0.1491847
-1.651278	<s> t $	-0.05478682
-1.651278	<s> t 1	-0.05589896
-1.396006	<s> t 3	-0.05115252
-1.572097	<s> t 5	-0.05042736
-1.748188	<s> t @	-0.13864
-0.9700368	<s> t E	-0.09342167
-1.20412	<s> t I	-0.1629604
-1.50515	<s> t Q	-0.0363385
-2.049218	<s> t U	0
-1.651278	<s> t V	-0.02020339
-1.873127	<s> t i
-1.651278	<s> t j	-0.3802113
-0.5720968	<s> t r	0.1664342
-1.873127	<s> t u
-1.174157	<s> t w	0.0184834
-1.028029	<s> t {	-0.01930511
-1.537819	@ t #	-0.4372497
-0.3336991	@ t </s>
-1.361728	@ t @
-1.361728	@ t E	-0.1442439
-1.236789	@ t i	-0.01350249
-1.537819	@ t r
-1.537819	@ t {
-1.332438	E t 5	-0.2891308
-0.3781959	E t </s>
-1.332438	E t @
-0.9344984	E t I	-0.04665203
-1.156347	E t P	0.8750612
-1.332438	E t r	-0.4200827
-1.332438	E t s
-1.768391	I t #	-0.1819772
-0.1315693	I t </s>
-1.29127	I t @	-0.1391791
-1.944483	I t H	0.6368221
-1.546543	I t P	0.69897
-1.643453	I t r	-0.08908954
-1.643453	I t s	-0.1383027
-1.066947	Q t 5	-0.4140695
-0.4301247	Q t </s>
-1.066947	Q t @
-1.066947	Q t I
-0.9420081	Q t P	0.7781512
-0.09017663	U t </s>
-0.544068	V t </s>
-0.845098	V t @	-0.3227493
-0.845098	V t H	0.6368221
-0.845098	V t P	1
-0.1362197	f t </s>
-0.30103	i t </s>
-0.6812412	i t @	-0.2136048
-1.079181	i t I
-0.2249398	k t </s>
-0.7690079	k t @	-0.0797112
-1.371068	k t I
-0.1532284	l t </s>
-1.09108	l t @
-1.643453	n t 5	-0.4140695
-0.2455127	n t </s>
-1.041393	n t @	-0.09676152
-1.819544	n t E	-0.3600079
-1.120574	n t I	-0.1702963
-1.643453	n t P	0.8750612
-1.643453	n t i	-0.08922321
-1.643453	n t r
-1.819544	n t {	-0.4357286
-0.3802112	p t </s>
-1.247155	s t #	0.05690484
-1.724276	s t $	-0.05478682
-1.520156	s t 1	0.01040277
-1.946125	s t 3
-1.724276	s t 5
-0.5256188	s t </s>
-1.192797	s t @	-0.0612278
-1.469003	s t E	0.06275573
-1.219126	s t I	-0.07581025
-1.724276	s t P	0.69897
-1.821186	s t Q
-1.381853	s t V	-0.03778854
-1.520156	s t i	-0.08485839
-1.724276	s t j	0.3309931
-0.8321813	s t r	0.3442253
-1.946125	s t u
-1.219126	s t {	-0.04292822
-0.3802112	u t </s>
-0.7781513	u t @
-0.5099137	{ t </s>
-0.8372727	{ t @	-0.005328834
-1.138303	{ t H	0.4149733
-1.041393	{ t I	-0.07661525
-1.138303	{ t P	0.7781512
-0.1760913	S u </s>
-0.6532125	_ u n
-0.4771213	b u </s>
-0.8750613	b u s
-0.39794	g u n	0
-0.8325089	j u </s>
-1.531479	j u @	0
-1.70757	j u _	-0.1091445
-1.70757	j u b
-1.30963	j u d	-0.1249387
-1.70757	j u k
-1.230449	j u l	-0.05799195
-1.10551	j u m	0.06790024
-1.0086	j u n	0.1413292
-1.230449	j u p	-0.07572071
-1.70757	j u s	-0.1461281
-1.054358	j u t	-0.09691
-1.163502	j u z	0.07255067
-0.9777236	k u </s>
-0.8016323	k u n	-0.1249388
-1.217484	l u </s>
-1.217484	l u m	-0.2775489
-1.041393	l u p	-0.07208644
-1.217484	l u s
-1.041393	l u t	0.01223445
-0.845098	n u d
-0.845098	n u k
-0.9294189	p u </s>
-0.7533277	p u n	-0.1249388
-0.90309	r u </s>
-1.20412	r u I
-1.079181	r u b	-0.04139269
-1.079181	r u d	-0.455932
-1.380211	r u m	-0.2775489
-1.079181	r u n	-0.2218488
-1.20412	r u p	-0.1840602
-1.20412	r u s	0.1091444
-1.20412	r u t	0.01223445
-1.380211	r u v	-0.3899711
-0.90309	t u </s>
-0.60206	t u n	0.1760913
-0.3357921	1 v </s>
-0.6532125	3 v </s>
-0.4771213	3 v I
-0.5118834	5 v </s>
-0.6368221	5 v @
-0.9542425	<s> v #	-0.01223445
-1.607455	<s> v $
-0.8670923	<s> v 3	0
-1.209515	<s> v @	-0.07438237
-0.762357	<s> v E	0.04139268
-0.704365	<s> v I	0.02717724
-1.607455	<s> v Q
-1.005395	<s> v {	-0.0782278
-0.8129134	@ v 3
-0.6368221	@ v {	-0.1191864
-0.6283889	E v @	-0.2013271
-0.7533277	E v H	0.30103
-0.9294189	E v P	0.7781513
-0.9294189	E v r
-0.4074853	I v </s>
-0.9637879	I v @	-0.04955879
-0.7085153	I v I	-0.1429619
-0.9637879	I v P	0.4771212
-1.361728	I v {
-0.544068	Q v P	0.7781513
-0.8129134	V v </s>
-0.6368221	V v H	0.30103
-0.4259687	i v </s>
-0.4393327	l v </s>
-0.7403627	l v @
-0.7403627	l v I
-0.6690068	n v I
-0.7403627	u v </s>
-1.079181	{ v 5
-0.6812412	{ v @	-0.06214792
-0.6812412	{ v I
-0.7781513	{ v P	0.5563025
-0.8976271	<s> w #	-0.5789947
-1.295567	<s> w $	-0.07040733
-1.596597	<s> w 1
-1.596597	<s> w 5
-0.8562344	<s> w E	0.05354775
-0.7836837	<s> w I	-0.06082986
-0.7215359	<s> w Q	-0.1304556
-1.596597	<s> w U
-1.420506	<s> w i
-1.420506	<s> w {	-0.0669468
-0.4771213	g w #	-0.446087
-0.4771213	g w I
-1.152288	k w #	0.09442121
-1.152288	k w $	-0.05362715
-1.550228	k w 1
-1.374137	k w 3
-1.550228	k w 5	-0.3309932
-1.374137	k w E
-0.4895305	k w I	-0.0843209
-0.7720771	k w Q	-0.1266626
-1.374137	k w i
-1.102662	s w #	0.2405492
-0.9777236	s w $
-1.278754	s w 1
-1.278754	s w 3
-1.278754	s w E
-0.7346855	s w I
-0.9777236	s w Q
-1.278754	s w i
-0.90309	t w #	-0.139662
-1.079181	t w 3
-0.7781513	t w I
-0.90309	t w i
-0.3853509	1 z </s>
-0.9294189	1 z H	0
-0.4771213	5 z </s>
-0.4771213	5 z I	-0.3679768
-0.447158	<s> z E	-0.04219769
-0.6690068	<s> z I
-1.021189	@ z </s>
-0.845098	@ z E
-1.342423	I z 3
-0.5642715	I z </s>
-1.342423	I z @	-0.30103
-1.041393	I z H	-0.2218488
-0.9444827	I z P	0.3357921
-1.166331	I z m	0.03342375
-0.544068	Q z I
-0.2632414	U z </s>
-0.7403627	V z H	0
-0.7403627	V z P	0.6368221
-0.7403627	V z b
-0.2388821	i z </s>
-0.4259687	n z </s>
-0.90309	n z @	-0.4259687
-0.3357921	u z </s>
-0.60206	{ z @	-0.1249387
-0.90309	{ z I
-0.90309	{ z P	0.6368221
-0.90309	{ z m	-0.2218488
-1.317018	<s> { N	-0.001635775
-1.618048	<s> { b
-1.441957	<s> { d
-1.441957	<s> { k
-0.9190781	<s> { l	-0.07876184
-1.015988	<s> { m	0.09017661
-0.8776854	<s> { n	-0.1576264
-1.618048	<s> { p
-1.618048	<s> { r	-0.1153934
-0.8776854	<s> { s	-0.07200268
-1.618048	<s> { t
-1.220108	<s> { v	-0.1512676
-0.8750613	I { d	-0.3107898
-0.69897	I { t	-0.06126966
-0.7781513	J { m	-0.3036701
-0.7781513	J { n
-0.9777236	S { l
-0.8016323	S { m	-0.0483976
-0.7403627	_ { k
-1.185637	b { N	0.04002911
-1.361728	b { k
-0.9637879	b { l	-0.09076311
-0.9637879	b { n	-0.005456038
-1.060698	b { r	0.06069785
-1.060698	b { s	-0.07680155
-1.185637	b { t
-1.361728	b { z
-0.6283889	d { m	-0.1354042
-0.90309	f { g
-0.90309	f { k	-0.3966017
-0.8129134	g { l	-0.1876731
-0.6368221	g { m	-0.1942435
-1.243038	h { N
-1.066947	h { l
-1.243038	h { n	-0.3734328
-1.066947	h { r
-1.243038	h { s
-1.628389	k { N
-1.628389	k { S
-1.452298	k { b
-1.452298	k { f
-1.628389	k { k
-0.9751764	k { l	-0.04590419
-1.026329	k { m	-0.09478632
-0.8154756	k { n	-0.04209091
-1.151268	k { p	-0.05912145
-1.026329	k { r	-0.1611509
-1.230449	k { s	-0.4489343
-1.327359	k { t	-0.07786321
-1.452298	k { v	-0.1203911
-0.8931057	l { N	0.2471546
-1.235528	l { S	-0.2466723
-1.457377	l { b	-0.07208644
-1.633469	l { d	-0.3107898
-1.457377	l { g	-0.1012748
-0.9344984	l { k	-0.146128
-1.332438	l { m	-0.2354052
-0.8205551	l { n	-0.06294784
-1.457377	l { p	-0.4586379
-1.457377	l { r	0.1398791
-1.633469	l { s
-1.031408	l { t	-0.07918122
-1.633469	l { z
-1.50515	m { N	-0.332629
-1.50515	m { _	-0.2552725
-1.50515	m { d
-1.20412	m { g	-0.02555412
-1.50515	m { k
-1.329059	m { l
-1.10721	m { m	-0.143091
-0.6922366	m { n	-0.1048529
-1.20412	m { r
-1.028029	m { s	-0.2103054
-1.20412	m { t	0.01445106
-1.060698	n { f
-0.8846066	n { p	-0.07842663
-1.491362	p { N
-1.01424	p { k	-0.07438236
-0.9472936	p { l	-0.4560787
-1.31527	p { m	-0.0483976
-0.750999	p { n	0.006020039
-0.7923917	p { r	-0.2403322
-1.31527	p { s	-0.1525223
-1.093422	p { t
-1.491362	p { z
-1.036984	r { N	0.1010266
-1.514105	r { S	-0.07058108
-1.213075	r { b	-0.1180993
-1.690196	r { d
-1.514105	r { f	-0.1581797
-1.213075	r { g	-0.03432803
-0.9120448	r { k	0.01924996
-0.7871061	r { m	0.007119775
-1.292256	r { n	-0.1004315
-1.213075	r { p	-0.1692519
-1.389166	r { s	-0.6618282
-1.213075	r { t	-0.2653896
-1.514105	r { v	-0.1426675
-0.8846066	s { l
-1.060698	s { n
-1.060698	s { s
-0.7596679	s { t
-1.439333	t { J
-1.263241	t { N
-1.439333	t { b
-1.439333	t { g
-1.041393	t { k	-0.09877679
-1.138303	t { l
-0.8952646	t { m	0.007119775
-0.7403627	t { n	-0.04189706
-1.263241	t { r
-0.8016323	v { l
-0.9777236	v { m	-0.3036701
-0.6766936	v { n	-0.08427567
-0.9777236	v { s
-0.5228788	w { N
-0.69897	w { g
-0.69897	w { k

\4-grams:
-0.2632414	<s> J # I	0
-0.5642715	<s> J # n	0
-0.3679768	<s> _ # I
-0.544068	<s> _ # U
-0.4771213	<s> b # I	-0.006733403
-0.90309	<s> b # U	-0.0457575
-1.079181	<s> b # s
-0.2632414	<s> d # I	-0.08432087
-1.041393	<s> d # U
-0.1760913	@ d # I
-0.2498775	<s> f # I	-0.01959556
-0.7269987	<s> f # U	0.07918122
-0.8239087	<s> g # U
-1	<s> g # g
-1	<s> g # l
-0.4542584	<s> h # I	0
-1.09108	<s> h # U
-1.267172	<s> h # l
-0.80618	<s> k # I
-0.80618	<s> k # U	-0.10721
-1.20412	<s> k # b
-1.20412	<s> k # d
-1.028029	<s> k # s
-1.028029	<s> k # t
-0.60206	s k # U
-0.90309	s k # r	0
-0.2552725	<s> l # I	0.003895052
-1.130334	<s> l # m
-0.4393327	@ l # I	-0.0881361
-0.6532125	b l # I
-0.60206	f l # I
-0.60206	f l # U
-0.69897	k l # I
-0.5228788	k l # U
-0.69897	k l # s
-0.3521825	p l # I	-0.243038
-0.5642715	s l # I
-0.7403627	s l # n
-0.1760913	{ l # d	0
-0.6232493	<s> m # I	0.07463361
-1.021189	<s> m # U	0
-1.322219	<s> m # _
-1.322219	<s> m # h	0
-1.322219	<s> m # m
-1.322219	<s> m # t
-0.1760913	s m # I
-0.30103	<s> n # I
-0.6690068	<s> n # U
-0.39794	I n # I
-0.5740313	<s> p # I	-0.08543019
-1	<s> p # U	-0.1127043
-1.176091	<s> p # d
-1.176091	<s> p # l	0.1249388
-1	<s> p # s
-1.176091	<s> p # t
-0.544068	m p # I
-0.6368221	s p # I
-0.8129134	s p # U
-0.3357921	<s> r # I	-0.04764163
-0.7160034	<s> r # U	-0.009029321
-1.113943	<s> r # s
-0.90309	@ r # I
-0.90309	@ r # t
-0.30103	S r # I
-0.447158	b r # I	-0.08983932
-0.6690068	b r # U
-0.6368221	d r # I
-0.8129134	d r # U
-0.39794	f r # I
-0.69897	g r # I
-0.5740313	g r # U
-0.5228788	k r # I
-0.5228788	k r # U
-0.2730013	p r # I
-0.8750613	p r # U
-0.8750613	p r # n
-0.2808266	t r # I	0.01005356
-1.021189	t r # U
-0.1760913	<s> s # I	-0.03925328
-1.079181	<s> s # U
-0.07918125	I s # I	-0.0594567
-0.4607309	<s> t # I	-0.0165691
-0.8129134	<s> t # U
-1.113943	<s> t # p
-0.1760913	@ t # R	0.30103
-0.39794	I t # R	0.30103
-0.79588	s t # I
-1.09691	s t # U
-1.09691	s t # k
-0.2340832	<s> v # I	-0.09691003
-0.04139268	<s> w # I	0.001342475
-0.1760913	g w # n
-0.243038	k w # I	-0.2313941
-0.39794	s w # I
-0.1249387	t w # I
-0.1760913	<s> _ $ n
-0.69897	<s> b $ l
-0.69897	<s> b $ s	0
-0.20412	@ d $ R	0.1249387
-0.8129134	<s> f $ l
-0.6368221	<s> f $ m
-0.30103	<s> h $ n
-1.060698	<s> k $ n	-0.30103
-0.7596679	<s> k $ p	0
-1.060698	<s> k $ s
-0.1760913	p l $ d
-0.1760913	s l $ t
-0.544068	<s> p $ t
-0.1760913	k r $ l	0.3679768
-0.1760913	@ s $ l	0.1249388
-0.6532125	<s> t $ t
-0.6532125	s t $ l	0
-0.544068	<s> w $ l
-0.6532125	k w $ t
-0.1760913	l I 1 z
-0.1760913	I Z 1 </s>
-0.6532125	<s> b 1 s
-0.8750613	<s> d 1 t	0
-0.8750613	<s> k 1 l	-0.2552725
-0.69897	<s> k 1 p
-0.1249387	I k 1 </s>
-0.6532125	s k 1 d	0
-0.544068	<s> l 1 d
-0.7403627	p l 1 n
-0.1760913	{ l 1 </s>
-0.8129134	<s> m 1 t	0
-0.544068	<s> n 1 b
-0.7403627	<s> p 1 s	-0.30103
-0.1249387	m p 1 n	-0.30103
-0.6532125	<s> r 1 d
-0.8129134	t r 1 </s>
-0.6368221	t r 1 n	0.2174839
-0.6368221	t r 1 t	-0.1249388
-0.544068	<s> s 1 b
-0.6532125	<s> t 1 b
-0.8750613	s t 1 t
-0.8750613	<s> b 3 b
-0.8129134	<s> k 3 t
-0.6532125	<s> s 3 k	0
-0.9542425	<s> s 3 v
-0.1760913	n s 3 t	-0.2552725
-0.8750613	<s> t 3 b	0
-0.69897	<s> t 3 m	0.07918122
-0.60206	<s> v 3 m	0
-0.60206	<s> v 3 t	-0.04921804
-0.1760913	S I 5 </s>
-0.3521825	d I 5 </s>
-0.1249387	r I 5 </s>
-0.5642715	<s> b 5 l
-0.7403627	<s> b 5 n
-0.30103	m b 5 </s>
-0.1760913	1 d 5 </s>
-0.39794	n d 5 </s>
-0.1760913	u d 5 </s>
-0.09691001	# g 5 </s>
-0.1249387	1 g 5 </s>
-0.1760913	I g 5 </s>
-0.07918125	N g 5 </s>
-0.39794	5 k 5 </s>
-0.7269987	<s> k 5 k
-0.7269987	<s> k 5 l	-0.09691003
-0.1760913	N k 5 </s>
-0.1760913	Q k 5 </s>
-0.4259687	s k 5 </s>
-0.1760913	{ k 5 </s>
-0.1760913	5 l 5 </s>
-0.30103	<s> l 5 k
-0.1760913	@ l 5 </s>
-0.09691001	E l 5 </s>
-0.1249387	I l 5 </s>
-0.1249387	Q l 5 </s>
-0.544068	k l 5 n	0
-0.06694679	{ l 5 </s>
-0.69897	<s> m 5 l
-0.8750613	<s> m 5 t
-0.1249387	# n 5 </s>
-0.4259687	I n 5 </s>
-0.1249387	i n 5 </s>
-0.1760913	{ n 5 d
-0.8129134	<s> p 5 l
-0.1760913	I p 5 </s>
-0.544068	<s> r 5 t
-0.4259687	@ r 5 </s>
-0.7269987	@ r 5 l	-0.07918131
-0.90309	@ r 5 n
-0.39794	Q r 5 </s>
-0.9777236	p r 5 g	-0.2552725
-0.9777236	p r 5 l
-0.6766936	p r 5 t
-0.7403627	t r 5 l	0.04575744
-0.06694679	{ r 5 </s>
-0.7781513	<s> s 5 b
-0.7781513	<s> s 5 l
-0.1760913	n s 5 l	-0.2730013
-0.7403627	<s> t 5 p
-0.1760913	E t 5 </s>
-0.1249387	Q t 5 </s>
-0.1249387	n t 5 </s>
-0.1760913	k w 5 t
-0.1760913	E D @ R	0.4771213
-0.09691001	I D @ R	0.2552725
-0.1760913	V D @ R	0.4771213
-0.30103	f E @ R	0.845098
-0.7403627	k E @ R	0.9700367
-0.4259687	l E @ R	0.845098
-0.20412	p E @ R	0.6690067
-0.1249387	t E @ R	0.845098
-0.1760913	w E @ R	0.9700367
-1.469822	# I @ </s>
-0.4920984	# I @ R	0.3802112
-1.469822	# I @ d
-1.168792	# I @ l	0.1549019
-1.293731	# I @ n	0.07918122
-0.925754	# I @ r	0.05690485
-1.168792	# I @ s	0.2218487
-1.168792	# I @ t	0.09691003
-0.6532125	l I @ s	-0.07918125
-0.20412	m I @ R	0.90309
-0.69897	n I @ </s>
-0.69897	n I @ R	1.20412
-0.544068	p I @ R	1.20412
-1	r I @ </s>
-0.8239087	r I @ R	1.079181
-0.8239087	r I @ l	-0.30103
-1	r I @ t	-0.07918125
-0.8129134	s I @ R	1.20412
-0.6368221	s I @ r
-0.1760913	t I @ R	1.20412
-0.1760913	v I @ R	1.20412
-0.1760913	<s> S @ l
-0.4149733	# U @ R	0.4259688
-0.5118834	# U @ l	0.07918125
-0.3802112	j U @ R	0.4259688
-0.60206	j U @ r
-0.544068	# _ @ n	-0.3802113
-0.1760913	3 _ @ n	-0.1461281
-0.1760913	<s> _ @ p
-0.09691001	V _ @ n	-0.3679768
-0.1760913	n _ @ n
-0.1249387	1 b @ R	0.30103
-0.4771213	3 b @ n	-0.3174204
-0.4771213	3 b @ t	-0.1760913
-0.9294189	<s> b @ n
-0.7533277	<s> b @ z
-0.7403627	I b @ s	-0.2730013
-0.1760913	l b @ t
-0.69897	m b @ </s>
-0.69897	m b @ R	0.4259687
-0.39794	# d @ </s>
-0.30103	5 d @ </s>
-0.39794	l d @ R	0.8016324
-0.9542425	n d @ </s>
-0.5282738	n d @ R	0.3245111
-1.130334	n d @ l
-1.130334	n d @ m	0.30103
-0.9542425	n d @ n	0.146128
-0.4771213	{ d @ k	0
-0.4771213	{ d @ m	0.30103
-0.1249387	$ g @ n	0.3222193
-0.6532125	<s> g @ l
-0.4771213	<s> g @ z	-0.07572071
-0.39794	@ g @ n	0.06694677
-0.7403627	I g @ R	0.5228788
-0.5642715	I g @ n	0.3222193
-0.7781513	{ g @ R	0.5228788
-0.7781513	{ g @ n	0.06694677
-0.60206	{ g @ t	0.07918122
-0.1760913	# h @ r	0
-0.7403627	5 k @ R	0.5642715
-0.5642715	5 k @ s	0.05115253
-0.8388491	<s> k @ m	-0.03778858
-0.4238757	<s> k @ n	-0.0692386
-0.7596679	<s> k @ r	0.0211893
-1.537819	<s> k @ s
-1.537819	<s> k @ t
-0.39794	E k @ n
-0.69897	I k @ </s>
-0.6197888	I k @ n	-0.3270434
-0.544068	N k @ R	0.5642715
-0.7403627	Q k @ l
-0.39794	V k @ </s>
-0.1760913	i k @ n
-0.5642715	s k @ s	-0.3290587
-0.7403627	s k @ t	-0.3679768
-0.6368221	# l @ </s>
-0.8129134	# l @ m
-0.6368221	# l @ t	-0.3388186
-0.60206	5 l @ </s>
-0.60206	5 l @ R	0.5228788
-0.3521825	@ l @ </s>
-0.69897	E l @ </s>
-0.69897	E l @ t
-0.6532125	I l @ </s>
-0.9542425	I l @ R	0.5228788
-0.9542425	I l @ n
-0.9542425	I l @ s	-0.2430381
-1.041393	Q l @ </s>
-1.041393	Q l @ n
-0.7403627	Q l @ p	-0.2730013
-1.041393	Q l @ r
-0.05115252	U l @ </s>
-0.544068	p l @ s
-0.9378521	{ l @ d	0
-1.113943	{ l @ m
-0.8129134	{ l @ n	0.09123288
-1.113943	{ l @ r
-1.113943	{ l @ s
-0.4259687	# m @ </s>
-0.09691001	5 m @ </s>
-1.041393	<s> m @ h	0
-0.7403627	<s> m @ r
-0.243038	@ m @ n	-0.0184834
-0.8129134	E m @ l
-0.845098	I m @ </s>
-0.845098	I m @ T
-0.6690068	I m @ n	0.06069782
-0.544068	V m @ k
-0.4259687	g m @ </s>
-0.544068	i m @ </s>
-0.30103	z m @ </s>
-1	{ m @ R	0.4259687
-1	{ m @ n	-0.1945747
-0.20412	# n @ </s>
-0.60206	E n @ </s>
-0.60206	E n @ n	-0.09691003
-0.69897	I n @ </s>
-1	I n @ m	0.1249388
-0.8239087	I n @ s	-0.03778857
-0.1760913	i n @ </s>
-0.544068	u n @ </s>
-0.5228788	{ n @ </s>
-0.39794	$ p @ s	-0.1180993
-0.8846066	<s> p @ p	0
-0.8846066	<s> p @ r
-0.8846066	<s> p @ s
-1.060698	<s> p @ t
-0.6690068	m p @ R	0.3521825
-0.845098	m p @ n
-0.544068	m p @ s	-0.3399481
-0.544068	s p @ R	0.4771213
-0.544068	u p @ R	0.4771213
-0.39794	{ p @ r
-0.1760913	# r @ </s>
-0.4771213	$ r @ </s>
-0.6532125	$ r @ s	-0.1461281
-0.5351132	@ r @ </s>
-0.6812412	@ r @ l	0.4101745
-1.079181	@ r @ m	-0.2808266
-1.079181	@ r @ n
-0.9294189	E r @ b
-0.7533277	E r @ l	0.5563025
-0.8750613	Q r @ l	0.30103
-0.4771213	Q r @ n	-0.02118927
-0.4771213	b r @ </s>
-0.6532125	b r @ l	0.30103
-0.8846066	t r @ k
-0.6627578	t r @ l	0
-0.8846066	t r @ n	0.1249388
-1.060698	t r @ p
-0.9777236	{ r @ b	0.008773908
-1.278754	{ r @ d	-0.3309932
-0.8808136	{ r @ k	-0.06567879
-1.278754	{ r @ m
-1.278754	{ r @ n
-0.9777236	{ r @ s
-1.278754	{ r @ t	-0.2730013
-0.69897	<s> s @ k	-0.146128
-0.8239087	<s> s @ p
-1	<s> s @ v
-0.544068	k s @ s	0.30103
-0.544068	{ s @ k
-0.39794	# t @ R	1.079181
-0.60206	1 t @ s	0.39794
-0.60206	5 t @ </s>
-0.544068	<s> t @ b
-0.5118834	I t @ R	0.8573324
-0.8129134	I t @ m
-0.8129134	I t @ s	0.5228788
-0.1760913	V t @ R	1.079181
-0.243038	i t @ R	0.8573324
-0.3802112	k t @ R	0.7781512
-0.9294189	n t @ </s>
-0.9294189	n t @ R	1.079181
-0.7533277	n t @ l	-0.1127043
-0.7533277	n t @ n	0.20412
-0.9294189	n t @ r
-1.060698	s t @ </s>
-0.6627578	s t @ R	0.7781512
-0.8846066	s t @ d	0
-1.060698	s t @ m	-0.02996325
-0.7596679	s t @ n	-0.2730013
-0.5118834	{ t @ R	0.8573324
-0.39794	j u @ l	0
-0.6532125	<s> v @ l
-0.30103	E v @ R	0.3521825
-0.6532125	I v @ t	-0.2730013
-0.6532125	{ v @ n	-0.3309932
-0.1760913	I z @ m	0.3679768
-0.1760913	n z @ </s>
-0.30103	{ z @ m	0.243038
-0.243038	# I D </s>
-0.1760913	s I E n
-0.1760913	v I E t	0
-0.7403627	<s> J E r
-0.8129134	<s> _ E l	0
-0.6368221	<s> _ E n	-0.01772878
-0.544068	@ _ E n
-1	<s> b E @
-0.8239087	<s> b E l
-1	<s> b E n
-0.8239087	<s> b E r
-0.9208187	<s> d E l
-0.9208187	<s> d E n	0
-1.09691	<s> d E s
-0.9777236	<s> f E @
-0.6766936	<s> f E l
-0.9777236	<s> f E n
-0.8016323	<s> f E t	0.07918122
-0.8750613	<s> h E k	0
-0.8750613	<s> h E l
-0.8750613	<s> h E r	0
-0.39794	<s> j E l
-0.6690068	<s> k E @
-0.5228788	s k E @
-1.079181	<s> l E k
-0.90309	<s> l E n	-0.1638568
-1.079181	<s> l E p
-0.544068	b l E n
-0.544068	k l E n
-0.4259687	p l E k	-0.359022
-0.1249387	5 m E n	-0.05703852
-1.041393	<s> m E T
-1.041393	<s> m E d
-1.041393	<s> m E l
-1.041393	<s> m E n
-1.041393	<s> m E s
-1.041393	<s> m E t
-0.39794	@ m E n
-0.243038	I m E n	0.0186822
-0.1760913	s m E l
-0.845098	<s> n E k
-0.845098	<s> n E v
-0.39794	@ n E k
-0.39794	I n E t	0.1249388
-1.20412	<s> p E @
-1.20412	<s> p E d	-0.2552725
-0.6600519	<s> p E l	-0.01455873
-1.20412	<s> p E n
-1.20412	<s> p E r
-1.20412	<s> p E s
-1.20412	<s> p E t
-0.30103	m p E @	-0.1760913
-0.4771213	s p E k	-0.03698356
-0.7781513	s p E n
-1.021189	<s> r E k
-1.021189	<s> r E l
-1.021189	<s> r E s
-1.021189	t r E d
-0.845098	t r E m	-0.07572071
-0.845098	t r E s	-0.05912144
-1.161368	<s> s E k
-0.9852768	<s> s E l
-0.6173	<s> s E n	0.09017664
-1.161368	<s> s E t
-1.161368	<s> s E v
-0.544068	@ s E n	-0.3143939
-0.1760913	$ t E k	-0.09691003
-1.01424	<s> t E k	0.1583625
-0.8893017	<s> t E m	-0.3309932
-0.5371192	<s> t E n	-0.07918127
-0.7923917	<s> t E r	-0.02802873
-0.39794	@ t E k
-0.1760913	n t E n
-0.9294189	s t E n
-1	<s> v E k
-0.60206	<s> v E n	0.04575747
-0.69897	<s> v E s	0
-0.5314789	<s> w E l
-0.9294189	<s> w E n
-0.6532125	<s> z E n
-0.1760913	# d H </s>
-0.1249387	I f H </s>
-0.1760913	I s H </s>
-0.1760913	k s H </s>
-0.1249387	3 t H </s>
-0.1760913	I t H </s>
-0.1760913	V t H </s>
-0.09691001	{ t H </s>
-0.1249387	E v H </s>
-0.1249387	V v H </s>
-0.1760913	1 z H </s>
-0.09691001	I z H </s>
-0.1760913	V z H </s>
-0.9542425	<s> # I @
-0.9542425	<s> # I b
-0.7781513	<s> # I d
-0.7403627	J # I n
-0.6532125	_ # I n	-0.4259687
-0.7269987	b # I @
-0.7269987	b # I n	0.01639041
-0.6232493	d # I @	-0.07865515
-1.021189	d # I k
-1.021189	d # I m	-0.1014577
-0.845098	d # I n	0.01639041
-1.021189	d # I v
-1	f # I @	-0.3083293
-1	f # I l	-0.20412
-0.8239087	f # I n
-1.079181	h # I @
-1.079181	h # I _
-0.90309	l # I </s>
-1.079181	l # I @	-0.1234641
-1.380211	l # I l
-1.20412	l # I m	0.1538149
-1.380211	l # I n
-1.20412	l # I s	0.1883257
-0.9822713	l # I t	0.2060545
-0.8016323	m # I l	0.05115253
-0.6766936	m # I n
-0.8016323	m # I t	0.3521825
-1.021189	n # I @
-0.845098	n # I t	-0.02802873
-0.5166298	p # I @	-0.01090333
-1.060698	p # I n
-1.139879	r # I </s>
-0.993751	r # I @	0.04385328
-1.537819	r # I b	-0.3869447
-1.361728	r # I d	0.03778857
-1.361728	r # I f	-0.1426675
-1.537819	r # I k	-0.3521825
-1.361728	r # I m	-0.2263964
-1.236789	r # I n	-0.07918122
-1.537819	r # I p	-0.05115253
-1.139879	r # I s	0.04219767
-1.361728	r # I t	-0.02802873
-0.9357591	r # I v	0.06506264
-1.361728	r # I z	0.2552725
-1.267172	s # I @
-0.9661418	s # I d	-0.04139265
-1.09108	s # I k
-1.09108	s # I l
-1.267172	s # I n
-1.267172	s # I s
-1.09108	s # I t	-0.02802873
-1.267172	s # I z	0
-1.079181	t # I @
-0.90309	t # I l	-0.3290587
-1.079181	t # I m
-1.079181	t # I n	-0.2388821
-1.079181	t # I t
-0.4771213	v # I @	-0.2705407
-0.7781513	v # I n
-0.8293038	w # I @	-0.132238
-0.8293038	w # I l
-0.8293038	w # I n	-0.06279081
-1.130334	w # I p	-0.05115253
-1.130334	w # I t	0.09691003
-0.9777236	<s> J I k
-0.9777236	<s> J I m	0
-0.9777236	<s> J I n
-0.1760913	{ J I t	0
-0.39794	_ Q I n
-0.243038	l Q I </s>
-0.544068	p Q I z
-0.39794	v Q I </s>
-0.6532125	<s> T I @
-0.1760913	E T I l	0
-0.39794	I _ I t	-0.2552725
-0.1760913	5 b I </s>
-1.113943	<s> b I @
-0.7160034	<s> b I l
-1.113943	<s> b I n
-1.113943	<s> b I s	-0.1760913
-1.113943	<s> b I z
-0.60206	I b I s
-0.60206	I b I t	0.1597008
-0.1760913	m b I t	0.1597008
-0.39794	{ b I t	0.1597008
-0.544068	$ d I t	0.04575744
-1.278754	<s> d I N	-0.2552725
-1.278754	<s> d I l
-1.278754	<s> d I n
-0.8808136	<s> d I s	-0.09017663
-1.278754	<s> d I v
-0.544068	E d I t	0.04575744
-0.5228788	I d I @
-0.845098	n d I </s>
-0.845098	n d I g
-0.6690068	n d I t	-0.07918131
-0.6320232	<s> f I l	-0.02020337
-1.176091	<s> f I n
-1.176091	<s> f I s
-0.6532125	Q f I n	-0.06214792
-0.39794	V f I n	-0.06214792
-0.39794	V g I t	-0.1760913
-0.845098	<s> k I l
-0.845098	<s> k I n
-0.7403627	I k I n	-0.1413292
-0.5642715	I k I t	0.2754759
-0.1760913	Q k I t	0.02020338
-0.1760913	p k I n	-0.1413292
-0.9294189	s k I n
-0.5314789	s k I t	0.1293479
-0.30103	{ k I t	-0.1047354
-0.544068	# l I k
-0.544068	1 l I f	-0.2730013
-1.267172	<s> l I 1	0
-1.267172	<s> l I k
-0.9661418	<s> l I m	-0.02118932
-0.8692317	<s> l I n	-0.2155998
-1.09108	<s> l I s
-1.09108	<s> l I t
-0.60206	@ l I n	-0.359022
-0.60206	@ l I s	-0.1316721
-0.5642715	E l I k
-0.7403627	E l I t
-1.021189	I l I _	0
-0.845098	I l I k	-0.1426675
-0.845098	I l I t	-0.30103
-0.8129134	Q l I k
-0.1249387	U l I t	-0.30103
-0.8129134	k l I @
-0.8129134	k l I N
-0.8129134	k l I n
-0.30103	p l I n	0.02118929
-0.1760913	u l I p	-0.1346986
-0.39794	z l I </s>
-0.9777236	{ l I b
-0.39794	# m I </s>
-0.5118834	3 m I n	-0.05718695
-1.113943	<s> m I N	0
-1.113943	<s> m I d
-0.8920946	<s> m I l
-0.6368221	<s> m I n	-0.1127043
-0.8920946	<s> m I s	-0.10721
-1.290035	<s> m I {
-0.7403627	I m I t
-0.544068	Q m I n
-0.544068	$ n I t	0.6368221
-0.6532125	<s> n I g
-0.60206	@ n I </s>
-0.9542425	E n I m
-0.9542425	E n I z	0
-0.8846066	I n I </s>
-1.060698	I n I g
-0.8846066	I n I s	-0.0457575
-0.8846066	I n I t	0.5118833
-0.39794	Q n I k	-0.4191293
-0.39794	V n I </s>
-0.30103	i n I </s>
-0.60206	s n I f
-0.7533277	{ n I k
-0.9294189	{ n I t	0.6368221
-1.255273	<s> p I @
-1.255273	<s> p I N	0
-0.7112045	<s> p I k	-0.02996321
-0.7781513	<s> p I l
-1.255273	<s> p I s	-0.2730013
-0.39794	@ p I </s>
-0.544068	I p I d	-0.05115253
-0.3521825	m p I t	0.02996323
-0.7533277	s p I n
-0.9294189	s p I t
-0.544068	$ r I @
-1.217484	<s> r I @
-1.217484	<s> r I b
-1.041393	<s> r I f
-1.217484	<s> r I g
-1.217484	<s> r I k
-1.217484	<s> r I s
-1.217484	<s> r I t
-1.217484	<s> r I z
-0.748188	@ r I </s>
-0.845098	@ r I @	-0.1003706
-1.146128	@ r I m
-0.845098	@ r I n	-0.1249387
-1.146128	@ r I s	-0.3651475
-0.5314789	E r I </s>
-0.9294189	E r I t
-0.9542425	Q r I d
-0.9542425	Q r I n
-0.6532125	V r I </s>
-1.041393	b r I N
-1.041393	b r I g
-0.8653014	b r I k	-0.1870866
-1.060698	g r I d
-1.060698	g r I f
-0.7596679	g r I m	-0.1434221
-1.060698	g r I n	-0.30103
-1.060698	g r I s
-1.079181	k r I k
-0.7781513	k r I m	-0.06315381
-1.079181	k r I n
-1.079181	k r I p
-1.130334	p r I N
-1.130334	p r I g	-0.3521825
-1.130334	p r I k
-0.9542425	p r I m
-0.9542425	p r I n	-0.1840602
-1.130334	p r I t	-0.2082759
-1.130334	p r I v	-0.2730013
-1.113943	t r I _	0.1249388
-0.8129134	t r I k	-0.09288253
-1.113943	t r I p	-0.2218488
-1.113943	t r I s
-0.8750613	{ r I </s>
-0.8750613	{ r I @	-0.4313638
-0.8750613	{ r I s
-0.1760913	$ s I t	-0.09177038
-1.176091	<s> s I @	-0.1870866
-1.30103	<s> s I N	0.07918122
-1.477121	<s> s I g
-1.176091	<s> s I k
-1.079181	<s> s I l
-1.079181	<s> s I m	-0.09017663
-0.7781513	<s> s I n	-0.0949755
-1.30103	<s> s I r
-1.176091	<s> s I s	-0.1249387
-1.30103	<s> s I t
-1.477121	<s> s I v
-0.7403627	@ s I n
-0.7403627	I s I t	-0.09177038
-0.1760913	Q s I t	-0.09177038
-0.90309	k s I </s>
-0.90309	k s I k
-0.8750613	{ s I n
-0.69897	{ s I t	-0.2167091
-0.60206	# t I </s>
-0.544068	5 t I </s>
-1.041393	<s> t I N
-0.7403627	<s> t I m
-1.041393	<s> t I n
-1.041393	<s> t I t
-0.6532125	E t I </s>
-0.8750613	n t I </s>
-0.5740313	n t I l	-0.04139269
-0.8750613	n t I n	-0.1346986
-1.130334	s t I N
-1.130334	s t I f	-0.1760913
-1.130334	s t I g	-0.2552725
-0.9542425	s t I l
-0.6532125	{ t I k
-1.130334	<s> v I k
-0.9542425	<s> v I l	-0.1127043
-0.9542425	<s> v I t
-0.845098	I v I </s>
-0.845098	I v I d	-0.1091445
-0.6690068	I v I t	-0.30103
-1.021189	<s> w I l
-0.7201593	<s> w I n	-0.0881361
-1.021189	<s> w I s
-1.230449	k w I @
-1.054358	k w I b
-1.230449	k w I d	0.1249388
-1.054358	k w I l	-0.0457575
-1.054358	k w I n	-0.09691003
-1.230449	k w I p	0
-1.054358	k w I t	0
-1.230449	k w I z
-0.1760913	5 z I </s>
-0.243038	# U J </s>
-0.1760913	l i J </s>
-0.1760913	r i J </s>
-0.1760913	E l J </s>
-0.09691001	# n J </s>
-0.1249387	$ n J </s>
-0.06694679	E n J </s>
-0.09691001	I n J </s>
-0.09691001	V n J </s>
-0.1760913	<s> I N g
-0.39794	d I N g
-0.1760913	f I N k
-0.4771213	l I N </s>
-0.3521825	l I N k	0
-0.39794	m I N k
-0.1760913	p I N k
-0.6532125	r I N </s>
-0.2552725	r I N k	-0.1461281
-0.30103	s I N k
-0.544068	t I N g
-0.30103	k Q N k
-0.30103	r Q N </s>
-0.39794	b V N k
-0.544068	m V N k	0.09691003
-0.1760913	p V N k	0.09691003
-0.544068	<s> { N g
-0.39794	b { N k
-0.8750613	l { N </s>
-0.8750613	l { N g
-0.39794	l { N k	0.03196922
-0.1760913	m { N g
-0.7781513	r { N g	-0.2340832
-0.30103	r { N k	0.1323398
-0.1760913	# b P </s>
-0.06694679	1 b P </s>
-0.1760913	@ b P </s>
-0.1760913	E b P </s>
-0.06694679	I b P </s>
-0.09691001	Q b P </s>
-0.1760913	U b P </s>
-0.243038	V b P </s>
-0.02482358	m b P </s>
-0.1249387	{ b P </s>
-0.1249387	3 d P </s>
-0.1760913	E d P </s>
-0.05115252	I d P </s>
-0.06694679	Q d P </s>
-0.09691001	V d P </s>
-0.04575749	n d P </s>
-0.1249387	u d P </s>
-0.1760913	{ d P </s>
-0.1249387	I f P </s>
-0.05799195	V f P </s>
-0.1249387	{ f P </s>
-0.1760913	3 g P </s>
-0.09691001	I g P </s>
-0.07058107	N g P </s>
-0.1249387	V g P </s>
-0.1249387	{ g P </s>
-0.1249387	@ k P </s>
-0.1760913	E k P </s>
-0.04139268	I k P </s>
-0.05799195	N k P </s>
-0.07918125	V k P </s>
-0.1760913	{ k P </s>
-0.1249387	{ m P </s>
-0.1249387	V n P </s>
-0.1760913	p n P </s>
-0.1760913	{ n P </s>
-0.1760913	1 p P </s>
-0.1760913	I p P </s>
-0.05799195	m p P </s>
-0.1760913	{ p P </s>
-0.1760913	E s P </s>
-0.30103	I s P </s>
-0.06694679	V s P </s>
-0.09691001	n s P </s>
-0.1760913	{ s P </s>
-0.1249387	3 t P </s>
-0.1249387	E t P </s>
-0.07918125	I t P </s>
-0.09691001	Q t P </s>
-0.1760913	V t P </s>
-0.1249387	n t P </s>
-0.07918125	s t P </s>
-0.09691001	{ t P </s>
-0.1760913	E v P </s>
-0.07918125	I v P </s>
-0.1760913	Q v P </s>
-0.09691001	{ v P </s>
-0.07918125	I z P </s>
-0.1760913	V z P </s>
-0.1760913	{ z P </s>
-0.4259687	<s> _ Q I	0
-1	<s> b Q l
-1	<s> b Q t
-0.8016323	<s> d Q l
-0.9777236	<s> d Q m	0
-0.9542425	<s> f Q I
-0.9542425	<s> f Q l
-0.7781513	<s> f Q n	-0.07572071
-0.7781513	<s> f Q r	0
-0.7403627	<s> g Q b
-0.9294189	<s> h Q b
-0.9294189	<s> h Q l
-0.9294189	<s> h Q r
-1.100371	<s> k Q I
-1.197281	<s> k Q N	0
-1.197281	<s> k Q k	-0.03698356
-1.197281	<s> k Q l	-0.04575747
-0.7993405	<s> k Q m	0
-0.7993405	<s> k Q n	-0.09363228
-1.322219	<s> k Q p
-1.498311	<s> k Q r
-1.498311	<s> k Q s
-0.8750613	k l Q g	0.1249388
-0.8129134	p l Q I	-0.1091445
-0.8846066	<s> m Q d
-1.060698	<s> m Q r
-0.8129134	<s> n Q s	0
-1.190332	<s> p Q I	-0.3309932
-0.8893017	<s> p Q l	0
-0.8893017	<s> p Q m	-0.09691
-0.7923917	<s> p Q n	-0.05115253
-1.01424	<s> p Q p
-0.5228788	m p Q n	-0.4771213
-0.8129134	@ r Q k
-0.7403627	b r Q T
-0.39794	g r Q t
-1	p r Q f	-0.3309932
-0.8239087	p r Q m
-1	p r Q s
-0.5314789	<s> s Q l
-0.9294189	<s> s Q r
-0.8129134	<s> t Q r
-0.6627578	<s> w Q l	0
-1.060698	<s> w Q n
-1.060698	<s> w Q r	0.1249388
-1.060698	<s> w Q s
-0.9777236	k w Q S	0
-0.9777236	k w Q b
-0.8016323	k w Q d	-0.07572071
-0.9777236	k w Q t	-0.2552725
-0.1249387	d # R </s>
-0.1760913	g # R </s>
-0.07918125	t # R </s>
-0.1760913	z # R </s>
-0.05799195	d $ R </s>
-0.1760913	k $ R </s>
-0.1760913	l $ R </s>
-0.1760913	n $ R </s>
-0.1760913	t $ R </s>
-0.1760913	l 3 R </s>
-0.1249387	t 3 R </s>
-0.05115252	D @ R </s>
-0.01579427	E @ R </s>
-0.00914338	I @ R </s>
-0.1249387	J @ R </s>
-0.02802872	U @ R </s>
-0.05799195	b @ R </s>
-0.0234811	d @ R </s>
-0.07918125	f @ R </s>
-0.04575749	g @ R </s>
-0.04139268	k @ R </s>
-0.04575749	l @ R </s>
-0.05799195	m @ R </s>
-0.1760913	n @ R </s>
-0.05115252	p @ R </s>
-0.1249387	r @ R </s>
-0.1760913	s @ R </s>
-0.01223446	t @ R </s>
-0.05115252	v @ R </s>
-0.1760913	r E S </s>
-0.1249387	l Q S </s>
-0.1760913	w Q S </s>
-0.09691001	l V S </s>
-0.1249387	r V S </s>
-0.07918125	l { S </s>
-0.1249387	r { S </s>
-0.243038	m @ T </s>
-0.09691001	I n T </s>
-0.4771213	b # U n
-0.4771213	b # U t	0.6368221
-0.30103	f # U n	-0.05209768
-0.8750613	k # U @	-0.2662679
-0.69897	k # U n	-0.1527678
-0.6532125	l # U </s>
-0.9542425	l # U n
-0.30103	m # U n	-0.1527678
-0.544068	n # U t	0.6368221
-0.6532125	p # U n
-1.230449	r # U @
-1.230449	r # U J	-0.1091445
-1.230449	r # U d	-0.1760913
-1.230449	r # U l	0.30103
-0.6863809	r # U n	0.06411752
-1.230449	r # U t	0.6368221
-0.9294189	r # U z	-0.3565474
-0.69897	t # U n
-0.69897	t # U t	0.6368221
-0.39794	b j U l	0.08715019
-0.4259687	k j U @	0.01223445
-0.39794	l j U b	-0.2552725
-0.1249387	m j U l	0.3424227
-0.1760913	p j U l	0.08715019
-0.544068	t j U @
-0.1760913	<s> k U k
-0.1760913	<s> l U @
-0.39794	<s> p U l
-0.1760913	<s> t U @
-0.6532125	<s> _ V N
-0.4771213	<s> _ V m	0
-1.041393	<s> b V N
-1.041393	<s> b V f
-0.8653014	<s> b V k
-1.041393	<s> b V l
-1.041393	<s> b V s
-0.8239087	<s> d V b	0
-1	<s> d V m
-1	<s> d V n
-0.7781513	<s> f V N
-0.7781513	<s> f V n
-0.5740313	<s> g V l
-0.7403627	<s> h V m	0
-0.8653014	<s> h V n
-1.041393	<s> h V r	0
-0.8653014	<s> h V s	0
-1.079181	<s> k V l
-1.079181	<s> k V s
-0.90309	<s> k V v
-0.8750613	s k V f
-0.69897	s k V l
-0.1760913	@ l V m	-0.4045706
-0.8750613	s l V m
-1.267172	<s> m V N
-1.09108	<s> m V f
-1.09108	<s> m V l
-1.09108	<s> m V n
-0.7900504	<s> m V s	0
-1.267172	<s> m V z
-0.6532125	s m V g
-0.544068	s n V f
-1	<s> p V l
-1	<s> p V m	0
-0.8239087	<s> p V n
-0.8750613	<s> r V b
-0.69897	<s> r V m
-0.8750613	<s> r V n
-0.8750613	<s> r V s
-0.7403627	d r V m	-0.3357921
-0.5314789	k r V m	0.05115256
-0.9294189	k r V n	-0.3899711
-0.9542425	t r V k
-0.9542425	t r V s
-0.69897	<s> s V k
-0.69897	<s> s V m	0
-0.8750613	<s> s V n	0
-0.1760913	5 t V n	-0.3309932
-0.6532125	<s> t V m	-0.2730013
-0.9542425	s t V b
-0.9542425	s t V d
-0.7781513	s t V m
-0.1760913	t I Z 1	0
-0.39794	l E _ </s>
-0.1760913	l I _ </s>
-0.1249387	r I _ </s>
-0.1760913	V l _ </s>
-0.09691001	1 n _ </s>
-0.04575749	I n _ </s>
-0.243038	V n _ </s>
-0.1760913	j u _ </s>
-0.1760913	m { _ I
-0.39794	t 1 b P	0.3679768
-0.1760913	t 3 b @
-0.5228788	r @ b </s>
-0.7269987	# I b </s>
-0.1760913	h I b I
-0.1760913	l Q b </s>
-0.4771213	w Q b </s>
-0.4771213	w Q b P	0.2218488
-0.39794	j U b P	0
-0.1760913	b V b </s>
-0.39794	d V b P
-0.4771213	r V b </s>
-0.6532125	r V b P	-0.1091445
-0.6532125	I m b P	0.7781513
-0.544068	Q m b {
-1.041393	V m b @	-0.3802113
-0.3881802	V m b P	0.2552725
-1.041393	V m b r
-0.8239087	{ m b @
-1	{ m b I	0
-0.60206	{ m b P	0.4771212
-1	{ m b u
-0.544068	r u b I
-0.39794	l { b </s>
-0.4771213	r { b </s>
-0.6532125	r { b P	0.1249388
-0.544068	k # d @
-0.1760913	l # d </s>
-0.6690068	<s> $ d I
-0.1760913	r $ d </s>
-0.1760913	k 1 d </s>
-0.3521825	r 1 d </s>
-0.39794	<s> @ d $
-0.4259687	I @ d </s>
-0.1760913	U @ d </s>
-0.1760913	j @ d </s>
-0.39794	l @ d </s>
-0.544068	r @ d #	0
-0.39794	t @ d </s>
-0.39794	p E d I
-0.3521825	r E d </s>
-0.3467875	# I d </s>
-0.8239087	# I d P	0.3521825
-0.1249387	<s> I d I	-0.0669468
-0.1760913	b I d </s>
-0.1760913	l I d </s>
-0.6532125	m I d </s>
-0.20412	p I d </s>
-0.4393327	r I d </s>
-0.30103	s I d </s>
-0.1760913	t I d </s>
-0.1760913	u I d </s>
-0.243038	v I d </s>
-0.1249387	w I d </s>
-0.544068	w Q d r
-0.30103	# U d </s>
-0.39794	l i d </s>
-0.39794	s i d </s>
-0.1760913	$ l d </s>
-0.05115252	5 l d </s>
-0.1760913	@ l d </s>
-0.39794	E l d @
-0.30103	I l d </s>
-0.1249387	i l d </s>
-0.2304489	@ n d </s>
-0.2596373	E n d </s>
-0.60206	E n d @	-0.0737862
-0.3679768	I n d </s>
-1.021189	I n d I	-0.4101745
-0.4771213	Q n d </s>
-0.6532125	Q n d @
-0.1139434	U n d </s>
-0.60206	V n d </s>
-0.90309	V n d @	-0.3245111
-0.559308	{ n d </s>
-0.559308	{ n d @	0.09046227
-1.161368	{ n d I
-0.763428	{ n d P	0.2218487
-0.243038	j u d </s>
-0.09691001	r u d </s>
-0.1760913	I { d </s>
-0.1760913	l { d </s>
-0.60206	r # f </s>
-0.30103	r # f t	0.146128
-0.1760913	w $ f </s>
-0.3802112	# I f </s>
-0.7781513	# I f H	0.1249388
-0.7781513	# I f P	0.1249388
-0.4259687	l I f </s>
-0.90309	r I f </s>
-0.60206	r I f t	-0.1760913
-0.30103	t I f </s>
-0.544068	r Q f I
-0.1249387	l V f </s>
-0.39794	n V f </s>
-0.4771213	r V f </s>
-0.4771213	r V f P	0.4259687
-0.39794	E l f </s>
-0.544068	@ n f #
-0.1760913	<s> s f I
-0.39794	r { f </s>
-0.1760913	r # g 5	0.2218488
-0.544068	<s> $ g @	0.1249388
-0.39794	r 5 g r
-0.39794	r @ g @	-0.2552725
-0.6532125	<s> I g n
-0.1760913	m I g @
-0.6532125	n I g @	-0.3899711
-0.60206	r I g </s>
-0.39794	s I g n
-0.39794	t I g m	0.2218488
-0.4771213	w I g </s>
-0.4771213	w I g P	0.2218488
-0.6690068	I N g 5	0.1760913
-0.30103	I N g P	0.3467875
