
\data\
ngram 1=2604
ngram 2=5204
ngram 3=2602

\1-grams:
-3.012882	#	0.2723202
-3.24441	#I	0.2803689
-3.773449	#U	0.2885696
-4.054275	#Uns	0.2902285
-4.054275	#Ust	0.2902285
-4.054275	#f	0.2902285
-2.814635	$	0.2612969
-3.773449	$R	0.2885696
-3.773449	$l	0.2885696
-2.978397	1	0.2707282
-4.054275	1n	0.2902285
-4.054275	1t	0.2902285
-4.054275	1z	0.2902285
-4.054275	3	0.2902285
-2.526294	5	0.234173
-4.054275	5l	0.2902285
-0.3101886	</s>
-99	<s>	-4.490723
-2.192035	@	0.1755059
-2.732056	@R	0.2551213
-4.054275	@b	0.2902285
-3.773449	@d	0.2885696
-3.310338	@l	0.2819967
-4.054275	@m	0.2902285
-4.054275	@mf	0.2902285
-4.054275	@n	0.2902285
-4.054275	@nt	0.2902285
-3.604306	@t	0.286917
-4.054275	D#In	0.2902285
-3.136626	D@R	0.2771315
-4.054275	D@m	0.2902285
-4.054275	DE@R	0.2902285
-4.054275	DEns	0.2902285
-4.054275	DH	0.2902285
-4.054275	DI	0.2902285
-2.946449	E	0.2691421
-4.054275	E@	0.2902285
-3.773449	Ek	0.2885696
-4.054275	El	0.2902285
-3.604306	Em	0.286917
-3.482884	En	0.2852707
-3.604306	Et	0.286917
-2.792472	I	0.2597448
-4.054275	I@	0.2902285
-3.773449	Id	0.2885696
-3.604306	Ig	0.286917
-4.054275	Ik	0.2902285
-3.24441	Im	0.2803689
-2.751276	In	0.256657
-3.773449	Is	0.2885696
-3.482884	It	0.2852707
-4.054275	J#	0.2902285
-4.054275	J#Id	0.2902285
-4.054275	J#Im	0.2902285
-4.054275	J#Iv	0.2902285
-4.054275	J#n	0.2902285
-4.054275	J#nt	0.2902285
-4.054275	J1n_	0.2902285
-4.054275	J3	0.2902285
-4.054275	J5	0.2902285
-4.054275	J5k	0.2902285
-4.054275	J@	0.2902285
-3.604306	J@R	0.286917
-3.773449	J@d	0.2885696
-4.054275	J@n	0.2902285
-4.054275	J@nt	0.2902285
-4.054275	J@p	0.2902285
-4.054275	J@s	0.2902285
-3.604306	JE	0.286917
-4.054275	JE@R	0.2902285
-3.604306	JI	0.286917
-4.054275	JI@R	0.2902285
-4.054275	JINk	0.2902285
-4.054275	JIm	0.2902285
-3.773449	JIn	0.2885696
-4.054275	JInts	0.2902285
-4.054275	JIp	0.2902285
-4.054275	JIt	0.2902285
-4.054275	JIz	0.2902285
-4.054275	JQIs	0.2902285
-4.054275	JQmp	0.2902285
-3.773449	JV	0.2885696
-4.054275	JVmp	0.2902285
-3.773449	Ji	0.2885696
-4.054275	Jiv	0.2902285
-4.054275	Jun	0.2902285
-3.604306	J{	0.286917
-4.054275	J{m	0.2902285
-4.054275	J{mp	0.2902285
-4.054275	J{n	0.2902285
-4.054275	N@R	0.2902285
-3.091347	Q	0.2755218
-4.054275	QINk	0.2902285
-4.054275	QInt	0.2902285
-4.054275	Qb	0.2902285
-3.604306	Qk	0.286917
-4.054275	Qm	0.2902285
-4.054275	Qn	0.2902285
-4.054275	Qs	0.2902285
-4.054275	Qsk	0.2902285
-4.054275	S#	0.2902285
-4.054275	S#In	0.2902285
-4.054275	S#Ut	0.2902285
-4.054275	S#ft	0.2902285
-3.482884	S1	0.2852707
-4.054275	S5	0.2902285
-3.388098	S@	0.2836306
-4.054275	S@p	0.2902285
-4.054275	SE	0.2902285
-4.054275	SE@R	0.2902285
-4.054275	SElf	0.2902285
-4.054275	SH	0.2902285
-3.388098	SI	0.2836306
-4.054275	SI@R	0.2902285
-4.054275	SIN	0.2902285
-4.054275	SIft	0.2902285
-4.054275	SIn	0.2902285
-4.054275	SP	0.2902285
-4.054275	SV	0.2902285
-3.482884	Si	0.2852707
-4.054275	SiS	0.2902285
-4.054275	Sild	0.2902285
-4.054275	Sin	0.2902285
-4.054275	Siz	0.2902285
-4.054275	Sr#Ik	0.2902285
-4.054275	Sr#Iv	0.2902285
-4.054275	Sr#Ud	0.2902285
-4.054275	SrEd	0.2902285
-4.054275	SrI	0.2902285
-4.054275	SrIft	0.2902285
-4.054275	SrVb	0.2902285
-4.054275	Srik	0.2902285
-4.054275	Srud	0.2902285
-4.054275	Sr{p	0.2902285
-3.604306	Su	0.286917
-4.054275	Sut	0.2902285
-3.187183	S{	0.2787472
-4.054275	S{Nk	0.2902285
-3.604306	S{m	0.286917
-4.054275	T#U	0.2902285
-4.054275	T$	0.2902285
-4.054275	T3	0.2902285
-4.054275	T3st	0.2902285
-3.604306	T@	0.286917
-4.054275	T@d	0.2902285
-3.604306	TI	0.286917
-3.773449	TI@	0.2885696
-4.054275	TI@n	0.2902285
-4.054275	TINk	0.2902285
-4.054275	TIl	0.2902285
-4.054275	TIm	0.2902285
-4.054275	TIst	0.2902285
-3.773449	TP	0.2885696
-4.054275	TQs	0.2902285
-4.054275	TVmp	0.2902285
-4.054275	Tr#Iv	0.2902285
-4.054275	Tr$l	0.2902285
-4.054275	Tr5n	0.2902285
-4.054275	Tr5t	0.2902285
-4.054275	TrEd	0.2902285
-4.054275	TrEt	0.2902285
-4.054275	TrIft	0.2902285
-3.773449	TrQ	0.2885696
-4.054275	TrQN	0.2902285
-4.054275	TrQb	0.2902285
-4.054275	TrVS	0.2902285
-4.054275	TrVm	0.2902285
-4.054275	TrVst	0.2902285
-4.054275	Tr{S	0.2902285
-3.773449	V	0.2885696
-4.054275	VN	0.2902285
-4.054275	Vl	0.2902285
-3.773449	Vm	0.2885696
-4.054275	Vn	0.2902285
-3.773449	Z1	0.2885696
-4.054275	Z@R	0.2902285
-4.054275	Zin	0.2902285
-3.773449	_#	0.2885696
-3.773449	_#I	0.2885696
-4.054275	_#Ul	0.2902285
-4.054275	_$n	0.2902285
-4.054275	_$nt	0.2902285
-3.773449	_3	0.2885696
-4.054275	_3n	0.2902285
-3.773449	_5	0.2885696
-4.054275	_5lt	0.2902285
-3.388098	_@	0.2836306
-4.054275	_@R	0.2902285
-3.773449	_@l	0.2885696
-3.310338	_@n	0.2819967
-4.054275	_@nd	0.2902285
-3.604306	_@nt	0.286917
-3.773449	_E	0.2885696
-3.773449	_Ekt	0.2885696
-3.482884	_En	0.2852707
-4.054275	_Ent	0.2902285
-3.773449	_Est	0.2885696
-4.054275	_Et	0.2902285
-3.482884	_I	0.2852707
-3.773449	_IN	0.2885696
-4.054275	_Id	0.2902285
-4.054275	_Ik	0.2902285
-4.054275	_Ikt	0.2902285
-3.24441	_In	0.2803689
-4.054275	_Ist	0.2902285
-3.482884	_It	0.2852707
-3.773449	_Q	0.2885696
-4.054275	_QIn	0.2902285
-4.054275	_QIst	0.2902285
-4.054275	_QN	0.2902285
-4.054275	_Qd	0.2902285
-4.054275	_V	0.2902285
-4.054275	_VN	0.2902285
-4.054275	_VNk	0.2902285
-4.054275	_Vm	0.2902285
-4.054275	_Vmp	0.2902285
-3.604306	_i	0.286917
-4.054275	_il	0.2902285
-4.054275	_in	0.2902285
-3.773449	_u	0.2885696
-4.054275	_ub	0.2902285
-4.054275	_un	0.2902285
-4.054275	_{	0.2902285
-4.054275	_{k	0.2902285
-4.054275	_{m	0.2902285
-4.054275	_{s	0.2902285
-4.054275	_{v	0.2902285
-3.24441	b#	0.2803689
-3.388098	b#I	0.2836306
-4.054275	b#Id	0.2902285
-3.773449	b#In	0.2885696
-4.054275	b#It	0.2902285
-4.054275	b#R	0.2902285
-4.054275	b#Und	0.2902285
-4.054275	b#Uns	0.2902285
-4.054275	b#Ut	0.2902285
-4.054275	b#sk	0.2902285
-3.604306	b$	0.286917
-4.054275	b$l	0.2902285
-4.054275	b$ld	0.2902285
-4.054275	b$lt	0.2902285
-3.136626	b1	0.2771315
-4.054275	b1st	0.2902285
-3.310338	b3	0.2819967
-4.054275	b3g	0.2902285
-3.091347	b5	0.2755218
-4.054275	b5ld	0.2902285
-4.054275	b5lt	0.2902285
-4.054275	b5n	0.2902285
-2.751276	b@	0.256657
-3.388098	b@R	0.2836306
-3.773449	b@d	0.2885696
-4.054275	b@l	0.2902285
-4.054275	b@ld	0.2902285
-3.310338	b@n	0.2819967
-4.054275	b@nd	0.2902285
-3.482884	b@s	0.2852707
-3.773449	b@t	0.2885696
-3.091347	bE	0.2755218
-4.054275	bE@R	0.2902285
-4.054275	bEd	0.2902285
-4.054275	bEks	0.2902285
-4.054275	bEl	0.2902285
-4.054275	bElt	0.2902285
-4.054275	bEnJ	0.2902285
-4.054275	bEnd	0.2902285
-4.054275	bEnt	0.2902285
-4.054275	bEt	0.2902285
-2.751276	bI	0.256657
-4.054275	bI@	0.2902285
-4.054275	bI@R	0.2902285
-4.054275	bI@d	0.2902285
-4.054275	bIN	0.2902285
-4.054275	bIS	0.2902285
-3.773449	bId	0.2885696
-4.054275	bIl	0.2902285
-4.054275	bIlk	0.2902285
-3.388098	bIn	0.2836306
-4.054275	bIs	0.2902285
-4.054275	bIsk	0.2902285
-3.310338	bIt	0.2819967
-2.354516	bP	0.2086439
-3.24441	bQ	0.2803689
-4.054275	bQIl	0.2902285
-4.054275	bQN	0.2902285
-4.054275	bQS	0.2902285
-4.054275	bQks	0.2902285
-4.054275	bQl	0.2902285
-4.054275	bQm	0.2902285
-4.054275	bQnd	0.2902285
-4.054275	bQt	0.2902285
-3.604306	bU	0.286917
-3.773449	bU@R	0.2885696
-4.054275	bU@s	0.2902285
-3.388098	bV	0.2836306
-3.604306	bVN	0.286917
-4.054275	bVb	0.2902285
-4.054275	bVg	0.2902285
-4.054275	bVl_	0.2902285
-4.054275	bVlk	0.2902285
-4.054275	bVm	0.2902285
-4.054275	bVmf	0.2902285
-4.054275	bVmp	0.2902285
-4.054275	bVnJ	0.2902285
-4.054275	bVnd	0.2902285
-4.054275	bVsk	0.2902285
-3.773449	bVst	0.2885696
-4.054275	bVv	0.2902285
-3.482884	bi	0.2852707
-4.054275	bis	0.2902285
-3.773449	bist	0.2885696
-3.604306	biz	0.286917
-3.604306	bjU	0.286917
-4.054275	bjU@	0.2902285
-4.054275	bju	0.2902285
-4.054275	bjun	0.2902285
-4.054275	bjut	0.2902285
-4.054275	bl#	0.2902285
-4.054275	bl#ID	0.2902285
-4.054275	bl#I_	0.2902285
-4.054275	bl#Ind	0.2902285
-4.054275	bl#It	0.2902285
-4.054275	bl#Uz	0.2902285
-4.054275	bl#nJ	0.2902285
-4.054275	bl#st	0.2902285
-4.054275	bl1	0.2902285
-4.054275	bl1d	0.2902285
-4.054275	bl1m	0.2902285
-4.054275	bl1z	0.2902285
-4.054275	bl3R	0.2902285
-4.054275	bl3b	0.2902285
-4.054275	bl5k	0.2902285
-4.054275	bl5t	0.2902285
-3.773449	bl@m	0.2885696
-4.054275	blEnJ	0.2902285
-4.054275	blEnd	0.2902285
-4.054275	blEs	0.2902285
-4.054275	blIn	0.2902285
-4.054275	blIp	0.2902285
-4.054275	blIs	0.2902285
-4.054275	blIts	0.2902285
-4.054275	blQJ	0.2902285
-4.054275	blQb	0.2902285
-4.054275	blQnd	0.2902285
-4.054275	blQt	0.2902285
-4.054275	blV	0.2902285
-4.054275	blVS	0.2902285
-4.054275	blVd	0.2902285
-4.054275	blVf	0.2902285
-4.054275	blVnt	0.2902285
-4.054275	bliJ	0.2902285
-4.054275	blik	0.2902285
-4.054275	blip	0.2902285
-4.054275	blum	0.2902285
-4.054275	bl{b	0.2902285
-4.054275	bl{k	0.2902285
-4.054275	bl{nd	0.2902285
-3.773449	br#I	0.2885696
-4.054275	br#Ib	0.2902285
-4.054275	br#Id	0.2902285
-4.054275	br#In	0.2902285
-4.054275	br#It	0.2902285
-4.054275	br#Un	0.2902285
-4.054275	br#Uz	0.2902285
-4.054275	br#nJ	0.2902285
-4.054275	br#s	0.2902285
-4.054275	br$d	0.2902285
-4.054275	br$l	0.2902285
-4.054275	br1d	0.2902285
-3.773449	br1n	0.2885696
-4.054275	br1s	0.2902285
-4.054275	br1v	0.2902285
-4.054275	br1z	0.2902285
-4.054275	br5J	0.2902285
-4.054275	br5g	0.2902285
-3.604306	br@	0.286917
-4.054275	brET	0.2902285
-4.054275	brEd	0.2902285
-4.054275	brEst	0.2902285
-3.482884	brI	0.2852707
-4.054275	brINk	0.2902285
-4.054275	brI_	0.2902285
-4.054275	brId	0.2902285
-4.054275	brIg	0.2902285
-3.773449	brIk	0.2885696
-4.054275	brIl	0.2902285
-4.054275	brIm	0.2902285
-4.054275	brIsk	0.2902285
-4.054275	brQ	0.2902285
-4.054275	brQIl	0.2902285
-4.054275	brQN	0.2902285
-4.054275	brQT	0.2902285
-4.054275	brQnz	0.2902285
-4.054275	brUk	0.2902285
-4.054275	brVS	0.2902285
-4.054275	briJ	0.2902285
-4.054275	brid	0.2902285
-4.054275	brif	0.2902285
-4.054275	brim	0.2902285
-4.054275	briz	0.2902285
-4.054275	bru	0.2902285
-4.054275	brum	0.2902285
-4.054275	brut	0.2902285
-4.054275	bruz	0.2902285
-3.773449	br{	0.2885696
-4.054275	br{d	0.2902285
-4.054275	br{kt	0.2902285
-4.054275	br{m	0.2902285
-4.054275	br{n	0.2902285
-4.054275	br{nd	0.2902285
-4.054275	br{t	0.2902285
-3.187183	bu	0.2787472
-4.054275	bun	0.2902285
-4.054275	bus	0.2902285
-4.054275	bust	0.2902285
-2.792472	b{	0.2597448
-4.054275	b{S	0.2902285
-3.773449	b{b	0.2885696
-4.054275	b{k	0.2902285
-3.773449	b{l	0.2885696
-4.054275	b{m	0.2902285
-3.482884	b{n	0.2852707
-3.773449	b{st	0.2885696
-3.136626	d#I	0.2771315
-3.773449	d#Im	0.2885696
-3.773449	d#In	0.2885696
-3.773449	d#Is	0.2885696
-4.054275	d#Iv	0.2902285
-3.604306	d#R	0.286917
-4.054275	d#U	0.2902285
-4.054275	d#Un	0.2902285
-4.054275	d#Us	0.2902285
-4.054275	d#Ut	0.2902285
-3.482884	d$	0.2852707
-3.24441	d$R	0.2803689
-4.054275	d$nt	0.2902285
-3.310338	d1	0.2819967
-4.054275	d1t	0.2902285
-4.054275	d3	0.2902285
-4.054275	d3m	0.2902285
-4.054275	d3n	0.2902285
-2.916691	d5	0.2675617
-4.054275	d5n	0.2902285
-4.054275	d5t	0.2902285
-2.946449	d@	0.2691421
-2.837989	d@R	0.2628547
-3.604306	d@k	0.286917
-4.054275	d@l	0.2902285
-3.482884	d@m	0.2852707
-3.482884	d@n	0.2852707
-4.054275	d@nt	0.2902285
-4.054275	d@s	0.2902285
-3.091347	dE	0.2755218
-4.054275	dE@R	0.2902285
-4.054275	dEft	0.2902285
-4.054275	dEks	0.2902285
-3.773449	dEl	0.2885696
-4.054275	dElft	0.2902285
-4.054275	dEm	0.2902285
-4.054275	dEpt	0.2902285
-4.054275	dEsk	0.2902285
-3.388098	dH	0.2836306
-2.562913	dI	0.2385776
-3.773449	dI@R	0.2885696
-4.054275	dI@t	0.2902285
-3.773449	dIN	0.2885696
-4.054275	dIg	0.2902285
-3.773449	dIk	0.2885696
-3.773449	dIkt	0.2885696
-3.604306	dIl	0.286917
-4.054275	dInt	0.2902285
-4.054275	dIs	0.2902285
-4.054275	dIsk	0.2902285
-4.054275	dIst	0.2902285
-3.482884	dIt	0.2852707
-2.422647	dP	0.2198053
-3.310338	dQ	0.2819967
-4.054275	dQI	0.2902285
-4.054275	dQN	0.2902285
-4.054275	dQg	0.2902285
-4.054275	dQk	0.2902285
-3.773449	dQl	0.2885696
-4.054275	dQn	0.2902285
-4.054275	dQs	0.2902285
-4.054275	dU	0.2902285
-4.054275	dU@R	0.2902285
-3.24441	dV	0.2803689
-4.054275	dVN	0.2902285
-4.054275	dVNk	0.2902285
-4.054275	dVkt	0.2902285
-4.054275	dVl_	0.2902285
-4.054275	dVlt	0.2902285
-3.773449	dVm	0.2885696
-4.054275	dVmp	0.2902285
-4.054275	dVn	0.2902285
-4.054275	dVns	0.2902285
-4.054275	dVsk	0.2902285
-3.604306	di	0.286917
-4.054275	dil	0.2902285
-3.773449	din	0.2885696
-3.310338	dju	0.2819967
-4.054275	djuk	0.2902285
-4.054275	djun	0.2902285
-4.054275	djup	0.2902285
-4.054275	djus	0.2902285
-4.054275	dr#	0.2902285
-3.773449	dr#I	0.2885696
-4.054275	dr#Iv	0.2902285
-4.054275	dr#Un	0.2902285
-4.054275	dr#Uz	0.2902285
-4.054275	dr#ft	0.2902285
-4.054275	dr#s	0.2902285
-4.054275	dr$l	0.2902285
-4.054275	dr1k	0.2902285
-4.054275	dr1n	0.2902285
-4.054275	dr1p	0.2902285
-4.054275	dr5g	0.2902285
-4.054275	dr5l	0.2902285
-4.054275	dr5n	0.2902285
-4.054275	dr5v	0.2902285
-4.054275	dr@	0.2902285
-4.054275	dr@d	0.2902285
-4.054275	dr@l	0.2902285
-4.054275	dr@n	0.2902285
-4.054275	drE_	0.2902285
-4.054275	drEd	0.2902285
-4.054275	drEs	0.2902285
-3.604306	drI	0.286917
-4.054275	drI@R	0.2902285
-4.054275	drINk	0.2902285
-4.054275	drIft	0.2902285
-4.054275	drQp	0.2902285
-4.054275	drQs	0.2902285
-4.054275	drVNk	0.2902285
-4.054275	drV_	0.2902285
-4.054275	drVf	0.2902285
-3.773449	drVm	0.2885696
-4.054275	dru	0.2902285
-4.054275	drul	0.2902285
-4.054275	drun	0.2902285
-4.054275	drup	0.2902285
-4.054275	dr{	0.2902285
-4.054275	dr{b	0.2902285
-4.054275	dr{g	0.2902285
-4.054275	dr{k	0.2902285
-4.054275	dr{m	0.2902285
-4.054275	dr{t	0.2902285
-3.482884	du	0.2852707
-4.054275	dw$f	0.2902285
-4.054275	dwEl	0.2902285
-4.054275	dwIn	0.2902285
-3.388098	d{	0.2836306
-4.054275	d{N	0.2902285
-3.773449	d{m	0.2885696
-4.054275	d{mp	0.2902285
-3.604306	d{n	0.286917
-3.482884	f#I	0.2852707
-4.054275	f#Id	0.2902285
-4.054275	f#If	0.2902285
-3.773449	f#Il	0.2885696
-4.054275	f#Ind	0.2902285
-4.054275	f#It	0.2902285
-4.054275	f#Iv	0.2902285
-4.054275	f#Ul	0.2902285
-4.054275	f#Un	0.2902285
-4.054275	f#Und	0.2902285
-3.482884	f$	0.2852707
-4.054275	f$ls	0.2902285
-4.054275	f$m	0.2902285
-3.604306	f1	0.286917
-4.054275	f1n	0.2902285
-4.054275	f1nt	0.2902285
-3.482884	f3	0.2852707
-4.054275	f3st	0.2902285
-3.604306	f5	0.286917
-3.773449	f5ld	0.2885696
-3.012882	f@	0.2723202
-3.388098	f@R	0.2836306
-4.054275	f@l	0.2902285
-4.054275	f@nt	0.2902285
-3.773449	f@t	0.2885696
-3.136626	fE	0.2771315
-3.604306	fE@R	0.286917
-4.054275	fEns	0.2902285
-4.054275	fEst	0.2902285
-3.773449	fH	0.2885696
-2.888842	fI	0.265987
-4.054275	fI@	0.2902285
-4.054275	fINk	0.2902285
-4.054275	fIlT	0.2902285
-3.24441	fIn	0.2803689
-4.054275	fInJ	0.2902285
-4.054275	fIst	0.2902285
-3.482884	fIt	0.2852707
-3.012882	fP	0.2723202
-3.310338	fQ	0.2819967
-4.054275	fQIl	0.2902285
-4.054275	fQks	0.2902285
-3.604306	fQn	0.286917
-4.054275	fQnd	0.2902285
-4.054275	fQnt	0.2902285
-4.054275	fQz	0.2902285
-4.054275	fUl	0.2902285
-3.604306	fV	0.286917
-4.054275	fVN	0.2902285
-4.054275	fVNk	0.2902285
-4.054275	fVm	0.2902285
-4.054275	fVnd	0.2902285
-3.187183	fi	0.2787472
-4.054275	find	0.2902285
-4.054275	fist	0.2902285
-3.773449	fjU@	0.2885696
-4.054275	fjU@l	0.2902285
-3.773449	fju	0.2885696
-4.054275	fju_	0.2902285
-4.054275	fjug	0.2902285
-4.054275	fjum	0.2902285
-4.054275	fl#I	0.2902285
-4.054275	fl#U	0.2902285
-4.054275	fl#Uns	0.2902285
-4.054275	fl#sk	0.2902285
-4.054275	fl$	0.2902285
-4.054275	fl$nt	0.2902285
-4.054275	fl1m	0.2902285
-4.054275	fl3t	0.2902285
-3.773449	fl@	0.2885696
-4.054275	flES	0.2902285
-4.054275	flEk	0.2902285
-4.054275	flEks	0.2902285
-4.054275	flEm	0.2902285
-4.054275	flIJ	0.2902285
-4.054275	flIk	0.2902285
-4.054275	flInJ	0.2902285
-4.054275	flInt	0.2902285
-4.054275	flIp	0.2902285
-4.054275	flQ	0.2902285
-4.054275	flQg	0.2902285
-4.054275	flQk	0.2902285
-4.054275	flQs	0.2902285
-4.054275	flVNk	0.2902285
-4.054275	flVd	0.2902285
-4.054275	flVf	0.2902285
-4.054275	flis	0.2902285
-3.773449	flu	0.2885696
-4.054275	fluk	0.2902285
-4.054275	flut	0.2902285
-3.773449	fl{	0.2885696
-4.054275	fl{Nk	0.2902285
-4.054275	fl{S	0.2902285
-4.054275	fl{g	0.2902285
-4.054275	fl{k	0.2902285
-4.054275	fl{ks	0.2902285
-4.054275	fl{n	0.2902285
-4.054275	fl{n_	0.2902285
-4.054275	fl{p	0.2902285
-4.054275	fl{t	0.2902285
-4.054275	fr#Un	0.2902285
-4.054275	fr$d	0.2902285
-4.054275	fr1	0.2902285
-4.054275	fr1d	0.2902285
-4.054275	fr1m	0.2902285
-4.054275	fr1t	0.2902285
-3.773449	fr1z	0.2885696
-3.773449	fr@	0.2885696
-4.054275	fr@n	0.2902285
-4.054275	frE	0.2902285
-4.054275	frES	0.2902285
-4.054275	frEnd	0.2902285
-4.054275	frEs	0.2902285
-3.482884	frI	0.2852707
-4.054275	frIl	0.2902285
-4.054275	frIn_	0.2902285
-4.054275	frIsk	0.2902285
-4.054275	frQ	0.2902285
-4.054275	frQT	0.2902285
-4.054275	frQg	0.2902285
-4.054275	frQk	0.2902285
-4.054275	frQm	0.2902285
-4.054275	frQnd	0.2902285
-4.054275	frQst	0.2902285
-4.054275	frVmp	0.2902285
-3.773449	frVnt	0.2885696
-4.054275	fri	0.2902285
-4.054275	frik	0.2902285
-4.054275	friz	0.2902285
-4.054275	fr{	0.2902285
-4.054275	fr{N	0.2902285
-4.054275	fr{Nk	0.2902285
-4.054275	fr{s	0.2902285
-3.388098	f{	0.2836306
-3.773449	f{kt	0.2885696
-4.054275	f{lt	0.2902285
-4.054275	f{n	0.2902285
-3.187183	g#	0.2787472
-4.054275	g#Id	0.2902285
-4.054275	g#Il	0.2902285
-3.773449	g#R	0.2885696
-4.054275	g#U	0.2902285
-4.054275	g#U_	0.2902285
-4.054275	g#Un	0.2902285
-4.054275	g#Ut	0.2902285
-4.054275	g#sp	0.2902285
-4.054275	g$	0.2902285
-4.054275	g$nt	0.2902285
-3.773449	g1	0.2885696
-3.773449	g3	0.2885696
-2.888842	g5	0.265987
-4.054275	g5ld	0.2902285
-4.054275	g5st	0.2902285
-2.792472	g@	0.2597448
-3.187183	g@R	0.2787472
-3.773449	g@m	0.2885696
-3.091347	g@n	0.2755218
-3.482884	g@s	0.2852707
-3.482884	g@t	0.2852707
-4.054275	gE	0.2902285
-4.054275	gEn	0.2902285
-4.054275	gEst	0.2902285
-3.187183	gI	0.2787472
-4.054275	gI@R	0.2902285
-4.054275	gIft	0.2902285
-4.054275	gIld	0.2902285
-4.054275	gIlt	0.2902285
-3.773449	gIn	0.2885696
-4.054275	gInz	0.2902285
-4.054275	gIs	0.2902285
-3.773449	gIt	0.2885696
-2.662699	gP	0.2490322
-3.388098	gQ	0.2836306
-4.054275	gQI	0.2902285
-4.054275	gQIl	0.2902285
-4.054275	gQN	0.2902285
-3.773449	gQg	0.2885696
-3.773449	gQn	0.2885696
-4.054275	gU	0.2902285
-4.054275	gU@d	0.2902285
-3.388098	gV	0.2836306
-4.054275	gVlf	0.2902285
-4.054275	gVlp	0.2902285
-4.054275	gVn	0.2902285
-3.773449	gVst	0.2885696
-4.054275	gjU@R	0.2902285
-4.054275	gju	0.2902285
-4.054275	gjum	0.2902285
-4.054275	gl#ns	0.2902285
-4.054275	gl#s	0.2902285
-4.054275	gl1d	0.2902285
-4.054275	gl1z	0.2902285
-4.054275	gl5b	0.2902285
-4.054275	gl5t	0.2902285
-4.054275	gl@n	0.2902285
-4.054275	glE@R	0.2902285
-4.054275	glEn	0.2902285
-4.054275	glIb	0.2902285
-4.054275	glImps	0.2902285
-4.054275	glInt	0.2902285
-4.054275	glQs	0.2902285
-4.054275	glVm	0.2902285
-4.054275	glVt	0.2902285
-4.054275	glib	0.2902285
-4.054275	glim	0.2902285
-4.054275	glin	0.2902285
-3.773449	glu	0.2885696
-4.054275	glum	0.2902285
-4.054275	gl{d	0.2902285
-4.054275	gr#Im	0.2902285
-4.054275	gr#Ip	0.2902285
-4.054275	gr#UJ	0.2902285
-4.054275	gr#Ul	0.2902285
-4.054275	gr#Und	0.2902285
-4.054275	gr#Us	0.2902285
-4.054275	gr#f	0.2902285
-4.054275	gr#ft	0.2902285
-4.054275	gr#nt	0.2902285
-4.054275	gr#s	0.2902285
-4.054275	gr1d	0.2902285
-4.054275	gr1l	0.2902285
-4.054275	gr1n	0.2902285
-4.054275	gr1p	0.2902285
-4.054275	gr1s	0.2902285
-4.054275	gr1t	0.2902285
-4.054275	gr1v	0.2902285
-4.054275	gr1z	0.2902285
-4.054275	gr5	0.2902285
-4.054275	gr5n	0.2902285
-4.054275	gr5p	0.2902285
-4.054275	gr5s	0.2902285
-4.054275	gr5t	0.2902285
-4.054275	gr5v	0.2902285
-4.054275	gr@	0.2902285
-4.054275	gr@l	0.2902285
-4.054275	gr@m	0.2902285
-4.054275	grE	0.2902285
-4.054275	grEm	0.2902285
-4.054275	grEs	0.2902285
-3.482884	grI	0.2852707
-4.054275	grId	0.2902285
-3.604306	grIm	0.286917
-3.773449	grIn	0.2885696
-4.054275	grIp	0.2902285
-4.054275	grIst	0.2902285
-4.054275	grIt	0.2902285
-3.773449	grQ	0.2885696
-4.054275	grQIn	0.2902285
-4.054275	grQt	0.2902285
-4.054275	grU@l	0.2902285
-4.054275	grV_	0.2902285
-4.054275	grVb	0.2902285
-4.054275	grVm	0.2902285
-4.054275	grVnt	0.2902285
-3.604306	gri	0.286917
-4.054275	grib	0.2902285
-3.773449	grin	0.2885696
-4.054275	gris	0.2902285
-4.054275	grit	0.2902285
-4.054275	grum	0.2902285
-3.604306	gr{	0.286917
-4.054275	gr{b	0.2902285
-3.773449	gr{m	0.2885696
-4.054275	gr{nd	0.2902285
-3.773449	gu	0.2885696
-3.773449	gun	0.2885696
-4.054275	gus	0.2902285
-4.054275	gwIn	0.2902285
-2.946449	g{	0.2691421
-4.054275	g{N	0.2902285
-4.054275	g{m	0.2902285
-4.054275	g{mp	0.2902285
-4.054275	g{s	0.2902285
-3.091347	h#	0.2755218
-3.187183	h#I	0.2787472
-4.054275	h#Id	0.2902285
-4.054275	h#Ik	0.2902285
-4.054275	h#Ind	0.2902285
-4.054275	h#It	0.2902285
-4.054275	h#Iv	0.2902285
-4.054275	h#U	0.2902285
-4.054275	h#Ul	0.2902285
-4.054275	h#Und	0.2902285
-4.054275	h#Us	0.2902285
-4.054275	h#Ut	0.2902285
-4.054275	h#d	0.2902285
-4.054275	h#sp	0.2902285
-4.054275	h#t	0.2902285
-3.773449	h$	0.2885696
-4.054275	h$k	0.2902285
-4.054275	h$nt	0.2902285
-4.054275	h1	0.2902285
-4.054275	h1st	0.2902285
-3.482884	h3	0.2852707
-4.054275	h3ts	0.2902285
-3.773449	h5	0.2885696
-4.054275	h5st	0.2902285
-3.604306	h@	0.286917
-3.310338	hE	0.2819967
-4.054275	hE@R	0.2902285
-4.054275	hEk	0.2902285
-4.054275	hEl	0.2902285
-4.054275	hElm	0.2902285
-4.054275	hElp	0.2902285
-4.054275	hEm	0.2902285
-4.054275	hEmp	0.2902285
-3.604306	hI	0.286917
-4.054275	hI@	0.2902285
-4.054275	hI@R	0.2902285
-4.054275	hIb	0.2902285
-4.054275	hIlt	0.2902285
-4.054275	hIn_	0.2902285
-4.054275	hInt	0.2902285
-3.187183	hQ	0.2787472
-4.054275	hQIst	0.2902285
-4.054275	hQNk	0.2902285
-4.054275	hQm	0.2902285
-3.773449	hU	0.2885696
-3.604306	hV	0.286917
-4.054275	hVNk	0.2902285
-4.054275	hVlk	0.2902285
-3.604306	hVm	0.286917
-4.054275	hVmp	0.2902285
-4.054275	hVn	0.2902285
-4.054275	hVnJ	0.2902285
-4.054275	hVnt	0.2902285
-4.054275	hVsk	0.2902285
-4.054275	hVz	0.2902285
-3.482884	hju	0.2852707
-3.604306	hu	0.286917
-4.054275	huts	0.2902285
-2.916691	h{	0.2675617
-4.054275	h{Nk	0.2902285
-3.773449	h{n	0.2885696
-4.054275	h{nd	0.2902285
-3.482884	i	0.2852707
-4.054275	is	0.2902285
-4.054275	j#Ul	0.2902285
-3.604306	j5	0.286917
-3.604306	j@	0.286917
-4.054275	j@d	0.2902285
-4.054275	j@n	0.2902285
-4.054275	jE	0.2902285
-4.054275	jElp	0.2902285
-4.054275	jQ	0.2902285
-4.054275	jU@	0.2902285
-4.054275	jV	0.2902285
-4.054275	jild	0.2902285
-4.054275	jist	0.2902285
-3.136626	ju	0.2771315
-4.054275	j{Nk	0.2902285
-4.054275	j{k	0.2902285
-2.946449	k#	0.2691421
-3.773449	k#I	0.2885696
-4.054275	k#Ik	0.2902285
-4.054275	k#Ind	0.2902285
-4.054275	k#It	0.2902285
-4.054275	k#U	0.2902285
-4.054275	k#UJ	0.2902285
-4.054275	k#Unt	0.2902285
-4.054275	k#d	0.2902285
-4.054275	k#sk	0.2902285
-4.054275	k#st	0.2902285
-3.050345	k$	0.2739181
-4.054275	k$R	0.2902285
-4.054275	k$d	0.2902285
-3.773449	k$n	0.2885696
-3.012882	k1	0.2723202
-4.054275	k1n	0.2902285
-3.482884	k3	0.2852707
-4.054275	k3R	0.2902285
-2.695994	k5	0.2520661
-4.054275	k5ld	0.2902285
-4.054275	k5lt	0.2902285
-4.054275	k5n	0.2902285
-4.054275	k5s	0.2902285
-4.054275	k5st	0.2902285
-2.387247	k@	0.2141888
-3.012882	k@R	0.2723202
-4.054275	k@d	0.2902285
-4.054275	k@l	0.2902285
-3.310338	k@m	0.2819967
-2.679027	k@n	0.2505465
-3.482884	k@nd	0.2852707
-3.482884	k@s	0.2852707
-4.054275	k@st	0.2902285
-4.054275	k@t	0.2902285
-4.054275	k@z	0.2902285
-3.482884	kE	0.2852707
-4.054275	kE@	0.2902285
-4.054275	kE@R	0.2902285
-4.054275	kE@n	0.2902285
-4.054275	kElp	0.2902285
-4.054275	kEs	0.2902285
-3.136626	kI	0.2771315
-4.054275	kI@S	0.2902285
-4.054275	kINk	0.2902285
-3.773449	kId	0.2885696
-4.054275	kIln	0.2902285
-4.054275	kIlt	0.2902285
-3.388098	kIn	0.2836306
-4.054275	kInt	0.2902285
-4.054275	kIs	0.2902285
-3.012882	kIt	0.2723202
-4.054275	kIts	0.2902285
-2.562913	kP	0.2385776
-2.732056	kQ	0.2551213
-3.773449	kQI	0.2885696
-4.054275	kQIf	0.2902285
-4.054275	kQIl	0.2902285
-4.054275	kQIn	0.2902285
-3.604306	kQN	0.286917
-4.054275	kQg	0.2902285
-4.054275	kQk	0.2902285
-4.054275	kQl	0.2902285
-3.388098	kQm	0.2836306
-3.012882	kQn	0.2723202
-4.054275	kQnJ	0.2902285
-3.773449	kQst	0.2885696
-3.773449	kU	0.2885696
-3.310338	kV	0.2819967
-3.773449	kVl	0.2885696
-4.054275	kVlt	0.2902285
-3.482884	kVm	0.2852707
-4.054275	kVnt	0.2902285
-4.054275	kVp	0.2902285
-4.054275	kVs	0.2902285
-4.054275	kVsp	0.2902285
-4.054275	kVt	0.2902285
-3.388098	ki	0.2836306
-4.054275	kin	0.2902285
-4.054275	kit	0.2902285
-3.604306	kjU	0.286917
-3.604306	kjU@	0.286917
-3.773449	kjU@R	0.2885696
-3.24441	kju	0.2803689
-4.054275	kjub	0.2902285
-4.054275	kjul	0.2902285
-4.054275	kjut	0.2902285
-4.054275	kjuz	0.2902285
-4.054275	kl#I	0.2902285
-4.054275	kl#Im	0.2902285
-4.054275	kl#Ud	0.2902285
-4.054275	kl#Un	0.2902285
-4.054275	kl#Ut	0.2902285
-4.054275	kl#k	0.2902285
-4.054275	kl#s	0.2902285
-4.054275	kl$z	0.2902285
-4.054275	kl1m	0.2902285
-3.773449	kl5n	0.2885696
-4.054275	kl@	0.2902285
-3.773449	klE	0.2885696
-4.054275	klE@R	0.2902285
-4.054275	klEf	0.2902285
-4.054275	klEnJ	0.2902285
-4.054275	klEnz	0.2902285
-4.054275	klI@R	0.2902285
-4.054275	klI@s	0.2902285
-4.054275	klINk	0.2902285
-4.054275	klIf	0.2902285
-4.054275	klIn	0.2902285
-4.054275	klInJ	0.2902285
-4.054275	klQI	0.2902285
-4.054275	klQS	0.2902285
-4.054275	klQT	0.2902285
-4.054275	klQd	0.2902285
-3.773449	klQg	0.2885696
-4.054275	klQk	0.2902285
-4.054275	klQt	0.2902285
-4.054275	klVJ	0.2902285
-4.054275	klVNk	0.2902285
-4.054275	klVb	0.2902285
-4.054275	klVk	0.2902285
-4.054275	klVmp	0.2902285
-4.054275	kli	0.2902285
-4.054275	klik	0.2902285
-4.054275	klin	0.2902285
-4.054275	klit	0.2902285
-4.054275	kliv	0.2902285
-3.604306	kl{	0.286917
-4.054275	kl{N	0.2902285
-4.054275	kl{Nk	0.2902285
-4.054275	kl{S	0.2902285
-4.054275	kl{d	0.2902285
-3.773449	kl{k	0.2885696
-4.054275	kl{m	0.2902285
-4.054275	kl{mp	0.2902285
-4.054275	kl{n	0.2902285
-4.054275	kl{p	0.2902285
-4.054275	kr#I	0.2902285
-4.054275	kr#Im	0.2902285
-4.054275	kr#UJ	0.2902285
-4.054275	kr#Ud	0.2902285
-4.054275	kr#Un	0.2902285
-4.054275	kr#ft	0.2902285
-4.054275	kr1	0.2902285
-4.054275	kr1n	0.2902285
-4.054275	kr1p	0.2902285
-4.054275	kr1t	0.2902285
-4.054275	kr1v	0.2902285
-4.054275	kr1z	0.2902285
-3.773449	kr5	0.2885696
-4.054275	kr5k	0.2902285
-4.054275	kr5m	0.2902285
-4.054275	kr5s	0.2902285
-4.054275	kr@	0.2902285
-4.054275	kr@l	0.2902285
-4.054275	krE	0.2902285
-4.054275	krEst	0.2902285
-3.482884	krI	0.2852707
-4.054275	krI@	0.2902285
-4.054275	krI@s	0.2902285
-4.054275	krIN	0.2902285
-4.054275	krIk	0.2902285
-4.054275	krIm	0.2902285
-4.054275	krImp	0.2902285
-4.054275	krIn_	0.2902285
-4.054275	krIpt	0.2902285
-4.054275	krIt	0.2902285
-4.054275	krQft	0.2902285
-4.054275	krQm	0.2902285
-4.054275	krQp	0.2902285
-4.054275	krQs	0.2902285
-4.054275	krU@l	0.2902285
-4.054275	krUk	0.2902285
-4.054275	krVJ	0.2902285
-4.054275	krVS	0.2902285
-4.054275	krVks	0.2902285
-3.773449	krVm	0.2885696
-4.054275	krVnJ	0.2902285
-4.054275	krVst	0.2902285
-3.604306	kri	0.286917
-4.054275	krid	0.2902285
-4.054275	krik	0.2902285
-4.054275	kril	0.2902285
-4.054275	krim	0.2902285
-4.054275	krip	0.2902285
-4.054275	kris	0.2902285
-3.773449	krit	0.2885696
-3.773449	kru	0.2885696
-4.054275	krud	0.2902285
-4.054275	krun	0.2902285
-4.054275	krup	0.2902285
-4.054275	kr{S	0.2902285
-4.054275	kr{b	0.2902285
-4.054275	kr{g	0.2902285
-4.054275	kr{k	0.2902285
-3.773449	kr{m	0.2885696
-4.054275	kr{p	0.2902285
-4.054275	kr{s	0.2902285
-3.482884	ku	0.2852707
-3.604306	kun	0.286917
-3.773449	kus	0.2885696
-4.054275	kv#s	0.2902285
-4.054275	kw#I	0.2902285
-4.054275	kw#k	0.2902285
-4.054275	kw#m	0.2902285
-4.054275	kw$	0.2902285
-4.054275	kw$t	0.2902285
-4.054275	kw$ts	0.2902285
-4.054275	kw1	0.2902285
-4.054275	kw1k	0.2902285
-4.054275	kw1l	0.2902285
-4.054275	kw1nt	0.2902285
-4.054275	kw3k	0.2902285
-4.054275	kw5	0.2902285
-4.054275	kw@l	0.2902285
-4.054275	kwEl	0.2902285
-4.054275	kwEnJ	0.2902285
-3.604306	kwI	0.286917
-4.054275	kwI@m	0.2902285
-4.054275	kwId	0.2902285
-4.054275	kwIf	0.2902285
-4.054275	kwIk	0.2902285
-4.054275	kwIl	0.2902285
-4.054275	kwIlt	0.2902285
-3.604306	kwIn	0.286917
-4.054275	kwIns	0.2902285
-3.773449	kwIp	0.2885696
-4.054275	kwIt	0.2902285
-4.054275	kwIts	0.2902285
-4.054275	kwIz	0.2902285
-3.773449	kwQ	0.2885696
-4.054275	kwQIz	0.2902285
-4.054275	kwQS	0.2902285
-4.054275	kwQd	0.2902285
-4.054275	kwQf	0.2902285
-3.773449	kwQt	0.2885696
-4.054275	kwin	0.2902285
-4.054275	kw{k	0.2902285
-2.526294	k{	0.234173
-4.054275	k{N	0.2902285
-4.054275	k{S	0.2902285
-4.054275	k{f	0.2902285
-3.604306	k{m	0.286917
-4.054275	k{mp	0.2902285
-3.482884	k{n	0.2852707
-4.054275	k{nt	0.2902285
-3.482884	k{p	0.2852707
-4.054275	k{sk	0.2902285
-4.054275	k{t	0.2902285
-3.482884	l#	0.2852707
-3.012882	l#I	0.2723202
-4.054275	l#ID	0.2902285
-4.054275	l#If	0.2902285
-4.054275	l#Ik	0.2902285
-4.054275	l#Il	0.2902285
-4.054275	l#Im	0.2902285
-4.054275	l#It	0.2902285
-4.054275	l#Iv	0.2902285
-4.054275	l#Iz	0.2902285
-3.773449	l#U	0.2885696
-4.054275	l#Ud	0.2902285
-4.054275	l#Un_	0.2902285
-4.054275	l#Us	0.2902285
-3.773449	l#d	0.2885696
-4.054275	l#m	0.2902285
-4.054275	l#nJ	0.2902285
-4.054275	l#ns	0.2902285
-4.054275	l#st	0.2902285
-4.054275	l$R	0.2902285
-4.054275	l$n	0.2902285
-4.054275	l$nJ	0.2902285
-3.310338	l1	0.2819967
-4.054275	l1t	0.2902285
-4.054275	l3t	0.2902285
-2.646962	l5	0.2475232
-2.503491	l@	0.2312612
-3.388098	l@R	0.2836306
-4.054275	l@d	0.2902285
-4.054275	l@k	0.2902285
-3.388098	l@m	0.2836306
-3.187183	l@n	0.2787472
-3.773449	l@nd	0.2885696
-4.054275	l@ns	0.2902285
-4.054275	l@nt	0.2902285
-3.388098	l@p	0.2836306
-3.388098	l@s	0.2836306
-4.054275	l@sk	0.2902285
-4.054275	l@st	0.2902285
-3.388098	l@t	0.2836306
-3.091347	lE	0.2755218
-4.054275	lE@	0.2902285
-4.054275	lE@R	0.2902285
-4.054275	lE@d	0.2902285
-4.054275	lET	0.2902285
-4.054275	lEft	0.2902285
-3.604306	lEk	0.286917
-4.054275	lEks	0.2902285
-4.054275	lEkt	0.2902285
-4.054275	lEn	0.2902285
-4.054275	lEnd	0.2902285
-4.054275	lEnz	0.2902285
-4.054275	lEst	0.2902285
-2.413523	lI	0.2183943
-4.054275	lI@R	0.2902285
-4.054275	lI@n	0.2902285
-4.054275	lI@s	0.2902285
-3.773449	lIN	0.2885696
-4.054275	lINk	0.2902285
-4.054275	lINks	0.2902285
-3.604306	lI_	0.286917
-4.054275	lId	0.2902285
-3.773449	lIf	0.2885696
-4.054275	lIft	0.2902285
-3.482884	lIk	0.2852707
-3.773449	lIks	0.2885696
-3.773449	lIm	0.2885696
-4.054275	lImf	0.2902285
-4.054275	lImp	0.2902285
-3.050345	lIn	0.2739181
-4.054275	lInJ	0.2902285
-3.482884	lIp	0.2852707
-4.054275	lIps	0.2902285
-3.604306	lIs	0.286917
-3.773449	lIsk	0.2885696
-4.054275	lIst	0.2902285
-3.24441	lIt	0.2803689
-3.482884	lQ	0.2852707
-4.054275	lQI	0.2902285
-4.054275	lQIn	0.2902285
-4.054275	lQk	0.2902285
-3.773449	lQn	0.2885696
-4.054275	lQt	0.2902285
-4.054275	lU@	0.2902285
-4.054275	lU@R	0.2902285
-3.773449	lVm	0.2885696
-4.054275	lVmf	0.2902285
-4.054275	lVmp	0.2902285
-4.054275	lVst	0.2902285
-3.604306	li	0.286917
-3.773449	lin	0.2885696
-4.054275	lis	0.2902285
-4.054275	list	0.2902285
-3.773449	lit	0.2885696
-4.054275	liz	0.2902285
-4.054275	lj#d	0.2902285
-4.054275	lj@	0.2902285
-4.054275	lj@d	0.2902285
-3.773449	lj@n	0.2885696
-3.773449	ljU	0.2885696
-4.054275	ljud	0.2902285
-4.054275	ljum	0.2902285
-4.054275	ljuz	0.2902285
-3.136626	lu	0.2771315
-3.773449	lun	0.2885696
-4.054275	lut	0.2902285
-3.24441	l{	0.2803689
-4.054275	l{N	0.2902285
-4.054275	l{Nks	0.2902285
-4.054275	l{S	0.2902285
-4.054275	l{f	0.2902285
-3.773449	l{k	0.2885696
-4.054275	l{ks	0.2902285
-3.773449	l{m	0.2885696
-4.054275	l{mp	0.2902285
-3.773449	l{n	0.2885696
-4.054275	l{nd	0.2902285
-4.054275	l{p	0.2902285
-4.054275	l{ps	0.2902285
-2.771385	m#	0.2581981
-3.604306	m#I	0.286917
-4.054275	m#Il	0.2902285
-4.054275	m#Ild	0.2902285
-4.054275	m#Im	0.2902285
-3.773449	m#In	0.2885696
-4.054275	m#It	0.2902285
-4.054275	m#UT	0.2902285
-4.054275	m#Un	0.2902285
-4.054275	m#Und	0.2902285
-4.054275	m#Us	0.2902285
-4.054275	m#st	0.2902285
-3.604306	m$	0.286917
-3.773449	m$R	0.2885696
-4.054275	m$n	0.2902285
-3.24441	m1	0.2803689
-4.054275	m1n	0.2902285
-4.054275	m1s	0.2902285
-3.482884	m3	0.2852707
-4.054275	m3s	0.2902285
-2.946449	m5	0.2691421
-4.054275	m5d	0.2902285
-4.054275	m5lt	0.2902285
-4.054275	m5n	0.2902285
-4.054275	m5t	0.2902285
-2.339032	m@	0.2058978
-3.136626	m@R	0.2771315
-3.773449	m@T	0.2885696
-3.773449	m@k	0.2885696
-4.054275	m@m	0.2902285
-2.978397	m@n	0.2707282
-3.310338	m@nt	0.2819967
-4.054275	m@nz	0.2902285
-3.773449	m@s	0.2885696
-4.054275	m@sk	0.2902285
-3.773449	m@t	0.2885696
-2.888842	mE	0.265987
-4.054275	mE@R	0.2902285
-4.054275	mEN	0.2902285
-4.054275	mElt	0.2902285
-3.773449	mEm	0.2885696
-3.24441	mEn	0.2803689
-4.054275	mEnd	0.2902285
-3.773449	mEns	0.2885696
-3.773449	mEnt	0.2885696
-2.526294	mI	0.234173
-3.482884	mI@R	0.2852707
-3.773449	mIN	0.2885696
-4.054275	mINk	0.2902285
-4.054275	mINks	0.2902285
-4.054275	mIS	0.2902285
-4.054275	mI_	0.2902285
-3.773449	mId	0.2885696
-4.054275	mIk	0.2902285
-4.054275	mIlJ	0.2902285
-4.054275	mIlt	0.2902285
-3.091347	mIn	0.2755218
-4.054275	mIns	0.2902285
-4.054275	mInt	0.2902285
-3.773449	mIs	0.2885696
-3.388098	mIt	0.2836306
-4.054275	mP	0.2902285
-3.050345	mQ	0.2739181
-4.054275	mQIl	0.2902285
-4.054275	mQIst	0.2902285
-4.054275	mQN	0.2902285
-4.054275	mQk	0.2902285
-4.054275	mQs	0.2902285
-4.054275	mQsk	0.2902285
-4.054275	mU@R	0.2902285
-2.916691	mV	0.2675617
-3.773449	mVN	0.2885696
-3.773449	mVNk	0.2885696
-4.054275	mVf	0.2902285
-4.054275	mVlt	0.2902285
-4.054275	mVm	0.2902285
-4.054275	mVnJ	0.2902285
-4.054275	mVnT	0.2902285
-4.054275	mVs	0.2902285
-4.054275	mVst	0.2902285
-4.054275	mVz	0.2902285
-3.136626	mi	0.2771315
-3.773449	mjU	0.2885696
-3.773449	mju	0.2885696
-4.054275	mjul	0.2902285
-3.604306	mjun	0.286917
-3.773449	mjut	0.2885696
-4.054275	mjuz	0.2902285
-4.054275	mu	0.2902285
-2.662699	m{	0.2490322
-3.773449	m{N	0.2885696
-3.773449	m{g	0.2885696
-4.054275	m{k	0.2902285
-4.054275	m{l	0.2902285
-3.773449	m{m	0.2885696
-3.310338	m{n	0.2819967
-3.773449	m{ns	0.2885696
-3.773449	m{t	0.2885696
-3.482884	n#	0.2852707
-3.604306	n#I	0.286917
-4.054275	n#If	0.2902285
-4.054275	n#In	0.2902285
-4.054275	n#Is	0.2902285
-3.773449	n#It	0.2885696
-4.054275	n#Iv	0.2902285
-3.773449	n#R	0.2885696
-4.054275	n#Un	0.2902285
-4.054275	n#Ut	0.2902285
-4.054275	n#l	0.2902285
-4.054275	n$	0.2902285
-4.054275	n$R	0.2902285
-3.482884	n1	0.2852707
-4.054275	n1d	0.2902285
-4.054275	n1t	0.2902285
-2.837989	n5	0.2628547
-4.054275	n5d	0.2902285
-4.054275	n5m	0.2902285
-4.054275	n5t	0.2902285
-2.492523	n@	0.2298125
-4.054275	n@R	0.2902285
-4.054275	n@d	0.2902285
-3.604306	n@k	0.286917
-4.054275	n@m	0.2902285
-3.773449	n@n	0.2885696
-4.054275	n@nt	0.2902285
-3.24441	n@s	0.2803689
-3.482884	nE	0.2852707
-3.773449	nEk	0.2885696
-4.054275	nEks	0.2902285
-4.054275	nEkst	0.2902285
-4.054275	nEkt	0.2902285
-3.773449	nEl	0.2885696
-4.054275	nEs	0.2902285
-4.054275	nEst	0.2902285
-3.773449	nEt	0.2885696
-2.57584	nI	0.2400558
-3.604306	nI@	0.286917
-3.773449	nI@R	0.2885696
-4.054275	nI@m	0.2902285
-4.054275	nI@n	0.2902285
-4.054275	nIN	0.2902285
-4.054275	nIT	0.2902285
-4.054275	nId	0.2902285
-3.388098	nIk	0.2836306
-3.773449	nIks	0.2885696
-4.054275	nIl	0.2902285
-3.482884	nIm	0.2852707
-4.054275	nImf	0.2902285
-3.773449	nIp	0.2885696
-3.310338	nIs	0.2819967
-3.091347	nIt	0.2755218
-3.187183	nP	0.2787472
-3.310338	nQ	0.2819967
-4.054275	nQI	0.2902285
-4.054275	nQIz	0.2902285
-4.054275	nQk	0.2902285
-4.054275	nQl	0.2902285
-4.054275	nQn	0.2902285
-4.054275	nQns	0.2902285
-3.773449	nQs	0.2885696
-3.604306	nV	0.286917
-4.054275	nVf	0.2902285
-4.054275	nVm	0.2902285
-3.604306	ni	0.286917
-4.054275	nig	0.2902285
-4.054275	nik	0.2902285
-4.054275	nj3R	0.2902285
-4.054275	nj@	0.2902285
-4.054275	nj@l	0.2902285
-4.054275	nj@m	0.2902285
-4.054275	nj@n	0.2902285
-4.054275	nj@s	0.2902285
-4.054275	njU	0.2902285
-3.136626	nju	0.2771315
-4.054275	njut	0.2902285
-4.054275	njuz	0.2902285
-3.604306	nu	0.286917
-3.604306	n{	0.286917
-4.054275	n{d	0.2902285
-4.054275	n{f	0.2902285
-4.054275	n{n	0.2902285
-4.054275	n{ns	0.2902285
-4.054275	n{p	0.2902285
-3.091347	p#	0.2755218
-3.24441	p#I	0.2803689
-4.054275	p#Ik	0.2902285
-4.054275	p#Il	0.2902285
-4.054275	p#In	0.2902285
-4.054275	p#Int	0.2902285
-4.054275	p#Ip	0.2902285
-4.054275	p#Uns	0.2902285
-4.054275	p#Ut	0.2902285
-4.054275	p#m	0.2902285
-3.773449	p#s	0.2885696
-4.054275	p#st	0.2902285
-4.054275	p#t	0.2902285
-3.388098	p$	0.2836306
-4.054275	p$l	0.2902285
-4.054275	p$nJ	0.2902285
-4.054275	p$t	0.2902285
-3.388098	p1	0.2836306
-4.054275	p1k	0.2902285
-3.604306	p1n	0.286917
-4.054275	p1nt	0.2902285
-3.773449	p1s	0.2885696
-4.054275	p1st	0.2902285
-3.388098	p3	0.2836306
-3.050345	p5	0.2739181
-4.054275	p5st	0.2902285
-4.054275	p5z	0.2902285
-2.646962	p@	0.2475232
-3.310338	p@R	0.2819967
-4.054275	p@d	0.2902285
-3.773449	p@l	0.2885696
-3.604306	p@n	0.286917
-4.054275	p@nt	0.2902285
-3.050345	p@s	0.2739181
-4.054275	p@z	0.2902285
-2.888842	pE	0.265987
-4.054275	pE@	0.2902285
-3.604306	pE@R	0.286917
-4.054275	pEN	0.2902285
-3.773449	pEd	0.2885696
-4.054275	pEk	0.2902285
-4.054275	pEks	0.2902285
-3.482884	pEl	0.2852707
-4.054275	pElt	0.2902285
-4.054275	pEn	0.2902285
-3.773449	pEnd	0.2885696
-4.054275	pEst	0.2902285
-2.646962	pI	0.2475232
-3.604306	pI@	0.286917
-4.054275	pI@R	0.2902285
-4.054275	pI@s	0.2902285
-4.054275	pIN	0.2902285
-4.054275	pINk	0.2902285
-3.388098	pId	0.2836306
-4.054275	pIg	0.2902285
-4.054275	pIk	0.2902285
-3.604306	pIl	0.286917
-4.054275	pIm	0.2902285
-4.054275	pImp	0.2902285
-3.773449	pIn	0.2885696
-4.054275	pInJ	0.2902285
-4.054275	pIs	0.2902285
-4.054275	pIst	0.2902285
-3.310338	pIt	0.2819967
-2.946449	pP	0.2691421
-3.091347	pQ	0.2755218
-4.054275	pQInt	0.2902285
-4.054275	pQIz	0.2902285
-4.054275	pQks	0.2902285
-4.054275	pQl	0.2902285
-3.604306	pQm	0.286917
-4.054275	pQmp	0.2902285
-3.310338	pQn	0.2819967
-4.054275	pQnd	0.2902285
-4.054275	pQns	0.2902285
-4.054275	pQp	0.2902285
-3.773449	pQst	0.2885696
-4.054275	pQt	0.2902285
-3.773449	pU	0.2885696
-4.054275	pUl	0.2902285
-4.054275	pUt	0.2902285
-3.388098	pV	0.2836306
-4.054275	pVN	0.2902285
-4.054275	pVNk	0.2902285
-4.054275	pVlp	0.2902285
-3.773449	pVls	0.2885696
-4.054275	pVlt	0.2902285
-3.773449	pVmp	0.2885696
-4.054275	pVn	0.2902285
-4.054275	pVnJ	0.2902285
-3.388098	pi	0.2836306
-3.773449	piz	0.2885696
-4.054275	pj@	0.2902285
-4.054275	pjU	0.2902285
-4.054275	pjU@R	0.2902285
-3.482884	pju	0.2852707
-4.054275	pjuk	0.2902285
-4.054275	pjul	0.2902285
-4.054275	pjun	0.2902285
-4.054275	pjus	0.2902285
-3.482884	pl#I	0.2852707
-4.054275	pl#nt	0.2902285
-4.054275	pl1g	0.2902285
-4.054275	pl1nt	0.2902285
-4.054275	pl1s	0.2902285
-4.054275	pl1t	0.2902285
-4.054275	pl5	0.2902285
-3.604306	pl@	0.286917
-4.054275	plE	0.2902285
-4.054275	plE_	0.2902285
-4.054275	plEbz	0.2902285
-4.054275	plEk	0.2902285
-3.773449	plEks	0.2885696
-4.054275	plEn	0.2902285
-4.054275	plIm	0.2902285
-3.773449	plIn	0.2885696
-4.054275	plInT	0.2902285
-3.773449	plQI	0.2885696
-4.054275	plQd	0.2902285
-4.054275	plQp	0.2902285
-4.054275	plVNk	0.2902285
-4.054275	plVg	0.2902285
-4.054275	plVk	0.2902285
-3.773449	plVm	0.2885696
-4.054275	plVmp	0.2902285
-4.054275	plVn	0.2902285
-4.054275	plVn_	0.2902285
-4.054275	pliJ	0.2902285
-4.054275	plid	0.2902285
-4.054275	plum	0.2902285
-3.388098	pl{	0.2836306
-4.054275	pl{N	0.2902285
-4.054275	pl{d	0.2902285
-3.773449	pl{n	0.2885696
-3.773449	pl{t	0.2885696
-4.054275	pl{z	0.2902285
-4.054275	pr#	0.2902285
-3.773449	pr#I	0.2885696
-4.054275	pr#Id	0.2902285
-4.054275	pr#Is	0.2902285
-4.054275	pr#Iz	0.2902285
-4.054275	pr#U	0.2902285
-4.054275	pr1z	0.2902285
-3.310338	pr5	0.2819967
-4.054275	pr5J	0.2902285
-4.054275	pr5b	0.2902285
-4.054275	pr5l	0.2902285
-4.054275	pr5n	0.2902285
-3.388098	pr@	0.2836306
-4.054275	pr@n	0.2902285
-4.054275	prE	0.2902285
-4.054275	prE@	0.2902285
-4.054275	prEp	0.2902285
-4.054275	prEs	0.2902285
-3.388098	prI	0.2836306
-4.054275	prIg	0.2902285
-4.054275	prIk	0.2902285
-4.054275	prImp	0.2902285
-4.054275	prIt	0.2902285
-3.187183	prQ	0.2787472
-4.054275	prQm	0.2902285
-4.054275	prQmpt	0.2902285
-4.054275	prQp	0.2902285
-4.054275	priJ	0.2902285
-4.054275	prin	0.2902285
-4.054275	prud	0.2902285
-4.054275	pruv	0.2902285
-4.054275	pr{Nk	0.2902285
-4.054275	pr{k	0.2902285
-4.054275	pr{t	0.2902285
-3.604306	pu	0.286917
-3.773449	pun	0.2885696
-4.054275	pus	0.2902285
-2.562913	p{	0.2385776
-3.773449	p{N	0.2885696
-4.054275	p{S	0.2902285
-4.054275	p{ks	0.2902285
-4.054275	p{kt	0.2902285
-3.773449	p{m	0.2885696
-3.310338	p{n	0.2819967
-4.054275	p{nt	0.2902285
-4.054275	p{z	0.2902285
-3.24441	r#	0.2803689
-3.24441	r#I	0.2803689
-4.054275	r#ID	0.2902285
-4.054275	r#Id	0.2902285
-4.054275	r#If	0.2902285
-4.054275	r#Il	0.2902285
-4.054275	r#Im	0.2902285
-4.054275	r#Ind	0.2902285
-4.054275	r#Is	0.2902285
-4.054275	r#It	0.2902285
-3.773449	r#Iv	0.2885696
-4.054275	r#Iz	0.2902285
-4.054275	r#U	0.2902285
-4.054275	r#Un	0.2902285
-4.054275	r#Und	0.2902285
-4.054275	r#Ut	0.2902285
-3.773449	r#Uz	0.2885696
-4.054275	r#f	0.2902285
-4.054275	r#ft	0.2902285
-4.054275	r#l	0.2902285
-4.054275	r#n	0.2902285
-4.054275	r#s	0.2902285
-4.054275	r#sp	0.2902285
-3.773449	r$	0.2885696
-4.054275	r$R	0.2902285
-4.054275	r$d	0.2902285
-3.136626	r1	0.2771315
-3.773449	r1d	0.2885696
-4.054275	r1n_	0.2902285
-2.814635	r5	0.2612969
-3.604306	r5l	0.286917
-4.054275	r5n	0.2902285
-4.054275	r5st	0.2902285
-2.503491	r@	0.2312612
-3.773449	r@R	0.2885696
-3.773449	r@b	0.2885696
-4.054275	r@f	0.2902285
-3.773449	r@k	0.2885696
-3.136626	r@l	0.2771315
-3.773449	r@ld	0.2885696
-3.773449	r@m	0.2885696
-3.388098	r@n	0.2836306
-3.604306	r@nt	0.286917
-4.054275	r@p	0.2902285
-3.136626	r@s	0.2771315
-3.388098	r@t	0.2836306
-3.24441	rE	0.2803689
-4.054275	rE@R	0.2902285
-3.773449	rEkt	0.2885696
-4.054275	rEl	0.2902285
-4.054275	rEnJ	0.2902285
-4.054275	rEnd	0.2902285
-4.054275	rEp	0.2902285
-3.773449	rEst	0.2885696
-3.773449	rEt	0.2885696
-2.422647	rI	0.2198053
-3.604306	rI@	0.286917
-3.773449	rI@R	0.2885696
-3.773449	rI@d	0.2885696
-3.604306	rI@l	0.286917
-4.054275	rI@nt	0.2902285
-4.054275	rI@t	0.2902285
-4.054275	rIN	0.2902285
-4.054275	rINk	0.2902285
-4.054275	rINks	0.2902285
-4.054275	rIS	0.2902285
-4.054275	rI_	0.2902285
-3.773449	rId	0.2885696
-3.773449	rIf	0.2885696
-4.054275	rIft	0.2902285
-4.054275	rIg	0.2902285
-3.773449	rIk	0.2885696
-4.054275	rIks	0.2902285
-4.054275	rIl	0.2902285
-3.773449	rIm	0.2885696
-3.482884	rIn	0.2852707
-4.054275	rInT	0.2902285
-3.773449	rIn_	0.2885696
-4.054275	rIsk	0.2902285
-4.054275	rIst	0.2902285
-3.482884	rIt	0.2852707
-4.054275	rIz	0.2902285
-3.24441	rQ	0.2803689
-4.054275	rQk	0.2902285
-4.054275	rQks	0.2902285
-4.054275	rQmp	0.2902285
-3.773449	rQn	0.2885696
-3.773449	rU	0.2885696
-3.604306	rV	0.286917
-4.054275	rVg	0.2902285
-3.604306	rVm	0.286917
-4.054275	rVnt	0.2902285
-3.187183	ri	0.2787472
-4.054275	rim	0.2902285
-3.604306	rin	0.286917
-4.054275	rit	0.2902285
-3.773449	riz	0.2885696
-4.054275	rju	0.2902285
-3.24441	ru	0.2803689
-4.054275	rust	0.2902285
-4.054275	rut	0.2902285
-2.978397	r{	0.2707282
-4.054275	r{Nk	0.2902285
-3.773449	r{f	0.2885696
-4.054275	r{k	0.2902285
-4.054275	r{ks	0.2902285
-4.054275	r{kt	0.2902285
-3.773449	r{m	0.2885696
-3.773449	r{n	0.2885696
-4.054275	r{nd	0.2902285
-4.054275	r{nt	0.2902285
-4.054275	r{pt	0.2902285
-3.773449	r{s	0.2885696
-4.054275	r{t	0.2902285
-3.482884	s#	0.2852707
-3.24441	s#I	0.2803689
-4.054275	s#ID	0.2902285
-3.482884	s#Id	0.2852707
-4.054275	s#Il	0.2902285
-4.054275	s#In	0.2902285
-4.054275	s#Is	0.2902285
-3.604306	s#It	0.286917
-4.054275	s#Iz	0.2902285
-4.054275	s#U	0.2902285
-4.054275	s#UT	0.2902285
-4.054275	s#m	0.2902285
-3.773449	s$	0.2885696
-4.054275	s$R	0.2902285
-3.604306	s$lt	0.286917
-4.054275	s$n	0.2902285
-3.604306	s1	0.286917
-4.054275	s1d	0.2902285
-3.773449	s1l	0.2885696
-4.054275	s1nt	0.2902285
-3.012882	s3	0.2723202
-4.054275	s3n	0.2902285
-3.773449	s3t	0.2885696
-3.187183	s5	0.2787472
-3.773449	s5l	0.2885696
-4.054275	s5t	0.2902285
-2.888842	s@	0.265987
-4.054275	s@R	0.2902285
-3.482884	s@k	0.2852707
-3.604306	s@l	0.286917
-3.604306	s@m	0.286917
-4.054275	s@ns	0.2902285
-3.773449	s@p	0.2885696
-3.388098	s@s	0.2836306
-4.054275	s@t	0.2902285
-2.916691	sE	0.2675617
-4.054275	sEN	0.2902285
-4.054275	sEks	0.2902285
-3.773449	sEkt	0.2885696
-4.054275	sEl	0.2902285
-3.388098	sEn	0.2836306
-4.054275	sEns	0.2902285
-3.604306	sEnt	0.286917
-4.054275	sEp	0.2902285
-4.054275	sEps	0.2902285
-3.773449	sEs	0.2885696
-4.054275	sEst	0.2902285
-4.054275	sEt	0.2902285
-3.136626	sH	0.2771315
-2.39583	sI	0.2155861
-3.773449	sI@	0.2885696
-4.054275	sI@R	0.2902285
-3.773449	sI@m	0.2885696
-3.773449	sIN	0.2885696
-4.054275	sINk	0.2902285
-3.388098	sId	0.2836306
-4.054275	sIft	0.2902285
-3.773449	sIg	0.2885696
-4.054275	sIks	0.2902285
-4.054275	sIl	0.2902285
-4.054275	sIlt	0.2902285
-3.604306	sIm	0.286917
-4.054275	sImp	0.2902285
-3.604306	sIn	0.286917
-4.054275	sInJ	0.2902285
-3.773449	sInT	0.2885696
-4.054275	sIp	0.2902285
-3.773449	sIs	0.2885696
-3.773449	sIst	0.2885696
-3.310338	sIt	0.2819967
-2.732056	sP	0.2551213
-3.091347	sQ	0.2755218
-4.054275	sQI	0.2902285
-4.054275	sQIl	0.2902285
-4.054275	sQl	0.2902285
-4.054275	sQlv	0.2902285
-4.054275	sQn	0.2902285
-3.773449	sU	0.2885696
-3.187183	sV	0.2787472
-4.054275	sVl	0.2902285
-4.054275	sVmp	0.2902285
-4.054275	sfINk	0.2902285
-3.091347	si	0.2755218
-3.773449	sid	0.2885696
-4.054275	sil	0.2902285
-3.773449	sin	0.2885696
-4.054275	sit	0.2902285
-4.054275	siz	0.2902285
-4.054275	sju	0.2902285
-4.054275	sjul	0.2902285
-3.773449	sjut	0.2885696
-3.604306	sk#	0.286917
-4.054275	sk#Iv	0.2902285
-4.054275	sk#R	0.2902285
-3.773449	sk#U	0.2885696
-4.054275	sk#Ul	0.2902285
-4.054275	sk#Ut	0.2902285
-4.054275	sk#f	0.2902285
-4.054275	sk#p	0.2902285
-4.054275	sk$J	0.2902285
-4.054275	sk$R	0.2902285
-4.054275	sk$ld	0.2902285
-4.054275	sk$t	0.2902285
-4.054275	sk1	0.2902285
-4.054275	sk1d	0.2902285
-4.054275	sk1n	0.2902285
-4.054275	sk1t	0.2902285
-4.054275	sk3	0.2902285
-4.054275	sk3_	0.2902285
-4.054275	sk3f	0.2902285
-4.054275	sk3l	0.2902285
-4.054275	sk3t	0.2902285
-4.054275	sk5p	0.2902285
-4.054275	sk@R	0.2902285
-3.773449	sk@s	0.2885696
-3.773449	sk@t	0.2885696
-4.054275	skE	0.2902285
-4.054275	skE@s	0.2902285
-4.054275	skEJ	0.2902285
-4.054275	skEp	0.2902285
-4.054275	skI	0.2902285
-4.054275	skId	0.2902285
-4.054275	skIf	0.2902285
-4.054275	skIm	0.2902285
-4.054275	skIp	0.2902285
-3.773449	skIt	0.2885696
-4.054275	skQ	0.2902285
-4.054275	skQJ	0.2902285
-4.054275	skQn	0.2902285
-4.054275	skQns	0.2902285
-4.054275	skV	0.2902285
-4.054275	skVNk	0.2902285
-4.054275	skVd	0.2902285
-4.054275	skVf	0.2902285
-4.054275	skVl	0.2902285
-4.054275	skVlk	0.2902285
-4.054275	skVlpt	0.2902285
-4.054275	skVm	0.2902285
-4.054275	ski	0.2902285
-4.054275	skim	0.2902285
-4.054275	skit	0.2902285
-3.773449	skju	0.2885696
-4.054275	skjul	0.2902285
-4.054275	skr#Ib	0.2902285
-4.054275	skr#Un_	0.2902285
-4.054275	skr$l	0.2902285
-4.054275	skrI	0.2902285
-4.054275	skrImp	0.2902285
-4.054275	skrIp	0.2902285
-4.054275	skrIpt	0.2902285
-4.054275	skrVm	0.2902285
-4.054275	skrVnJ	0.2902285
-4.054275	skri	0.2902285
-4.054275	skriJ	0.2902285
-4.054275	skrim	0.2902285
-3.773449	skru	0.2885696
-4.054275	skru_	0.2902285
-4.054275	skr{	0.2902285
-4.054275	skr{J	0.2902285
-4.054275	skr{g	0.2902285
-3.773449	skr{m	0.2885696
-4.054275	skr{p	0.2902285
-4.054275	skup	0.2902285
-4.054275	skw#I	0.2902285
-4.054275	skw$	0.2902285
-4.054275	skw$k	0.2902285
-4.054275	skw3m	0.2902285
-4.054275	skw3t	0.2902285
-4.054275	skwE@R	0.2902285
-4.054275	skwElJ	0.2902285
-4.054275	skwI	0.2902285
-4.054275	skwIb	0.2902285
-4.054275	skwId	0.2902285
-4.054275	skwInt	0.2902285
-3.773449	skwQ	0.2885696
-4.054275	skwQS	0.2902285
-4.054275	skwQn	0.2902285
-4.054275	skwQt	0.2902285
-4.054275	skwil	0.2902285
-4.054275	skwiz	0.2902285
-3.388098	sk{	0.2836306
-4.054275	sk{b	0.2902285
-4.054275	sk{l	0.2902285
-4.054275	sk{lp	0.2902285
-4.054275	sk{m	0.2902285
-3.773449	sk{n	0.2885696
-4.054275	sk{ns	0.2902285
-4.054275	sk{nt	0.2902285
-4.054275	sl#	0.2902285
-4.054275	sl#I	0.2902285
-4.054275	sl#Id	0.2902285
-4.054275	sl#Im	0.2902285
-4.054275	sl#U	0.2902285
-4.054275	sl#UJ	0.2902285
-4.054275	sl#nt	0.2902285
-4.054275	sl$t	0.2902285
-4.054275	sl1k	0.2902285
-4.054275	sl1t	0.2902285
-4.054275	sl1v	0.2902285
-4.054275	sl3R	0.2902285
-4.054275	sl3p	0.2902285
-4.054275	sl5T	0.2902285
-4.054275	sl5p	0.2902285
-4.054275	slE_	0.2902285
-4.054275	slEd	0.2902285
-4.054275	slEn	0.2902285
-4.054275	slI	0.2902285
-4.054275	slINk	0.2902285
-4.054275	slIk	0.2902285
-4.054275	slIm	0.2902285
-4.054275	slIp	0.2902285
-4.054275	slQS	0.2902285
-4.054275	slQb	0.2902285
-4.054275	slQt	0.2902285
-4.054275	slVf	0.2902285
-4.054275	slVg	0.2902285
-3.773449	slVm	0.2885696
-4.054275	slVmp	0.2902285
-4.054275	slik	0.2902285
-4.054275	slip	0.2902285
-4.054275	sliv	0.2902285
-4.054275	slup	0.2902285
-4.054275	slus	0.2902285
-4.054275	sl{	0.2902285
-4.054275	sl{N	0.2902285
-4.054275	sl{S	0.2902285
-4.054275	sl{b	0.2902285
-4.054275	sl{g	0.2902285
-4.054275	sl{k	0.2902285
-4.054275	sl{m	0.2902285
-4.054275	sl{p	0.2902285
-4.054275	sl{t	0.2902285
-4.054275	sm#Il	0.2902285
-4.054275	sm#It	0.2902285
-4.054275	sm#t	0.2902285
-4.054275	sm$l	0.2902285
-4.054275	sm3k	0.2902285
-4.054275	sm5k	0.2902285
-4.054275	smEl	0.2902285
-4.054275	smElt	0.2902285
-4.054275	smI@R	0.2902285
-4.054275	smIT	0.2902285
-3.773449	smV	0.2885696
-4.054275	smV_	0.2902285
-4.054275	smVg	0.2902285
-4.054275	smVt	0.2902285
-4.054275	smuJ	0.2902285
-4.054275	sm{k	0.2902285
-4.054275	sn#Id	0.2902285
-4.054275	sn#Ip	0.2902285
-4.054275	sn#Ut	0.2902285
-4.054275	sn$	0.2902285
-4.054275	sn$R	0.2902285
-4.054275	sn$t	0.2902285
-4.054275	sn1l	0.2902285
-4.054275	snE@R	0.2902285
-3.773449	snI	0.2885696
-4.054275	snIf	0.2902285
-4.054275	snQb	0.2902285
-4.054275	snQg	0.2902285
-4.054275	snQt	0.2902285
-4.054275	snV	0.2902285
-4.054275	snVb	0.2902285
-4.054275	snVf	0.2902285
-4.054275	snVg	0.2902285
-4.054275	snik	0.2902285
-4.054275	sniz	0.2902285
-4.054275	snu	0.2902285
-4.054275	snud	0.2902285
-4.054275	snuk	0.2902285
-4.054275	snup	0.2902285
-4.054275	snuz	0.2902285
-4.054275	sn{J	0.2902285
-4.054275	sn{g	0.2902285
-4.054275	sn{p	0.2902285
-3.604306	sp#I	0.286917
-4.054275	sp#Ik	0.2902285
-4.054275	sp#In	0.2902285
-4.054275	sp#Is	0.2902285
-4.054275	sp#It	0.2902285
-4.054275	sp#R	0.2902285
-4.054275	sp#Ut	0.2902285
-4.054275	sp#k	0.2902285
-4.054275	sp#s	0.2902285
-4.054275	sp$n	0.2902285
-4.054275	sp$t	0.2902285
-4.054275	sp1d	0.2902285
-4.054275	sp1s	0.2902285
-4.054275	sp1t	0.2902285
-4.054275	sp3m	0.2902285
-4.054275	sp3t	0.2902285
-3.773449	sp@R	0.2885696
-3.773449	spE	0.2885696
-4.054275	spE@R	0.2902285
-4.054275	spEk	0.2902285
-4.054275	spEkt	0.2902285
-4.054275	spEl	0.2902285
-4.054275	spEnt	0.2902285
-3.773449	spI	0.2885696
-4.054275	spIk	0.2902285
-3.773449	spIn	0.2885696
-4.054275	spIt	0.2902285
-4.054275	spIv	0.2902285
-4.054275	spP	0.2902285
-4.054275	spQ	0.2902285
-4.054275	spQIl	0.2902285
-4.054275	spQnd	0.2902285
-3.773449	spQt	0.2885696
-4.054275	spUt	0.2902285
-4.054275	spVNk	0.2902285
-4.054275	spVd	0.2902285
-4.054275	spVn_	0.2902285
-3.773449	spi	0.2885696
-4.054275	spiJ	0.2902285
-4.054275	spid	0.2902285
-4.054275	spik	0.2902285
-4.054275	spju	0.2902285
-4.054275	spl1	0.2902285
-4.054275	spl3_	0.2902285
-4.054275	splInt	0.2902285
-4.054275	splIt	0.2902285
-4.054275	splQJ	0.2902285
-4.054275	splQ_	0.2902285
-4.054275	splin	0.2902285
-4.054275	spl{S	0.2902285
-4.054275	spl{t	0.2902285
-4.054275	spr#I	0.2902285
-4.054275	spr#Ut	0.2902285
-4.054275	spr$l	0.2902285
-4.054275	spr1	0.2902285
-4.054275	spr1n	0.2902285
-4.054275	sprEd	0.2902285
-4.054275	sprIN	0.2902285
-4.054275	sprIg	0.2902285
-4.054275	sprInt	0.2902285
-4.054275	sprIt	0.2902285
-3.773449	spri	0.2885696
-4.054275	spuf	0.2902285
-4.054275	spuk	0.2902285
-4.054275	spul	0.2902285
-4.054275	spun	0.2902285
-3.482884	sp{	0.2852707
-4.054275	sp{Nk	0.2902285
-4.054275	sp{n	0.2902285
-4.054275	sp{t	0.2902285
-3.773449	st#	0.2885696
-3.388098	st#I	0.2836306
-3.773449	st#Il	0.2885696
-4.054275	st#In	0.2902285
-4.054275	st#J	0.2902285
-4.054275	st#R	0.2902285
-4.054275	st#S	0.2902285
-4.054275	st#Und	0.2902285
-4.054275	st#Ut	0.2902285
-4.054275	st#f	0.2902285
-4.054275	st#k	0.2902285
-4.054275	st#nJ	0.2902285
-4.054275	st$k	0.2902285
-3.773449	st$l	0.2885696
-4.054275	st$m	0.2902285
-3.773449	st1	0.2885696
-4.054275	st1_	0.2902285
-4.054275	st1d	0.2902285
-4.054275	st1k	0.2902285
-4.054275	st1l	0.2902285
-4.054275	st1n	0.2902285
-4.054275	st1t	0.2902285
-4.054275	st1v	0.2902285
-4.054275	st3R	0.2902285
-4.054275	st3n	0.2902285
-4.054275	st5	0.2902285
-4.054275	st5l	0.2902285
-4.054275	st5t	0.2902285
-4.054275	st5v	0.2902285
-3.482884	st@	0.2852707
-3.773449	st@R	0.2885696
-3.773449	st@d	0.2885696
-3.773449	st@m	0.2885696
-3.773449	st@n	0.2885696
-4.054275	stE	0.2902285
-4.054275	stEd	0.2902285
-4.054275	stEl	0.2902285
-4.054275	stEm	0.2902285
-4.054275	stEnJ	0.2902285
-4.054275	stEp	0.2902285
-4.054275	stEt	0.2902285
-3.773449	stI	0.2885696
-4.054275	stI@R	0.2902285
-4.054275	stIJ	0.2902285
-3.773449	stIN	0.2885696
-4.054275	stI_	0.2902285
-3.773449	stIf	0.2885696
-4.054275	stIg	0.2902285
-3.604306	stIk	0.286917
-3.773449	stIl	0.2885696
-4.054275	stIlt	0.2902285
-4.054275	stIn	0.2902285
-4.054275	stInt	0.2902285
-4.054275	stIs	0.2902285
-3.482884	stP	0.2852707
-4.054275	stQ_	0.2902285
-4.054275	stQk	0.2902285
-4.054275	stQmp	0.2902285
-4.054275	stQp	0.2902285
-3.482884	stV	0.2852707
-4.054275	stVd	0.2902285
-4.054275	stVf	0.2902285
-4.054275	stVm	0.2902285
-4.054275	stVmp	0.2902285
-4.054275	stVnt	0.2902285
-3.604306	sti	0.286917
-4.054275	stid	0.2902285
-4.054275	stil	0.2902285
-4.054275	stim	0.2902285
-4.054275	stjU	0.2902285
-4.054275	stjUm	0.2902285
-3.604306	stju	0.286917
-4.054275	stjul	0.2902285
-4.054275	str#Id	0.2902285
-4.054275	str#If	0.2902285
-4.054275	str#Ik	0.2902285
-4.054275	str#Ip	0.2902285
-4.054275	str#Iv	0.2902285
-4.054275	str#f	0.2902285
-4.054275	str$	0.2902285
-4.054275	str1	0.2902285
-4.054275	str1n	0.2902285
-4.054275	str1n_	0.2902285
-3.773449	str1t	0.2885696
-3.773449	str5	0.2885696
-4.054275	str5k	0.2902285
-4.054275	str5l	0.2902285
-3.773449	str@	0.2885696
-4.054275	str@l	0.2902285
-4.054275	strIJ	0.2902285
-4.054275	strIN	0.2902285
-4.054275	strIkt	0.2902285
-4.054275	strIp	0.2902285
-4.054275	strIs	0.2902285
-4.054275	strQN	0.2902285
-4.054275	strQp	0.2902285
-4.054275	strV	0.2902285
-3.773449	strVm	0.2885696
-4.054275	strVt	0.2902285
-4.054275	strik	0.2902285
-4.054275	strim	0.2902285
-4.054275	strit	0.2902285
-4.054275	stru	0.2902285
-3.773449	str{	0.2885696
-4.054275	str{N	0.2902285
-4.054275	str{nd	0.2902285
-4.054275	stu_	0.2902285
-4.054275	stun	0.2902285
-4.054275	stup	0.2902285
-3.388098	st{	0.2836306
-4.054275	st{S	0.2902285
-4.054275	st{b	0.2902285
-4.054275	st{g	0.2902285
-4.054275	st{mp	0.2902285
-4.054275	st{n	0.2902285
-4.054275	st{nd	0.2902285
-3.482884	su	0.2852707
-4.054275	suT	0.2902285
-4.054275	sw#	0.2902285
-4.054275	sw#In	0.2902285
-4.054275	sw#Ip	0.2902285
-4.054275	sw#v	0.2902285
-4.054275	sw$d	0.2902285
-4.054275	sw$f	0.2902285
-4.054275	sw1d	0.2902285
-4.054275	sw1n	0.2902285
-4.054275	sw3l	0.2902285
-4.054275	sw3v	0.2902285
-4.054275	swEl	0.2902285
-4.054275	swEt	0.2902285
-4.054275	swI	0.2902285
-4.054275	swIN	0.2902285
-4.054275	swIS	0.2902285
-4.054275	swIl	0.2902285
-4.054275	swIm	0.2902285
-4.054275	swIn	0.2902285
-4.054275	swIn_	0.2902285
-3.773449	swQ	0.2885696
-4.054275	swQJ	0.2902285
-4.054275	swQb	0.2902285
-4.054275	swQmp	0.2902285
-4.054275	swQn	0.2902285
-4.054275	swQp	0.2902285
-4.054275	swQt	0.2902285
-4.054275	swid	0.2902285
-4.054275	swip	0.2902285
-4.054275	swit	0.2902285
-4.054275	swun	0.2902285
-4.054275	swup	0.2902285
-4.054275	sw{g	0.2902285
-3.012882	s{	0.2723202
-4.054275	s{ks	0.2902285
-4.054275	s{l	0.2902285
-4.054275	s{lv	0.2902285
-4.054275	s{m	0.2902285
-4.054275	s{n	0.2902285
-4.054275	s{nd	0.2902285
-4.054275	s{nz	0.2902285
-3.388098	t#	0.2836306
-3.388098	t#I	0.2836306
-4.054275	t#ID	0.2902285
-4.054275	t#Id	0.2902285
-4.054275	t#Ik	0.2902285
-4.054275	t#Il	0.2902285
-4.054275	t#In	0.2902285
-4.054275	t#It	0.2902285
-3.773449	t#R	0.2885696
-4.054275	t#U	0.2902285
-4.054275	t#Un	0.2902285
-4.054275	t#Ut	0.2902285
-4.054275	t#d	0.2902285
-4.054275	t#sk	0.2902285
-4.054275	t#z	0.2902285
-3.773449	t$	0.2885696
-4.054275	t$nt	0.2902285
-3.388098	t1	0.2836306
-4.054275	t1n	0.2902285
-4.054275	t1st	0.2902285
-3.24441	t3	0.2803689
-4.054275	t3R	0.2902285
-4.054275	t3n	0.2902285
-4.054275	t3ps	0.2902285
-2.732056	t5	0.2551213
-4.054275	t5n	0.2902285
-4.054275	t5s	0.2902285
-2.662699	t@	0.2490322
-2.602907	t@R	0.2430274
-4.054275	t@k	0.2902285
-3.388098	t@m	0.2836306
-3.136626	t@n	0.2771315
-4.054275	t@ns	0.2902285
-4.054275	t@nt	0.2902285
-3.482884	t@s	0.2852707
-3.091347	tE	0.2755218
-3.773449	tE@R	0.2885696
-3.773449	tEk	0.2885696
-3.604306	tEks	0.286917
-4.054275	tEkst	0.2902285
-4.054275	tEkt	0.2902285
-4.054275	tEl	0.2902285
-3.482884	tEm	0.2852707
-3.482884	tEn	0.2852707
-4.054275	tEnS	0.2902285
-4.054275	tEnd	0.2902285
-4.054275	tEns	0.2902285
-3.773449	tEnt	0.2885696
-4.054275	tEt	0.2902285
-3.136626	tH	0.2771315
-2.526294	tI	0.234173
-4.054275	tI@R	0.2902285
-4.054275	tIN	0.2902285
-3.773449	tId	0.2885696
-4.054275	tIf	0.2902285
-4.054275	tIk	0.2902285
-4.054275	tIl	0.2902285
-3.773449	tIm	0.2885696
-3.24441	tIn	0.2803689
-4.054275	tIn_	0.2902285
-4.054275	tInt	0.2902285
-3.604306	tIs	0.286917
-3.773449	tIv	0.2885696
-2.713651	tP	0.253591
-3.388098	tQ	0.2836306
-4.054275	tQIl	0.2902285
-4.054275	tQN	0.2902285
-4.054275	tQl	0.2902285
-3.773449	tQm	0.2885696
-3.773449	tQn	0.2885696
-4.054275	tU@R	0.2902285
-4.054275	tVN	0.2902285
-4.054275	tVft	0.2902285
-4.054275	tVk	0.2902285
-4.054275	tVm	0.2902285
-4.054275	tVnd	0.2902285
-4.054275	tVsk	0.2902285
-3.310338	ti	0.2819967
-4.054275	tig	0.2902285
-3.773449	tik	0.2885696
-3.388098	tin	0.2836306
-4.054275	tinz	0.2902285
-4.054275	tiz	0.2902285
-4.054275	tjU	0.2902285
-4.054275	tjU@R	0.2902285
-3.24441	tju	0.2803689
-4.054275	tjub	0.2902285
-4.054275	tjun	0.2902285
-4.054275	tjut	0.2902285
-3.604306	tr#I	0.286917
-4.054275	tr#Ip	0.2902285
-4.054275	tr#Is	0.2902285
-3.773449	tr#It	0.2885696
-4.054275	tr#Iv	0.2902285
-4.054275	tr#Ut	0.2902285
-4.054275	tr$	0.2902285
-4.054275	tr$l	0.2902285
-4.054275	tr1	0.2902285
-4.054275	tr1l	0.2902285
-4.054275	tr1n	0.2902285
-4.054275	tr1ps	0.2902285
-4.054275	tr1s	0.2902285
-4.054275	tr1t	0.2902285
-4.054275	tr5T	0.2902285
-4.054275	tr5l	0.2902285
-4.054275	tr5p	0.2902285
-4.054275	tr5v	0.2902285
-3.310338	tr@	0.2819967
-3.604306	tr@l	0.286917
-4.054275	tr@m	0.2902285
-4.054275	tr@n	0.2902285
-4.054275	tr@p	0.2902285
-3.773449	tr@s	0.2885696
-4.054275	tr@st	0.2902285
-3.310338	trE	0.2819967
-4.054275	trEk	0.2902285
-4.054275	trEm	0.2902285
-4.054275	trEnd	0.2902285
-3.388098	trI	0.2836306
-4.054275	trI@l	0.2902285
-3.773449	trI_	0.2885696
-4.054275	trIk	0.2902285
-4.054275	trIks	0.2902285
-3.773449	trIl	0.2885696
-4.054275	trIm	0.2902285
-4.054275	trIn	0.2902285
-4.054275	trIs	0.2902285
-4.054275	trIst	0.2902285
-4.054275	trQ	0.2902285
-4.054275	trQf	0.2902285
-4.054275	trQm	0.2902285
-4.054275	trQs	0.2902285
-4.054275	trQt	0.2902285
-3.604306	trV	0.286917
-4.054275	trV_	0.2902285
-4.054275	trVg	0.2902285
-4.054275	trVmp	0.2902285
-3.773449	trVn	0.2885696
-4.054275	trVst	0.2902285
-3.604306	tri	0.286917
-4.054275	trig	0.2902285
-4.054275	trin	0.2902285
-4.054275	trun	0.2902285
-4.054275	trup	0.2902285
-4.054275	trus	0.2902285
-3.604306	tr{	0.286917
-4.054275	tr{S	0.2902285
-4.054275	tr{k	0.2902285
-4.054275	tr{kt	0.2902285
-4.054275	tr{mp	0.2902285
-4.054275	tr{p	0.2902285
-3.310338	tu	0.2819967
-4.054275	tun	0.2902285
-4.054275	tw#In	0.2902285
-4.054275	tw#Is	0.2902285
-4.054275	tw3l	0.2902285
-4.054275	tw3p	0.2902285
-4.054275	twElv	0.2902285
-4.054275	twEn	0.2902285
-3.773449	twI	0.2885696
-4.054275	twIJ	0.2902285
-4.054275	twIN	0.2902285
-4.054275	twIl	0.2902285
-4.054275	twIn	0.2902285
-4.054275	twIn_	0.2902285
-4.054275	twIst	0.2902285
-4.054275	twIt	0.2902285
-4.054275	twQ	0.2902285
-4.054275	twid	0.2902285
-4.054275	twik	0.2902285
-4.054275	twin	0.2902285
-4.054275	twit	0.2902285
-4.054275	tw{N	0.2902285
-3.012882	t{	0.2723202
-4.054275	t{J	0.2902285
-4.054275	t{N	0.2902285
-4.054275	t{Nk	0.2902285
-3.773449	t{k	0.2885696
-3.773449	t{ks	0.2885696
-3.773449	t{kt	0.2885696
-3.773449	t{l	0.2885696
-4.054275	t{lk	0.2902285
-4.054275	t{m	0.2902285
-4.054275	t{mp	0.2902285
-3.604306	t{n	0.286917
-4.054275	u	0.2902285
-4.054275	v#	0.2902285
-3.24441	v#I	0.2803689
-4.054275	v#In	0.2902285
-4.054275	v#Is	0.2902285
-4.054275	v#U	0.2902285
-4.054275	v$nt	0.2902285
-4.054275	v$t	0.2902285
-3.604306	v1	0.286917
-4.054275	v1l	0.2902285
-3.012882	v3	0.2723202
-4.054275	v3R	0.2902285
-3.604306	v5	0.286917
-4.054275	v5lt	0.2902285
-2.862672	v@	0.264418
-3.310338	v@R	0.2819967
-4.054275	v@k	0.2902285
-4.054275	v@n	0.2902285
-3.604306	v@t	0.286917
-4.054275	v@z	0.2902285
-3.310338	vE	0.2819967
-4.054275	vE@	0.2902285
-4.054275	vEk	0.2902285
-4.054275	vEks	0.2902285
-4.054275	vEl	0.2902285
-4.054275	vEn	0.2902285
-4.054275	vEn_	0.2902285
-4.054275	vEnd	0.2902285
-4.054275	vEnt	0.2902285
-3.310338	vH	0.2819967
-2.814635	vI	0.2612969
-4.054275	vI@	0.2902285
-3.773449	vId	0.2885696
-3.773449	vIk	0.2885696
-4.054275	vIks	0.2902285
-3.773449	vIl	0.2885696
-3.773449	vIns	0.2885696
-3.773449	vIs	0.2885696
-4.054275	vIst	0.2902285
-3.388098	vIt	0.2836306
-2.837989	vP	0.2628547
-3.773449	vQ	0.2885696
-3.773449	vQI	0.2885696
-4.054275	vQIl	0.2902285
-4.054275	vQIs	0.2902285
-4.054275	vQl	0.2902285
-4.054275	vVl	0.2902285
-4.054275	vVls	0.2902285
-3.604306	vi	0.286917
-4.054275	vju	0.2902285
-4.054275	vr@n	0.2902285
-4.054275	vrI	0.2902285
-4.054275	vu	0.2902285
-3.773449	v{	0.2885696
-4.054275	v{k	0.2902285
-4.054275	v{l	0.2902285
-4.054275	v{lv	0.2902285
-4.054275	v{m	0.2902285
-4.054275	v{mp	0.2902285
-3.604306	v{n	0.286917
-4.054275	v{s	0.2902285
-4.054275	v{t	0.2902285
-4.054275	w#Id	0.2902285
-4.054275	w#If	0.2902285
-4.054275	w#Il	0.2902285
-4.054275	w#Ild	0.2902285
-4.054275	w#Ind	0.2902285
-4.054275	w#It	0.2902285
-4.054275	w#Iz	0.2902285
-4.054275	w#ft	0.2902285
-3.773449	w$	0.2885696
-3.773449	w$l	0.2885696
-4.054275	w$ls	0.2902285
-4.054275	w1n	0.2902285
-4.054275	w3ld	0.2902285
-4.054275	w5ld	0.2902285
-4.054275	w5nt	0.2902285
-4.054275	wE	0.2902285
-4.054275	wE@R	0.2902285
-4.054275	wEft	0.2902285
-4.054275	wElS	0.2902285
-4.054275	wElT	0.2902285
-4.054275	wElk	0.2902285
-4.054275	wElp	0.2902285
-4.054275	wEnJ	0.2902285
-4.054275	wEnd	0.2902285
-4.054275	wEns	0.2902285
-4.054275	wEst	0.2902285
-3.310338	wI	0.2819967
-4.054275	wI@d	0.2902285
-4.054275	wIN	0.2902285
-4.054275	wINk	0.2902285
-4.054275	wIlt	0.2902285
-4.054275	wIm	0.2902285
-4.054275	wIn	0.2902285
-4.054275	wInJ	0.2902285
-4.054275	wInd	0.2902285
-4.054275	wIns	0.2902285
-4.054275	wIsk	0.2902285
-4.054275	wIsp	0.2902285
-4.054275	wIst	0.2902285
-3.136626	wQ	0.2771315
-4.054275	wQg	0.2902285
-4.054275	wQn	0.2902285
-4.054275	wQnd	0.2902285
-4.054275	wQnt	0.2902285
-4.054275	wQsp	0.2902285
-4.054275	wVns	0.2902285
-4.054275	wi	0.2902285
-4.054275	wild	0.2902285
-4.054275	wund	0.2902285
-4.054275	w{	0.2902285
-4.054275	w{Nk	0.2902285
-4.054275	w{g	0.2902285
-4.054275	w{ks	0.2902285
-4.054275	z#Im	0.2902285
-4.054275	z#R	0.2902285
-3.773449	z1	0.2885696
-4.054275	z3	0.2902285
-4.054275	z3p	0.2902285
-4.054275	z3t	0.2902285
-4.054275	z5	0.2902285
-4.054275	z5m	0.2902285
-4.054275	z5n	0.2902285
-3.482884	z@	0.2852707
-4.054275	z@l	0.2902285
-3.604306	z@m	0.286917
-3.773449	z@n	0.2885696
-4.054275	z@t	0.2902285
-3.482884	zE	0.2852707
-4.054275	zEs	0.2902285
-3.773449	zEt	0.2885696
-3.050345	zH	0.2739181
-4.054275	zHd	0.2902285
-4.054275	zHt	0.2902285
-3.136626	zI	0.2771315
-4.054275	zI@	0.2902285
-4.054275	zIk	0.2902285
-4.054275	zIn	0.2902285
-4.054275	zIn_	0.2902285
-4.054275	zIt	0.2902285
-2.946449	zP	0.2691421
-4.054275	zQ	0.2902285
-4.054275	zVmp	0.2902285
-3.604306	zi	0.286917
-3.773449	zin	0.2885696
-4.054275	zu	0.2902285
-4.054275	z{kt	0.2902285
-2.617101	{	0.2445208
-3.604306	{N	0.286917
-4.054275	{Nst	0.2902285
-4.054275	{T	0.2902285
-4.054275	{b	0.2902285
-3.773449	{d	0.2885696
-3.310338	{k	0.2819967
-3.310338	{l	0.2819967
-3.604306	{m	0.286917
-3.310338	{n	0.2819967
-3.482884	{s	0.2852707
-4.054275	{t	0.2902285
-4.054275	{z	0.2902285

\2-grams:
-1.352262	# </s>
-1.575741	#I </s>
-2.096579	#U </s>
-2.375747	#Uns </s>
-2.375747	#Ust </s>
-2.375747	#f </s>
-1.165038	$ </s>
-2.096579	$R </s>
-2.096579	$l </s>
-1.319368	1 </s>
-2.375747	1n </s>
-2.375747	1t </s>
-2.375747	1z </s>
-2.375747	3 </s>
-0.903821	5 </s>
-2.375747	5l </s>
-2.720829	<s> #	0
-2.952356	<s> #I	0
-3.481395	<s> #U	0
-3.762222	<s> #Uns	0
-3.762222	<s> #Ust	0
-3.762222	<s> #f	0
-2.522581	<s> $	0
-3.481395	<s> $R	0
-3.481395	<s> $l	0
-2.686343	<s> 1	0
-3.762222	<s> 1n	0
-3.762222	<s> 1t	0
-3.762222	<s> 1z	0
-3.762222	<s> 3	0
-2.23424	<s> 5	0
-3.762222	<s> 5l	0
-1.899982	<s> @	0
-2.440002	<s> @R	0
-3.762222	<s> @b	0
-3.481395	<s> @d	0
-3.018284	<s> @l	0
-3.762222	<s> @m	0
-3.762222	<s> @mf	0
-3.762222	<s> @n	0
-3.762222	<s> @nt	0
-3.312253	<s> @t	0
-3.762222	<s> D#In	0
-2.844573	<s> D@R	0
-3.762222	<s> D@m	0
-3.762222	<s> DE@R	0
-3.762222	<s> DEns	0
-3.762222	<s> DH	0
-3.762222	<s> DI	0
-2.654395	<s> E	0
-3.762222	<s> E@	0
-3.481395	<s> Ek	0
-3.762222	<s> El	0
-3.312253	<s> Em	0
-3.19083	<s> En	0
-3.312253	<s> Et	0
-2.500418	<s> I	0
-3.762222	<s> I@	0
-3.481395	<s> Id	0
-3.312253	<s> Ig	0
-3.762222	<s> Ik	0
-2.952356	<s> Im	0
-2.459222	<s> In	0
-3.481395	<s> Is	0
-3.19083	<s> It	0
-3.762222	<s> J#	0
-3.762222	<s> J#Id	0
-3.762222	<s> J#Im	0
-3.762222	<s> J#Iv	0
-3.762222	<s> J#n	0
-3.762222	<s> J#nt	0
-3.762222	<s> J1n_	0
-3.762222	<s> J3	0
-3.762222	<s> J5	0
-3.762222	<s> J5k	0
-3.762222	<s> J@	0
-3.312253	<s> J@R	0
-3.481395	<s> J@d	0
-3.762222	<s> J@n	0
-3.762222	<s> J@nt	0
-3.762222	<s> J@p	0
-3.762222	<s> J@s	0
-3.312253	<s> JE	0
-3.762222	<s> JE@R	0
-3.312253	<s> JI	0
-3.762222	<s> JI@R	0
-3.762222	<s> JINk	0
-3.762222	<s> JIm	0
-3.481395	<s> JIn	0
-3.762222	<s> JInts	0
-3.762222	<s> JIp	0
-3.762222	<s> JIt	0
-3.762222	<s> JIz	0
-3.762222	<s> JQIs	0
-3.762222	<s> JQmp	0
-3.481395	<s> JV	0
-3.762222	<s> JVmp	0
-3.481395	<s> Ji	0
-3.762222	<s> Jiv	0
-3.762222	<s> Jun	0
-3.312253	<s> J{	0
-3.762222	<s> J{m	0
-3.762222	<s> J{mp	0
-3.762222	<s> J{n	0
-3.762222	<s> N@R	0
-2.799293	<s> Q	0
-3.762222	<s> QINk	0
-3.762222	<s> QInt	0
-3.762222	<s> Qb	0
-3.312253	<s> Qk	0
-3.762222	<s> Qm	0
-3.762222	<s> Qn	0
-3.762222	<s> Qs	0
-3.762222	<s> Qsk	0
-3.762222	<s> S#	0
-3.762222	<s> S#In	0
-3.762222	<s> S#Ut	0
-3.762222	<s> S#ft	0
-3.19083	<s> S1	0
-3.762222	<s> S5	0
-3.096044	<s> S@	0
-3.762222	<s> S@p	0
-3.762222	<s> SE	0
-3.762222	<s> SE@R	0
-3.762222	<s> SElf	0
-3.762222	<s> SH	0
-3.096044	<s> SI	0
-3.762222	<s> SI@R	0
-3.762222	<s> SIN	0
-3.762222	<s> SIft	0
-3.762222	<s> SIn	0
-3.762222	<s> SP	0
-3.762222	<s> SV	0
-3.19083	<s> Si	0
-3.762222	<s> SiS	0
-3.762222	<s> Sild	0
-3.762222	<s> Sin	0
-3.762222	<s> Siz	0
-3.762222	<s> Sr#Ik	0
-3.762222	<s> Sr#Iv	0
-3.762222	<s> Sr#Ud	0
-3.762222	<s> SrEd	0
-3.762222	<s> SrI	0
-3.762222	<s> SrIft	0
-3.762222	<s> SrVb	0
-3.762222	<s> Srik	0
-3.762222	<s> Srud	0
-3.762222	<s> Sr{p	0
-3.312253	<s> Su	0
-3.762222	<s> Sut	0
-2.895129	<s> S{	0
-3.762222	<s> S{Nk	0
-3.312253	<s> S{m	0
-3.762222	<s> T#U	0
-3.762222	<s> T$	0
-3.762222	<s> T3	0
-3.762222	<s> T3st	0
-3.312253	<s> T@	0
-3.762222	<s> T@d	0
-3.312253	<s> TI	0
-3.481395	<s> TI@	0
-3.762222	<s> TI@n	0
-3.762222	<s> TINk	0
-3.762222	<s> TIl	0
-3.762222	<s> TIm	0
-3.762222	<s> TIst	0
-3.481395	<s> TP	0
-3.762222	<s> TQs	0
-3.762222	<s> TVmp	0
-3.762222	<s> Tr#Iv	0
-3.762222	<s> Tr$l	0
-3.762222	<s> Tr5n	0
-3.762222	<s> Tr5t	0
-3.762222	<s> TrEd	0
-3.762222	<s> TrEt	0
-3.762222	<s> TrIft	0
-3.481395	<s> TrQ	0
-3.762222	<s> TrQN	0
-3.762222	<s> TrQb	0
-3.762222	<s> TrVS	0
-3.762222	<s> TrVm	0
-3.762222	<s> TrVst	0
-3.762222	<s> Tr{S	0
-3.481395	<s> V	0
-3.762222	<s> VN	0
-3.762222	<s> Vl	0
-3.481395	<s> Vm	0
-3.762222	<s> Vn	0
-3.481395	<s> Z1	0
-3.762222	<s> Z@R	0
-3.762222	<s> Zin	0
-3.481395	<s> _#	0
-3.481395	<s> _#I	0
-3.762222	<s> _#Ul	0
-3.762222	<s> _$n	0
-3.762222	<s> _$nt	0
-3.481395	<s> _3	0
-3.762222	<s> _3n	0
-3.481395	<s> _5	0
-3.762222	<s> _5lt	0
-3.096044	<s> _@	0
-3.762222	<s> _@R	0
-3.481395	<s> _@l	0
-3.018284	<s> _@n	0
-3.762222	<s> _@nd	0
-3.312253	<s> _@nt	0
-3.481395	<s> _E	0
-3.481395	<s> _Ekt	0
-3.19083	<s> _En	0
-3.762222	<s> _Ent	0
-3.481395	<s> _Est	0
-3.762222	<s> _Et	0
-3.19083	<s> _I	0
-3.481395	<s> _IN	0
-3.762222	<s> _Id	0
-3.762222	<s> _Ik	0
-3.762222	<s> _Ikt	0
-2.952356	<s> _In	0
-3.762222	<s> _Ist	0
-3.19083	<s> _It	0
-3.481395	<s> _Q	0
-3.762222	<s> _QIn	0
-3.762222	<s> _QIst	0
-3.762222	<s> _QN	0
-3.762222	<s> _Qd	0
-3.762222	<s> _V	0
-3.762222	<s> _VN	0
-3.762222	<s> _VNk	0
-3.762222	<s> _Vm	0
-3.762222	<s> _Vmp	0
-3.312253	<s> _i	0
-3.762222	<s> _il	0
-3.762222	<s> _in	0
-3.481395	<s> _u	0
-3.762222	<s> _ub	0
-3.762222	<s> _un	0
-3.762222	<s> _{	0
-3.762222	<s> _{k	0
-3.762222	<s> _{m	0
-3.762222	<s> _{s	0
-3.762222	<s> _{v	0
-2.952356	<s> b#	0
-3.096044	<s> b#I	0
-3.762222	<s> b#Id	0
-3.481395	<s> b#In	0
-3.762222	<s> b#It	0
-3.762222	<s> b#R	0
-3.762222	<s> b#Und	0
-3.762222	<s> b#Uns	0
-3.762222	<s> b#Ut	0
-3.762222	<s> b#sk	0
-3.312253	<s> b$	0
-3.762222	<s> b$l	0
-3.762222	<s> b$ld	0
-3.762222	<s> b$lt	0
-2.844573	<s> b1	0
-3.762222	<s> b1st	0
-3.018284	<s> b3	0
-3.762222	<s> b3g	0
-2.799293	<s> b5	0
-3.762222	<s> b5ld	0
-3.762222	<s> b5lt	0
-3.762222	<s> b5n	0
-2.459222	<s> b@	0
-3.096044	<s> b@R	0
-3.481395	<s> b@d	0
-3.762222	<s> b@l	0
-3.762222	<s> b@ld	0
-3.018284	<s> b@n	0
-3.762222	<s> b@nd	0
-3.19083	<s> b@s	0
-3.481395	<s> b@t	0
-2.799293	<s> bE	0
-3.762222	<s> bE@R	0
-3.762222	<s> bEd	0
-3.762222	<s> bEks	0
-3.762222	<s> bEl	0
-3.762222	<s> bElt	0
-3.762222	<s> bEnJ	0
-3.762222	<s> bEnd	0
-3.762222	<s> bEnt	0
-3.762222	<s> bEt	0
-2.459222	<s> bI	0
-3.762222	<s> bI@	0
-3.762222	<s> bI@R	0
-3.762222	<s> bI@d	0
-3.762222	<s> bIN	0
-3.762222	<s> bIS	0
-3.481395	<s> bId	0
-3.762222	<s> bIl	0
-3.762222	<s> bIlk	0
-3.096044	<s> bIn	0
-3.762222	<s> bIs	0
-3.762222	<s> bIsk	0
-3.018284	<s> bIt	0
-2.062463	<s> bP	0
-2.952356	<s> bQ	0
-3.762222	<s> bQIl	0
-3.762222	<s> bQN	0
-3.762222	<s> bQS	0
-3.762222	<s> bQks	0
-3.762222	<s> bQl	0
-3.762222	<s> bQm	0
-3.762222	<s> bQnd	0
-3.762222	<s> bQt	0
-3.312253	<s> bU	0
-3.481395	<s> bU@R	0
-3.762222	<s> bU@s	0
-3.096044	<s> bV	0
-3.312253	<s> bVN	0
-3.762222	<s> bVb	0
-3.762222	<s> bVg	0
-3.762222	<s> bVl_	0
-3.762222	<s> bVlk	0
-3.762222	<s> bVm	0
-3.762222	<s> bVmf	0
-3.762222	<s> bVmp	0
-3.762222	<s> bVnJ	0
-3.762222	<s> bVnd	0
-3.762222	<s> bVsk	0
-3.481395	<s> bVst	0
-3.762222	<s> bVv	0
-3.19083	<s> bi	0
-3.762222	<s> bis	0
-3.481395	<s> bist	0
-3.312253	<s> biz	0
-3.312253	<s> bjU	0
-3.762222	<s> bjU@	0
-3.762222	<s> bju	0
-3.762222	<s> bjun	0
-3.762222	<s> bjut	0
-3.762222	<s> bl#	0
-3.762222	<s> bl#ID	0
-3.762222	<s> bl#I_	0
-3.762222	<s> bl#Ind	0
-3.762222	<s> bl#It	0
-3.762222	<s> bl#Uz	0
-3.762222	<s> bl#nJ	0
-3.762222	<s> bl#st	0
-3.762222	<s> bl1	0
-3.762222	<s> bl1d	0
-3.762222	<s> bl1m	0
-3.762222	<s> bl1z	0
-3.762222	<s> bl3R	0
-3.762222	<s> bl3b	0
-3.762222	<s> bl5k	0
-3.762222	<s> bl5t	0
-3.481395	<s> bl@m	0
-3.762222	<s> blEnJ	0
-3.762222	<s> blEnd	0
-3.762222	<s> blEs	0
-3.762222	<s> blIn	0
-3.762222	<s> blIp	0
-3.762222	<s> blIs	0
-3.762222	<s> blIts	0
-3.762222	<s> blQJ	0
-3.762222	<s> blQb	0
-3.762222	<s> blQnd	0
-3.762222	<s> blQt	0
-3.762222	<s> blV	0
-3.762222	<s> blVS	0
-3.762222	<s> blVd	0
-3.762222	<s> blVf	0
-3.762222	<s> blVnt	0
-3.762222	<s> bliJ	0
-3.762222	<s> blik	0
-3.762222	<s> blip	0
-3.762222	<s> blum	0
-3.762222	<s> bl{b	0
-3.762222	<s> bl{k	0
-3.762222	<s> bl{nd	0
-3.481395	<s> br#I	0
-3.762222	<s> br#Ib	0
-3.762222	<s> br#Id	0
-3.762222	<s> br#In	0
-3.762222	<s> br#It	0
-3.762222	<s> br#Un	0
-3.762222	<s> br#Uz	0
-3.762222	<s> br#nJ	0
-3.762222	<s> br#s	0
-3.762222	<s> br$d	0
-3.762222	<s> br$l	0
-3.762222	<s> br1d	0
-3.481395	<s> br1n	0
-3.762222	<s> br1s	0
-3.762222	<s> br1v	0
-3.762222	<s> br1z	0
-3.762222	<s> br5J	0
-3.762222	<s> br5g	0
-3.312253	<s> br@	0
-3.762222	<s> brET	0
-3.762222	<s> brEd	0
-3.762222	<s> brEst	0
-3.19083	<s> brI	0
-3.762222	<s> brINk	0
-3.762222	<s> brI_	0
-3.762222	<s> brId	0
-3.762222	<s> brIg	0
-3.481395	<s> brIk	0
-3.762222	<s> brIl	0
-3.762222	<s> brIm	0
-3.762222	<s> brIsk	0
-3.762222	<s> brQ	0
-3.762222	<s> brQIl	0
-3.762222	<s> brQN	0
-3.762222	<s> brQT	0
-3.762222	<s> brQnz	0
-3.762222	<s> brUk	0
-3.762222	<s> brVS	0
-3.762222	<s> briJ	0
-3.762222	<s> brid	0
-3.762222	<s> brif	0
-3.762222	<s> brim	0
-3.762222	<s> briz	0
-3.762222	<s> bru	0
-3.762222	<s> brum	0
-3.762222	<s> brut	0
-3.762222	<s> bruz	0
-3.481395	<s> br{	0
-3.762222	<s> br{d	0
-3.762222	<s> br{kt	0
-3.762222	<s> br{m	0
-3.762222	<s> br{n	0
-3.762222	<s> br{nd	0
-3.762222	<s> br{t	0
-2.895129	<s> bu	0
-3.762222	<s> bun	0
-3.762222	<s> bus	0
-3.762222	<s> bust	0
-2.500418	<s> b{	0
-3.762222	<s> b{S	0
-3.481395	<s> b{b	0
-3.762222	<s> b{k	0
-3.481395	<s> b{l	0
-3.762222	<s> b{m	0
-3.19083	<s> b{n	0
-3.481395	<s> b{st	0
-2.844573	<s> d#I	0
-3.481395	<s> d#Im	0
-3.481395	<s> d#In	0
-3.481395	<s> d#Is	0
-3.762222	<s> d#Iv	0
-3.312253	<s> d#R	0
-3.762222	<s> d#U	0
-3.762222	<s> d#Un	0
-3.762222	<s> d#Us	0
-3.762222	<s> d#Ut	0
-3.19083	<s> d$	0
-2.952356	<s> d$R	0
-3.762222	<s> d$nt	0
-3.018284	<s> d1	0
-3.762222	<s> d1t	0
-3.762222	<s> d3	0
-3.762222	<s> d3m	0
-3.762222	<s> d3n	0
-2.624637	<s> d5	0
-3.762222	<s> d5n	0
-3.762222	<s> d5t	0
-2.654395	<s> d@	0
-2.545936	<s> d@R	0
-3.312253	<s> d@k	0
-3.762222	<s> d@l	0
-3.19083	<s> d@m	0
-3.19083	<s> d@n	0
-3.762222	<s> d@nt	0
-3.762222	<s> d@s	0
-2.799293	<s> dE	0
-3.762222	<s> dE@R	0
-3.762222	<s> dEft	0
-3.762222	<s> dEks	0
-3.481395	<s> dEl	0
-3.762222	<s> dElft	0
-3.762222	<s> dEm	0
-3.762222	<s> dEpt	0
-3.762222	<s> dEsk	0
-3.096044	<s> dH	0
-2.27086	<s> dI	0
-3.481395	<s> dI@R	0
-3.762222	<s> dI@t	0
-3.481395	<s> dIN	0
-3.762222	<s> dIg	0
-3.481395	<s> dIk	0
-3.481395	<s> dIkt	0
-3.312253	<s> dIl	0
-3.762222	<s> dInt	0
-3.762222	<s> dIs	0
-3.762222	<s> dIsk	0
-3.762222	<s> dIst	0
-3.19083	<s> dIt	0
-2.130593	<s> dP	0
-3.018284	<s> dQ	0
-3.762222	<s> dQI	0
-3.762222	<s> dQN	0
-3.762222	<s> dQg	0
-3.762222	<s> dQk	0
-3.481395	<s> dQl	0
-3.762222	<s> dQn	0
-3.762222	<s> dQs	0
-3.762222	<s> dU	0
-3.762222	<s> dU@R	0
-2.952356	<s> dV	0
-3.762222	<s> dVN	0
-3.762222	<s> dVNk	0
-3.762222	<s> dVkt	0
-3.762222	<s> dVl_	0
-3.762222	<s> dVlt	0
-3.481395	<s> dVm	0
-3.762222	<s> dVmp	0
-3.762222	<s> dVn	0
-3.762222	<s> dVns	0
-3.762222	<s> dVsk	0
-3.312253	<s> di	0
-3.762222	<s> dil	0
-3.481395	<s> din	0
-3.018284	<s> dju	0
-3.762222	<s> djuk	0
-3.762222	<s> djun	0
-3.762222	<s> djup	0
-3.762222	<s> djus	0
-3.762222	<s> dr#	0
-3.481395	<s> dr#I	0
-3.762222	<s> dr#Iv	0
-3.762222	<s> dr#Un	0
-3.762222	<s> dr#Uz	0
-3.762222	<s> dr#ft	0
-3.762222	<s> dr#s	0
-3.762222	<s> dr$l	0
-3.762222	<s> dr1k	0
-3.762222	<s> dr1n	0
-3.762222	<s> dr1p	0
-3.762222	<s> dr5g	0
-3.762222	<s> dr5l	0
-3.762222	<s> dr5n	0
-3.762222	<s> dr5v	0
-3.762222	<s> dr@	0
-3.762222	<s> dr@d	0
-3.762222	<s> dr@l	0
-3.762222	<s> dr@n	0
-3.762222	<s> drE_	0
-3.762222	<s> drEd	0
-3.762222	<s> drEs	0
-3.312253	<s> drI	0
-3.762222	<s> drI@R	0
-3.762222	<s> drINk	0
-3.762222	<s> drIft	0
-3.762222	<s> drQp	0
-3.762222	<s> drQs	0
-3.762222	<s> drVNk	0
-3.762222	<s> drV_	0
-3.762222	<s> drVf	0
-3.481395	<s> drVm	0
-3.762222	<s> dru	0
-3.762222	<s> drul	0
-3.762222	<s> drun	0
-3.762222	<s> drup	0
-3.762222	<s> dr{	0
-3.762222	<s> dr{b	0
-3.762222	<s> dr{g	0
-3.762222	<s> dr{k	0
-3.762222	<s> dr{m	0
-3.762222	<s> dr{t	0
-3.19083	<s> du	0
-3.762222	<s> dw$f	0
-3.762222	<s> dwEl	0
-3.762222	<s> dwIn	0
-3.096044	<s> d{	0
-3.762222	<s> d{N	0
-3.481395	<s> d{m	0
-3.762222	<s> d{mp	0
-3.312253	<s> d{n	0
-3.19083	<s> f#I	0
-3.762222	<s> f#Id	0
-3.762222	<s> f#If	0
-3.481395	<s> f#Il	0
-3.762222	<s> f#Ind	0
-3.762222	<s> f#It	0
-3.762222	<s> f#Iv	0
-3.762222	<s> f#Ul	0
-3.762222	<s> f#Un	0
-3.762222	<s> f#Und	0
-3.19083	<s> f$	0
-3.762222	<s> f$ls	0
-3.762222	<s> f$m	0
-3.312253	<s> f1	0
-3.762222	<s> f1n	0
-3.762222	<s> f1nt	0
-3.19083	<s> f3	0
-3.762222	<s> f3st	0
-3.312253	<s> f5	0
-3.481395	<s> f5ld	0
-2.720829	<s> f@	0
-3.096044	<s> f@R	0
-3.762222	<s> f@l	0
-3.762222	<s> f@nt	0
-3.481395	<s> f@t	0
-2.844573	<s> fE	0
-3.312253	<s> fE@R	0
-3.762222	<s> fEns	0
-3.762222	<s> fEst	0
-3.481395	<s> fH	0
-2.596788	<s> fI	0
-3.762222	<s> fI@	0
-3.762222	<s> fINk	0
-3.762222	<s> fIlT	0
-2.952356	<s> fIn	0
-3.762222	<s> fInJ	0
-3.762222	<s> fIst	0
-3.19083	<s> fIt	0
-2.720829	<s> fP	0
-3.018284	<s> fQ	0
-3.762222	<s> fQIl	0
-3.762222	<s> fQks	0
-3.312253	<s> fQn	0
-3.762222	<s> fQnd	0
-3.762222	<s> fQnt	0
-3.762222	<s> fQz	0
-3.762222	<s> fUl	0
-3.312253	<s> fV	0
-3.762222	<s> fVN	0
-3.762222	<s> fVNk	0
-3.762222	<s> fVm	0
-3.762222	<s> fVnd	0
-2.895129	<s> fi	0
-3.762222	<s> find	0
-3.762222	<s> fist	0
-3.481395	<s> fjU@	0
-3.762222	<s> fjU@l	0
-3.481395	<s> fju	0
-3.762222	<s> fju_	0
-3.762222	<s> fjug	0
-3.762222	<s> fjum	0
-3.762222	<s> fl#I	0
-3.762222	<s> fl#U	0
-3.762222	<s> fl#Uns	0
-3.762222	<s> fl#sk	0
-3.762222	<s> fl$	0
-3.762222	<s> fl$nt	0
-3.762222	<s> fl1m	0
-3.762222	<s> fl3t	0
-3.481395	<s> fl@	0
-3.762222	<s> flES	0
-3.762222	<s> flEk	0
-3.762222	<s> flEks	0
-3.762222	<s> flEm	0
-3.762222	<s> flIJ	0
-3.762222	<s> flIk	0
-3.762222	<s> flInJ	0
-3.762222	<s> flInt	0
-3.762222	<s> flIp	0
-3.762222	<s> flQ	0
-3.762222	<s> flQg	0
-3.762222	<s> flQk	0
-3.762222	<s> flQs	0
-3.762222	<s> flVNk	0
-3.762222	<s> flVd	0
-3.762222	<s> flVf	0
-3.762222	<s> flis	0
-3.481395	<s> flu	0
-3.762222	<s> fluk	0
-3.762222	<s> flut	0
-3.481395	<s> fl{	0
-3.762222	<s> fl{Nk	0
-3.762222	<s> fl{S	0
-3.762222	<s> fl{g	0
-3.762222	<s> fl{k	0
-3.762222	<s> fl{ks	0
-3.762222	<s> fl{n	0
-3.762222	<s> fl{n_	0
-3.762222	<s> fl{p	0
-3.762222	<s> fl{t	0
-3.762222	<s> fr#Un	0
-3.762222	<s> fr$d	0
-3.762222	<s> fr1	0
-3.762222	<s> fr1d	0
-3.762222	<s> fr1m	0
-3.762222	<s> fr1t	0
-3.481395	<s> fr1z	0
-3.481395	<s> fr@	0
-3.762222	<s> fr@n	0
-3.762222	<s> frE	0
-3.762222	<s> frES	0
-3.762222	<s> frEnd	0
-3.762222	<s> frEs	0
-3.19083	<s> frI	0
-3.762222	<s> frIl	0
-3.762222	<s> frIn_	0
-3.762222	<s> frIsk	0
-3.762222	<s> frQ	0
-3.762222	<s> frQT	0
-3.762222	<s> frQg	0
-3.762222	<s> frQk	0
-3.762222	<s> frQm	0
-3.762222	<s> frQnd	0
-3.762222	<s> frQst	0
-3.762222	<s> frVmp	0
-3.481395	<s> frVnt	0
-3.762222	<s> fri	0
-3.762222	<s> frik	0
-3.762222	<s> friz	0
-3.762222	<s> fr{	0
-3.762222	<s> fr{N	0
-3.762222	<s> fr{Nk	0
-3.762222	<s> fr{s	0
-3.096044	<s> f{	0
-3.481395	<s> f{kt	0
-3.762222	<s> f{lt	0
-3.762222	<s> f{n	0
-2.895129	<s> g#	0
-3.762222	<s> g#Id	0
-3.762222	<s> g#Il	0
-3.481395	<s> g#R	0
-3.762222	<s> g#U	0
-3.762222	<s> g#U_	0
-3.762222	<s> g#Un	0
-3.762222	<s> g#Ut	0
-3.762222	<s> g#sp	0
-3.762222	<s> g$	0
-3.762222	<s> g$nt	0
-3.481395	<s> g1	0
-3.481395	<s> g3	0
-2.596788	<s> g5	0
-3.762222	<s> g5ld	0
-3.762222	<s> g5st	0
-2.500418	<s> g@	0
-2.895129	<s> g@R	0
-3.481395	<s> g@m	0
-2.799293	<s> g@n	0
-3.19083	<s> g@s	0
-3.19083	<s> g@t	0
-3.762222	<s> gE	0
-3.762222	<s> gEn	0
-3.762222	<s> gEst	0
-2.895129	<s> gI	0
-3.762222	<s> gI@R	0
-3.762222	<s> gIft	0
-3.762222	<s> gIld	0
-3.762222	<s> gIlt	0
-3.481395	<s> gIn	0
-3.762222	<s> gInz	0
-3.762222	<s> gIs	0
-3.481395	<s> gIt	0
-2.370645	<s> gP	0
-3.096044	<s> gQ	0
-3.762222	<s> gQI	0
-3.762222	<s> gQIl	0
-3.762222	<s> gQN	0
-3.481395	<s> gQg	0
-3.481395	<s> gQn	0
-3.762222	<s> gU	0
-3.762222	<s> gU@d	0
-3.096044	<s> gV	0
-3.762222	<s> gVlf	0
-3.762222	<s> gVlp	0
-3.762222	<s> gVn	0
-3.481395	<s> gVst	0
-3.762222	<s> gjU@R	0
-3.762222	<s> gju	0
-3.762222	<s> gjum	0
-3.762222	<s> gl#ns	0
-3.762222	<s> gl#s	0
-3.762222	<s> gl1d	0
-3.762222	<s> gl1z	0
-3.762222	<s> gl5b	0
-3.762222	<s> gl5t	0
-3.762222	<s> gl@n	0
-3.762222	<s> glE@R	0
-3.762222	<s> glEn	0
-3.762222	<s> glIb	0
-3.762222	<s> glImps	0
-3.762222	<s> glInt	0
-3.762222	<s> glQs	0
-3.762222	<s> glVm	0
-3.762222	<s> glVt	0
-3.762222	<s> glib	0
-3.762222	<s> glim	0
-3.762222	<s> glin	0
-3.481395	<s> glu	0
-3.762222	<s> glum	0
-3.762222	<s> gl{d	0
-3.762222	<s> gr#Im	0
-3.762222	<s> gr#Ip	0
-3.762222	<s> gr#UJ	0
-3.762222	<s> gr#Ul	0
-3.762222	<s> gr#Und	0
-3.762222	<s> gr#Us	0
-3.762222	<s> gr#f	0
-3.762222	<s> gr#ft	0
-3.762222	<s> gr#nt	0
-3.762222	<s> gr#s	0
-3.762222	<s> gr1d	0
-3.762222	<s> gr1l	0
-3.762222	<s> gr1n	0
-3.762222	<s> gr1p	0
-3.762222	<s> gr1s	0
-3.762222	<s> gr1t	0
-3.762222	<s> gr1v	0
-3.762222	<s> gr1z	0
-3.762222	<s> gr5	0
-3.762222	<s> gr5n	0
-3.762222	<s> gr5p	0
-3.762222	<s> gr5s	0
-3.762222	<s> gr5t	0
-3.762222	<s> gr5v	0
-3.762222	<s> gr@	0
-3.762222	<s> gr@l	0
-3.762222	<s> gr@m	0
-3.762222	<s> grE	0
-3.762222	<s> grEm	0
-3.762222	<s> grEs	0
-3.19083	<s> grI	0
-3.762222	<s> grId	0
-3.312253	<s> grIm	0
-3.481395	<s> grIn	0
-3.762222	<s> grIp	0
-3.762222	<s> grIst	0
-3.762222	<s> grIt	0
-3.481395	<s> grQ	0
-3.762222	<s> grQIn	0
-3.762222	<s> grQt	0
-3.762222	<s> grU@l	0
-3.762222	<s> grV_	0
-3.762222	<s> grVb	0
-3.762222	<s> grVm	0
-3.762222	<s> grVnt	0
-3.312253	<s> gri	0
-3.762222	<s> grib	0
-3.481395	<s> grin	0
-3.762222	<s> gris	0
-3.762222	<s> grit	0
-3.762222	<s> grum	0
-3.312253	<s> gr{	0
-3.762222	<s> gr{b	0
-3.481395	<s> gr{m	0
-3.762222	<s> gr{nd	0
-3.481395	<s> gu	0
-3.481395	<s> gun	0
-3.762222	<s> gus	0
-3.762222	<s> gwIn	0
-2.654395	<s> g{	0
-3.762222	<s> g{N	0
-3.762222	<s> g{m	0
-3.762222	<s> g{mp	0
-3.762222	<s> g{s	0
-2.799293	<s> h#	0
-2.895129	<s> h#I	0
-3.762222	<s> h#Id	0
-3.762222	<s> h#Ik	0
-3.762222	<s> h#Ind	0
-3.762222	<s> h#It	0
-3.762222	<s> h#Iv	0
-3.762222	<s> h#U	0
-3.762222	<s> h#Ul	0
-3.762222	<s> h#Und	0
-3.762222	<s> h#Us	0
-3.762222	<s> h#Ut	0
-3.762222	<s> h#d	0
-3.762222	<s> h#sp	0
-3.762222	<s> h#t	0
-3.481395	<s> h$	0
-3.762222	<s> h$k	0
-3.762222	<s> h$nt	0
-3.762222	<s> h1	0
-3.762222	<s> h1st	0
-3.19083	<s> h3	0
-3.762222	<s> h3ts	0
-3.481395	<s> h5	0
-3.762222	<s> h5st	0
-3.312253	<s> h@	0
-3.018284	<s> hE	0
-3.762222	<s> hE@R	0
-3.762222	<s> hEk	0
-3.762222	<s> hEl	0
-3.762222	<s> hElm	0
-3.762222	<s> hElp	0
-3.762222	<s> hEm	0
-3.762222	<s> hEmp	0
-3.312253	<s> hI	0
-3.762222	<s> hI@	0
-3.762222	<s> hI@R	0
-3.762222	<s> hIb	0
-3.762222	<s> hIlt	0
-3.762222	<s> hIn_	0
-3.762222	<s> hInt	0
-2.895129	<s> hQ	0
-3.762222	<s> hQIst	0
-3.762222	<s> hQNk	0
-3.762222	<s> hQm	0
-3.481395	<s> hU	0
-3.312253	<s> hV	0
-3.762222	<s> hVNk	0
-3.762222	<s> hVlk	0
-3.312253	<s> hVm	0
-3.762222	<s> hVmp	0
-3.762222	<s> hVn	0
-3.762222	<s> hVnJ	0
-3.762222	<s> hVnt	0
-3.762222	<s> hVsk	0
-3.762222	<s> hVz	0
-3.19083	<s> hju	0
-3.312253	<s> hu	0
-3.762222	<s> huts	0
-2.624637	<s> h{	0
-3.762222	<s> h{Nk	0
-3.481395	<s> h{n	0
-3.762222	<s> h{nd	0
-3.19083	<s> i	0
-3.762222	<s> is	0
-3.762222	<s> j#Ul	0
-3.312253	<s> j5	0
-3.312253	<s> j@	0
-3.762222	<s> j@d	0
-3.762222	<s> j@n	0
-3.762222	<s> jE	0
-3.762222	<s> jElp	0
-3.762222	<s> jQ	0
-3.762222	<s> jU@	0
-3.762222	<s> jV	0
-3.762222	<s> jild	0
-3.762222	<s> jist	0
-2.844573	<s> ju	0
-3.762222	<s> j{Nk	0
-3.762222	<s> j{k	0
-2.654395	<s> k#	0
-3.481395	<s> k#I	0
-3.762222	<s> k#Ik	0
-3.762222	<s> k#Ind	0
-3.762222	<s> k#It	0
-3.762222	<s> k#U	0
-3.762222	<s> k#UJ	0
-3.762222	<s> k#Unt	0
-3.762222	<s> k#d	0
-3.762222	<s> k#sk	0
-3.762222	<s> k#st	0
-2.758291	<s> k$	0
-3.762222	<s> k$R	0
-3.762222	<s> k$d	0
-3.481395	<s> k$n	0
-2.720829	<s> k1	0
-3.762222	<s> k1n	0
-3.19083	<s> k3	0
-3.762222	<s> k3R	0
-2.40394	<s> k5	0
-3.762222	<s> k5ld	0
-3.762222	<s> k5lt	0
-3.762222	<s> k5n	0
-3.762222	<s> k5s	0
-3.762222	<s> k5st	0
-2.095193	<s> k@	0
-2.720829	<s> k@R	0
-3.762222	<s> k@d	0
-3.762222	<s> k@l	0
-3.018284	<s> k@m	0
-2.386974	<s> k@n	0
-3.19083	<s> k@nd	0
-3.19083	<s> k@s	0
-3.762222	<s> k@st	0
-3.762222	<s> k@t	0
-3.762222	<s> k@z	0
-3.19083	<s> kE	0
-3.762222	<s> kE@	0
-3.762222	<s> kE@R	0
-3.762222	<s> kE@n	0
-3.762222	<s> kElp	0
-3.762222	<s> kEs	0
-2.844573	<s> kI	0
-3.762222	<s> kI@S	0
-3.762222	<s> kINk	0
-3.481395	<s> kId	0
-3.762222	<s> kIln	0
-3.762222	<s> kIlt	0
-3.096044	<s> kIn	0
-3.762222	<s> kInt	0
-3.762222	<s> kIs	0
-2.720829	<s> kIt	0
-3.762222	<s> kIts	0
-2.27086	<s> kP	0
-2.440002	<s> kQ	0
-3.481395	<s> kQI	0
-3.762222	<s> kQIf	0
-3.762222	<s> kQIl	0
-3.762222	<s> kQIn	0
-3.312253	<s> kQN	0
-3.762222	<s> kQg	0
-3.762222	<s> kQk	0
-3.762222	<s> kQl	0
-3.096044	<s> kQm	0
-2.720829	<s> kQn	0
-3.762222	<s> kQnJ	0
-3.481395	<s> kQst	0
-3.481395	<s> kU	0
-3.018284	<s> kV	0
-3.481395	<s> kVl	0
-3.762222	<s> kVlt	0
-3.19083	<s> kVm	0
-3.762222	<s> kVnt	0
-3.762222	<s> kVp	0
-3.762222	<s> kVs	0
-3.762222	<s> kVsp	0
-3.762222	<s> kVt	0
-3.096044	<s> ki	0
-3.762222	<s> kin	0
-3.762222	<s> kit	0
-3.312253	<s> kjU	0
-3.312253	<s> kjU@	0
-3.481395	<s> kjU@R	0
-2.952356	<s> kju	0
-3.762222	<s> kjub	0
-3.762222	<s> kjul	0
-3.762222	<s> kjut	0
-3.762222	<s> kjuz	0
-3.762222	<s> kl#I	0
-3.762222	<s> kl#Im	0
-3.762222	<s> kl#Ud	0
-3.762222	<s> kl#Un	0
-3.762222	<s> kl#Ut	0
-3.762222	<s> kl#k	0
-3.762222	<s> kl#s	0
-3.762222	<s> kl$z	0
-3.762222	<s> kl1m	0
-3.481395	<s> kl5n	0
-3.762222	<s> kl@	0
-3.481395	<s> klE	0
-3.762222	<s> klE@R	0
-3.762222	<s> klEf	0
-3.762222	<s> klEnJ	0
-3.762222	<s> klEnz	0
-3.762222	<s> klI@R	0
-3.762222	<s> klI@s	0
-3.762222	<s> klINk	0
-3.762222	<s> klIf	0
-3.762222	<s> klIn	0
-3.762222	<s> klInJ	0
-3.762222	<s> klQI	0
-3.762222	<s> klQS	0
-3.762222	<s> klQT	0
-3.762222	<s> klQd	0
-3.481395	<s> klQg	0
-3.762222	<s> klQk	0
-3.762222	<s> klQt	0
-3.762222	<s> klVJ	0
-3.762222	<s> klVNk	0
-3.762222	<s> klVb	0
-3.762222	<s> klVk	0
-3.762222	<s> klVmp	0
-3.762222	<s> kli	0
-3.762222	<s> klik	0
-3.762222	<s> klin	0
-3.762222	<s> klit	0
-3.762222	<s> kliv	0
-3.312253	<s> kl{	0
-3.762222	<s> kl{N	0
-3.762222	<s> kl{Nk	0
-3.762222	<s> kl{S	0
-3.762222	<s> kl{d	0
-3.481395	<s> kl{k	0
-3.762222	<s> kl{m	0
-3.762222	<s> kl{mp	0
-3.762222	<s> kl{n	0
-3.762222	<s> kl{p	0
-3.762222	<s> kr#I	0
-3.762222	<s> kr#Im	0
-3.762222	<s> kr#UJ	0
-3.762222	<s> kr#Ud	0
-3.762222	<s> kr#Un	0
-3.762222	<s> kr#ft	0
-3.762222	<s> kr1	0
-3.762222	<s> kr1n	0
-3.762222	<s> kr1p	0
-3.762222	<s> kr1t	0
-3.762222	<s> kr1v	0
-3.762222	<s> kr1z	0
-3.481395	<s> kr5	0
-3.762222	<s> kr5k	0
-3.762222	<s> kr5m	0
-3.762222	<s> kr5s	0
-3.762222	<s> kr@	0
-3.762222	<s> kr@l	0
-3.762222	<s> krE	0
-3.762222	<s> krEst	0
-3.19083	<s> krI	0
-3.762222	<s> krI@	0
-3.762222	<s> krI@s	0
-3.762222	<s> krIN	0
-3.762222	<s> krIk	0
-3.762222	<s> krIm	0
-3.762222	<s> krImp	0
-3.762222	<s> krIn_	0
-3.762222	<s> krIpt	0
-3.762222	<s> krIt	0
-3.762222	<s> krQft	0
-3.762222	<s> krQm	0
-3.762222	<s> krQp	0
-3.762222	<s> krQs	0
-3.762222	<s> krU@l	0
-3.762222	<s> krUk	0
-3.762222	<s> krVJ	0
-3.762222	<s> krVS	0
-3.762222	<s> krVks	0
-3.481395	<s> krVm	0
-3.762222	<s> krVnJ	0
-3.762222	<s> krVst	0
-3.312253	<s> kri	0
-3.762222	<s> krid	0
-3.762222	<s> krik	0
-3.762222	<s> kril	0
-3.762222	<s> krim	0
-3.762222	<s> krip	0
-3.762222	<s> kris	0
-3.481395	<s> krit	0
-3.481395	<s> kru	0
-3.762222	<s> krud	0
-3.762222	<s> krun	0
-3.762222	<s> krup	0
-3.762222	<s> kr{S	0
-3.762222	<s> kr{b	0
-3.762222	<s> kr{g	0
-3.762222	<s> kr{k	0
-3.481395	<s> kr{m	0
-3.762222	<s> kr{p	0
-3.762222	<s> kr{s	0
-3.19083	<s> ku	0
-3.312253	<s> kun	0
-3.481395	<s> kus	0
-3.762222	<s> kv#s	0
-3.762222	<s> kw#I	0
-3.762222	<s> kw#k	0
-3.762222	<s> kw#m	0
-3.762222	<s> kw$	0
-3.762222	<s> kw$t	0
-3.762222	<s> kw$ts	0
-3.762222	<s> kw1	0
-3.762222	<s> kw1k	0
-3.762222	<s> kw1l	0
-3.762222	<s> kw1nt	0
-3.762222	<s> kw3k	0
-3.762222	<s> kw5	0
-3.762222	<s> kw@l	0
-3.762222	<s> kwEl	0
-3.762222	<s> kwEnJ	0
-3.312253	<s> kwI	0
-3.762222	<s> kwI@m	0
-3.762222	<s> kwId	0
-3.762222	<s> kwIf	0
-3.762222	<s> kwIk	0
-3.762222	<s> kwIl	0
-3.762222	<s> kwIlt	0
-3.312253	<s> kwIn	0
-3.762222	<s> kwIns	0
-3.481395	<s> kwIp	0
-3.762222	<s> kwIt	0
-3.762222	<s> kwIts	0
-3.762222	<s> kwIz	0
-3.481395	<s> kwQ	0
-3.762222	<s> kwQIz	0
-3.762222	<s> kwQS	0
-3.762222	<s> kwQd	0
-3.762222	<s> kwQf	0
-3.481395	<s> kwQt	0
-3.762222	<s> kwin	0
-3.762222	<s> kw{k	0
-2.23424	<s> k{	0
-3.762222	<s> k{N	0
-3.762222	<s> k{S	0
-3.762222	<s> k{f	0
-3.312253	<s> k{m	0
-3.762222	<s> k{mp	0
-3.19083	<s> k{n	0
-3.762222	<s> k{nt	0
-3.19083	<s> k{p	0
-3.762222	<s> k{sk	0
-3.762222	<s> k{t	0
-3.19083	<s> l#	0
-2.720829	<s> l#I	0
-3.762222	<s> l#ID	0
-3.762222	<s> l#If	0
-3.762222	<s> l#Ik	0
-3.762222	<s> l#Il	0
-3.762222	<s> l#Im	0
-3.762222	<s> l#It	0
-3.762222	<s> l#Iv	0
-3.762222	<s> l#Iz	0
-3.481395	<s> l#U	0
-3.762222	<s> l#Ud	0
-3.762222	<s> l#Un_	0
-3.762222	<s> l#Us	0
-3.481395	<s> l#d	0
-3.762222	<s> l#m	0
-3.762222	<s> l#nJ	0
-3.762222	<s> l#ns	0
-3.762222	<s> l#st	0
-3.762222	<s> l$R	0
-3.762222	<s> l$n	0
-3.762222	<s> l$nJ	0
-3.018284	<s> l1	0
-3.762222	<s> l1t	0
-3.762222	<s> l3t	0
-2.354908	<s> l5	0
-2.211437	<s> l@	0
-3.096044	<s> l@R	0
-3.762222	<s> l@d	0
-3.762222	<s> l@k	0
-3.096044	<s> l@m	0
-2.895129	<s> l@n	0
-3.481395	<s> l@nd	0
-3.762222	<s> l@ns	0
-3.762222	<s> l@nt	0
-3.096044	<s> l@p	0
-3.096044	<s> l@s	0
-3.762222	<s> l@sk	0
-3.762222	<s> l@st	0
-3.096044	<s> l@t	0
-2.799293	<s> lE	0
-3.762222	<s> lE@	0
-3.762222	<s> lE@R	0
-3.762222	<s> lE@d	0
-3.762222	<s> lET	0
-3.762222	<s> lEft	0
-3.312253	<s> lEk	0
-3.762222	<s> lEks	0
-3.762222	<s> lEkt	0
-3.762222	<s> lEn	0
-3.762222	<s> lEnd	0
-3.762222	<s> lEnz	0
-3.762222	<s> lEst	0
-2.121469	<s> lI	0
-3.762222	<s> lI@R	0
-3.762222	<s> lI@n	0
-3.762222	<s> lI@s	0
-3.481395	<s> lIN	0
-3.762222	<s> lINk	0
-3.762222	<s> lINks	0
-3.312253	<s> lI_	0
-3.762222	<s> lId	0
-3.481395	<s> lIf	0
-3.762222	<s> lIft	0
-3.19083	<s> lIk	0
-3.481395	<s> lIks	0
-3.481395	<s> lIm	0
-3.762222	<s> lImf	0
-3.762222	<s> lImp	0
-2.758291	<s> lIn	0
-3.762222	<s> lInJ	0
-3.19083	<s> lIp	0
-3.762222	<s> lIps	0
-3.312253	<s> lIs	0
-3.481395	<s> lIsk	0
-3.762222	<s> lIst	0
-2.952356	<s> lIt	0
-3.19083	<s> lQ	0
-3.762222	<s> lQI	0
-3.762222	<s> lQIn	0
-3.762222	<s> lQk	0
-3.481395	<s> lQn	0
-3.762222	<s> lQt	0
-3.762222	<s> lU@	0
-3.762222	<s> lU@R	0
-3.481395	<s> lVm	0
-3.762222	<s> lVmf	0
-3.762222	<s> lVmp	0
-3.762222	<s> lVst	0
-3.312253	<s> li	0
-3.481395	<s> lin	0
-3.762222	<s> lis	0
-3.762222	<s> list	0
-3.481395	<s> lit	0
-3.762222	<s> liz	0
-3.762222	<s> lj#d	0
-3.762222	<s> lj@	0
-3.762222	<s> lj@d	0
-3.481395	<s> lj@n	0
-3.481395	<s> ljU	0
-3.762222	<s> ljud	0
-3.762222	<s> ljum	0
-3.762222	<s> ljuz	0
-2.844573	<s> lu	0
-3.481395	<s> lun	0
-3.762222	<s> lut	0
-2.952356	<s> l{	0
-3.762222	<s> l{N	0
-3.762222	<s> l{Nks	0
-3.762222	<s> l{S	0
-3.762222	<s> l{f	0
-3.481395	<s> l{k	0
-3.762222	<s> l{ks	0
-3.481395	<s> l{m	0
-3.762222	<s> l{mp	0
-3.481395	<s> l{n	0
-3.762222	<s> l{nd	0
-3.762222	<s> l{p	0
-3.762222	<s> l{ps	0
-2.479332	<s> m#	0
-3.312253	<s> m#I	0
-3.762222	<s> m#Il	0
-3.762222	<s> m#Ild	0
-3.762222	<s> m#Im	0
-3.481395	<s> m#In	0
-3.762222	<s> m#It	0
-3.762222	<s> m#UT	0
-3.762222	<s> m#Un	0
-3.762222	<s> m#Und	0
-3.762222	<s> m#Us	0
-3.762222	<s> m#st	0
-3.312253	<s> m$	0
-3.481395	<s> m$R	0
-3.762222	<s> m$n	0
-2.952356	<s> m1	0
-3.762222	<s> m1n	0
-3.762222	<s> m1s	0
-3.19083	<s> m3	0
-3.762222	<s> m3s	0
-2.654395	<s> m5	0
-3.762222	<s> m5d	0
-3.762222	<s> m5lt	0
-3.762222	<s> m5n	0
-3.762222	<s> m5t	0
-2.046978	<s> m@	0
-2.844573	<s> m@R	0
-3.481395	<s> m@T	0
-3.481395	<s> m@k	0
-3.762222	<s> m@m	0
-2.686343	<s> m@n	0
-3.018284	<s> m@nt	0
-3.762222	<s> m@nz	0
-3.481395	<s> m@s	0
-3.762222	<s> m@sk	0
-3.481395	<s> m@t	0
-2.596788	<s> mE	0
-3.762222	<s> mE@R	0
-3.762222	<s> mEN	0
-3.762222	<s> mElt	0
-3.481395	<s> mEm	0
-2.952356	<s> mEn	0
-3.762222	<s> mEnd	0
-3.481395	<s> mEns	0
-3.481395	<s> mEnt	0
-2.23424	<s> mI	0
-3.19083	<s> mI@R	0
-3.481395	<s> mIN	0
-3.762222	<s> mINk	0
-3.762222	<s> mINks	0
-3.762222	<s> mIS	0
-3.762222	<s> mI_	0
-3.481395	<s> mId	0
-3.762222	<s> mIk	0
-3.762222	<s> mIlJ	0
-3.762222	<s> mIlt	0
-2.799293	<s> mIn	0
-3.762222	<s> mIns	0
-3.762222	<s> mInt	0
-3.481395	<s> mIs	0
-3.096044	<s> mIt	0
-3.762222	<s> mP	0
-2.758291	<s> mQ	0
-3.762222	<s> mQIl	0
-3.762222	<s> mQIst	0
-3.762222	<s> mQN	0
-3.762222	<s> mQk	0
-3.762222	<s> mQs	0
-3.762222	<s> mQsk	0
-3.762222	<s> mU@R	0
-2.624637	<s> mV	0
-3.481395	<s> mVN	0
-3.481395	<s> mVNk	0
-3.762222	<s> mVf	0
-3.762222	<s> mVlt	0
-3.762222	<s> mVm	0
-3.762222	<s> mVnJ	0
-3.762222	<s> mVnT	0
-3.762222	<s> mVs	0
-3.762222	<s> mVst	0
-3.762222	<s> mVz	0
-2.844573	<s> mi	0
-3.481395	<s> mjU	0
-3.481395	<s> mju	0
-3.762222	<s> mjul	0
-3.312253	<s> mjun	0
-3.481395	<s> mjut	0
-3.762222	<s> mjuz	0
-3.762222	<s> mu	0
-2.370645	<s> m{	0
-3.481395	<s> m{N	0
-3.481395	<s> m{g	0
-3.762222	<s> m{k	0
-3.762222	<s> m{l	0
-3.481395	<s> m{m	0
-3.018284	<s> m{n	0
-3.481395	<s> m{ns	0
-3.481395	<s> m{t	0
-3.19083	<s> n#	0
-3.312253	<s> n#I	0
-3.762222	<s> n#If	0
-3.762222	<s> n#In	0
-3.762222	<s> n#Is	0
-3.481395	<s> n#It	0
-3.762222	<s> n#Iv	0
-3.481395	<s> n#R	0
-3.762222	<s> n#Un	0
-3.762222	<s> n#Ut	0
-3.762222	<s> n#l	0
-3.762222	<s> n$	0
-3.762222	<s> n$R	0
-3.19083	<s> n1	0
-3.762222	<s> n1d	0
-3.762222	<s> n1t	0
-2.545936	<s> n5	0
-3.762222	<s> n5d	0
-3.762222	<s> n5m	0
-3.762222	<s> n5t	0
-2.20047	<s> n@	0
-3.762222	<s> n@R	0
-3.762222	<s> n@d	0
-3.312253	<s> n@k	0
-3.762222	<s> n@m	0
-3.481395	<s> n@n	0
-3.762222	<s> n@nt	0
-2.952356	<s> n@s	0
-3.19083	<s> nE	0
-3.481395	<s> nEk	0
-3.762222	<s> nEks	0
-3.762222	<s> nEkst	0
-3.762222	<s> nEkt	0
-3.481395	<s> nEl	0
-3.762222	<s> nEs	0
-3.762222	<s> nEst	0
-3.481395	<s> nEt	0
-2.283786	<s> nI	0
-3.312253	<s> nI@	0
-3.481395	<s> nI@R	0
-3.762222	<s> nI@m	0
-3.762222	<s> nI@n	0
-3.762222	<s> nIN	0
-3.762222	<s> nIT	0
-3.762222	<s> nId	0
-3.096044	<s> nIk	0
-3.481395	<s> nIks	0
-3.762222	<s> nIl	0
-3.19083	<s> nIm	0
-3.762222	<s> nImf	0
-3.481395	<s> nIp	0
-3.018284	<s> nIs	0
-2.799293	<s> nIt	0
-2.895129	<s> nP	0
-3.018284	<s> nQ	0
-3.762222	<s> nQI	0
-3.762222	<s> nQIz	0
-3.762222	<s> nQk	0
-3.762222	<s> nQl	0
-3.762222	<s> nQn	0
-3.762222	<s> nQns	0
-3.481395	<s> nQs	0
-3.312253	<s> nV	0
-3.762222	<s> nVf	0
-3.762222	<s> nVm	0
-3.312253	<s> ni	0
-3.762222	<s> nig	0
-3.762222	<s> nik	0
-3.762222	<s> nj3R	0
-3.762222	<s> nj@	0
-3.762222	<s> nj@l	0
-3.762222	<s> nj@m	0
-3.762222	<s> nj@n	0
-3.762222	<s> nj@s	0
-3.762222	<s> njU	0
-2.844573	<s> nju	0
-3.762222	<s> njut	0
-3.762222	<s> njuz	0
-3.312253	<s> nu	0
-3.312253	<s> n{	0
-3.762222	<s> n{d	0
-3.762222	<s> n{f	0
-3.762222	<s> n{n	0
-3.762222	<s> n{ns	0
-3.762222	<s> n{p	0
-2.799293	<s> p#	0
-2.952356	<s> p#I	0
-3.762222	<s> p#Ik	0
-3.762222	<s> p#Il	0
-3.762222	<s> p#In	0
-3.762222	<s> p#Int	0
-3.762222	<s> p#Ip	0
-3.762222	<s> p#Uns	0
-3.762222	<s> p#Ut	0
-3.762222	<s> p#m	0
-3.481395	<s> p#s	0
-3.762222	<s> p#st	0
-3.762222	<s> p#t	0
-3.096044	<s> p$	0
-3.762222	<s> p$l	0
-3.762222	<s> p$nJ	0
-3.762222	<s> p$t	0
-3.096044	<s> p1	0
-3.762222	<s> p1k	0
-3.312253	<s> p1n	0
-3.762222	<s> p1nt	0
-3.481395	<s> p1s	0
-3.762222	<s> p1st	0
-3.096044	<s> p3	0
-2.758291	<s> p5	0
-3.762222	<s> p5st	0
-3.762222	<s> p5z	0
-2.354908	<s> p@	0
-3.018284	<s> p@R	0
-3.762222	<s> p@d	0
-3.481395	<s> p@l	0
-3.312253	<s> p@n	0
-3.762222	<s> p@nt	0
-2.758291	<s> p@s	0
-3.762222	<s> p@z	0
-2.596788	<s> pE	0
-3.762222	<s> pE@	0
-3.312253	<s> pE@R	0
-3.762222	<s> pEN	0
-3.481395	<s> pEd	0
-3.762222	<s> pEk	0
-3.762222	<s> pEks	0
-3.19083	<s> pEl	0
-3.762222	<s> pElt	0
-3.762222	<s> pEn	0
-3.481395	<s> pEnd	0
-3.762222	<s> pEst	0
-2.354908	<s> pI	0
-3.312253	<s> pI@	0
-3.762222	<s> pI@R	0
-3.762222	<s> pI@s	0
-3.762222	<s> pIN	0
-3.762222	<s> pINk	0
-3.096044	<s> pId	0
-3.762222	<s> pIg	0
-3.762222	<s> pIk	0
-3.312253	<s> pIl	0
-3.762222	<s> pIm	0
-3.762222	<s> pImp	0
-3.481395	<s> pIn	0
-3.762222	<s> pInJ	0
-3.762222	<s> pIs	0
-3.762222	<s> pIst	0
-3.018284	<s> pIt	0
-2.654395	<s> pP	0
-2.799293	<s> pQ	0
-3.762222	<s> pQInt	0
-3.762222	<s> pQIz	0
-3.762222	<s> pQks	0
-3.762222	<s> pQl	0
-3.312253	<s> pQm	0
-3.762222	<s> pQmp	0
-3.018284	<s> pQn	0
-3.762222	<s> pQnd	0
-3.762222	<s> pQns	0
-3.762222	<s> pQp	0
-3.481395	<s> pQst	0
-3.762222	<s> pQt	0
-3.481395	<s> pU	0
-3.762222	<s> pUl	0
-3.762222	<s> pUt	0
-3.096044	<s> pV	0
-3.762222	<s> pVN	0
-3.762222	<s> pVNk	0
-3.762222	<s> pVlp	0
-3.481395	<s> pVls	0
-3.762222	<s> pVlt	0
-3.481395	<s> pVmp	0
-3.762222	<s> pVn	0
-3.762222	<s> pVnJ	0
-3.096044	<s> pi	0
-3.481395	<s> piz	0
-3.762222	<s> pj@	0
-3.762222	<s> pjU	0
-3.762222	<s> pjU@R	0
-3.19083	<s> pju	0
-3.762222	<s> pjuk	0
-3.762222	<s> pjul	0
-3.762222	<s> pjun	0
-3.762222	<s> pjus	0
-3.19083	<s> pl#I	0
-3.762222	<s> pl#nt	0
-3.762222	<s> pl1g	0
-3.762222	<s> pl1nt	0
-3.762222	<s> pl1s	0
-3.762222	<s> pl1t	0
-3.762222	<s> pl5	0
-3.312253	<s> pl@	0
-3.762222	<s> plE	0
-3.762222	<s> plE_	0
-3.762222	<s> plEbz	0
-3.762222	<s> plEk	0
-3.481395	<s> plEks	0
-3.762222	<s> plEn	0
-3.762222	<s> plIm	0
-3.481395	<s> plIn	0
-3.762222	<s> plInT	0
-3.481395	<s> plQI	0
-3.762222	<s> plQd	0
-3.762222	<s> plQp	0
-3.762222	<s> plVNk	0
-3.762222	<s> plVg	0
-3.762222	<s> plVk	0
-3.481395	<s> plVm	0
-3.762222	<s> plVmp	0
-3.762222	<s> plVn	0
-3.762222	<s> plVn_	0
-3.762222	<s> pliJ	0
-3.762222	<s> plid	0
-3.762222	<s> plum	0
-3.096044	<s> pl{	0
-3.762222	<s> pl{N	0
-3.762222	<s> pl{d	0
-3.481395	<s> pl{n	0
-3.481395	<s> pl{t	0
-3.762222	<s> pl{z	0
-3.762222	<s> pr#	0
-3.481395	<s> pr#I	0
-3.762222	<s> pr#Id	0
-3.762222	<s> pr#Is	0
-3.762222	<s> pr#Iz	0
-3.762222	<s> pr#U	0
-3.762222	<s> pr1z	0
-3.018284	<s> pr5	0
-3.762222	<s> pr5J	0
-3.762222	<s> pr5b	0
-3.762222	<s> pr5l	0
-3.762222	<s> pr5n	0
-3.096044	<s> pr@	0
-3.762222	<s> pr@n	0
-3.762222	<s> prE	0
-3.762222	<s> prE@	0
-3.762222	<s> prEp	0
-3.762222	<s> prEs	0
-3.096044	<s> prI	0
-3.762222	<s> prIg	0
-3.762222	<s> prIk	0
-3.762222	<s> prImp	0
-3.762222	<s> prIt	0
-2.895129	<s> prQ	0
-3.762222	<s> prQm	0
-3.762222	<s> prQmpt	0
-3.762222	<s> prQp	0
-3.762222	<s> priJ	0
-3.762222	<s> prin	0
-3.762222	<s> prud	0
-3.762222	<s> pruv	0
-3.762222	<s> pr{Nk	0
-3.762222	<s> pr{k	0
-3.762222	<s> pr{t	0
-3.312253	<s> pu	0
-3.481395	<s> pun	0
-3.762222	<s> pus	0
-2.27086	<s> p{	0
-3.481395	<s> p{N	0
-3.762222	<s> p{S	0
-3.762222	<s> p{ks	0
-3.762222	<s> p{kt	0
-3.481395	<s> p{m	0
-3.018284	<s> p{n	0
-3.762222	<s> p{nt	0
-3.762222	<s> p{z	0
-2.952356	<s> r#	0
-2.952356	<s> r#I	0
-3.762222	<s> r#ID	0
-3.762222	<s> r#Id	0
-3.762222	<s> r#If	0
-3.762222	<s> r#Il	0
-3.762222	<s> r#Im	0
-3.762222	<s> r#Ind	0
-3.762222	<s> r#Is	0
-3.762222	<s> r#It	0
-3.481395	<s> r#Iv	0
-3.762222	<s> r#Iz	0
-3.762222	<s> r#U	0
-3.762222	<s> r#Un	0
-3.762222	<s> r#Und	0
-3.762222	<s> r#Ut	0
-3.481395	<s> r#Uz	0
-3.762222	<s> r#f	0
-3.762222	<s> r#ft	0
-3.762222	<s> r#l	0
-3.762222	<s> r#n	0
-3.762222	<s> r#s	0
-3.762222	<s> r#sp	0
-3.481395	<s> r$	0
-3.762222	<s> r$R	0
-3.762222	<s> r$d	0
-2.844573	<s> r1	0
-3.481395	<s> r1d	0
-3.762222	<s> r1n_	0
-2.522581	<s> r5	0
-3.312253	<s> r5l	0
-3.762222	<s> r5n	0
-3.762222	<s> r5st	0
-2.211437	<s> r@	0
-3.481395	<s> r@R	0
-3.481395	<s> r@b	0
-3.762222	<s> r@f	0
-3.481395	<s> r@k	0
-2.844573	<s> r@l	0
-3.481395	<s> r@ld	0
-3.481395	<s> r@m	0
-3.096044	<s> r@n	0
-3.312253	<s> r@nt	0
-3.762222	<s> r@p	0
-2.844573	<s> r@s	0
-3.096044	<s> r@t	0
-2.952356	<s> rE	0
-3.762222	<s> rE@R	0
-3.481395	<s> rEkt	0
-3.762222	<s> rEl	0
-3.762222	<s> rEnJ	0
-3.762222	<s> rEnd	0
-3.762222	<s> rEp	0
-3.481395	<s> rEst	0
-3.481395	<s> rEt	0
-2.130593	<s> rI	0
-3.312253	<s> rI@	0
-3.481395	<s> rI@R	0
-3.481395	<s> rI@d	0
-3.312253	<s> rI@l	0
-3.762222	<s> rI@nt	0
-3.762222	<s> rI@t	0
-3.762222	<s> rIN	0
-3.762222	<s> rINk	0
-3.762222	<s> rINks	0
-3.762222	<s> rIS	0
-3.762222	<s> rI_	0
-3.481395	<s> rId	0
-3.481395	<s> rIf	0
-3.762222	<s> rIft	0
-3.762222	<s> rIg	0
-3.481395	<s> rIk	0
-3.762222	<s> rIks	0
-3.762222	<s> rIl	0
-3.481395	<s> rIm	0
-3.19083	<s> rIn	0
-3.762222	<s> rInT	0
-3.481395	<s> rIn_	0
-3.762222	<s> rIsk	0
-3.762222	<s> rIst	0
-3.19083	<s> rIt	0
-3.762222	<s> rIz	0
-2.952356	<s> rQ	0
-3.762222	<s> rQk	0
-3.762222	<s> rQks	0
-3.762222	<s> rQmp	0
-3.481395	<s> rQn	0
-3.481395	<s> rU	0
-3.312253	<s> rV	0
-3.762222	<s> rVg	0
-3.312253	<s> rVm	0
-3.762222	<s> rVnt	0
-2.895129	<s> ri	0
-3.762222	<s> rim	0
-3.312253	<s> rin	0
-3.762222	<s> rit	0
-3.481395	<s> riz	0
-3.762222	<s> rju	0
-2.952356	<s> ru	0
-3.762222	<s> rust	0
-3.762222	<s> rut	0
-2.686343	<s> r{	0
-3.762222	<s> r{Nk	0
-3.481395	<s> r{f	0
-3.762222	<s> r{k	0
-3.762222	<s> r{ks	0
-3.762222	<s> r{kt	0
-3.481395	<s> r{m	0
-3.481395	<s> r{n	0
-3.762222	<s> r{nd	0
