
\data\
ngram 1=45
ngram 2=1133
ngram 3=6696
ngram 4=12781
ngram 5=10420

\1-grams:
-1.625455	#	-2.586719
-1.971549	$	-2.143941
-1.766715	1	-2.250455
-2.160552	3	-2.10658
-1.84435	5	-2.18244
-0.8383865	</s>
-99	<s>	-3.626002
-1.231448	@	-3.06662
-2.892586	D	-1.276283
-1.676401	E	-2.701562
-4.556864	F	-0.1676877
-2.191437	H	-1.930216
-1.012032	I	-2.911063
-2.303854	J	-1.545319
-2.052108	N	-2.003495
-2.090092	P	-2.030428
-1.803924	Q	-2.518631
-1.856188	R	-2.491692
-1.933915	S	-2.108926
-2.451519	T	-1.450589
-2.025756	U	-1.945157
-1.877641	V	-2.413387
-3.052152	Z	-1.278461
-2.143997	_	-1.886299
-1.670537	b	-2.165869
-1.500193	d	-2.198318
-1.756391	f	-2.222051
-1.92729	g	-1.890053
-2.12805	h	-2.296645
-1.906745	i	-2.101856
-2.179523	j	-2.219826
-1.392214	k	-2.416894
-1.336494	l	-2.406321
-1.573995	m	-2.203078
-1.335147	n	-2.414543
-1.562206	p	-2.176447
-1.434057	r	-2.973633
-1.274067	s	-2.588268
-1.268334	t	-2.469972
-2.057842	u	-2.060618
-1.945072	v	-1.9818
-2.01436	w	-2.384191
-5.006833	x	-0.03084977
-2.032824	z	-2.192887
-1.671813	{	-2.737995

\2-grams:
-3.382082	# 5
-2.099193	# </s>
-2.464434	# D	-0.1497313
-0.3152148	# I	-1.438998
-2.34069	# J	-0.08119507
-1.74133	# R	1.473905
-2.244498	# S	-0.3150729
-2.274256	# T	-0.1756642
-0.7838892	# U	-0.720536
-2.244498	# Z	-0.5552126
-2.023802	# _	-0.3016414
-1.930715	# b	-0.4797242
-1.423041	# d	-0.3376355
-1.682324	# f	-0.7471842
-2.274256	# g	-0.2934464
-2.715905	# h	-0.1647857
-3.382082	# j
-1.503874	# k	-0.5042924
-1.930715	# l	-0.3251641
-1.503874	# m	-0.3380308
-1.509132	# n	-0.4810719
-2.165797	# p	-0.10266
-2.244498	# r	-0.21174
-1.343932	# s	-0.4645698
-1.414449	# t	-0.3182124
-2.165797	# v	-0.265461
-3.101256	# w
-2.51499	# z	0.1110263
-1.64527	$ </s>
-2.75602	$ @
-2.465455	$ D	0.1281589
-2.75602	$ I	-0.1421828
-1.820561	$ J	-0.317253
-1.185588	$ R	1.277309
-1.820561	$ S	-0.1705587
-1.733847	$ T	-0.3297146
-2.586878	$ Z	-0.1360448
-2.032916	$ _	-0.09857446
-1.696222	$ b	-0.3885576
-0.9508105	$ d	-0.4530196
-1.797206	$ f	-0.2239329
-1.820561	$ g	-0.2227537
-2.119198	$ h	-0.1789722
-3.036847	$ j
-1.245092	$ k	-0.4324233
-0.8820631	$ l	-0.8396314
-1.271381	$ m	-0.493174
-0.9950951	$ n	-0.5579306
-1.775043	$ p	-0.2058974
-1.220304	$ r	-0.4250612
-1.082166	$ s	-0.2502463
-0.8349531	$ t	-0.5703692
-2.292909	$ w	-0.127274
-1.753957	$ z	-0.0177221
-3.241093	1 #
-3.241093	1 $
-2.669702	1 5
-1.010412	1 </s>
-1.900469	1 @	-0.3576541
-2.431228	1 D	-0.1381973
-3.241093	1 E
-2.133267	1 I	-0.4289747
-2.791125	1 J	-0.148242
-2.669702	1 Q
-0.9243609	1 S	-1.242994
-2.374001	1 T	-0.1468317
-2.323445	1 Z	-0.01147813
-1.762658	1 _	-0.4018388
-1.582648	1 b	-0.5975642
-1.265035	1 d	-0.5480533
-2.07566	1 f	-0.1894284
-2.07566	1 g	-0.2634465
-2.791125	1 h
-2.960267	1 i	-0.1452617
-1.199342	1 k	-0.626565
-1.148628	1 l	-0.6941966
-1.418569	1 m	-0.46095
-1.031822	1 n	-0.682133
-1.51831	1 p	-0.3556087
-2.669702	1 r
-1.155057	1 s	-0.5415483
-0.7083391	1 t	-1.066203
-1.503612	1 v	-0.721817
-2.960267	1 w
-1.533523	1 z	-0.2639758
-2.848693	3 </s>
-1.931044	3 D	-0.05013901
-1.490412	3 J	-0.2391388
-1.397325	3 R	1.644233
-1.565803	3 S	-0.3636942
-1.490412	3 T	-0.09505951
-1.426193	3 _	-0.4348003
-1.332578	3 b	-0.4492064
-1.190248	3 d	-0.4468282
-1.68326	3 f	-0.3937236
-1.844763	3 g	-0.2270406
-0.9757423	3 k	-0.5151402
-1.255608	3 l	-0.3056882
-1.090056	3 m	-0.3618039
-0.960156	3 n	-0.3402565
-1.526474	3 p	-0.1776045
-2.277302	3 r	-0.0499146
-0.9974345	3 s	-0.4721214
-0.9500674	3 t	-0.4428436
-1.226385	3 v	-0.3506699
-2.038827	3 z	-0.04725906
-2.882823	5 #
-3.163649	5 $
-3.163649	5 1
-2.71368	5 3	-0.09891236
-0.7915745	5 </s>
-1.972046	5 @	-0.3805673
-2.246001	5 D	-0.1371384
-2.592258	5 E	-0.113539
-1.541341	5 I	-0.2954747
-2.296557	5 J	-0.1891199
-2.882823	5 Q
-1.726475	5 S	-0.3531436
-2.246001	5 T	-0.2521318
-2.296557	5 Z	-0.07054907
-2.296557	5 _	-0.2050273
-1.46389	5 b	-0.3524815
-1.341125	5 d	-0.2825794
-1.998216	5 f	-0.2117791
-1.84143	5 g	-0.2806258
-2.122257	5 h	-0.0938863
-3.163649	5 i
-3.163649	5 j
-1.159328	5 k	-0.9625372
-0.8930762	5 l	-0.4044359
-1.353172	5 m	-0.5604456
-1.061715	5 n	-0.807692
-1.391461	5 p	-0.3537763
-2.882823	5 r
-1.280246	5 s	-0.5562085
-1.017239	5 t	-0.6135848
-1.155436	5 v	-0.6331872
-2.71368	5 w
-1.391461	5 z	-0.04789209
-1.869312	<s> #	-0.3883752
-2.168167	<s> $	-0.6290187
-2.460992	<s> 1	-0.5359773
-2.761248	<s> 3	-0.4876149
-2.066627	<s> 5	-0.7766323
-1.573366	<s> @	-1.315855
-2.906758	<s> D	-0.3807538
-1.829562	<s> E	-0.7344496
-1.387068	<s> I	-1.595891
-1.97925	<s> J	-1.471833
-2.112697	<s> Q	-0.587047
-1.822387	<s> S	-1.464927
-2.156492	<s> T	-1.044217
-3.887735	<s> U
-1.799852	<s> V	-1.063473
-4.168562	<s> Z
-1.842412	<s> _	-1.373826
-1.187485	<s> b	-1.857564
-1.253258	<s> d	-2.09763
-1.267401	<s> f	-1.711472
-1.498063	<s> g	-1.616178
-1.420303	<s> h	0.1297412
-2.518873	<s> i	-0.4204045
-2.176129	<s> j	-0.7499754
-1.069729	<s> k	-2.1457
-1.434635	<s> l	-1.60322
-1.280484	<s> m	-1.886963
-1.649928	<s> n	-1.766704
-1.118604	<s> p	-1.691352
-1.271885	<s> r	0.4581928
-0.9355426	<s> s	-2.237377
-1.327373	<s> t	-2.092368
-3.502384	<s> u	-0.1435366
-1.776825	<s> v	-1.275346
-1.535002	<s> w	-0.9786534
-2.690126	<s> z	-0.5327711
-1.707391	<s> {	-0.3353193
-1.396942	@ </s>
-2.812741	@ J	-0.06760253
-0.6712139	@ R	0.04605436
-2.324302	@ S	-0.6832941
-2.49278	@ T	-0.2658237
-3.494843	@ Z
-2.153362	@ _	-0.7053046
-1.291888	@ b	-0.5209934
-1.436671	@ d	-0.9611135
-1.741151	@ f	-0.7905488
-2.038188	@ g	-0.6488971
-2.400422	@ h	-0.02870136
-3.77567	@ j
-1.658399	@ k	-0.5346926
-1.026707	@ l	-0.9194621
-1.267937	@ m	-0.6881477
-0.824907	@ n	-1.077899
-1.664469	@ p	-0.7286838
-0.9800428	@ r	-0.3750952
-1.112826	@ s	-0.7306933
-1.232618	@ t	-0.7304299
-2.038188	@ v	-0.5966842
-2.091968	@ w	-0.3768225
-1.935678	@ z	-0.4479623
-1.677136	D #	0.1423381
-1.846278	D $	-0.1116309
-2.127105	D 1
-0.8874641	D </s>
-0.3549165	D @	-0.4195729
-1.164176	D E	-0.3178925
-1.677136	D H	0.4909267
-0.9108189	D I	-0.4984212
-2.127105	D P
-2.127105	D V
-1.555714	D d	-0.1807825
-2.127105	D h
-1.846278	D i
-1.555714	D l	-0.1281249
-2.127105	D m
-2.127105	D n
-2.127105	D r
-1.846278	D s
-1.677136	D z	0.1404141
-2.127105	D {
-1.044034	E @	-0.05736482
-2.114939	E D	-0.3728745
-1.955977	E J	-0.399793
-2.464133	E N	-0.2914115
-1.73814	E S	-0.1863751
-2.009006	E T	-0.2597072
-2.464133	E Z	-0.3763817
-1.803244	E _	-0.2522813
-2.223398	E b	-0.2265434
-1.131819	E d	-0.5136864
-1.791692	E f	-0.6240962
-1.769473	E g	-0.2370651
-0.9558106	E k	-0.8567396
-0.9779907	E l	-1.030892
-1.304061	E m	-0.8937505
-0.7870439	E n	-0.9310807
-1.417893	E p	-0.6461732
-1.453016	E r	-0.7923331
-0.9710446	E s	-0.820116
-1.109929	E t	-0.6261063
-1.586576	E v	-0.8695012
-1.866112	E z	-0.505322
-0.37787	F </s>
-0.1142256	H </s>
-1.535096	H @	-0.3944907
-1.556183	H I	-0.4571261
-2.817986	H T
-1.950894	H d	-0.2999015
-2.817986	H f
-2.246595	H h	-0.0502824
-1.814056	H l	-0.3005589
-2.537159	H m
-2.368017	H n	-0.1666928
-2.817986	H p
-2.074049	H r	-0.1426686
-1.477361	H s	-0.4051874
-1.195678	H t	-0.6231052
-2.368017	H w
-1.776593	H z	-0.205198
-3.251035	I #	-0.139881
-3.994973	I $
-2.433221	I 1	-0.7922205
-3.994973	I 3
-2.433221	I 5	-0.4652303
-0.6974907	I </s>
-1.339922	I @	-0.3793724
-2.587659	I D	-0.05111778
-2.803369	I E	-0.3810421
-2.672753	I I	-0.4871852
-2.444189	I J	-0.09874189
-1.16825	I N	-0.5364449
-2.919094	I Q	-0.175424
-1.596875	I S	-0.9358477
-2.603396	I T	-0.2589062
-2.691973	I Z	-0.4408163
-1.818618	I _	-0.5497959
-1.902507	I b	-0.3031043
-1.366956	I d	-0.7020237
-1.659606	I f	-0.33245
-1.713939	I g	-0.7223304
-2.691973	I h	-0.2814132
-3.185107	I i	-0.1697795
-3.994973	I j
-1.14533	I k	-0.6364106
-1.273612	I l	-0.5696272
-1.450792	I m	-0.3443002
-0.9913946	I n	-0.4288521
-1.634793	I p	-0.5549269
-2.062776	I r	-0.1034099
-0.9696296	I s	-1.093202
-1.188731	I t	-0.5441165
-1.553349	I v	-0.3006762
-2.619725	I w	-0.1905411
-1.626263	I z	-0.356068
-2.733169	I {	-0.2582508
-1.113245	J #	-0.2801101
-2.256361	J $
-1.490044	J 1	-0.6461145
-1.896464	J 3	-0.3897894
-1.962393	J 5	-0.2797757
-0.6681795	J </s>
-0.7386967	J @	-0.6257626
-1.227894	J E	-0.4872156
-0.8177929	J I	-0.4302966
-2.256361	J Q	-0.1107919
-1.42344	J U	-0.5994667
-1.664937	J V	-0.3078183
-1.962393	J b	-0.06295235
-2.425503	J d
-2.425503	J f
-2.70633	J g
-2.425503	J h
-1.466689	J i	-0.4135062
-2.256361	J k
-1.702399	J l	-0.2685184
-1.839237	J m	-0.3841622
-2.134939	J n	-0.1986969
-2.70633	J p
-2.425503	J r	-0.1175522
-2.256361	J s	-0.05866215
-1.839237	J t	-0.1832632
-1.962393	J u	-0.2081243
-2.040152	J w	-0.1295565
-1.466689	J {	-0.4139851
-2.675778	N #
-2.956605	N 5
-0.2307675	N </s>
-1.952675	N @	-0.3365275
-1.880726	N I	-0.3818675
-2.385214	N S	-0.1124171
-2.212668	N T	-0.003013283
-2.089513	N b	-0.2129168
-2.290427	N d	0.05024666
-2.506636	N f	-0.09028971
-1.078397	N g	-0.6773974
-2.290427	N h	-0.09913097
-0.7855437	N k	-0.7971979
-1.306916	N l	-0.7655148
-2.675778	N n	-0.103641
-2.675778	N p
-2.956605	N r
-2.038956	N s	-0.4037106
-2.506636	N t	-0.09717166
-2.956605	N w
-1.45269	N z	-0.5858504
-0.07931454	P </s>
-1.702507	P @	-0.5218368
-1.527216	P I	-0.7330342
-2.918792	P J
-2.918792	P S
-2.637966	P _	-0.1589788
-2.108927	P b	-0.05341901
-1.578168	P d	-0.301411
-2.252615	P f	-0.07260352
-2.918792	P g
-2.918792	P h
-2.468824	P k
-2.108927	P m	-0.3575482
-2.001144	P n	-0.3352711
-2.918792	P p
-2.108927	P r	-0.1825402
-2.252615	P s	-0.151155
-2.252615	P t	-0.175308
-2.918792	P v
-2.252615	P w	-0.06557418
-1.702507	P z	-0.4314097
-2.754003	Q D	0.01733439
-0.9663824	Q I	-0.5486265
-1.964331	Q J	-0.2069541
-1.412217	Q N	0.09686637
-1.766798	Q S	-0.4486738
-1.942168	Q T	-0.307056
-1.845691	Q _	-0.2887955
-1.375546	Q b	-0.6343899
-1.258145	Q d	-0.284271
-1.554283	Q f	-0.6905339
-1.369725	Q g	-0.5140597
-0.9874461	Q k	-0.6714719
-1.09277	Q l	-0.9881196
-1.227914	Q m	-0.578715
-0.9551073	Q n	-0.5660357
-1.121186	Q p	-0.9345777
-1.336344	Q r	-0.8899386
-1.180532	Q s	-0.5418429
-1.155107	Q t	-0.6693595
-2.066388	Q v	-0.2147101
-2.066388	Q z	-0.2435581
-0.001198439	R </s>
-1.699103	S #	-0.1235849
-1.54637	S $	-0.4496053
-1.501902	S 1	-0.7293402
-2.156702	S 3	-0.276087
-1.882748	S 5	-0.1646057
-0.8101773	S </s>
-0.9948408	S @	-0.8797044
-1.609239	S E	-0.3568743
-0.4751628	S H	-0.675579
-1.070029	S I	-0.7610399
-3.074351	S J
-1.699103	S P	0.09571069
-1.651851	S Q	-0.7644581
-2.793524	S S
-2.111422	S U	-0.2164097
-2.032958	S V	-0.3436684
-2.264485	S b	-0.1731299
-3.074351	S d
-2.793524	S f	-0.13551
-2.793524	S h
-1.667037	S i	-0.3840009
-2.264485	S k	-0.1572226
-1.71607	S l	-0.5813856
-2.624382	S m
-1.83471	S n	-0.5508794
-2.793524	S p
-1.83471	S r	-0.2015035
-2.070421	S t	-0.2135309
-1.998472	S u	-0.3333557
-2.408173	S w
-1.595916	S {	-0.2206653
-2.110046	T #
-1.556085	T $	-0.2067701
-2.279189	T 1
-1.556085	T 3	-0.3287248
-0.5328512	T </s>
-1.452189	T @	-0.02939834
-1.597087	T E	-0.3139565
-1.893838	T H	0.2962232
-0.79455	T I	-0.6870234
-2.110046	T P	0.5417221
-1.692923	T Q	-0.08836472
-2.560015	T S
-1.452189	T V	-0.3279975
-1.988624	T b
-2.560015	T d
-1.597087	T f	-0.4876926
-1.452189	T i	-0.2418045
-2.110046	T j	0.1359823
-2.279189	T k
-1.368412	T l	-0.4298434
-2.560015	T m
-1.988624	T n	-0.1309329
-1.988624	T p
-0.919263	T r	-0.4413109
-2.110046	T s	-0.1069383
-2.560015	T t
-1.422431	T w	-0.1510589
-1.893838	T {	-0.1515243
-2.982847	U #
-2.238909	U 1	-0.1981585
-2.982847	U 5
-1.545673	U </s>
-0.7687256	U @	-0.7710764
-2.982847	U D
-2.532878	U E	-0.1098575
-2.065198	U I	-0.2804719
-1.791243	U J	-0.1989343
-1.817413	U S	0.1445276
-1.978916	U T	-0.09913525
-2.982847	U _
-2.065198	U b	-0.08505043
-1.178521	U d	-0.7286796
-2.316669	U f	-0.09055115
-2.172981	U g	-0.1343055
-2.70202	U h
-1.204038	U k	-0.3832304
-0.6796505	U l	-0.88385
-1.443314	U m	-0.5878361
-0.9519894	U n	-0.4438964
-2.115754	U p
-1.906968	U r	-0.09917665
-1.360538	U s	-0.536561
-0.8364367	U t	-0.6119742
-2.982847	U w
-1.766561	U z	0.0251478
-2.982847	U {
-3.130451	V </s>
-2.022624	V D	-0.3782517
-1.808231	V J	-0.226947
-1.407667	V N	-0.1424206
-1.60247	V S	-0.3514772
-2.849624	V T	-0.09673701
-1.89081	V _	-0.2802696
-1.371814	V b	-0.4284504
-1.498823	V d	-0.4727411
-1.296203	V f	-0.7763155
-1.407667	V g	-0.6202037
-1.252242	V k	-0.7251213
-1.154393	V l	-0.7919154
-0.9236249	V m	-0.9180975
-0.6130149	V n	-0.793107
-1.268211	V p	-0.5699059
-1.70795	V r	-0.5775094
-1.162818	V s	-0.7323064
-1.231825	V t	-0.3616203
-1.558002	V v	-0.2720003
-3.130451	V x
-1.914165	V z	0.0743804
-1.523159	Z 1	-0.1911474
-0.6902381	Z </s>
-0.756842	Z @	-0.3343414
-1.973128	Z E
-0.370082	Z H	-0.2496222
-1.973128	Z I
-1.692301	Z P	0.6047739
-1.30695	Z U	-0.1677608
-1.973128	Z i
-1.973128	Z u
-1.692301	Z w	-0.1342021
-1.542939	_ #	-0.1397566
-1.947509	_ $	-0.2773321
-1.902229	_ 1	-0.1643328
-1.727574	_ 3	-0.4274181
-1.861228	_ 5	-0.3449835
-0.5903704	_ </s>
-0.8379936	_ @	-0.6699641
-1.060833	_ E	-0.6954268
-2.865158	_ H
-0.7389379	_ I	-0.2584409
-1.206713	_ Q	-0.4306721
-1.673554	_ U	-0.4261547
-1.473581	_ V	-0.6646391
-2.865158	_ b
-1.998065	_ d	-0.2999015
-2.415189	_ f	-0.1985618
-2.584331	_ h
-1.699725	_ i	-0.5039548
-2.865158	_ k
-2.121221	_ l	-0.2208789
-2.865158	_ m
-2.865158	_ n
-2.584331	_ p
-2.865158	_ r
-2.865158	_ t
-1.473581	_ u	-0.4124294
-2.415189	_ w	-0.09312759
-1.506877	_ {	-0.5915381
-1.260868	b #	-0.2559863
-1.414211	b $	-0.6937966
-1.520535	b 1	-0.4633631
-1.637319	b 3	-0.5479163
-1.538993	b 5	-0.4196436
-1.391251	b </s>
-1.199206	b @	-0.385135
-1.428593	b E	-0.7019128
-0.9485569	b I	-0.5622616
-0.9926856	b P	-0.1987033
-1.325008	b Q	-0.5290723
-3.337078	b S
-1.585379	b U	-0.6968474
-1.40029	b V	-0.5765589
-2.469985	b _	-0.3277175
-2.6709	b d	-0.1008591
-2.887109	b f	-0.1377931
-3.337078	b g
-2.887109	b h
-1.551748	b i	-0.2887266
-1.899904	b j	-0.007276773
-2.887109	b k	-0.1241462
-1.06229	b l	-1.144877
-2.6709	b m	-0.1857655
-2.419429	b n	-0.4325731
-3.337078	b p
-1.020345	b r	1.032178
-1.845716	b s	-0.4595089
-2.6709	b t	-0.1610602
-1.845716	b u	-0.176327
-2.6709	b v	-0.1488151
-2.887109	b w
-2.333148	b z	-0.1679755
-1.111064	b {	-0.4060476
-1.498956	d #	-0.5200323
-1.93472	d $	-0.3027861
-1.709083	d 1	-0.3146109
-2.54424	d 3	-0.106504
-1.741703	d 5	-0.4429276
-0.511095	d </s>
-1.10436	d @	-0.1888191
-1.506774	d E	-0.378215
-1.924279	d H	0.1269708
-0.7003106	d I	-0.4273094
-3.507169	d J
-1.608543	d P	0.007748485
-1.769687	d Q	-0.3377571
-2.43129	d S	-0.1829785
-3.0572	d U	-0.06386466
-1.644929	d V	-0.5876257
-2.028733	d b	-0.5378991
-3.0572	d d
-2.341736	d f	-0.09710827
-3.0572	d g
-2.58952	d h	-0.1209521
-1.748532	d i	-0.4377571
-1.690626	d j	-0.3538119
-2.245365	d k	-0.3782621
-1.45479	d l	-1.033163
-2.184949	d m	-0.4395319
-2.003254	d n	-0.6956371
-2.697303	d p	-0.0747396
-1.363586	d r	1.201408
-2.069995	d s	-0.476257
-3.0572	d t
-2.369584	d u	-0.304061
-2.341736	d v	-0.4284362
-2.055801	d w	-0.2172651
-1.769687	d z	-0.7782851
-1.84014	d {	-0.5151266
-1.192072	f #	-0.6514475
-1.104985	f $	-0.2903093
-1.57595	f 1	-0.2180277
-1.610642	f 3	-0.5302156
-1.506746	f 5	-0.8267373
-1.116407	f </s>
-1.283762	f @	-0.4956457
-1.323838	f E	-0.6325708
-2.288466	f H	0.2017959
-0.9271124	f I	-0.6354387
-1.948395	f P	0.2904286
-1.678946	f Q	-0.4769866
-2.970568	f S
-2.585217	f T	-0.09419595
-1.085692	f U	-1.404958
-1.786283	f V	-0.3517565
-2.441529	f b	-0.0756826
-3.251395	f d
-2.970568	f g	-0.1539288
-2.801426	f h	-0.08604312
-1.536151	f i	-0.4485765
-1.601706	f j	-0.1034732
-2.680004	f k	-0.1117008
-0.9662468	f l	-1.284976
-2.507458	f n	-0.223687
-3.251395	f p
-1.102176	f r	-0.384902
-2.384303	f s	0.01331325
-1.362858	f t	-0.6696928
-2.113811	f u	-0.3910542
-3.251395	f w
-1.506746	f {	-0.3937357
-1.373384	g #	-0.1571178
-1.864668	g $	-0.3050776
-1.302145	g 1	-0.566211
-2.039562	g 3	-0.3669145
-1.329255	g 5	-0.84794
-1.076633	g </s>
-0.8942034	g @	-0.3484039
-1.798064	g E	-0.2601594
-1.148757	g I	-0.6772028
-1.431265	g P	-0.05961204
-1.440202	g Q	-0.4738168
-2.800128	g S
-2.118026	g U	-0.2094942
-1.38915	g V	-0.5205688
-2.509563	g b
-2.337017	g d	-0.2235132
-2.800128	g f
-2.414777	g h	-0.07461432
-2.800128	g i
-2.163306	g j	-0.01501027
-2.800128	g k
-1.167622	g l	-0.9045384
-1.94337	g m	-0.4083343
-1.552973	g n	-0.5335994
-2.337017	g p	-0.1307209
-0.7277202	g r	-0.04723954
-2.271089	g s	-0.1072883
-2.509563	g t	-0.1122116
-2.039562	g u	-0.2733545
-2.005076	g w	-0.3008596
-1.758735	g z	-0.05324107
-1.315489	g {	-0.3800455
-0.7290111	h #	-0.5227585
-1.108833	h $	-0.4276229
-1.505774	h 1	-0.2501845
-1.473708	h 3	-0.3873804
-1.041029	h 5	-0.629102
-2.30963	h @	-0.07690607
-0.8015112	h E	-0.9789455
-2.881021	h F
-1.14354	h I	-0.6195942
-1.173451	h Q	-0.546766
-1.619218	h U	-0.4701719
-1.287937	h V	-0.1489433
-1.473708	h i	-0.3256605
-1.773195	h j	-0.3504112
-1.689418	h u	-0.1290192
-0.8966987	h {	-0.215126
-2.820608	i #
-2.820608	i $
-2.530043	i 1	-0.1962118
-2.291569	i 5	-0.09462521
-1.212898	i </s>
-1.885149	i @	-0.085123
-2.234342	i D	0.1284695
-1.96385	i I	-0.2601994
-1.779215	i J	-0.1831159
-2.651466	i Q
-1.779215	i S	-0.1230675
-2.291569	i T	-0.0428848
-2.530043	i Z
-1.861794	i _	-0.02879837
-1.694121	i b	-0.1965324
-1.066916	i d	-0.6147234
-1.417733	i f	-0.308752
-1.650067	i g	-0.3692479
-2.234342	i h	-0.09930358
-2.530043	i j	0.08093476
-1.133802	i k	-0.5035819
-1.169238	i l	-0.4666091
-1.267187	i m	-0.5337324
-0.9020285	i n	-0.8832393
-1.267187	i p	-0.5022287
-2.435257	i r	-0.09192194
-1.138076	i s	-0.3163084
-1.035278	i t	-0.3676629
-1.273009	i v	-0.6565266
-2.097504	i w	-0.1748892
-1.228484	i z	-0.3095987
-3.101435	i {
-1.638226	j #	-0.5071031
-1.866901	j $	-0.08020838
-2.549003	j 1	-0.1280957
-2.163652	j 3	-0.1233683
-1.8259	j 5	-0.3199992
-0.6919581	j @	-0.7925054
-1.866901	j E	-0.224456
-2.019964	j I	-0.1732591
-1.962738	j Q	-0.3710735
-0.7006675	j U	-0.7743451
-2.163652	j V	-0.2315238
-2.379861	j i	-0.1144989
-0.3220966	j u	-0.6125587
-1.962738	j {	-0.1771719
-1.488811	k #	-0.1808059
-1.57328	k $	-0.4500607
-1.522566	k 1	-0.422204
-2.064247	k 3	-0.5359103
-1.562652	k 5	-0.1038213
-0.7620526	k </s>
-0.9539074	k @	-0.1333072
-1.931329	k E	-0.5270308
-3.334205	k H	-0.1604736
-1.16213	k I	-0.8809935
-2.539153	k J	-0.3401207
-1.535521	k P	-0.2840188
-1.285171	k Q	-0.4149777
-1.775039	k S	-0.7575831
-3.615031	k T
-2.573639	k U	-0.5564489
-1.491774	k V	-0.6385418
-3.615031	k _
-2.423428	k b	-0.3653909
-2.573639	k d	-0.370433
-2.747939	k f	-0.2323091
-2.652103	k h	-0.1824958
-2.111117	k i	-0.3349529
-1.842843	k j	-0.6130086
-2.805166	k k	-0.2404654
-1.33607	k l	-1.140661
-2.747939	k m	-0.1429247
-2.177858	k n	-0.499005
-2.697383	k p	-0.1973143
-1.169144	k r	0.9050949
-1.157976	k s	-0.7421103
-1.315782	k t	-0.733965
-2.05328	k u	-0.4367102
-3.615031	k v
-1.38435	k w	-0.4838727
-1.329883	k {	-0.4553425
-1.215026	l #	-0.5627795
-1.926053	l $	-0.5160259
-1.353969	l 1	-0.4699508
-2.533117	l 3	-0.2489746
-1.476313	l 5	0.1017852
-0.8788829	l </s>
-1.14495	l @	-0.4608057
-1.471295	l E	-0.7744008
-0.505241	l I	-0.6316144
-3.004524	l J	-0.1300437
-1.44704	l Q	-0.02486312
-2.860836	l S	-0.1555552
-2.629308	l T	-0.2362871
-2.707772	l U	-0.4200018
-1.614837	l V	-0.7218463
-2.803609	l _	-0.154095
-2.248201	l b	-0.4434571
-1.587916	l d	-0.6016071
-1.978897	l f	-0.3983966
-3.004524	l g	-0.05052856
-2.753052	l h	-0.0862973
-1.550426	l i	-0.4674004
-1.905236	l j	-0.0672999
-1.995256	l k	-0.4842404
-2.533117	l l	-0.4008399
-2.330077	l m	-0.2825958
-2.666771	l n	-0.2956697
-2.233527	l p	-0.1213948
-2.505268	l r	-0.1445618
-2.039073	l s	-0.1407723
-1.66638	l t	-0.4620546
-1.632551	l u	-0.4494338
-2.205589	l v	-0.3672546
-2.753052	l w	-0.3786063
-2.408898	l z	-0.1335369
-1.317467	l {	-0.7801444
-1.281454	m #	-0.4603773
-1.801836	m $	-0.3262606
-1.410025	m 1	-0.3143841
-1.968352	m 3	-0.500612
-1.478783	m 5	-0.4979717
-0.7989871	m </s>
-0.8515043	m @	-0.7272811
-1.388141	m E	-0.7062626
-0.8433118	m I	-0.7010393
-3.433464	m J
-2.29588	m P	0.2890242
-1.571225	m Q	-0.548436
-2.862073	m S	-0.1141259
-3.433464	m T
-3.152638	m U
-1.520132	m V	-0.5542889
-3.433464	m _
-1.347428	m b	-0.917163
-2.111245	m d	-0.309216
-2.058217	m f	-0.2682791
-3.433464	m g
-2.862073	m h	-0.03522518
-1.74166	m i	-0.542526
-1.792712	m j	-0.01750362
-2.623599	m k	-0.0740962
-1.783776	m l	-0.7822538
-3.433464	m m
-2.130465	m n	-0.6002693
-1.076743	m p	-0.1096722
-2.862073	m r	-0.09036205
-2.29588	m s	-0.1641552
-2.862073	m t
-1.968352	m u	-0.526629
-2.268031	m w	-0.2309789
-2.171661	m z	-0.1460803
-1.214547	m {	-0.5408378
-1.659978	n #	-0.5622706
-2.099598	n $	-0.4735274
-1.687725	n 1	-0.6593495
-2.410244	n 3	-0.3409446
-1.768464	n 5	-0.5215549
-0.7306716	n </s>
-1.201423	n @	-0.207746
-3.672047	n D
-1.880293	n E	-0.3806784
-0.8325694	n I	-0.4842544
-1.941853	n J	-0.2992392
-1.899859	n P	-0.121446
-1.788644	n Q	-0.4012255
-1.964477	n S	-0.430525
-2.280471	n T	-0.1678626
-3.222079	n U	-0.2077291
-2.059264	n V	-0.3194571
-1.788644	n _	-0.3474476
-2.168133	n b	-0.3585676
-0.9990265	n d	-0.6318394
-1.749181	n f	-0.6891127
-2.480444	n g	-0.4027858
-2.480444	n h	-0.1183992
-2.013602	n i	-0.4169906
-1.726221	n j	-0.08166528
-1.956804	n k	-0.5606494
-1.855505	n l	-0.6634459
-2.455762	n m	-0.4835894
-2.534463	n n	-0.2961521
-2.410244	n p	-0.2927981
-2.369048	n r	-0.211714
-1.133542	n s	-0.6430551
-0.9195799	n t	-0.7619916
-2.596169	n u	-0.2788028
-1.934566	n v	-0.6966951
-2.249547	n w	-0.04846215
-1.964477	n z	-0.3909906
-1.873962	n {	-0.434544
-1.287697	p #	-0.5683137
-1.588452	p $	-0.7574624
-1.460913	p 1	-0.2164149
-1.653482	p 3	-0.5740485
-1.541653	p 5	-0.3466905
-0.9813432	p </s>
-0.9854326	p @	-0.006253719
-1.330989	p E	-0.5891746
-2.701299	p H	-0.08571737
-0.9666696	p I	-0.487595
-2.701299	p J	-0.2052362
-1.862347	p P	-0.02171791
-1.340191	p Q	-0.635904
-2.086955	p S	-0.3433926
-3.445236	p T
-2.142236	p U	-0.2695209
-1.700588	p V	-0.2616549
-3.445236	p _
-2.527587	p b	-0.09720372
-2.995267	p d
-2.779059	p f	-0.07260352
-2.873845	p g
-2.527587	p h	-0.1630688
-1.508448	p i	-0.704323
-1.786791	p j	-0.1256391
-2.403843	p k	-0.306497
-1.097286	p l	-1.067962
-2.873845	p m
-2.369358	p n	-0.3726273
-3.445236	p p
-0.9314134	p r	-0.5463862
-1.622711	p s	-0.4192423
-1.556699	p t	-0.5775541
-2.22895	p u	-0.3259009
-3.445236	p v
-2.482307	p w	-0.1222218
-1.3045	p {	-0.5203316
-1.120329	r #	-0.611115
-1.889529	r $	-0.500837
-1.116175	r 1	-0.2781672
-3.57323	r 3
-1.234231	r 5	-0.4476724
-0.9234532	r @	-0.2714673
-1.089449	r E	-0.5749196
-0.5343213	r I	-0.854792
-1.368864	r Q	-0.4583596
-2.011479	r U	-0.661139
-1.394253	r V	-0.9288588
-1.121723	r i	0.04422164
-3.57323	r j
-1.383919	r u	-0.2785187
-1.138807	r {	-0.802822
-1.589498	s #	-0.5528854
-2.049379	s $	-0.40402
-1.922604	s 1	-0.5137075
-1.870841	s 3	-0.534345
-2.002886	s 5	-0.3946336
-0.5906057	s </s>
-1.294322	s @	-0.4042937
-1.46463	s E	-0.8220229
-3.73308	s F
-2.010297	s H	-0.1233267
-1.005022	s I	-0.8281201
-2.516795	s J	-0.3323061
-2.110772	s P	-0.05926335
-1.941326	s Q	-0.4928394
-3.73308	s S
-3.066903	s T	-0.09868135
-2.923215	s U	-0.1917085
-1.713398	s V	-0.7482644
-3.452254	s _
-2.49344	s b	-0.3928837
-3.283112	s d
-2.281713	s f	-0.4193771
-2.989143	s g
-2.657202	s h	-0.005366832
-1.65357	s i	-0.0848695
-2.392456	s j	0.07596332
-1.214447	s k	-1.072738
-1.44589	s l	-1.149182
-1.824595	s m	-1.05532
-1.834455	s n	-1.188473
-1.297207	s p	-0.8493736
-2.625254	s r	-0.1159492
-3.066903	s s	-0.08732647
-0.7442379	s t	-0.8080739
-2.254645	s u	-0.3433868
-1.79175	s w	-0.4221419
-1.834455	s {	-0.3760038
-1.531983	t #	-0.1536729
-1.904562	t $	-0.606911
-1.539403	t 1	-0.6298474
-1.840184	t 3	-0.6361586
-1.746376	t 5	-0.4136
-0.4800198	t </s>
-0.9821733	t @	0.09842181
-1.531983	t E	-0.7648354
-2.116501	t H	0.1978461
-0.8074902	t I	-0.4178575
-3.738809	t J
-1.771176	t P	0.3605932
-1.792983	t Q	-0.5088612
-2.928944	t S	-0.08538382
-3.072632	t T	-0.02309011
-2.662931	t U	-0.2961352
-1.898817	t V	-0.4474844
-3.738809	t _
-2.260374	t b	-0.314144
-2.928944	t d	-0.1803387
-2.089121	t f	-0.5740029
-2.821161	t g	-0.3593464
-2.363562	t h	-0.178688
-1.762751	t i	-0.3289468
-2.001328	t j	-0.1848178
-2.477006	t k	-0.378424
-1.630675	t l	-0.8898743
-2.347233	t m	-0.7325017
-2.135763	t n	-0.7251797
-2.499169	t p	-0.2644016
-1.135665	t r	-0.06601536
-1.845199	t s	-0.2155079
-3.738809	t t
-2.177058	t u	-0.3546909
-3.738809	t v
-1.973344	t w	-0.3013138
-1.624562	t {	-0.3394853
-2.500927	u #	-0.1312954
-2.950896	u $
-2.950896	u 1
-0.9706857	u </s>
-1.559319	u @	-0.4041429
-2.14103	u D	-0.1381973
-2.379504	u E	-0.08984041
-1.610271	u I	-0.3120504
-1.987967	u J	-0.2028943
-1.909503	u S	-0.06928709
-1.711255	u T	-0.1802933
-1.628676	u Z	0.02046746
-1.875017	u _	-0.05856456
-1.513722	u b	-0.3664438
-1.134353	u d	-0.4930956
-1.459534	u f	-0.4231047
-2.14103	u g	-0.1214515
-2.670069	u h
-2.950896	u i
-2.670069	u j	-0.07403069
-1.628676	u k	-0.1144235
-1.172087	u l	-0.3137223
-1.178707	u m	-0.5669763
-1.067492	u n	-0.7399834
-1.275451	u p	-0.3443304
-1.165566	u s	-0.4666563
-0.9020303	u t	-0.4946807
-1.459534	u v	-0.2697581
-2.950896	u w
-1.172087	u z	-0.04137194
-1.211973	v #	-0.4526848
-2.145582	v $	-0.1478212
-1.325749	v 1	-0.4412209
-1.252754	v 3	-0.7550037
-1.626057	v 5	-0.5959408
-0.778083	v </s>
-0.6730991	v @	-0.1776214
-1.311532	v E	-0.7212933
-1.584796	v H	0.5469507
-0.774007	v I	-0.4721698
-1.490782	v P	0.2617368
-1.640731	v Q	-0.6663647
-2.782404	v U
-2.319294	v V	-0.3520095
-2.100302	v d	-0.3648424
-3.063231	v f
-1.82359	v i	-0.3605184
-1.780341	v j	0.2192343
-3.063231	v k
-1.760231	v l	-0.3398399
-2.613262	v m	-0.07906764
-2.253365	v n	-0.3313224
-3.063231	v p
-2.196139	v r	-0.2399386
-2.782404	v s
-2.782404	v t
-2.613262	v w	-0.1064465
-2.319294	v z	-0.09819496
-1.450447	v {	-0.4561314
-1.07133	w #	-0.5335853
-1.07133	w $	-0.4735398
-0.9488742	w 1	-0.692991
-1.013987	w 3	-0.7978051
-1.990267	w 5	-0.2431883
-1.228732	w @	-0.7011406
-0.9898757	w E	-0.917358
-0.6929698	w I	-0.9849384
-1.06664	w Q	-0.7517111
-1.371889	w U	-0.7550524
-1.828764	w V	-0.5536342
-1.196112	w i	-0.5749313
-2.076548	w u	-0.09850163
-1.542829	w {	-0.6532019
-0.6910011	x </s>
-1.838223	z #	-0.1276337
-2.404417	z $	-0.08742046
-2.108715	z 1	-0.1979459
-1.672808	z 3	-0.5547288
-2.012879	z 5	-0.2218755
-0.3172759	z </s>
-0.9997496	z @	-0.6680757
-1.617527	z E	-0.2566368
-2.975808	z F
-1.510695	z H	0.2778014
-0.8707622	z I	-0.6646854
-1.510695	z P	0.1426264
-2.23187	z Q	-0.1171365
-2.975808	z S
-2.975808	z U
-2.525839	z V	-0.08981977
-2.975808	z _
-2.012879	z b	-0.1402422
-1.867981	z d	-0.3054256
-2.525839	z f	-0.131219
-2.694981	z g
-2.694981	z h
-1.971877	z i	-0.2797663
-1.899929	z j	0.2887325
-2.525839	z k
-2.012879	z l	-0.07659845
-1.471893	z m	-0.6285179
-2.694981	z n
-2.975808	z p
-2.404417	z r	-0.1206883
-2.404417	z u	-0.1146048
-2.975808	z v
-2.694981	z w
-1.899929	z {	-0.114726
-2.669627	{ D	-0.08656174
-1.713496	{ J	-0.3578685
-1.301285	{ N	-0.1765013
-1.501557	{ S	-0.6353352
-2.372875	{ T	-0.1881363
-2.764413	{ Z	-0.1780364
-1.913304	{ _	-0.3160188
-1.447267	{ b	-0.5833365
-1.427319	{ d	-0.3280854
-1.857369	{ f	-0.3869428
-1.372446	{ g	-0.6089987
-0.8787485	{ k	-0.8182313
-1.126533	{ l	-0.7767525
-1.107451	{ m	-0.7705567
-0.7466674	{ n	-0.8181384
-1.192222	{ p	-0.770696
-1.323734	{ r	-1.028149
-1.21553	{ s	-0.3988355
-1.089171	{ t	-0.5024528
-1.644	{ v	-0.5721191
-2.119518	{ z	-0.0005959272

\3-grams:
-0.563042	<s> # I	-0.5473153
-1.641513	<s> # J
-2.026864	<s> # T	-0.06322974
-0.5033652	<s> # U	-0.8723095
-1.563753	<s> # b	-0.0120981
-1.641513	<s> # d	-0.309815
-1.30376	<s> # f	-0.2471334
-2.026864	<s> # g	-0.1200813
-1.344762	<s> # k	-0.196781
-1.116087	<s> # m	0.07323687
-1.857721	<s> # n	-0.002930149
-1.641513	<s> # s	-0.07681394
-1.116087	<s> # t	-0.2589045
-0.5470124	D # I
-0.5256717	I # k	0.02350089
-0.6304554	J # I	-0.182786
-0.7672933	J # _	0.04171097
-1.353559	J # l
-1.184417	J # m
-0.671457	J # n	-0.138727
-1.184417	J # t
-0.4375506	S # I	-0.2672937
-0.9915119	S # U	-0.02132996
-1.160654	S # k
-1.160654	S # l	-0.009314537
-0.7753034	S # p	-0.02200808
-0.3204793	_ # I	-0.2527515
-0.9463888	_ # R	0.8500996
-0.9463888	_ # U	-0.1236334
-1.115531	_ # m	-0.08428962
-0.3600312	b # I	-0.3173448
-1.28036	b # R	0.6624265
-1.346289	b # T	-0.005953401
-0.6829123	b # U	-0.2119313
-1.346289	b # b	-0.0411264
-1.640257	b # d	0.08628419
-1.809399	b # g
-1.28036	b # k	-0.02512525
-1.640257	b # m	-0.05653394
-1.809399	b # n
-1.809399	b # s
-1.809399	b # t
-0.3575321	d # I	-0.3754729
-1.574591	d # R	0.8500996
-0.4314757	d # U	-0.3611047
-1.743734	d # f	0.1342073
-1.280623	d # k
-1.743734	d # n	-0.03068583
-1.264019	f # D	-0.02060747
-0.1557592	f # I	-0.6879032
-0.9980063	f # U	-0.4566118
-1.329948	f # m	-0.0822714
-1.407707	f # s	-0.06536438
-0.8725519	g # I	-0.2713782
-1.458818	g # R	0.9131514
-1.168253	g # U	-0.001312844
-1.458818	g # b
-0.4174249	g # d	-0.1783976
-1.458818	g # g
-1.289675	g # l	0.01844114
-1.168253	g # n	-0.07660448
-1.458818	g # s
-1.289675	g # t
-1.713843	h # </s>
-0.6242794	h # I	-0.2458127
-1.882985	h # S
-1.882985	h # T
-0.5415034	h # U	-0.4850327
-1.713843	h # b	-0.01590833
-0.9722083	h # d	0.08622673
-1.419875	h # f	0.4999267
-1.882985	h # k
-1.200883	h # m	-0.1285675
-1.59242	h # p
-0.9722083	h # t	-0.1817386
-1.882985	h # v
-0.2131425	j # d	-0.2099687
-1.008194	j # n
-0.9471298	k # I	-0.1602195
-1.472556	k # R	0.7462035
-0.5259494	k # U	-0.09127223
-1.328868	k # b	-0.1447237
-1.09734	k # d	0.1030025
-1.857907	k # k
-1.857907	k # l
-1.688764	k # m
-1.328868	k # n	-0.1617838
-1.394796	k # p	-0.08390865
-0.8990925	k # s	-0.3736833
-1.030907	k # t	-0.07561316
-1.688764	k # v
-2.011611	l # </s>
-0.1931301	l # I	-0.4606302
-0.996468	l # U	-0.08211291
-1.795403	l # Z	0.3146739
-2.180754	l # _	0.03318472
-1.890189	l # d	0.03123662
-1.795403	l # f	-0.08652696
-2.180754	l # g
-2.011611	l # k	0.02350089
-1.795403	l # m	-0.02743187
-1.22194	l # n	-0.2356203
-1.178691	l # s	0.03547195
-2.180754	l # t	-0.0664149
-2.011611	l # v	0.04995613
-1.713843	m # </s>
-0.5321835	m # I	-0.4634894
-1.713843	m # J	0.05705078
-1.497634	m # S	0.02266069
-1.026227	m # U	-0.3679087
-1.353946	m # _	-0.03169428
-1.713843	m # b	-0.1823043
-1.882985	m # h	-0.06290652
-0.756498	m # k	0.04278624
-1.296719	m # m	0.0442331
-1.419875	m # n	-0.3408129
-1.026227	m # s	-0.4035164
-1.296719	m # t	-0.02894613
-1.882985	m # v
-0.1553249	n # I	-0.3972321
-1.578306	n # R	0.8500996
-1.065347	n # U	0.02752858
-1.747449	n # Z	0.4816218
-1.456884	n # k	-0.08650704
-1.578306	n # l	-0.01590833
-1.362098	n # s	0.01683787
-1.888367	p # </s>
-0.4389986	p # I	-0.5360787
-1.719224	p # R	0.8500996
-1.503016	p # S	-0.1112949
-1.597802	p # T	0.08680066
-0.9073899	p # U	-0.1695111
-1.503016	p # d	-0.08805375
-1.425256	p # k	0.07050148
-1.597802	p # l	-0.03660643
-1.425256	p # m	-0.08543018
-0.828569	p # s	0.04440552
-0.9529074	p # t	-0.0978595
-0.2258477	r # I	-0.2493942
-0.7833987	r # U	-0.3521334
-2.008875	r # Z	0.41857
-2.008875	r # _	0.0609404
-2.178017	r # d
-1.19704	r # f	-0.03957206
-1.792666	r # l	-0.1198045
-1.648978	r # m	-0.1253017
-1.591751	r # n	-0.04931177
-1.351017	r # s	0.03164795
-1.887453	r # t	-0.05846788
-0.1359294	s # I	-0.4450066
-1.874785	s # R	0.9131514
-1.018028	s # U	-0.2949463
-1.874785	s # Z	0.4816218
-1.874785	s # _
-1.584221	s # d
-1.705643	s # k
-1.584221	s # m	-0.1040723
-1.936418	t # </s>
-0.2669683	t # I	-0.7236726
-1.936418	t # J
-1.407379	t # R	0.6624265
-1.936418	t # S	-0.0970974
-1.07966	t # U	-0.1796703
-1.767276	t # Z	0.41857
-1.350152	t # d	0.05302852
-1.473307	t # f	-0.1349211
-1.936418	t # g
-1.645853	t # k
-1.936418	t # l	-0.07549469
-1.936418	t # m
-1.645853	t # n
-1.936418	t # p
-1.767276	t # r	0.05294077
-1.767276	t # s	-0.1119648
-1.299596	t # t	-0.1541086
-0.5470124	u # n
-0.1827299	v # I	-0.5651844
-0.9568858	v # U	-0.1589757
-1.064669	v # n	-0.05391106
-1.303143	v # s	0.0761199
-1.661858	w # </s>
-0.177219	w # I	-0.4558274
-1.198747	w # R	0.702298
-1.492715	w # U	-0.1152672
-1.661858	w # f
-1.661858	w # m
-1.492715	w # n
-1.661858	w # r	-0.0970974
-1.492715	w # v
-1.661858	w # z
-0.3287603	z # I	-0.2349601
-0.7964401	z # R	0.8500996
-1.207168	<s> $ T	-0.2953529
-1.736207	<s> $ _	-0.07509591
-1.445642	<s> $ b	-0.0389763
-0.7552299	<s> $ d	-0.3553982
-1.567064	<s> $ f	0.01207241
-1.099385	<s> $ g	-0.01311474
-1.054105	<s> $ k	-0.2544457
-0.8516002	<s> $ l	-0.2705187
-1.350856	<s> $ n	-0.3015739
-1.054105	<s> $ r	0.2557275
-1.350856	<s> $ s	-0.1730436
-0.8516002	<s> $ t	-0.2948074
-0.4839607	D $ l	0.03389107
-1.125639	S $ </s>
-0.6579589	S $ R	0.7888224
-1.294781	S $ d	0.04777957
-1.294781	S $ l
-1.004216	S $ r	-0.03541176
-0.4677812	S $ t	-0.259186
-0.5747369	T $ n	-0.0009790659
-0.5747369	T $ t	-0.1809395
-0.8048855	_ $ </s>
-0.4195346	_ $ n	-0.2817758
-1.661858	b $ J
-1.492715	b $ S	0.08144054
-1.661858	b $ Z	-0.02775568
-0.3919003	b $ d	-0.2640395
-1.661858	b $ k
-0.620465	b $ l	-0.1859778
-0.9387541	b $ n	-0.2642205
-1.371293	b $ r	0.1020564
-1.661858	b $ s	-0.1138787
-1.661858	b $ t
-0.5397846	d $ R	0.675378
-1.165694	d $ m	-0.002746657
-0.871726	d $ n	-0.008299097
-1.044272	d $ r	-0.03541176
-1.165694	d $ s
-1.165694	d $ t	-0.09688523
-1.334837	d $ z	0.04743077
-1.877536	f $ </s>
-1.586971	f $ J	-0.2108534
-1.492185	f $ R	0.9427994
-1.708393	f $ S	-0.1022039
-1.348497	f $ T	-0.0341739
-1.586971	f $ _	0.04974477
-1.586971	f $ b	-0.1940646
-1.877536	f $ d	0.04777957
-1.414425	f $ f	-0.09199065
-1.877536	f $ g
-1.877536	f $ h	-0.09868517
-1.348497	f $ k	-0.1188214
-0.7358622	f $ l	-0.3011198
-0.6932501	f $ m	-0.09402204
-1.348497	f $ n	-0.02072409
-1.877536	f $ p
-1.586971	f $ r
-0.9187218	f $ s	-0.1056943
-1.29127	f $ t	-0.156745
-1.492185	f $ w	-0.02007683
-0.7374642	g $ _	-0.02531992
-1.028029	g $ d	-0.1118411
-0.8588863	g $ k	-0.05827197
-1.028029	g $ l
-1.028029	g $ r
-1.028029	g $ z
-1.51914	h $ R	1.109747
-1.133789	h $ k	-0.01561671
-0.8370381	h $ l	0.1547916
-0.6623825	h $ n	-0.1672277
-0.517077	h $ s	-0.206253
-1.133789	h $ t	-0.1083308
-0.8361432	j $ R	1.109747
-0.8361432	j $ s	-0.1551402
-1.776078	k $ J
-1.606936	k $ R	1.046695
-1.312968	k $ S	-0.05213615
-1.776078	k $ b
-0.840619	k $ d	-0.06442916
-1.247039	k $ k	0.07810284
-1.139256	k $ l	-0.05717935
-0.840619	k $ n	-0.1458971
-1.189813	k $ p	0.0008586198
-1.485514	k $ r	-0.1262192
-0.840619	k $ s	-0.1885124
-0.9193206	k $ t	-0.1561951
-1.247039	k $ z	0.008915775
-1.324216	l $ </s>
-0.9643194	l $ R	0.8590224
-0.6983064	l $ d	-0.05632824
-1.324216	l $ f	-0.07873501
-1.493358	l $ k
-1.202794	l $ l	-0.2569671
-0.8112563	l $ n	-0.05521244
-0.8565363	l $ r	-0.06182599
-1.202794	l $ t	0.01393931
-1.202794	l $ z	0.09520358
-0.8597048	m $ R	0.8590224
-1.219601	m $ b	-0.1498008
-1.388744	m $ f
-1.388744	m $ g
-1.388744	m $ k	-0.08602765
-0.9256333	m $ l	0.1086473
-0.8597048	m $ n	-0.1473796
-0.9256333	m $ r	0.009302363
-1.219601	m $ s
-1.003393	m $ t	0.02907303
-1.165694	n $ D	-0.02001712
-1.334837	n $ R	1.109747
-0.871726	n $ T	-0.1847774
-0.6980144	n $ m	-0.1215727
-1.165694	n $ r	0.01963581
-1.044272	n $ s	-0.1867838
-0.6980144	n $ t	-0.3076992
-1.598947	p $ </s>
-1.308382	p $ R	0.991648
-1.598947	p $ S	0.05368486
-1.598947	p $ k
-0.9621246	p $ l	-0.007337362
-1.135836	p $ n	0.04531388
-1.308382	p $ p	-0.02480119
-1.213596	p $ r	0.05320786
-1.429804	p $ s	-0.09090608
-0.3073242	p $ t	0.03078204
-1.051342	r $ </s>
-1.436693	r $ @
-1.146128	r $ R	0.991648
-1.436693	r $ b
-0.7135889	r $ d	0.06349036
-1.436693	r $ k	-0.09329027
-0.7545905	r $ l	-0.2966256
-1.436693	r $ m
-0.8504269	r $ n	-0.06587222
-1.436693	r $ r
-1.26755	r $ s	-0.1769305
-1.146128	s $ </s>
-1.051342	s $ R	0.9427994
-1.26755	s $ b
-0.9076536	s $ d
-1.436693	s $ h
-0.8504269	s $ l	-0.2860724
-1.436693	s $ n
-1.436693	s $ p
-1.436693	s $ r
-0.7545905	s $ s	-0.1501514
-0.973582	s $ t	-0.04383914
-1.048562	t $ J	-0.003408045
-1.048562	t $ R	0.8590224
-1.577601	t $ S	0.05368486
-0.8954991	t $ k	-0.02335477
-0.8544976	t $ l	-0.01243518
-1.048562	t $ m	-0.1512677
-0.9407791	t $ n	-0.2096974
-1.577601	t $ p
-0.9913355	t $ r	-0.067086
-1.048562	t $ t	0.09904356
-1.577601	t $ z	0.04743077
-0.6357431	v $ l	-0.1526899
-0.8048855	v $ s
-0.8048855	v $ t
-1.661858	w $ R	1.109747
-1.661858	w $ b
-0.9387541	w $ d	-0.1129244
-1.492715	w $ f	-0.1041196
-1.661858	w $ h
-0.9012917	w $ k	-0.1933504
-0.9797556	w $ l	0.06107733
-1.132819	w $ m	-1.490116e-08
-1.198747	w $ n	-0.0937331
-0.4913166	w $ t	-0.3930548
-0.60206	z $ s
-1.458818	<s> 1 @	-0.1225137
-1.458818	<s> 1 T	-0.09212706
-1.458818	<s> 1 _
-1.458818	<s> 1 b
-1.458818	<s> 1 d
-1.289675	<s> 1 g
-0.9297786	<s> 1 k	0.01292638
-0.7767156	<s> 1 l	-0.208444
-1.073467	<s> 1 m	-0.05548474
-1.168253	<s> 1 n
-1.289675	<s> 1 p
-1.289675	<s> 1 s	-0.1383156
-0.9957071	<s> 1 t	-0.09554473
-1.289675	<s> 1 v	-0.001650974
-0.7961246	I 1 </s>
-0.5645976	I 1 S	0.1689107
-0.3663496	I 1 t	-0.04308707
-1.325164	I 1 z
-1.028029	J 1 f	-0.1255324
-0.7374642	J 1 m	-0.2612082
-0.5649182	J 1 n	-0.2447188
-0.5649182	J 1 s	0.08912514
-0.9494857	S 1 </s>
-0.7485709	S 1 d	0.1497551
-0.5742705	S 1 k	-0.04805419
-0.9494857	S 1 m	-0.09785902
-0.871726	S 1 p	-0.1311578
-1.165694	S 1 v	-0.001650974
-0.3094632	U 1 t	0.1968624
-0.37787	Z 1 </s>
-0.6670008	_ 1 </s>
-0.6670008	_ 1 l
-1.270309	b 1 </s>
-1.560874	b 1 @	-0.1225137
-1.270309	b 1 D	0.01288803
-1.175523	b 1 S	0.5014341
-1.097764	b 1 b	-0.1749408
-1.391732	b 1 g	-0.02001712
-1.097764	b 1 k	0.1142205
-1.097764	b 1 l	-0.03444894
-1.270309	b 1 n	0.006791502
-0.6500973	b 1 s	0.1596129
-0.800308	b 1 t	0.3634027
-0.7829107	d 1 </s>
-1.543477	d 1 I
-1.014438	d 1 S	0.4176571
-1.252912	d 1 b	-0.09945719
-1.543477	d 1 d	-0.1642155
-1.252912	d 1 k
-1.252912	d 1 l
-1.543477	d 1 m
-1.014438	d 1 n	-0.1373616
-0.6327	d 1 t	0.3244043
-1.252912	d 1 z	0.06170568
-1.42906	f 1 </s>
-1.42906	f 1 S
-1.043709	f 1 T	-0.04884857
-1.42906	f 1 k
-1.138495	f 1 l	-0.06143241
-1.043709	f 1 m	-0.02352203
-0.9000208	f 1 n	-0.04460758
-0.7059561	f 1 s	-0.01642144
-0.9000208	f 1 t	0.4383663
-1.259917	f 1 v	-0.1108245
-1.356211	g 1 </s>
-0.6407468	g 1 S	0.1649318
-1.356211	g 1 _	0.007960021
-1.525353	g 1 b	-0.008821473
-1.525353	g 1 l
-0.9963143	g 1 m	-0.1753425
-1.140002	g 1 n	0.09698991
-1.525353	g 1 p	-0.03362514
-0.5232902	g 1 t	-0.004989088
-1.356211	g 1 z	-0.08242059
-1.160654	h 1 k
-0.7753034	h 1 l	0.01789206
-1.160654	h 1 p
-0.9915119	h 1 s	-0.1332473
-0.9915119	h 1 t
-0.8700897	h 1 v	0.009085998
-1.160654	h 1 z
-0.3114954	i 1 t	0.4115831
-0.4839607	j 1 </s>
-1.143046	k 1 </s>
-1.825148	k 1 D
-1.656005	k 1 I	-0.003989652
-1.825148	k 1 Q
-0.8896886	k 1 S	0.4964631
-1.534583	k 1 _	-0.1085744
-1.656005	k 1 b
-1.030096	k 1 d	-0.1077474
-1.143046	k 1 k	-0.2975853
-1.362037	k 1 l	-0.09889692
-1.825148	k 1 m
-1.362037	k 1 n	-0.01089787
-1.102044	k 1 p	0.08690879
-1.188326	k 1 s	-0.1702544
-0.6146128	k 1 t	-0.006084681
-0.8876696	l 1 </s>
-1.457751	l 1 @	-0.01045984
-2.044017	l 1 I	-0.06322974
-0.9842191	l 1 S	0.4697811
-1.407195	l 1 b	-0.07912114
-1.15941	l 1 d	0.009934962
-1.874874	l 1 f	-0.09777676
-2.044017	l 1 g
-1.580906	l 1 k	0.009615928
-2.044017	l 1 l
-1.108558	l 1 m	-0.10561
-1.108558	l 1 n	-0.09016627
-2.044017	l 1 r
-1.283451	l 1 s	-0.1715818
-0.6330389	l 1 t	0.01274854
-1.457751	l 1 v	-0.0626871
-1.320913	l 1 z	0.1785428
-1.295297	m 1 </s>
-0.9633552	m 1 S	0.1432053
-1.758407	m 1 _	-0.05162635
-0.9314074	m 1 d	-0.242023
-0.9633552	m 1 k	0.1014255
-1.121585	m 1 l	-0.04252854
-0.7995931	m 1 n	-0.1381543
-1.758407	m 1 p
-1.295297	m 1 s	-0.1341342
-0.756344	m 1 t	-0.09433717
-1.373056	m 1 z	0.1234572
-1.72075	n 1 </s>
-1.551607	n 1 J	0
-0.6263286	n 1 S	0.2710835
-1.72075	n 1 _
-1.191711	n 1 b	0.02083662
-1.134484	n 1 d	0.1497551
-1.335399	n 1 k	-0.102023
-1.257639	n 1 l	-0.1010781
-1.083928	n 1 m	-0.09139441
-1.72075	n 1 p
-0.5502087	n 1 t	-0.1491586
-1.72075	n 1 z	0.06055072
-1.72075	p 1 5
-1.134484	p 1 </s>
-1.551607	p 1 @	0.0961749
-0.8639922	p 1 S	0.6352977
-1.72075	p 1 _
-1.430185	p 1 d	0.2085226
-1.72075	p 1 k
-1.134484	p 1 l	0.006128162
-1.551607	p 1 m	-0.09694812
-0.89375	p 1 n	-0.05471006
-1.038648	p 1 p	-0.2853058
-0.7852905	p 1 s	-0.04374456
-1.038648	p 1 t	0.2199377
-1.551607	p 1 v
-1.180052	r 1 </s>
-2.012973	r 1 @	0.0961749
-1.025768	r 1 S	0.5322222
-2.012973	r 1 Z	-0.07092949
-1.891551	r 1 _	0.03631318
-2.182116	r 1 b
-1.122318	r 1 d	0.08686095
-1.223302	r 1 k	0.1736738
-1.42155	r 1 l	-0.01032726
-1.891551	r 1 m	0.03707501
-0.8044972	r 1 n	-0.1498886
-1.387064	r 1 p	0.08110327
-1.025768	r 1 s	-0.2335716
-0.7254604	r 1 t	0.05778873
-1.246656	r 1 v	0.2825465
-1.271339	r 1 z	0.2431921
-1.026113	s 1 </s>
-1.38601	s 1 I
-1.026113	s 1 S	0.3620376
-1.38601	s 1 _
-1.264588	s 1 b	-0.03611337
-1.555152	s 1 d
-1.092041	s 1 f	-0.02637119
-1.092041	s 1 k	-0.05521244
-0.6443753	s 1 l	-0.138479
-1.38601	s 1 m	0.0170579
-1.264588	s 1 n	0.08185619
-1.38601	s 1 t	0.3915659
-1.169801	s 1 v	0.07175437
-1.466065	t 1 </s>
-0.6482505	t 1 S	0.1993281
-1.34291	t 1 _	0.1826988
-1.400136	t 1 b	-0.09367426
-1.929175	t 1 d
-1.134124	t 1 k	-0.1092954
-0.8184255	t 1 l	-0.2056734
-1.543825	t 1 m
-0.9481988	t 1 n	-0.2262308
-1.638611	t 1 p	-0.06091703
-1.543825	t 1 s	-0.2371435
-0.7060877	t 1 t	0.03630745
-1.196102	v 1 </s>
-1.317524	v 1 @	0.005367473
-0.8045645	v 1 S	0.5955945
-1.486667	v 1 Z	0.09107041
-1.486667	v 1 d	0.1607498
-1.196102	v 1 g	-0.02749616
-1.317524	v 1 k	-0.134415
-0.9004009	v 1 l	-0.01735884
-1.196102	v 1 n
-1.486667	v 1 p	-0.02393067
-1.317524	v 1 s	-0.1526734
-0.6596668	v 1 t	0.154065
-0.4287262	w 1 </s>
-1.779528	w 1 Z	0.09107041
-1.610385	w 1 _
-1.779528	w 1 b	-0.14723
-1.610385	w 1 d	0.1885054
-1.779528	w 1 f
-1.193262	w 1 k	0.1791613
-1.394177	w 1 l	-0.07403642
-1.316417	w 1 n	-0.09749013
-1.142706	w 1 s	-0.161266
-0.8440685	w 1 t	0.3716868
-1.193262	w 1 v	0.01370126
-1.316417	w 1 z	-0.05949521
-0.7712024	z 1 </s>
-0.7712024	z 1 I	-0.03174533
-0.7712024	z 1 S	0.5775746
-0.5470124	5 3 s
-0.5062236	<s> 3 T	-0.1058126
-1.019183	<s> 3 _	0.07129459
-1.188326	<s> 3 g
-1.188326	<s> 3 k
-0.8029748	<s> 3 l	0.006446704
-1.019183	<s> 3 n	-0.02803902
-0.5655432	J 3 J
-0.7346855	J 3 l	0.007522479
-0.7346855	J 3 p	-0.1023169
-0.2758465	S 3 t	0.05761112
-0.4799505	T 3 m
-0.696159	T 3 s	-0.1605693
-0.8653014	T 3 t
-0.7964401	_ 3 k	-0.1817741
-0.7964401	_ 3 m	-0.01786393
-0.3793167	_ 3 n	0.1367407
-0.8653014	b 3 T	-0.0473088
-1.066216	b 3 b	0.001032017
-0.6565151	b 3 d	-0.2235159
-1.066216	b 3 g	-0.03934503
-1.282425	b 3 l
-0.7284635	b 3 n	0.1657968
-1.161003	b 3 s	-0.08580649
-0.8361432	d 3 n
-0.8361432	d 3 t
-0.8361432	d 3 v
-1.22797	f 3 D	-0.1214957
-0.9340014	f 3 R	0.5319699
-1.397112	f 3 l
-0.6365459	f 3 m	-0.09939438
-0.8108463	f 3 n	-0.113182
-1.106547	f 3 s	-0.2156169
-1.011761	f 3 t	-0.1486583
-1.22797	f 3 v	-0.04783035
-1.397112	f 3 z	0.1599175
-0.8926246	g 3 d
-0.3063588	g 3 l	0.01505876
-0.8029748	h 3 b
-0.8029748	h 3 d	0.080369
-0.8977612	h 3 m	-0.1463121
-0.8029748	h 3 s	0.01163416
-0.8029748	h 3 t	-0.2110502
-0.4817662	j 3 n	-0.02803902
-0.9299195	k 3 R	0.5758754
-1.31527	k 3 f
-0.9299195	k 3 l	0.070429
-1.31527	k 3 m
-0.7862314	k 3 s	-0.1209077
-0.5921667	k 3 t	0.05032179
-1.024706	k 3 v
-0.9655824	l 3 _
-0.5802315	l 3 n	-0.05687048
-0.6750179	l 3 t	-0.1099532
-1.238882	m 3 J
-1.238882	m 3 R	0.7428232
-0.9483175	m 3 S	0.2670578
-1.238882	m 3 T
-1.06974	m 3 _
-1.06974	m 3 d	-0.1750255
-0.8535312	m 3 k	0.1453631
-0.9483175	m 3 m	-0.03900396
-0.8535312	m 3 s	-0.1109496
-0.60206	n 3 s
-1.065171	n 3 t
-0.4789048	n 3 v	-0.02781323
-1.246955	p 3 J	-0.07996094
-1.368377	p 3 R	0.6797715
-1.368377	p 3 _	0.07129459
-1.368377	p 3 b	-0.1217733
-1.152168	p 3 f	0.04593775
-1.246955	p 3 g	-0.06556115
-1.246955	p 3 k
-1.537519	p 3 l
-1.074409	p 3 m	0.09616236
-0.9512535	p 3 p	-0.1638266
-0.6807616	p 3 s	-0.1182184
-1.074409	p 3 t	0.04807777
-1.368377	p 3 v	-0.1264724
-1.075084	s 3 J	0.08693139
-1.434981	s 3 R	0.6797715
-0.9673011	s 3 _	0.3018554
-1.313559	s 3 d
-1.075084	s 3 f	0.08189829
-1.141013	s 3 k	-0.0820865
-1.604123	s 3 l	0.007522479
-1.434981	s 3 m	-0.05902108
-1.075084	s 3 n	0.03409465
-1.434981	s 3 p	-0.1103258
-0.8435571	s 3 t	-0.1706095
-0.7771233	s 3 v	-0.1445089
-1.109688	t 3 R	0.4920984
-1.638727	t 3 S	-0.09625741
-1.253376	t 3 _	0.08750808
-1.109688	t 3 b	-0.0236198
-1.253376	t 3 d	-0.1221355
-1.001905	t 3 m	-0.02317576
-0.4156391	t 3 n	0.09441471
-1.348162	t 3 p
-1.469584	t 3 r	0.05504757
-1.469584	t 3 s
-1.469584	t 3 t	-0.1200204
-1.264588	v 3 J	-0.225584
-1.026113	v 3 S	-0.0314399
-1.555152	v 3 _
-0.9688863	v 3 b	0.01659438
-1.555152	v 3 d
-1.38601	v 3 m	-0.01786393
-0.5329791	v 3 s	-0.164577
-0.5741753	v 3 t	-0.1865718
-1.331447	w 3 D	-0.1316327
-1.716798	w 3 T
-0.921746	w 3 d	-0.07841352
-0.2978657	w 3 k	-0.2052495
-0.956232	w 3 l	0.09704521
-1.034696	w 3 m	-0.223209
-1.716798	w 3 s	-0.09751755
-1.716798	w 3 t	-0.0266785
-1.099385	z 3 S	0.219285
-1.099385	z 3 k
-0.9302422	z 3 p
-0.8088201	z 3 t	0.02109429
-0.4172826	z 3 v	-0.1904301
-1.83433	<s> 5 S
-1.248064	<s> 5 b	-0.131733
-1.543765	<s> 5 d	-0.233147
-1.665187	<s> 5 f	-0.07337178
-1.665187	<s> 5 g
-1.305291	<s> 5 k	-0.01163173
-1.665187	<s> 5 l	-0.01793815
-1.83433	<s> 5 m
-1.448979	<s> 5 n	-0.2072473
-1.00733	<s> 5 p	-0.2639362
-1.543765	<s> 5 t
-0.2583727	<s> 5 v	-0.3568081
-0.283771	I 5 </s>
-1.156021	I 5 d	-0.1093044
-1.325164	I 5 k	-0.04651649
-1.156021	I 5 l
-1.156021	I 5 s
-1.156021	I 5 t
-0.694814	J 5 </s>
-0.4042495	J 5 k	-0.00374715
-1.008194	S 5 </s>
-0.7176299	S 5 I
-1.008194	S 5 g
-1.008194	S 5 m	-0.05349479
-0.4799505	_ 5 k	-0.08621936
-0.696159	_ 5 l
-0.8653014	_ 5 v	-0.1648048
-0.7484248	b 5 </s>
-1.543477	b 5 @
-1.374334	b 5 d	0.008985296
-0.9066547	b 5 l	0.04304872
-0.6867191	b 5 n	-0.0728602
-1.158126	b 5 s	0.1463246
-0.716477	b 5 t	-0.3082976
-0.4184156	d 5 </s>
-1.512837	d 5 d
-1.049726	d 5 l	-0.1189656
-1.049726	d 5 m	0.01374754
-1.127486	d 5 n	-0.1981797
-1.512837	d 5 p
-1.222272	d 5 s	-0.1582667
-1.049726	d 5 t	-0.02658689
-1.343694	d 5 z	0.04030544
-1.324216	f 5 </s>
-1.493358	f 5 b
-0.7702548	f 5 k	-0.1263728
-0.5345444	f 5 l	-0.4468468
-1.324216	f 5 m
-0.5578992	f 5 n	0.001820922
-1.108008	f 5 t	-0.1652036
-0.4224944	g 5 </s>
-1.499949	g 5 @	0.1046238
-0.8631267	g 5 I	-0.1740537
-1.330806	g 5 S
-1.330806	g 5 d
-0.7768451	g 5 l	-0.1414249
-1.499949	g 5 n
-1.330806	g 5 s	0.175156
-1.209384	g 5 t
-1.292472	h 5 </s>
-1.583037	h 5 k	-0.1411054
-0.2809739	h 5 l	-0.4770064
-0.6984302	h 5 m	-0.3073201
-1.583037	h 5 s	0.1474003
-1.583037	h 5 t	-0.1499153
-1.292472	h 5 z
-0.7346855	i 5 l
-0.7346855	i 5 n
-0.8653014	j 5 </s>
-0.8653014	j 5 d	-0.1490745
-0.8653014	j 5 g
-0.8653014	j 5 k
-0.8653014	j 5 m	-0.05349479
-1.617203	k 5 3	0
-0.9295881	k 5 </s>
-1.786346	k 5 @	-0.1047488
-1.323235	k 5 I	-0.05162291
-1.786346	k 5 J
-1.786346	k 5 _	0.001632079
-1.257307	k 5 d	0.0152266
-1.495781	k 5 h
-1.20008	k 5 k	-0.1815809
-0.8755689	k 5 l	0.1333301
-1.149524	k 5 m	-0.2307102
-1.617203	k 5 n	0.1015028
-1.20008	k 5 p	-0.1814811
-1.104244	k 5 s	0.1512676
-0.9295881	k 5 t	-0.2115439
-1.786346	k 5 v	-0.1291869
-1.617203	k 5 z	-0.1449122
-0.6433542	l 5 </s>
-1.755137	l 5 @	0.04157208
-1.39524	l 5 D	-0.0362554
-1.287457	l 5 I	-0.1167778
-1.924279	l 5 S
-1.755137	l 5 T	0.2578731
-1.538928	l 5 Z	0.1202938
-1.538928	l 5 _	0.02753976
-1.538928	l 5 b	-0.1479801
-1.287457	l 5 d	-0.07299642
-1.924279	l 5 f
-1.755137	l 5 g	-0.03558487
-1.924279	l 5 h
-0.98882	l 5 k	0.04295108
-1.461169	l 5 l	-0.1598786
-1.924279	l 5 m
-1.039673	l 5 n	-0.06512588
-1.461169	l 5 p	-0.0779013
-1.633715	l 5 s
-1.129227	l 5 t	0.07839245
-1.755137	l 5 v	0.4254528
-1.39524	l 5 z	-0.1473677
-1.055479	m 5 </s>
-1.30695	m 5 S	-0.1704569
-1.401737	m 5 b	-0.09387742
-1.163262	m 5 d	-0.07710086
-1.30695	m 5 k	-0.07819891
-0.8653014	m 5 l	-0.07337789
-1.401737	m 5 m	-0.1006569
-1.229191	m 5 n	-0.1827035
-0.8653014	m 5 s	-0.1453654
-0.6509085	m 5 t	-0.1724939
-1.401737	m 5 z	-0.1050928
-0.8828866	n 5 </s>
-1.643453	n 5 I
-1.643453	n 5 S
-0.920349	n 5 b	-0.2166525
-1.352888	n 5 d
-1.643453	n 5 f
-1.47431	n 5 l
-1.258102	n 5 m	-0.08045691
-1.643453	n 5 n	0.07374708
-1.47431	n 5 p
-1.47431	n 5 s
-0.6212797	n 5 t	-0.006091118
-1.258102	n 5 v	-0.09808193
-1.643453	n 5 w
-1.006631	n 5 z	0.10162
-1.258102	p 5 </s>
-1.352888	p 5 I	-0.1536711
-1.114414	p 5 k	0.03276968
-0.786695	p 5 l	-0.1156256
-1.352888	p 5 n	-0.06979293
-1.352888	p 5 p
-0.786695	p 5 s	-0.3342214
-1.180342	p 5 t	-0.1158887
-1.643453	p 5 v	0.3976971
-0.6624759	p 5 z	-0.1159056
-0.9242082	r 5 </s>
-1.896739	r 5 @	0.1323795
-2.065882	r 5 D
-1.536843	r 5 I	0.02930966
-1.680531	r 5 J	-0.04557824
-2.065882	r 5 S	-0.02175935
-1.775317	r 5 T	0.1120181
-2.065882	r 5 Z	0.05738731
-1.130423	r 5 b	-0.2966209
-1.107068	r 5 d	-0.1491744
-1.680531	r 5 f	-0.01236244
-1.42906	r 5 g	-0.1310032
-1.209124	r 5 k	-0.09444255
-1.006084	r 5 l	-0.4223763
-1.342778	r 5 m	-0.1224072
-1.107068	r 5 n	0.03037131
-1.38378	r 5 p	-0.09515429
-1.209124	r 5 s	0.214953
-1.084905	r 5 t	0.02900046
-1.479616	r 5 v	0.2904293
-1.27083	r 5 z	-0.02607335
-0.8430479	s 5 </s>
-1.47987	s 5 E	-0.04777279
-0.8936042	s 5 S	-0.1872129
-1.47987	s 5 b
-1.47987	s 5 d
-1.310728	s 5 k	-0.1133498
-0.5690932	s 5 l	-0.2736645
-1.310728	s 5 n
-1.094519	s 5 p	-0.08995906
-1.310728	s 5 t
-1.47987	s 5 v
-0.5721998	t 5 </s>
-1.728547	t 5 @
-1.559405	t 5 I	-0.1989137
-1.559405	t 5 d
-1.343196	t 5 k	0.0401583
-1.437982	t 5 l	0.002078965
-1.343196	t 5 m	-0.09157196
-0.5180119	t 5 n	-0.3620248
-1.265437	t 5 p	-0.1137547
-1.343196	t 5 s	0.1024191
-1.343196	t 5 t	-0.008000895
-1.728547	t 5 v
-1.045197	v 5 S	0.02424668
-0.3297326	v 5 k	0.006884187
-0.8289883	v 5 l	-0.1390425
-0.9237746	v 5 t	-0.02313462
-0.8653014	w 5 f	-0.07526895
-0.8653014	w 5 n	-0.1663045
-0.5747369	w 5 t	0.03224096
-0.5455787	z 5 </s>
-0.8361432	z 5 d
-0.8361432	z 5 n
-0.370533	1 @ R	1.932338
-0.8405345	1 @ b	0.05126965
-0.9619566	1 @ n
-0.9619566	1 @ r	-0.1122877
-0.3260924	5 @ R	1.988819
-0.8390521	5 @ l	-0.1306758
-1.008194	5 @ w	0.06375612
-1.855549	<s> @ S	-0.2630821
-1.732394	<s> @ _	-0.2972628
-0.7829435	<s> @ b	-0.8532991
-1.016597	<s> @ d	-0.6006361
-1.083372	<s> @ f	-0.2985857
-1.523607	<s> @ g	-0.100233
-1.121051	<s> @ k	-0.3732742
-1.148118	<s> @ l	-0.5692301
-1.316596	<s> @ m	-0.3588063
-1.277267	<s> @ n	-0.5715641
-1.037734	<s> @ p	-0.3630636
-1.3832	<s> @ r	-0.05281046
-0.9587337	<s> @ s	-0.5560163
-1.296486	<s> @ t	-0.4568646
-1.681837	<s> @ v	-0.2028255
-1.732394	<s> @ w	0.007632762
-0.4083902	D @ R	1.650252
-1.51914	D @ b
-1.349998	D @ h	-0.1728454
-0.9328744	D @ l	-0.1020092
-0.9328744	D @ m	0.2177878
-1.133789	D @ n	-0.0968
-0.9901011	D @ r	0.09677623
-2.01504	E @ </s>
-0.5170581	E @ R	1.299609
-1.291937	E @ b	-0.1920613
-1.55193	E @ d	-0.072859
-1.378218	E @ f	-0.1661234
-2.01504	E @ g
-1.845898	E @ k	-0.2019999
-1.378218	E @ l	-0.1620464
-2.01504	E @ m
-1.428774	E @ n	-0.2728324
-1.724476	E @ p
-0.565672	E @ r	-0.355563
-1.254474	E @ s	-0.172277
-1.629689	E @ t
-1.629689	E @ w	0.1266626
-1.486001	E @ z	0.1208406
-0.7920499	H @ R	2.222902
-0.6195039	H @ b	-0.04148439
-0.6972635	H @ l	-0.1475875
-1.082614	H @ r	0.1176467
-0.913472	H @ t	-0.1269222
-1.236291	I @ </s>
-0.7041107	I @ R	1.132661
-1.848926	I @ T	-0.1124867
-1.493358	I @ b	-0.07369936
-1.442506	I @ d	-0.06887183
-1.741143	I @ f	-0.1553317
-2.208823	I @ g
-2.0874	I @ k	-0.1630654
-0.8483147	I @ l	-0.4825493
-1.283544	I @ m	-0.2083728
-0.9360082	I @ n	-0.3165379
-1.992614	I @ p	-0.042215
-0.9001549	I @ r	-0.250107
-1.018039	I @ s	-0.08729917
-1.251478	I @ t	-0.02329969
-1.848926	I @ w	-0.2147049
-2.208823	I @ z	0.2177063
-0.2703055	J @ R	1.359013
-1.414158	J @ b	-0.03953776
-1.414158	J @ d	-0.07091238
-1.414158	J @ l	0.0671332
-1.0679	J @ n	-0.1765076
-0.8777225	J @ r	-0.01054919
-1.319371	J @ s	0.07934883
-1.704722	J @ z	0.2807581
-0.2790357	N @ R	2.05376
-0.8653014	N @ m
-0.1172519	P @ R	1.816768
-1.52203	S @ </s>
-1.017543	S @ R	1.906632
-1.349485	S @ b	-0.1322918
-0.9018183	S @ l	-0.3223724
-1.812595	S @ m
-0.7904221	S @ n	-0.3251779
-1.643453	S @ p	-0.1042449
-1.226329	S @ r	0.10094
-0.3781783	S @ s	-0.7643583
-0.9425985	T @ R	2.341002
-0.9425985	T @ d
-0.7734562	T @ r
-0.6115844	U @ R	1.453455
-1.774399	U @ b	0.1063172
-1.30672	U @ d	0.01187174
-0.6735842	U @ l	-0.4337202
-1.943542	U @ m
-1.26144	U @ n	-0.191619
-0.5489232	U @ r	-0.128889
-1.086784	U @ s	-0.2666974
-1.943542	U @ z	0.2807581
-0.441763	Z @ R	2.05376
-0.7374642	Z @ l	-0.09873889
-0.7374642	Z @ r	-0.09049089
-1.592857	_ @ </s>
-0.6203257	_ @ R	1.623435
-1.23296	_ @ b	-0.08135593
-1.592857	_ @ d
-1.23296	_ @ l	0.2025108
-0.4810743	_ @ n	-0.3023864
-1.761999	_ @ p
-1.001433	_ @ r	-0.1831175
-1.001433	_ @ s	-0.09373471
-1.578667	b @ </s>
-0.684946	b @ R	1.58608
-1.578667	b @ b	0.05126965
-1.406121	b @ d	0.0218651
-1.869232	b @ f	-0.1652572
-0.8470587	b @ l	-0.01701319
-0.9337724	b @ n	-0.06739938
-0.727558	b @ r	0.04713756
-1.23241	b @ s	0.006329447
-0.9846252	b @ t	0.06784219
-1.700089	b @ z
-1.405542	d @ </s>
-0.454791	d @ R	1.132661
-1.959503	d @ S	-0.01590833
-1.54238	d @ b	0.04159749
-1.838081	d @ d	0.01989503
-1.665535	d @ f	-0.2111108
-1.743294	d @ g	-0.07355113
-1.959503	d @ k	-0.172556
-1.217869	d @ l	0.0157994
-1.068848	d @ m	-0.2752879
-0.8933575	d @ n	-0.1754701
-1.959503	d @ p
-1.017895	d @ r	0.04213804
-1.665535	d @ s	0.1249534
-1.169831	d @ t	-0.2635533
-2.128645	d @ w
-1.959503	d @ z	0.2177063
-1.53558	f @ </s>
-0.6449246	f @ R	1.693863
-1.319371	f @ b	-0.09536405
-1.118457	f @ g	-0.2944441
-1.319371	f @ k	-0.2963015
-1.118457	f @ l	0.1196043
-1.118457	f @ m	-0.3104715
-0.9816186	f @ n	-0.2329793
-0.8777225	f @ r	0.1872613
-1.02262	f @ s	-0.1855182
-1.319371	f @ t	-0.0009639263
-1.453719	g @ </s>
-0.6468723	g @ R	1.509692
-1.91683	g @ b
-1.453719	g @ d	-0.072859
-1.747687	g @ h	-0.04768853
-1.032223	g @ l	-0.06447981
-1.280008	g @ m	0.06675529
-0.693742	g @ n	0.08486187
-0.8754371	g @ r	0.05495012
-1.626265	g @ s	0.1217652
-1.060072	g @ t	0.08111423
-1.453719	g @ z	-0.1594917
-0.60206	h @ r	-0.1494223
-0.8588863	i @ </s>
-1.028029	i @ R	2.341002
-1.028029	i @ m	-0.1424799
-0.6426778	i @ n	-0.02439776
-0.827839	j @ </s>
-0.9846252	j @ R	1.837551
-1.578667	j @ b	0.05126965
-1.483881	j @ d	-0.02895354
-0.8671685	j @ l	-0.3795012
-1.146128	j @ m	-0.25568
-0.5372745	j @ n	-0.4144013
-1.700089	j @ r	0.05459495
-0.8470587	j @ s	-0.4004997
-1.381923	k @ </s>
-0.7466872	k @ R	1.167633
-2.214844	k @ S	-0.01590833
-2.383986	k @ _	-0.1542281
-1.473209	k @ b	-0.2123491
-1.588934	k @ d	-0.04155985
-2.383986	k @ f
-2.383986	k @ h
-2.383986	k @ k
-0.9730083	k @ l	-0.01443434
-1.02406	k @ m	-0.3025474
-0.5691681	k @ n	-0.1659417
-1.660883	k @ p	-0.2123113
-1.033185	k @ r	0.1139172
-1.381923	k @ s	-0.1011784
-1.473209	k @ t	0.03850219
-2.383986	k @ v
-2.383986	k @ w
-1.747164	k @ z	-0.04016674
-1.108281	l @ </s>
-0.5589157	l @ R	1.116177
-1.365348	l @ _	-0.3784682
-1.489389	l @ b	0.04926644
-1.786844	l @ d	0.0218651
-1.489389	l @ k	-0.1221933
-2.080813	l @ l	-0.04369134
-1.314496	l @ m	0.05965695
-0.8005868	l @ n	-0.2251456
-1.663689	l @ p	-0.2533702
-1.247892	l @ r	-0.1287012
-1.108281	l @ s	-0.1007536
-0.8991534	l @ t	-0.3059697
-1.245758	m @ </s>
-2.305556	m @ J
-0.9547545	m @ R	1.436219
-2.136414	m @ S	-0.1959625
-2.136414	m @ T	-0.01562098
-2.136414	m @ _
-2.305556	m @ b
-1.71929	m @ d	0.08680589
-2.305556	m @ g
-1.920205	m @ h	-0.1108695
-1.842445	m @ k	-0.06419189
-1.420949	m @ l	-0.1197328
-1.842445	m @ m	0.08067948
-0.3352978	m @ n	-0.546996
-0.9932981	m @ r	0.03155988
-1.346742	m @ s	0.05377701
-1.163882	m @ t	-0.01998878
-2.014992	m @ z	0.3285309
-1.011219	n @ </s>
-2.195504	n @ J	-0.02718626
-0.665854	n @ R	1.26981
-2.195504	n @ S	-0.04366401
-2.026362	n @ _
-1.284727	n @ b	-0.06630346
-1.732394	n @ d	0.06618798
-2.195504	n @ f	-0.08269729
-2.026362	n @ g	-0.0924584
-1.513402	n @ k	-0.2473129
-1.11805	n @ l	-0.1184044
-1.193441	n @ m	-0.01423058
-1.084754	n @ n	-0.0660184
-2.026362	n @ p	-0.07736585
-0.9724165	n @ r	-0.1468178
-1.011219	n @ s	-0.2486419
-1.069017	n @ t	-0.09232378
-2.026362	n @ w	-0.1045456
-2.195504	n @ z	0.2807581
-2.015684	p @ </s>
-0.6613278	p @ R	1.275609
-1.721716	p @ T	-0.2722515
-2.184827	p @ _	-0.1166847
-1.799476	p @ b	0.0251236
-1.799476	p @ d	-0.0269835
-1.548005	p @ f	-0.2780972
-2.015684	p @ g
-1.721716	p @ k	-0.1775567
-1.107372	p @ l	0.118883
-1.598561	p @ m	-0.1255325
-1.028479	p @ n	0.09064743
-1.655787	p @ p	-0.1678997
-0.8725686	p @ r	0.1284036
-0.9039015	p @ s	-0.01096666
-1.226012	p @ t	-0.009352118
-1.42426	p @ v	-0.1841092
-2.184827	p @ w
-1.182763	p @ z	-0.004065096
-1.21639	r @ </s>
-1.162202	r @ R	1.56285
-2.372737	r @ S
-2.372737	r @ _	-0.09662135
-1.278316	r @ b	-0.1932037
-1.577685	r @ d	-0.1237917
-1.437277	r @ f	-0.203524
-1.909626	r @ g	-0.1928478
-1.437277	r @ k	-0.05712282
-0.7549378	r @ l	-0.4483408
-1.39176	r @ m	-0.1424442
-0.8193161	r @ n	-0.2694784
-1.312939	r @ p	-0.224947
-1.786471	r @ r	0.06025939
-0.9383199	r @ s	-0.2873832
-0.9781183	r @ t	-0.198366
-1.577685	r @ v	-0.09056365
-2.203594	r @ w	0.0007043779
-1.873505	s @ </s>
-0.9797837	s @ R	1.58608
-1.994927	s @ _	-0.1596731
-0.9053638	s @ b	-0.1961299
-1.873505	s @ d	-0.1408931
-1.577804	s @ f	-0.123411
-1.873505	s @ g
-1.527247	s @ k	-0.30112
-0.9535344	s @ l	-0.02940238
-0.9409816	s @ m	-0.4897847
-1.183093	s @ n	-0.06290716
-1.22861	s @ p	-0.2317843
-0.9664608	s @ r	0.05600441
-1.253293	s @ s	-0.1698137
-0.9797837	s @ t	-0.4453092
-1.527247	s @ v	-0.1300533
-2.164069	s @ z	0.2807581
-1.567996	t @ </s>
-0.4278959	t @ R	0.7662472
-2.478773	t @ S	-0.1329108
-2.478773	t @ _
-1.243485	t @ b	-0.1986297
-1.519958	t @ d	-0.2375721
-1.79667	t @ f	-0.04162223
-1.949733	t @ g	-0.03769067
-2.188208	t @ h
-1.567996	t @ k	-0.1578649
-1.243485	t @ l	-0.2029142
-1.156553	t @ m	-0.1143905
-0.9742693	t @ n	-0.4084761
-2.015662	t @ p	-0.1205531
-0.9552739	t @ r	-0.2436504
-1.519958	t @ s	0.01200286
-1.79667	t @ t	-0.1013855
-2.188208	t @ v
-1.622015	t @ w	-0.08519232
-2.093422	t @ z	0.1138102
-0.4926083	u @ R	1.988819
-0.5378882	u @ l	-0.1393477
-0.8841458	u @ n	-0.08176373
-1.17471	u @ t	0.06962822
-1.653054	v @ </s>
-2.116165	v @ J
-0.6116616	v @ R	1.293483
-1.947022	v @ S	-0.1051551
-2.116165	v @ _
-1.289165	v @ b	-0.206187
-1.393061	v @ d	-0.01010987
-1.947022	v @ f	-0.09621619
-2.116165	v @ g	-0.02940665
-1.8256	v @ h
-1.355599	v @ k	-0.1154234
-1.005415	v @ l	-0.1562083
-1.653054	v @ m	-0.0892654
-1.021744	v @ n	-0.1070724
-1.947022	v @ p	-0.07736585
-0.8690102	v @ r	0.002798378
-1.114102	v @ s	0.08841172
-1.157351	v @ t	0.1024238
-1.947022	v @ w
-2.116165	v @ z	0.2807581
-0.2212143	w @ d	-0.5699847
-0.9837977	w @ l	0.2025108
-1.127486	w @ n	-0.1455472
-1.049726	w @ t	0.06131807
-1.327459	z @ </s>
-0.586323	z @ R	1.636636
-1.030708	z @ b	-0.1924857
-1.126544	z @ d	-0.0741827
-1.126544	z @ l	0.04415543
-0.6183888	z @ m	-0.4602255
-1.183771	z @ n
-1.327459	z @ r	-0.09439676
-1.422245	z @ t	0.04233633
-1.71281	z @ v
-0.2186198	# D @	-0.07008499
-0.60206	$ D @
-0.5655432	1 D </s>
-0.7346855	1 D I	0.02220045
-0.6357431	3 D @
-0.4195346	3 D I	-0.113263
-0.8048855	5 D </s>
-0.8048855	5 D I	0.02220045
-0.8048855	5 D z
-0.8960282	<s> D #	0
-0.3830684	<s> D E	0
-1.065171	<s> D i
-0.1172519	E D @	0.01609564
-1.188326	I D $	0
-0.6592867	I D </s>
-0.60206	I D @	-0.08260155
-1.019183	I D I	-0.009366885
-1.019183	I D d	-0.03575985
-1.188326	I D l	0.1180993
-0.37787	Q D @
-0.1155987	V D @	-0.1394617
-0.60206	i D </s>
-0.7712024	i D @
-0.7712024	i D I	0.02220045
-0.5655432	u D </s>
-0.7346855	u D I	0.02220045
-0.2655577	{ D @	-0.1198883
-0.60206	5 E v	0.01652585
-0.7959244	<s> E @	-0.3115112
-1.896739	<s> E J
-1.479616	<s> E T	-0.2142654
-1.42906	<s> E _	-0.1191133
-1.775317	<s> E d	-0.1707138
-1.536843	<s> E f	-0.03854784
-1.479616	<s> E g	-0.1322657
-0.830594	<s> E k	-0.837103
-1.006084	<s> E l	-0.3484099
-0.9393949	<s> E m	0.004081547
-0.8682732	<s> E n	-0.1526287
-1.305316	<s> E p	-0.3342931
-1.680531	<s> E r	-0.08893857
-1.238882	<s> E s	-0.1510796
-1.536843	<s> E v	-0.08403233
-0.2498775	D E @	-0.03656498
-1.008194	I E @
-0.5450839	I E n	0.01344157
-0.6228436	I E s	-0.1419933
-0.8390521	I E t	0.04395294
-0.6643866	J E @	0.07149863
-0.4556003	J E k	0.03507896
-1.250652	J E r
-0.7875417	J E s	0.09532521
-1.238882	S E @
-0.8535312	S E d	-0.08131795
-1.238882	S E k	-0.1626131
-0.478316	S E l	-0.3896714
-1.238882	S E r	0.1032189
-1.238882	S E t	0.01619726
-1.06974	S E v
-0.8361432	T E r	0.0106453
-0.3730327	T E t	-0.1576584
-0.5470124	U E t	0.01619726
-0.7223538	_ E k	-0.3943375
-0.7887875	_ E l	-0.2538666
-1.380211	_ E m
-0.5683769	_ E n	-0.3333033
-0.7543017	_ E s	-0.410325
-1.086243	_ E t	0.02650556
-0.8211278	b E @	0.04247853
-0.7126683	b E d	-0.1034816
-1.262777	b E g	-0.1106715
-0.6893135	b E l	-0.3099518
-0.8875615	b E n	-0.264163
-1.185017	b E r	0.05823764
-1.262777	b E s	0.005192995
-1.357563	b E t	-0.1428714
-1.648128	b E v
-1.648128	b E z	-0.1469043
-1.207168	d E @	0.03162715
-1.567064	d E T
-1.207168	d E d	-0.09302276
-1.149941	d E f	-0.01012386
-0.9756407	d E k	-0.162661
-0.9756407	d E l	-0.08247042
-1.054105	d E m	-0.09599975
-0.9411547	d E n	0.01885346
-1.273096	d E p
-1.567064	d E r	0.1309746
-0.8794491	d E s	-0.1613532
-1.350856	d E t	-0.1166553
-1.273096	d E v	-0.09934437
-1.736207	d E z
-0.9057736	f E @	-0.0948101
-1.375775	f E D	0.3351613
-1.66634	f E J
-1.66634	f E S	0.09994632
-1.66634	f E d
-0.7308804	f E k	-0.3106253
-0.943236	f E l	-0.1664286
-1.375775	f E m	-0.03105891
-0.9057736	f E n	-0.2588927
-1.203229	f E r	0.05823764
-1.029518	f E s	-0.05602986
-1.029518	f E t	-0.07292767
-1.66634	f E z
-1.082614	g E n
-0.6972635	g E s	0.01949316
-0.4457923	g E t	0.01088578
-0.9279885	h E @	0.09187031
-1.643453	h E _
-0.4016171	h E d	-0.08731353
-1.643453	h E f	-0.01313432
-1.427244	h E k	-0.003466666
-0.9558374	h E l	-0.3555343
-1.349485	h E m	-0.08589157
-1.130493	h E n	-0.1820402
-1.175773	h E r	0.4047056
-1.349485	h E v	-0.21369
-1.52203	h E z	-0.13283
-0.6670008	j E l
-0.8361432	j E s
-0.6670008	j E t	-0.04685448
-0.5259158	k E @	-0.1358217
-0.9076536	k E J	0.2822805
-1.436693	k E l
-1.051342	k E m	-0.110594
-0.973582	k E n	-0.2022758
-1.26755	k E p	-0.04677882
-1.436693	k E r
-1.436693	k E s	0.02056894
-0.9076536	k E t	-0.1870105
-1.247074	l E @	-0.1433223
-1.638611	l E D	0.3351613
-1.929175	l E J	-0.0381428
-1.638611	l E N	0.003270328
-1.543825	l E S	-0.0393317
-1.760033	l E T	-0.09281155
-1.292354	l E _	-0.1522817
-1.929175	l E b	-0.1200813
-1.400136	l E f	-0.1257428
-1.206072	l E g	-0.04173279
-0.7586344	l E k	-0.3504115
-1.247074	l E m	-0.172388
-1.044569	l E n	-0.1751662
-1.466065	l E p	-0.2330596
-1.760033	l E r	0.1309746
-1.072418	l E s	-0.00580585
-1.102176	l E t	0.1111366
-1.102176	l E v	-0.04486597
-1.543825	l E z	-0.09412854
-1.488963	m E @	0.07149866
-1.779528	m E S	-0.1022382
-1.610385	m E T
-1.488963	m E Z	0.1691424
-1.018962	m E d	-0.3244357
-1.394177	m E g	-0.1106715
-1.193262	m E l	-0.3015249
-1.142706	m E m	-0.1665771
-0.4879053	m E n	-0.2138323
-1.250489	m E r	-0.05669856
-1.056424	m E s	-0.06190392
-0.9844758	m E t	-0.2465333
-1.368377	n E @	0.01246478
-1.537519	n E D	0.4532606
-1.537519	n E b	-0.1200813
-1.537519	n E g
-0.5565425	n E k	-0.02418676
-1.368377	n E l	-0.04018921
-1.537519	n E n
-0.8554172	n E s	-0.1079365
-0.60206	n E t	-0.04111147
-1.051226	p E @	-0.01068813
-1.846278	p E J	-0.1416244
-1.846278	p E S
-1.846278	p E b	-0.09258513
-1.209456	p E d	-0.1632227
-0.8241052	p E k	-0.1819887
-0.8048855	p E l	-0.1067246
-0.6109903	p E n	-0.164842
-1.460927	p E p	-0.1330183
-1.209456	p E r	0.228141
-1.317239	p E s	0.03314233
-1.164176	p E t	0.07301444
-1.823142	r E @	-0.03600867
-1.622227	r E J	0.01909539
-2.208493	r E N	0.1213696
-1.18632	r E S	0.07987404
-1.823142	r E T	0.001512185
-2.03935	r E Z	0.22419
-1.679453	r E _	-0.07212597
-0.8862733	r E d	-0.05859721
-1.57167	r E f	-0.020494
-1.823142	r E g	-0.07837208
-0.9732046	r E k	-0.2102006
-1.52639	r E l	-0.1924576
-1.52639	r E m	-0.03105891
-1.037951	r E n	-0.3550341
-1.351735	r E p	-0.08698559
-0.6975647	r E s	-0.05146843
-1.097743	r E t	-0.1204106
-1.485389	r E v	-0.1006894
-1.351735	r E z	-0.02345157
-1.467639	s E S	-0.1507786
-1.996678	s E _
-1.706114	s E d
-1.827536	s E g	-0.1239132
-0.9368806	s E k	-0.0294174
-0.8403312	s E l	-0.2864971
-1.273575	s E m	-0.2518098
-0.6744591	s E n	-0.4024164
-0.8701914	s E p	-0.4996028
-1.827536	s E r
-1.037864	s E s	0.04787558
-0.9946153	s E t	0.2525119
-1.533568	s E v	-0.1288422
-1.350152	t E @	-0.1227357
-1.936418	t E J	0.002666011
-1.551067	t E d	0.008309513
-0.9554412	t E k	-0.1978503
-0.825668	t E l	-0.3541156
-1.141366	t E m	-0.415681
-0.4870498	t E n	-0.253086
-1.407379	t E p	-0.2184095
-1.051811	t E r	0.04561555
-1.109418	t E s	-0.2721968
-1.551067	t E t	0.01512149
-0.60206	u E t	0.01619726
-1.036838	v E @	-0.2457863
-1.330806	v E _	-0.02349983
-1.114598	v E k	0.09415889
-1.114598	v E l	-0.2765764
-0.4224944	v E n	-0.5260125
-1.114598	v E r	0.3821178
-0.7393827	v E s	-0.139485
-0.5046986	w E @	-0.2870016
-1.354636	w E D	0.2863128
-1.739987	w E _
-1.449422	w E b	-0.04481234
-1.354636	w E d	0.1010635
-0.6801888	w E l	-0.2409329
-1.153721	w E n	-0.09778649
-1.570844	w E p	-0.1199296
-0.9129867	w E s	-0.2721968
-1.103164	w E t	0.2069986
-1.146128	z E S	0.09994632
-0.8555635	z E l	-0.1299002
-0.9769856	z E m	-0.04436345
-0.8555635	z E n	-0.01354191
-0.7607772	z E s	0.09794703
-0.9769856	z E t	-0.04685448
-0.5470124	D H </s>
-0.04157967	S H </s>
-1.793574	S H @	-0.1961392
-2.322613	S H l
-2.153471	S H s	0.255284
-1.562047	S H t	-0.0003250539
-1.685791	S H z	-0.003068358
-0.2655577	T H </s>
-0.06056327	Z H </s>
-0.3633219	d H </s>
-0.9589478	d H @	-0.1545599
-1.175156	d H h	-0.02001712
-1.175156	d H l	0.2274816
-1.175156	d H r	0.1478016
-1.344299	d H s
-0.9589478	d H t	0.3164556
-0.1993211	f H </s>
-0.4839607	k H I	0.1615998
-0.694814	p H I
-0.4709021	s H </s>
-1.303823	s H I	-0.1058709
-0.6162077	s H s	-0.06856656
-0.537506	s H t	0.05958569
-0.2385375	t H </s>
-1.380211	t H @
-0.9948604	t H I	0.2164514
-1.211069	t H d	0.22419
-1.211069	t H t	0.3452871
-0.3938946	v H </s>
-1.08151	v H I	0.0985481
-1.250652	v H l	0.2905333
-1.250652	v H s
-1.08151	v H t	-0.1173864
-1.250652	v H z
-0.478316	z H </s>
-0.8535312	z H @	-0.1268885
-1.06974	z H I	0.0985481
-1.06974	z H d	0.22419
-1.238882	z H l	0.2905333
-0.8535312	z H t	0.3164556
-2.787494	# I 1
-2.324384	# I 5	-0.06652233
-1.159836	# I </s>
-0.9191017	# I @	0.1123453
-2.150672	# I D	-0.1827529
-2.618352	# I E
-2.324384	# I I	-0.04239331
-2.618352	# I J	-0.07917495
-2.49693	# I Q
-2.787494	# I T
-2.201228	# I _	-0.2198959
-1.64582	# I b	-0.2313904
-1.083998	# I d	-0.3855677
-1.589885	# I f	-0.5263814
-2.026928	# I g	-0.4086639
-2.402143	# I i	0.01979469
-1.384619	# I k	-0.3235444
-1.096455	# I l	-0.5217275
-1.376516	# I m	-0.396426
-0.9107816	# I n	-0.5453984
-1.455537	# I p	-0.06296015
-2.201228	# I r	-0.3071995
-1.436693	# I s	0.02135265
-0.833022	# I t	-0.3475405
-1.446013	# I v	-0.1392052
-2.105392	# I w	-0.03000759
-1.159836	# I z	-0.5396183
-2.324384	# I {	-0.1426032
-0.4839607	$ I N	0.3813271
-0.652034	1 I N	0.2632278
-0.5572476	1 I k	-0.05552085
-0.9425985	1 I s
-0.9425985	1 I z	-0.1003873
-1.089647	5 I </s>
-0.4956047	5 I N	0.03596294
-1.380211	5 I S
-1.089647	5 I k	0.06839241
-1.211069	5 I n
-0.9948604	5 I s	-0.1588352
-0.9948604	5 I t
-1.380211	5 I z	-0.1003873
-1.676467	<s> I @	-0.1877804
-2.503466	<s> I J
-1.821364	<s> I N	-0.4761843
-2.503466	<s> I _	-0.1541166
-2.503466	<s> I b
-2.212902	<s> I d	-0.1683853
-1.780363	<s> I f	-0.1975159
-1.409045	<s> I g	-0.5403222
-1.134604	<s> I k	-0.7938161
-1.305858	<s> I l	-0.4155958
-0.79186	<s> I m	-0.7259531
-0.3057265	<s> I n	-1.235103
-2.212902	<s> I p	-0.1514895
-1.332925	<s> I r	-0.4036835
-1.59269	<s> I s	-0.3443518
-2.118115	<s> I t	-0.1048106
-1.676467	<s> I v	-0.4394236
-0.3912066	D I </s>
-0.441763	D I N	0.195803
-0.8960282	H I </s>
-0.2701185	H I N	0.03776526
-1.065171	H I _	0.2831472
-0.4787092	I I N	0.1512097
-0.9463888	I I S
-0.8249667	I I _	0.2558553
-0.8249667	I I s	-0.200794
-0.6936589	J I </s>
-1.100079	J I @	-0.1292315
-0.8340662	J I N	0.03776526
-1.459976	J I d
-1.629118	J I f	-0.1192011
-1.338554	J I k	-0.1055856
-1.100079	J I l	-0.02563964
-1.338554	J I m	-0.1966392
-1.100079	J I n	0.0009573326
-1.338554	J I p
-1.338554	J I t	0.1361724
-1.100079	J I z	0.003495067
-0.7491875	N I </s>
-0.3892909	N I N	0.2886883
-0.91833	N I S	0.0605287
-0.3179527	P I </s>
-0.4926083	P I N	0.119952
-1.17471	P I S
-0.8248033	Q I </s>
-0.9855002	Q I @	-0.3119294
-1.581126	Q I I	-0.1247254
-1.966477	Q I N
-1.966477	Q I b
-0.944304	Q I d	-0.1879855
-1.675912	Q I f	-0.112028
-1.966477	Q I k
-0.7311891	Q I l	-0.2830337
-0.7688683	Q I n	-0.4812664
-1.243373	Q I s	-0.1784258
-1.503366	Q I t	0.04247305
-1.243373	Q I z	-0.08836034
-1.354636	S I 1	-0.09539695
-1.449422	S I 5	0.02819255
-0.8292097	S I </s>
-1.210948	S I @	-0.2138209
-0.8045272	S I N	0.06187391
-1.739987	S I b
-1.210948	S I f	-0.2080882
-1.449422	S I n	-0.04691052
-0.5168987	S I p	-0.3668859
-1.739987	S I s	-0.08269471
-1.570844	S I v	-0.1003547
-1.570844	S I z	0.1161035
-0.7897331	T I </s>
-0.9837977	T I @	-0.07941389
-1.512837	T I I
-0.8760147	T I N	-0.1681698
-1.512837	T I Q
-0.7177848	T I k	0.1268732
-1.127486	T I l	-0.0390617
-1.343694	T I m	-0.1063757
-0.9837977	T I n	-0.1155538
-1.222272	T I s	-0.1219226
-0.6357431	U I n	-0.1204442
-0.6357431	U I s	-0.13781
-0.8048855	U I t
-1.857907	_ I 5	0.1462919
-0.6473715	_ I </s>
-1.688764	_ I @
-1.062855	_ I N	0.2365135
-1.857907	_ I S	-0.06949962
-1.688764	_ I b
-1.567342	_ I d	0.2133943
-1.394796	_ I g	-0.06405319
-1.030907	_ I k	-0.2670715
-1.328868	_ I l	-0.02563964
-1.271641	_ I m	-0.1670929
-0.9471298	_ I n	-0.2036347
-1.688764	_ I p	-0.1167916
-1.857907	_ I r
-1.394796	_ I s	0.2012206
-1.001149	_ I t	-0.1088395
-1.688764	_ I z	0.02529611
-0.9440381	b I </s>
-1.391476	b I @	-0.2998114
-2.114579	b I I
-1.945437	b I J
-1.477757	b I N	0.1512097
-1.391476	b I S	-0.1585814
-1.729228	b I _	0.1292985
-1.229973	b I d	-0.0207631
-1.528314	b I f	-0.1029989
-1.391476	b I g	-0.1984405
-1.391476	b I h	-0.141132
-1.287579	b I k	-0.06070882
-0.7546535	b I l	-0.06445569
-2.114579	b I m	-0.1612984
-1.203802	b I n	-0.3336263
-1.945437	b I r
-1.112516	b I s	0.1865421
-0.8914914	b I t	-0.1871745
-1.58554	b I z	-0.2722901
-2.238107	d I 1	0.2257791
-1.999633	d I 5	0.1811766
-0.9527147	d I </s>
-1.468874	d I @	-0.1226057
-1.06485	d I N	0.01366746
-1.372325	d I S	0.1882939
-1.805568	d I _	0.1214221
-1.701672	d I b	-0.2712655
-1.269966	d I d	-0.354802
-1.258714	d I f	-0.5475049
-1.73362	d I g	-0.0936102
-1.151053	d I k	0.0847227
-1.318137	d I l	-0.3366416
-1.526609	d I m	-0.2285493
-1.318137	d I n	-0.4950914
-1.593213	d I p	-0.2326668
-1.89185	d I r	-0.2121219
-0.7106975	d I s	0.2083663
-1.358131	d I t	-0.2251762
-1.468874	d I v	-0.4413252
-2.528672	d I w	-0.1260006
-1.569858	d I z	-0.4160411
-2.528672	d I {	-0.070879
-1.070451	f I </s>
-1.369326	f I @	-0.1189368
-1.256376	f I N	0.2841963
-0.7391702	f I S	-0.007703245
-1.882286	f I _	0.3109029
-1.666077	f I b	-0.06038897
-1.369326	f I d	-0.2181589
-1.760864	f I f	-0.1505273
-1.522389	f I g	-0.2402028
-0.9097545	f I k	-0.249672
-0.9916304	f I l	-0.08168274
-0.9916304	f I n	-0.5219447
-1.194671	f I s	0.07867694
-1.224428	f I t	-0.09808075
-1.522389	f I z	-0.2794991
-0.6687126	g I </s>
-1.670776	g I @	-0.07707722
-0.9476721	g I N	0.1658585
-1.141737	g I S	-0.05061811
-1.501633	g I _	0.3109029
-1.380211	g I b	-0.1958445
-0.9886737	g I d	0.002227664
-1.670776	g I f	-0.1232354
-1.501633	g I g	-0.1110538
-1.033954	g I l	-0.2974804
-1.08451	g I n	-0.1136372
-1.670776	g I s
-1.285425	g I t	0.01225919
-1.207665	g I v	-0.1051142
-0.7635629	h I @	-0.1949066
-1.486667	h I J
-1.101316	h I b	-0.1994359
-1.486667	h I k
-0.6916146	h I l	-0.1359635
-1.317524	h I m
-1.317524	h I n	-0.130238
-0.9576275	h I p	-0.08313907
-1.317524	h I r	-0.07260574
-1.101316	h I s	-0.08377048
-1.486667	h I t	0.08839965
-0.5024719	i I N	0.2612812
-0.9655824	i I s	-0.08269471
-0.7964401	i I t
-0.444121	j I @	-0.1335904
-0.6670893	k I </s>
-2.008875	k I J	-0.06737274
-0.7590849	k I N	0.2587023
-1.454913	k I S	-0.2494133
-1.792666	k I _	0.1161993
-2.178017	k I b
-1.351017	k I d	-0.02646798
-1.591751	k I k	0.03079398
-1.067267	k I l	-0.1989411
-1.887453	k I m	-0.03050318
-0.7670392	k I n	-0.4644102
-2.008875	k I p	-0.1002135
-2.008875	k I r	-0.02875573
-1.541195	k I s	0.02496827
-0.8759544	k I t	-0.2357445
-2.299526	l I 1	0.05470556
-2.500441	l I 5	0.07015139
-0.2841974	l I </s>
-1.863619	l I @	-0.2745357
-2.885792	l I D	-0.04777279
-2.885792	l I I
-1.234421	l I N	0.2580739
-1.759305	l I S	-0.002170622
-2.500441	l I T	0.1905871
-2.71665	l I Z	0.35757
-1.808337	l I _	-0.06193948
-1.904815	l I b	-0.2048583
-1.975015	l I d	-0.01813245
-2.001185	l I f	-0.2914252
-1.883729	l I g	-0.2777289
-2.71665	l I h
-1.414919	l I k	-0.09601623
-2.71665	l I l
-1.729445	l I m	-0.1401111
-1.429137	l I n	-0.5186533
-1.715251	l I p	-0.1847556
-2.422681	l I r	-0.2673648
-0.9003012	l I s	-0.762579
-1.374864	l I t	-0.355813
-1.775042	l I v	-0.1169598
-2.595227	l I w
-2.595227	l I z	-0.1276792
-2.313666	m I 1
-0.9817091	m I </s>
-1.5531	m I @	-0.1898266
-1.253869	m I N	0.02374434
-2.313666	m I Q
-1.631564	m I S	-0.01400048
-1.5531	m I T	-0.06417179
-1.784627	m I _	0.1982944
-1.187179	m I d	0.1359977
-2.144524	m I f
-1.676844	m I g	-0.1624536
-1.103131	m I k	-0.264246
-1.078378	m I l	-0.06798935
-2.144524	m I m	-0.09651337
-0.8027385	m I n	-0.4920079
-2.144524	m I r
-0.7059561	m I s	0.05932432
-1.078378	m I t	-0.2860636
-2.023102	m I z	-0.1276792
-0.9005973	n I </s>
-1.501304	n I @	-0.1505627
-2.561101	n I J
-1.259039	n I N	-0.1924554
-1.39056	n I S	-0.1360364
-1.974836	n I _	0.0867129
-2.17575	n I b
-1.924279	n I d	0.07455114
-1.734102	n I f	-0.1532864
-1.800535	n I g	-0.1623727
-1.050174	n I k	-0.2593708
-1.974836	n I l	0.009786874
-1.483647	n I m	-0.4029962
-1.924279	n I n	-0.2237087
-1.924279	n I p	-0.06028575
-0.3479	n I s	-1.181247
-1.291144	n I t	-0.2826739
-2.270537	n I v	-0.1133797
-2.391959	n I w
-2.391959	n I z	0.1161035
-0.9012809	p I </s>
-1.267884	p I @	-0.1723216
-2.203344	p I J
-1.019058	p I N	-0.02071804
-1.318737	p I S	-0.1576169
-1.912779	p I T	0.004634991
-1.817993	p I _	0.2050928
-1.292567	p I d	0.1555791
-2.034201	p I f	-0.1301955
-1.376344	p I g	-0.1792819
-0.9680558	p I k	-0.1310082
-1.161951	p I l	-0.03914005
-1.817993	p I m	-0.2452239
-0.9928087	p I n	-0.2236525
-1.912779	p I p
-1.674305	p I r	-0.07738187
-1.24453	p I s	0.09682253
-0.9117212	p I t	-0.1694724
-2.203344	p I {
-2.590489	r I #	-0.0820528
-2.296521	r I 1	0.4578036
-2.173366	r I 5	0.02492222
-0.5903494	r I </s>
-1.236133	r I @	-0.5845019
-2.590489	r I D
-2.759632	r I E	-0.02698918
-2.590489	r I I	-0.06046379
-2.12281	r I J	0.01725101
-1.206211	r I N	0.01991558
-1.757569	r I S	-0.1089724
-1.500926	r I _	0.1419759
-1.699834	r I b	-0.2564172
-1.524344	r I d	-0.06553346
-1.457569	r I f	-0.2786316
-1.536544	r I g	-0.369931
-2.590489	r I h	-0.1089582
-1.108262	r I k	0.137501
-1.575346	r I l	-0.2090223
-1.3407	r I m	-0.1515316
-1.382013	r I n	-0.2832239
-1.365013	r I p	-0.2424246
-1.056136	r I s	-0.07229936
-1.37343	r I t	-0.02101779
-1.549097	r I v	-0.5813586
-2.590489	r I w	-0.1138687
-1.562023	r I z	0.1772559
-2.469067	r I {	-0.02310621
-2.159831	s I 1	0.1193237
-0.8325969	s I </s>
-1.469419	s I @	-0.3155944
-2.159831	s I E	0.02078362
-1.180438	s I N	0.1917554
-1.987285	s I Z	0.118961
-1.86413	s I _	0.2365978
-1.86413	s I b	-0.03310844
-1.252787	s I d	-0.0816263
-1.593638	s I f	-0.2723804
-1.768294	s I g	-0.314029
-1.031464	s I k	-0.208057
-1.19169	s I l	-0.1689453
-1.279855	s I m	-0.2024043
-1.015979	s I n	-0.134662
-1.813574	s I p	-0.1290331
-1.86413	s I r	-0.1472684
-1.19169	s I s	-0.150371
-1.203241	s I t	-0.2812977
-1.001028	s I v	-0.6282452
-1.469419	s I z	-0.1913722
-2.652477	t I 1	-0.09703738
-2.652477	t I 5
-0.5696912	t I </s>
-1.611084	t I @	-0.112814
-2.652477	t I J
-1.019971	t I N	-0.05162764
-2.652477	t I Q
-1.7417	t I S	-0.04472262
-2.652477	t I Z	-0.1184635
-1.7417	t I _	-0.09314835
-2.361912	t I b	-0.08917014
-1.147973	t I d	-0.7160246
-1.575022	t I f	-0.2236938
-1.929373	t I g	-0.2039694
-0.8100457	t I k	-0.6723028
-1.257858	t I l	-0.2138652
-1.7417	t I m	-0.2714968
-1.283614	t I n	-0.28868
-1.857425	t I p	-0.1902653
-2.267126	t I r	-0.2067083
-1.382519	t I s	-0.2473701
-1.857425	t I t	-0.1756005
-1.104878	t I v	-0.7204722
-2.015655	t I z	0.01403034
-0.6679885	u I </s>
-1.131099	u I N
-0.7457482	u I S	0.07848009
-0.9619566	u I d	0.1933772
-0.9619566	u I s	-0.05493903
-1.131099	u I t	0.08839965
-1.631683	v I 1	0.1769305
-1.106256	v I </s>
-1.132427	v I @	-0.1585323
-0.9756407	v I N	-0.09215742
-1.256467	v I S	-0.0949533
-1.334931	v I Z	0.06843925
-1.487994	v I _	0.2904582
-1.256467	v I d	0.2113912
-1.631683	v I g	-0.2010684
-1.132427	v I k	-0.07181996
-1.256467	v I l	0.02380133
-1.160276	v I n	-0.07440676
-1.847891	v I r	-0.1124315
-1.190034	v I s	0.1253017
-1.01497	v I t	-0.02026838
-1.553923	v I v	-0.1506756
-1.190034	v I z	-0.09864575
-1.3057	w I @	-0.1969786
-1.3057	w I D	-0.07168677
-1.859661	w I E	-0.1175371
-1.391981	w I J	-0.005834162
-1.201804	w I N	0.380447
-1.499765	w I S	0.03965823
-2.028804	w I _	0.2831472
-2.028804	w I b
-1.346702	w I d	-0.01727509
-1.643453	w I f	-0.05629456
-1.391981	w I g	-0.331596
-1.233752	w I k	-0.1206191
-1.172046	w I l	-0.2327984
-1.565693	w I m	-0.16598
-0.6968463	w I n	-0.2945475
-1.442538	w I p	-0.02911423
-1.201804	w I s	-0.3497234
-1.069989	w I t	-0.03835785
-1.859661	w I v	-0.1003547
-1.3057	w I z	0.2743525
-0.6268128	z I </s>
-1.374237	z I @	-0.1313015
-1.010348	z I N	0.0134967
-1.155246	z I S	-0.3308747
-1.668205	z I _	0.2200954
-1.837348	z I b
-1.451997	z I d	-0.07520409
-1.668205	z I g
-1.374237	z I k	0.0422415
-1.114244	z I l	-0.3861099
-0.9527413	z I n	-0.406234
-1.546783	z I p	0.01376644
-1.374237	z I s	-0.2027406
-0.9527413	z I t	-0.132055
-1.668205	z I z	0.02529611
-0.429514	# J </s>
-0.8926246	# J @
-0.7374642	$ J </s>
-0.6426778	$ J @	0.2232744
-0.8588863	$ J U	0.4447946
-1.028029	$ J n	-0.04777279
-1.028029	$ J u	-0.07475627
-0.37787	1 J @
-0.617089	3 J </s>
-0.617089	3 J @	0.04061788
-0.8555635	3 J I	-0.05612575
-0.8555635	3 J U	0.389747
-0.3080918	5 J </s>
-0.7087921	<s> J #	0.09144706
-1.750185	<s> J $
-1.092327	<s> J 1	0.007670581
-1.390288	<s> J 3	0
-1.750185	<s> J 5	-0.01807047
-0.8418728	<s> J E	-0.02041447
-0.7350414	<s> J I	-0.4367637
-1.750185	<s> J Q	0
-1.158761	<s> J V	0
-1.00855	<s> J i	-0.107326
-1.919327	<s> J u
-0.9838679	<s> J {	0.01896781
-0.5455787	@ J @	0.04328388
-0.8361432	@ J I
-0.7753034	E J </s>
-0.5743886	E J @	0.1029806
-0.4785522	E J I	-0.2862063
-1.160654	E J U
-0.5921667	I J </s>
-0.8521599	I J @	0.0804894
-0.7862314	I J I	-0.03957877
-1.146128	I J U	0.4447946
-1.31527	I J b
-0.4101745	Q J </s>
-0.6616457	Q J I	-0.01155701
-0.3713724	U J </s>
-0.7176299	U J @	0.209156
-1.008194	U J I
-0.5864922	V J </s>
-0.8249667	V J @	-0.1078727
-0.5864922	V J I	0.009826086
-1.115531	V J l	-0.03826925
-0.4334292	i J </s>
-0.5864922	i J @	0.1405127
-1.115531	i J I
-0.3892909	k J @	0.0765304
-0.6277654	k J U	0.389747
-0.6509085	l J </s>
-0.4817662	l J @	-0.1278898
-1.310728	n J #
-0.3235228	n J </s>
-0.7567663	n J @	0.02758658
-1.189305	n J I	-0.1017554
-1.47987	n J l	0.04632625
-1.47987	n J t
-0.3094632	p J @	-0.00556469
-1.028029	s J #
-0.3049251	s J @	-0.04880175
-1.028029	s J E	0.0145538
-0.6670008	u J </s>
-0.5455787	u J @	0.209156
-0.8361432	u J U	0.5078464
-0.6571075	{ J </s>
-0.7433891	{ J @	0.1146466
-0.9171007	{ J I	-0.03822713
-1.380211	{ J l
-1.089647	{ J m	0.1691424
-1.380211	{ J r	0
-1.089647	{ J t	0.03009541
-1.211069	{ J w	0.02883145
-0.3080918	E N T	0
-0.142203	I N </s>
-2.085308	I N @	0.07773334
-2.163068	I N I	0.03333819
-2.548419	I N S
-2.163068	I N b	-0.02922054
-2.379276	I N d
-1.406745	I N g	-0.2020239
-1.057057	I N k	-0.04866421
-1.197617	I N l	0.01657814
-2.548419	I N n	0
-2.548419	I N t
-1.35081	I N z	-0.06818283
-0.4430981	Q N </s>
-1.368377	Q N I	0.08275618
-1.537519	Q N S	-0.04777279
-1.368377	Q N b	-0.02001712
-1.537519	Q N d
-1.00848	Q N g	-0.05877802
-1.368377	Q N h	-0.06197597
-0.7105194	Q N k	0.01870587
-1.537519	Q N l	0.7554892
-1.368377	Q N s	0.1828084
-0.7498616	V N </s>
-0.7498616	V N g	0.03232083
-0.3166181	V N k	-0.157901
-1.303823	V N s	0.09200098
-1.00853	{ N </s>
-1.383745	{ N @	0.0753459
-1.478531	{ N I	0.1027733
-0.5460081	{ N g	0.07601953
-0.3581179	{ N k	-0.1926408
-1.769096	{ N s	0.1550527
-0.1192616	S P </s>
-1.160654	S P I	0.1120305
-0.37787	T P </s>
-0.4839607	Z P </s>
-0.05077965	b P </s>
-2.07118	b P @	0.4532606
-1.68583	b P I	-0.05491734
-1.780616	b P d	0.1094291
-2.07118	b P n	0.09107041
-2.07118	b P w
-1.902038	b P z	0.4810163
-0.1473652	d P </s>
-1.175616	d P @	0.3332147
-1.348162	d P I	-0.1222608
-1.469584	d P b
-1.638727	d P d	0.2275284
-1.638727	d P s	0.001075774
-1.638727	d P w
-0.2147781	f P </s>
-1.099385	f P m	0.2507249
-0.1136994	g P </s>
-1.405322	g P I
-1.405322	g P n
-1.23618	g P z	0.4810163
-0.05167023	k P </s>
-1.643453	k P I
-1.812595	k P b
-1.812595	k P d	0.2275284
-1.812595	k P z	0.5440681
-0.1705304	m P </s>
-0.062485	n P </s>
-1.51914	n P I
-0.1090108	p P </s>
-1.344299	p P _	0
-1.344299	p P d	0.2275284
-0.09928616	s P </s>
-1.380211	s P @	0.4532606
-1.380211	s P I	0.1120305
-1.380211	s P d
-0.2067402	t P </s>
-1.704722	t P @	0.4532606
-1.414158	t P I	0.403508
-1.241612	t P d	0.2648888
-1.414158	t P f
-1.704722	t P m	0.2507249
-1.414158	t P n	0.1100715
-1.704722	t P r
-1.704722	t P s
-1.319371	t P z	0.3771202
-0.2240866	v P </s>
-1.334837	v P @	0.4532606
-1.334837	v P I
-1.334837	v P d
-0.9494857	v P r	-0.007030398
-0.1444609	z P </s>
-1.238882	z P @	0.4532606
-1.238882	z P d	0.2275284
-1.029149	<s> Q I	-0.2623056
-0.9627151	<s> Q b	-0.248058
-1.404364	<s> Q d
-0.994663	<s> Q f	-0.1407059
-0.9627151	<s> Q k	-0.4706399
-1.789715	<s> Q l	0.01373665
-1.789715	<s> Q m
-0.8542557	<s> Q n	-0.3831325
-0.8087382	<s> Q p	-0.5235609
-1.029149	<s> Q r	0.280329
-1.152893	<s> Q s	-0.194986
-1.789715	<s> Q t
-0.6277654	I Q l	-0.1308792
-0.91833	I Q s
-0.91833	I Q t	-0.0858264
-0.5470124	J Q p
-0.7384166	S Q d	-0.1296851
-1.032385	S Q k
-0.4784235	S Q p	-0.1365878
-0.5647051	S Q t	-0.1432398
-0.60206	T Q l	0.0149758
-0.3359252	_ Q I	-0.3951228
-1.122815	_ Q b
-1.122815	_ Q g
-1.244237	_ Q k
-1.41338	_ Q l
-1.244237	_ Q n	-0.05286506
-1.41338	_ Q s
-1.244237	_ Q t
-1.578306	b Q D	0
-0.6366988	b Q I	-0.2238902
-1.747449	b Q N
-1.065347	b Q b	-0.07695979
-1.024345	b Q d	-0.2472462
-1.456884	b Q g
-0.8119895	b Q k	-0.42362
-1.362098	b Q l	0.01266088
-1.161183	b Q m	-0.05413458
-1.161183	b Q n	-0.245601
-1.578306	b Q r	-0.1072597
-1.456884	b Q s	-0.05418787
-1.21841	b Q t	-0.2577478
-1.486667	d Q I
-1.486667	d Q N
-1.317524	d Q _	-0.06221479
-1.486667	d Q d
-0.60206	d Q g	0.05647132
-0.9004009	d Q k	0.0618414
-1.101316	d Q l	0.05012664
-0.9576275	d Q m	-0.2765866
-1.196102	d Q n	-0.06401214
-1.486667	d Q p
-1.101316	d Q s	-0.08571432
-1.486667	d Q t
-0.871726	f Q I	-0.1284775
-0.9494857	f Q g	0.1086698
-1.334837	f Q k	-0.06386812
-1.165694	f Q l	-0.1202369
-0.8057975	f Q n	-0.1326554
-0.6117329	f Q r	0.3076521
-1.044272	f Q s
-1.22797	g Q I
-1.106547	g Q b	-0.07135589
-0.4863352	g Q d	-0.1114087
-1.106547	g Q g	0.07331379
-1.106547	g Q l	-0.1002198
-0.8680729	g Q n	-0.1879244
-1.106547	g Q s	-0.05418787
-1.458818	h Q N	-0.0786415
-1.168253	h Q b	-0.1824823
-1.168253	h Q g
-1.289675	h Q k	-0.001676276
-0.8219956	h Q l	0.1217243
-1.168253	h Q m	-0.05315362
-1.289675	h Q p
-0.8725519	h Q r	0.3089971
-0.9957071	h Q s	-0.2280294
-0.8725519	h Q t	-0.2035372
-1.458818	h Q v
-0.7712024	j Q b
-0.4806378	j Q n	-0.1322815
-0.7712024	j Q t
-1.229905	k Q I	-0.02727407
-1.76634	k Q J	0.01387641
-1.374803	k Q N	-0.3846446
-2.056905	k Q _	-0.01186024
-1.671554	k Q b	-0.05622217
-1.593794	k Q d	-0.04276875
-1.374803	k Q f	-0.2346779
-1.887762	k Q g	-0.1333148
-0.9005576	k Q k	0.1429773
-1.034732	k Q l	0.02083349
-0.8863637	k Q m	-0.1449975
-0.696979	k Q n	-0.1745275
-1.229905	k Q p	-0.1843704
-1.333801	k Q r	0.3076521
-1.470639	k Q s	-0.1739254
-1.333801	k Q t	-0.07135588
-1.671554	k Q z	-0.1163863
-0.9940475	l Q I	-0.2607274
-1.662297	l Q J	0.104398
-0.8584404	l Q N	-0.2599571
-1.952862	l Q S	0.1791555
-1.229758	l Q T	-0.1794996
-1.366596	l Q _	-0.02964494
-1.423823	l Q b	-0.005960032
-1.783719	l Q d	-0.004021853
-1.662297	l Q f	-0.1997575
-1.042085	l Q g	-0.02804127
-0.8111879	l Q k	-0.07157663
-1.567511	l Q l	0.2077128
-1.952862	l Q m	-0.1257951
-1.662297	l Q n	-0.03284794
-1.31604	l Q p	-0.2362726
-1.31604	l Q r	0.275314
-1.229758	l Q s	-0.1993534
-1.15781	l Q t	0.007550001
-1.313559	m Q I	-0.1744696
-1.604123	m Q T
-1.604123	m Q b
-0.6686639	m Q d	-0.275718
-1.604123	m Q g
-0.9220211	m Q k	-0.3538012
-1.075084	m Q l	-0.007133812
-0.7473655	m Q n	-0.2501885
-1.075084	m Q r	-0.0009675622
-1.218772	m Q s	-0.08571432
-1.218772	m Q t
-0.7674753	n Q I	-0.2032254
-0.9421309	n Q b	-0.1703181
-1.624233	n Q d
-0.9011293	n Q k	-0.1367503
-1.238882	n Q l	0.1149588
-0.9874108	n Q m	-0.2626166
-0.9421309	n Q n	-0.1837597
-1.455091	n Q s	-0.1156076
-1.037967	n Q t	0.02454296
-1.333668	n Q v	-0.02182844
-0.8352847	p Q I	-0.4658529
-1.837348	p Q _
-1.837348	p Q d	-0.08731857
-1.076782	p Q k	0.02313954
-0.9265711	p Q l	-0.07318473
-1.374237	p Q m	-0.07915197
-0.8563712	p Q n	-0.1154633
-1.010348	p Q p	0.09501773
-1.076782	p Q s	-0.03192186
-0.7429267	p Q t	0.0161323
-1.668205	p Q z	-0.04184555
-1.107017	r Q I	-0.08191238
-1.934017	r Q J
-1.173451	r Q N	-0.03673972
-1.404978	r Q T	0.2090628
-1.934017	r Q _
-1.643453	r Q b	-0.08976096
-1.548666	r Q d	-0.02441205
-1.643453	r Q f
-1.404978	r Q g	0.06042576
-1.049411	r Q k	0.04014957
-1.470907	r Q l	-0.1063093
-1.138965	r Q m	-0.02506387
-1.138965	r Q n	-0.08695212
-0.8926246	r Q p	-0.1013962
-0.7364085	r Q s	-0.06686682
-1.347751	r Q t	0.02454296
-1.548666	r Q v	-0.03419089
-1.152168	s Q I	-0.02058966
-1.152168	s Q N	0.02037027
-1.368377	s Q _	-0.1127712
-1.074409	s Q d	-0.02613874
-0.9006972	s Q f	-0.1658804
-1.537519	s Q g	-0.07429474
-0.7105194	s Q l	0.1488372
-1.152168	s Q m	-0.1039597
-1.152168	s Q n	-0.1128607
-1.368377	s Q p	-0.02106944
-1.246955	s Q r	-0.1623073
-1.537519	s Q t
-1.537519	s Q v	-0.1229559
-1.15478	t Q I	-0.1863823
-1.514676	t Q N	0.04920173
-1.683819	t Q S	0.1791555
-1.683819	t Q _
-1.514676	t Q d	-0.08976935
-1.514676	t Q f	-0.04375495
-0.7483594	t Q k	-0.09437281
-1.298468	t Q l	-0.01385565
-1.001717	t Q m	-0.03504963
-0.960715	t Q n	-0.2263806
-0.6616457	t Q p	-0.06176841
-1.298468	t Q r	-0.03589581
-1.683819	t Q s	-0.08463854
-1.514676	t Q t	-0.08236193
-0.3447695	v Q I	-0.3247579
-1.201527	v Q k
-0.4784235	v Q l	-0.2825809
-1.080074	w Q J	0.1332954
-0.7308804	w Q S	0.1410304
-1.280989	w Q b	-0.173233
-1.080074	w Q d	-0.3077469
-1.66634	w Q f
-1.66634	w Q g	0.02554099
-1.029518	w Q l	0.02693808
-1.375775	w Q m	-0.1254449
-0.8393399	w Q n	-0.172153
-1.375775	w Q p	-0.00105232
-1.203229	w Q r	0.3853855
-1.497197	w Q s	-0.1108245
-1.080074	w Q t	-0.04557441
-0.5256717	z Q l	-0.2047181
-0.03718621	# R </s>
-0.02327618	$ R </s>
-0.05624287	3 R </s>
-0.001332716	@ R </s>
-0.9655824	# S </s>
-0.5802315	# S @	-0.1156134
-0.7964401	# S I	-0.1292452
-0.7964401	# S P	0.3837875
-1.028029	$ S $
-0.8588863	$ S @	-0.0002220869
-0.3912066	$ S H	0.7757454
-0.9842191	1 S @	-0.2140781
-0.08497544	1 S H	-0.2604361
-1.753452	1 S I	-0.1092281
-1.658666	1 S P	0.3706988
-2.044017	1 S n	-0.08905298
-0.7920499	3 S @
-0.2258568	3 S H	0.385194
-0.5322371	5 S @	0.01281881
-0.4912355	5 S H	0.7555487
-0.9237746	5 S I
-1.214339	5 S P	0.4468392
-1.070869	<s> S #	0.07803988
-1.114118	<s> S $	-0.2398022
-0.9785111	<s> S 1	-0.09239227
-1.609822	<s> S 3	0.03500679
-1.216175	<s> S 5	-0.02933626
-1.609822	<s> S @	-0.2123204
-1.137473	<s> S E	-0.02584445
-0.9464453	<s> S I	-0.2099754
-1.188326	<s> S Q	0.2141163
-1.543893	<s> S U	-0.04805672
-1.349829	<s> S V	0.02732316
-1.216175	<s> S i	0.02023876
-2.072932	<s> S n
-1.162156	<s> S r	-0.02919501
-1.90379	<s> S u
-0.8886465	<s> S {	0.01177025
-0.8414331	@ S $	-0.09037329
-0.9362194	@ S 1	-0.1905168
-1.057642	@ S E
-0.5899619	@ S I	-0.2453387
-1.226784	@ S Q	-0.03457133
-1.057642	@ S i	-0.1613809
-1.057642	@ S u	-0.02825824
-0.82452	E S </s>
-0.8904485	E S @	-0.1923401
-0.3313861	E S H	0.4172639
-1.353559	E S I
-0.3813942	I S </s>
-0.9397213	I S @	0.1558019
-2.124007	I S E
-0.6746389	I S H	0.2498264
-1.297007	I S I	-0.2569696
-1.660897	I S P	0.401858
-2.124007	I S b	-0.08428962
-2.124007	I S k
-1.14303	I S l	-0.009849906
-1.400903	I S n	-0.1533193
-1.738656	I S t	0.04852077
-2.124007	I S w
-0.60206	N S $
-0.2555251	Q S </s>
-1.045197	Q S @	-0.1011046
-1.214339	Q S I
-1.214339	Q S k
-0.8182685	U S </s>
-0.9874108	U S H	0.8668158
-0.8182685	U S I	-0.07530355
-0.4101745	V S </s>
-1.004216	V S @	0.1106025
-1.004216	V S H	0.7487165
-0.6579589	V S I	-0.2530699
-1.294781	V S w
-0.5329791	d S I	-0.1821691
-0.91833	d S i
-0.6524207	i S </s>
-0.9463888	i S @	-0.0002220869
-0.5292655	i S H	0.5795741
-1.115531	i S i
-1.583037	k S $
-0.8599331	k S @	-0.09409901
-0.1884183	k S H	0.01252401
-1.413894	k S Q	0.03048576
-1.413894	k S U	-0.1304792
-1.583037	k S i
-0.271575	l S H	0.6559624
-0.60206	m S E	0.002783597
-1.458818	n S #	0.02460475
-1.289675	n S $
-0.9297786	n S @	0.1129052
-0.3643964	n S H	0.5041013
-1.168253	n S I	-0.1333206
-0.9957071	n S P	0.2359859
-1.289675	n S Q
-1.146128	p S 1
-0.8555635	p S @	0.03553776
-0.2615215	p S H	0.3633656
-0.7346855	t S 3
-0.3635855	u S H	0.7068983
-1.577601	{ S 1	-0.1209607
-0.4668512	{ S </s>
-0.9407791	{ S @	-0.2814676
-0.9407791	{ S H	0.7889811
-0.7506014	{ S I	-0.3820962
-1.408459	{ S b
-1.577601	{ S k	-0.08428962
-1.408459	{ S l	0.5991156
-1.577601	{ S n
-1.408459	{ S t	0.2432243
-0.4135595	# T </s>
-0.652034	# T r
-0.9302422	$ T $	-0.01051357
-0.9302422	$ T </s>
-0.7140337	$ T @	-0.02967861
-1.099385	$ T Q
-1.099385	$ T i	-0.06322974
-0.8088201	$ T w	-0.02182844
-0.7712024	1 T I	-0.1591689
-0.60206	1 T f	0.2891308
-0.4640259	3 T </s>
-1.146128	3 T I
-0.9769856	3 T l	0.2313276
-0.9769856	3 T w	-0.09520021
-0.2186198	5 T </s>
-1.747449	<s> T #
-1.362098	<s> T $	0.02463727
-1.024345	<s> T 3	0
-1.578306	<s> T E	-0.07649846
-0.6366988	<s> T I	-0.4496978
-0.920449	<s> T V	0
-1.21841	<s> T i	-0.05532849
-0.5121609	<s> T r	0.02751976
-1.747449	<s> T w
-1.456884	<s> T {	-0.02621612
-0.4005123	@ T </s>
-0.913472	@ T E	0.09432855
-1.082614	@ T H	0.1669479
-0.913472	@ T I	-0.1588618
-0.9463888	E T </s>
-0.9463888	E T @
-0.4787092	E T I	-0.2003607
-1.115531	E T l	0.2943794
-0.9463888	E T n	0.05504757
-0.4141443	I T </s>
-0.5884447	I T I	-0.009193718
-1.17471	I T Q
-0.5256717	N T </s>
-0.2381707	Q T </s>
-1.065171	Q T f	0.3521825
-0.696159	U T </s>
-0.5747369	U T w	-0.02182844
-0.4839607	V T I	-0.1107101
-0.6509085	f T @
-0.444121	i T </s>
-0.5072737	l T </s>
-0.429514	l T I	-0.1836444
-0.3477105	n T </s>
-1.17471	n T @
-1.17471	n T I
-1.17471	n T Q	-0.04777279
-1.005568	n T r
-0.6509085	s T E	0.06657287
-0.4817662	t T </s>
-0.4607309	u T </s>
-0.8778542	u T l	0.2313276
-1.046997	u T p
-0.4507923	{ T </s>
-0.6670008	{ T l	-0.1000994
-1.179954	# U </s>
-1.030005	# U @	0.0454343
-2.321628	# U I
-1.526576	# U J	0.08986452
-1.598524	# U T	0
-2.152486	# U b
-1.340651	# U d	-0.1178768
-2.321628	# U h
-1.319565	# U l	0.02121311
-2.321628	# U m	-0.05454819
-0.582772	# U n	-0.01780522
-2.321628	# U p
-0.9994087	# U s	0.01758522
-0.6060225	# U t	-0.123703
-1.46487	# U z	-0.1112652
-0.1016377	J U @	-0.4014961
-0.6670008	S U @	-0.132268
-0.5455787	S U g	-0.09722884
-0.360344	Z U @	-0.1873155
-0.4219288	_ U @	-0.004685014
-1.008194	_ U g
-0.6228436	_ U k	-0.2161925
-1.330806	b U @	-0.02314604
-1.330806	b U J	-0.05258817
-1.036838	b U S
-0.315663	b U k	-0.160338
-0.7048968	b U l	-0.1886253
-1.499949	b U z	-0.1080208
-0.5470124	d U @	-0.05090172
-0.1109864	f U l	-0.634431
-0.6987075	f U t	-0.2049525
-0.3730327	g U d	-0.1104648
-0.3420669	h U d	-0.2380756
-0.60206	h U k	0.123277
-1.475415	j U 1	0.04390547
-0.3311154	j U @	-0.1896546
-1.397655	j U b	-0.0613247
-0.5485077	j U l	-0.7193997
-1.475415	j U m	-0.1097656
-1.860766	j U n
-1.691623	j U p
-1.397655	j U r	-0.0690809
-1.691623	j U t
-0.7234821	k U S	-0.09777676
-0.2558025	k U k	-0.07314033
-0.3730327	l U @	-0.2150943
-0.5455787	l U k	0.09629357
-0.37787	n U k	-0.01453097
-0.7140337	p U S
-1.099385	p U d
-0.6362741	p U l	0.01871338
-0.7140337	p U t	-0.07152519
-0.8620532	r U @	-0.09743905
-1.325164	r U I	-0.05844394
-0.9398128	r U k	-0.03633201
-0.2653659	r U m	-0.3641277
-0.5655432	s U I	-0.03068826
-0.7346855	s U t
-0.2362279	t U @	-0.1668721
-0.2385375	w U d	0.03155637
-0.7433891	w U l	-0.1841834
-0.9171007	w U m	-0.2654015
-2.095086	<s> V D	0.4586379
-2.095086	<s> V S	-0.12742
-2.095086	<s> V g	-0.1280353
-1.631976	<s> V l	-0.1023075
-1.709735	<s> V m	-0.08335277
-0.1204211	<s> V n	-0.5967948
-0.8845512	<s> V p	-0.3498585
-1.925944	<s> V t	-0.1092378
-0.8926246	J V N	0.1132706
-0.7234821	J V b	-0.06680435
-0.7234821	J V k
-0.8926246	J V m
-0.7234821	S V f	-0.176676
-0.8926246	S V k
-0.7234821	S V t	-0.1098372
-0.8926246	S V v
-0.9425985	T V g
-0.652034	T V m	0.02547191
-0.7734562	T V n	-0.1420712
-0.652034	T V r	-0.1870201
-0.8841458	_ V N	0.08597866
-0.8841458	_ V _	0.01387641
-0.7893595	_ V g
-0.7115998	_ V m	-0.1423468
-0.6456713	_ V s	-0.06207576
-1.146128	b V N	0.1279472
-1.506025	b V _	-0.0612973
-1.675167	b V b
-1.384603	b V d	-0.09792271
-1.384603	b V f	0.009213224
-1.088901	b V g	-0.06455398
-0.9520634	b V k	0.004611194
-1.038345	b V l	-0.2644147
-1.038345	b V m	-0.1445756
-1.088901	b V n	-0.08065158
-0.993065	b V s	0.1672031
-0.8184094	b V t	-0.1568581
-1.384603	b V z	-0.08218674
-1.604123	d V J	-0.042457
-1.313559	d V N
-1.218772	d V b	-0.1461352
-1.604123	d V d
-1.604123	d V f
-1.604123	d V g
-0.5819502	d V k	-0.270014
-1.218772	d V l	-0.05840201
-0.8435571	d V m	-0.01443447
-1.313559	d V n	-0.1755004
-1.434981	d V p	-0.1039089
-0.8090711	d V s	-0.1114964
-1.313559	d V v	-0.06227542
-0.8535312	f V N	0.1189702
-1.238882	f V d	-0.1081521
-1.06974	f V k
-1.238882	f V l
-1.238882	f V m	-0.09391317
-0.7757716	f V n	-0.1622826
-1.238882	f V r
-0.7757716	f V s	-0.2095956
-1.238882	f V z
-1.444194	g V S
-0.8073714	g V l	-0.1334682
-1.275051	g V m
-0.5595869	g V n	-0.1186904
-1.058843	g V s	0.02170125
-0.8579278	g V t	-0.04918739
-0.981083	g V v	-0.1608719
-1.444194	g V z	-0.007154942
-1.353559	h V N	0.1132706
-1.184417	h V b
-1.353559	h V k
-1.184417	h V l
-0.82452	h V m	0.06695344
-0.6304554	h V n	-0.363928
-1.184417	h V r	0.1980781
-1.062994	h V s	-0.06787875
-1.353559	h V t
-0.360344	j V N
-1.564464	k V S	-0.2455193
-1.685886	k V b
-1.564464	k V d	-0.06037933
-1.391918	k V f	-0.1509458
-0.7606073	k V l	-0.426054
-0.7952308	k V m	-0.1856014
-1.391918	k V n	-0.2230797
-0.9442517	k V p	-0.2964752
-1.391918	k V r	0.4139591
-1.059977	k V s	-0.04291135
-0.8740517	k V t	0.07498413
-1.094463	k V v	-0.35284
-1.855029	k V z	-0.1299595
-1.789715	l V J
-1.260676	l V N	0.1279472
-1.203449	l V S	-0.1342788
-1.404364	l V b	-0.1024067
-0.994663	l V d	-0.1549335
-1.404364	l V f	-0.03799956
-1.260676	l V g	-0.003354698
-1.029149	l V k	-0.1219118
-0.7122605	l V m	0.173885
-1.326604	l V n	-0.2766157
-1.620573	l V r	0.1980781
-1.260676	l V s	0.03457752
-1.203449	l V t	-0.1118684
-0.9051084	l V v	0.04639569
-1.189642	m V D	0.2477845
-1.652753	m V J	-0.042457
-1.066487	m V N	0.1678188
-1.48361	m V S
-1.652753	m V _
-1.267402	m V d
-1.267402	m V f
-1.015931	m V g	-0.07324481
-1.362188	m V k	-0.1143763
-1.015931	m V l	-0.1752595
-1.066487	m V m	-0.1272866
-1.015931	m V n	-0.2947641
-0.8921866	m V s	0.1030275
-1.48361	m V t	-0.01843035
-1.362188	m V z	-0.06024801
-1.371508	n V T	0
-0.9861568	n V f	-0.04035108
-1.080943	n V g
-1.371508	n V l
-0.8424686	n V m	-0.1147836
-0.8424686	n V n	-0.09277986
-1.371508	n V p	-0.04085712
-0.6484039	n V t	-0.09251228
-1.493358	p V N	0.1132706
-1.030248	p V b	-0.2297661
-1.493358	p V d
-1.108008	p V f	-0.1770465
-1.493358	p V g
-1.324216	p V k
-0.7327924	p V l	-0.3812652
-1.324216	p V m
-0.6663586	p V n	-0.3480524
-1.493358	p V p	-0.1456423
-1.493358	p V s
-1.202794	p V t	0.001586765
-1.324216	p V z	-0.07020669
-1.90925	r V D	0.4586379
-1.322985	r V N	-0.00132367
-1.024644	r V S	-0.2290651
-1.523899	r V _	0.04009253
-1.114198	r V b	-0.1840668
-1.90925	r V d
-1.024644	r V f	-0.068351
-1.114198	r V g	-0.06557691
-1.272428	r V k	-0.0856569
-0.7827632	r V m	-0.1980323
-0.8317959	r V n	-0.4736131
-1.227148	r V p	-0.3100323
-0.9984735	r V s	-0.1057303
-1.90925	r V t
-1.585643	s V D	0.3955861
-1.754785	s V J
-0.8701785	s V b	-0.0887935
-1.291674	s V d	-0.3282432
-1.072683	s V f	-0.2935196
-1.291674	s V k	-0.1356102
-0.9277852	s V l	-0.3437318
-0.7738082	s V m	-0.103929
-0.644035	s V n	-0.3920313
-1.291674	s V p	-0.1446363
-1.585643	s V t
-0.7879847	t V J	0.1466449
-1.583037	t V N
-1.119926	t V b	-0.06992377
-1.413894	t V d	-0.07048061
-0.8599331	t V f	-0.07091913
-1.583037	t V g
-1.413894	t V k
-0.9009347	t V m	-0.09944502
-0.8599331	t V n	-0.1634185
-1.197686	t V p	-0.0419329
-1.292472	t V s	-0.06787875
-1.292472	t V t	-0.07347792
-0.2317035	v V l	-0.06853541
-0.3053088	w V n	-0.2654164
-0.5243003	w V r	0.05027646
-0.5470124	z V m	-0.02230088
-0.1088248	# Z </s>
-0.5470124	$ Z w	0
-0.8048855	1 Z @	0.02220045
-0.341775	1 Z H	0.5019399
-0.60206	5 Z @	-0.04085129
-0.3858515	5 Z H	0.5458454
-0.1849367	E Z @	-0.03812952
-0.9302422	I Z 1	0
-0.1639253	I Z H	0.3345973
-0.9463888	u Z </s>
-0.9463888	u Z @	-0.05715892
-0.2885315	u Z H	0.2541554
-1.115531	u Z P	0
-0.4329176	{ Z U	0.01308872
-0.4230244	# _ </s>
-0.617089	# _ @	0.04454023
-0.7607772	# _ I	-0.1217374
-0.8653014	$ _ </s>
-0.4799505	$ _ @	-0.1281888
-0.696159	$ _ I
-0.5275486	1 _ </s>
-0.6138302	1 _ @	-0.2310571
-0.7216132	1 _ I	-0.03731419
-1.250652	1 _ d	0.2872417
-1.250652	1 _ l	0.2108534
-0.6724881	3 _ </s>
-0.4064752	3 _ @	-0.1466911
-0.6152614	3 _ I	-0.1804675
-0.4806378	5 _ @	-0.02587527
-0.60206	5 _ I
-1.292695	<s> _ #	0.03102121
-1.466996	<s> _ $	-0.02207212
-1.524222	<s> _ 1	-0.0325427
-1.330158	<s> _ 3	0.1002809
-1.466996	<s> _ 5	-0.1037115
-1.884119	<s> _ @	-0.1373776
-0.7616389	<s> _ E	-0.3134841
-0.7945557	<s> _ I	-0.3531777
-0.8179735	<s> _ Q	-0.003408015
-1.762697	<s> _ U	-0.08424869
-1.094447	<s> _ V	0.1277139
-1.524222	<s> _ i	-0.03583604
-1.031088	<s> _ u	-0.02380574
-1.142485	<s> _ {	0.1379335
-0.9171007	@ _ #	0.05036074
-1.380211	@ _ 3	0.06201176
-1.380211	@ _ 5	-0.07509591
-0.7939455	@ _ E	-0.1281204
-0.4213972	@ _ I	-0.5341121
-1.089647	@ _ Q	0.06872785
-1.211069	@ _ V	-0.1244399
-0.7085153	E _ </s>
-0.8316705	E _ @	-0.07086258
-0.6126789	E _ I	-0.144568
-0.8316705	E _ U	-0.1745313
-1.294781	E _ d	0.2872417
-0.1871261	I _ </s>
-0.9712349	I _ @	-0.08557326
-1.377655	I _ E	-0.2360246
-1.146128	I _ I	-0.238838
-1.906694	I _ Q
-1.737552	I _ i	0.1518371
-1.737552	I _ u	-0.05114672
-1.906694	I _ w	-0.02775568
-1.737552	I _ {	0.04789265
-0.4839607	P _ {	0.1109444
-1.146128	Q _ 3	0.06201176
-0.617089	Q _ </s>
-0.7607772	Q _ @	-0.05477031
-0.509306	Q _ I	-0.106625
-0.4101745	V _ </s>
-0.6616457	V _ @	0.0003408492
-0.756432	V _ I	-0.01411086
-0.3858515	b _ E	-0.2484038
-0.7712024	b _ U
-0.8778542	i _ </s>
-0.4607309	i _ @	-0.01087013
-0.8778542	i _ I
-0.7712024	l _ </s>
-0.3858515	l _ @
-1.624233	n _ 1
-0.4825593	n _ </s>
-0.6221698	n _ @	-0.0437187
-1.161122	n _ E	-0.1214222
-0.9011293	n _ I	-0.2870439
-1.238882	n _ Q	-0.07092813
-1.624233	n _ V	-0.06138815
-1.455091	n _ f	0
-0.4552194	u _ </s>
-1.032385	{ _ #	0.04665126
-1.201527	{ _ </s>
-0.7384166	{ _ @	0.0761729
-0.4409611	{ _ I	-0.4057858
-0.9109626	{ _ U	0.006558716
-1.226784	# b #	0.07638261
-1.057642	# b </s>
-0.5899619	# b @	-0.03170863
-0.6405182	# b I	-0.1156804
-0.9362194	# b P	0.8322983
-1.226784	# b Q
-1.131099	$ b $	0.0532109
-0.9619566	$ b 5	-0.1262151
-1.131099	$ b </s>
-0.8405345	$ b @	-0.07115825
-0.9619566	$ b E	-0.07388216
-0.7457482	$ b I	-0.2598241
-1.131099	$ b P	0.7845255
-1.41338	1 b #
-0.7765575	1 b @	-0.117313
-1.028029	1 b I	-0.1213422
-0.5026028	1 b P	0.4898897
-1.41338	1 b Q
-1.244237	1 b i	-0.1192727
-1.41338	1 b j
-1.244237	1 b l	-0.08471808
-1.244237	1 b r
-1.244237	1 b {	-0.08645929
-0.9935975	3 b 1	-0.0949349
-1.284162	3 b 5
-0.6978964	3 b </s>
-0.64734	3 b @	-0.3189436
-0.9935975	3 b I
-1.11502	3 b P	0.7214738
-1.284162	3 b l
-1.161003	5 b #	0.1241554
-1.161003	5 b 1	-0.05005634
-1.282425	5 b 5	-0.0595771
-0.8653014	5 b </s>
-1.066216	5 b @
-0.9225281	5 b I	-0.05102308
-1.066216	5 b P	0.7834498
-1.451567	5 b Q
