
\data\
ngram 1=5359
ngram 2=23168
ngram 3=2441

\1-grams:
-2.955064	#	-0.4274758
-3.013056	#I	-0.219899
-4.284122	#Id	-0.1568287
-4.460214	#Idz	-0.1577299
-4.460214	#Il	-0.1577299
-3.916146	#Is	-0.1567449
-4.159184	#J	-0.1453069
-4.284122	#R	-0.3338211
-4.460214	#S	-0.1577299
-3.585152	#U	-0.2527952
-4.460214	#UJ	-0.1577299
-4.460214	#Ul	-0.1577299
-4.460214	#Uns	-0.1577299
-4.460214	#Ust	-0.1577299
-2.916146	#Ut	-0.1963146
-3.807001	#f	-0.6955777
-4.460214	#ft	-0.1577299
-3.983092	#k	-0.2819038
-3.761244	#m	-0.2131707
-4.284122	#md	-0.3338211
-4.460214	#mz	-0.1577299
-4.062274	#n	-0.2960801
-4.460214	#s	-0.3008418
-4.460214	#sk	-0.1577299
-4.460214	#skt	-0.1577299
-3.983092	#t	-0.423463
-4.460214	#ts	-0.1577299
-2.821724	$	-0.4301389
-4.284122	$R	-0.3338211
-4.460214	$b	-0.1577299
-4.460214	$d	-0.3009547
-4.460214	$g	-0.3009547
-4.284122	$k	-0.1572481
-3.460214	$l	-0.2365486
-4.460214	$t	-0.1577299
-2.852759	1	-0.2283098
-4.284122	1J	-0.1573319
-4.460214	1_	-0.2997638
-4.284122	1_d	-0.3338211
-4.284122	1d	-0.3338211
-3.916146	1k	-0.7017979
-4.460214	1l	-0.3007213
-4.284122	1m	-0.4758551
-4.284122	1n	-0.4770912
-4.460214	1p	-0.1577299
-3.217175	1t	-1.400768
-4.460214	1tT	-0.1577299
-3.399516	3	-0.3612333
-4.460214	3R	-0.1577299
-3.858154	3T	-0.1805535
-4.460214	3_	-0.1577299
-4.460214	3g	-0.1577299
-4.460214	3k	-0.1577299
-4.284122	3l	-0.1575519
-4.460214	3nd	-0.1577299
-2.494072	5	-0.4057949
-4.460214	5T	-0.1577299
-4.460214	5f	-0.1577299
-4.284122	5l	-0.1575728
-4.460214	5ld	-0.1577299
-4.460214	5m	-0.1577299
-4.284122	5n	-0.3338211
-4.460214	5st	-0.1577299
-4.159184	5t	-0.1575728
-4.460214	5ts	-0.1577299
-0.5512195	</s>
-99	<s>	-0.3518871
-1.998565	@	-0.1254748
-2.740054	@R	-1.877889
-4.460214	@T	-0.1577299
-3.256094	@b	-0.3381232
-3.439024	@d	-0.2681727
-4.460214	@g	-0.3009698
-4.284122	@k	-0.300141
-3.381032	@l	-0.7837846
-4.460214	@ld	-0.1577299
-4.284122	@m	-0.3338211
-4.460214	@mf	-0.1577299
-3.505971	@n	-0.3471946
-3.761244	@ns	-0.8566999
-3.807001	@nt	-0.5451493
-4.460214	@nz	-0.1577299
-3.807001	@s	-0.3231075
-4.460214	@st	-0.1577299
-3.858154	@t	-0.3689722
-4.284122	@z	-0.3338211
-4.460214	D#I	-0.3009698
-4.460214	D#In	-0.1577299
-4.460214	D#U	-0.1577299
-4.460214	D#Ut	-0.1577299
-4.284122	D$l	-0.3338211
-4.460214	D1	-0.1577299
-4.284122	D5	-0.3338211
-4.460214	D5z	-0.1577299
-3.32988	D@	-0.3480281
-3.298846	D@R	-1.319098
-4.062274	D@m	-0.2228726
-4.460214	D@md	-0.1577299
-4.159184	D@z	-0.4587599
-3.983092	DE@	-0.1574472
-4.460214	DE@z	-0.1577299
-4.460214	DEm	-0.1577299
-4.460214	DEn	-0.1577299
-4.284122	DEns	-0.1576566
-4.159184	DH	-0.4587599
-3.719851	DI	-0.4826903
-3.858154	DIN	-0.4993919
-4.460214	DIs	-0.1577299
-4.460214	DP	-0.1577299
-4.460214	DVs	-0.1577299
-4.460214	Di	-0.1577299
-4.460214	Diz	-0.1577299
-4.460214	Dr@n	-0.1577299
-4.460214	D{n	-0.1577299
-2.618229	E	-0.4573172
-3.193042	E@	-0.3012765
-4.284122	E@R	-0.3338211
-4.460214	E@Z	-0.1577299
-4.460214	EJ	-0.1577299
-4.284122	ET	-0.2990084
-4.159184	E_	-0.1575414
-4.460214	Ed	-0.1577299
-4.460214	Ef	-0.1577299
-4.460214	Eft	-0.1577299
-3.858154	Eg	-0.1567448
-3.439024	Ek	-0.4000544
-4.460214	Eks	-0.3010149
-3.916146	El	-0.1542196
-4.460214	Elf	-0.1577299
-4.460214	Elk	-0.1577299
-4.460214	Elm	-0.1577299
-4.284122	Els	-0.1575309
-3.6473	Em	-0.1939206
-4.159184	Emp	-0.5986602
-3.229765	En	-0.1751057
-4.460214	EnT	-0.1577299
-4.284122	End	-0.1559678
-4.284122	Ept	-0.1472093
-4.159184	Es	-0.1576147
-3.761244	Et	-0.8566999
-2.358123	I	-0.2362038
-3.6473	I@	-0.3138984
-4.460214	I@R	-0.1577299
-3.013056	IN	-0.7399994
-4.284122	INk	-0.1575938
-4.159184	INz	-0.4587599
-3.615116	IS	-0.7283986
-4.460214	IT	-0.1577299
-3.983092	I_	-0.6348512
-4.062274	Id	-0.3233005
-3.314085	Ig	-0.3540264
-3.117791	Ik	-0.1816376
-4.460214	Iks	-0.3009622
-4.284122	Il	-0.1543673
-2.9417	Im	-0.2192051
-4.460214	Imp	-0.1577299
-2.272693	In	-0.1712339
-3.983092	Is	-0.2824801
-3.807001	Ist	-0.8109424
-3.916146	It	-0.3333918
-4.460214	Its	-0.1577299
-3.719851	J#	-0.2970381
-4.460214	J#I	-0.2997261
-4.460214	J#Il	-0.3009171
-4.284122	J#Ild	-0.2996431
-4.460214	J#Im	-0.1577299
-4.460214	J#In	-0.1577299
-4.460214	J#Iv	-0.1577299
-4.460214	J#Iz	-0.1577299
-4.460214	J#U	-0.300322
-4.062274	J#_	-0.5556699
-4.284122	J#_d	-0.3338211
-4.460214	J#f	-0.1577299
-3.858154	J#n	-0.3293249
-4.460214	J#nd	-0.3003823
-4.284122	J#ns	-0.3338211
-4.284122	J#nt	-0.3338211
-4.460214	J#t	-0.1577299
-4.284122	J$	-0.2994618
-4.460214	J$R	-0.1577299
-4.460214	J$k	-0.1577299
-4.062274	J1	-0.367299
-4.284122	J1m	-0.3003069
-4.284122	J1n	-0.157311
-4.062274	J1n_	-0.1542512
-4.284122	J1s	-0.3338211
-4.460214	J1st	-0.1577299
-3.858154	J3	-0.4378778
-4.062274	J3J	-0.1567868
-4.460214	J3p	-0.1577299
-4.159184	J5	-0.1555051
-4.284122	J5k	-0.3338211
-3.298846	J@	-0.2784739
-3.005369	J@R	-1.612575
-4.284122	J@d	-0.3338211
-4.460214	J@l	-0.1577299
-3.983092	J@n	-0.6348512
-4.159184	J@nt	-0.4587599
-4.460214	J@nz	-0.1577299
-4.460214	J@p	-0.1577299
-4.159184	J@z	-0.4587599
-3.807001	JE	-0.2957755
-4.159184	JE@	-0.3000581
-3.983092	JE@R	-0.6348512
-3.761244	JEk	-0.1818024
-4.284122	JEkt	-0.3338211
-4.284122	JEs	-0.1576566
-3.18146	JI	-0.3298016
-3.858154	JI@	-0.3283767
-3.6473	JIN	-0.6912774
-4.460214	JINk	-0.1577299
-4.284122	JId	-0.1543673
-4.159184	JIf	-0.4587599
-4.460214	JIk	-0.3007439
-4.284122	JIl	-0.1577089
-4.284122	JIm	-0.2991067
-4.460214	JImp	-0.1577299
-4.062274	JIn	-0.2242264
-4.284122	JIp	-0.1574471
-4.062274	JIt	-0.3337897
-3.858154	JIz	-0.5090113
-4.159184	JQ	-0.2976757
-4.460214	JQIs	-0.1577299
-4.460214	JQmp	-0.1577299
-4.284122	JQp	-0.1573005
-3.983092	JU	-0.5395215
-3.916146	JU@	-0.5901662
-3.916146	JU@l	-0.7017979
-4.062274	JU@s	-0.3233005
-4.159184	JV	-0.2970534
-4.460214	JVN	-0.300043
-4.460214	JVg	-0.1577299
-4.460214	JVk	-0.1577299
-4.460214	JVm	-0.1577299
-4.460214	JVmp	-0.1577299
-4.460214	JVt	-0.2992578
-3.916146	Ji	-0.1454039
-4.159184	Jif	-0.254441
-4.284122	Jik	-0.1575728
-4.062274	Jip	-0.1470377
-4.460214	Jit	-0.1577299
-4.284122	Jiv	-0.1571433
-4.284122	Jiz	-0.1576252
-4.460214	Jn@t	-0.1577299
-4.460214	Jr@	-0.293492
-4.460214	Jr@l	-0.1577299
-4.062274	Ju	-0.3328046
-4.460214	Juz	-0.1577299
-3.530795	J{	-0.3372872
-4.284122	J{m	-0.3009321
-4.460214	J{mp	-0.1577299
-4.460214	J{n	-0.2991294
-4.159184	J{p	-0.2543991
-4.284122	J{t	-0.3338211
-4.460214	N@	-0.2992201
-3.858154	N@R	-0.7597899
-4.460214	N@m	-0.1577299
-4.062274	NI	-0.3233005
-3.916146	NIN	-0.4482393
-4.284122	NINz	-0.3338211
-4.460214	NIS	-0.1577299
-4.159184	P	-0.3967267
-2.88043	Q	-0.4096455
-4.284122	QI	-0.2999147
-4.460214	QINk	-0.1577299
-3.983092	QIl	-0.2999752
-4.460214	QIlz	-0.1577299
-4.460214	QInt	-0.3006083
-4.460214	QN	-0.3010074
-4.460214	QS	-0.1577299
-3.615116	Qb	-0.356161
-4.159184	Qd	-0.1466083
-4.460214	Qdz	-0.1577299
-3.6473	Qf	-0.2234188
-4.460214	Qft	-0.1577299
-3.858154	Qk	-0.1853365
-4.062274	Qks	-0.1568707
-4.284122	Qm	-0.2989706
-3.682062	Qn	-0.2014834
-3.807001	Qp	-0.2618492
-4.460214	Qs	-0.1577299
-4.460214	Qv	-0.1577299
-4.460214	Qz	-0.3006083
-4.062274	S#	-0.1556418
-3.807001	S#I	-0.1686276
-4.284122	S#In	-0.3338211
-4.159184	S#U	-0.2953488
-4.460214	S#Ut	-0.1577299
-4.460214	S#d	-0.1577299
-4.284122	S#ft	-0.3338211
-4.460214	S#k	-0.3009171
-4.159184	S#p	-0.15366
-3.682062	S$	-0.1823718
-3.858154	S$R	-0.7597899
-4.284122	S$d	-0.3338211
-4.460214	S$l	-0.1577299
-3.761244	S$t	-0.1419007
-4.460214	S$ts	-0.1577299
-3.585152	S1	-0.2258862
-3.983092	S1d	-0.6348512
-4.062274	S1k	-0.2242892
-4.460214	S1ks	-0.1577299
-4.460214	S1l	-0.1577299
-4.062274	S1m	-0.3656527
-4.460214	S1md	-0.1577299
-3.983092	S1p	-0.2703426
-4.284122	S1v	-0.3338211
-4.460214	S1z	-0.1577299
-4.460214	S3	-0.3009848
-4.460214	S3k	-0.1577299
-3.983092	S3t	-0.2825744
-3.615116	S5	-0.2961639
-4.284122	S5l	-0.1567448
-3.098486	S@	-0.3256397
-3.505971	S@R	-1.111972
-4.284122	S@m	-0.3338211
-4.460214	S@n	-0.2967495
-4.460214	S@ns	-0.1577299
-4.284122	S@p	-0.3338211
-2.975914	S@s	-1.164953
-3.761244	SE	-0.2923573
-4.460214	SE@R	-0.1577299
-3.983092	SEd	-0.6348512
-4.460214	SEf	-0.1577299
-3.761244	SEl	-0.251994
-4.460214	SElf	-0.1577299
-4.460214	SElv	-0.1577299
-4.460214	SEn	-0.300646
-4.284122	SEt	-0.3338211
-2.135931	SH	-1.573235
-4.284122	SHd	-0.3338211
-4.284122	SHs	-0.3338211
-3.807001	SHt	-0.8109424
-3.6473	SHz	-0.9706432
-3.127775	SI	-0.3531116
-4.284122	SI@R	-0.3338211
-4.284122	SI@t	-0.3338211
-4.460214	SI@z	-0.1577299
-3.460214	SIN	-0.7109764
-4.284122	SINz	-0.3338211
-4.159184	SIf	-0.5986602
-4.159184	SIft	-0.2528778
-4.062274	SIn	-0.1525067
-3.217175	SIp	-0.5316974
-4.284122	SIps	-0.3338211
-4.460214	SIs	-0.1577299
-4.284122	SIst	-0.3338211
-4.062274	SIt	-0.5556699
-4.460214	SIz	-0.1577299
-3.298846	SP	-0.7521871
-4.460214	SPz	-0.1577299
-3.761244	SQ	-0.3926094
-4.284122	SQd	-0.3338211
-4.284122	SQk	-0.3338211
-3.807001	SQp	-0.3336013
-3.719851	SQt	-0.6347046
-4.159184	SU	-0.3970511
-4.460214	SU@	-0.293492
-4.284122	SU@l	-0.3338211
-4.460214	SUd	-0.1577299
-4.460214	SUf	-0.2976302
-3.807001	SV	-0.474555
-4.460214	SVk	-0.1577299
-4.460214	SVn	-0.1577299
-4.460214	SVnt	-0.1577299
-4.460214	SVt	-0.3008794
-4.460214	SVv	-0.1577299
-3.682062	Si	-0.3066359
-4.460214	SiS	-0.1577299
-4.460214	SiT	-0.1577299
-4.460214	Sif	-0.1577299
-4.460214	Sik	-0.1577299
-4.284122	Sild	-0.3338211
-4.159184	Sin	-0.1575519
-4.284122	Sip	-0.3008117
-3.983092	Sit	-0.6348512
-4.460214	Siz	-0.1577299
-4.284122	Sn@R	-0.3338211
-4.460214	Sn@t	-0.1577299
-4.460214	SnIt	-0.3007213
-4.460214	Sn{ps	-0.1577299
-4.460214	Spil	-0.1577299
-4.460214	Sr#Ik	-0.1577299
-4.284122	Sr#In	-0.3338211
-4.284122	Sr#Ud	-0.3338211
-4.460214	SrE	-0.300322
-4.460214	SrEd	-0.1577299
-4.460214	SrI	-0.3007063
-4.460214	SrIN	-0.3009698
-4.460214	SrINk	-0.1577299
-4.284122	SrIl	-0.1472093
-4.460214	SrV	-0.3003295
-4.460214	SrVb	-0.1577299
-4.460214	SrVg	-0.1577299
-4.460214	Srik	-0.1577299
-4.284122	Sru	-0.1575833
-4.159184	Srud	-0.1437639
-4.460214	Sr{p	-0.3005632
-3.530795	Su	-0.3698089
-4.159184	Sut	-0.4587599
-3.439024	S{	-0.3739132
-4.460214	S{Nk	-0.1577299
-4.460214	S{g	-0.1577299
-4.460214	S{k	-0.1577299
-4.460214	S{l	-0.1577299
-3.916146	S{m	-0.15751
-4.460214	S{n	-0.3009999
-4.284122	T#	-0.3004652
-4.460214	T#I	-0.3010074
-4.284122	T#U	-0.3009848
-4.159184	T$	-0.1552314
-4.062274	T$n	-0.5556699
-3.916146	T$t	-0.2514039
-3.858154	T3	-0.2949063
-4.460214	T3d	-0.1577299
-4.460214	T3m	-0.1577299
-4.460214	T3st	-0.1577299
-4.460214	T5	-0.3009472
-3.807001	T@	-0.2976226
-4.460214	T@R	-0.1577299
-4.460214	T@d	-0.1577299
-4.460214	T@m	-0.1577299
-4.460214	T@n	-0.1577299
-4.159184	TE	-0.2992201
-4.460214	TEft	-0.1577299
-4.460214	TEn	-0.3005029
-4.460214	TEt	-0.1577299
-4.062274	TH	-0.5556699
-3.18146	TI	-0.3939497
-3.983092	TI@	-0.2957832
-4.460214	TI@m	-0.1577299
-3.807001	TIN	-0.3275904
-4.159184	TINk	-0.4587599
-4.460214	TINz	-0.1577299
-3.983092	TIk	-0.1978145
-4.460214	TIks	-0.1577299
-4.284122	TIl	-0.3338211
-4.460214	TIm	-0.2991747
-4.460214	TIn	-0.1577299
-4.460214	TIst	-0.1577299
-4.460214	TIz	-0.1577299
-4.159184	TP	-0.4587599
-4.159184	TQ	-0.3954721
-4.460214	TQN	-0.1577299
-4.460214	TQl	-0.1577299
-4.284122	TQs	-0.3338211
-3.983092	TV	-0.5422884
-4.460214	TVd	-0.1577299
-3.983092	TVm	-0.1571957
-4.159184	TVn	-0.3962057
-3.858154	Ti	-0.2971825
-4.460214	Tim	-0.1577299
-4.460214	Tjuz	-0.1577299
-4.460214	Tr#I	-0.300902
-4.460214	Tr#Is	-0.1577299
-4.460214	Tr#Iv	-0.1577299
-4.460214	Tr$	-0.3004878
-4.159184	Tr$l	-0.2544619
-3.916146	Tr5	-0.186635
-4.159184	Tr5n	-0.4587599
-4.284122	Tr5t	-0.3338211
-4.460214	Tr5z	-0.1577299
-4.062274	TrE	-0.2974481
-4.460214	TrES	-0.3009246
-4.284122	TrEd	-0.1575519
-4.284122	TrI	-0.29996
-4.284122	TrIf	-0.4737215
-4.460214	TrIft	-0.1577299
-4.460214	TrIl	-0.1577299
-4.284122	TrQ	-0.3003672
-4.460214	TrQN	-0.1577299
-4.460214	TrV	-0.3005632
-4.460214	TrVS	-0.1577299
-4.460214	TrVm	-0.1577299
-4.460214	TrVst	-0.1577299
-4.460214	Tri	-0.1577299
-3.983092	Tru	-0.20753
-4.460214	Tr{	-0.3008794
-4.460214	Tr{S	-0.1577299
-4.460214	Tw$t	-0.1577299
-4.460214	Tw{k	-0.1577299
-4.159184	T{Nk	-0.1562619
-4.460214	T{Nks	-0.1577299
-4.460214	T{l	-0.300902
-4.460214	Ups	-0.1577299
-3.719851	V	-0.3183034
-4.284122	VN	-0.3000656
-4.460214	VNk	-0.2978425
-4.460214	Vg	-0.293492
-4.062274	Vl	-0.3627909
-4.460214	Vlt	-0.1577299
-4.159184	Vm	-0.3006837
-4.284122	Vmp	-0.3008418
-2.418821	Vn	-0.3353811
-4.460214	Vnt	-0.1577299
-3.089146	Vp	-0.240092
-4.460214	Vs	-0.1577299
-4.159184	Z1	-0.4587599
-3.807001	Z@	-0.3536398
-3.807001	Z@R	-0.8109424
-4.159184	Z@d	-0.4587599
-3.204941	ZH	-0.9472085
-4.460214	ZHz	-0.1577299
-4.460214	ZP	-0.1577299
-4.460214	ZU@	-0.293492
-4.159184	ZU@l	-0.2499038
-4.460214	Zim	-0.1577299
-4.460214	Zu	-0.1577299
-4.284122	Zw#	-0.157688
-3.983092	_#	-0.350108
-3.916146	_#I	-0.3917018
-4.460214	_#Ib	-0.1577299
-4.284122	_#Il	-0.1472093
-4.460214	_#Iv	-0.1577299
-4.284122	_#Iz	-0.3338211
-4.159184	_#R	-0.4587599
-4.460214	_#U	-0.293492
-4.460214	_#Ul	-0.1577299
-4.284122	_$	-0.300887
-4.460214	_$R	-0.1577299
-4.159184	_$n	-0.5986602
-4.460214	_$nt	-0.1577299
-3.983092	_1	-0.2817255
-4.460214	_1d	-0.1577299
-4.460214	_1ks	-0.1577299
-4.460214	_1l	-0.1577299
-4.460214	_1n	-0.1577299
-4.460214	_1p	-0.1577299
-3.6473	_3	-0.3905322
-4.460214	_3k	-0.1577299
-4.284122	_3n	-0.3338211
-3.983092	_5	-0.2079288
-4.460214	_5k	-0.1577299
-4.460214	_5l	-0.1577299
-4.460214	_5lt	-0.1577299
-3.159184	_@	-0.2637611
-3.229765	_@R	-1.388179
-4.460214	_@d	-0.1577299
-4.159184	_@l	-0.4587599
-3.615116	_@n	-0.5797026
-4.460214	_@nd	-0.1577299
-3.983092	_@ns	-0.6348512
-3.585152	_@nt	-0.7492693
-3.682062	_@s	-0.5117407
-3.24273	_E	-0.4073114
-3.983092	_Ek	-0.5393845
-3.761244	_Ekt	-0.586542
-4.460214	_El	-0.1577299
-4.460214	_Em	-0.1577299
-4.460214	_Emd	-0.1577299
-3.682062	_En	-0.2564395
-4.460214	_Ent	-0.1577299
-4.159184	_Es	-0.1570699
-3.916146	_Est	-0.7017979
-4.159184	_Et	-0.2542315
-2.756922	_I	-0.3402245
-4.460214	_I@	-0.3005481
-4.460214	_I@R	-0.1577299
-4.460214	_I@t	-0.1577299
-3.719851	_IN	-0.3892488
-4.460214	_INz	-0.1577299
-4.460214	_Ib	-0.1577299
-3.916146	_Id	-0.4482393
-4.159184	_Ig	-0.2543781
-4.062274	_Ik	-0.3331507
-4.460214	_Ikt	-0.1577299
-4.460214	_Ilt	-0.1577299
-4.062274	_Im	-0.1575728
-3.682062	_In	-0.3607913
-4.159184	_Ip	-0.1539557
-4.284122	_Is	-0.3338211
-3.858154	_It	-0.3768169
-4.460214	_Its	-0.1577299
-4.460214	_Iz	-0.1577299
-3.585152	_Q	-0.3010485
-3.761244	_QI	-0.2121165
-4.460214	_QId	-0.1577299
-3.916146	_QIn	-0.7017979
-4.062274	_QInt	-0.3233005
-4.460214	_QIs	-0.1577299
-4.460214	_QIst	-0.1577299
-4.460214	_QS	-0.1577299
-4.460214	_Qb	-0.1577299
-4.460214	_Qg	-0.1577299
-4.460214	_Qk	-0.3009923
-4.284122	_Qn	-0.3338211
-4.460214	_Qt	-0.1577299
-3.761244	_U	-0.3572875
-4.062274	_U@	-0.288269
-4.460214	_U@R	-0.1577299
-4.460214	_U@t	-0.1577299
-3.916146	_V	-0.2992201
-4.062274	_VN	-0.2994241
-4.159184	_VNk	-0.3943202
-4.460214	_VNkt	-0.1577299
-4.460214	_V_	-0.1577299
-4.284122	_Vg	-0.2996959
-3.916146	_Vm	-0.3941608
-4.460214	_Vmp	-0.1577299
-4.460214	_Vmps	-0.1577299
-4.460214	_Vn	-0.2991294
-4.159184	_Vst	-0.4587599
-3.719851	_i	-0.333224
-4.460214	_il	-0.1577299
-4.159184	_in	-0.4587599
-4.460214	_inz	-0.1577299
-4.460214	_ip	-0.1577299
-3.505971	_u	-0.2452879
-4.460214	_ub	-0.1577299
-4.460214	_uk	-0.3008945
-4.460214	_un	-0.1577299
-4.284122	_us	-0.3338211
-4.460214	_ut	-0.1577299
-3.682062	_{	-0.3152553
-4.460214	_{N	-0.3006761
-4.460214	_{g	-0.1577299
-3.719851	_{k	-0.333266
-4.159184	_{m	-0.2536653
-4.460214	_{s	-0.3005481
-4.460214	_{v	-0.3008569
-4.460214	_{z	-0.1577299
-3.363303	b#	-0.3021307
-4.460214	b#Dz	-0.1577299
-3.170179	b#I	-0.2068259
-4.159184	b#Id	-0.4587599
-4.460214	b#Ik	-0.1577299
-4.284122	b#Il	-0.3338211
-4.062274	b#In	-0.2227149
-4.284122	b#Ind	-0.1576775
-4.460214	b#It	-0.1577299
-3.858154	b#R	-0.7597899
-3.858154	b#T	-0.2956451
-4.062274	b#U	-0.1510635
-4.460214	b#UJ	-0.1577299
-4.284122	b#Ud	-0.3338211
-3.983092	b#Un	-0.2973647
-3.761244	b#Und	-0.8566999
-4.460214	b#Undz	-0.1577299
-4.460214	b#Uns	-0.1577299
-3.916146	b#Ut	-0.7017979
-4.460214	b#_	-0.1577299
-4.460214	b#b	-0.1577299
-4.460214	b#ft	-0.1577299
-4.062274	b#k	-0.5556699
-4.284122	b#m	-0.3338211
-4.284122	b#n	-0.1576566
-4.460214	b#sk	-0.1577299
-3.460214	b$	-0.3156041
-4.460214	b$J	-0.1577299
-4.460214	b$R	-0.1577299
-4.460214	b$S	-0.1577299
-3.32988	b$d	-0.8415786
-4.159184	b$dz	-0.4587599
-4.284122	b$k	-0.1575728
-3.505971	b$l	-0.499136
-4.062274	b$ld	-0.2107108
-4.460214	b$lt	-0.1577299
-3.615116	b$n	-1.002828
-4.460214	b$st	-0.1577299
-4.460214	b$t	-0.1577299
-3.204941	b1	-0.1996532
-4.460214	b1D	-0.1577299
-4.460214	b1Z	-0.1577299
-4.460214	b1b	-0.1577299
-4.460214	b1k	-0.1577299
-4.460214	b1kt	-0.1577299
-4.062274	b1n	-0.3233005
-3.807001	b1s	-0.3311858
-4.284122	b1st	-0.3338211
-3.719851	b1t	-0.6342646
-3.34627	b3	-0.3505798
-4.460214	b3J	-0.1577299
-4.460214	b3R	-0.1577299
-3.807001	b3T	-0.2234502
-4.460214	b3b	-0.1577299
-4.460214	b3bz	-0.1577299
-3.6473	b3d	-0.7017246
-4.159184	b3g	-0.4587599
-4.460214	b3k	-0.1577299
-4.159184	b3n	-0.4587599
-4.460214	b3nd	-0.1577299
-4.460214	b3nz	-0.1577299
-4.460214	b3p	-0.1577299
-4.284122	b3s	-0.3338211
-4.159184	b3st	-0.4587599
-3.24273	b5	-0.2361218
-4.460214	b5T	-0.1577299
-4.159184	b5d	-0.4587599
-3.916146	b5l	-0.2529093
-4.159184	b5ld	-0.1471878
-4.460214	b5lt	-0.1577299
-4.460214	b5lz	-0.1577299
-3.585152	b5n	-0.5072244
-4.460214	b5nd	-0.1577299
-4.460214	b5s	-0.1577299
-4.159184	b5st	-0.1562619
-3.682062	b5t	-0.5242912
-2.792761	b@	-0.1837013
-3.256094	b@R	-1.36185
-3.916146	b@d	-0.7017979
-4.062274	b@l	-0.333685
-4.460214	b@ld	-0.1577299
-4.460214	b@m	-0.1577299
-3.719851	b@n	-0.6243306
-4.284122	b@nd	-0.3338211
-4.460214	b@nt	-0.1577299
-3.719851	b@s	-0.6347674
-3.983092	b@t	-0.6348512
-4.284122	b@z	-0.3338211
-3.229765	bE	-0.3617247
-3.719851	bE@	-0.3152006
-4.159184	bE@R	-0.4587599
-4.460214	bE@n	-0.1577299
-3.505971	bEd	-0.2517945
-4.460214	bEk	-0.1577299
-3.761244	bEl	-0.3022639
-4.460214	bElJ	-0.1577299
-4.284122	bElt	-0.1571538
-3.983092	bEn	-0.156262
-4.159184	bEnJ	-0.4587599
-4.284122	bEnd	-0.3338211
-4.460214	bEndz	-0.1577299
-4.460214	bEnt	-0.1577299
-4.284122	bEs	-0.3338211
-4.460214	bEsk	-0.1577299
-4.460214	bEst	-0.1577299
-4.159184	bEt	-0.4587599
-2.51327	bI	-0.1901064
-4.062274	bI@	-0.2184141
-4.460214	bI@R	-0.1577299
-4.159184	bI@d	-0.2528778
-4.460214	bI@n	-0.1577299
-4.460214	bI@ns	-0.1577299
-4.460214	bI@nt	-0.1577299
-4.460214	bI@s	-0.1577299
-4.460214	bIJ	-0.1577299
-3.719851	bIN	-0.6243306
-3.983092	bIS	-0.3902473
-4.159184	bI_	-0.4587599
-4.460214	bIb	-0.1577299
-3.858154	bId	-0.4993919
-4.460214	bIf	-0.1577299
-4.284122	bIg	-0.2985848
-3.983092	bIk	-0.6348512
-4.460214	bIks	-0.1577299
-3.6473	bIl	-0.251562
-4.460214	bIl_	-0.1577299
-4.460214	bIld	-0.1577299
-4.460214	bIlk	-0.1577299
-4.460214	bIlt	-0.1577299
-3.858154	bIn	-0.5095564
-4.460214	bIn_	-0.1577299
-4.284122	bIs	-0.3338211
-4.460214	bIsk	-0.1577299
-4.460214	bIst	-0.1577299
-3.585152	bIt	-1.032791
-4.062274	bIz	-0.2244254
-2.370308	bP	-1.113748
-4.159184	bPd	-0.4587599
-4.284122	bPz	-0.3338211
-3.159184	bQ	-0.3898236
-3.460214	bQI	-0.382633
-4.284122	bQIl	-0.3338211
-4.460214	bQIz	-0.1577299
-4.460214	bQJ	-0.1577299
-4.460214	bQN	-0.3009622
-4.284122	bQS	-0.3338211
-4.159184	bQb	-0.2546189
-4.460214	bQbz	-0.1577299
-4.460214	bQg	-0.1577299
-4.062274	bQk	-0.2239748
-3.505971	bQks	-0.6794137
-4.460214	bQl	-0.3007063
-3.916146	bQm	-0.1987351
-3.983092	bQn	-0.156388
-4.284122	bQnd	-0.3338211
-4.460214	bQndz	-0.1577299
-4.284122	bQp	-0.3338211
-4.460214	bQs	-0.1577299
-4.460214	bQt	-0.1577299
-3.615116	bU	-0.3055093
-4.284122	bU@R	-0.3338211
-4.460214	bU@s	-0.1577299
-4.460214	bUJ	-0.1577299
-4.284122	bUS	-0.1573529
-4.460214	bUSt	-0.1577299
-3.32988	bUk	-0.351496
-3.682062	bUl	-0.1772937
-4.460214	bUts	-0.1577299
-3.193042	bV	-0.3182943
-3.807001	bVN	-0.3282755
-4.284122	bVNk	-0.1573005
-4.460214	bV_	-0.1577299
-4.460214	bVb	-0.1577299
-4.284122	bVd	-0.3338211
-4.284122	bVf	-0.3338211
-3.983092	bVg	-0.4007261
-3.983092	bVk	-0.157049
-4.460214	bVkt	-0.1577299
-4.062274	bVl	-0.2991747
-4.460214	bVl_	-0.1577299
-4.460214	bVlb	-0.1577299
-4.460214	bVlk	-0.1577299
-4.159184	bVm	-0.3959941
-4.460214	bVmf	-0.1577299
-4.159184	bVmp	-0.1569336
-3.983092	bVn	-0.156493
-4.460214	bVnJ	-0.1577299
-4.284122	bVnd	-0.3338211
-4.159184	bVs	-0.2536548
-4.284122	bVst	-0.1472093
-4.062274	bVt	-0.2231878
-4.284122	bVv	-0.1574471
-4.284122	bVz	-0.1558732
-3.256094	bi	-0.171568
-4.159184	biJ	-0.3000581
-4.460214	bid	-0.1577299
-4.159184	bif	-0.3004426
-4.460214	bik	-0.1577299
-4.460214	bil	-0.1577299
-4.460214	bim	-0.1577299
-4.284122	bin	-0.3338211
-4.460214	bip	-0.1577299
-4.460214	bis	-0.1577299
-4.159184	bist	-0.2441193
-3.916146	bit	-0.3333918
-4.062274	biz	-0.3337897
-4.460214	bj@	-0.1577299
-4.284122	bj@l	-0.3338211
-4.460214	bj@s	-0.1577299
-3.916146	bjU	-0.3400835
-4.460214	bjU@	-0.3004049
-3.761244	bju	-0.2465468
-4.460214	bjun	-0.1577299
-4.460214	bjus	-0.1577299
-4.159184	bjut	-0.4587599
-4.460214	bjuz	-0.1577299
-4.062274	bl#	-0.1551261
-4.284122	bl#I	-0.2977288
-4.284122	bl#ID	-0.1472093
-4.460214	bl#Im	-0.1577299
-4.159184	bl#Ind	-0.2441193
-4.460214	bl#It	-0.1577299
-4.460214	bl#U	-0.3002994
-4.460214	bl#Uz	-0.1577299
-4.460214	bl#nJ	-0.1577299
-3.916146	bl1	-0.338689
-4.460214	bl1d	-0.1577299
-4.284122	bl1m	-0.15751
-4.460214	bl1n	-0.1577299
-4.460214	bl3R	-0.1577299
-4.460214	bl3b	-0.1577299
-3.585152	bl5	-0.2310201
-4.460214	bl5k	-0.1577299
-4.460214	bl5t	-0.1577299
-4.460214	bl@	-0.3010149
-4.062274	bl@R	-0.5556699
-4.460214	bl@ns	-0.1577299
-4.460214	bl@z	-0.1577299
-4.159184	blE	-0.3975636
-4.460214	blE@R	-0.1577299
-4.460214	blEn	-0.300322
-4.460214	blEnd	-0.1577299
-4.284122	blEs	-0.3338211
-3.013056	blI	-0.6000409
-4.460214	blI@	-0.2967495
-3.916146	blIN	-0.2539904
-4.460214	blINk	-0.1577299
-4.460214	blIS	-0.1577299
-4.460214	blI_	-0.1577299
-4.284122	blIk	-0.1472093
-4.460214	blIn	-0.1577299
-4.460214	blIp	-0.1577299
-4.284122	blIs	-0.1572167
-4.284122	blIt	-0.3338211
-4.284122	blIts	-0.3338211
-4.062274	blQ	-0.3003295
-4.460214	blQJ	-0.1577299
-4.460214	blQN	-0.1577299
-3.983092	blQk	-0.2818304
-3.983092	blV	-0.4219769
-4.460214	blVS	-0.1577299
-3.807001	blVd	-0.1555156
-4.460214	blVf	-0.1577299
-4.460214	blVn	-0.300322
-4.159184	blVnt	-0.1437639
-4.159184	bli	-0.2996884
-4.460214	bliJ	-0.1577299
-4.284122	blik	-0.3338211
-4.460214	blit	-0.1577299
-3.557124	blu	-0.1478844
-4.460214	blum	-0.1577299
-4.062274	bl{	-0.299152
-4.460214	bl{N	-0.3008644
-4.284122	bl{Nk	-0.1543673
-4.460214	bl{b	-0.1577299
-3.6473	bl{k	-0.1708892
-4.284122	bl{nd	-0.1543673
-4.284122	bl{s	-0.3004652
-4.159184	br#	-0.1541668
-3.916146	br#I	-0.3381726
-4.460214	br#Ib	-0.1577299
-4.460214	br#Id	-0.1577299
-4.460214	br#Il	-0.1577299
-4.460214	br#In	-0.1577299
-4.284122	br#It	-0.1472093
-3.983092	br#U	-0.6348512
-4.460214	br#Un	-0.1577299
-4.460214	br#nJ	-0.1577299
-4.460214	br#s	-0.1577299
-4.284122	br$	-0.3000807
-3.858154	br$d	-0.1430716
-4.460214	br$l	-0.1577299
-4.460214	br$n	-0.1577299
-3.6473	br1	-0.3137609
-4.284122	br1d	-0.3338211
-3.719851	br1k	-0.3272929
-4.062274	br1n	-0.2228305
-4.460214	br1nz	-0.1577299
-4.460214	br1s	-0.3007439
-4.159184	br1t	-0.4587599
-4.284122	br1v	-0.1472093
-4.460214	br1z	-0.1577299
-3.858154	br5	-0.2980699
-4.460214	br5J	-0.1577299
-4.460214	br5k	-0.1577299
-3.916146	br@	-0.3277815
-4.159184	br@l	-0.4587599
-4.460214	br@m	-0.1577299
-4.460214	br@nt	-0.1577299
-4.460214	br@s	-0.1577299
-3.858154	brE	-0.3779704
-4.284122	brET	-0.1559678
-3.983092	brEd	-0.2823125
-4.460214	brEk	-0.3010149
-4.284122	brEst	-0.1575728
-4.460214	brEt	-0.1577299
-4.284122	brEtT	-0.3338211
-3.719851	brI	-0.2980471
-4.460214	brI@	-0.3005255
-4.460214	brI@t	-0.1577299
-4.460214	brIN	-0.1577299
-3.983092	brI_	-0.4003595
-4.460214	brI_d	-0.1577299
-4.460214	brIg	-0.1577299
-3.719851	brIk	-0.3324897
-4.284122	brIl	-0.1576985
-4.460214	brIm	-0.1577299
-4.460214	brIn	-0.3010074
-4.284122	brIs	-0.1472093
-4.159184	brIsk	-0.1437639
-4.159184	brQ	-0.2917503
-4.284122	brQIl	-0.3338211
-4.062274	brQN	-0.3003522
-4.460214	brQT	-0.1577299
-4.460214	brUk	-0.1577299
-4.284122	brV	-0.476918
-3.858154	brVS	-0.3788452
-4.460214	brVnt	-0.1577299
-4.284122	brVpt	-0.1472093
-3.761244	bri	-0.1798938
-4.460214	briD	-0.1577299
-4.159184	brid	-0.4587599
-4.062274	brif	-0.2140489
-4.460214	brifs	-0.1577299
-4.460214	brim	-0.1577299
-4.460214	briz	-0.1577299
-3.615116	bru	-0.3286
-4.460214	brum	-0.3008267
-4.460214	brusk	-0.1577299
-4.460214	brut	-0.1577299
-3.983092	br{	-0.298721
-4.284122	br{S	-0.1543673
-4.284122	br{d	-0.1575205
-4.460214	br{g	-0.1577299
-4.460214	br{kt	-0.1577299
-4.460214	br{m	-0.2991747
-4.284122	br{n	-0.2973115
-4.460214	br{nd	-0.1577299
-3.557124	bu	-0.2480054
-4.460214	buZ	-0.1577299
-4.460214	bub	-0.1577299
-4.460214	bubz	-0.1577299
-4.460214	bum	-0.1577299
-4.460214	bun	-0.1577299
-4.460214	bus	-0.1577299
-3.916146	but	-0.1550736
-4.460214	buz	-0.1577299
-3.005369	b{	-0.3155973
-4.460214	b{J	-0.1577299
-3.916146	b{N	-0.1977071
-3.983092	b{Nk	-0.282323
-4.062274	b{S	-0.2232088
-4.460214	b{St	-0.1577299
-4.460214	b{_	-0.1577299
-4.284122	b{b	-0.3338211
-4.460214	b{d	-0.2986151
-3.585152	b{g	-0.5088119
-4.460214	b{gz	-0.1577299
-3.137994	b{k	-0.3228446
-4.062274	b{kt	-0.5556699
-4.284122	b{l	-0.1553893
-4.460214	b{m	-0.3009095
-3.6473	b{n	-0.1685793
-3.761244	b{nd	-0.5968741
-4.460214	b{ndz	-0.300322
-4.460214	b{p	-0.3009848
-4.460214	b{s	-0.1577299
-4.284122	b{st	-0.3338211
-3.983092	b{t	-0.6348512
-4.460214	b{ts	-0.300322
-4.159184	d#	-0.2994845
-3.193042	d#I	-0.3446382
-4.460214	d#Ik	-0.1577299
-4.284122	d#Im	-0.3338211
-4.460214	d#In	-0.1577299
-4.460214	d#Is	-0.1577299
-4.159184	d#It	-0.4587599
-4.460214	d#Iv	-0.1577299
-4.284122	d#Iz	-0.3338211
-4.460214	d#R	-0.1577299
-3.682062	d#U	-0.1801464
-3.460214	d#Un	-0.3841564
-4.460214	d#Us	-0.1577299
-4.062274	d#Ut	-0.1544939
-4.460214	d#ft	-0.2986151
-4.159184	d#k	-0.1437639
-4.284122	d#n	-0.1573843
-4.460214	d#ns	-0.1577299
-4.460214	d#t	-0.3008267
-3.439024	d$	-0.1679363
-3.557124	d$R	-1.06082
-4.460214	d$b	-0.1577299
-4.460214	d$m	-0.1577299
-4.062274	d$n	-0.2234503
-4.284122	d$nt	-0.1559678
-4.460214	d$s	-0.1577299
-4.284122	d$z	-0.3338211
-3.053673	d1	-0.2725353
-4.460214	d1l	-0.1577299
-3.761244	d1n	-0.3630634
-4.460214	d1s	-0.1577299
-3.719851	d1t	-0.6345685
-4.460214	d1ts	-0.1577299
-4.284122	d1z	-0.3338211
-3.983092	d3	-0.3471946
-4.460214	d3T	-0.1577299
-4.460214	d3_	-0.1577299
-4.460214	d3m	-0.1577299
-4.460214	d3n	-0.3003898
-4.460214	d3t	-0.1577299
-3.053673	d5	-0.3512627
-4.460214	d5_	-0.1577299
-4.460214	d5d	-0.1577299
-4.062274	d5l	-0.2240167
-4.460214	d5lt	-0.1577299
-4.460214	d5m	-0.1577299
-4.460214	d5n	-0.1577299
-4.460214	d5p	-0.1577299
-4.460214	d5s	-0.1577299
-4.460214	d5t	-0.1577299
-4.460214	d5z	-0.1577299
-2.627705	d@	-0.2425864
-2.788116	d@R	-1.829828
-4.062274	d@d	-0.5556699
-4.159184	d@k	-0.4587599
-4.460214	d@l	-0.1577299
-3.530795	d@m	-1.087149
-3.807001	d@n	-0.5523072
-3.761244	d@ns	-0.8566999
-3.585152	d@nt	-1.032791
-4.062274	d@s	-0.3331926
-4.460214	d@t	-0.1577299
-4.284122	d@z	-0.3338211
-2.916146	dE	-0.3914689
-3.807001	dE@	-0.4715544
-4.460214	dE@R	-0.1577299
-4.284122	dET	-0.2933772
-4.062274	dEd	-0.2930017
-4.284122	dEf	-0.1543673
-4.159184	dEft	-0.1437639
-3.983092	dEk	-0.2822811
-4.159184	dEks	-0.2546189
-4.460214	dEkt	-0.1577299
-4.284122	dEl	-0.3338211
-4.284122	dEm	-0.3338211
-4.460214	dEmp	-0.2978425
-3.761244	dEn	-0.1799677
-4.460214	dEnd	-0.1577299
-4.159184	dEns	-0.2441193
-4.460214	dEnt	-0.1577299
-4.460214	dEpT	-0.1577299
-4.284122	dEs	-0.3338211
-4.460214	dEsk	-0.1577299
-4.284122	dEt	-0.3338211
-3.159184	dH	-0.4883439
-4.284122	dHs	-0.3338211
-3.983092	dHt	-0.3902473
-2.082725	dI	-0.1983709
-3.983092	dI@	-0.3419562
-4.284122	dI@R	-0.3338211
-4.460214	dI@l	-0.1577299
-4.062274	dI@m	-0.5556699
-4.284122	dI@s	-0.3338211
-4.460214	dI@t	-0.1577299
-4.460214	dIJ	-0.1577299
-3.053673	dIN	-0.8957099
-4.284122	dINz	-0.3338211
-3.585152	dIS	-0.498866
-3.916146	dI_	-0.7017979
-3.314085	dId	-1.007547
-4.159184	dIg	-0.2521731
-3.460214	dIk	-0.3754064
-4.460214	dIks	-0.1577299
-4.062274	dIkt	-0.5556699
-4.062274	dIl	-0.3332869
-4.159184	dIm	-0.1468445
-4.062274	dIn	-0.3327626
-4.460214	dIp	-0.3008267
-3.04524	dIs	-0.1848494
-4.460214	dIsk	-0.1577299
-3.916146	dIst	-0.4482393
-3.916146	dIt	-0.7017979
-4.460214	dIv	-0.1577299
-4.460214	dIz	-0.2996128
-2.831825	dP	-0.6923699
-4.284122	dPd	-0.3338211
-4.460214	dPz	-0.1577299
-3.314085	dQ	-0.3764744
-4.284122	dQI	-0.2932316
-4.284122	dQN	-0.1563565
-4.460214	dQf	-0.1577299
-3.6473	dQg	-0.2509079
-4.460214	dQgz	-0.3007289
-3.858154	dQk	-0.2287648
-4.284122	dQks	-0.3338211
-4.159184	dQl	-0.300759
-4.460214	dQn	-0.1577299
-4.284122	dQp	-0.2973571
-4.460214	dQpt	-0.1577299
-4.284122	dQs	-0.1573005
-4.460214	dQt	-0.1577299
-4.460214	dU	-0.2987059
-4.460214	dU@R	-0.1577299
-3.505971	dV	-0.3220488
-4.159184	dVN	-0.3973074
-4.460214	dVb	-0.1577299
-4.460214	dVd	-0.1577299
-4.460214	dVdz	-0.1577299
-4.460214	dVf	-0.1577299
-4.460214	dVg	-0.3005029
-3.6473	dVk	-0.3828815
-3.807001	dVkt	-0.8109424
-4.159184	dVl	-0.2890898
-4.460214	dVl_	-0.1577299
-3.719851	dVm	-0.1746403
-4.460214	dVmps	-0.1577299
-3.983092	dVn	-0.4006214
-4.460214	dVns	-0.1577299
-4.460214	dVs	-0.300043
-4.460214	dVsk	-0.1577299
-3.807001	dVst	-0.2224834
-4.062274	dVv	-0.1573529
-3.02885	di	-0.1533506
-4.159184	did	-0.2512773
-4.284122	dil	-0.3338211
-4.284122	dim	-0.3338211
-4.062274	din	-0.5556699
-4.460214	dip	-0.1577299
-4.284122	dj@	-0.2910347
-4.159184	dj@l	-0.4587599
-4.062274	dj@m	-0.5556699
-4.159184	dj@n	-0.4587599
-4.284122	dj@ns	-0.3338211
-4.284122	dj@nt	-0.3338211
-3.916146	dj@s	-0.4482393
-3.916146	djU	-0.3410659
-4.159184	djU@	-0.2993183
-4.284122	djU@R	-0.3338211
-4.284122	djU@s	-0.1472093
-3.399516	dju	-0.2606245
-4.284122	djud	-0.3338211
-4.460214	djuk	-0.300902
-4.460214	djuks	-0.1577299
-4.284122	djul	-0.3338211
-3.807001	djus	-0.8109424
-4.460214	djust	-0.1577299
-4.159184	dr#I	-0.156409
-4.159184	dr#Iv	-0.2540638
-4.284122	dr#U	-0.4763907
-4.460214	dr#Un	-0.1577299
-4.460214	dr#Uz	-0.1577299
-4.159184	dr#f	-0.2968255
-4.284122	dr#ft	-0.3338211
-4.460214	dr#s	-0.1577299
-3.916146	dr$	-0.1973289
-4.460214	dr$l	-0.1577299
-4.284122	dr$n	-0.3338211
-4.460214	dr$z	-0.1577299
-4.062274	dr1	-0.1549471
-4.460214	dr1k	-0.1577299
-4.284122	dr1n	-0.1576147
-4.460214	dr1t	-0.1577299
-4.159184	dr5	-0.2917196
-4.460214	dr5g	-0.1577299
-4.460214	dr5l	-0.1577299
-4.460214	dr5m	-0.1577299
-4.460214	dr5v	-0.1577299
-4.159184	dr@	-0.1566189
-4.460214	dr@l	-0.1577299
-4.460214	dr@mz	-0.1577299
-4.284122	dr@n	-0.3338211
-4.460214	dr@ns	-0.1577299
-4.284122	dr@nt	-0.3338211
-4.460214	dr@s	-0.1577299
-4.460214	dr@tT	-0.1577299
-3.983092	drE	-0.297266
-4.460214	drE_	-0.1577299
-4.159184	drEd	-0.1571433
-4.460214	drEgz	-0.1577299
-4.460214	drEnJ	-0.1577299
-3.916146	drEs	-0.7017979
-4.460214	drEst	-0.1577299
-3.6473	drI	-0.2853653
-4.284122	drI@	-0.2955317
-4.284122	drIN	-0.2989857
-4.460214	drINk	-0.1577299
-4.460214	drIf	-0.2995449
-4.284122	drIft	-0.157489
-4.460214	drIl	-0.1577299
-4.460214	drIp	-0.1577299
-4.284122	drIs	-0.3338211
-4.460214	drIz	-0.1577299
-4.159184	drQ	-0.3004953
-4.284122	drQIt	-0.1472093
-4.460214	drQS	-0.300043
-3.807001	drQp	-0.8109424
-4.460214	drQps	-0.1577299
-4.460214	drQs	-0.1577299
-4.460214	drU	-0.300774
-4.062274	drV	-0.3005933
-4.284122	drVN	-0.3001637
-4.460214	drVb	-0.1577299
-4.460214	drVf	-0.1577299
-4.460214	drVg	-0.1577299
-3.983092	drVm	-0.2081176
-3.983092	dri	-0.5418953
-3.916146	drim	-0.2525623
-4.460214	dru	-0.3009923
-4.460214	drun	-0.1577299
-4.460214	drup	-0.1577299
-4.062274	dr{	-0.3676004
-4.284122	dr{b	-0.1543673
-4.284122	dr{g	-0.1576147
-4.460214	dr{m	-0.1577299
-4.460214	dr{t	-0.1577299
-3.682062	du	-0.3063517
-4.460214	duS	-0.1577299
-4.460214	dum	-0.1577299
-4.460214	dumd	-0.1577299
-4.460214	dw#R	-0.1577299
-4.460214	dw$	-0.3008644
-4.460214	dw$f	-0.1577299
-3.530795	d{	-0.3235778
-4.284122	d{N	-0.3003295
-4.460214	d{Nk	-0.1577299
-4.159184	d{S	-0.2543572
-4.460214	d{St	-0.1577299
-4.460214	d{bz	-0.1577299
-4.284122	d{d	-0.3338211
-4.460214	d{k	-0.3005029
-4.460214	d{ks	-0.3010149
-3.6473	d{m	-0.2207758
-4.460214	d{md	-0.1577299
-4.284122	d{mp	-0.1543673
-3.858154	d{n	-0.1452208
-4.284122	d{p	-0.2986908
-4.460214	d{t	-0.1577299
-3.682062	f#	-0.3362451
-2.874753	f#I	-0.6038371
-4.159184	f#Id	-0.4587599
-4.284122	f#If	-0.1577089
-4.062274	f#Il	-0.5556699
-3.807001	f#In	-0.3188379
-4.284122	f#Ind	-0.3338211
-4.460214	f#Inz	-0.1577299
-3.983092	f#It	-0.6348512
-4.460214	f#Iv	-0.3009246
-4.284122	f#R	-0.3338211
-4.460214	f#U	-0.3003823
-4.159184	f#Ul	-0.2441193
-4.460214	f#Un	-0.3009321
-4.159184	f#Und	-0.2538856
-4.460214	f#Unt	-0.1577299
-4.159184	f#m	-0.3003898
-4.159184	f#s	-0.1566084
-4.159184	f#st	-0.2512773
-4.460214	f#t	-0.1577299
-2.836964	f$	-0.1759771
-4.460214	f$J	-0.3009848
-3.858154	f$R	-0.7597899
-3.916146	f$T	-0.187668
-4.460214	f$_	-0.1577299
-4.284122	f$d	-0.3338211
-4.159184	f$k	-0.1567238
-3.505971	f$l	-0.3384155
-4.159184	f$ls	-0.2909115
-4.284122	f$lt	-0.1559678
-3.719851	f$m	-0.6330891
-4.159184	f$md	-0.4587599
-4.460214	f$n	-0.1577299
-3.807001	f$s	-0.3322692
-4.460214	f$st	-0.1577299
-4.284122	f$t	-0.1574471
-4.460214	f$z	-0.1577299
-3.48249	f1	-0.1668379
-4.159184	f1T	-0.1562619
-4.460214	f1k	-0.1577299
-4.460214	f1l	-0.1577299
-4.284122	f1m	-0.3338211
-4.460214	f1md	-0.1577299
-4.062274	f1n	-0.3233005
-4.460214	f1nd	-0.1577299
-4.460214	f1nt	-0.293492
-3.916146	f1s	-0.4569978
-4.460214	f1st	-0.1577299
-4.159184	f1t	-0.2536863
-4.460214	f1z	-0.1577299
-3.269882	f3	-0.3549445
-3.916146	f3R	-0.7017979
-4.460214	f3T	-0.1577299
-4.284122	f3l	-0.3338211
-4.062274	f3m	-0.3304586
-4.460214	f3md	-0.1577299
-4.062274	f3st	-0.2242054
-4.284122	f3z	-0.3338211
-3.32988	f5	-0.2072873
-3.761244	f5k	-0.3647352
-4.460214	f5ks	-0.1577299
-4.460214	f5l	-0.1577299
-3.615116	f5ld	-1.002828
-4.460214	f5m	-0.1577299
-3.858154	f5n	-0.5098182
-4.460214	f5nz	-0.1577299
-2.897921	f@	-0.1797033
-3.381032	f@R	-1.236911
-4.159184	f@l	-0.4587599
-4.284122	f@n	-0.2981608
-4.284122	f@nt	-0.3338211
-4.460214	f@s	-0.1577299
-4.460214	f@st	-0.1577299
-4.284122	f@t	-0.3338211
-4.460214	f@z	-0.1577299
-3.204941	fE	-0.3574073
-3.6473	fE@	-0.3259491
-3.807001	fE@R	-0.8109424
-4.460214	fEJ	-0.1577299
-4.460214	fEd	-0.1577299
-3.615116	fEk	-0.4112467
-3.983092	fEkt	-0.6348512
-4.460214	fEl	-0.1577299
-4.460214	fElt	-0.1577299
-3.983092	fEn	-0.3472174
-4.159184	fEnd	-0.4587599
-4.159184	fEns	-0.4587599
-4.460214	fEs	-0.1577299
-4.159184	fEst	-0.4587599
-4.284122	fEt	-0.1575519
-4.460214	fEz	-0.1577299
-3.916146	fH	-0.4581733
-2.719851	fI	-0.2508225
-3.858154	fI@	-0.1881261
-4.284122	fI@R	-0.3338211
-4.284122	fI@s	-0.2910347
-3.807001	fIN	-0.3220332
-4.460214	fINk	-0.1577299
-3.418821	fIS	-0.6489534
-4.284122	fI_	-0.3338211
-4.460214	fIb	-0.1577299
-4.460214	fId	-0.1577299
-4.284122	fIf	-0.3009246
-4.460214	fIfT	-0.1577299
-4.284122	fIg	-0.1571433
-3.585152	fIk	-0.369701
-4.159184	fIks	-0.2540428
-4.460214	fIkst	-0.1577299
-4.284122	fIkt	-0.3338211
-3.761244	fIl	-0.2495544
-4.460214	fIlT	-0.1577299
-4.460214	fIlm	-0.1577299
-3.807001	fIn	-0.8109424
-4.062274	fInJ	-0.5556699
-3.807001	fIs	-0.8109424
-4.460214	fIst	-0.1577299
-3.6473	fIt	-0.4539179
-4.460214	fIz	-0.1577299
-3.399516	fP	-0.5861317
-4.460214	fPd	-0.1577299
-4.159184	fPz	-0.4587599
-3.439024	fQ	-0.331499
-4.460214	fQI	-0.2991747
-4.460214	fQId	-0.1577299
-4.284122	fQIl	-0.3338211
-4.159184	fQg	-0.2545247
-4.460214	fQk	-0.2986151
-4.284122	fQks	-0.1576985
-4.159184	fQn	-0.3001033
-4.284122	fQnd	-0.1543673
-4.460214	fQp	-0.1577299
-4.460214	fQs	-0.3009999
-4.460214	fQz	-0.3009999
-3.071048	fU	-1.104325
-2.802202	fUl	-1.056073
-3.32988	fUt	-0.2122606
-3.505971	fV	-0.3549426
-4.460214	fVN	-0.300043
-4.284122	fVNk	-0.4739338
-4.460214	fVNkt	-0.1577299
-4.460214	fV_	-0.1577299
-4.460214	fVg	-0.1577299
-4.460214	fVk	-0.1577299
-4.284122	fVl	-0.2991747
-4.460214	fVm	-0.2991747
-4.284122	fVn	-0.1576356
-4.284122	fVnd	-0.3338211
-4.159184	fVs	-0.157269
-4.460214	fVsk	-0.1577299
-4.460214	fVt	-0.1577299
-4.460214	fVz	-0.1577299
-3.381032	fi	-0.3097571
-4.159184	fid	-0.2542
-4.284122	fil	-0.1567448
-3.761244	fild	-0.4582152
-4.460214	fim	-0.1577299
-4.159184	fin	-0.2544829
-4.460214	find	-0.1577299
-4.460214	fist	-0.1577299
-4.062274	fit	-0.3304586
-4.460214	fj@	-0.1577299
-4.460214	fjU	-0.3009472
-4.062274	fjU@	-0.3005556
-4.460214	fjU@d	-0.1577299
-4.284122	fjU@l	-0.3338211
-3.439024	fju	-0.2350867
-4.284122	fju_	-0.3338211
-4.460214	fjud	-0.1577299
-4.460214	fjug	-0.1577299
-4.159184	fjum	-0.4587599
-4.460214	fjumz	-0.1577299
-4.062274	fjus	-0.3233005
-4.062274	fjuz	-0.5556699
-4.460214	fjuzd	-0.1577299
-3.585152	fl#I	-0.2883126
-4.460214	fl#It	-0.1577299
-4.460214	fl#Iz	-0.1577299
-3.916146	fl#U	-0.5968817
-4.460214	fl#Un	-0.300322
-4.460214	fl#Uns	-0.1577299
-4.460214	fl#Ut	-0.1577299
-4.460214	fl#Z	-0.1577299
-4.460214	fl#sk	-0.1577299
-3.6473	fl$	-0.1930086
-4.460214	fl$R	-0.1577299
-4.460214	fl$nt	-0.1577299
-3.858154	fl1	-0.1838868
-4.159184	fl1k	-0.4587599
-4.460214	fl1l	-0.1577299
-4.284122	fl1m	-0.3338211
-4.460214	fl1md	-0.1577299
-4.284122	fl1t	-0.3338211
-4.460214	fl3	-0.3005933
-4.460214	fl3t	-0.1577299
-3.916146	fl5	-0.2512878
-4.460214	fl5n	-0.1577299
-4.460214	fl5t	-0.1577299
-4.159184	fl@	-0.3006083
-4.460214	flE	-0.3007063
-4.460214	flE@d	-0.1577299
-4.159184	flES	-0.4587599
-4.460214	flE_	-0.3004878
-4.284122	flEk	-0.15329
-4.284122	flEks	-0.3338211
-4.460214	flEkt	-0.1577299
-4.460214	flEm	-0.1577299
-3.858154	flI	-0.2946592
-4.460214	flIJ	-0.1577299
-4.159184	flIN	-0.4587599
-4.284122	flIk	-0.15329
-4.460214	flIks	-0.1577299
-4.284122	flIkt	-0.3338211
-4.284122	flIm	-0.4763907
-4.460214	flIn	-0.2976302
-4.460214	flInJ	-0.1577299
-4.460214	flIp	-0.1577299
-4.460214	flIt	-0.1577299
-3.983092	flQ	-0.3506748
-4.460214	flQg	-0.1577299
-4.460214	flQk	-0.1577299
-4.460214	flQks	-0.1577299
-4.460214	flQp	-0.1577299
-4.460214	flQs	-0.1577299
-4.460214	flQt	-0.3007364
-4.460214	flU	-0.3009622
-4.284122	flU@ns	-0.3338211
-4.284122	flU@nt	-0.3338211
-3.858154	flV	-0.3272422
-4.460214	flVN	-0.300043
-4.460214	flVS	-0.1577299
-4.460214	flVSt	-0.1577299
-4.159184	flVd	-0.1571538
-4.460214	flVf	-0.1577299
-4.460214	flVk	-0.3009848
-4.159184	flVks	-0.4587599
-4.159184	fli	-0.1536705
-4.460214	flis	-0.1577299
-4.460214	flit	-0.2986151
-3.807001	flu	-0.1862776
-4.460214	flut	-0.1577299
-3.585152	fl{	-0.3496368
-4.460214	fl{Nk	-0.1577299
-4.460214	fl{S	-0.3007138
-4.284122	fl{g	-0.3007816
-4.159184	fl{k	-0.1575205
-4.460214	fl{ks	-0.1577299
-4.460214	fl{m	-0.3007816
-4.460214	fl{n	-0.1577299
-4.460214	fl{n_	-0.1577299
-4.284122	fl{p	-0.1576147
-3.916146	fl{t	-0.1845076
-4.062274	fr#I	-0.151106
-4.062274	fr#It	-0.1562724
-4.284122	fr#U	-0.29996
-4.460214	fr#Un	-0.1577299
-4.460214	fr$d	-0.1577299
-3.916146	fr1	-0.2524992
-4.460214	fr1d	-0.1577299
-4.460214	fr1l	-0.2976302
-4.062274	fr1m	-0.3333289
-4.460214	fr1mz	-0.1577299
-4.460214	fr1n	-0.1577299
-4.159184	fr1z	-0.2543572
-3.983092	fr@	-0.1566819
-4.460214	fr@n	-0.1577299
-4.284122	fr@ns	-0.3338211
-4.460214	fr@nt	-0.1577299
-3.916146	frE	-0.3379597
-4.460214	frE@R	-0.1577299
-4.062274	frES	-0.2131469
-4.284122	frEn	-0.3002692
-3.983092	frEnd	-0.1961793
-4.460214	frEndz	-0.1577299
-4.460214	frEs	-0.3004953
-4.062274	frEt	-0.1560203
-3.761244	frI	-0.1411075
-4.284122	frI_	-0.3338211
-4.460214	frIk	-0.2978425
-4.460214	frIl	-0.1577299
-4.284122	frIn_	-0.3338211
-4.460214	frIz	-0.1577299
-4.159184	frQ	-0.3005405
-4.460214	frQT	-0.1577299
-3.983092	frQg	-0.2826058
-4.460214	frQgd	-0.1577299
-4.460214	frQk	-0.1577299
-4.460214	frQm	-0.1577299
-4.460214	frQnd	-0.1577299
-4.460214	frQst	-0.1577299
-4.460214	frV	-0.3009848
-4.460214	frVm	-0.3009396
-4.460214	frVmp	-0.1577299
-4.159184	frVn	-0.3002994
-4.062274	frVnt	-0.5556699
-3.439024	fri	-0.1664661
-4.460214	frik	-0.1577299
-4.460214	friz	-0.1577299
-4.159184	fru	-0.2953488
-3.983092	frut	-0.2064998
-4.460214	fruts	-0.1577299
-4.284122	fr{	-0.3004652
-4.460214	fr{N	-0.3010149
-4.284122	fr{Nk	-0.1543673
-4.284122	fr{g	-0.300533
-3.858154	fr{k	-0.4349002
-4.460214	fr{kt	-0.1577299
-4.460214	fr{m	-0.1577299
-4.460214	fr{n	-0.3010149
-4.460214	fr{s	-0.1577299
-3.983092	fu	-0.4226144
-4.159184	fud	-0.254598
-4.284122	ful	-0.1573738
-4.460214	fuls	-0.3008644
-4.284122	fun	-0.3338211
-4.460214	fut	-0.3004878
-3.193042	f{	-0.3015067
-4.284122	f{b	-0.3338211
-4.460214	f{d	-0.1577299
-4.460214	f{g	-0.1577299
-4.460214	f{gd	-0.1577299
-3.858154	f{k	-0.2899707
-4.284122	f{kt	-0.3338211
-4.460214	f{lk	-0.1577299
-4.460214	f{lt	-0.1577299
-3.682062	f{n	-0.1712739
-4.460214	f{nt	-0.1577299
-4.284122	f{t	-0.1573214
-3.418821	g#	-0.1956319
-4.062274	g#I	-0.2243416
-4.159184	g#Id	-0.2543572
-4.284122	g#Il	-0.1567763
-4.284122	g#Iz	-0.3338211
-4.284122	g#R	-0.3338211
-4.460214	g#U	-0.2976302
-4.460214	g#U_	-0.1577299
-4.284122	g#Un	-0.3338211
-3.557124	g#d	-0.3975214
-4.460214	g#dz	-0.300322
-4.460214	g#st	-0.293492
-3.761244	g$	-0.2461841
-4.460214	g$R	-0.1577299
-4.460214	g$_	-0.1577299
-4.460214	g$k	-0.1577299
-4.460214	g$l	-0.1577299
-4.284122	g$nt	-0.1573319
-4.460214	g$p	-0.1577299
-4.460214	g$s	-0.1577299
-4.460214	g$z	-0.1577299
-3.314085	g1	-0.3370358
-4.159184	g1_	-0.4587599
-4.460214	g1_d	-0.1577299
-4.284122	g1d	-0.3338211
-4.460214	g1l	-0.1577299
-4.159184	g1m	-0.1469947
-4.284122	g1mz	-0.1567448
-3.916146	g1n	-0.1867212
-4.460214	g1p	-0.1577299
-3.363303	g1t	-0.8103663
-4.460214	g1z	-0.1577299
-3.858154	g3	-0.371408
-4.460214	g3T	-0.1577299
-4.460214	g3d	-0.1577299
-3.916146	g3l	-0.4585924
-4.460214	g3t	-0.1577299
-3.098486	g5	-0.4380836
-4.460214	g5d	-0.1577299
-4.062274	g5l	-0.1572795
-3.858154	g5ld	-0.1919474
-4.460214	g5st	-0.1577299
-4.284122	g5t	-0.1575728
-2.88043	g@	-0.2112603
-3.137994	g@R	-1.479949
-4.062274	g@d	-0.3233005
-4.460214	g@l	-0.3006987
-4.159184	g@m	-0.4587599
-3.460214	g@n	-0.8728673
-4.460214	g@nd	-0.1577299
-4.284122	g@ns	-0.3338211
-4.159184	g@nt	-0.4587599
-4.062274	g@s	-0.5556699
-3.761244	g@t	-0.8566999
-4.284122	g@z	-0.3338211
-4.159184	gE	-0.2976529
-4.460214	gE@	-0.3009246
-4.460214	gEn	-0.1577299
-4.460214	gEnst	-0.1577299
-4.460214	gEs	-0.1577299
-4.159184	gEst	-0.1569965
-3.983092	gEt	-0.276066
-3.18146	gI	-0.2979953
-4.460214	gI@	-0.3008945
-4.284122	gI@R	-0.3338211
-3.807001	gIN	-0.8109424
-4.460214	gINz	-0.1577299
-3.719851	gIS	-0.4795561
-4.284122	gI_	-0.3338211
-3.761244	gId	-0.4447939
-4.460214	gIft	-0.1577299
-4.284122	gIg	-0.3338211
-3.916146	gIl	-0.2486108
-4.460214	gIlt	-0.2997638
-4.460214	gIm	-0.3007439
-4.159184	gIn	-0.4587599
-4.460214	gInz	-0.1577299
-4.460214	gIs	-0.1577299
-4.460214	gIst	-0.1577299
-4.062274	gIt	-0.5556699
-4.159184	gIv	-0.2512773
-3.089146	gP	-0.9475278
-4.284122	gPd	-0.3338211
-4.284122	gPz	-0.3338211
-3.505971	gQ	-0.3134364
-4.460214	gQI	-0.2995449
-4.460214	gQN	-0.1577299
-4.460214	gQS	-0.1577299
-4.460214	gQb	-0.1577299
-3.682062	gQd	-0.1900615
-4.460214	gQdz	-0.1577299
-4.062274	gQg	-0.5556699
-4.460214	gQl	-0.3008493
-4.460214	gQlf	-0.1577299
-3.916146	gQn	-0.457334
-4.460214	gQnz	-0.1577299
-4.460214	gQz	-0.3004878
-4.159184	gU	-0.2972963
-4.284122	gU@	-0.3005933
-4.460214	gU@d	-0.1577299
-4.062274	gUd	-0.2905262
-4.460214	gUdz	-0.1577299
-4.460214	gUz	-0.3003295
-3.505971	gV	-0.2944045
-4.460214	gVS	-0.1577299
-4.284122	gVl	-0.3338211
-4.460214	gVlS	-0.1577299
-4.460214	gVlp	-0.1577299
-4.159184	gVm	-0.1575205
-4.460214	gVmp	-0.2978425
-3.615116	gVn	-0.3102176
-4.159184	gVst	-0.4587599
-4.159184	gVt	-0.2512773
-3.916146	gVv	-0.1512974
-4.284122	gi	-0.1574262
-4.159184	gjU	-0.39687
-4.284122	gjU@	-0.2987513
-4.460214	gjU@R	-0.1577299
-4.159184	gju	-0.2545352
-4.460214	gjum	-0.1577299
-4.284122	gl#	-0.298494
-4.460214	gl#I	-0.300646
-4.460214	gl#Id	-0.1577299
-4.460214	gl#U	-0.3002391
-4.460214	gl#ns	-0.1577299
-3.858154	gl#s	-0.3784257
-3.983092	gl$	-0.347187
-4.284122	gl1	-0.3008794
-4.460214	gl1d	-0.1577299
-4.460214	gl1z	-0.1577299
-3.916146	gl5	-0.2507707
-4.460214	gl5b	-0.1577299
-4.460214	gl5t	-0.1577299
-4.284122	gl@R	-0.3338211
-4.460214	gl@n	-0.1577299
-4.460214	glE@R	-0.1577299
-4.460214	glEkt	-0.1577299
-4.460214	glEn	-0.1577299
-3.6473	glI	-0.2164344
-4.284122	glIN	-0.3338211
-4.284122	glIb	-0.1543673
-4.460214	glImps	-0.1577299
-4.460214	glInt	-0.1577299
-4.460214	glIt	-0.1577299
-3.983092	glQ	-0.4216882
-4.460214	glQs	-0.1577299
-4.159184	glV	-0.6017288
-4.159184	glVm	-0.1437639
-4.460214	glVt	-0.1577299
-4.062274	gli	-0.1562199
-4.460214	glim	-0.1577299
-4.460214	glin	-0.1577299
-3.916146	glu	-0.1936663
-4.460214	glum	-0.1577299
-4.159184	gl{	-0.3004501
-4.284122	gl{d	-0.1472093
-4.460214	gl{nd	-0.1577299
-4.460214	gr#	-0.2986151
-4.460214	gr#I	-0.2992201
-4.460214	gr#Imd	-0.1577299
-4.460214	gr#In	-0.300322
-4.460214	gr#Ind	-0.1577299
-4.460214	gr#Ip	-0.1577299
-4.460214	gr#Ips	-0.1577299
-4.460214	gr#U	-0.3003823
-4.460214	gr#UJ	-0.1577299
-4.460214	gr#Ul	-0.1577299
-4.460214	gr#Un	-0.300646
-4.159184	gr#Und	-0.4587599
-4.460214	gr#Undz	-0.1577299
-4.460214	gr#Us	-0.1577299
-3.719851	gr#f	-0.6327841
-4.460214	gr#ft	-0.1577299
-4.460214	gr#nt	-0.1577299
-4.159184	gr#s	-0.2545038
-3.418821	gr1	-0.2233126
-4.062274	gr1d	-0.5556699
-4.460214	gr1l	-0.1577299
-4.460214	gr1n	-0.1577299
-4.460214	gr1n_	-0.1577299
-4.460214	gr1nd	-0.1577299
-4.159184	gr1p	-0.3008719
-4.159184	gr1s	-0.2541267
-3.858154	gr1t	-0.2815366
-4.062274	gr1v	-0.2138772
-4.460214	gr1z	-0.1577299
-3.719851	gr5	-0.2043473
-4.159184	gr5T	-0.4587599
-4.159184	gr5n	-0.4587599
-4.460214	gr5p	-0.1577299
-4.062274	gr5s	-0.2107108
-4.460214	gr5t	-0.1577299
-4.284122	gr5v	-0.3338211
-3.983092	gr@	-0.3435558
-4.284122	gr@l	-0.3338211
-4.460214	gr@m	-0.1577299
-4.460214	gr@n	-0.2986151
-4.460214	gr@ns	-0.1577299
-4.062274	gr@nt	-0.5556699
-3.858154	grE	-0.435037
-4.460214	grEm	-0.3008569
-4.062274	grEs	-0.5556699
-4.284122	grEt	-0.3338211
-4.460214	grEts	-0.1577299
-3.719851	grI	-0.1749483
-4.159184	grI@	-0.1545571
-4.460214	grIN	-0.3006837
-4.284122	grId	-0.1571433
-4.062274	grIm	-0.2107108
-4.284122	grIn	-0.3338211
-4.460214	grIp	-0.1577299
-4.159184	grIs	-0.4587599
-4.460214	grIst	-0.1577299
-4.460214	grIt	-0.1577299
-4.460214	grIts	-0.1577299
-4.460214	grIz	-0.293492
-3.858154	grQ	-0.3744081
-4.460214	grQg	-0.1577299
-4.460214	grQt	-0.1577299
-4.460214	grU@	-0.3004878
-4.460214	grU@l	-0.1577299
-4.159184	grV	-0.3965229
-4.460214	grV_	-0.1577299
-4.284122	grVf	-0.2910347
-4.062274	grVm	-0.3648803
-4.460214	grVnt	-0.1577299
-3.585152	gri	-0.3234507
-4.460214	grib	-0.1577299
-3.916146	grin	-0.1950526
-4.159184	gris	-0.254598
-4.460214	grit	-0.1577299
-4.284122	griv	-0.3338211
-4.460214	grivd	-0.1577299
-4.460214	grivz	-0.1577299
-4.062274	gru	-0.3665446
-4.460214	grum	-0.1577299
-4.159184	grup	-0.4587599
-4.460214	gruv	-0.1577299
-3.615116	gr{	-0.3085786
-4.460214	gr{d	-0.1577299
-3.761244	gr{m	-0.5968636
-4.159184	gr{n	-0.1573424
-4.284122	gr{nd	-0.1543673
-4.460214	gr{p	-0.3005632
-3.916146	gu	-0.195116
-4.460214	guf	-0.1577299
-4.284122	gul	-0.3338211
-4.284122	gun	-0.3338211
-4.284122	gus	-0.157688
-4.159184	gw#	-0.2977515
-4.460214	gw@nt	-0.1577299
-4.460214	gwId	-0.1577299
-4.460214	gwIn	-0.1577299
-4.460214	gwIst	-0.1577299
-3.193042	g{	-0.3065704
-3.858154	g{N	-0.1911291
-4.460214	g{S	-0.1577299
-4.460214	g{b	-0.1577299
-4.159184	g{d	-0.1514673
-4.460214	g{f	-0.1577299
-4.460214	g{g	-0.1577299
-4.284122	g{l	-0.1574576
-4.062274	g{m	-0.2989933
-4.460214	g{n	-0.3005782
-4.284122	g{p	-0.3338211
-3.983092	g{s	-0.1568393
-4.460214	g{t	-0.1577299
-3.229765	h#	-0.2327105
-3.24273	h#I	-0.1428362
-4.284122	h#Id	-0.3338211
-4.284122	h#Ik	-0.3338211
-4.460214	h#Ind	-0.1577299
-4.460214	h#Iv	-0.1577299
-4.284122	h#S	-0.1472093
-4.284122	h#T	-0.1576985
-3.807001	h#U	-0.1785964
-4.460214	h#Ul	-0.1577299
-4.284122	h#Und	-0.3338211
-3.14846	h#Us	-0.5198206
-3.615116	h#d	-0.202088
-3.916146	h#f	-0.2534974
-4.460214	h#ft	-0.1577299
-4.062274	h#m	-0.2219571
-4.460214	h#ns	-0.1577299
-4.284122	h#p	-0.1543673
-3.615116	h#t	-0.190613
-4.460214	h#v	-0.1577299
-3.439024	h$	-0.1717629
-4.284122	h$R	-0.3338211
-4.460214	h$S	-0.300902
-4.460214	h$d	-0.1577299
-4.284122	h$k	-0.3338211
-3.983092	h$l	-0.207551
-4.460214	h$m	-0.1577299
-3.719851	h$n	-0.3311121
-4.460214	h$nJ	-0.1577299
-3.557124	h$s	-0.2423892
-4.460214	h$t	-0.1577299
-3.615116	h1	-0.1719483
-4.460214	h1k	-0.1577299
-4.159184	h1l	-0.1573738
-4.460214	h1p	-0.2992578
-4.460214	h1st	-0.1577299
-4.159184	h1t	-0.1562619
-4.284122	h1v	-0.3338211
-4.460214	h1z	-0.1577299
-3.585152	h3	-0.2952726
-4.460214	h3R	-0.1577299
-4.284122	h3b	-0.3338211
-4.159184	h3d	-0.4587599
-4.460214	h3dz	-0.300322
-4.460214	h3l	-0.1577299
-4.460214	h3s	-0.1577299
-4.284122	h3t	-0.1572167
-4.284122	h3ts	-0.3338211
-3.585152	h5	-0.1978412
-4.460214	h5k	-0.3007816
-4.460214	h5ks	-0.1577299
-3.363303	h5l	-0.4072647
-3.615116	h5ld	-0.482443
-3.719851	h5m	-0.1691756
-4.460214	h5n	-0.1577299
-3.983092	h5p	-0.2056464
-4.460214	h5st	-0.1577299
-4.460214	h5v	-0.1577299
-4.284122	h5z	-0.1576147
-3.858154	h@	-0.3775617
-3.217175	hE	-0.3857365
-3.585152	hE@	-0.3108232
-4.159184	hE@R	-0.4587599
-4.460214	hE@d	-0.1577299
-4.159184	hE_	-0.1565664
-3.170179	hEd	-0.3621209
-4.460214	hEdz	-0.1577299
-4.460214	hEf	-0.2976302
-3.916146	hEk	-0.1530467
-4.460214	hEks	-0.1577299
-3.858154	hEl	-0.2355377
-4.284122	hElT	-0.1567763
-4.460214	hElmz	-0.300322
-4.062274	hElp	-0.1552946
-4.062274	hEm	-0.1570594
-3.916146	hEn	-0.2501259
-4.460214	hEnd	-0.1577299
-4.460214	hEns	-0.1577299
-4.460214	hEp	-0.1577299
-4.460214	hEst	-0.1577299
-4.460214	hF	-0.1577299
-3.48249	hI	-0.3124849
-3.858154	hI@	-0.2994769
-3.983092	hI@R	-0.6348512
-4.460214	hIJ	-0.3010074
-4.460214	hIb	-0.1577299
-3.858154	hIl	-0.5095354
-4.460214	hIlt	-0.1577299
-4.284122	hIm	-0.1576461
-4.284122	hIn	-0.3003069
-4.460214	hIn_	-0.1577299
-4.460214	hInt	-0.1577299
-4.062274	hIp	-0.1565559
-4.460214	hIst	-0.1577299
-4.284122	hIt	-0.3338211
-4.460214	hIz	-0.1577299
-3.314085	hQ	-0.313064
-4.460214	hQIst	-0.1577299
-4.460214	hQJ	-0.3010149
-4.460214	hQN	-0.300043
-4.460214	hQNk	-0.1577299
-4.460214	hQ_	-0.3010149
-4.062274	hQb	-0.1576252
-4.159184	hQg	-0.2545038
-4.460214	hQgz	-0.3007364
-4.460214	hQk	-0.1577299
-4.460214	hQm	-0.3009999
-4.460214	hQp	-0.3010074
-4.284122	hQs	-0.2998091
-3.916146	hQt	-0.1458668
-4.062274	hU	-0.2982214
-4.460214	hU@	-0.2967495
-3.557124	hUd	-0.7860873
-4.062274	hUk	-0.2240692
-4.460214	hUnd	-0.1577299
-3.399516	hV	-0.1964857
-4.460214	hVJ	-0.1577299
-4.062274	hVN	-0.3005179
-4.460214	hVNk	-0.1577299
-4.460214	hVS	-0.1577299
-4.284122	hVb	-0.1574995
-4.460214	hVf	-0.1577299
-4.460214	hVl	-0.1577299
-4.460214	hVlk	-0.1577299
-4.284122	hVm	-0.1576671
-4.460214	hVmf	-0.1577299
-4.460214	hVmp	-0.1577299
-4.159184	hVn	-0.2990311
-4.284122	hVnJ	-0.15729
-4.460214	hVnts	-0.300322
-4.460214	hVs	-0.300043
-4.460214	hVt	-0.3006083
-3.530795	hi	-0.1790238
-4.460214	hiT	-0.1577299
-4.062274	hid	-0.2219571
-4.460214	hil	-0.1577299
-4.460214	hip	-0.1577299
-4.159184	hit	-0.1576671
-3.6473	hju	-0.2171911
-4.159184	hju_	-0.1437639
-4.460214	hjum	-0.1577299
-3.719851	hu	-0.2334242
-4.460214	huJ	-0.1577299
-4.460214	hud	-0.3009171
-4.460214	huf	-0.1577299
-4.284122	hum	-0.1562724
-4.460214	hup	-0.1577299
-4.460214	hut	-0.1577299
-4.460214	huz	-0.1577299
-3.193042	h{	-0.3390797
-4.460214	h{J	-0.3007138
-4.062274	h{N	-0.1539029
-4.460214	h{S	-0.1577299
-4.062274	h{k	-0.1545044
-4.284122	h{l	-0.3009848
-3.916146	h{m	-0.1556945
-3.807001	h{n	-0.4723617
-3.269882	h{nd	-0.2779008
-4.062274	h{p	-0.2225256
-4.159184	h{t	-0.1558626
-4.460214	h{v	-0.1577299
-4.460214	h{vz	-0.1577299
-2.961903	i	-0.276813
-4.460214	iJ	-0.1577299
-4.460214	ig	-0.3007439
-4.460214	ik	-0.1577299
-4.460214	il	-0.1577299
-3.983092	is	-0.3520847
-4.159184	ist	-0.2545352
-4.460214	it	-0.1577299
-4.460214	its	-0.1577299
-3.983092	iv	-0.1934656
-4.284122	ivz	-0.1576356
-4.284122	iz	-0.3338211
-4.460214	j#	-0.3009773
-4.460214	j#Ul	-0.1577299
-3.916146	j#d	-0.7017979
-4.460214	j#dz	-0.1577299
-4.159184	j$	-0.1568392
-4.460214	j$R	-0.1577299
-4.460214	j$l	-0.1577299
-4.460214	j$n	-0.1577299
-4.460214	j$z	-0.1577299
-4.284122	j1	-0.3338211
-4.460214	j3	-0.3007289
-4.460214	j3R	-0.1577299
-3.916146	j5	-0.3392579
-3.983092	j@	-0.2086206
-4.460214	j@R	-0.1577299
-4.159184	j@d	-0.4587599
-4.460214	j@l	-0.1577299
-3.858154	j@n	-0.7597899
-4.284122	j@ns	-0.3338211
-4.062274	jE	-0.3637115
-4.460214	jE@	-0.1577299
-4.460214	jEl	-0.1577299
-4.460214	jEn	-0.1577299
-4.284122	jEs	-0.3338211
-4.460214	jEt	-0.1577299
-4.460214	jI	-0.2998469
-4.062274	jI@	-0.2925875
-4.460214	jI@R	-0.1577299
-4.460214	jId	-0.1577299
-4.460214	jIn	-0.1577299
-4.159184	jQ	-0.2931626
-4.460214	jQNks	-0.1577299
-4.460214	jQb	-0.1577299
-4.284122	jQn	-0.3338211
-4.460214	jQnd	-0.1577299
-4.460214	jQt	-0.3006083
-4.460214	jQts	-0.300322
-4.062274	jU	-0.2988345
-4.159184	jU@	-0.2947384
-4.460214	jV	-0.2993485
-4.159184	jVN	-0.300141
-4.460214	ji	-0.3006912
-4.460214	jil	-0.300646
-4.460214	jild	-0.1577299
-3.137994	ju	-0.2810901
-4.159184	juT	-0.1562619
-4.460214	jud	-0.1577299
-4.284122	jul	-0.1576775
-3.983092	jus	-0.2056464
-4.284122	just	-0.3338211
-4.284122	juz	-0.3338211
-4.284122	juzd	-0.3338211
-4.460214	j{	-0.3004049
-4.460214	j{Nk	-0.1577299
-4.460214	j{m	-0.1577299
-4.460214	j{p	-0.1577299
-3.098486	k#	-0.1594202
-4.159184	k#I	-0.1576775
-4.460214	k#Ik	-0.1577299
-4.460214	k#In	-0.3000053
-4.284122	k#Ind	-0.1472093
-4.460214	k#It	-0.1577299
-4.159184	k#R	-0.4587599
-3.460214	k#U	-0.1468875
-4.460214	k#UJ	-0.1577299
-4.460214	k#Ul	-0.1577299
-3.983092	k#Un	-0.2937676
-3.983092	k#Unt	-0.3990058
-3.916146	k#d	-0.4584772
-4.460214	k#dz	-0.1577299
-4.460214	k#f	-0.1577299
-4.284122	k#m	-0.2910347
-4.460214	k#p	-0.1577299
-4.460214	k#sk	-0.1577299
-3.761244	k#st	-0.4525185
-3.916146	k#t	-0.4586238
-4.460214	k#v	-0.1577299
-3.02885	k$	-0.1736082
-4.284122	k$R	-0.3338211
-3.858154	k$d	-0.7597899
-4.460214	k$dz	-0.1577299
-4.284122	k$k	-0.1576566
-4.460214	k$kt	-0.1577299
-3.807001	k$l	-0.5556384
-4.460214	k$m	-0.1577299
-3.858154	k$n	-0.295907
-4.460214	k$ps	-0.1577299
-3.807001	k$s	-0.4070054
-4.460214	k$st	-0.1577299
-3.983092	k$t	-0.156556
-4.284122	k$z	-0.1559678
-2.961903	k1	-0.3495699
-4.460214	k1_	-0.1577299
-3.858154	k1d	-0.7597899
-4.460214	k1dz	-0.1577299
-3.761244	k1k	-0.8566999
-4.460214	k1l	-0.1577299
-4.460214	k1m	-0.3009472
-3.983092	k1n	-0.6348512
-4.460214	k1p	-0.1577299
-3.761244	k1s	-0.4579846
-3.34627	k1t	-1.271673
-4.159184	k1v	-0.2541791
-3.505971	k3	-0.3119986
-3.983092	k3R	-0.6348512
-4.460214	k3b	-0.1577299
-4.460214	k3l	-0.1577299
-4.460214	k3s	-0.1577299
-4.284122	k3st	-0.3338211
-4.284122	k3t	-0.1543673
-4.460214	k3v	-0.1577299
-2.909985	k5	-0.23839
-4.159184	k5J	-0.2541476
-4.062274	k5d	-0.5556699
-4.284122	k5k	-0.1573738
-4.460214	k5ks	-0.1577299
-3.719851	k5l	-0.179911
-4.159184	k5ld	-0.1437639
-4.460214	k5lt	-0.1577299
-4.062274	k5m	-0.5556699
-4.460214	k5md	-0.1577299
-4.159184	k5n	-0.4587599
-4.284122	k5p	-0.3338211
-3.983092	k5s	-0.3902473
-4.284122	k5st	-0.3007063
-3.761244	k5t	-0.8566999
-4.460214	k5v	-0.1577299
-2.412939	k@	-0.2466091
-2.852759	k@R	-1.765185
-4.062274	k@d	-0.5556699
-4.284122	k@l	-0.3338211
-3.418821	k@m	-0.2178935
-2.719851	k@n	-0.2296101
-4.159184	k@nd	-0.2441193
-4.159184	k@nt	-0.2441193
-3.615116	k@s	-0.7212405
-4.460214	k@st	-0.1577299
-4.062274	k@t	-0.5556699
-3.807001	k@z	-0.8109424
-3.585152	kE	-0.3713005
-3.983092	kE@	-0.2984183
-4.460214	kE@n	-0.1577299
-4.460214	kEJ	-0.1577299
-4.460214	kEmpt	-0.1577299
-4.460214	kEn	-0.1577299
-4.062274	kEt	-0.5556699
-4.284122	kH	-0.4766996
-2.643972	kI	-0.5151328
-4.460214	kI@	-0.1577299
-4.460214	kI@S	-0.1577299
-4.460214	kIJ	-0.1577299
-3.080002	kIN	-0.6802552
-4.460214	kINk	-0.1577299
-4.159184	kINz	-0.4587599
-3.719851	kIS	-0.4795561
-3.858154	kI_	-0.7597899
-3.682062	kId	-0.3452927
-4.062274	kIk	-0.2241006
-4.159184	kIl	-0.2545352
-4.284122	kIln	-0.3338211
-4.460214	kIlt	-0.1577299
-3.585152	kIn	-0.3781422
-4.460214	kInt	-0.1577299
-4.284122	kInz	-0.3002466
-4.460214	kIp	-0.1577299
-4.159184	kIs	-0.2544829
-4.062274	kIst	-0.5556699
-3.418821	kIt	-0.9164442
-4.284122	kIts	-0.3338211
-2.660873	kP	-1.126539
-4.159184	kPd	-0.4587599
-4.159184	kPz	-0.4587599
-2.756922	kQ	-0.3737262
-3.916146	kQI	-0.1831088
-4.284122	kQIl	-0.3338211
-4.460214	kQIn	-0.1577299
-4.460214	kQIts	-0.1577299
-3.761244	kQN	-0.2981684
-4.460214	kQS	-0.1577299
-4.062274	kQb	-0.2237546
-4.159184	kQd	-0.1567448
-4.460214	kQf	-0.1577299
-4.159184	kQg	-0.1566714
-3.460214	kQk	-0.2891397
-4.460214	kQks	-0.3009923
-4.460214	kQkt	-0.1577299
-4.159184	kQl	-0.1570804
-3.530795	kQm	-0.1676256
-3.159184	kQn	-0.1701402
-4.460214	kQnJ	-0.1577299
-4.460214	kQnd	-0.1577299
-4.460214	kQp	-0.1577299
-4.460214	kQps	-0.1577299
-4.460214	kQs	-0.1577299
-4.284122	kQst	-0.1472093
-3.916146	kQt	-0.7017979
-4.062274	kQz	-0.1548417
-3.761244	kU	-0.3522108
-2.968852	kV	-0.3771513
-4.284122	kVd	-0.1472093
-4.284122	kVf	-0.3338211
-4.284122	kVfs	-0.3338211
-3.761244	kVl	-0.176243
-4.460214	kVlt	-0.1577299
-3.505971	kVm	-0.2336221
-4.062274	kVn	-0.3670351
-4.460214	kVnt	-0.1577299
-3.858154	kVp	-0.2939235
-4.284122	kVs	-0.1560834
-3.719851	kVt	-0.2800543
-3.399516	ki	-0.295615
-4.460214	kiS	-0.1577299
-4.460214	kil	-0.1577299
-4.062274	kin	-0.2107108
-4.284122	kip	-0.1576775
-4.460214	kit	-0.1577299
-4.460214	kj#d	-0.1577299
-4.284122	kj@l	-0.3338211
-3.585152	kjU	-0.3731784
-3.858154	kjU@	-0.3261125
-4.062274	kjU@R	-0.5556699
-4.460214	kjU@m	-0.1577299
-4.284122	kjU@s	-0.3338211
-3.439024	kju	-0.187503
-4.460214	kjub	-0.1577299
-4.284122	kjul	-0.3338211
-3.858154	kjut	-0.3656127
-4.460214	kjuzd	-0.1577299
-4.159184	kl#	-0.1495942
-4.159184	kl#I	-0.3008117
-4.460214	kl#Im	-0.1577299
-4.159184	kl#In	-0.4587599
-4.460214	kl#Ind	-0.1577299
-4.460214	kl#U	-0.2974254
-4.460214	kl#Ud	-0.1577299
-4.460214	kl#Un	-0.1577299
-4.460214	kl#k	-0.1577299
-4.159184	kl#s	-0.2544829
-4.159184	kl$	-0.1575728
-4.460214	kl$z	-0.1577299
-4.159184	kl1	-0.1570699
-3.983092	kl1m	-0.6348512
-4.460214	kl1md	-0.1577299
-4.284122	kl1v	-0.3338211
-4.284122	kl3	-0.4763605
-4.284122	kl5	-0.3004803
-4.460214	kl5D	-0.1577299
-4.284122	kl5Dz	-0.1575623
-4.284122	kl5k	-0.1574262
-4.284122	kl5n	-0.3338211
-4.284122	kl5s	-0.1472093
-4.159184	kl5z	-0.4587599
-4.284122	kl@	-0.2999072
-3.858154	klE	-0.3273267
-4.284122	klE@R	-0.3338211
-4.460214	klEft	-0.1577299
-4.460214	klEk	-0.3005029
-4.159184	klEn	-0.2900248
-4.460214	klEnJ	-0.1577299
-3.761244	klI	-0.1747911
-3.983092	klI@	-0.2900248
-4.284122	klI@R	-0.3338211
-4.062274	klIN	-0.3329724
-4.460214	klINk	-0.1577299
-4.460214	klIf	-0.1577299
-4.284122	klIk	-0.3338211
-4.460214	klIn	-0.1577299
-4.460214	klInJ	-0.1577299
-4.284122	klIp	-0.1574471
-4.460214	klIps	-0.1577299
-4.284122	klIt	-0.3338211
-4.284122	klQ	-0.2995827
-4.284122	klQI	-0.1570804
-4.460214	klQS	-0.1577299
-3.682062	klQT	-0.9358811
-4.284122	klQg	-0.3338211
-4.284122	klQk	-0.1572376
-4.460214	klQp	-0.1577299
-4.159184	klV	-0.299016
-4.460214	klVJ	-0.1577299
-4.284122	klVb	-0.1573005
-4.460214	klVm	-0.3002994
-4.460214	klVmp	-0.1577299
-3.916146	kli	-0.299711
-4.460214	klik	-0.1577299
-4.159184	klin	-0.146705
-4.460214	klit	-0.1577299
-4.460214	kliv	-0.1577299
-3.858154	klu	-0.3776904
-4.159184	klud	-0.4587599
-4.460214	klus	-0.1577299
-3.557124	kl{	-0.3012946
-4.460214	kl{N	-0.1577299
-4.460214	kl{Nk	-0.1577299
-4.460214	kl{S	-0.1577299
-4.460214	kl{d	-0.1577299
-4.284122	kl{k	-0.1573843
-4.284122	kl{m	-0.1573948
-4.460214	kl{mp	-0.1577299
-4.460214	kl{n	-0.1577299
-4.460214	kl{nz	-0.300322
-4.284122	kl{p	-0.1576671
-4.062274	kr#I	-0.299628
-4.460214	kr#Ips	-0.1577299
-4.284122	kr#U	-0.3005179
-4.460214	kr#Ud	-0.1577299
-4.460214	kr#Un	-0.1577299
-4.460214	kr#Und	-0.1577299
-4.460214	kr#f	-0.2976302
-4.284122	kr#ft	-0.3338211
-4.460214	kr#l	-0.1577299
-4.284122	kr$	-0.3003672
-3.615116	kr1	-0.3568085
-4.460214	kr1S	-0.1577299
-4.284122	kr1k	-0.3338211
-4.460214	kr1n	-0.1577299
-4.460214	kr1p	-0.1577299
-4.284122	kr1t	-0.3338211
-4.460214	kr1v	-0.1577299
-4.460214	kr1z	-0.1577299
-3.615116	kr5	-0.1892452
-4.460214	kr5J	-0.1577299
-4.460214	kr5b	-0.1577299
-4.460214	kr5k	-0.1577299
-4.460214	kr5m	-0.1577299
-4.460214	kr5n	-0.1577299
-4.460214	kr5s	-0.1577299
-3.807001	kr@	-0.3611274
-4.460214	kr@l	-0.1577299
-4.460214	kr@m	-0.1577299
-4.460214	kr@s	-0.1577299
-3.807001	krE	-0.3238379
-4.460214	krEs	-0.1577299
-3.399516	krI	-0.1647803
-4.460214	krI@s	-0.1577299
-4.460214	krIN	-0.3000807
-4.284122	krId	-0.3338211
-4.460214	krImp	-0.1577299
-4.460214	krIn_	-0.1577299
-4.460214	krIp	-0.3005029
-4.460214	krIpt	-0.1577299
-4.284122	krIsp	-0.2910347
-4.284122	krIt	-0.3338211
-4.062274	krQ	-0.2985394
-4.460214	krQJ	-0.1577299
-4.460214	krQf	-0.2995449
-4.460214	krQk	-0.1577299
-4.460214	krQn	-0.1577299
-4.284122	krQp	-0.3338211
-3.615116	krQs	-0.1787655
-4.460214	krQst	-0.1577299
-4.460214	krQt	-0.3009923
-4.159184	krU	-0.3978346
-4.460214	krU@	-0.293492
-4.460214	krU@l	-0.2976302
-3.983092	krV	-0.3500173
-4.460214	krVJ	-0.1577299
-4.460214	krVS	-0.1577299
-4.460214	krVks	-0.1577299
-3.916146	krVm	-0.1954012
-4.460214	krVnJ	-0.1577299
-4.460214	krVpt	-0.1577299
-4.159184	krVst	-0.4587599
-3.557124	kri	-0.1936607
-4.460214	krik	-0.1577299
-4.460214	krips	-0.1577299
-4.159184	kris	-0.4587599
-4.460214	krit	-0.1577299
-3.585152	kru	-0.1793036
-4.460214	krud	-0.1577299
-4.460214	krun	-0.1577299
-4.460214	krup	-0.1577299
-4.460214	krut	-0.1577299
-4.460214	kruz	-0.1577299
-3.983092	kr{	-0.2976909
-4.460214	kr{N	-0.300043
-4.460214	kr{Nk	-0.1577299
-4.460214	kr{S	-0.1577299
-4.159184	kr{b	-0.1575833
-4.460214	kr{g	-0.1577299
-3.983092	kr{k	-0.2079917
-4.460214	kr{ks	-0.300322
-4.284122	kr{m	-0.1575938
-4.460214	kr{mp	-0.1577299
-4.460214	kr{mps	-0.1577299
-4.460214	kr{mpt	-0.1577299
-4.460214	kr{n	-0.3003295
-4.460214	kr{p	-0.1577299
-4.284122	kr{s	-0.1472093
-4.460214	kr{t	-0.1577299
-3.807001	ku	-0.1562094
-4.284122	kuT	-0.1543673
-4.159184	kul	-0.1437639
-4.460214	kum	-0.1577299
-4.159184	kun	-0.4587599
-4.284122	kup	-0.3338211
-4.460214	kut	-0.1577299
-4.460214	kw#	-0.3010149
-3.719851	kw#I	-0.4703407
-4.460214	kw#In	-0.1577299
-4.460214	kw#It	-0.1577299
-4.460214	kw#k	-0.1577299
-4.460214	kw#m	-0.1577299
-3.807001	kw$	-0.363985
-4.460214	kw$t	-0.1577299
-4.460214	kw$ts	-0.1577299
-3.858154	kw1	-0.1507552
-4.284122	kw1k	-0.3338211
-4.460214	kw1l	-0.1577299
-4.159184	kw1nt	-0.1437639
-4.460214	kw3k	-0.1577299
-4.159184	kw5	-0.2986227
-4.284122	kw5t	-0.3338211
-3.719851	kw@	-0.3364978
-4.460214	kw@d	-0.2986151
-4.159184	kw@l	-0.4587599
-4.460214	kw@ld	-0.1577299
-4.284122	kw@ns	-0.3338211
-4.159184	kw@nt	-0.4587599
-4.460214	kw@t	-0.1577299
-4.284122	kwE	-0.2966734
-4.460214	kwEl	-0.1577299
-4.460214	kwEn	-0.3008117
-4.460214	kwEnt	-0.1577299
-4.159184	kwEs	-0.1576461
-4.062274	kwEst	-0.5556699
-3.399516	kwI	-0.1739445
-4.159184	kwI@	-0.2866541
-4.460214	kwI@R	-0.1577299
-4.460214	kwI@m	-0.1577299
-4.460214	kwI@s	-0.1577299
-4.284122	kwId	-0.3338211
-3.916146	kwIk	-0.1434828
-4.159184	kwIl	-0.2540009
-4.460214	kwIlt	-0.1577299
-4.062274	kwIn	-0.2235972
-4.460214	kwInd	-0.1577299
-4.460214	kwIns	-0.1577299
-4.460214	kwIp	-0.1577299
-4.460214	kwIpt	-0.1577299
-4.460214	kwIs	-0.1577299
-4.159184	kwIt	-0.4587599
-4.460214	kwIts	-0.1577299
-4.284122	kwIz	-0.1569756
-3.916146	kwQ	-0.2950895
-4.460214	kwQI	-0.2966506
-4.284122	kwQS	-0.3338211
-4.460214	kwQd	-0.1577299
-4.159184	kwQn	-0.2989026
-4.284122	kwQt	-0.3338211
-4.284122	kwi	-0.4763907
-4.460214	kwiD	-0.1577299
-4.284122	kwin	-0.1472093
-4.284122	kw{	-0.2988194
-4.460214	kw{N	-0.3006837
-4.460214	kw{k	-0.1577299
-2.774472	k{	-0.3945251
-4.159184	k{J	-0.3004953
-4.284122	k{N	-0.2998469
-4.284122	k{S	-0.157688
-4.460214	k{T	-0.300887
-4.460214	k{_	-0.1577299
-4.159184	k{b	-0.2536548
-4.460214	k{d	-0.3010074
-4.284122	k{f	-0.1576252
-4.284122	k{l	-0.2995223
-3.916146	k{m	-0.1564825
-4.159184	k{mp	-0.2544829
-3.460214	k{n	-0.2303042
-4.460214	k{nT	-0.1577299
-4.159184	k{nt	-0.4587599
-3.418821	k{p	-0.2789096
-4.460214	k{s	-0.3008945
-4.460214	k{sk	-0.1577299
-3.719851	k{t	-0.2821659
-3.585152	l#	-0.1838868
-3.170179	l#I	-0.1958744
-4.284122	l#ID	-0.1472093
-4.159184	l#Id	-0.4587599
-3.6473	l#If	-0.1958549
-3.530795	l#Ik	-0.5415958
-4.460214	l#Iks	-0.1577299
-4.460214	l#Il	-0.1577299
-3.916146	l#Im	-0.2543048
-3.32988	l#In	-1.288064
-3.284122	l#It	-0.5094964
-4.460214	l#Its	-0.1577299
-4.284122	l#Iv	-0.1576252
-3.48249	l#Iz	-1.135453
-4.460214	l#J	-0.1577299
-3.807001	l#U	-0.2161676
-4.460214	l#Ud	-0.1577299
-4.460214	l#Un	-0.300774
-4.460214	l#Un_	-0.1577299
-4.159184	l#Us	-0.4587599
-4.460214	l#Ut	-0.1577299
-4.460214	l#Z	-0.1577299
-4.284122	l#_	-0.1472093
-4.062274	l#d	-0.5556699
-4.460214	l#f	-0.1577299
-4.284122	l#k	-0.3338211
-4.159184	l#n	-0.3006159
-4.460214	l#nJ	-0.1577299
-4.284122	l#ns	-0.3338211
-4.159184	l#st	-0.2441193
-3.682062	l$	-0.2621382
-4.062274	l$R	-0.5556699
-3.983092	l$d	-0.2717725
-3.807001	l$n	-0.2115099
-2.935169	l1	-0.3379577
-4.460214	l1D	-0.1577299
-4.460214	l1b	-0.1577299
-4.062274	l1d	-0.5556699
-4.460214	l1k	-0.1577299
-4.159184	l1m	-0.1437639
-4.284122	l1n	-0.3338211
-4.284122	l1s	-0.3338211
-3.24273	l1t	-1.076628
-4.460214	l1v	-0.1577299
-4.284122	l1z	-0.3338211
-4.159184	l3	-0.3000506
-4.284122	l3n	-0.3338211
-4.460214	l3t	-0.293492
-2.842165	l5	-0.3048674
-4.284122	l5D	-0.2931933
-4.460214	l5T	-0.1577299
-4.284122	l5b	-0.3338211
-4.460214	l5bd	-0.1577299
-3.858154	l5d	-0.3792644
-4.460214	l5f	-0.1577299
-3.983092	l5n	-0.2717295
-4.284122	l5p	-0.3338211
-4.460214	l5s	-0.1577299
-4.284122	l5z	-0.3338211
-2.538527	l@	-0.3370754
-2.826745	l@R	-1.791198
-3.983092	l@d	-0.6348512
-4.062274	l@k	-0.3304586
-4.460214	l@ks	-0.1577299
-3.585152	l@m	-0.5969794
-3.460214	l@n	-0.3684383
-3.807001	l@nd	-0.8109424
-3.585152	l@ns	-1.032791
-4.460214	l@nst	-0.1577299
-3.682062	l@nt	-0.6590927
-3.916146	l@p	-0.7017979
-3.34627	l@s	-0.6186744
-4.460214	l@sk	-0.1577299
-4.460214	l@st	-0.1577299
-3.682062	l@t	-0.9358811
-4.460214	l@z	-0.1577299
-2.961903	lE	-0.3521083
-4.284122	lE@	-0.3002843
-4.460214	lE@d	-0.1577299
-4.460214	lEN	-0.3010149
-4.284122	lENT	-0.3008945
-4.460214	lET	-0.1577299
-4.460214	lE_	-0.1577299
-4.460214	lEdz	-0.1577299
-4.460214	lEf	-0.3009622
-4.159184	lEft	-0.2993636
-3.983092	lEg	-0.3990058
-4.460214	lEgd	-0.1577299
-3.585152	lEk	-0.4305601
-4.284122	lEks	-0.3338211
-4.062274	lEkt	-0.5556699
-4.460214	lEn	-0.3010074
-4.460214	lEnt	-0.1577299
-4.460214	lEnz	-0.1577299
-3.983092	lEs	-0.6348512
-4.460214	lEsk	-0.1577299
-4.284122	lEst	-0.3338211
-3.807001	lEt	-0.4202694
-4.460214	lEz	-0.3010149
-1.764294	lI	-0.7262669
-4.062274	lI@	-0.1484622
-4.062274	lI@R	-0.5556699
-4.284122	lI@m	-0.3338211
-4.460214	lI@n	-0.1577299
-4.460214	lI@nd	-0.1577299
-4.284122	lI@nt	-0.3338211
-4.460214	lI@s	-0.1577299
-4.460214	lIJ	-0.3008418
-2.903911	lIN	-0.8394168
-4.284122	lINk	-0.3003446
-4.460214	lINks	-0.1577299
-4.159184	lINz	-0.4587599
-3.505971	lIS	-0.6666427
-4.284122	lIT	-0.3338211
-3.530795	lI_	-1.087149
-4.460214	lIb	-0.1577299
-3.719851	lId	-0.4795561
-4.460214	lIf	-0.1577299
-4.062274	lIft	-0.5556699
-3.557124	lIk	-0.7857732
-4.284122	lIks	-0.3338211
-4.284122	lIkt	-0.3338211
-4.460214	lIlt	-0.1577299
-3.916146	lIm	-0.154768
-4.460214	lImf	-0.1577299
-4.284122	lImp	-0.1472093
-3.399516	lIn	-0.4248083
-4.284122	lInJ	-0.1575414
-4.460214	lIndz	-0.1577299
-4.460214	lInt	-0.1577299
-3.858154	lIp	-0.295079
-4.460214	lIps	-0.1577299
-2.535934	lIs	-1.596062
-4.159184	lIsk	-0.4587599
-4.460214	lIsp	-0.1577299
-3.460214	lIst	-0.8761271
-3.18146	lIt	-1.146598
-3.983092	lIv	-0.400569
-4.460214	lIz	-0.300322
-3.298846	lQ	-0.3068662
-3.858154	lQI	-0.3732204
-4.460214	lQId	-0.1577299
-4.159184	lQIn	-0.4587599
-4.460214	lQInz	-0.1577299
-3.48249	lQN	-0.3670627
-4.460214	lQNd	-0.1577299
-4.460214	lQS	-0.1577299
-4.159184	lQ_	-0.2540533
-4.284122	lQb	-0.1570804
-4.284122	lQf	-0.2971673
-4.284122	lQft	-0.3338211
-3.858154	lQg	-0.379254
-4.460214	lQgd	-0.1577299
-3.530795	lQk	-0.5550413
-4.460214	lQks	-0.1577299
-4.460214	lQkt	-0.1577299
-4.460214	lQl	-0.1577299
-4.460214	lQm	-0.1577299
-4.460214	lQn	-0.1577299
-4.460214	lQnz	-0.1577299
-4.284122	lQp	-0.3338211
-4.159184	lQt	-0.2540533
-4.460214	lU	-0.30042
-4.284122	lU@	-0.4769782
-4.460214	lU@R	-0.1577299
-4.062274	lUk	-0.3330878
-4.460214	lUks	-0.1577299
-3.585152	lV	-0.3499502
-4.159184	lVN	-0.2544096
-4.460214	lVS	-0.1577299
-4.460214	lVg	-0.1577299
-4.062274	lVk	-0.2224309
-4.460214	lVl	-0.1577299
-3.983092	lVm	-0.298494
-4.460214	lVmf	-0.1577299
-4.460214	lVn	-0.3009848
-4.284122	lVnJ	-0.157489
-4.460214	lVn_	-0.1577299
-4.460214	lVs	-0.3009923
-4.284122	lVst	-0.3338211
-3.916146	lVv	-0.3333044
-3.170179	li	-0.1655396
-4.284122	liS	-0.3338211
-4.460214	lid	-0.1577299
-3.983092	lif	-0.3990058
-4.460214	lig	-0.1577299
-4.460214	lik	-0.1577299
-3.858154	lin	-0.7597899
-4.284122	lip	-0.1576671
-3.916146	lis	-0.3326892
-4.284122	list	-0.1576461
-4.159184	lit	-0.4587599
-4.159184	liv	-0.4587599
-4.159184	livd	-0.4587599
-4.159184	liz	-0.4587599
-4.460214	lj#d	-0.1577299
-4.460214	lj5	-0.1577299
-3.761244	lj@	-0.2967768
-4.284122	lj@R	-0.3338211
-4.460214	lj@d	-0.1577299
-4.460214	lj@m	-0.1577299
-3.807001	lj@n	-0.8109424
-4.284122	lj@nT	-0.3338211
-4.460214	lj@nt	-0.1577299
-4.460214	lj@s	-0.1577299
-4.062274	ljU	-0.3654484
-4.460214	ljU@	-0.3005481
-4.460214	ljU@R	-0.1577299
-4.460214	lju	-0.1577299
-4.460214	lju_	-0.1577299
-4.062274	ljud	-0.2107108
-4.460214	ljum	-0.1577299
-4.460214	ljumz	-0.1577299
-3.062274	lu	-0.2348046
-4.460214	luZ	-0.1577299
-4.159184	lud	-0.4587599
-4.284122	luf	-0.1472093
-4.460214	luk	-0.3010074
-4.159184	lum	-0.4587599
-4.062274	lun	-0.5556699
-4.159184	lup	-0.2543781
-4.159184	lus	-0.1437639
-4.062274	lut	-0.5556699
-3.229765	l{	-0.3330827
-4.284122	l{J	-0.157489
-4.062274	l{N	-0.2991369
-4.062274	l{S	-0.5556699
-4.460214	l{b	-0.1577299
-4.460214	l{d	-0.1577299
-4.460214	l{f	-0.1577299
-4.460214	l{g	-0.1577299
-3.807001	l{k	-0.2685216
-4.159184	l{ks	-0.2512773
-4.062274	l{m	-0.1571852
-4.062274	l{mp	-0.2242997
-3.858154	l{n	-0.2986681
-3.6473	l{nd	-0.2861798
-3.983092	l{p	-0.2824697
-4.159184	l{ps	-0.4587599
-4.460214	l{s	-0.1577299
-4.460214	l{v	-0.1577299
-3.108031	m#	-0.2048829
-3.399516	m#I	-0.1641634
-4.460214	m#Id	-0.1577299
-4.460214	m#Il	-0.3008343
-4.284122	m#Ild	-0.2910347
-4.460214	m#Im	-0.1577299
-3.807001	m#In	-0.4192828
-4.159184	m#Ind	-0.2528778
-4.159184	m#It	-0.4587599
-4.460214	m#Iz	-0.1577299
-4.284122	m#J	-0.3338211
-4.460214	m#R	-0.1577299
-4.284122	m#S	-0.1566504
-4.284122	m#U	-0.4747064
-4.460214	m#UD	-0.1577299
-3.983092	m#UT	-0.207635
-4.460214	m#Un	-0.3009246
-4.460214	m#Und	-0.1577299
-4.159184	m#Unt	-0.4587599
-4.062274	m#Us	-0.5556699
-4.460214	m#Uz	-0.1577299
-4.460214	m#_	-0.1577299
-3.682062	m#k	-0.669121
-4.460214	m#ks	-0.300322
-4.284122	m#kt	-0.3338211
-4.460214	m#l	-0.1577299
-4.284122	m#m	-0.3338211
-4.062274	m#n	-0.3664993
-4.159184	m#nd	-0.4587599
-4.159184	m#sk	-0.4587599
-4.159184	m#st	-0.2542315
-4.460214	m#t	-0.1577299
-3.24273	m$	-0.1693817
-3.916146	m$R	-0.7017979
-4.460214	m$d	-0.3008569
-4.460214	m$g	-0.1577299
-4.460214	m$l	-0.1577299
-4.460214	m$lt	-0.1577299
-4.062274	m$n	-0.1507445
-4.284122	m$s	-0.1559678
-3.020881	m1	-0.3391468
-3.761244	m1d	-0.8566999
-4.062274	m1k	-0.2245301
-3.858154	m1l	-0.2364189
-4.460214	m1ld	-0.1577299
-4.460214	m1m	-0.1577299
-3.505971	m1n	-0.2489207
-4.460214	m1n_	-0.1577299
-4.284122	m1nz	-0.3338211
-4.460214	m1s	-0.1577299
-3.585152	m1t	-1.032791
-4.284122	m1z	-0.1571433
-4.460214	m1zd	-0.1577299
-3.439024	m3	-0.3427952
-4.284122	m3R	-0.3338211
-4.159184	m3T	-0.1550103
-4.460214	m3_	-0.1577299
-4.460214	m3_d	-0.1577299
-4.460214	m3k	-0.1577299
-4.284122	m3s	-0.3338211
-3.013056	m5	-0.2331491
-4.284122	m5d	-0.3338211
-3.916146	m5l	-0.1517221
-4.460214	m5ld	-0.1577299
-4.159184	m5n	-0.4587599
-4.460214	m5p	-0.1577299
-3.6473	m5st	-0.6912773
-4.062274	m5t	-0.3233005
-4.460214	m5v	-0.1577299
-2.487086	m@	-0.2231878
-3.080002	m@R	-1.537941
-4.159184	m@T	-0.4587599
-4.159184	m@d	-0.4587599
-4.062274	m@k	-0.3337478
-4.460214	m@ks	-0.1577299
-4.062274	m@m	-0.5556699
-2.788116	m@n	-1.134384
-4.284122	m@nd	-0.3338211
-4.460214	m@ns	-0.1577299
-3.013056	m@nt	-1.604888
-4.460214	m@nz	-0.1577299
-3.6473	m@s	-0.6912773
-3.858154	m@t	-0.7597899
-4.284122	m@z	-0.3338211
-2.916146	mE	-0.3916932
-4.159184	mE@	-0.3975184
-4.284122	mE@R	-0.3338211
-4.460214	mEN	-0.3004953
-4.284122	mES	-0.3338211
-4.460214	mETs	-0.1577299
-4.460214	mEd	-0.3003823
-4.460214	mEg	-0.1577299
-4.460214	mEl	-0.300533
-4.460214	mEld	-0.1577299
-4.460214	mElt	-0.1577299
-3.983092	mEm	-0.2999299
-3.363303	mEn	-0.2568092
-4.159184	mEnd	-0.4587599
-4.460214	mEndz	-0.1577299
-4.159184	mEns	-0.2441193
-3.761244	mEnt	-0.8566999
-4.159184	mEs	-0.1552314
-4.284122	mEt	-0.2994392
-4.460214	mEz	-0.3005029
-2.381032	mI	-0.263802
-3.983092	mI@	-0.1981258
-4.159184	mI@R	-0.4587599
-4.284122	mI@m	-0.3338211
-4.284122	mI@n	-0.3338211
-3.439024	mIN	-0.544011
-4.460214	mINk	-0.1577299
-4.460214	mINks	-0.1577299
-4.284122	mIS	-0.3338211
-4.460214	mISt	-0.1577299
-4.460214	mIT	-0.1577299
-3.983092	mI_	-0.6348512
-3.557124	mId	-0.2282977
-4.284122	mIdst	-0.3338211
-4.460214	mIft	-0.1577299
-3.530795	mIk	-0.8105968
-3.983092	mIks	-0.4001709
-3.530795	mIl	-0.2432345
-3.858154	mIlk	-0.1912131
-4.460214	mIlt	-0.1577299
-3.557124	mIn	-0.3991634
-4.460214	mInd	-0.1577299
-4.460214	mIns	-0.3009698
-4.159184	mInt	-0.4587599
-3.314085	mIs	-0.1530838
-3.983092	mIst	-0.6348512
-4.460214	mIsts	-0.1577299
-3.505971	mIt	-0.8326613
-3.460214	mP	-0.6100627
-2.961903	mQ	-0.4382103
-4.460214	mQI	-0.3007816
-4.460214	mQIl	-0.1577299
-4.460214	mQIs	-0.3006008
-4.460214	mQIst	-0.293492
-4.159184	mQT	-0.1574471
-4.284122	mQb	-0.1570804
-4.460214	mQk	-0.1577299
-4.460214	mQm	-0.1577299
-4.284122	mQn	-0.2999072
-4.460214	mQn_	-0.1577299
-4.460214	mQns	-0.3009923
-4.460214	mQp	-0.1577299
-4.284122	mQs	-0.3338211
-4.284122	mQt	-0.1472093
-4.460214	mU	-0.3008192
-4.284122	mU@R	-0.3338211
-3.137994	mV	-0.3255192
-4.159184	mVJ	-0.2512773
-3.983092	mVN	-0.4246422
-4.460214	mVNk	-0.1577299
-4.460214	mVNst	-0.1577299
-4.284122	mVS	-0.1574262
-4.159184	mVd	-0.157489
-4.159184	mVf	-0.2537388
-4.460214	mVg	-0.1577299
-4.284122	mVk	-0.1569441
-4.159184	mVl	-0.3913276
-4.460214	mVlJ	-0.1577299
-4.460214	mVlt	-0.1577299
-4.460214	mVn	-0.3009547
-4.284122	mVnT	-0.1472093
-4.460214	mVs	-0.3010074
-4.284122	mVsk	-0.157688
-4.460214	mVt	-0.1577299
-3.229765	mi	-0.1749796
-4.460214	mid	-0.1577299
-4.284122	mik	-0.2910347
-4.062274	mil	-0.3335803
-3.983092	min	-0.1946678
-4.460214	minz	-0.1577299
-3.858154	mit	-0.3776273
-4.284122	miz	-0.1472093
-4.460214	mj5	-0.3010074
-4.159184	mj@	-0.3956613
-4.284122	mj@m	-0.3338211
-4.460214	mj@n	-0.1577299
-3.807001	mjU	-0.4109284
-4.284122	mjU@	-0.293155
-3.399516	mju	-0.335002
-4.460214	mjul	-0.1577299
-4.284122	mjun	-0.3338211
-4.284122	mjut	-0.1472093
-4.460214	mjuz	-0.1577299
-3.505971	mu	-0.225875
-4.460214	muJ	-0.1577299
-4.460214	mud	-0.1577299
-3.916146	mun	-0.1966136
-4.460214	mus	-0.1577299
-4.460214	mut	-0.1577299
-4.284122	muv	-0.1571433
-4.284122	muvd	-0.3338211
-4.460214	mw#	-0.3004652
-2.748406	m{	-0.3755718
-3.858154	m{J	-0.2356847
-4.460214	m{Jt	-0.1577299
-4.062274	m{N	-0.2997336
-4.284122	m{T	-0.3338211
-4.284122	m{d	-0.2933542
-3.761244	m{g	-0.3226754
-3.916146	m{k	-0.3303636
-4.460214	m{ks	-0.1577299
-4.062274	m{l	-0.3007514
-4.284122	m{m	-0.1567553
-3.117791	m{n	-0.2954743
-4.460214	m{nd	-0.1577299
-4.460214	m{ns	-0.1577299
-4.159184	m{s	-0.2522994
-4.460214	m{t	-0.1577299
-3.6473	n#	-0.3224962
-3.505971	n#I	-0.2267714
-4.284122	n#If	-0.3338211
-4.460214	n#Il	-0.1577299
-3.585152	n#In	-0.2481063
-4.460214	n#InT	-0.1577299
-4.460214	n#Inz	-0.1577299
-4.284122	n#Is	-0.1543673
-3.32988	n#It	-0.2806355
-4.460214	n#Its	-0.1577299
-4.460214	n#Iv	-0.1577299
-3.682062	n#Iz	-0.9358811
-4.460214	n#Izd	-0.1577299
-4.284122	n#R	-0.3338211
-4.284122	n#U	-0.1516265
-4.460214	n#Un	-0.1577299
-4.460214	n#Und	-0.1577299
-4.062274	n#Uns	-0.5556699
-4.460214	n#Us	-0.1577299
-4.460214	n#Ut	-0.1577299
-4.284122	n#Z	-0.3338211
-4.460214	n#_	-0.1577299
-4.284122	n#d	-0.3338211
-4.284122	n#l	-0.3338211
-4.460214	n#ld	-0.1577299
-3.460214	n$	-0.2797469
-4.284122	n$R	-0.3338211
-3.916146	n$T	-0.1565875
-4.460214	n$m	-0.1577299
-3.916146	n$t	-0.7017979
-3.036968	n1	-0.36743
-4.460214	n1_	-0.1577299
-3.858154	n1d	-0.7597899
-4.159184	n1l	-0.4587599
-4.460214	n1ld	-0.1577299
-3.761244	n1m	-0.2913811
-3.256094	n1t	-0.8970916
-4.460214	n1v	-0.1577299
-4.284122	n1z	-0.3338211
-3.719851	n3	-0.3208913
-4.284122	n3s	-0.1569756
-4.284122	n3t	-0.1543673
-4.284122	n3v	-0.1559678
-4.460214	n3vz	-0.1577299
-2.922394	n5	-0.2619833
-4.284122	n5d	-0.3338211
-4.460214	n5l	-0.1577299
-4.284122	n5m	-0.3338211
-4.284122	n5n	-0.3338211
-3.983092	n5t	-0.2819143
-3.858154	n5z	-0.1913076
-2.523197	n@	-0.3764694
-2.935169	n@R	-1.682775
-4.159184	n@d	-0.4587599
-4.460214	n@dz	-0.1577299
-4.284122	n@k	-0.3338211
-4.460214	n@l	-0.1577299
-3.807001	n@m	-0.8109424
-4.062274	n@n	-0.1535437
-3.761244	n@ns	-0.8566999
-3.615116	n@nt	-1.002828
-3.418821	n@s	-0.745824
-3.983092	n@t	-0.6348512
-4.460214	n@z	-0.1577299
-3.314085	nE	-0.3897277
-3.615116	nEk	-0.1843217
-4.460214	nEkst	-0.1577299
-4.460214	nEkt	-0.1577299
-4.159184	nEl	-0.2542943
-4.460214	nEnt	-0.1577299
-4.062274	nEs	-0.3330668
-4.460214	nEst	-0.1577299
-3.719851	nEt	-0.4928411
-4.460214	nEts	-0.1577299
-2.390176	nI	-0.3305736
-3.858154	nI@	-0.1776388
-3.858154	nI@R	-0.7597899
-4.284122	nI@l	-0.3338211
-4.159184	nI@m	-0.4587599
-4.460214	nI@n	-0.1577299
-4.460214	nI@s	-0.1577299
-3.159184	nIN	-0.8748013
-4.460214	nINks	-0.1577299
-4.159184	nINz	-0.4587599
-3.585152	nIS	-0.7492693
-4.159184	nISt	-0.4587599
-4.460214	nIT	-0.1577299
-3.858154	nI_	-0.7597899
-4.460214	nIb	-0.1577299
-4.460214	nIbz	-0.1577299
-3.983092	nId	-0.6348512
-4.460214	nIf	-0.2976302
-4.159184	nIg	-0.1557155
-3.24273	nIk	-0.923521
-4.062274	nIks	-0.5556699
-4.284122	nIl	-0.3338211
-3.719851	nIm	-0.2790633
-4.284122	nIn	-0.3338211
-4.284122	nIp	-0.3338211
-2.256094	nIs	-2.061547
-3.460214	nIst	-0.7080353
-3.363303	nIt	-0.6177558
-4.460214	nIts	-0.1577299
-4.159184	nIz	-0.4587599
-2.968852	nP	-0.8954948
-4.062274	nPz	-0.5556699
-3.217175	nQ	-0.3785169
-3.761244	nQI	-0.206561
-4.284122	nQId	-0.3338211
-4.460214	nQIdz	-0.1577299
-4.460214	nQInt	-0.1577299
-4.460214	nQIz	-0.1577299
-4.460214	nQJ	-0.1577299
-4.460214	nQS	-0.1577299
-4.159184	nQb	-0.2544829
-4.460214	nQd	-0.1577299
-4.460214	nQg	-0.1577299
-3.858154	nQk	-0.3298287
-4.460214	nQks	-0.1577299
-4.460214	nQl	-0.1577299
-4.062274	nQn	-0.2993636
-4.460214	nQns	-0.1577299
-4.284122	nQp	-0.3003371
-4.284122	nQs	-0.3009396
-4.159184	nQt	-0.4587599
-4.159184	nUk	-0.4587599
-3.916146	nV	-0.2978502
-4.460214	nV_	-0.1577299
-4.460214	nVb	-0.1577299
-4.460214	nVf	-0.1577299
-4.284122	nVl	-0.1571433
-3.916146	nVm	-0.1538713
-4.062274	nVn	-0.2979411
-4.284122	nVp	-0.3007966
-3.916146	nVt	-0.458739
-4.460214	nVts	-0.1577299
-3.439024	ni	-0.296427
-4.284122	niT	-0.3338211
-4.159184	nid	-0.1550103
-4.460214	nig	-0.1577299
-4.159184	nik	-0.2441193
-4.159184	nil	-0.4587599
-4.460214	nim	-0.1577299
-4.284122	nin	-0.3338211
-4.460214	nip	-0.1577299
-4.284122	nit	-0.2910347
-4.284122	niz	-0.3338211
-4.284122	nj$	-0.4759155
-4.460214	nj$R	-0.1577299
-3.807001	nj@	-0.5451493
-4.460214	nj@R	-0.1577299
-3.858154	nj@l	-0.7597899
-4.159184	nj@m	-0.4587599
-4.062274	nj@n	-0.3304586
-4.460214	nj@nt	-0.1577299
-3.916146	nj@s	-0.7017979
-4.460214	njEt	-0.1577299
-3.983092	njU	-0.2934002
-4.284122	njU@	-0.293155
-4.284122	njU@R	-0.3338211
-4.284122	njU@l	-0.3338211
-4.460214	njU@s	-0.1577299
-3.256094	nju	-0.2304301
-4.460214	njud	-0.1577299
-4.460214	njul	-0.1577299
-4.284122	njut	-0.3338211
-4.062274	njuz	-0.1574262
-4.159184	nu	-0.2997412
-4.159184	nun	-0.2541057
-4.460214	nunz	-0.1577299
-4.460214	nus	-0.1577299
-4.460214	nw#R	-0.1577299
-3.24273	n{	-0.372997
-4.460214	n{S	-0.1577299
-4.460214	n{b	-0.1577299
-4.460214	n{d	-0.1577299
-4.460214	n{g	-0.1577299
-4.460214	n{k	-0.1577299
-4.460214	n{kt	-0.1577299
-4.284122	n{n	-0.3005405
-4.460214	n{ns	-0.1577299
-4.159184	n{p	-0.2544829
-4.460214	n{st	-0.1577299
-4.460214	n{t	-0.1577299
-3.159184	p#	-0.2121039
-3.439024	p#I	-0.2484273
-4.284122	p#Ik	-0.3338211
-4.159184	p#Il	-0.4587599
-4.460214	p#Ilz	-0.1577299
-3.761244	p#In	-0.2390277
-3.719851	p#Ip	-0.4931659
-4.284122	p#Ips	-0.3338211
-4.460214	p#R	-0.1577299
-4.159184	p#T	-0.1553893
-3.719851	p#U	-0.5381352
-4.460214	p#UJ	-0.1577299
-4.284122	p#Un	-0.3005933
-4.062274	p#Und	-0.5556699
-4.460214	p#Uns	-0.1577299
-4.460214	p#Ut	-0.1577299
-4.284122	p#d	-0.157028
-4.284122	p#k	-0.1575938
-4.284122	p#m	-0.3338211
-3.6473	p#s	-0.2786213
-4.284122	p#st	-0.3338211
-3.761244	p#t	-0.3555999
-4.460214	p#z	-0.1577299
-3.14846	p$	-0.1582542
-4.159184	p$R	-0.4587599
-4.460214	p$k	-0.1577299
-4.062274	p$l	-0.1560413
-4.284122	p$n	-0.3006761
-4.460214	p$nJ	-0.1577299
-3.585152	p$t	-0.3673603
-4.284122	p$z	-0.3338211
-3.053673	p1	-0.2663844
-4.284122	p1_	-0.3338211
-4.460214	p1d	-0.1577299
-4.284122	p1k	-0.1543673
-3.983092	p1l	-0.1939317
-3.807001	p1n	-0.3298569
-4.460214	p1nd	-0.1577299
-4.159184	p1nt	-0.2545561
-4.460214	p1nts	-0.1577299
-4.460214	p1nz	-0.1577299
-4.062274	p1s	-0.151531
-4.284122	p1st	-0.1574471
-4.284122	p1t	-0.3338211
-4.460214	p1v	-0.3006083
-4.460214	p1vd	-0.1577299
-4.460214	p1z	-0.293492
-3.071048	p3	-0.361274
-4.460214	p3J	-0.1577299
-4.460214	p3_	-0.1577299
-4.460214	p3b	-0.1577299
-4.460214	p3l	-0.1577299
-4.460214	p3s	-0.1577299
-4.284122	p3t	-0.1472093
-3.108031	p5	-0.1880456
-4.460214	p5J	-0.1577299
-4.460214	p5k	-0.1577299
-3.916146	p5l	-0.1950104
-4.460214	p5n	-0.1577299
-4.460214	p5s	-0.1577299
-3.615116	p5st	-0.2432545
-4.159184	p5z	-0.4587599
-4.284122	p5zd	-0.3338211
-2.475686	p@	-0.1944556
-2.955064	p@R	-1.66288
-4.284122	p@d	-0.3338211
-4.460214	p@l	-0.30042
-4.460214	p@m	-0.1577299
-3.460214	p@n	-0.4159258
-4.062274	p@ns	-0.5556699
-4.284122	p@nt	-0.3338211
-3.48249	p@s	-0.689472
-4.460214	p@t	-0.1577299
-3.983092	p@z	-0.6348512
-3.013056	pE	-0.3476151
-4.460214	pE@	-0.3005481
-3.983092	pE@R	-0.6348512
-4.460214	pE@d	-0.1577299
-4.284122	pEd	-0.3338211
-4.460214	pEg	-0.1577299
-4.159184	pEk	-0.2544933
-4.460214	pEks	-0.1577299
-4.460214	pEkt	-0.1577299
-3.858154	pEl	-0.3793273
-4.460214	pElt	-0.1577299
-3.615116	pEn	-0.2098332
-4.159184	pEnd	-0.4587599
-4.460214	pEns	-0.1577299
-4.460214	pEnt	-0.1577299
-4.284122	pEp	-0.1569965
-4.460214	pEs	-0.300043
-4.460214	pEst	-0.1577299
-4.284122	pEt	-0.3338211
-4.284122	pH	-0.2998846
-2.565344	pI	-0.2830861
-3.682062	pI@	-0.1448004
-3.983092	pI@R	-0.6348512
-4.284122	pI@s	-0.3338211
-4.460214	pI@t	-0.1577299
-4.460214	pIJt	-0.1577299
-3.256094	pIN	-0.6339071
-4.460214	pINk	-0.1577299
-4.062274	pINz	-0.5556699
-3.682062	pIS	-0.5117408
-4.460214	pIT	-0.1577299
-4.460214	pI_	-0.1577299
-3.682062	pId	-0.5144132
-4.460214	pIf	-0.3009999
-3.807001	pIg	-0.153438
-3.615116	pIk	-0.3007471
-4.460214	pIks	-0.1577299
-4.460214	pIkt	-0.1577299
-3.983092	pIl	-0.3512785
-4.284122	pIm	-0.3007514
-4.460214	pImp	-0.1577299
-3.505971	pIn	-0.3498088
-4.460214	pInJ	-0.1577299
-4.460214	pInJt	-0.1577299
-4.460214	pInz	-0.1577299
-4.284122	pIp	-0.1577089
-4.062274	pIs	-0.2217043
-3.807001	pIst	-0.8109424
-3.505971	pIt	-0.6792142
-3.229765	pP	-0.8225484
-4.284122	pPd	-0.3338211
-3.036968	pQ	-0.381669
-4.159184	pQI	-0.2543467
-4.460214	pQIN	-0.3005707
-4.159184	pQIn	-0.2987815
-3.807001	pQInt	-0.5539078
-4.284122	pQIz	-0.1574995
-4.460214	pQJ	-0.1577299
-4.284122	pQN	-0.3338211
-4.460214	pQS	-0.1577299
-4.460214	pQ_	-0.1577299
-4.284122	pQd	-0.3338211
-4.159184	pQk	-0.1575728
-4.460214	pQks	-0.1577299
-4.460214	pQkt	-0.1577299
-4.284122	pQl	-0.2993334
-3.916146	pQm	-0.2542315
-4.460214	pQmp	-0.1577299
-3.6473	pQn	-0.2877728
-4.284122	pQnd	-0.3338211
-3.983092	pQp	-0.2077504
-4.062274	pQs	-0.2237756
-4.284122	pQst	-0.3338211
-3.505971	pQt	-0.3160048
-4.460214	pS$	-0.1577299
-3.719851	pU	-0.340397
-4.460214	pU@	-0.2967495
-4.460214	pUJ	-0.1577299
-4.159184	pUS	-0.1575938
-4.460214	pUSt	-0.1577299
-4.460214	pUd	-0.1577299
-4.460214	pUf	-0.2995449
-4.062274	pUl	-0.1546098
-4.284122	pUs	-0.3338211
-4.159184	pUt	-0.4587599
-3.399516	pV	-0.3201052
-4.062274	pVNk	-0.1569965
-4.460214	pVb	-0.1577299
-4.284122	pVf	-0.1575414
-4.460214	pVft	-0.1577299
-4.284122	pVg	-0.1571747
-3.807001	pVl	-0.3628899
-4.460214	pVlp	-0.1577299
-4.460214	pVls	-0.1577299
-4.460214	pVlt	-0.1577299
-4.284122	pVmp	-0.1575728
-3.916146	pVn	-0.1546837
-4.460214	pVnJ	-0.1577299
-4.460214	pVnt	-0.1577299
-4.460214	pVp	-0.1577299
-4.460214	pVs	-0.1577299
-4.460214	pVt	-0.1577299
-4.460214	pfE	-0.3009999
-4.460214	phu	-0.1577299
-3.18146	pi	-0.2340813
-4.460214	piJ	-0.1577299
-4.159184	pid	-0.4587599
-4.460214	pik	-0.1577299
-4.284122	pil	-0.3338211
-4.284122	pip	-0.1574681
-3.48249	pis	-0.4559771
-3.983092	pit	-0.3989953
-4.460214	pivd	-0.1577299
-4.159184	piz	-0.4587599
-4.460214	pj#	-0.3005104
-4.062274	pj@	-0.3278558
-4.460214	pj@R	-0.1577299
-4.460214	pj@m	-0.1577299
-4.159184	pj@n	-0.4587599
-4.284122	pj@s	-0.1472093
-3.807001	pjU	-0.365804
-3.983092	pjU@	-0.2990614
-4.284122	pjU@R	-0.3338211
-3.719851	pju	-0.1419875
-4.460214	pjul	-0.1577299
-4.284122	pjun	-0.3338211
-4.159184	pjut	-0.4587599
-4.159184	pl#	-0.3002466
-3.761244	pl#I	-0.2480585
-4.460214	pl#Id	-0.1577299
-4.460214	pl#It	-0.1577299
-4.062274	pl#U	-0.2236707
-4.460214	pl#Z	-0.1577299
-4.460214	pl#k	-0.1577299
-4.460214	pl#n	-0.3010074
-4.284122	pl#nt	-0.3338211
-4.460214	pl$	-0.300759
-4.460214	pl$R	-0.1577299
-4.460214	pl$d	-0.1577299
-4.460214	pl$z	-0.1577299
-3.284122	pl1	-0.2616836
-4.460214	pl1g	-0.1577299
-3.719851	pl1n	-0.2678912
-3.761244	pl1s	-0.4571869
-4.284122	pl1st	-0.3338211
-3.916146	pl1t	-0.4578063
-4.159184	pl5	-0.2989555
-3.916146	pl@	-0.2997262
-4.460214	pl@R	-0.1577299
-4.460214	pl@s	-0.1577299
-3.807001	plE	-0.3291379
-4.460214	plE_	-0.1577299
-4.460214	plEbz	-0.1577299
-4.460214	plEk	-0.3009698
-4.284122	plEks	-0.3338211
-4.460214	plEkst	-0.1577299
-4.460214	plEn	-0.2976302
-3.6473	plI	-0.2499673
-4.460214	plIN	-0.1577299
-4.460214	plId	-0.1577299
-4.460214	plIm	-0.3009999
-4.284122	plIn	-0.3338211
-4.460214	plInT	-0.1577299
-4.460214	plIs	-0.1577299
-4.460214	plIt	-0.1577299
-4.159184	plQ	-0.2984486
-3.916146	plQI	-0.332059
-4.460214	plQd	-0.1577299
-4.460214	plQm	-0.1577299
-4.460214	plQp	-0.1577299
-4.460214	plQt	-0.1577299
-4.284122	plU@	-0.299492
-4.062274	plV	-0.2974178
-4.460214	plVS	-0.1577299
-4.284122	plVg	-0.1574681
-4.460214	plVk	-0.1577299
-4.284122	plVm	-0.1573529
-4.460214	plVmd	-0.1577299
-4.284122	plVmp	-0.1543673
-4.284122	plVn	-0.3000656
-4.460214	plVn_	-0.1577299
-4.460214	plVs	-0.1577299
-3.916146	pli	-0.2493743
-4.460214	pliJ	-0.1577299
-4.284122	plit	-0.3338211
-4.284122	pliz	-0.3338211
-4.460214	plizd	-0.1577299
-4.460214	plum	-0.1577299
-4.460214	plumd	-0.1577299
-3.761244	pl{	-0.3224167
-4.460214	pl{N	-0.300887
-4.284122	pl{Nk	-0.3338211
-4.460214	pl{S	-0.1577299
-4.460214	pl{d	-0.1577299
-3.983092	pl{n	-0.1550525
-4.460214	pl{t	-0.1577299
-3.682062	pr#I	-0.1487828
-4.460214	pr#Id	-0.1577299
-4.284122	pr#Is	-0.1559678
-4.159184	pr#Iz	-0.4587599
-4.460214	pr#Izd	-0.1577299
-4.284122	pr#U	-0.1576671
-4.460214	pr#Ud	-0.1577299
-4.460214	pr#Ul	-0.1577299
-4.460214	pr#ns	-0.1577299
-4.460214	pr$n	-0.1577299
-4.062274	pr1	-0.1565874
-4.460214	pr1v	-0.1577299
-4.159184	pr1z	-0.25442
-3.298846	pr5	-0.1681067
-4.284122	pr5J	-0.3338211
-4.460214	pr5b	-0.1577299
-4.460214	pr5l	-0.1577299
-4.460214	pr5n	-0.1577299
-4.460214	pr5z	-0.1577299
-3.14846	pr@	-0.3180617
-4.460214	pr@n	-0.1577299
-4.460214	pr@s	-0.1577299
-4.460214	pr@t	-0.1577299
-4.460214	pr@ts	-0.1577299
-3.32988	prE	-0.3799602
-4.460214	prE@	-0.2967495
-4.460214	prE@R	-0.1577299
-4.460214	prEg	-0.3009246
-4.460214	prEl	-0.3010149
-4.460214	prEn	-0.300902
-4.460214	prEp	-0.1577299
-3.858154	prEs	-0.3790339
-4.284122	prEst	-0.3338211
-3.098486	prI	-0.1713259
-4.460214	prINk	-0.1577299
-4.460214	prIg	-0.1577299
-4.159184	prIk	-0.2441193
-4.159184	prIm	-0.2909808
-4.460214	prImp	-0.1577299
-4.159184	prIn	-0.2977667
-4.159184	prIns	-0.1470269
-3.916146	prInt	-0.7017979
-4.460214	prIs	-0.1577299
-4.460214	prIt	-0.1577299
-3.399516	prQ	-0.3465664
-4.460214	prQd	-0.1577299
-4.460214	prQf	-0.1577299
-4.284122	prQk	-0.2971217
-4.460214	prQmp	-0.2995449
-4.284122	prQmpt	-0.1472093
-4.460214	prQn	-0.3005632
-4.284122	prQp	-0.3338211
-4.460214	prU	-0.3009547
-3.381032	pri	-0.2884085
-4.460214	priJ	-0.1577299
-4.284122	prim	-0.1472093
-4.460214	prin	-0.1577299
-4.284122	pris	-0.1575519
-4.159184	prist	-0.1470377
-4.460214	priv	-0.1577299
-3.858154	pru	-0.378424
-4.460214	prud	-0.1577299
-3.807001	pruf	-0.5556279
-4.460214	prun	-0.1577299
-3.983092	pruv	-0.6348512
-4.460214	pr{	-0.3004501
-4.460214	pr{Nk	-0.1577299
-4.159184	pr{k	-0.3006686
-4.460214	pr{m	-0.1577299
-4.284122	pr{t	-0.1575414
-4.460214	ps	-0.1577299
-4.460214	psju	-0.300646
-4.159184	pu	-0.2537493
-4.284122	pul	-0.1574262
-4.284122	pun	-0.3338211
-4.460214	pup	-0.1577299
-4.460214	pupt	-0.1577299
-4.460214	pus	-0.1577299
-4.460214	puv	-0.1577299
-4.460214	pwE	-0.3009171
-2.792761	p{	-0.3955963
-4.284122	p{J	-0.1572376
-4.284122	p{N	-0.3004426
-4.284122	p{T	-0.3338211
-4.284122	p{d	-0.1575519
-4.062274	p{k	-0.3331821
-4.460214	p{ks	-0.1577299
-4.159184	p{kt	-0.4587599
-3.983092	p{l	-0.2051716
-4.284122	p{m	-0.3004049
-3.460214	p{n	-0.1994061
-4.460214	p{nt	-0.1577299
-4.460214	p{nts	-0.1577299
-4.460214	p{p	-0.1577299
-4.159184	p{s	-0.2976454
-4.284122	p{t	-0.3338211
-4.460214	p{z	-0.1577299
-3.6473	r#	-0.1927218
-3.314085	r#I	-0.2183892
-4.460214	r#ID	-0.1577299
-4.062274	r#Id	-0.5556699
-4.062274	r#Il	-0.5556699
-4.460214	r#Im	-0.1577299
-4.460214	r#Imd	-0.1577299
-4.284122	r#In	-0.1574576
-4.460214	r#Ip	-0.2986151
-3.418821	r#It	-0.4000484
-4.460214	r#Its	-0.1577299
-4.284122	r#Iv	-0.3338211
-3.615116	r#Iz	-1.002828
-4.460214	r#J	-0.1577299
-4.159184	r#U	-0.3941988
-4.460214	r#Un	-0.3003898
-3.916146	r#Und	-0.2401656
-4.460214	r#Undz	-0.1577299
-4.460214	r#Ut	-0.1577299
-4.284122	r#Uz	-0.3338211
-4.284122	r#Z	-0.3338211
-4.460214	r#_	-0.1577299
-4.460214	r#d	-0.1577299
-4.460214	r#dz	-0.1577299
-4.284122	r#f	-0.1556629
-4.460214	r#ft	-0.1577299
-4.062274	r#l	-0.5556699
-4.284122	r#m	-0.3338211
-4.284122	r#n	-0.3005556
-4.284122	r#s	-0.2993259
-4.460214	r#z	-0.3003295
-3.6473	r$	-0.1751183
-4.159184	r$R	-0.4587599
-4.460214	r$l	-0.1577299
-4.460214	r$lz	-0.1577299
-4.460214	r$n	-0.3007439
-4.460214	r$st	-0.1577299
-4.284122	r$t	-0.3338211
-2.886182	r1	-0.3337769
-4.460214	r1T	-0.1577299
-4.159184	r1_	-0.4587599
-3.983092	r1d	-0.3902473
-4.284122	r1k	-0.3338211
-4.062274	r1l	-0.333245
-3.615116	r1n	-0.2418127
-3.983092	r1n_	-0.6348512
-4.460214	r1nz	-0.1577299
-4.460214	r1p	-0.1577299
-3.916146	r1s	-0.2542524
-3.418821	r1t	-1.199123
-4.460214	r1z	-0.1577299
-2.842165	r5	-0.2437944
-4.284122	r5J	-0.3338211
-4.460214	r5T	-0.1577299
-4.062274	r5b	-0.5556699
-3.761244	r5d	-0.2521309
-4.460214	r5dz	-0.1577299
-4.460214	r5g	-0.1577299
-4.062274	r5l	-0.5556699
-4.460214	r5m	-0.1577299
-4.284122	r5n	-0.3338211
-4.062274	r5p	-0.3337269
-4.460214	r5ps	-0.1577299
-4.159184	r5s	-0.1437639
-4.460214	r5st	-0.1577299
-3.916146	r5z	-0.252394
-2.557124	r@	-0.2783566
-3.193042	r@R	-1.424901
-4.284122	r@b	-0.1472093
-4.460214	r@f	-0.1577299
-4.159184	r@k	-0.2525729
-3.117791	r@l	-1.204146
-4.460214	r@ld	-0.1577299
-3.916146	r@m	-0.7017979
-3.682062	r@n	-0.3498576
-4.284122	r@nd	-0.3338211
-3.682062	r@ns	-0.9358811
-3.615116	r@nt	-0.7212405
-4.284122	r@p	-0.3338211
-3.193042	r@s	-1.124933
-3.48249	r@t	-1.135453
-4.460214	r@z	-0.1577299
-2.792761	rE	-0.3884692
-4.284122	rE@	-0.2922651
-4.460214	rE@R	-0.1577299
-4.460214	rEJ	-0.1577299
-3.761244	rEd	-0.1794708
-4.460214	rEf	-0.1577299
-4.460214	rEft	-0.1577299
-4.460214	rEg	-0.3009246
-3.719851	rEk	-0.3453637
-3.807001	rEkt	-0.5451493
-4.460214	rEl	-0.1577299
-4.460214	rEm	-0.3009246
-3.807001	rEn	-0.324205
-4.460214	rEnJ	-0.1577299
-4.460214	rEnd	-0.1577299
-4.460214	rEnt	-0.1577299
-4.284122	rEp	-0.1576356
-4.284122	rEs	-0.1568287
-3.983092	rEst	-0.2803912
-3.719851	rEt	-0.6340444
-4.460214	rEv	-0.1577299
-2.008427	rI	-0.2543176
-3.557124	rI@	-0.3402099
-3.858154	rI@R	-0.7597899
-4.460214	rI@d	-0.1577299
-3.6473	rI@l	-0.548844
-4.284122	rI@m	-0.3338211
-4.159184	rI@n	-0.4587599
-4.460214	rI@ns	-0.1577299
-4.284122	rI@nt	-0.3338211
-3.807001	rI@s	-0.8109424
-4.159184	rI@t	-0.4587599
-4.460214	rI@z	-0.1577299
-4.460214	rID	-0.2992201
-4.062274	rIJ	-0.2107108
-2.955064	rIN	-0.8434899
-4.284122	rINz	-0.3338211
-3.615116	rIS	-0.7212405
-3.314085	rI_	-0.8560504
-4.460214	rIb	-0.1577299
-3.48249	rId	-0.8461792
-4.159184	rIf	-0.2546189
-4.460214	rIft	-0.1577299
-4.159184	rIg	-0.2526675
-3.505971	rIk	-0.8342978
-4.460214	rIks	-0.1577299
-4.460214	rIl	-0.3009698
-4.284122	rIm	-0.1567553
-3.807001	rIn	-0.8109424
-4.284122	rIn_	-0.1576985
-4.460214	rInd	-0.1577299
-4.284122	rIp	-0.1576775
-3.682062	rIs	-0.4271997
-4.159184	rIsk	-0.4587599
-3.585152	rIst	-0.6095247
-3.807001	rIt	-0.8109424
-4.460214	rIz	-0.2996128
-3.298846	rQ	-0.3179967
-4.062274	rQI	-0.3335698
-4.284122	rQId	-0.3338211
-3.916146	rQN	-0.1457054
-4.159184	rQT	-0.1562619
-4.284122	rQd	-0.3338211
-4.062274	rQk	-0.3337164
-4.284122	rQks	-0.3338211
-4.284122	rQm	-0.3008343
-4.460214	rQmp	-0.1577299
-3.916146	rQn	-0.3282589
-4.284122	rQs	-0.1576775
-4.159184	rQt	-0.4587599
-4.284122	rQv	-0.3338211
-3.761244	rU	-0.3199358
-4.460214	rU@	-0.3006987
-4.460214	rUk	-0.1577299
-3.298846	rUm	-1.032634
-3.284122	rV	-0.3200312
-4.460214	rVN	-0.1577299
-4.159184	rVS	-0.4587599
-4.460214	rVb	-0.3008794
-3.983092	rVf	-0.1537445
-4.284122	rVg	-0.1558732
-4.284122	rVk	-0.3005405
-4.159184	rVm	-0.1549471
-4.460214	rVmp	-0.1577299
-3.916146	rVn	-0.2477715
-4.460214	rVnt	-0.1577299
-4.062274	rVp	-0.4735014
-4.159184	rVpt	-0.4587599
-4.284122	rVs	-0.2998393
-4.460214	rVsk	-0.1577299
-4.460214	rVt	-0.1577299
-2.712026	ri	-0.1811872
-4.460214	riD	-0.1577299
-4.460214	riJ	-0.1577299
-4.460214	riT	-0.1577299
-4.159184	rid	-0.2539065
-4.460214	rik	-0.1577299
-4.284122	ril	-0.3338211
-4.159184	rim	-0.4587599
-3.761244	rin	-0.8566999
-4.460214	rit	-0.1577299
-4.460214	riv	-0.1577299
-4.159184	riz	-0.4587599
-4.460214	rju	-0.3005481
-3.229765	ru	-0.1910679
-4.460214	ruT	-0.2997638
-4.460214	ruZ	-0.1577299
-4.284122	rud	-0.1543673
-4.159184	ruf	-0.2528778
-4.284122	rul	-0.3338211
-4.159184	rum	-0.2536863
-4.284122	run	-0.3338211
-4.460214	rust	-0.1577299
-3.858154	rut	-0.5081503
-4.460214	ruts	-0.1577299
-4.460214	ruz	-0.1577299
-3.04524	r{	-0.3388787
-4.460214	r{J	-0.1577299
-3.916146	r{N	-0.1521994
-4.284122	r{Nk	-0.3338211
-4.460214	r{Nks	-0.1577299
-4.159184	r{S	-0.2441193
-4.460214	r{f	-0.1577299
-4.159184	r{g	-0.1574576
-4.284122	r{k	-0.3338211
-4.284122	r{ks	-0.3338211
-4.284122	r{kt	-0.3338211
-4.460214	r{l	-0.3008794
-3.719851	r{m	-0.1566084
-4.460214	r{mp	-0.1577299
-3.807001	r{n	-0.3242508
-4.460214	r{nt	-0.1577299
-4.062274	r{p	-0.2223046
-4.460214	r{pt	-0.293492
-4.284122	r{s	-0.3338211
-4.159184	r{t	-0.4587599
-4.460214	r{z	-0.1577299
-3.6473	s#	-0.310517
-3.18146	s#I	-0.1920374
-4.460214	s#ID	-0.1577299
-3.204941	s#Id	-0.3988692
-4.460214	s#Idz	-0.1577299
-3.916146	s#Il	-0.7017979
-3.858154	s#In	-0.5097659
-4.460214	s#Is	-0.1577299
-3.585152	s#It	-0.4967564
-3.858154	s#Iz	-0.5097345
-4.284122	s#R	-0.3338211
-3.916146	s#U	-0.3266017
-4.062274	s#UT	-0.1573843
-4.460214	s#Un	-0.3010074
-4.062274	s#Und	-0.2107108
-4.460214	s#Ust	-0.1577299
-4.284122	s#Z	-0.3338211
-4.460214	s#_	-0.1577299
-4.460214	s#b	-0.1577299
-4.159184	s#m	-0.1573529
-3.363303	s$	-0.1870674
-3.983092	s$R	-0.6348512
-4.460214	s$b	-0.1577299
-4.159184	s$d	-0.300435
-4.460214	s$dz	-0.300322
-4.284122	s$l	-0.4737215
-3.983092	s$lt	-0.4005585
-4.460214	s$lts	-0.1577299
-4.460214	s$n	-0.2995449
-4.460214	s$p	-0.2978425
-4.284122	s$s	-0.3001938
-4.159184	s$t	-0.2540533
-3.217175	s1	-0.2282123
-4.159184	s1_	-0.1471235
-4.284122	s1d	-0.3338211
-4.062274	s1f	-0.1525809
-4.062274	s1k	-0.5556699
-3.983092	s1l	-0.2822392
-4.159184	s1lz	-0.3002542
-4.284122	s1m	-0.1543673
-4.062274	s1n	-0.2135015
-4.159184	s1nt	-0.1470377
-4.159184	s1t	-0.4587599
-4.460214	s1v	-0.1577299
-3.089146	s3	-0.3549986
-4.284122	s3J	-0.1574157
-4.460214	s3R	-0.1577299
-4.284122	s3_	-0.3338211
-4.284122	s3d	-0.1472093
-4.284122	s3f	-0.1574471
-4.062274	s3n	-0.5556699
-4.460214	s3nd	-0.1577299
-4.460214	s3p	-0.2997638
-4.460214	s3pt	-0.1577299
-4.159184	s3t	-0.4587599
-4.284122	s3v	-0.3338211
-3.137994	s5	-0.2823599
-4.460214	s5d	-0.1577299
-4.460214	s5k	-0.1577299
-4.460214	s5kt	-0.1577299
-3.615116	s5l	-0.298936
-4.460214	s5ld	-0.1577299
-4.460214	s5m	-0.1577299
-4.062274	s5p	-0.1572376
-2.533357	s@	-0.2539175
-3.24273	s@R	-1.375214
-3.682062	s@b	-0.2977591
-4.460214	s@d	-0.1577299
-3.807001	s@k	-0.3326472
-4.159184	s@l	-0.4587599
-3.170179	s@m	-1.147209
-4.159184	s@n	-0.254221
-3.983092	s@ns	-0.6348512
-4.460214	s@nst	-0.1577299
-4.159184	s@nt	-0.2441193
-3.858154	s@s	-0.7597899
-4.460214	s@t	-0.1577299
-4.284122	s@z	-0.3338211
-2.842165	sE	-0.3755026
-4.460214	sE@R	-0.1577299
-4.460214	sEN	-0.1577299
-4.460214	sE_	-0.1577299
-4.460214	sEd	-0.1577299
-4.284122	sEg	-0.300533
-3.585152	sEk	-0.2539755
-4.284122	sEks	-0.1559678
-4.284122	sEkst	-0.3338211
-3.916146	sEkt	-0.7017979
-3.807001	sEl	-0.4206886
-3.858154	sElf	-0.509881
-4.159184	sElvz	-0.4587599
-3.916146	sEm	-0.340091
-3.284122	sEn	-0.3491818
-4.062274	sEnd	-0.5556699
-4.284122	sEns	-0.1559678
-3.858154	sEnt	-0.5081503
-3.615116	sEp	-0.4122418
-4.284122	sEps	-0.3338211
-4.062274	sEpt	-0.5556699
-3.682062	sEs	-0.4293262
-4.460214	sEst	-0.1577299
-3.557124	sEt	-0.6335092
-4.460214	sF	-0.1577299
-3.24273	sH	-0.5380676
-3.615116	sHs	-1.002828
-3.505971	sHt	-0.8239029
-2.256094	sI	-0.2448256
-3.719851	sI@	-0.1686264
-3.983092	sI@R	-0.6348512
-4.284122	sI@m	-0.3338211
-4.460214	sI@n	-0.1577299
-4.284122	sI@ns	-0.3338211
-4.460214	sI@nt	-0.1577299
-3.229765	sIN	-0.6001605
-4.460214	sINk	-0.1577299
-4.460214	sINkt	-0.1577299
-4.460214	sINz	-0.1577299
-4.062274	sI_	-0.333245
-4.284122	sIb	-0.1569756
-3.557124	sId	-0.6208851
-4.460214	sIf	-0.2995449
-4.460214	sIft	-0.1577299
-3.858154	sIg	-0.3315876
-3.557124	sIk	-0.519233
-3.916146	sIks	-0.1940053
-4.460214	sIksT	-0.1577299
-3.858154	sIl	-0.2316774
-4.284122	sIlk	-0.1576147
-4.460214	sIlt	-0.1577299
-3.807001	sIm	-0.1814729
-3.439024	sIn	-0.2274683
-4.460214	sInT	-0.1577299
-4.460214	sIp	-0.1577299
-3.418821	sIs	-0.9168636
-3.807001	sIst	-0.8109424
-3.48249	sIt	-0.8461793
-3.053673	sIv	-1.089889
-3.557124	sIz	-0.7850392
-3.14846	sP	-0.7362104
-4.284122	sPd	-0.3338211
-3.170179	sQ	-0.3704205
-4.284122	sQI	-0.2966278
-4.460214	sQIl	-0.1577299
-3.916146	sQN	-0.2535709
-4.460214	sQb	-0.1577299
-4.159184	sQf	-0.2970154
-3.983092	sQft	-0.2905725
-4.460214	sQk	-0.1577299
-3.858154	sQl	-0.1886756
-4.062274	sQm	-0.3669747
-4.159184	sQn	-0.2545875
-4.460214	sQp	-0.1577299
-3.916146	sU	-0.3925408
-4.460214	sU@	-0.3008192
-4.460214	sU@R	-0.1577299
-4.460214	sUt	-0.1577299
-3.071048	sV	-0.3943767
-4.284122	sVJ	-0.1575519
-4.284122	sVN	-0.1565769
-3.6473	sVb	-0.150223
-4.284122	sVdz	-0.3338211
-4.460214	sVf	-0.1577299
-4.159184	sVk	-0.1525279
-3.807001	sVl	-0.3643266
-4.460214	sVlk	-0.1577299
-4.460214	sVlt	-0.1577299
-3.807001	sVm	-0.1563879
-4.284122	sVmp	-0.15329
-3.381032	sVn	-0.1609402
-4.159184	sVp	-0.1471771
-4.460214	sVt	-0.293492
-4.460214	sfE	-0.2967495
-4.460214	sfI@	-0.3010074
-4.460214	sfI@R	-0.1577299
-4.460214	sfINk	-0.2995449
-4.460214	sf{g	-0.3009622
-2.874753	si	-0.1716934
-4.460214	siD	-0.1577299
-4.284122	si_	-0.3338211
-3.530795	sid	-0.4771349
-4.284122	sidz	-0.1567448
-4.460214	sik	-0.1577299
-4.062274	sil	-0.3336641
-4.460214	sim	-0.2997638
-3.983092	sin	-0.3902473
-4.460214	sip	-0.1577299
-3.983092	sis	-0.3990058
-4.460214	sist	-0.1577299
-3.858154	sit	-0.5089588
-4.460214	sits	-0.1577299
-4.159184	siv	-0.4587599
-4.159184	siz	-0.4587599
-4.460214	sj@R	-0.1577299
-4.159184	sjU	-0.29996
-4.460214	sjU@l	-0.1577299
-4.460214	sjU@ns	-0.1577299
-4.460214	sjU@s	-0.1577299
-4.460214	sju	-0.3002391
-4.460214	sjul	-0.1577299
-4.284122	sjum	-0.3338211
-4.284122	sjut	-0.3338211
-4.159184	sk#	-0.3966437
-4.062274	sk#I	-0.3004049
