
\data\
ngram 1=2604
ngram 2=5204

\1-grams:
-3.007885	#	0.1352883
-3.241709	#I	0.1965061
-3.784231	#U	0.2677916
-4.083106	#Uns	0.2835686
-4.083106	#Ust	0.2835686
-4.083106	#f	0.2835686
-2.808445	$	0.0619127
-3.784231	$R	0.2677916
-3.784231	$l	0.2677916
-2.97315	1	0.1240161
-4.083106	1n	0.2835686
-4.083106	1t	0.2835686
-4.083106	1z	0.2835686
-4.083106	3	0.2835686
-2.519109	5	-0.08413267
-4.083106	5l	0.2835686
-0.3019546	</s>
-99	<s>	-3.48123
-2.184283	@	-0.3100141
-2.725511	@R	0.02495277
-4.083106	@b	0.2835686
-3.784231	@d	0.2677916
-3.308553	@l	0.2098577
-4.083106	@m	0.2835686
-4.083106	@mf	0.2835686
-4.083106	@n	0.2835686
-4.083106	@nt	0.2835686
-3.608861	@t	0.2525676
-4.083106	D#In	0.2835686
-3.132703	D@R	0.1709745
-4.083106	D@m	0.2835686
-4.083106	DE@R	0.2835686
-4.083106	DEns	0.2835686
-4.083106	DH	0.2835686
-4.083106	DI	0.2835686
-2.940989	E	0.1130291
-4.083106	E@	0.2835686
-3.784231	Ek	0.2677916
-4.083106	El	0.2835686
-3.608861	Em	0.2525676
-3.484283	En	0.2378593
-3.608861	Et	0.2525676
-2.78618	I	0.05237366
-4.083106	I@	0.2835686
-3.784231	Id	0.2677916
-3.608861	Ig	0.2525676
-4.083106	Ik	0.2835686
-3.241709	Im	0.1965061
-2.744807	In	0.03390208
-3.784231	Is	0.2677916
-3.484283	It	0.2378593
-4.083106	J#	0.2835686
-4.083106	J#Id	0.2835686
-4.083106	J#Im	0.2835686
-4.083106	J#Iv	0.2835686
-4.083106	J#n	0.2835686
-4.083106	J#nt	0.2835686
-4.083106	J1n_	0.2835686
-4.083106	J3	0.2835686
-4.083106	J5	0.2835686
-4.083106	J5k	0.2835686
-4.083106	J@	0.2835686
-3.608861	J@R	0.2525676
-3.784231	J@d	0.2677916
-4.083106	J@n	0.2835686
-4.083106	J@nt	0.2835686
-4.083106	J@p	0.2835686
-4.083106	J@s	0.2835686
-3.608861	JE	0.2525676
-4.083106	JE@R	0.2835686
-3.608861	JI	0.2525676
-4.083106	JI@R	0.2835686
-4.083106	JINk	0.2835686
-4.083106	JIm	0.2835686
-3.784231	JIn	0.2677916
-4.083106	JInts	0.2835686
-4.083106	JIp	0.2835686
-4.083106	JIt	0.2835686
-4.083106	JIz	0.2835686
-4.083106	JQIs	0.2835686
-4.083106	JQmp	0.2835686
-3.784231	JV	0.2677916
-4.083106	JVmp	0.2835686
-3.784231	Ji	0.2677916
-4.083106	Jiv	0.2835686
-4.083106	Jun	0.2835686
-3.608861	J{	0.2525676
-4.083106	J{m	0.2835686
-4.083106	J{mp	0.2835686
-4.083106	J{n	0.2835686
-4.083106	N@R	0.2835686
-3.086993	Q	0.1587504
-4.083106	QINk	0.2835686
-4.083106	QInt	0.2835686
-4.083106	Qb	0.2835686
-3.608861	Qk	0.2525676
-4.083106	Qm	0.2835686
-4.083106	Qn	0.2835686
-4.083106	Qs	0.2835686
-4.083106	Qsk	0.2835686
-4.083106	S#	0.2835686
-4.083106	S#In	0.2835686
-4.083106	S#Ut	0.2835686
-4.083106	S#ft	0.2835686
-3.484283	S1	0.2378593
-4.083106	S5	0.2835686
-3.38759	S@	0.2236329
-4.083106	S@p	0.2835686
-4.083106	SE	0.2835686
-4.083106	SE@R	0.2835686
-4.083106	SElf	0.2835686
-4.083106	SH	0.2835686
-3.38759	SI	0.2236329
-4.083106	SI@R	0.2835686
-4.083106	SIN	0.2835686
-4.083106	SIft	0.2835686
-4.083106	SIn	0.2835686
-4.083106	SP	0.2835686
-4.083106	SV	0.2835686
-3.484283	Si	0.2378593
-4.083106	SiS	0.2835686
-4.083106	Sild	0.2835686
-4.083106	Sin	0.2835686
-4.083106	Siz	0.2835686
-4.083106	Sr#Ik	0.2835686
-4.083106	Sr#Iv	0.2835686
-4.083106	Sr#Ud	0.2835686
-4.083106	SrEd	0.2835686
-4.083106	SrI	0.2835686
-4.083106	SrIft	0.2835686
-4.083106	SrVb	0.2835686
-4.083106	Srik	0.2835686
-4.083106	Srud	0.2835686
-4.083106	Sr{p	0.2835686
-3.608861	Su	0.2525676
-4.083106	Sut	0.2835686
-3.183795	S{	0.1835527
-4.083106	S{Nk	0.2835686
-3.608861	S{m	0.2525676
-4.083106	T#U	0.2835686
-4.083106	T$	0.2835686
-4.083106	T3	0.2835686
-4.083106	T3st	0.2835686
-3.608861	T@	0.2525676
-4.083106	T@d	0.2835686
-3.608861	TI	0.2525676
-3.784231	TI@	0.2677916
-4.083106	TI@n	0.2835686
-4.083106	TINk	0.2835686
-4.083106	TIl	0.2835686
-4.083106	TIm	0.2835686
-4.083106	TIst	0.2835686
-3.784231	TP	0.2677916
-4.083106	TQs	0.2835686
-4.083106	TVmp	0.2835686
-4.083106	Tr#Iv	0.2835686
-4.083106	Tr$l	0.2835686
-4.083106	Tr5n	0.2835686
-4.083106	Tr5t	0.2835686
-4.083106	TrEd	0.2835686
-4.083106	TrEt	0.2835686
-4.083106	TrIft	0.2835686
-3.784231	TrQ	0.2677916
-4.083106	TrQN	0.2835686
-4.083106	TrQb	0.2835686
-4.083106	TrVS	0.2835686
-4.083106	TrVm	0.2835686
-4.083106	TrVst	0.2835686
-4.083106	Tr{S	0.2835686
-3.784231	V	0.2677916
-4.083106	VN	0.2835686
-4.083106	Vl	0.2835686
-3.784231	Vm	0.2677916
-4.083106	Vn	0.2835686
-3.784231	Z1	0.2677916
-4.083106	Z@R	0.2835686
-4.083106	Zin	0.2835686
-3.784231	_#	0.2677916
-3.784231	_#I	0.2677916
-4.083106	_#Ul	0.2835686
-4.083106	_$n	0.2835686
-4.083106	_$nt	0.2835686
-3.784231	_3	0.2677916
-4.083106	_3n	0.2835686
-3.784231	_5	0.2677916
-4.083106	_5lt	0.2835686
-3.38759	_@	0.2236329
-4.083106	_@R	0.2835686
-3.784231	_@l	0.2677916
-3.308553	_@n	0.2098577
-4.083106	_@nd	0.2835686
-3.608861	_@nt	0.2525676
-3.784231	_E	0.2677916
-3.784231	_Ekt	0.2677916
-3.484283	_En	0.2378593
-4.083106	_Ent	0.2835686
-3.784231	_Est	0.2677916
-4.083106	_Et	0.2835686
-3.484283	_I	0.2378593
-3.784231	_IN	0.2677916
-4.083106	_Id	0.2835686
-4.083106	_Ik	0.2835686
-4.083106	_Ikt	0.2835686
-3.241709	_In	0.1965061
-4.083106	_Ist	0.2835686
-3.484283	_It	0.2378593
-3.784231	_Q	0.2677916
-4.083106	_QIn	0.2835686
-4.083106	_QIst	0.2835686
-4.083106	_QN	0.2835686
-4.083106	_Qd	0.2835686
-4.083106	_V	0.2835686
-4.083106	_VN	0.2835686
-4.083106	_VNk	0.2835686
-4.083106	_Vm	0.2835686
-4.083106	_Vmp	0.2835686
-3.608861	_i	0.2525676
-4.083106	_il	0.2835686
-4.083106	_in	0.2835686
-3.784231	_u	0.2677916
-4.083106	_ub	0.2835686
-4.083106	_un	0.2835686
-4.083106	_{	0.2835686
-4.083106	_{k	0.2835686
-4.083106	_{m	0.2835686
-4.083106	_{s	0.2835686
-4.083106	_{v	0.2835686
-3.241709	b#	0.1965061
-3.38759	b#I	0.2236329
-4.083106	b#Id	0.2835686
-3.784231	b#In	0.2677916
-4.083106	b#It	0.2835686
-4.083106	b#R	0.2835686
-4.083106	b#Und	0.2835686
-4.083106	b#Uns	0.2835686
-4.083106	b#Ut	0.2835686
-4.083106	b#sk	0.2835686
-3.608861	b$	0.2525676
-4.083106	b$l	0.2835686
-4.083106	b$ld	0.2835686
-4.083106	b$lt	0.2835686
-3.132703	b1	0.1709745
-4.083106	b1st	0.2835686
-3.308553	b3	0.2098577
-4.083106	b3g	0.2835686
-3.086993	b5	0.1587504
-4.083106	b5ld	0.2835686
-4.083106	b5lt	0.2835686
-4.083106	b5n	0.2835686
-2.744807	b@	0.03390208
-3.38759	b@R	0.2236329
-3.784231	b@d	0.2677916
-4.083106	b@l	0.2835686
-4.083106	b@ld	0.2835686
-3.308553	b@n	0.2098577
-4.083106	b@nd	0.2835686
-3.484283	b@s	0.2378593
-3.784231	b@t	0.2677916
-3.086993	bE	0.1587504
-4.083106	bE@R	0.2835686
-4.083106	bEd	0.2835686
-4.083106	bEks	0.2835686
-4.083106	bEl	0.2835686
-4.083106	bElt	0.2835686
-4.083106	bEnJ	0.2835686
-4.083106	bEnd	0.2835686
-4.083106	bEnt	0.2835686
-4.083106	bEt	0.2835686
-2.744807	bI	0.03390208
-4.083106	bI@	0.2835686
-4.083106	bI@R	0.2835686
-4.083106	bI@d	0.2835686
-4.083106	bIN	0.2835686
-4.083106	bIS	0.2835686
-3.784231	bId	0.2677916
-4.083106	bIl	0.2835686
-4.083106	bIlk	0.2835686
-3.38759	bIn	0.2236329
-4.083106	bIs	0.2835686
-4.083106	bIsk	0.2835686
-3.308553	bIt	0.2098577
-2.346986	bP	-0.1932312
-3.241709	bQ	0.1965061
-4.083106	bQIl	0.2835686
-4.083106	bQN	0.2835686
-4.083106	bQS	0.2835686
-4.083106	bQks	0.2835686
-4.083106	bQl	0.2835686
-4.083106	bQm	0.2835686
-4.083106	bQnd	0.2835686
-4.083106	bQt	0.2835686
-3.608861	bU	0.2525676
-3.784231	bU@R	0.2677916
-4.083106	bU@s	0.2835686
-3.38759	bV	0.2236329
-3.608861	bVN	0.2525676
-4.083106	bVb	0.2835686
-4.083106	bVg	0.2835686
-4.083106	bVl_	0.2835686
-4.083106	bVlk	0.2835686
-4.083106	bVm	0.2835686
-4.083106	bVmf	0.2835686
-4.083106	bVmp	0.2835686
-4.083106	bVnJ	0.2835686
-4.083106	bVnd	0.2835686
-4.083106	bVsk	0.2835686
-3.784231	bVst	0.2677916
-4.083106	bVv	0.2835686
-3.484283	bi	0.2378593
-4.083106	bis	0.2835686
-3.784231	bist	0.2677916
-3.608861	biz	0.2525676
-3.608861	bjU	0.2525676
-4.083106	bjU@	0.2835686
-4.083106	bju	0.2835686
-4.083106	bjun	0.2835686
-4.083106	bjut	0.2835686
-4.083106	bl#	0.2835686
-4.083106	bl#ID	0.2835686
-4.083106	bl#I_	0.2835686
-4.083106	bl#Ind	0.2835686
-4.083106	bl#It	0.2835686
-4.083106	bl#Uz	0.2835686
-4.083106	bl#nJ	0.2835686
-4.083106	bl#st	0.2835686
-4.083106	bl1	0.2835686
-4.083106	bl1d	0.2835686
-4.083106	bl1m	0.2835686
-4.083106	bl1z	0.2835686
-4.083106	bl3R	0.2835686
-4.083106	bl3b	0.2835686
-4.083106	bl5k	0.2835686
-4.083106	bl5t	0.2835686
-3.784231	bl@m	0.2677916
-4.083106	blEnJ	0.2835686
-4.083106	blEnd	0.2835686
-4.083106	blEs	0.2835686
-4.083106	blIn	0.2835686
-4.083106	blIp	0.2835686
-4.083106	blIs	0.2835686
-4.083106	blIts	0.2835686
-4.083106	blQJ	0.2835686
-4.083106	blQb	0.2835686
-4.083106	blQnd	0.2835686
-4.083106	blQt	0.2835686
-4.083106	blV	0.2835686
-4.083106	blVS	0.2835686
-4.083106	blVd	0.2835686
-4.083106	blVf	0.2835686
-4.083106	blVnt	0.2835686
-4.083106	bliJ	0.2835686
-4.083106	blik	0.2835686
-4.083106	blip	0.2835686
-4.083106	blum	0.2835686
-4.083106	bl{b	0.2835686
-4.083106	bl{k	0.2835686
-4.083106	bl{nd	0.2835686
-3.784231	br#I	0.2677916
-4.083106	br#Ib	0.2835686
-4.083106	br#Id	0.2835686
-4.083106	br#In	0.2835686
-4.083106	br#It	0.2835686
-4.083106	br#Un	0.2835686
-4.083106	br#Uz	0.2835686
-4.083106	br#nJ	0.2835686
-4.083106	br#s	0.2835686
-4.083106	br$d	0.2835686
-4.083106	br$l	0.2835686
-4.083106	br1d	0.2835686
-3.784231	br1n	0.2677916
-4.083106	br1s	0.2835686
-4.083106	br1v	0.2835686
-4.083106	br1z	0.2835686
-4.083106	br5J	0.2835686
-4.083106	br5g	0.2835686
-3.608861	br@	0.2525676
-4.083106	brET	0.2835686
-4.083106	brEd	0.2835686
-4.083106	brEst	0.2835686
-3.484283	brI	0.2378593
-4.083106	brINk	0.2835686
-4.083106	brI_	0.2835686
-4.083106	brId	0.2835686
-4.083106	brIg	0.2835686
-3.784231	brIk	0.2677916
-4.083106	brIl	0.2835686
-4.083106	brIm	0.2835686
-4.083106	brIsk	0.2835686
-4.083106	brQ	0.2835686
-4.083106	brQIl	0.2835686
-4.083106	brQN	0.2835686
-4.083106	brQT	0.2835686
-4.083106	brQnz	0.2835686
-4.083106	brUk	0.2835686
-4.083106	brVS	0.2835686
-4.083106	briJ	0.2835686
-4.083106	brid	0.2835686
-4.083106	brif	0.2835686
-4.083106	brim	0.2835686
-4.083106	briz	0.2835686
-4.083106	bru	0.2835686
-4.083106	brum	0.2835686
-4.083106	brut	0.2835686
-4.083106	bruz	0.2835686
-3.784231	br{	0.2677916
-4.083106	br{d	0.2835686
-4.083106	br{kt	0.2835686
-4.083106	br{m	0.2835686
-4.083106	br{n	0.2835686
-4.083106	br{nd	0.2835686
-4.083106	br{t	0.2835686
-3.183795	bu	0.1835527
-4.083106	bun	0.2835686
-4.083106	bus	0.2835686
-4.083106	bust	0.2835686
-2.78618	b{	0.05237366
-4.083106	b{S	0.2835686
-3.784231	b{b	0.2677916
-4.083106	b{k	0.2835686
-3.784231	b{l	0.2677916
-4.083106	b{m	0.2835686
-3.484283	b{n	0.2378593
-3.784231	b{st	0.2677916
-3.132703	d#I	0.1709745
-3.784231	d#Im	0.2677916
-3.784231	d#In	0.2677916
-3.784231	d#Is	0.2677916
-4.083106	d#Iv	0.2835686
-3.608861	d#R	0.2525676
-4.083106	d#U	0.2835686
-4.083106	d#Un	0.2835686
-4.083106	d#Us	0.2835686
-4.083106	d#Ut	0.2835686
-3.484283	d$	0.2378593
-3.241709	d$R	0.1965061
-4.083106	d$nt	0.2835686
-3.308553	d1	0.2098577
-4.083106	d1t	0.2835686
-4.083106	d3	0.2835686
-4.083106	d3m	0.2835686
-4.083106	d3n	0.2835686
-2.911047	d5	0.1023131
-4.083106	d5n	0.2835686
-4.083106	d5t	0.2835686
-2.940989	d@	0.1130291
-2.831914	d@R	0.07166597
-3.608861	d@k	0.2525676
-4.083106	d@l	0.2835686
-3.484283	d@m	0.2378593
-3.484283	d@n	0.2378593
-4.083106	d@nt	0.2835686
-4.083106	d@s	0.2835686
-3.086993	dE	0.1587504
-4.083106	dE@R	0.2835686
-4.083106	dEft	0.2835686
-4.083106	dEks	0.2835686
-3.784231	dEl	0.2677916
-4.083106	dElft	0.2835686
-4.083106	dEm	0.2835686
-4.083106	dEpt	0.2835686
-4.083106	dEsk	0.2835686
-3.38759	dH	0.2236329
-2.555821	dI	-0.06295368
-3.784231	dI@R	0.2677916
-4.083106	dI@t	0.2835686
-3.784231	dIN	0.2677916
-4.083106	dIg	0.2835686
-3.784231	dIk	0.2677916
-3.784231	dIkt	0.2677916
-3.608861	dIl	0.2525676
-4.083106	dInt	0.2835686
-4.083106	dIs	0.2835686
-4.083106	dIsk	0.2835686
-4.083106	dIst	0.2835686
-3.484283	dIt	0.2378593
-2.415237	dP	-0.1480867
-3.308553	dQ	0.2098577
-4.083106	dQI	0.2835686
-4.083106	dQN	0.2835686
-4.083106	dQg	0.2835686
-4.083106	dQk	0.2835686
-3.784231	dQl	0.2677916
-4.083106	dQn	0.2835686
-4.083106	dQs	0.2835686
-4.083106	dU	0.2835686
-4.083106	dU@R	0.2835686
-3.241709	dV	0.1965061
-4.083106	dVN	0.2835686
-4.083106	dVNk	0.2835686
-4.083106	dVkt	0.2835686
-4.083106	dVl_	0.2835686
-4.083106	dVlt	0.2835686
-3.784231	dVm	0.2677916
-4.083106	dVmp	0.2835686
-4.083106	dVn	0.2835686
-4.083106	dVns	0.2835686
-4.083106	dVsk	0.2835686
-3.608861	di	0.2525676
-4.083106	dil	0.2835686
-3.784231	din	0.2677916
-3.308553	dju	0.2098577
-4.083106	djuk	0.2835686
-4.083106	djun	0.2835686
-4.083106	djup	0.2835686
-4.083106	djus	0.2835686
-4.083106	dr#	0.2835686
-3.784231	dr#I	0.2677916
-4.083106	dr#Iv	0.2835686
-4.083106	dr#Un	0.2835686
-4.083106	dr#Uz	0.2835686
-4.083106	dr#ft	0.2835686
-4.083106	dr#s	0.2835686
-4.083106	dr$l	0.2835686
-4.083106	dr1k	0.2835686
-4.083106	dr1n	0.2835686
-4.083106	dr1p	0.2835686
-4.083106	dr5g	0.2835686
-4.083106	dr5l	0.2835686
-4.083106	dr5n	0.2835686
-4.083106	dr5v	0.2835686
-4.083106	dr@	0.2835686
-4.083106	dr@d	0.2835686
-4.083106	dr@l	0.2835686
-4.083106	dr@n	0.2835686
-4.083106	drE_	0.2835686
-4.083106	drEd	0.2835686
-4.083106	drEs	0.2835686
-3.608861	drI	0.2525676
-4.083106	drI@R	0.2835686
-4.083106	drINk	0.2835686
-4.083106	drIft	0.2835686
-4.083106	drQp	0.2835686
-4.083106	drQs	0.2835686
-4.083106	drVNk	0.2835686
-4.083106	drV_	0.2835686
-4.083106	drVf	0.2835686
-3.784231	drVm	0.2677916
-4.083106	dru	0.2835686
-4.083106	drul	0.2835686
-4.083106	drun	0.2835686
-4.083106	drup	0.2835686
-4.083106	dr{	0.2835686
-4.083106	dr{b	0.2835686
-4.083106	dr{g	0.2835686
-4.083106	dr{k	0.2835686
-4.083106	dr{m	0.2835686
-4.083106	dr{t	0.2835686
-3.484283	du	0.2378593
-4.083106	dw$f	0.2835686
-4.083106	dwEl	0.2835686
-4.083106	dwIn	0.2835686
-3.38759	d{	0.2236329
-4.083106	d{N	0.2835686
-3.784231	d{m	0.2677916
-4.083106	d{mp	0.2835686
-3.608861	d{n	0.2525676
-3.484283	f#I	0.2378593
-4.083106	f#Id	0.2835686
-4.083106	f#If	0.2835686
-3.784231	f#Il	0.2677916
-4.083106	f#Ind	0.2835686
-4.083106	f#It	0.2835686
-4.083106	f#Iv	0.2835686
-4.083106	f#Ul	0.2835686
-4.083106	f#Un	0.2835686
-4.083106	f#Und	0.2835686
-3.484283	f$	0.2378593
-4.083106	f$ls	0.2835686
-4.083106	f$m	0.2835686
-3.608861	f1	0.2525676
-4.083106	f1n	0.2835686
-4.083106	f1nt	0.2835686
-3.484283	f3	0.2378593
-4.083106	f3st	0.2835686
-3.608861	f5	0.2525676
-3.784231	f5ld	0.2677916
-3.007885	f@	0.1352883
-3.38759	f@R	0.2236329
-4.083106	f@l	0.2835686
-4.083106	f@nt	0.2835686
-3.784231	f@t	0.2677916
-3.132703	fE	0.1709745
-3.608861	fE@R	0.2525676
-4.083106	fEns	0.2835686
-4.083106	fEst	0.2835686
-3.784231	fH	0.2677916
-2.883036	fI	0.09185526
-4.083106	fI@	0.2835686
-4.083106	fINk	0.2835686
-4.083106	fIlT	0.2835686
-3.241709	fIn	0.1965061
-4.083106	fInJ	0.2835686
-4.083106	fIst	0.2835686
-3.484283	fIt	0.2378593
-3.007885	fP	0.1352883
-3.308553	fQ	0.2098577
-4.083106	fQIl	0.2835686
-4.083106	fQks	0.2835686
-3.608861	fQn	0.2525676
-4.083106	fQnd	0.2835686
-4.083106	fQnt	0.2835686
-4.083106	fQz	0.2835686
-4.083106	fUl	0.2835686
-3.608861	fV	0.2525676
-4.083106	fVN	0.2835686
-4.083106	fVNk	0.2835686
-4.083106	fVm	0.2835686
-4.083106	fVnd	0.2835686
-3.183795	fi	0.1835527
-4.083106	find	0.2835686
-4.083106	fist	0.2835686
-3.784231	fjU@	0.2677916
-4.083106	fjU@l	0.2835686
-3.784231	fju	0.2677916
-4.083106	fju_	0.2835686
-4.083106	fjug	0.2835686
-4.083106	fjum	0.2835686
-4.083106	fl#I	0.2835686
-4.083106	fl#U	0.2835686
-4.083106	fl#Uns	0.2835686
-4.083106	fl#sk	0.2835686
-4.083106	fl$	0.2835686
-4.083106	fl$nt	0.2835686
-4.083106	fl1m	0.2835686
-4.083106	fl3t	0.2835686
-3.784231	fl@	0.2677916
-4.083106	flES	0.2835686
-4.083106	flEk	0.2835686
-4.083106	flEks	0.2835686
-4.083106	flEm	0.2835686
-4.083106	flIJ	0.2835686
-4.083106	flIk	0.2835686
-4.083106	flInJ	0.2835686
-4.083106	flInt	0.2835686
-4.083106	flIp	0.2835686
-4.083106	flQ	0.2835686
-4.083106	flQg	0.2835686
-4.083106	flQk	0.2835686
-4.083106	flQs	0.2835686
-4.083106	flVNk	0.2835686
-4.083106	flVd	0.2835686
-4.083106	flVf	0.2835686
-4.083106	flis	0.2835686
-3.784231	flu	0.2677916
-4.083106	fluk	0.2835686
-4.083106	flut	0.2835686
-3.784231	fl{	0.2677916
-4.083106	fl{Nk	0.2835686
-4.083106	fl{S	0.2835686
-4.083106	fl{g	0.2835686
-4.083106	fl{k	0.2835686
-4.083106	fl{ks	0.2835686
-4.083106	fl{n	0.2835686
-4.083106	fl{n_	0.2835686
-4.083106	fl{p	0.2835686
-4.083106	fl{t	0.2835686
-4.083106	fr#Un	0.2835686
-4.083106	fr$d	0.2835686
-4.083106	fr1	0.2835686
-4.083106	fr1d	0.2835686
-4.083106	fr1m	0.2835686
-4.083106	fr1t	0.2835686
-3.784231	fr1z	0.2677916
-3.784231	fr@	0.2677916
-4.083106	fr@n	0.2835686
-4.083106	frE	0.2835686
-4.083106	frES	0.2835686
-4.083106	frEnd	0.2835686
-4.083106	frEs	0.2835686
-3.484283	frI	0.2378593
-4.083106	frIl	0.2835686
-4.083106	frIn_	0.2835686
-4.083106	frIsk	0.2835686
-4.083106	frQ	0.2835686
-4.083106	frQT	0.2835686
-4.083106	frQg	0.2835686
-4.083106	frQk	0.2835686
-4.083106	frQm	0.2835686
-4.083106	frQnd	0.2835686
-4.083106	frQst	0.2835686
-4.083106	frVmp	0.2835686
-3.784231	frVnt	0.2677916
-4.083106	fri	0.2835686
-4.083106	frik	0.2835686
-4.083106	friz	0.2835686
-4.083106	fr{	0.2835686
-4.083106	fr{N	0.2835686
-4.083106	fr{Nk	0.2835686
-4.083106	fr{s	0.2835686
-3.38759	f{	0.2236329
-3.784231	f{kt	0.2677916
-4.083106	f{lt	0.2835686
-4.083106	f{n	0.2835686
-3.183795	g#	0.1835527
-4.083106	g#Id	0.2835686
-4.083106	g#Il	0.2835686
-3.784231	g#R	0.2677916
-4.083106	g#U	0.2835686
-4.083106	g#U_	0.2835686
-4.083106	g#Un	0.2835686
-4.083106	g#Ut	0.2835686
-4.083106	g#sp	0.2835686
-4.083106	g$	0.2835686
-4.083106	g$nt	0.2835686
-3.784231	g1	0.2677916
-3.784231	g3	0.2677916
-2.883036	g5	0.09185526
-4.083106	g5ld	0.2835686
-4.083106	g5st	0.2835686
-2.78618	g@	0.05237366
-3.183795	g@R	0.1835527
-3.784231	g@m	0.2677916
-3.086993	g@n	0.1587504
-3.484283	g@s	0.2378593
-3.484283	g@t	0.2378593
-4.083106	gE	0.2835686
-4.083106	gEn	0.2835686
-4.083106	gEst	0.2835686
-3.183795	gI	0.1835527
-4.083106	gI@R	0.2835686
-4.083106	gIft	0.2835686
-4.083106	gIld	0.2835686
-4.083106	gIlt	0.2835686
-3.784231	gIn	0.2677916
-4.083106	gInz	0.2835686
-4.083106	gIs	0.2835686
-3.784231	gIt	0.2677916
-2.655903	gP	-0.009106994
-3.38759	gQ	0.2236329
-4.083106	gQI	0.2835686
-4.083106	gQIl	0.2835686
-4.083106	gQN	0.2835686
-3.784231	gQg	0.2677916
-3.784231	gQn	0.2677916
-4.083106	gU	0.2835686
-4.083106	gU@d	0.2835686
-3.38759	gV	0.2236329
-4.083106	gVlf	0.2835686
-4.083106	gVlp	0.2835686
-4.083106	gVn	0.2835686
-3.784231	gVst	0.2677916
-4.083106	gjU@R	0.2835686
-4.083106	gju	0.2835686
-4.083106	gjum	0.2835686
-4.083106	gl#ns	0.2835686
-4.083106	gl#s	0.2835686
-4.083106	gl1d	0.2835686
-4.083106	gl1z	0.2835686
-4.083106	gl5b	0.2835686
-4.083106	gl5t	0.2835686
-4.083106	gl@n	0.2835686
-4.083106	glE@R	0.2835686
-4.083106	glEn	0.2835686
-4.083106	glIb	0.2835686
-4.083106	glImps	0.2835686
-4.083106	glInt	0.2835686
-4.083106	glQs	0.2835686
-4.083106	glVm	0.2835686
-4.083106	glVt	0.2835686
-4.083106	glib	0.2835686
-4.083106	glim	0.2835686
-4.083106	glin	0.2835686
-3.784231	glu	0.2677916
-4.083106	glum	0.2835686
-4.083106	gl{d	0.2835686
-4.083106	gr#Im	0.2835686
-4.083106	gr#Ip	0.2835686
-4.083106	gr#UJ	0.2835686
-4.083106	gr#Ul	0.2835686
-4.083106	gr#Und	0.2835686
-4.083106	gr#Us	0.2835686
-4.083106	gr#f	0.2835686
-4.083106	gr#ft	0.2835686
-4.083106	gr#nt	0.2835686
-4.083106	gr#s	0.2835686
-4.083106	gr1d	0.2835686
-4.083106	gr1l	0.2835686
-4.083106	gr1n	0.2835686
-4.083106	gr1p	0.2835686
-4.083106	gr1s	0.2835686
-4.083106	gr1t	0.2835686
-4.083106	gr1v	0.2835686
-4.083106	gr1z	0.2835686
-4.083106	gr5	0.2835686
-4.083106	gr5n	0.2835686
-4.083106	gr5p	0.2835686
-4.083106	gr5s	0.2835686
-4.083106	gr5t	0.2835686
-4.083106	gr5v	0.2835686
-4.083106	gr@	0.2835686
-4.083106	gr@l	0.2835686
-4.083106	gr@m	0.2835686
-4.083106	grE	0.2835686
-4.083106	grEm	0.2835686
-4.083106	grEs	0.2835686
-3.484283	grI	0.2378593
-4.083106	grId	0.2835686
-3.608861	grIm	0.2525676
-3.784231	grIn	0.2677916
-4.083106	grIp	0.2835686
-4.083106	grIst	0.2835686
-4.083106	grIt	0.2835686
-3.784231	grQ	0.2677916
-4.083106	grQIn	0.2835686
-4.083106	grQt	0.2835686
-4.083106	grU@l	0.2835686
-4.083106	grV_	0.2835686
-4.083106	grVb	0.2835686
-4.083106	grVm	0.2835686
-4.083106	grVnt	0.2835686
-3.608861	gri	0.2525676
-4.083106	grib	0.2835686
-3.784231	grin	0.2677916
-4.083106	gris	0.2835686
-4.083106	grit	0.2835686
-4.083106	grum	0.2835686
-3.608861	gr{	0.2525676
-4.083106	gr{b	0.2835686
-3.784231	gr{m	0.2677916
-4.083106	gr{nd	0.2835686
-3.784231	gu	0.2677916
-3.784231	gun	0.2677916
-4.083106	gus	0.2835686
-4.083106	gwIn	0.2835686
-2.940989	g{	0.1130291
-4.083106	g{N	0.2835686
-4.083106	g{m	0.2835686
-4.083106	g{mp	0.2835686
-4.083106	g{s	0.2835686
-3.086993	h#	0.1587504
-3.183795	h#I	0.1835527
-4.083106	h#Id	0.2835686
-4.083106	h#Ik	0.2835686
-4.083106	h#Ind	0.2835686
-4.083106	h#It	0.2835686
-4.083106	h#Iv	0.2835686
-4.083106	h#U	0.2835686
-4.083106	h#Ul	0.2835686
-4.083106	h#Und	0.2835686
-4.083106	h#Us	0.2835686
-4.083106	h#Ut	0.2835686
-4.083106	h#d	0.2835686
-4.083106	h#sp	0.2835686
-4.083106	h#t	0.2835686
-3.784231	h$	0.2677916
-4.083106	h$k	0.2835686
-4.083106	h$nt	0.2835686
-4.083106	h1	0.2835686
-4.083106	h1st	0.2835686
-3.484283	h3	0.2378593
-4.083106	h3ts	0.2835686
-3.784231	h5	0.2677916
-4.083106	h5st	0.2835686
-3.608861	h@	0.2525676
-3.308553	hE	0.2098577
-4.083106	hE@R	0.2835686
-4.083106	hEk	0.2835686
-4.083106	hEl	0.2835686
-4.083106	hElm	0.2835686
-4.083106	hElp	0.2835686
-4.083106	hEm	0.2835686
-4.083106	hEmp	0.2835686
-3.608861	hI	0.2525676
-4.083106	hI@	0.2835686
-4.083106	hI@R	0.2835686
-4.083106	hIb	0.2835686
-4.083106	hIlt	0.2835686
-4.083106	hIn_	0.2835686
-4.083106	hInt	0.2835686
-3.183795	hQ	0.1835527
-4.083106	hQIst	0.2835686
-4.083106	hQNk	0.2835686
-4.083106	hQm	0.2835686
-3.784231	hU	0.2677916
-3.608861	hV	0.2525676
-4.083106	hVNk	0.2835686
-4.083106	hVlk	0.2835686
-3.608861	hVm	0.2525676
-4.083106	hVmp	0.2835686
-4.083106	hVn	0.2835686
-4.083106	hVnJ	0.2835686
-4.083106	hVnt	0.2835686
-4.083106	hVsk	0.2835686
-4.083106	hVz	0.2835686
-3.484283	hju	0.2378593
-3.608861	hu	0.2525676
-4.083106	huts	0.2835686
-2.911047	h{	0.1023131
-4.083106	h{Nk	0.2835686
-3.784231	h{n	0.2677916
-4.083106	h{nd	0.2835686
-3.484283	i	0.2378593
-4.083106	is	0.2835686
-4.083106	j#Ul	0.2835686
-3.608861	j5	0.2525676
-3.608861	j@	0.2525676
-4.083106	j@d	0.2835686
-4.083106	j@n	0.2835686
-4.083106	jE	0.2835686
-4.083106	jElp	0.2835686
-4.083106	jQ	0.2835686
-4.083106	jU@	0.2835686
-4.083106	jV	0.2835686
-4.083106	jild	0.2835686
-4.083106	jist	0.2835686
-3.132703	ju	0.1709745
-4.083106	j{Nk	0.2835686
-4.083106	j{k	0.2835686
-2.940989	k#	0.1130291
-3.784231	k#I	0.2677916
-4.083106	k#Ik	0.2835686
-4.083106	k#Ind	0.2835686
-4.083106	k#It	0.2835686
-4.083106	k#U	0.2835686
-4.083106	k#UJ	0.2835686
-4.083106	k#Unt	0.2835686
-4.083106	k#d	0.2835686
-4.083106	k#sk	0.2835686
-4.083106	k#st	0.2835686
-3.04564	k$	0.146861
-4.083106	k$R	0.2835686
-4.083106	k$d	0.2835686
-3.784231	k$n	0.2677916
-3.007885	k1	0.1352883
-4.083106	k1n	0.2835686
-3.484283	k3	0.2378593
-4.083106	k3R	0.2835686
-2.689314	k5	0.007589072
-4.083106	k5ld	0.2835686
-4.083106	k5lt	0.2835686
-4.083106	k5n	0.2835686
-4.083106	k5s	0.2835686
-4.083106	k5st	0.2835686
-2.379772	k@	-0.1712452
-3.007885	k@R	0.1352883
-4.083106	k@d	0.2835686
-4.083106	k@l	0.2835686
-3.308553	k@m	0.2098577
-2.672287	k@n	-0.0008391738
-3.484283	k@nd	0.2378593
-3.484283	k@s	0.2378593
-4.083106	k@st	0.2835686
-4.083106	k@t	0.2835686
-4.083106	k@z	0.2835686
-3.484283	kE	0.2378593
-4.083106	kE@	0.2835686
-4.083106	kE@R	0.2835686
-4.083106	kE@n	0.2835686
-4.083106	kElp	0.2835686
-4.083106	kEs	0.2835686
-3.132703	kI	0.1709745
-4.083106	kI@S	0.2835686
-4.083106	kINk	0.2835686
-3.784231	kId	0.2677916
-4.083106	kIln	0.2835686
-4.083106	kIlt	0.2835686
-3.38759	kIn	0.2236329
-4.083106	kInt	0.2835686
-4.083106	kIs	0.2835686
-3.007885	kIt	0.1352883
-4.083106	kIts	0.2835686
-2.555821	kP	-0.06295368
-2.725511	kQ	0.02495277
-3.784231	kQI	0.2677916
-4.083106	kQIf	0.2835686
-4.083106	kQIl	0.2835686
-4.083106	kQIn	0.2835686
-3.608861	kQN	0.2525676
-4.083106	kQg	0.2835686
-4.083106	kQk	0.2835686
-4.083106	kQl	0.2835686
-3.38759	kQm	0.2236329
-3.007885	kQn	0.1352883
-4.083106	kQnJ	0.2835686
-3.784231	kQst	0.2677916
-3.784231	kU	0.2677916
-3.308553	kV	0.2098577
-3.784231	kVl	0.2677916
-4.083106	kVlt	0.2835686
-3.484283	kVm	0.2378593
-4.083106	kVnt	0.2835686
-4.083106	kVp	0.2835686
-4.083106	kVs	0.2835686
-4.083106	kVsp	0.2835686
-4.083106	kVt	0.2835686
-3.38759	ki	0.2236329
-4.083106	kin	0.2835686
-4.083106	kit	0.2835686
-3.608861	kjU	0.2525676
-3.608861	kjU@	0.2525676
-3.784231	kjU@R	0.2677916
-3.241709	kju	0.1965061
-4.083106	kjub	0.2835686
-4.083106	kjul	0.2835686
-4.083106	kjut	0.2835686
-4.083106	kjuz	0.2835686
-4.083106	kl#I	0.2835686
-4.083106	kl#Im	0.2835686
-4.083106	kl#Ud	0.2835686
-4.083106	kl#Un	0.2835686
-4.083106	kl#Ut	0.2835686
-4.083106	kl#k	0.2835686
-4.083106	kl#s	0.2835686
-4.083106	kl$z	0.2835686
-4.083106	kl1m	0.2835686
-3.784231	kl5n	0.2677916
-4.083106	kl@	0.2835686
-3.784231	klE	0.2677916
-4.083106	klE@R	0.2835686
-4.083106	klEf	0.2835686
-4.083106	klEnJ	0.2835686
-4.083106	klEnz	0.2835686
-4.083106	klI@R	0.2835686
-4.083106	klI@s	0.2835686
-4.083106	klINk	0.2835686
-4.083106	klIf	0.2835686
-4.083106	klIn	0.2835686
-4.083106	klInJ	0.2835686
-4.083106	klQI	0.2835686
-4.083106	klQS	0.2835686
-4.083106	klQT	0.2835686
-4.083106	klQd	0.2835686
-3.784231	klQg	0.2677916
-4.083106	klQk	0.2835686
-4.083106	klQt	0.2835686
-4.083106	klVJ	0.2835686
-4.083106	klVNk	0.2835686
-4.083106	klVb	0.2835686
-4.083106	klVk	0.2835686
-4.083106	klVmp	0.2835686
-4.083106	kli	0.2835686
-4.083106	klik	0.2835686
-4.083106	klin	0.2835686
-4.083106	klit	0.2835686
-4.083106	kliv	0.2835686
-3.608861	kl{	0.2525676
-4.083106	kl{N	0.2835686
-4.083106	kl{Nk	0.2835686
-4.083106	kl{S	0.2835686
-4.083106	kl{d	0.2835686
-3.784231	kl{k	0.2677916
-4.083106	kl{m	0.2835686
-4.083106	kl{mp	0.2835686
-4.083106	kl{n	0.2835686
-4.083106	kl{p	0.2835686
-4.083106	kr#I	0.2835686
-4.083106	kr#Im	0.2835686
-4.083106	kr#UJ	0.2835686
-4.083106	kr#Ud	0.2835686
-4.083106	kr#Un	0.2835686
-4.083106	kr#ft	0.2835686
-4.083106	kr1	0.2835686
-4.083106	kr1n	0.2835686
-4.083106	kr1p	0.2835686
-4.083106	kr1t	0.2835686
-4.083106	kr1v	0.2835686
-4.083106	kr1z	0.2835686
-3.784231	kr5	0.2677916
-4.083106	kr5k	0.2835686
-4.083106	kr5m	0.2835686
-4.083106	kr5s	0.2835686
-4.083106	kr@	0.2835686
-4.083106	kr@l	0.2835686
-4.083106	krE	0.2835686
-4.083106	krEst	0.2835686
-3.484283	krI	0.2378593
-4.083106	krI@	0.2835686
-4.083106	krI@s	0.2835686
-4.083106	krIN	0.2835686
-4.083106	krIk	0.2835686
-4.083106	krIm	0.2835686
-4.083106	krImp	0.2835686
-4.083106	krIn_	0.2835686
-4.083106	krIpt	0.2835686
-4.083106	krIt	0.2835686
-4.083106	krQft	0.2835686
-4.083106	krQm	0.2835686
-4.083106	krQp	0.2835686
-4.083106	krQs	0.2835686
-4.083106	krU@l	0.2835686
-4.083106	krUk	0.2835686
-4.083106	krVJ	0.2835686
-4.083106	krVS	0.2835686
-4.083106	krVks	0.2835686
-3.784231	krVm	0.2677916
-4.083106	krVnJ	0.2835686
-4.083106	krVst	0.2835686
-3.608861	kri	0.2525676
-4.083106	krid	0.2835686
-4.083106	krik	0.2835686
-4.083106	kril	0.2835686
-4.083106	krim	0.2835686
-4.083106	krip	0.2835686
-4.083106	kris	0.2835686
-3.784231	krit	0.2677916
-3.784231	kru	0.2677916
-4.083106	krud	0.2835686
-4.083106	krun	0.2835686
-4.083106	krup	0.2835686
-4.083106	kr{S	0.2835686
-4.083106	kr{b	0.2835686
-4.083106	kr{g	0.2835686
-4.083106	kr{k	0.2835686
-3.784231	kr{m	0.2677916
-4.083106	kr{p	0.2835686
-4.083106	kr{s	0.2835686
-3.484283	ku	0.2378593
-3.608861	kun	0.2525676
-3.784231	kus	0.2677916
-4.083106	kv#s	0.2835686
-4.083106	kw#I	0.2835686
-4.083106	kw#k	0.2835686
-4.083106	kw#m	0.2835686
-4.083106	kw$	0.2835686
-4.083106	kw$t	0.2835686
-4.083106	kw$ts	0.2835686
-4.083106	kw1	0.2835686
-4.083106	kw1k	0.2835686
-4.083106	kw1l	0.2835686
-4.083106	kw1nt	0.2835686
-4.083106	kw3k	0.2835686
-4.083106	kw5	0.2835686
-4.083106	kw@l	0.2835686
-4.083106	kwEl	0.2835686
-4.083106	kwEnJ	0.2835686
-3.608861	kwI	0.2525676
-4.083106	kwI@m	0.2835686
-4.083106	kwId	0.2835686
-4.083106	kwIf	0.2835686
-4.083106	kwIk	0.2835686
-4.083106	kwIl	0.2835686
-4.083106	kwIlt	0.2835686
-3.608861	kwIn	0.2525676
-4.083106	kwIns	0.2835686
-3.784231	kwIp	0.2677916
-4.083106	kwIt	0.2835686
-4.083106	kwIts	0.2835686
-4.083106	kwIz	0.2835686
-3.784231	kwQ	0.2677916
-4.083106	kwQIz	0.2835686
-4.083106	kwQS	0.2835686
-4.083106	kwQd	0.2835686
-4.083106	kwQf	0.2835686
-3.784231	kwQt	0.2677916
-4.083106	kwin	0.2835686
-4.083106	kw{k	0.2835686
-2.519109	k{	-0.08413267
-4.083106	k{N	0.2835686
-4.083106	k{S	0.2835686
-4.083106	k{f	0.2835686
-3.608861	k{m	0.2525676
-4.083106	k{mp	0.2835686
-3.484283	k{n	0.2378593
-4.083106	k{nt	0.2835686
-3.484283	k{p	0.2378593
-4.083106	k{sk	0.2835686
-4.083106	k{t	0.2835686
-3.484283	l#	0.2378593
-3.007885	l#I	0.1352883
-4.083106	l#ID	0.2835686
-4.083106	l#If	0.2835686
-4.083106	l#Ik	0.2835686
-4.083106	l#Il	0.2835686
-4.083106	l#Im	0.2835686
-4.083106	l#It	0.2835686
-4.083106	l#Iv	0.2835686
-4.083106	l#Iz	0.2835686
-3.784231	l#U	0.2677916
-4.083106	l#Ud	0.2835686
-4.083106	l#Un_	0.2835686
-4.083106	l#Us	0.2835686
-3.784231	l#d	0.2677916
-4.083106	l#m	0.2835686
-4.083106	l#nJ	0.2835686
-4.083106	l#ns	0.2835686
-4.083106	l#st	0.2835686
-4.083106	l$R	0.2835686
-4.083106	l$n	0.2835686
-4.083106	l$nJ	0.2835686
-3.308553	l1	0.2098577
-4.083106	l1t	0.2835686
-4.083106	l3t	0.2835686
-2.640114	l5	-0.01722032
-2.496252	l@	-0.09769911
-3.38759	l@R	0.2236329
-4.083106	l@d	0.2835686
-4.083106	l@k	0.2835686
-3.38759	l@m	0.2236329
-3.183795	l@n	0.1835527
-3.784231	l@nd	0.2677916
-4.083106	l@ns	0.2835686
-4.083106	l@nt	0.2835686
-3.38759	l@p	0.2236329
-3.38759	l@s	0.2236329
-4.083106	l@sk	0.2835686
-4.083106	l@st	0.2835686
-3.38759	l@t	0.2236329
-3.086993	lE	0.1587504
-4.083106	lE@	0.2835686
-4.083106	lE@R	0.2835686
-4.083106	lE@d	0.2835686
-4.083106	lET	0.2835686
-4.083106	lEft	0.2835686
-3.608861	lEk	0.2525676
-4.083106	lEks	0.2835686
-4.083106	lEkt	0.2835686
-4.083106	lEn	0.2835686
-4.083106	lEnd	0.2835686
-4.083106	lEnz	0.2835686
-4.083106	lEst	0.2835686
-2.406096	lI	-0.1539931
-4.083106	lI@R	0.2835686
-4.083106	lI@n	0.2835686
-4.083106	lI@s	0.2835686
-3.784231	lIN	0.2677916
-4.083106	lINk	0.2835686
-4.083106	lINks	0.2835686
-3.608861	lI_	0.2525676
-4.083106	lId	0.2835686
-3.784231	lIf	0.2677916
-4.083106	lIft	0.2835686
-3.484283	lIk	0.2378593
-3.784231	lIks	0.2677916
-3.784231	lIm	0.2677916
-4.083106	lImf	0.2835686
-4.083106	lImp	0.2835686
-3.04564	lIn	0.146861
-4.083106	lInJ	0.2835686
-3.484283	lIp	0.2378593
-4.083106	lIps	0.2835686
-3.608861	lIs	0.2525676
-3.784231	lIsk	0.2677916
-4.083106	lIst	0.2835686
-3.241709	lIt	0.1965061
-3.484283	lQ	0.2378593
-4.083106	lQI	0.2835686
-4.083106	lQIn	0.2835686
-4.083106	lQk	0.2835686
-3.784231	lQn	0.2677916
-4.083106	lQt	0.2835686
-4.083106	lU@	0.2835686
-4.083106	lU@R	0.2835686
-3.784231	lVm	0.2677916
-4.083106	lVmf	0.2835686
-4.083106	lVmp	0.2835686
-4.083106	lVst	0.2835686
-3.608861	li	0.2525676
-3.784231	lin	0.2677916
-4.083106	lis	0.2835686
-4.083106	list	0.2835686
-3.784231	lit	0.2677916
-4.083106	liz	0.2835686
-4.083106	lj#d	0.2835686
-4.083106	lj@	0.2835686
-4.083106	lj@d	0.2835686
-3.784231	lj@n	0.2677916
-3.784231	ljU	0.2677916
-4.083106	ljud	0.2835686
-4.083106	ljum	0.2835686
-4.083106	ljuz	0.2835686
-3.132703	lu	0.1709745
-3.784231	lun	0.2677916
-4.083106	lut	0.2835686
-3.241709	l{	0.1965061
-4.083106	l{N	0.2835686
-4.083106	l{Nks	0.2835686
-4.083106	l{S	0.2835686
-4.083106	l{f	0.2835686
-3.784231	l{k	0.2677916
-4.083106	l{ks	0.2835686
-3.784231	l{m	0.2677916
-4.083106	l{mp	0.2835686
-3.784231	l{n	0.2677916
-4.083106	l{nd	0.2835686
-4.083106	l{p	0.2835686
-4.083106	l{ps	0.2835686
-2.765002	m#	0.04303965
-3.608861	m#I	0.2525676
-4.083106	m#Il	0.2835686
-4.083106	m#Ild	0.2835686
-4.083106	m#Im	0.2835686
-3.784231	m#In	0.2677916
-4.083106	m#It	0.2835686
-4.083106	m#UT	0.2835686
-4.083106	m#Un	0.2835686
-4.083106	m#Und	0.2835686
-4.083106	m#Us	0.2835686
-4.083106	m#st	0.2835686
-3.608861	m$	0.2525676
-3.784231	m$R	0.2677916
-4.083106	m$n	0.2835686
-3.241709	m1	0.1965061
-4.083106	m1n	0.2835686
-4.083106	m1s	0.2835686
-3.484283	m3	0.2378593
-4.083106	m3s	0.2835686
-2.940989	m5	0.1130291
-4.083106	m5d	0.2835686
-4.083106	m5lt	0.2835686
-4.083106	m5n	0.2835686
-4.083106	m5t	0.2835686
-2.331476	m@	-0.2038203
-3.132703	m@R	0.1709745
-3.784231	m@T	0.2677916
-3.784231	m@k	0.2677916
-4.083106	m@m	0.2835686
-2.97315	m@n	0.1240161
-3.308553	m@nt	0.2098577
-4.083106	m@nz	0.2835686
-3.784231	m@s	0.2677916
-4.083106	m@sk	0.2835686
-3.784231	m@t	0.2677916
-2.883036	mE	0.09185526
-4.083106	mE@R	0.2835686
-4.083106	mEN	0.2835686
-4.083106	mElt	0.2835686
-3.784231	mEm	0.2677916
-3.241709	mEn	0.1965061
-4.083106	mEnd	0.2835686
-3.784231	mEns	0.2677916
-3.784231	mEnt	0.2677916
-2.519109	mI	-0.08413267
-3.484283	mI@R	0.2378593
-3.784231	mIN	0.2677916
-4.083106	mINk	0.2835686
-4.083106	mINks	0.2835686
-4.083106	mIS	0.2835686
-4.083106	mI_	0.2835686
-3.784231	mId	0.2677916
-4.083106	mIk	0.2835686
-4.083106	mIlJ	0.2835686
-4.083106	mIlt	0.2835686
-3.086993	mIn	0.1587504
-4.083106	mIns	0.2835686
-4.083106	mInt	0.2835686
-3.784231	mIs	0.2677916
-3.38759	mIt	0.2236329
-4.083106	mP	0.2835686
-3.04564	mQ	0.146861
-4.083106	mQIl	0.2835686
-4.083106	mQIst	0.2835686
-4.083106	mQN	0.2835686
-4.083106	mQk	0.2835686
-4.083106	mQs	0.2835686
-4.083106	mQsk	0.2835686
-4.083106	mU@R	0.2835686
-2.911047	mV	0.1023131
-3.784231	mVN	0.2677916
-3.784231	mVNk	0.2677916
-4.083106	mVf	0.2835686
-4.083106	mVlt	0.2835686
-4.083106	mVm	0.2835686
-4.083106	mVnJ	0.2835686
-4.083106	mVnT	0.2835686
-4.083106	mVs	0.2835686
-4.083106	mVst	0.2835686
-4.083106	mVz	0.2835686
-3.132703	mi	0.1709745
-3.784231	mjU	0.2677916
-3.784231	mju	0.2677916
-4.083106	mjul	0.2835686
-3.608861	mjun	0.2525676
-3.784231	mjut	0.2677916
-4.083106	mjuz	0.2835686
-4.083106	mu	0.2835686
-2.655903	m{	-0.009106994
-3.784231	m{N	0.2677916
-3.784231	m{g	0.2677916
-4.083106	m{k	0.2835686
-4.083106	m{l	0.2835686
-3.784231	m{m	0.2677916
-3.308553	m{n	0.2098577
-3.784231	m{ns	0.2677916
-3.784231	m{t	0.2677916
-3.484283	n#	0.2378593
-3.608861	n#I	0.2525676
-4.083106	n#If	0.2835686
-4.083106	n#In	0.2835686
-4.083106	n#Is	0.2835686
-3.784231	n#It	0.2677916
-4.083106	n#Iv	0.2835686
-3.784231	n#R	0.2677916
-4.083106	n#Un	0.2835686
-4.083106	n#Ut	0.2835686
-4.083106	n#l	0.2835686
-4.083106	n$	0.2835686
-4.083106	n$R	0.2835686
-3.484283	n1	0.2378593
-4.083106	n1d	0.2835686
-4.083106	n1t	0.2835686
-2.831914	n5	0.07166597
-4.083106	n5d	0.2835686
-4.083106	n5m	0.2835686
-4.083106	n5t	0.2835686
-2.485259	n@	-0.1043266
-4.083106	n@R	0.2835686
-4.083106	n@d	0.2835686
-3.608861	n@k	0.2525676
-4.083106	n@m	0.2835686
-3.784231	n@n	0.2677916
-4.083106	n@nt	0.2835686
-3.241709	n@s	0.1965061
-3.484283	nE	0.2378593
-3.784231	nEk	0.2677916
-4.083106	nEks	0.2835686
-4.083106	nEkst	0.2835686
-4.083106	nEkt	0.2835686
-3.784231	nEl	0.2677916
-4.083106	nEs	0.2835686
-4.083106	nEst	0.2835686
-3.784231	nEt	0.2677916
-2.568782	nI	-0.05565813
-3.608861	nI@	0.2525676
-3.784231	nI@R	0.2677916
-4.083106	nI@m	0.2835686
-4.083106	nI@n	0.2835686
-4.083106	nIN	0.2835686
-4.083106	nIT	0.2835686
-4.083106	nId	0.2835686
-3.38759	nIk	0.2236329
-3.784231	nIks	0.2677916
-4.083106	nIl	0.2835686
-3.484283	nIm	0.2378593
-4.083106	nImf	0.2835686
-3.784231	nIp	0.2677916
-3.308553	nIs	0.2098577
-3.086993	nIt	0.1587504
-3.183795	nP	0.1835527
-3.308553	nQ	0.2098577
-4.083106	nQI	0.2835686
-4.083106	nQIz	0.2835686
-4.083106	nQk	0.2835686
-4.083106	nQl	0.2835686
-4.083106	nQn	0.2835686
-4.083106	nQns	0.2835686
-3.784231	nQs	0.2677916
-3.608861	nV	0.2525676
-4.083106	nVf	0.2835686
-4.083106	nVm	0.2835686
-3.608861	ni	0.2525676
-4.083106	nig	0.2835686
-4.083106	nik	0.2835686
-4.083106	nj3R	0.2835686
-4.083106	nj@	0.2835686
-4.083106	nj@l	0.2835686
-4.083106	nj@m	0.2835686
-4.083106	nj@n	0.2835686
-4.083106	nj@s	0.2835686
-4.083106	njU	0.2835686
-3.132703	nju	0.1709745
-4.083106	njut	0.2835686
-4.083106	njuz	0.2835686
-3.608861	nu	0.2525676
-3.608861	n{	0.2525676
-4.083106	n{d	0.2835686
-4.083106	n{f	0.2835686
-4.083106	n{n	0.2835686
-4.083106	n{ns	0.2835686
-4.083106	n{p	0.2835686
-3.086993	p#	0.1587504
-3.241709	p#I	0.1965061
-4.083106	p#Ik	0.2835686
-4.083106	p#Il	0.2835686
-4.083106	p#In	0.2835686
-4.083106	p#Int	0.2835686
-4.083106	p#Ip	0.2835686
-4.083106	p#Uns	0.2835686
-4.083106	p#Ut	0.2835686
-4.083106	p#m	0.2835686
-3.784231	p#s	0.2677916
-4.083106	p#st	0.2835686
-4.083106	p#t	0.2835686
-3.38759	p$	0.2236329
-4.083106	p$l	0.2835686
-4.083106	p$nJ	0.2835686
-4.083106	p$t	0.2835686
-3.38759	p1	0.2236329
-4.083106	p1k	0.2835686
-3.608861	p1n	0.2525676
-4.083106	p1nt	0.2835686
-3.784231	p1s	0.2677916
-4.083106	p1st	0.2835686
-3.38759	p3	0.2236329
-3.04564	p5	0.146861
-4.083106	p5st	0.2835686
-4.083106	p5z	0.2835686
-2.640114	p@	-0.01722032
-3.308553	p@R	0.2098577
-4.083106	p@d	0.2835686
-3.784231	p@l	0.2677916
-3.608861	p@n	0.2525676
-4.083106	p@nt	0.2835686
-3.04564	p@s	0.146861
-4.083106	p@z	0.2835686
-2.883036	pE	0.09185526
-4.083106	pE@	0.2835686
-3.608861	pE@R	0.2525676
-4.083106	pEN	0.2835686
-3.784231	pEd	0.2677916
-4.083106	pEk	0.2835686
-4.083106	pEks	0.2835686
-3.484283	pEl	0.2378593
-4.083106	pElt	0.2835686
-4.083106	pEn	0.2835686
-3.784231	pEnd	0.2677916
-4.083106	pEst	0.2835686
-2.640114	pI	-0.01722032
-3.608861	pI@	0.2525676
-4.083106	pI@R	0.2835686
-4.083106	pI@s	0.2835686
-4.083106	pIN	0.2835686
-4.083106	pINk	0.2835686
-3.38759	pId	0.2236329
-4.083106	pIg	0.2835686
-4.083106	pIk	0.2835686
-3.608861	pIl	0.2525676
-4.083106	pIm	0.2835686
-4.083106	pImp	0.2835686
-3.784231	pIn	0.2677916
-4.083106	pInJ	0.2835686
-4.083106	pIs	0.2835686
-4.083106	pIst	0.2835686
-3.308553	pIt	0.2098577
-2.940989	pP	0.1130291
-3.086993	pQ	0.1587504
-4.083106	pQInt	0.2835686
-4.083106	pQIz	0.2835686
-4.083106	pQks	0.2835686
-4.083106	pQl	0.2835686
-3.608861	pQm	0.2525676
-4.083106	pQmp	0.2835686
-3.308553	pQn	0.2098577
-4.083106	pQnd	0.2835686
-4.083106	pQns	0.2835686
-4.083106	pQp	0.2835686
-3.784231	pQst	0.2677916
-4.083106	pQt	0.2835686
-3.784231	pU	0.2677916
-4.083106	pUl	0.2835686
-4.083106	pUt	0.2835686
-3.38759	pV	0.2236329
-4.083106	pVN	0.2835686
-4.083106	pVNk	0.2835686
-4.083106	pVlp	0.2835686
-3.784231	pVls	0.2677916
-4.083106	pVlt	0.2835686
-3.784231	pVmp	0.2677916
-4.083106	pVn	0.2835686
-4.083106	pVnJ	0.2835686
-3.38759	pi	0.2236329
-3.784231	piz	0.2677916
-4.083106	pj@	0.2835686
-4.083106	pjU	0.2835686
-4.083106	pjU@R	0.2835686
-3.484283	pju	0.2378593
-4.083106	pjuk	0.2835686
-4.083106	pjul	0.2835686
-4.083106	pjun	0.2835686
-4.083106	pjus	0.2835686
-3.484283	pl#I	0.2378593
-4.083106	pl#nt	0.2835686
-4.083106	pl1g	0.2835686
-4.083106	pl1nt	0.2835686
-4.083106	pl1s	0.2835686
-4.083106	pl1t	0.2835686
-4.083106	pl5	0.2835686
-3.608861	pl@	0.2525676
-4.083106	plE	0.2835686
-4.083106	plE_	0.2835686
-4.083106	plEbz	0.2835686
-4.083106	plEk	0.2835686
-3.784231	plEks	0.2677916
-4.083106	plEn	0.2835686
-4.083106	plIm	0.2835686
-3.784231	plIn	0.2677916
-4.083106	plInT	0.2835686
-3.784231	plQI	0.2677916
-4.083106	plQd	0.2835686
-4.083106	plQp	0.2835686
-4.083106	plVNk	0.2835686
-4.083106	plVg	0.2835686
-4.083106	plVk	0.2835686
-3.784231	plVm	0.2677916
-4.083106	plVmp	0.2835686
-4.083106	plVn	0.2835686
-4.083106	plVn_	0.2835686
-4.083106	pliJ	0.2835686
-4.083106	plid	0.2835686
-4.083106	plum	0.2835686
-3.38759	pl{	0.2236329
-4.083106	pl{N	0.2835686
-4.083106	pl{d	0.2835686
-3.784231	pl{n	0.2677916
-3.784231	pl{t	0.2677916
-4.083106	pl{z	0.2835686
-4.083106	pr#	0.2835686
-3.784231	pr#I	0.2677916
-4.083106	pr#Id	0.2835686
-4.083106	pr#Is	0.2835686
-4.083106	pr#Iz	0.2835686
-4.083106	pr#U	0.2835686
-4.083106	pr1z	0.2835686
-3.308553	pr5	0.2098577
-4.083106	pr5J	0.2835686
-4.083106	pr5b	0.2835686
-4.083106	pr5l	0.2835686
-4.083106	pr5n	0.2835686
-3.38759	pr@	0.2236329
-4.083106	pr@n	0.2835686
-4.083106	prE	0.2835686
-4.083106	prE@	0.2835686
-4.083106	prEp	0.2835686
-4.083106	prEs	0.2835686
-3.38759	prI	0.2236329
-4.083106	prIg	0.2835686
-4.083106	prIk	0.2835686
-4.083106	prImp	0.2835686
-4.083106	prIt	0.2835686
-3.183795	prQ	0.1835527
-4.083106	prQm	0.2835686
-4.083106	prQmpt	0.2835686
-4.083106	prQp	0.2835686
-4.083106	priJ	0.2835686
-4.083106	prin	0.2835686
-4.083106	prud	0.2835686
-4.083106	pruv	0.2835686
-4.083106	pr{Nk	0.2835686
-4.083106	pr{k	0.2835686
-4.083106	pr{t	0.2835686
-3.608861	pu	0.2525676
-3.784231	pun	0.2677916
-4.083106	pus	0.2835686
-2.555821	p{	-0.06295368
-3.784231	p{N	0.2677916
-4.083106	p{S	0.2835686
-4.083106	p{ks	0.2835686
-4.083106	p{kt	0.2835686
-3.784231	p{m	0.2677916
-3.308553	p{n	0.2098577
-4.083106	p{nt	0.2835686
-4.083106	p{z	0.2835686
-3.241709	r#	0.1965061
-3.241709	r#I	0.1965061
-4.083106	r#ID	0.2835686
-4.083106	r#Id	0.2835686
-4.083106	r#If	0.2835686
-4.083106	r#Il	0.2835686
-4.083106	r#Im	0.2835686
-4.083106	r#Ind	0.2835686
-4.083106	r#Is	0.2835686
-4.083106	r#It	0.2835686
-3.784231	r#Iv	0.2677916
-4.083106	r#Iz	0.2835686
-4.083106	r#U	0.2835686
-4.083106	r#Un	0.2835686
-4.083106	r#Und	0.2835686
-4.083106	r#Ut	0.2835686
-3.784231	r#Uz	0.2677916
-4.083106	r#f	0.2835686
-4.083106	r#ft	0.2835686
-4.083106	r#l	0.2835686
-4.083106	r#n	0.2835686
-4.083106	r#s	0.2835686
-4.083106	r#sp	0.2835686
-3.784231	r$	0.2677916
-4.083106	r$R	0.2835686
-4.083106	r$d	0.2835686
-3.132703	r1	0.1709745
-3.784231	r1d	0.2677916
-4.083106	r1n_	0.2835686
-2.808445	r5	0.0619127
-3.608861	r5l	0.2525676
-4.083106	r5n	0.2835686
-4.083106	r5st	0.2835686
-2.496252	r@	-0.09769911
-3.784231	r@R	0.2677916
-3.784231	r@b	0.2677916
-4.083106	r@f	0.2835686
-3.784231	r@k	0.2677916
-3.132703	r@l	0.1709745
-3.784231	r@ld	0.2677916
-3.784231	r@m	0.2677916
-3.38759	r@n	0.2236329
-3.608861	r@nt	0.2525676
-4.083106	r@p	0.2835686
-3.132703	r@s	0.1709745
-3.38759	r@t	0.2236329
-3.241709	rE	0.1965061
-4.083106	rE@R	0.2835686
-3.784231	rEkt	0.2677916
-4.083106	rEl	0.2835686
-4.083106	rEnJ	0.2835686
-4.083106	rEnd	0.2835686
-4.083106	rEp	0.2835686
-3.784231	rEst	0.2677916
-3.784231	rEt	0.2677916
-2.415237	rI	-0.1480867
-3.608861	rI@	0.2525676
-3.784231	rI@R	0.2677916
-3.784231	rI@d	0.2677916
-3.608861	rI@l	0.2525676
-4.083106	rI@nt	0.2835686
-4.083106	rI@t	0.2835686
-4.083106	rIN	0.2835686
-4.083106	rINk	0.2835686
-4.083106	rINks	0.2835686
-4.083106	rIS	0.2835686
-4.083106	rI_	0.2835686
-3.784231	rId	0.2677916
-3.784231	rIf	0.2677916
-4.083106	rIft	0.2835686
-4.083106	rIg	0.2835686
-3.784231	rIk	0.2677916
-4.083106	rIks	0.2835686
-4.083106	rIl	0.2835686
-3.784231	rIm	0.2677916
-3.484283	rIn	0.2378593
-4.083106	rInT	0.2835686
-3.784231	rIn_	0.2677916
-4.083106	rIsk	0.2835686
-4.083106	rIst	0.2835686
-3.484283	rIt	0.2378593
-4.083106	rIz	0.2835686
-3.241709	rQ	0.1965061
-4.083106	rQk	0.2835686
-4.083106	rQks	0.2835686
-4.083106	rQmp	0.2835686
-3.784231	rQn	0.2677916
-3.784231	rU	0.2677916
-3.608861	rV	0.2525676
-4.083106	rVg	0.2835686
-3.608861	rVm	0.2525676
-4.083106	rVnt	0.2835686
-3.183795	ri	0.1835527
-4.083106	rim	0.2835686
-3.608861	rin	0.2525676
-4.083106	rit	0.2835686
-3.784231	riz	0.2677916
-4.083106	rju	0.2835686
-3.241709	ru	0.1965061
-4.083106	rust	0.2835686
-4.083106	rut	0.2835686
-2.97315	r{	0.1240161
-4.083106	r{Nk	0.2835686
-3.784231	r{f	0.2677916
-4.083106	r{k	0.2835686
-4.083106	r{ks	0.2835686
-4.083106	r{kt	0.2835686
-3.784231	r{m	0.2677916
-3.784231	r{n	0.2677916
-4.083106	r{nd	0.2835686
-4.083106	r{nt	0.2835686
-4.083106	r{pt	0.2835686
-3.784231	r{s	0.2677916
-4.083106	r{t	0.2835686
-3.484283	s#	0.2378593
-3.241709	s#I	0.1965061
-4.083106	s#ID	0.2835686
-3.484283	s#Id	0.2378593
-4.083106	s#Il	0.2835686
-4.083106	s#In	0.2835686
-4.083106	s#Is	0.2835686
-3.608861	s#It	0.2525676
-4.083106	s#Iz	0.2835686
-4.083106	s#U	0.2835686
-4.083106	s#UT	0.2835686
-4.083106	s#m	0.2835686
-3.784231	s$	0.2677916
-4.083106	s$R	0.2835686
-3.608861	s$lt	0.2525676
-4.083106	s$n	0.2835686
-3.608861	s1	0.2525676
-4.083106	s1d	0.2835686
-3.784231	s1l	0.2677916
-4.083106	s1nt	0.2835686
-3.007885	s3	0.1352883
-4.083106	s3n	0.2835686
-3.784231	s3t	0.2677916
-3.183795	s5	0.1835527
-3.784231	s5l	0.2677916
-4.083106	s5t	0.2835686
-2.883036	s@	0.09185526
-4.083106	s@R	0.2835686
-3.484283	s@k	0.2378593
-3.608861	s@l	0.2525676
-3.608861	s@m	0.2525676
-4.083106	s@ns	0.2835686
-3.784231	s@p	0.2677916
-3.38759	s@s	0.2236329
-4.083106	s@t	0.2835686
-2.911047	sE	0.1023131
-4.083106	sEN	0.2835686
-4.083106	sEks	0.2835686
-3.784231	sEkt	0.2677916
-4.083106	sEl	0.2835686
-3.38759	sEn	0.2236329
-4.083106	sEns	0.2835686
-3.608861	sEnt	0.2525676
-4.083106	sEp	0.2835686
-4.083106	sEps	0.2835686
-3.784231	sEs	0.2677916
-4.083106	sEst	0.2835686
-4.083106	sEt	0.2835686
-3.132703	sH	0.1709745
-2.388371	sI	-0.1655703
-3.784231	sI@	0.2677916
-4.083106	sI@R	0.2835686
-3.784231	sI@m	0.2677916
-3.784231	sIN	0.2677916
-4.083106	sINk	0.2835686
-3.38759	sId	0.2236329
-4.083106	sIft	0.2835686
-3.784231	sIg	0.2677916
-4.083106	sIks	0.2835686
-4.083106	sIl	0.2835686
-4.083106	sIlt	0.2835686
-3.608861	sIm	0.2525676
-4.083106	sImp	0.2835686
-3.608861	sIn	0.2525676
-4.083106	sInJ	0.2835686
-3.784231	sInT	0.2677916
-4.083106	sIp	0.2835686
-3.784231	sIs	0.2677916
-3.784231	sIst	0.2677916
-3.308553	sIt	0.2098577
-2.725511	sP	0.02495277
-3.086993	sQ	0.1587504
-4.083106	sQI	0.2835686
-4.083106	sQIl	0.2835686
-4.083106	sQl	0.2835686
-4.083106	sQlv	0.2835686
-4.083106	sQn	0.2835686
-3.784231	sU	0.2677916
-3.183795	sV	0.1835527
-4.083106	sVl	0.2835686
-4.083106	sVmp	0.2835686
-4.083106	sfINk	0.2835686
-3.086993	si	0.1587504
-3.784231	sid	0.2677916
-4.083106	sil	0.2835686
-3.784231	sin	0.2677916
-4.083106	sit	0.2835686
-4.083106	siz	0.2835686
-4.083106	sju	0.2835686
-4.083106	sjul	0.2835686
-3.784231	sjut	0.2677916
-3.608861	sk#	0.2525676
-4.083106	sk#Iv	0.2835686
-4.083106	sk#R	0.2835686
-3.784231	sk#U	0.2677916
-4.083106	sk#Ul	0.2835686
-4.083106	sk#Ut	0.2835686
-4.083106	sk#f	0.2835686
-4.083106	sk#p	0.2835686
-4.083106	sk$J	0.2835686
-4.083106	sk$R	0.2835686
-4.083106	sk$ld	0.2835686
-4.083106	sk$t	0.2835686
-4.083106	sk1	0.2835686
-4.083106	sk1d	0.2835686
-4.083106	sk1n	0.2835686
-4.083106	sk1t	0.2835686
-4.083106	sk3	0.2835686
-4.083106	sk3_	0.2835686
-4.083106	sk3f	0.2835686
-4.083106	sk3l	0.2835686
-4.083106	sk3t	0.2835686
-4.083106	sk5p	0.2835686
-4.083106	sk@R	0.2835686
-3.784231	sk@s	0.2677916
-3.784231	sk@t	0.2677916
-4.083106	skE	0.2835686
-4.083106	skE@s	0.2835686
-4.083106	skEJ	0.2835686
-4.083106	skEp	0.2835686
-4.083106	skI	0.2835686
-4.083106	skId	0.2835686
-4.083106	skIf	0.2835686
-4.083106	skIm	0.2835686
-4.083106	skIp	0.2835686
-3.784231	skIt	0.2677916
-4.083106	skQ	0.2835686
-4.083106	skQJ	0.2835686
-4.083106	skQn	0.2835686
-4.083106	skQns	0.2835686
-4.083106	skV	0.2835686
-4.083106	skVNk	0.2835686
-4.083106	skVd	0.2835686
-4.083106	skVf	0.2835686
-4.083106	skVl	0.2835686
-4.083106	skVlk	0.2835686
-4.083106	skVlpt	0.2835686
-4.083106	skVm	0.2835686
-4.083106	ski	0.2835686
-4.083106	skim	0.2835686
-4.083106	skit	0.2835686
-3.784231	skju	0.2677916
-4.083106	skjul	0.2835686
-4.083106	skr#Ib	0.2835686
-4.083106	skr#Un_	0.2835686
-4.083106	skr$l	0.2835686
-4.083106	skrI	0.2835686
-4.083106	skrImp	0.2835686
-4.083106	skrIp	0.2835686
-4.083106	skrIpt	0.2835686
-4.083106	skrVm	0.2835686
-4.083106	skrVnJ	0.2835686
-4.083106	skri	0.2835686
-4.083106	skriJ	0.2835686
-4.083106	skrim	0.2835686
-3.784231	skru	0.2677916
-4.083106	skru_	0.2835686
-4.083106	skr{	0.2835686
-4.083106	skr{J	0.2835686
-4.083106	skr{g	0.2835686
-3.784231	skr{m	0.2677916
-4.083106	skr{p	0.2835686
-4.083106	skup	0.2835686
-4.083106	skw#I	0.2835686
-4.083106	skw$	0.2835686
-4.083106	skw$k	0.2835686
-4.083106	skw3m	0.2835686
-4.083106	skw3t	0.2835686
-4.083106	skwE@R	0.2835686
-4.083106	skwElJ	0.2835686
-4.083106	skwI	0.2835686
-4.083106	skwIb	0.2835686
-4.083106	skwId	0.2835686
-4.083106	skwInt	0.2835686
-3.784231	skwQ	0.2677916
-4.083106	skwQS	0.2835686
-4.083106	skwQn	0.2835686
-4.083106	skwQt	0.2835686
-4.083106	skwil	0.2835686
-4.083106	skwiz	0.2835686
-3.38759	sk{	0.2236329
-4.083106	sk{b	0.2835686
-4.083106	sk{l	0.2835686
-4.083106	sk{lp	0.2835686
-4.083106	sk{m	0.2835686
-3.784231	sk{n	0.2677916
-4.083106	sk{ns	0.2835686
-4.083106	sk{nt	0.2835686
-4.083106	sl#	0.2835686
-4.083106	sl#I	0.2835686
-4.083106	sl#Id	0.2835686
-4.083106	sl#Im	0.2835686
-4.083106	sl#U	0.2835686
-4.083106	sl#UJ	0.2835686
-4.083106	sl#nt	0.2835686
-4.083106	sl$t	0.2835686
-4.083106	sl1k	0.2835686
-4.083106	sl1t	0.2835686
-4.083106	sl1v	0.2835686
-4.083106	sl3R	0.2835686
-4.083106	sl3p	0.2835686
-4.083106	sl5T	0.2835686
-4.083106	sl5p	0.2835686
-4.083106	slE_	0.2835686
-4.083106	slEd	0.2835686
-4.083106	slEn	0.2835686
-4.083106	slI	0.2835686
-4.083106	slINk	0.2835686
-4.083106	slIk	0.2835686
-4.083106	slIm	0.2835686
-4.083106	slIp	0.2835686
-4.083106	slQS	0.2835686
-4.083106	slQb	0.2835686
-4.083106	slQt	0.2835686
-4.083106	slVf	0.2835686
-4.083106	slVg	0.2835686
-3.784231	slVm	0.2677916
-4.083106	slVmp	0.2835686
-4.083106	slik	0.2835686
-4.083106	slip	0.2835686
-4.083106	sliv	0.2835686
-4.083106	slup	0.2835686
-4.083106	slus	0.2835686
-4.083106	sl{	0.2835686
-4.083106	sl{N	0.2835686
-4.083106	sl{S	0.2835686
-4.083106	sl{b	0.2835686
-4.083106	sl{g	0.2835686
-4.083106	sl{k	0.2835686
-4.083106	sl{m	0.2835686
-4.083106	sl{p	0.2835686
-4.083106	sl{t	0.2835686
-4.083106	sm#Il	0.2835686
-4.083106	sm#It	0.2835686
-4.083106	sm#t	0.2835686
-4.083106	sm$l	0.2835686
-4.083106	sm3k	0.2835686
-4.083106	sm5k	0.2835686
-4.083106	smEl	0.2835686
-4.083106	smElt	0.2835686
-4.083106	smI@R	0.2835686
-4.083106	smIT	0.2835686
-3.784231	smV	0.2677916
-4.083106	smV_	0.2835686
-4.083106	smVg	0.2835686
-4.083106	smVt	0.2835686
-4.083106	smuJ	0.2835686
-4.083106	sm{k	0.2835686
-4.083106	sn#Id	0.2835686
-4.083106	sn#Ip	0.2835686
-4.083106	sn#Ut	0.2835686
-4.083106	sn$	0.2835686
-4.083106	sn$R	0.2835686
-4.083106	sn$t	0.2835686
-4.083106	sn1l	0.2835686
-4.083106	snE@R	0.2835686
-3.784231	snI	0.2677916
-4.083106	snIf	0.2835686
-4.083106	snQb	0.2835686
-4.083106	snQg	0.2835686
-4.083106	snQt	0.2835686
-4.083106	snV	0.2835686
-4.083106	snVb	0.2835686
-4.083106	snVf	0.2835686
-4.083106	snVg	0.2835686
-4.083106	snik	0.2835686
-4.083106	sniz	0.2835686
-4.083106	snu	0.2835686
-4.083106	snud	0.2835686
-4.083106	snuk	0.2835686
-4.083106	snup	0.2835686
-4.083106	snuz	0.2835686
-4.083106	sn{J	0.2835686
-4.083106	sn{g	0.2835686
-4.083106	sn{p	0.2835686
-3.608861	sp#I	0.2525676
-4.083106	sp#Ik	0.2835686
-4.083106	sp#In	0.2835686
-4.083106	sp#Is	0.2835686
-4.083106	sp#It	0.2835686
-4.083106	sp#R	0.2835686
-4.083106	sp#Ut	0.2835686
-4.083106	sp#k	0.2835686
-4.083106	sp#s	0.2835686
-4.083106	sp$n	0.2835686
-4.083106	sp$t	0.2835686
-4.083106	sp1d	0.2835686
-4.083106	sp1s	0.2835686
-4.083106	sp1t	0.2835686
-4.083106	sp3m	0.2835686
-4.083106	sp3t	0.2835686
-3.784231	sp@R	0.2677916
-3.784231	spE	0.2677916
-4.083106	spE@R	0.2835686
-4.083106	spEk	0.2835686
-4.083106	spEkt	0.2835686
-4.083106	spEl	0.2835686
-4.083106	spEnt	0.2835686
-3.784231	spI	0.2677916
-4.083106	spIk	0.2835686
-3.784231	spIn	0.2677916
-4.083106	spIt	0.2835686
-4.083106	spIv	0.2835686
-4.083106	spP	0.2835686
-4.083106	spQ	0.2835686
-4.083106	spQIl	0.2835686
-4.083106	spQnd	0.2835686
-3.784231	spQt	0.2677916
-4.083106	spUt	0.2835686
-4.083106	spVNk	0.2835686
-4.083106	spVd	0.2835686
-4.083106	spVn_	0.2835686
-3.784231	spi	0.2677916
-4.083106	spiJ	0.2835686
-4.083106	spid	0.2835686
-4.083106	spik	0.2835686
-4.083106	spju	0.2835686
-4.083106	spl1	0.2835686
-4.083106	spl3_	0.2835686
-4.083106	splInt	0.2835686
-4.083106	splIt	0.2835686
-4.083106	splQJ	0.2835686
-4.083106	splQ_	0.2835686
-4.083106	splin	0.2835686
-4.083106	spl{S	0.2835686
-4.083106	spl{t	0.2835686
-4.083106	spr#I	0.2835686
-4.083106	spr#Ut	0.2835686
-4.083106	spr$l	0.2835686
-4.083106	spr1	0.2835686
-4.083106	spr1n	0.2835686
-4.083106	sprEd	0.2835686
-4.083106	sprIN	0.2835686
-4.083106	sprIg	0.2835686
-4.083106	sprInt	0.2835686
-4.083106	sprIt	0.2835686
-3.784231	spri	0.2677916
-4.083106	spuf	0.2835686
-4.083106	spuk	0.2835686
-4.083106	spul	0.2835686
-4.083106	spun	0.2835686
-3.484283	sp{	0.2378593
-4.083106	sp{Nk	0.2835686
-4.083106	sp{n	0.2835686
-4.083106	sp{t	0.2835686
-3.784231	st#	0.2677916
-3.38759	st#I	0.2236329
-3.784231	st#Il	0.2677916
-4.083106	st#In	0.2835686
-4.083106	st#J	0.2835686
-4.083106	st#R	0.2835686
-4.083106	st#S	0.2835686
-4.083106	st#Und	0.2835686
-4.083106	st#Ut	0.2835686
-4.083106	st#f	0.2835686
-4.083106	st#k	0.2835686
-4.083106	st#nJ	0.2835686
-4.083106	st$k	0.2835686
-3.784231	st$l	0.2677916
-4.083106	st$m	0.2835686
-3.784231	st1	0.2677916
-4.083106	st1_	0.2835686
-4.083106	st1d	0.2835686
-4.083106	st1k	0.2835686
-4.083106	st1l	0.2835686
-4.083106	st1n	0.2835686
-4.083106	st1t	0.2835686
-4.083106	st1v	0.2835686
-4.083106	st3R	0.2835686
-4.083106	st3n	0.2835686
-4.083106	st5	0.2835686
-4.083106	st5l	0.2835686
-4.083106	st5t	0.2835686
-4.083106	st5v	0.2835686
-3.484283	st@	0.2378593
-3.784231	st@R	0.2677916
-3.784231	st@d	0.2677916
-3.784231	st@m	0.2677916
-3.784231	st@n	0.2677916
-4.083106	stE	0.2835686
-4.083106	stEd	0.2835686
-4.083106	stEl	0.2835686
-4.083106	stEm	0.2835686
-4.083106	stEnJ	0.2835686
-4.083106	stEp	0.2835686
-4.083106	stEt	0.2835686
-3.784231	stI	0.2677916
-4.083106	stI@R	0.2835686
-4.083106	stIJ	0.2835686
-3.784231	stIN	0.2677916
-4.083106	stI_	0.2835686
-3.784231	stIf	0.2677916
-4.083106	stIg	0.2835686
-3.608861	stIk	0.2525676
-3.784231	stIl	0.2677916
-4.083106	stIlt	0.2835686
-4.083106	stIn	0.2835686
-4.083106	stInt	0.2835686
-4.083106	stIs	0.2835686
-3.484283	stP	0.2378593
-4.083106	stQ_	0.2835686
-4.083106	stQk	0.2835686
-4.083106	stQmp	0.2835686
-4.083106	stQp	0.2835686
-3.484283	stV	0.2378593
-4.083106	stVd	0.2835686
-4.083106	stVf	0.2835686
-4.083106	stVm	0.2835686
-4.083106	stVmp	0.2835686
-4.083106	stVnt	0.2835686
-3.608861	sti	0.2525676
-4.083106	stid	0.2835686
-4.083106	stil	0.2835686
-4.083106	stim	0.2835686
-4.083106	stjU	0.2835686
-4.083106	stjUm	0.2835686
-3.608861	stju	0.2525676
-4.083106	stjul	0.2835686
-4.083106	str#Id	0.2835686
-4.083106	str#If	0.2835686
-4.083106	str#Ik	0.2835686
-4.083106	str#Ip	0.2835686
-4.083106	str#Iv	0.2835686
-4.083106	str#f	0.2835686
-4.083106	str$	0.2835686
-4.083106	str1	0.2835686
-4.083106	str1n	0.2835686
-4.083106	str1n_	0.2835686
-3.784231	str1t	0.2677916
-3.784231	str5	0.2677916
-4.083106	str5k	0.2835686
-4.083106	str5l	0.2835686
-3.784231	str@	0.2677916
-4.083106	str@l	0.2835686
-4.083106	strIJ	0.2835686
-4.083106	strIN	0.2835686
-4.083106	strIkt	0.2835686
-4.083106	strIp	0.2835686
-4.083106	strIs	0.2835686
-4.083106	strQN	0.2835686
-4.083106	strQp	0.2835686
-4.083106	strV	0.2835686
-3.784231	strVm	0.2677916
-4.083106	strVt	0.2835686
-4.083106	strik	0.2835686
-4.083106	strim	0.2835686
-4.083106	strit	0.2835686
-4.083106	stru	0.2835686
-3.784231	str{	0.2677916
-4.083106	str{N	0.2835686
-4.083106	str{nd	0.2835686
-4.083106	stu_	0.2835686
-4.083106	stun	0.2835686
-4.083106	stup	0.2835686
-3.38759	st{	0.2236329
-4.083106	st{S	0.2835686
-4.083106	st{b	0.2835686
-4.083106	st{g	0.2835686
-4.083106	st{mp	0.2835686
-4.083106	st{n	0.2835686
-4.083106	st{nd	0.2835686
-3.484283	su	0.2378593
-4.083106	suT	0.2835686
-4.083106	sw#	0.2835686
-4.083106	sw#In	0.2835686
-4.083106	sw#Ip	0.2835686
-4.083106	sw#v	0.2835686
-4.083106	sw$d	0.2835686
-4.083106	sw$f	0.2835686
-4.083106	sw1d	0.2835686
-4.083106	sw1n	0.2835686
-4.083106	sw3l	0.2835686
-4.083106	sw3v	0.2835686
-4.083106	swEl	0.2835686
-4.083106	swEt	0.2835686
-4.083106	swI	0.2835686
-4.083106	swIN	0.2835686
-4.083106	swIS	0.2835686
-4.083106	swIl	0.2835686
-4.083106	swIm	0.2835686
-4.083106	swIn	0.2835686
-4.083106	swIn_	0.2835686
-3.784231	swQ	0.2677916
-4.083106	swQJ	0.2835686
-4.083106	swQb	0.2835686
-4.083106	swQmp	0.2835686
-4.083106	swQn	0.2835686
-4.083106	swQp	0.2835686
-4.083106	swQt	0.2835686
-4.083106	swid	0.2835686
-4.083106	swip	0.2835686
-4.083106	swit	0.2835686
-4.083106	swun	0.2835686
-4.083106	swup	0.2835686
-4.083106	sw{g	0.2835686
-3.007885	s{	0.1352883
-4.083106	s{ks	0.2835686
-4.083106	s{l	0.2835686
-4.083106	s{lv	0.2835686
-4.083106	s{m	0.2835686
-4.083106	s{n	0.2835686
-4.083106	s{nd	0.2835686
-4.083106	s{nz	0.2835686
-3.38759	t#	0.2236329
-3.38759	t#I	0.2236329
-4.083106	t#ID	0.2835686
-4.083106	t#Id	0.2835686
-4.083106	t#Ik	0.2835686
-4.083106	t#Il	0.2835686
-4.083106	t#In	0.2835686
-4.083106	t#It	0.2835686
-3.784231	t#R	0.2677916
-4.083106	t#U	0.2835686
-4.083106	t#Un	0.2835686
-4.083106	t#Ut	0.2835686
-4.083106	t#d	0.2835686
-4.083106	t#sk	0.2835686
-4.083106	t#z	0.2835686
-3.784231	t$	0.2677916
-4.083106	t$nt	0.2835686
-3.38759	t1	0.2236329
-4.083106	t1n	0.2835686
-4.083106	t1st	0.2835686
-3.241709	t3	0.1965061
-4.083106	t3R	0.2835686
-4.083106	t3n	0.2835686
-4.083106	t3ps	0.2835686
-2.725511	t5	0.02495277
-4.083106	t5n	0.2835686
-4.083106	t5s	0.2835686
-2.655903	t@	-0.009106994
-2.595926	t@R	-0.04068869
-4.083106	t@k	0.2835686
-3.38759	t@m	0.2236329
-3.132703	t@n	0.1709745
-4.083106	t@ns	0.2835686
-4.083106	t@nt	0.2835686
-3.484283	t@s	0.2378593
-3.086993	tE	0.1587504
-3.784231	tE@R	0.2677916
-3.784231	tEk	0.2677916
-3.608861	tEks	0.2525676
-4.083106	tEkst	0.2835686
-4.083106	tEkt	0.2835686
-4.083106	tEl	0.2835686
-3.484283	tEm	0.2378593
-3.484283	tEn	0.2378593
-4.083106	tEnS	0.2835686
-4.083106	tEnd	0.2835686
-4.083106	tEns	0.2835686
-3.784231	tEnt	0.2677916
-4.083106	tEt	0.2835686
-3.132703	tH	0.1709745
-2.519109	tI	-0.08413267
-4.083106	tI@R	0.2835686
-4.083106	tIN	0.2835686
-3.784231	tId	0.2677916
-4.083106	tIf	0.2835686
-4.083106	tIk	0.2835686
-4.083106	tIl	0.2835686
-3.784231	tIm	0.2677916
-3.241709	tIn	0.1965061
-4.083106	tIn_	0.2835686
-4.083106	tInt	0.2835686
-3.608861	tIs	0.2525676
-3.784231	tIv	0.2677916
-2.707035	tP	0.01618412
-3.38759	tQ	0.2236329
-4.083106	tQIl	0.2835686
-4.083106	tQN	0.2835686
-4.083106	tQl	0.2835686
-3.784231	tQm	0.2677916
-3.784231	tQn	0.2677916
-4.083106	tU@R	0.2835686
-4.083106	tVN	0.2835686
-4.083106	tVft	0.2835686
-4.083106	tVk	0.2835686
-4.083106	tVm	0.2835686
-4.083106	tVnd	0.2835686
-4.083106	tVsk	0.2835686
-3.308553	ti	0.2098577
-4.083106	tig	0.2835686
-3.784231	tik	0.2677916
-3.38759	tin	0.2236329
-4.083106	tinz	0.2835686
-4.083106	tiz	0.2835686
-4.083106	tjU	0.2835686
-4.083106	tjU@R	0.2835686
-3.241709	tju	0.1965061
-4.083106	tjub	0.2835686
-4.083106	tjun	0.2835686
-4.083106	tjut	0.2835686
-3.608861	tr#I	0.2525676
-4.083106	tr#Ip	0.2835686
-4.083106	tr#Is	0.2835686
-3.784231	tr#It	0.2677916
-4.083106	tr#Iv	0.2835686
-4.083106	tr#Ut	0.2835686
-4.083106	tr$	0.2835686
-4.083106	tr$l	0.2835686
-4.083106	tr1	0.2835686
-4.083106	tr1l	0.2835686
-4.083106	tr1n	0.2835686
-4.083106	tr1ps	0.2835686
-4.083106	tr1s	0.2835686
-4.083106	tr1t	0.2835686
-4.083106	tr5T	0.2835686
-4.083106	tr5l	0.2835686
-4.083106	tr5p	0.2835686
-4.083106	tr5v	0.2835686
-3.308553	tr@	0.2098577
-3.608861	tr@l	0.2525676
-4.083106	tr@m	0.2835686
-4.083106	tr@n	0.2835686
-4.083106	tr@p	0.2835686
-3.784231	tr@s	0.2677916
-4.083106	tr@st	0.2835686
-3.308553	trE	0.2098577
-4.083106	trEk	0.2835686
-4.083106	trEm	0.2835686
-4.083106	trEnd	0.2835686
-3.38759	trI	0.2236329
-4.083106	trI@l	0.2835686
-3.784231	trI_	0.2677916
-4.083106	trIk	0.2835686
-4.083106	trIks	0.2835686
-3.784231	trIl	0.2677916
-4.083106	trIm	0.2835686
-4.083106	trIn	0.2835686
-4.083106	trIs	0.2835686
-4.083106	trIst	0.2835686
-4.083106	trQ	0.2835686
-4.083106	trQf	0.2835686
-4.083106	trQm	0.2835686
-4.083106	trQs	0.2835686
-4.083106	trQt	0.2835686
-3.608861	trV	0.2525676
-4.083106	trV_	0.2835686
-4.083106	trVg	0.2835686
-4.083106	trVmp	0.2835686
-3.784231	trVn	0.2677916
-4.083106	trVst	0.2835686
-3.608861	tri	0.2525676
-4.083106	trig	0.2835686
-4.083106	trin	0.2835686
-4.083106	trun	0.2835686
-4.083106	trup	0.2835686
-4.083106	trus	0.2835686
-3.608861	tr{	0.2525676
-4.083106	tr{S	0.2835686
-4.083106	tr{k	0.2835686
-4.083106	tr{kt	0.2835686
-4.083106	tr{mp	0.2835686
-4.083106	tr{p	0.2835686
-3.308553	tu	0.2098577
-4.083106	tun	0.2835686
-4.083106	tw#In	0.2835686
-4.083106	tw#Is	0.2835686
-4.083106	tw3l	0.2835686
-4.083106	tw3p	0.2835686
-4.083106	twElv	0.2835686
-4.083106	twEn	0.2835686
-3.784231	twI	0.2677916
-4.083106	twIJ	0.2835686
-4.083106	twIN	0.2835686
-4.083106	twIl	0.2835686
-4.083106	twIn	0.2835686
-4.083106	twIn_	0.2835686
-4.083106	twIst	0.2835686
-4.083106	twIt	0.2835686
-4.083106	twQ	0.2835686
-4.083106	twid	0.2835686
-4.083106	twik	0.2835686
-4.083106	twin	0.2835686
-4.083106	twit	0.2835686
-4.083106	tw{N	0.2835686
-3.007885	t{	0.1352883
-4.083106	t{J	0.2835686
-4.083106	t{N	0.2835686
-4.083106	t{Nk	0.2835686
-3.784231	t{k	0.2677916
-3.784231	t{ks	0.2677916
-3.784231	t{kt	0.2677916
-3.784231	t{l	0.2677916
-4.083106	t{lk	0.2835686
-4.083106	t{m	0.2835686
-4.083106	t{mp	0.2835686
-3.608861	t{n	0.2525676
-4.083106	u	0.2835686
-4.083106	v#	0.2835686
-3.241709	v#I	0.1965061
-4.083106	v#In	0.2835686
-4.083106	v#Is	0.2835686
-4.083106	v#U	0.2835686
-4.083106	v$nt	0.2835686
-4.083106	v$t	0.2835686
-3.608861	v1	0.2525676
-4.083106	v1l	0.2835686
-3.007885	v3	0.1352883
-4.083106	v3R	0.2835686
-3.608861	v5	0.2525676
-4.083106	v5lt	0.2835686
-2.856723	v@	0.0816433
-3.308553	v@R	0.2098577
-4.083106	v@k	0.2835686
-4.083106	v@n	0.2835686
-3.608861	v@t	0.2525676
-4.083106	v@z	0.2835686
-3.308553	vE	0.2098577
-4.083106	vE@	0.2835686
-4.083106	vEk	0.2835686
-4.083106	vEks	0.2835686
-4.083106	vEl	0.2835686
-4.083106	vEn	0.2835686
-4.083106	vEn_	0.2835686
-4.083106	vEnd	0.2835686
-4.083106	vEnt	0.2835686
-3.308553	vH	0.2098577
-2.808445	vI	0.0619127
-4.083106	vI@	0.2835686
-3.784231	vId	0.2677916
-3.784231	vIk	0.2677916
-4.083106	vIks	0.2835686
-3.784231	vIl	0.2677916
-3.784231	vIns	0.2677916
-3.784231	vIs	0.2677916
-4.083106	vIst	0.2835686
-3.38759	vIt	0.2236329
-2.831914	vP	0.07166597
-3.784231	vQ	0.2677916
-3.784231	vQI	0.2677916
-4.083106	vQIl	0.2835686
-4.083106	vQIs	0.2835686
-4.083106	vQl	0.2835686
-4.083106	vVl	0.2835686
-4.083106	vVls	0.2835686
-3.608861	vi	0.2525676
-4.083106	vju	0.2835686
-4.083106	vr@n	0.2835686
-4.083106	vrI	0.2835686
-4.083106	vu	0.2835686
-3.784231	v{	0.2677916
-4.083106	v{k	0.2835686
-4.083106	v{l	0.2835686
-4.083106	v{lv	0.2835686
-4.083106	v{m	0.2835686
-4.083106	v{mp	0.2835686
-3.608861	v{n	0.2525676
-4.083106	v{s	0.2835686
-4.083106	v{t	0.2835686
-4.083106	w#Id	0.2835686
-4.083106	w#If	0.2835686
-4.083106	w#Il	0.2835686
-4.083106	w#Ild	0.2835686
-4.083106	w#Ind	0.2835686
-4.083106	w#It	0.2835686
-4.083106	w#Iz	0.2835686
-4.083106	w#ft	0.2835686
-3.784231	w$	0.2677916
-3.784231	w$l	0.2677916
-4.083106	w$ls	0.2835686
-4.083106	w1n	0.2835686
-4.083106	w3ld	0.2835686
-4.083106	w5ld	0.2835686
-4.083106	w5nt	0.2835686
-4.083106	wE	0.2835686
-4.083106	wE@R	0.2835686
-4.083106	wEft	0.2835686
-4.083106	wElS	0.2835686
-4.083106	wElT	0.2835686
-4.083106	wElk	0.2835686
-4.083106	wElp	0.2835686
-4.083106	wEnJ	0.2835686
-4.083106	wEnd	0.2835686
-4.083106	wEns	0.2835686
-4.083106	wEst	0.2835686
-3.308553	wI	0.2098577
-4.083106	wI@d	0.2835686
-4.083106	wIN	0.2835686
-4.083106	wINk	0.2835686
-4.083106	wIlt	0.2835686
-4.083106	wIm	0.2835686
-4.083106	wIn	0.2835686
-4.083106	wInJ	0.2835686
-4.083106	wInd	0.2835686
-4.083106	wIns	0.2835686
-4.083106	wIsk	0.2835686
-4.083106	wIsp	0.2835686
-4.083106	wIst	0.2835686
-3.132703	wQ	0.1709745
-4.083106	wQg	0.2835686
-4.083106	wQn	0.2835686
-4.083106	wQnd	0.2835686
-4.083106	wQnt	0.2835686
-4.083106	wQsp	0.2835686
-4.083106	wVns	0.2835686
-4.083106	wi	0.2835686
-4.083106	wild	0.2835686
-4.083106	wund	0.2835686
-4.083106	w{	0.2835686
-4.083106	w{Nk	0.2835686
-4.083106	w{g	0.2835686
-4.083106	w{ks	0.2835686
-4.083106	z#Im	0.2835686
-4.083106	z#R	0.2835686
-3.784231	z1	0.2677916
-4.083106	z3	0.2835686
-4.083106	z3p	0.2835686
-4.083106	z3t	0.2835686
-4.083106	z5	0.2835686
-4.083106	z5m	0.2835686
-4.083106	z5n	0.2835686
-3.484283	z@	0.2378593
-4.083106	z@l	0.2835686
-3.608861	z@m	0.2525676
-3.784231	z@n	0.2677916
-4.083106	z@t	0.2835686
-3.484283	zE	0.2378593
-4.083106	zEs	0.2835686
-3.784231	zEt	0.2677916
-3.04564	zH	0.146861
-4.083106	zHd	0.2835686
-4.083106	zHt	0.2835686
-3.132703	zI	0.1709745
-4.083106	zI@	0.2835686
-4.083106	zIk	0.2835686
-4.083106	zIn	0.2835686
-4.083106	zIn_	0.2835686
-4.083106	zIt	0.2835686
-2.940989	zP	0.1130291
-4.083106	zQ	0.2835686
-4.083106	zVmp	0.2835686
-3.608861	zi	0.2525676
-3.784231	zin	0.2677916
-4.083106	zu	0.2835686
-4.083106	z{kt	0.2835686
-2.610162	{	-0.03300598
-3.608861	{N	0.2525676
-4.083106	{Nst	0.2835686
-4.083106	{T	0.2835686
-4.083106	{b	0.2835686
-3.784231	{d	0.2677916
-3.308553	{k	0.2098577
-3.308553	{l	0.2098577
-3.608861	{m	0.2525676
-3.308553	{n	0.2098577
-3.484283	{s	0.2378593
-4.083106	{t	0.2835686
-4.083106	{z	0.2835686

\2-grams:
-0.5005833	# </s>
-0.6731905	#I </s>
-1.144427	#U </s>
-1.427525	#Uns </s>
-1.427525	#Ust </s>
-1.427525	#f </s>
-0.3745198	$ </s>
-1.144427	$R </s>
-1.144427	$l </s>
-0.4771213	1 </s>
-1.427525	1n </s>
-1.427525	1t </s>
-1.427525	1z </s>
-1.427525	3 </s>
-0.2312282	5 </s>
-1.427525	5l </s>
-2.707849	<s> #
-2.941674	<s> #I
-3.484196	<s> #U
-3.78307	<s> #Uns
-3.78307	<s> #Ust
-3.78307	<s> #f
-2.50841	<s> $
-3.484196	<s> $R
-3.484196	<s> $l
-2.673115	<s> 1
-3.78307	<s> 1n
-3.78307	<s> 1t
-3.78307	<s> 1z
-3.78307	<s> 3
-2.219073	<s> 5
-3.78307	<s> 5l
-1.884247	<s> @
-2.425475	<s> @R
-3.78307	<s> @b
-3.484196	<s> @d
-3.008517	<s> @l
-3.78307	<s> @m
-3.78307	<s> @mf
-3.78307	<s> @n
-3.78307	<s> @nt
-3.308825	<s> @t
-3.78307	<s> D#In
-2.832667	<s> D@R
-3.78307	<s> D@m
-3.78307	<s> DE@R
-3.78307	<s> DEns
-3.78307	<s> DH
-3.78307	<s> DI
-2.640954	<s> E
-3.78307	<s> E@
-3.484196	<s> Ek
-3.78307	<s> El
-3.308825	<s> Em
-3.184247	<s> En
-3.308825	<s> Et
-2.486145	<s> I
-3.78307	<s> I@
-3.484196	<s> Id
-3.308825	<s> Ig
-3.78307	<s> Ik
-2.941674	<s> Im
-2.444772	<s> In
-3.484196	<s> Is
-3.184247	<s> It
-3.78307	<s> J#
-3.78307	<s> J#Id
-3.78307	<s> J#Im
-3.78307	<s> J#Iv
-3.78307	<s> J#n
-3.78307	<s> J#nt
-3.78307	<s> J1n_
-3.78307	<s> J3
-3.78307	<s> J5
-3.78307	<s> J5k
-3.78307	<s> J@
-3.308825	<s> J@R
-3.484196	<s> J@d
-3.78307	<s> J@n
-3.78307	<s> J@nt
-3.78307	<s> J@p
-3.78307	<s> J@s
-3.308825	<s> JE
-3.78307	<s> JE@R
-3.308825	<s> JI
-3.78307	<s> JI@R
-3.78307	<s> JINk
-3.78307	<s> JIm
-3.484196	<s> JIn
-3.78307	<s> JInts
-3.78307	<s> JIp
-3.78307	<s> JIt
-3.78307	<s> JIz
-3.78307	<s> JQIs
-3.78307	<s> JQmp
-3.484196	<s> JV
-3.78307	<s> JVmp
-3.484196	<s> Ji
-3.78307	<s> Jiv
-3.78307	<s> Jun
-3.308825	<s> J{
-3.78307	<s> J{m
-3.78307	<s> J{mp
-3.78307	<s> J{n
-3.78307	<s> N@R
-2.786958	<s> Q
-3.78307	<s> QINk
-3.78307	<s> QInt
-3.78307	<s> Qb
-3.308825	<s> Qk
-3.78307	<s> Qm
-3.78307	<s> Qn
-3.78307	<s> Qs
-3.78307	<s> Qsk
-3.78307	<s> S#
-3.78307	<s> S#In
-3.78307	<s> S#Ut
-3.78307	<s> S#ft
-3.184247	<s> S1
-3.78307	<s> S5
-3.087554	<s> S@
-3.78307	<s> S@p
-3.78307	<s> SE
-3.78307	<s> SE@R
-3.78307	<s> SElf
-3.78307	<s> SH
-3.087554	<s> SI
-3.78307	<s> SI@R
-3.78307	<s> SIN
-3.78307	<s> SIft
-3.78307	<s> SIn
-3.78307	<s> SP
-3.78307	<s> SV
-3.184247	<s> Si
-3.78307	<s> SiS
-3.78307	<s> Sild
-3.78307	<s> Sin
-3.78307	<s> Siz
-3.78307	<s> Sr#Ik
-3.78307	<s> Sr#Iv
-3.78307	<s> Sr#Ud
-3.78307	<s> SrEd
-3.78307	<s> SrI
-3.78307	<s> SrIft
-3.78307	<s> SrVb
-3.78307	<s> Srik
-3.78307	<s> Srud
-3.78307	<s> Sr{p
-3.308825	<s> Su
-3.78307	<s> Sut
-2.883759	<s> S{
-3.78307	<s> S{Nk
-3.308825	<s> S{m
-3.78307	<s> T#U
-3.78307	<s> T$
-3.78307	<s> T3
-3.78307	<s> T3st
-3.308825	<s> T@
-3.78307	<s> T@d
-3.308825	<s> TI
-3.484196	<s> TI@
-3.78307	<s> TI@n
-3.78307	<s> TINk
-3.78307	<s> TIl
-3.78307	<s> TIm
-3.78307	<s> TIst
-3.484196	<s> TP
-3.78307	<s> TQs
-3.78307	<s> TVmp
-3.78307	<s> Tr#Iv
-3.78307	<s> Tr$l
-3.78307	<s> Tr5n
-3.78307	<s> Tr5t
-3.78307	<s> TrEd
-3.78307	<s> TrEt
-3.78307	<s> TrIft
-3.484196	<s> TrQ
-3.78307	<s> TrQN
-3.78307	<s> TrQb
-3.78307	<s> TrVS
-3.78307	<s> TrVm
-3.78307	<s> TrVst
-3.78307	<s> Tr{S
-3.484196	<s> V
-3.78307	<s> VN
-3.78307	<s> Vl
-3.484196	<s> Vm
-3.78307	<s> Vn
-3.484196	<s> Z1
-3.78307	<s> Z@R
-3.78307	<s> Zin
-3.484196	<s> _#
-3.484196	<s> _#I
-3.78307	<s> _#Ul
-3.78307	<s> _$n
-3.78307	<s> _$nt
-3.484196	<s> _3
-3.78307	<s> _3n
-3.484196	<s> _5
-3.78307	<s> _5lt
-3.087554	<s> _@
-3.78307	<s> _@R
-3.484196	<s> _@l
-3.008517	<s> _@n
-3.78307	<s> _@nd
-3.308825	<s> _@nt
-3.484196	<s> _E
-3.484196	<s> _Ekt
-3.184247	<s> _En
-3.78307	<s> _Ent
-3.484196	<s> _Est
-3.78307	<s> _Et
-3.184247	<s> _I
-3.484196	<s> _IN
-3.78307	<s> _Id
-3.78307	<s> _Ik
-3.78307	<s> _Ikt
-2.941674	<s> _In
-3.78307	<s> _Ist
-3.184247	<s> _It
-3.484196	<s> _Q
-3.78307	<s> _QIn
-3.78307	<s> _QIst
-3.78307	<s> _QN
-3.78307	<s> _Qd
-3.78307	<s> _V
-3.78307	<s> _VN
-3.78307	<s> _VNk
-3.78307	<s> _Vm
-3.78307	<s> _Vmp
-3.308825	<s> _i
-3.78307	<s> _il
-3.78307	<s> _in
-3.484196	<s> _u
-3.78307	<s> _ub
-3.78307	<s> _un
-3.78307	<s> _{
-3.78307	<s> _{k
-3.78307	<s> _{m
-3.78307	<s> _{s
-3.78307	<s> _{v
-2.941674	<s> b#
-3.087554	<s> b#I
-3.78307	<s> b#Id
-3.484196	<s> b#In
-3.78307	<s> b#It
-3.78307	<s> b#R
-3.78307	<s> b#Und
-3.78307	<s> b#Uns
-3.78307	<s> b#Ut
-3.78307	<s> b#sk
-3.308825	<s> b$
-3.78307	<s> b$l
-3.78307	<s> b$ld
-3.78307	<s> b$lt
-2.832667	<s> b1
-3.78307	<s> b1st
-3.008517	<s> b3
-3.78307	<s> b3g
-2.786958	<s> b5
-3.78307	<s> b5ld
-3.78307	<s> b5lt
-3.78307	<s> b5n
-2.444772	<s> b@
-3.087554	<s> b@R
-3.484196	<s> b@d
-3.78307	<s> b@l
-3.78307	<s> b@ld
-3.008517	<s> b@n
-3.78307	<s> b@nd
-3.184247	<s> b@s
-3.484196	<s> b@t
-2.786958	<s> bE
-3.78307	<s> bE@R
-3.78307	<s> bEd
-3.78307	<s> bEks
-3.78307	<s> bEl
-3.78307	<s> bElt
-3.78307	<s> bEnJ
-3.78307	<s> bEnd
-3.78307	<s> bEnt
-3.78307	<s> bEt
-2.444772	<s> bI
-3.78307	<s> bI@
-3.78307	<s> bI@R
-3.78307	<s> bI@d
-3.78307	<s> bIN
-3.78307	<s> bIS
-3.484196	<s> bId
-3.78307	<s> bIl
-3.78307	<s> bIlk
-3.087554	<s> bIn
-3.78307	<s> bIs
-3.78307	<s> bIsk
-3.008517	<s> bIt
-2.04695	<s> bP
-2.941674	<s> bQ
-3.78307	<s> bQIl
-3.78307	<s> bQN
-3.78307	<s> bQS
-3.78307	<s> bQks
-3.78307	<s> bQl
-3.78307	<s> bQm
-3.78307	<s> bQnd
-3.78307	<s> bQt
-3.308825	<s> bU
-3.484196	<s> bU@R
-3.78307	<s> bU@s
-3.087554	<s> bV
-3.308825	<s> bVN
-3.78307	<s> bVb
-3.78307	<s> bVg
-3.78307	<s> bVl_
-3.78307	<s> bVlk
-3.78307	<s> bVm
-3.78307	<s> bVmf
-3.78307	<s> bVmp
-3.78307	<s> bVnJ
-3.78307	<s> bVnd
-3.78307	<s> bVsk
-3.484196	<s> bVst
-3.78307	<s> bVv
-3.184247	<s> bi
-3.78307	<s> bis
-3.484196	<s> bist
-3.308825	<s> biz
-3.308825	<s> bjU
-3.78307	<s> bjU@
-3.78307	<s> bju
-3.78307	<s> bjun
-3.78307	<s> bjut
-3.78307	<s> bl#
-3.78307	<s> bl#ID
-3.78307	<s> bl#I_
-3.78307	<s> bl#Ind
-3.78307	<s> bl#It
-3.78307	<s> bl#Uz
-3.78307	<s> bl#nJ
-3.78307	<s> bl#st
-3.78307	<s> bl1
-3.78307	<s> bl1d
-3.78307	<s> bl1m
-3.78307	<s> bl1z
-3.78307	<s> bl3R
-3.78307	<s> bl3b
-3.78307	<s> bl5k
-3.78307	<s> bl5t
-3.484196	<s> bl@m
-3.78307	<s> blEnJ
-3.78307	<s> blEnd
-3.78307	<s> blEs
-3.78307	<s> blIn
-3.78307	<s> blIp
-3.78307	<s> blIs
-3.78307	<s> blIts
-3.78307	<s> blQJ
-3.78307	<s> blQb
-3.78307	<s> blQnd
-3.78307	<s> blQt
-3.78307	<s> blV
-3.78307	<s> blVS
-3.78307	<s> blVd
-3.78307	<s> blVf
-3.78307	<s> blVnt
-3.78307	<s> bliJ
-3.78307	<s> blik
-3.78307	<s> blip
-3.78307	<s> blum
-3.78307	<s> bl{b
-3.78307	<s> bl{k
-3.78307	<s> bl{nd
-3.484196	<s> br#I
-3.78307	<s> br#Ib
-3.78307	<s> br#Id
-3.78307	<s> br#In
-3.78307	<s> br#It
-3.78307	<s> br#Un
-3.78307	<s> br#Uz
-3.78307	<s> br#nJ
-3.78307	<s> br#s
-3.78307	<s> br$d
-3.78307	<s> br$l
-3.78307	<s> br1d
-3.484196	<s> br1n
-3.78307	<s> br1s
-3.78307	<s> br1v
-3.78307	<s> br1z
-3.78307	<s> br5J
-3.78307	<s> br5g
-3.308825	<s> br@
-3.78307	<s> brET
-3.78307	<s> brEd
-3.78307	<s> brEst
-3.184247	<s> brI
-3.78307	<s> brINk
-3.78307	<s> brI_
-3.78307	<s> brId
-3.78307	<s> brIg
-3.484196	<s> brIk
-3.78307	<s> brIl
-3.78307	<s> brIm
-3.78307	<s> brIsk
-3.78307	<s> brQ
-3.78307	<s> brQIl
-3.78307	<s> brQN
-3.78307	<s> brQT
-3.78307	<s> brQnz
-3.78307	<s> brUk
-3.78307	<s> brVS
-3.78307	<s> briJ
-3.78307	<s> brid
-3.78307	<s> brif
-3.78307	<s> brim
-3.78307	<s> briz
-3.78307	<s> bru
-3.78307	<s> brum
-3.78307	<s> brut
-3.78307	<s> bruz
-3.484196	<s> br{
-3.78307	<s> br{d
-3.78307	<s> br{kt
-3.78307	<s> br{m
-3.78307	<s> br{n
-3.78307	<s> br{nd
-3.78307	<s> br{t
-2.883759	<s> bu
-3.78307	<s> bun
-3.78307	<s> bus
-3.78307	<s> bust
-2.486145	<s> b{
-3.78307	<s> b{S
-3.484196	<s> b{b
-3.78307	<s> b{k
-3.484196	<s> b{l
-3.78307	<s> b{m
-3.184247	<s> b{n
-3.484196	<s> b{st
-2.832667	<s> d#I
-3.484196	<s> d#Im
-3.484196	<s> d#In
-3.484196	<s> d#Is
-3.78307	<s> d#Iv
-3.308825	<s> d#R
-3.78307	<s> d#U
-3.78307	<s> d#Un
-3.78307	<s> d#Us
-3.78307	<s> d#Ut
-3.184247	<s> d$
-2.941674	<s> d$R
-3.78307	<s> d$nt
-3.008517	<s> d1
-3.78307	<s> d1t
-3.78307	<s> d3
-3.78307	<s> d3m
-3.78307	<s> d3n
-2.611011	<s> d5
-3.78307	<s> d5n
-3.78307	<s> d5t
-2.640954	<s> d@
-2.531878	<s> d@R
-3.308825	<s> d@k
-3.78307	<s> d@l
-3.184247	<s> d@m
-3.184247	<s> d@n
-3.78307	<s> d@nt
-3.78307	<s> d@s
-2.786958	<s> dE
-3.78307	<s> dE@R
-3.78307	<s> dEft
-3.78307	<s> dEks
-3.484196	<s> dEl
-3.78307	<s> dElft
-3.78307	<s> dEm
-3.78307	<s> dEpt
-3.78307	<s> dEsk
-3.087554	<s> dH
-2.255785	<s> dI
-3.484196	<s> dI@R
-3.78307	<s> dI@t
-3.484196	<s> dIN
-3.78307	<s> dIg
-3.484196	<s> dIk
-3.484196	<s> dIkt
-3.308825	<s> dIl
-3.78307	<s> dInt
-3.78307	<s> dIs
-3.78307	<s> dIsk
-3.78307	<s> dIst
-3.184247	<s> dIt
-2.115201	<s> dP
-3.008517	<s> dQ
-3.78307	<s> dQI
-3.78307	<s> dQN
-3.78307	<s> dQg
-3.78307	<s> dQk
-3.484196	<s> dQl
-3.78307	<s> dQn
-3.78307	<s> dQs
-3.78307	<s> dU
-3.78307	<s> dU@R
-2.941674	<s> dV
-3.78307	<s> dVN
-3.78307	<s> dVNk
-3.78307	<s> dVkt
-3.78307	<s> dVl_
-3.78307	<s> dVlt
-3.484196	<s> dVm
-3.78307	<s> dVmp
-3.78307	<s> dVn
-3.78307	<s> dVns
-3.78307	<s> dVsk
-3.308825	<s> di
-3.78307	<s> dil
-3.484196	<s> din
-3.008517	<s> dju
-3.78307	<s> djuk
-3.78307	<s> djun
-3.78307	<s> djup
-3.78307	<s> djus
-3.78307	<s> dr#
-3.484196	<s> dr#I
-3.78307	<s> dr#Iv
-3.78307	<s> dr#Un
-3.78307	<s> dr#Uz
-3.78307	<s> dr#ft
-3.78307	<s> dr#s
-3.78307	<s> dr$l
-3.78307	<s> dr1k
-3.78307	<s> dr1n
-3.78307	<s> dr1p
-3.78307	<s> dr5g
-3.78307	<s> dr5l
-3.78307	<s> dr5n
-3.78307	<s> dr5v
-3.78307	<s> dr@
-3.78307	<s> dr@d
-3.78307	<s> dr@l
-3.78307	<s> dr@n
-3.78307	<s> drE_
-3.78307	<s> drEd
-3.78307	<s> drEs
-3.308825	<s> drI
-3.78307	<s> drI@R
-3.78307	<s> drINk
-3.78307	<s> drIft
-3.78307	<s> drQp
-3.78307	<s> drQs
-3.78307	<s> drVNk
-3.78307	<s> drV_
-3.78307	<s> drVf
-3.484196	<s> drVm
-3.78307	<s> dru
-3.78307	<s> drul
-3.78307	<s> drun
-3.78307	<s> drup
-3.78307	<s> dr{
-3.78307	<s> dr{b
-3.78307	<s> dr{g
-3.78307	<s> dr{k
-3.78307	<s> dr{m
-3.78307	<s> dr{t
-3.184247	<s> du
-3.78307	<s> dw$f
-3.78307	<s> dwEl
-3.78307	<s> dwIn
-3.087554	<s> d{
-3.78307	<s> d{N
-3.484196	<s> d{m
-3.78307	<s> d{mp
-3.308825	<s> d{n
-3.184247	<s> f#I
-3.78307	<s> f#Id
-3.78307	<s> f#If
-3.484196	<s> f#Il
-3.78307	<s> f#Ind
-3.78307	<s> f#It
-3.78307	<s> f#Iv
-3.78307	<s> f#Ul
-3.78307	<s> f#Un
-3.78307	<s> f#Und
-3.184247	<s> f$
-3.78307	<s> f$ls
-3.78307	<s> f$m
-3.308825	<s> f1
-3.78307	<s> f1n
-3.78307	<s> f1nt
-3.184247	<s> f3
-3.78307	<s> f3st
-3.308825	<s> f5
-3.484196	<s> f5ld
-2.707849	<s> f@
-3.087554	<s> f@R
-3.78307	<s> f@l
-3.78307	<s> f@nt
-3.484196	<s> f@t
-2.832667	<s> fE
-3.308825	<s> fE@R
-3.78307	<s> fEns
-3.78307	<s> fEst
-3.484196	<s> fH
-2.583	<s> fI
-3.78307	<s> fI@
-3.78307	<s> fINk
-3.78307	<s> fIlT
-2.941674	<s> fIn
-3.78307	<s> fInJ
-3.78307	<s> fIst
-3.184247	<s> fIt
-2.707849	<s> fP
-3.008517	<s> fQ
-3.78307	<s> fQIl
-3.78307	<s> fQks
-3.308825	<s> fQn
-3.78307	<s> fQnd
-3.78307	<s> fQnt
-3.78307	<s> fQz
-3.78307	<s> fUl
-3.308825	<s> fV
-3.78307	<s> fVN
-3.78307	<s> fVNk
-3.78307	<s> fVm
-3.78307	<s> fVnd
-2.883759	<s> fi
-3.78307	<s> find
-3.78307	<s> fist
-3.484196	<s> fjU@
-3.78307	<s> fjU@l
-3.484196	<s> fju
-3.78307	<s> fju_
-3.78307	<s> fjug
-3.78307	<s> fjum
-3.78307	<s> fl#I
-3.78307	<s> fl#U
-3.78307	<s> fl#Uns
-3.78307	<s> fl#sk
-3.78307	<s> fl$
-3.78307	<s> fl$nt
-3.78307	<s> fl1m
-3.78307	<s> fl3t
-3.484196	<s> fl@
-3.78307	<s> flES
-3.78307	<s> flEk
-3.78307	<s> flEks
-3.78307	<s> flEm
-3.78307	<s> flIJ
-3.78307	<s> flIk
-3.78307	<s> flInJ
-3.78307	<s> flInt
-3.78307	<s> flIp
-3.78307	<s> flQ
-3.78307	<s> flQg
-3.78307	<s> flQk
-3.78307	<s> flQs
-3.78307	<s> flVNk
-3.78307	<s> flVd
-3.78307	<s> flVf
-3.78307	<s> flis
-3.484196	<s> flu
-3.78307	<s> fluk
-3.78307	<s> flut
-3.484196	<s> fl{
-3.78307	<s> fl{Nk
-3.78307	<s> fl{S
-3.78307	<s> fl{g
-3.78307	<s> fl{k
-3.78307	<s> fl{ks
-3.78307	<s> fl{n
-3.78307	<s> fl{n_
-3.78307	<s> fl{p
-3.78307	<s> fl{t
-3.78307	<s> fr#Un
-3.78307	<s> fr$d
-3.78307	<s> fr1
-3.78307	<s> fr1d
-3.78307	<s> fr1m
-3.78307	<s> fr1t
-3.484196	<s> fr1z
-3.484196	<s> fr@
-3.78307	<s> fr@n
-3.78307	<s> frE
-3.78307	<s> frES
-3.78307	<s> frEnd
-3.78307	<s> frEs
-3.184247	<s> frI
-3.78307	<s> frIl
-3.78307	<s> frIn_
-3.78307	<s> frIsk
-3.78307	<s> frQ
-3.78307	<s> frQT
-3.78307	<s> frQg
-3.78307	<s> frQk
-3.78307	<s> frQm
-3.78307	<s> frQnd
-3.78307	<s> frQst
-3.78307	<s> frVmp
-3.484196	<s> frVnt
-3.78307	<s> fri
-3.78307	<s> frik
-3.78307	<s> friz
-3.78307	<s> fr{
-3.78307	<s> fr{N
-3.78307	<s> fr{Nk
-3.78307	<s> fr{s
-3.087554	<s> f{
-3.484196	<s> f{kt
-3.78307	<s> f{lt
-3.78307	<s> f{n
-2.883759	<s> g#
-3.78307	<s> g#Id
-3.78307	<s> g#Il
-3.484196	<s> g#R
-3.78307	<s> g#U
-3.78307	<s> g#U_
-3.78307	<s> g#Un
-3.78307	<s> g#Ut
-3.78307	<s> g#sp
-3.78307	<s> g$
-3.78307	<s> g$nt
-3.484196	<s> g1
-3.484196	<s> g3
-2.583	<s> g5
-3.78307	<s> g5ld
-3.78307	<s> g5st
-2.486145	<s> g@
-2.883759	<s> g@R
-3.484196	<s> g@m
-2.786958	<s> g@n
-3.184247	<s> g@s
-3.184247	<s> g@t
-3.78307	<s> gE
-3.78307	<s> gEn
-3.78307	<s> gEst
-2.883759	<s> gI
-3.78307	<s> gI@R
-3.78307	<s> gIft
-3.78307	<s> gIld
-3.78307	<s> gIlt
-3.484196	<s> gIn
-3.78307	<s> gInz
-3.78307	<s> gIs
-3.484196	<s> gIt
-2.355867	<s> gP
-3.087554	<s> gQ
-3.78307	<s> gQI
-3.78307	<s> gQIl
-3.78307	<s> gQN
-3.484196	<s> gQg
-3.484196	<s> gQn
-3.78307	<s> gU
-3.78307	<s> gU@d
-3.087554	<s> gV
-3.78307	<s> gVlf
-3.78307	<s> gVlp
-3.78307	<s> gVn
-3.484196	<s> gVst
-3.78307	<s> gjU@R
-3.78307	<s> gju
-3.78307	<s> gjum
-3.78307	<s> gl#ns
-3.78307	<s> gl#s
-3.78307	<s> gl1d
-3.78307	<s> gl1z
-3.78307	<s> gl5b
-3.78307	<s> gl5t
-3.78307	<s> gl@n
-3.78307	<s> glE@R
-3.78307	<s> glEn
-3.78307	<s> glIb
-3.78307	<s> glImps
-3.78307	<s> glInt
-3.78307	<s> glQs
-3.78307	<s> glVm
-3.78307	<s> glVt
-3.78307	<s> glib
-3.78307	<s> glim
-3.78307	<s> glin
-3.484196	<s> glu
-3.78307	<s> glum
-3.78307	<s> gl{d
-3.78307	<s> gr#Im
-3.78307	<s> gr#Ip
-3.78307	<s> gr#UJ
-3.78307	<s> gr#Ul
-3.78307	<s> gr#Und
-3.78307	<s> gr#Us
-3.78307	<s> gr#f
-3.78307	<s> gr#ft
-3.78307	<s> gr#nt
-3.78307	<s> gr#s
-3.78307	<s> gr1d
-3.78307	<s> gr1l
-3.78307	<s> gr1n
-3.78307	<s> gr1p
-3.78307	<s> gr1s
-3.78307	<s> gr1t
-3.78307	<s> gr1v
-3.78307	<s> gr1z
-3.78307	<s> gr5
-3.78307	<s> gr5n
-3.78307	<s> gr5p
-3.78307	<s> gr5s
-3.78307	<s> gr5t
-3.78307	<s> gr5v
-3.78307	<s> gr@
-3.78307	<s> gr@l
-3.78307	<s> gr@m
-3.78307	<s> grE
-3.78307	<s> grEm
-3.78307	<s> grEs
-3.184247	<s> grI
-3.78307	<s> grId
-3.308825	<s> grIm
-3.484196	<s> grIn
-3.78307	<s> grIp
-3.78307	<s> grIst
-3.78307	<s> grIt
-3.484196	<s> grQ
-3.78307	<s> grQIn
-3.78307	<s> grQt
-3.78307	<s> grU@l
-3.78307	<s> grV_
-3.78307	<s> grVb
-3.78307	<s> grVm
-3.78307	<s> grVnt
-3.308825	<s> gri
-3.78307	<s> grib
-3.484196	<s> grin
-3.78307	<s> gris
-3.78307	<s> grit
-3.78307	<s> grum
-3.308825	<s> gr{
-3.78307	<s> gr{b
-3.484196	<s> gr{m
-3.78307	<s> gr{nd
-3.484196	<s> gu
-3.484196	<s> gun
-3.78307	<s> gus
-3.78307	<s> gwIn
-2.640954	<s> g{
-3.78307	<s> g{N
-3.78307	<s> g{m
-3.78307	<s> g{mp
-3.78307	<s> g{s
-2.786958	<s> h#
-2.883759	<s> h#I
-3.78307	<s> h#Id
-3.78307	<s> h#Ik
-3.78307	<s> h#Ind
-3.78307	<s> h#It
-3.78307	<s> h#Iv
-3.78307	<s> h#U
-3.78307	<s> h#Ul
-3.78307	<s> h#Und
-3.78307	<s> h#Us
-3.78307	<s> h#Ut
-3.78307	<s> h#d
-3.78307	<s> h#sp
-3.78307	<s> h#t
-3.484196	<s> h$
-3.78307	<s> h$k
-3.78307	<s> h$nt
-3.78307	<s> h1
-3.78307	<s> h1st
-3.184247	<s> h3
-3.78307	<s> h3ts
-3.484196	<s> h5
-3.78307	<s> h5st
-3.308825	<s> h@
-3.008517	<s> hE
-3.78307	<s> hE@R
-3.78307	<s> hEk
-3.78307	<s> hEl
-3.78307	<s> hElm
-3.78307	<s> hElp
-3.78307	<s> hEm
-3.78307	<s> hEmp
-3.308825	<s> hI
-3.78307	<s> hI@
-3.78307	<s> hI@R
-3.78307	<s> hIb
-3.78307	<s> hIlt
-3.78307	<s> hIn_
-3.78307	<s> hInt
-2.883759	<s> hQ
-3.78307	<s> hQIst
-3.78307	<s> hQNk
-3.78307	<s> hQm
-3.484196	<s> hU
-3.308825	<s> hV
-3.78307	<s> hVNk
-3.78307	<s> hVlk
-3.308825	<s> hVm
-3.78307	<s> hVmp
-3.78307	<s> hVn
-3.78307	<s> hVnJ
-3.78307	<s> hVnt
-3.78307	<s> hVsk
-3.78307	<s> hVz
-3.184247	<s> hju
-3.308825	<s> hu
-3.78307	<s> huts
-2.611011	<s> h{
-3.78307	<s> h{Nk
-3.484196	<s> h{n
-3.78307	<s> h{nd
-3.184247	<s> i
-3.78307	<s> is
-3.78307	<s> j#Ul
-3.308825	<s> j5
-3.308825	<s> j@
-3.78307	<s> j@d
-3.78307	<s> j@n
-3.78307	<s> jE
-3.78307	<s> jElp
-3.78307	<s> jQ
-3.78307	<s> jU@
-3.78307	<s> jV
-3.78307	<s> jild
-3.78307	<s> jist
-2.832667	<s> ju
-3.78307	<s> j{Nk
-3.78307	<s> j{k
-2.640954	<s> k#
-3.484196	<s> k#I
-3.78307	<s> k#Ik
-3.78307	<s> k#Ind
-3.78307	<s> k#It
-3.78307	<s> k#U
-3.78307	<s> k#UJ
-3.78307	<s> k#Unt
-3.78307	<s> k#d
-3.78307	<s> k#sk
-3.78307	<s> k#st
-2.745605	<s> k$
-3.78307	<s> k$R
-3.78307	<s> k$d
-3.484196	<s> k$n
-2.707849	<s> k1
-3.78307	<s> k1n
-3.184247	<s> k3
-3.78307	<s> k3R
-2.389278	<s> k5
-3.78307	<s> k5ld
-3.78307	<s> k5lt
-3.78307	<s> k5n
-3.78307	<s> k5s
-3.78307	<s> k5st
-2.079736	<s> k@
-2.707849	<s> k@R
-3.78307	<s> k@d
-3.78307	<s> k@l
-3.008517	<s> k@m
-2.372252	<s> k@n
-3.184247	<s> k@nd
-3.184247	<s> k@s
-3.78307	<s> k@st
-3.78307	<s> k@t
-3.78307	<s> k@z
-3.184247	<s> kE
-3.78307	<s> kE@
-3.78307	<s> kE@R
-3.78307	<s> kE@n
-3.78307	<s> kElp
-3.78307	<s> kEs
-2.832667	<s> kI
-3.78307	<s> kI@S
-3.78307	<s> kINk
-3.484196	<s> kId
-3.78307	<s> kIln
-3.78307	<s> kIlt
-3.087554	<s> kIn
-3.78307	<s> kInt
-3.78307	<s> kIs
-2.707849	<s> kIt
-3.78307	<s> kIts
-2.255785	<s> kP
-2.425475	<s> kQ
-3.484196	<s> kQI
-3.78307	<s> kQIf
-3.78307	<s> kQIl
-3.78307	<s> kQIn
-3.308825	<s> kQN
-3.78307	<s> kQg
-3.78307	<s> kQk
-3.78307	<s> kQl
-3.087554	<s> kQm
-2.707849	<s> kQn
-3.78307	<s> kQnJ
-3.484196	<s> kQst
-3.484196	<s> kU
-3.008517	<s> kV
-3.484196	<s> kVl
-3.78307	<s> kVlt
-3.184247	<s> kVm
-3.78307	<s> kVnt
-3.78307	<s> kVp
-3.78307	<s> kVs
-3.78307	<s> kVsp
-3.78307	<s> kVt
-3.087554	<s> ki
-3.78307	<s> kin
-3.78307	<s> kit
-3.308825	<s> kjU
-3.308825	<s> kjU@
-3.484196	<s> kjU@R
-2.941674	<s> kju
-3.78307	<s> kjub
-3.78307	<s> kjul
-3.78307	<s> kjut
-3.78307	<s> kjuz
-3.78307	<s> kl#I
-3.78307	<s> kl#Im
-3.78307	<s> kl#Ud
-3.78307	<s> kl#Un
-3.78307	<s> kl#Ut
-3.78307	<s> kl#k
-3.78307	<s> kl#s
-3.78307	<s> kl$z
-3.78307	<s> kl1m
-3.484196	<s> kl5n
-3.78307	<s> kl@
-3.484196	<s> klE
-3.78307	<s> klE@R
-3.78307	<s> klEf
-3.78307	<s> klEnJ
-3.78307	<s> klEnz
-3.78307	<s> klI@R
-3.78307	<s> klI@s
-3.78307	<s> klINk
-3.78307	<s> klIf
-3.78307	<s> klIn
-3.78307	<s> klInJ
-3.78307	<s> klQI
-3.78307	<s> klQS
-3.78307	<s> klQT
-3.78307	<s> klQd
-3.484196	<s> klQg
-3.78307	<s> klQk
-3.78307	<s> klQt
-3.78307	<s> klVJ
-3.78307	<s> klVNk
-3.78307	<s> klVb
-3.78307	<s> klVk
-3.78307	<s> klVmp
-3.78307	<s> kli
-3.78307	<s> klik
-3.78307	<s> klin
-3.78307	<s> klit
-3.78307	<s> kliv
-3.308825	<s> kl{
-3.78307	<s> kl{N
-3.78307	<s> kl{Nk
-3.78307	<s> kl{S
-3.78307	<s> kl{d
-3.484196	<s> kl{k
-3.78307	<s> kl{m
-3.78307	<s> kl{mp
-3.78307	<s> kl{n
-3.78307	<s> kl{p
-3.78307	<s> kr#I
-3.78307	<s> kr#Im
-3.78307	<s> kr#UJ
-3.78307	<s> kr#Ud
-3.78307	<s> kr#Un
-3.78307	<s> kr#ft
-3.78307	<s> kr1
-3.78307	<s> kr1n
-3.78307	<s> kr1p
-3.78307	<s> kr1t
-3.78307	<s> kr1v
-3.78307	<s> kr1z
-3.484196	<s> kr5
-3.78307	<s> kr5k
-3.78307	<s> kr5m
-3.78307	<s> kr5s
-3.78307	<s> kr@
-3.78307	<s> kr@l
-3.78307	<s> krE
-3.78307	<s> krEst
-3.184247	<s> krI
-3.78307	<s> krI@
-3.78307	<s> krI@s
-3.78307	<s> krIN
-3.78307	<s> krIk
-3.78307	<s> krIm
-3.78307	<s> krImp
-3.78307	<s> krIn_
-3.78307	<s> krIpt
-3.78307	<s> krIt
-3.78307	<s> krQft
-3.78307	<s> krQm
-3.78307	<s> krQp
-3.78307	<s> krQs
-3.78307	<s> krU@l
-3.78307	<s> krUk
-3.78307	<s> krVJ
-3.78307	<s> krVS
-3.78307	<s> krVks
-3.484196	<s> krVm
-3.78307	<s> krVnJ
-3.78307	<s> krVst
-3.308825	<s> kri
-3.78307	<s> krid
-3.78307	<s> krik
-3.78307	<s> kril
-3.78307	<s> krim
-3.78307	<s> krip
-3.78307	<s> kris
-3.484196	<s> krit
-3.484196	<s> kru
-3.78307	<s> krud
-3.78307	<s> krun
-3.78307	<s> krup
-3.78307	<s> kr{S
-3.78307	<s> kr{b
-3.78307	<s> kr{g
-3.78307	<s> kr{k
-3.484196	<s> kr{m
-3.78307	<s> kr{p
-3.78307	<s> kr{s
-3.184247	<s> ku
-3.308825	<s> kun
-3.484196	<s> kus
-3.78307	<s> kv#s
-3.78307	<s> kw#I
-3.78307	<s> kw#k
-3.78307	<s> kw#m
-3.78307	<s> kw$
-3.78307	<s> kw$t
-3.78307	<s> kw$ts
-3.78307	<s> kw1
-3.78307	<s> kw1k
-3.78307	<s> kw1l
-3.78307	<s> kw1nt
-3.78307	<s> kw3k
-3.78307	<s> kw5
-3.78307	<s> kw@l
-3.78307	<s> kwEl
-3.78307	<s> kwEnJ
-3.308825	<s> kwI
-3.78307	<s> kwI@m
-3.78307	<s> kwId
-3.78307	<s> kwIf
-3.78307	<s> kwIk
-3.78307	<s> kwIl
-3.78307	<s> kwIlt
-3.308825	<s> kwIn
-3.78307	<s> kwIns
-3.484196	<s> kwIp
-3.78307	<s> kwIt
-3.78307	<s> kwIts
-3.78307	<s> kwIz
-3.484196	<s> kwQ
-3.78307	<s> kwQIz
-3.78307	<s> kwQS
-3.78307	<s> kwQd
-3.78307	<s> kwQf
-3.484196	<s> kwQt
-3.78307	<s> kwin
-3.78307	<s> kw{k
-2.219073	<s> k{
-3.78307	<s> k{N
-3.78307	<s> k{S
-3.78307	<s> k{f
-3.308825	<s> k{m
-3.78307	<s> k{mp
-3.184247	<s> k{n
-3.78307	<s> k{nt
-3.184247	<s> k{p
-3.78307	<s> k{sk
-3.78307	<s> k{t
-3.184247	<s> l#
-2.707849	<s> l#I
-3.78307	<s> l#ID
-3.78307	<s> l#If
-3.78307	<s> l#Ik
-3.78307	<s> l#Il
-3.78307	<s> l#Im
-3.78307	<s> l#It
-3.78307	<s> l#Iv
-3.78307	<s> l#Iz
-3.484196	<s> l#U
-3.78307	<s> l#Ud
-3.78307	<s> l#Un_
-3.78307	<s> l#Us
-3.484196	<s> l#d
-3.78307	<s> l#m
-3.78307	<s> l#nJ
-3.78307	<s> l#ns
-3.78307	<s> l#st
-3.78307	<s> l$R
-3.78307	<s> l$n
-3.78307	<s> l$nJ
-3.008517	<s> l1
-3.78307	<s> l1t
-3.78307	<s> l3t
-2.340079	<s> l5
-2.196216	<s> l@
-3.087554	<s> l@R
-3.78307	<s> l@d
-3.78307	<s> l@k
-3.087554	<s> l@m
-2.883759	<s> l@n
-3.484196	<s> l@nd
-3.78307	<s> l@ns
-3.78307	<s> l@nt
-3.087554	<s> l@p
-3.087554	<s> l@s
-3.78307	<s> l@sk
-3.78307	<s> l@st
-3.087554	<s> l@t
-2.786958	<s> lE
-3.78307	<s> lE@
-3.78307	<s> lE@R
-3.78307	<s> lE@d
-3.78307	<s> lET
-3.78307	<s> lEft
-3.308825	<s> lEk
-3.78307	<s> lEks
-3.78307	<s> lEkt
-3.78307	<s> lEn
-3.78307	<s> lEnd
-3.78307	<s> lEnz
-3.78307	<s> lEst
-2.10606	<s> lI
-3.78307	<s> lI@R
-3.78307	<s> lI@n
-3.78307	<s> lI@s
-3.484196	<s> lIN
-3.78307	<s> lINk
-3.78307	<s> lINks
-3.308825	<s> lI_
-3.78307	<s> lId
-3.484196	<s> lIf
-3.78307	<s> lIft
-3.184247	<s> lIk
-3.484196	<s> lIks
-3.484196	<s> lIm
-3.78307	<s> lImf
-3.78307	<s> lImp
-2.745605	<s> lIn
-3.78307	<s> lInJ
-3.184247	<s> lIp
-3.78307	<s> lIps
-3.308825	<s> lIs
-3.484196	<s> lIsk
-3.78307	<s> lIst
-2.941674	<s> lIt
-3.184247	<s> lQ
-3.78307	<s> lQI
-3.78307	<s> lQIn
-3.78307	<s> lQk
-3.484196	<s> lQn
-3.78307	<s> lQt
-3.78307	<s> lU@
-3.78307	<s> lU@R
-3.484196	<s> lVm
-3.78307	<s> lVmf
-3.78307	<s> lVmp
-3.78307	<s> lVst
-3.308825	<s> li
-3.484196	<s> lin
-3.78307	<s> lis
-3.78307	<s> list
-3.484196	<s> lit
-3.78307	<s> liz
-3.78307	<s> lj#d
-3.78307	<s> lj@
-3.78307	<s> lj@d
-3.484196	<s> lj@n
-3.484196	<s> ljU
-3.78307	<s> ljud
-3.78307	<s> ljum
-3.78307	<s> ljuz
-2.832667	<s> lu
-3.484196	<s> lun
-3.78307	<s> lut
-2.941674	<s> l{
-3.78307	<s> l{N
-3.78307	<s> l{Nks
-3.78307	<s> l{S
-3.78307	<s> l{f
-3.484196	<s> l{k
-3.78307	<s> l{ks
-3.484196	<s> l{m
-3.78307	<s> l{mp
-3.484196	<s> l{n
-3.78307	<s> l{nd
-3.78307	<s> l{p
-3.78307	<s> l{ps
-2.464966	<s> m#
-3.308825	<s> m#I
-3.78307	<s> m#Il
-3.78307	<s> m#Ild
-3.78307	<s> m#Im
-3.484196	<s> m#In
-3.78307	<s> m#It
-3.78307	<s> m#UT
-3.78307	<s> m#Un
-3.78307	<s> m#Und
-3.78307	<s> m#Us
-3.78307	<s> m#st
-3.308825	<s> m$
-3.484196	<s> m$R
-3.78307	<s> m$n
-2.941674	<s> m1
-3.78307	<s> m1n
-3.78307	<s> m1s
-3.184247	<s> m3
-3.78307	<s> m3s
-2.640954	<s> m5
-3.78307	<s> m5d
-3.78307	<s> m5lt
-3.78307	<s> m5n
-3.78307	<s> m5t
-2.031441	<s> m@
-2.832667	<s> m@R
-3.484196	<s> m@T
-3.484196	<s> m@k
-3.78307	<s> m@m
-2.673115	<s> m@n
-3.008517	<s> m@nt
-3.78307	<s> m@nz
-3.484196	<s> m@s
-3.78307	<s> m@sk
-3.484196	<s> m@t
-2.583	<s> mE
-3.78307	<s> mE@R
-3.78307	<s> mEN
-3.78307	<s> mElt
-3.484196	<s> mEm
-2.941674	<s> mEn
-3.78307	<s> mEnd
-3.484196	<s> mEns
-3.484196	<s> mEnt
-2.219073	<s> mI
-3.184247	<s> mI@R
-3.484196	<s> mIN
-3.78307	<s> mINk
-3.78307	<s> mINks
-3.78307	<s> mIS
-3.78307	<s> mI_
-3.484196	<s> mId
-3.78307	<s> mIk
-3.78307	<s> mIlJ
-3.78307	<s> mIlt
-2.786958	<s> mIn
-3.78307	<s> mIns
-3.78307	<s> mInt
-3.484196	<s> mIs
-3.087554	<s> mIt
-3.78307	<s> mP
-2.745605	<s> mQ
-3.78307	<s> mQIl
-3.78307	<s> mQIst
-3.78307	<s> mQN
-3.78307	<s> mQk
-3.78307	<s> mQs
-3.78307	<s> mQsk
-3.78307	<s> mU@R
-2.611011	<s> mV
-3.484196	<s> mVN
-3.484196	<s> mVNk
-3.78307	<s> mVf
-3.78307	<s> mVlt
-3.78307	<s> mVm
-3.78307	<s> mVnJ
-3.78307	<s> mVnT
-3.78307	<s> mVs
-3.78307	<s> mVst
-3.78307	<s> mVz
-2.832667	<s> mi
-3.484196	<s> mjU
-3.484196	<s> mju
-3.78307	<s> mjul
-3.308825	<s> mjun
-3.484196	<s> mjut
-3.78307	<s> mjuz
-3.78307	<s> mu
-2.355867	<s> m{
-3.484196	<s> m{N
-3.484196	<s> m{g
-3.78307	<s> m{k
-3.78307	<s> m{l
-3.484196	<s> m{m
-3.008517	<s> m{n
-3.484196	<s> m{ns
-3.484196	<s> m{t
-3.184247	<s> n#
-3.308825	<s> n#I
-3.78307	<s> n#If
-3.78307	<s> n#In
-3.78307	<s> n#Is
-3.484196	<s> n#It
-3.78307	<s> n#Iv
-3.484196	<s> n#R
-3.78307	<s> n#Un
-3.78307	<s> n#Ut
-3.78307	<s> n#l
-3.78307	<s> n$
-3.78307	<s> n$R
-3.184247	<s> n1
-3.78307	<s> n1d
-3.78307	<s> n1t
-2.531878	<s> n5
-3.78307	<s> n5d
-3.78307	<s> n5m
-3.78307	<s> n5t
-2.185223	<s> n@
-3.78307	<s> n@R
-3.78307	<s> n@d
-3.308825	<s> n@k
-3.78307	<s> n@m
-3.484196	<s> n@n
-3.78307	<s> n@nt
-2.941674	<s> n@s
-3.184247	<s> nE
-3.484196	<s> nEk
-3.78307	<s> nEks
-3.78307	<s> nEkst
-3.78307	<s> nEkt
-3.484196	<s> nEl
-3.78307	<s> nEs
-3.78307	<s> nEst
-3.484196	<s> nEt
-2.268746	<s> nI
-3.308825	<s> nI@
-3.484196	<s> nI@R
-3.78307	<s> nI@m
-3.78307	<s> nI@n
-3.78307	<s> nIN
-3.78307	<s> nIT
-3.78307	<s> nId
-3.087554	<s> nIk
-3.484196	<s> nIks
-3.78307	<s> nIl
-3.184247	<s> nIm
-3.78307	<s> nImf
-3.484196	<s> nIp
-3.008517	<s> nIs
-2.786958	<s> nIt
-2.883759	<s> nP
-3.008517	<s> nQ
-3.78307	<s> nQI
-3.78307	<s> nQIz
-3.78307	<s> nQk
-3.78307	<s> nQl
-3.78307	<s> nQn
-3.78307	<s> nQns
-3.484196	<s> nQs
-3.308825	<s> nV
-3.78307	<s> nVf
-3.78307	<s> nVm
-3.308825	<s> ni
-3.78307	<s> nig
-3.78307	<s> nik
-3.78307	<s> nj3R
-3.78307	<s> nj@
-3.78307	<s> nj@l
-3.78307	<s> nj@m
-3.78307	<s> nj@n
-3.78307	<s> nj@s
-3.78307	<s> njU
-2.832667	<s> nju
-3.78307	<s> njut
-3.78307	<s> njuz
-3.308825	<s> nu
-3.308825	<s> n{
-3.78307	<s> n{d
-3.78307	<s> n{f
-3.78307	<s> n{n
-3.78307	<s> n{ns
-3.78307	<s> n{p
-2.786958	<s> p#
-2.941674	<s> p#I
-3.78307	<s> p#Ik
-3.78307	<s> p#Il
-3.78307	<s> p#In
-3.78307	<s> p#Int
-3.78307	<s> p#Ip
-3.78307	<s> p#Uns
-3.78307	<s> p#Ut
-3.78307	<s> p#m
-3.484196	<s> p#s
-3.78307	<s> p#st
-3.78307	<s> p#t
-3.087554	<s> p$
-3.78307	<s> p$l
-3.78307	<s> p$nJ
-3.78307	<s> p$t
-3.087554	<s> p1
-3.78307	<s> p1k
-3.308825	<s> p1n
-3.78307	<s> p1nt
-3.484196	<s> p1s
-3.78307	<s> p1st
-3.087554	<s> p3
-2.745605	<s> p5
-3.78307	<s> p5st
-3.78307	<s> p5z
-2.340079	<s> p@
-3.008517	<s> p@R
-3.78307	<s> p@d
-3.484196	<s> p@l
-3.308825	<s> p@n
-3.78307	<s> p@nt
-2.745605	<s> p@s
-3.78307	<s> p@z
-2.583	<s> pE
-3.78307	<s> pE@
-3.308825	<s> pE@R
-3.78307	<s> pEN
-3.484196	<s> pEd
-3.78307	<s> pEk
-3.78307	<s> pEks
-3.184247	<s> pEl
-3.78307	<s> pElt
-3.78307	<s> pEn
-3.484196	<s> pEnd
-3.78307	<s> pEst
-2.340079	<s> pI
-3.308825	<s> pI@
-3.78307	<s> pI@R
-3.78307	<s> pI@s
-3.78307	<s> pIN
-3.78307	<s> pINk
-3.087554	<s> pId
-3.78307	<s> pIg
-3.78307	<s> pIk
-3.308825	<s> pIl
-3.78307	<s> pIm
-3.78307	<s> pImp
-3.484196	<s> pIn
-3.78307	<s> pInJ
-3.78307	<s> pIs
-3.78307	<s> pIst
-3.008517	<s> pIt
-2.640954	<s> pP
-2.786958	<s> pQ
-3.78307	<s> pQInt
-3.78307	<s> pQIz
-3.78307	<s> pQks
-3.78307	<s> pQl
-3.308825	<s> pQm
-3.78307	<s> pQmp
-3.008517	<s> pQn
-3.78307	<s> pQnd
-3.78307	<s> pQns
-3.78307	<s> pQp
-3.484196	<s> pQst
-3.78307	<s> pQt
-3.484196	<s> pU
-3.78307	<s> pUl
-3.78307	<s> pUt
-3.087554	<s> pV
-3.78307	<s> pVN
-3.78307	<s> pVNk
-3.78307	<s> pVlp
-3.484196	<s> pVls
-3.78307	<s> pVlt
-3.484196	<s> pVmp
-3.78307	<s> pVn
-3.78307	<s> pVnJ
-3.087554	<s> pi
-3.484196	<s> piz
-3.78307	<s> pj@
-3.78307	<s> pjU
-3.78307	<s> pjU@R
-3.184247	<s> pju
-3.78307	<s> pjuk
-3.78307	<s> pjul
-3.78307	<s> pjun
-3.78307	<s> pjus
-3.184247	<s> pl#I
-3.78307	<s> pl#nt
-3.78307	<s> pl1g
-3.78307	<s> pl1nt
-3.78307	<s> pl1s
-3.78307	<s> pl1t
-3.78307	<s> pl5
-3.308825	<s> pl@
-3.78307	<s> plE
-3.78307	<s> plE_
-3.78307	<s> plEbz
-3.78307	<s> plEk
-3.484196	<s> plEks
-3.78307	<s> plEn
-3.78307	<s> plIm
-3.484196	<s> plIn
-3.78307	<s> plInT
-3.484196	<s> plQI
-3.78307	<s> plQd
-3.78307	<s> plQp
-3.78307	<s> plVNk
-3.78307	<s> plVg
-3.78307	<s> plVk
-3.484196	<s> plVm
-3.78307	<s> plVmp
-3.78307	<s> plVn
-3.78307	<s> plVn_
-3.78307	<s> pliJ
-3.78307	<s> plid
-3.78307	<s> plum
-3.087554	<s> pl{
-3.78307	<s> pl{N
-3.78307	<s> pl{d
-3.484196	<s> pl{n
-3.484196	<s> pl{t
-3.78307	<s> pl{z
-3.78307	<s> pr#
-3.484196	<s> pr#I
-3.78307	<s> pr#Id
-3.78307	<s> pr#Is
-3.78307	<s> pr#Iz
-3.78307	<s> pr#U
-3.78307	<s> pr1z
-3.008517	<s> pr5
-3.78307	<s> pr5J
-3.78307	<s> pr5b
-3.78307	<s> pr5l
-3.78307	<s> pr5n
-3.087554	<s> pr@
-3.78307	<s> pr@n
-3.78307	<s> prE
-3.78307	<s> prE@
-3.78307	<s> prEp
-3.78307	<s> prEs
-3.087554	<s> prI
-3.78307	<s> prIg
-3.78307	<s> prIk
-3.78307	<s> prImp
-3.78307	<s> prIt
-2.883759	<s> prQ
-3.78307	<s> prQm
-3.78307	<s> prQmpt
-3.78307	<s> prQp
-3.78307	<s> priJ
-3.78307	<s> prin
-3.78307	<s> prud
-3.78307	<s> pruv
-3.78307	<s> pr{Nk
-3.78307	<s> pr{k
-3.78307	<s> pr{t
-3.308825	<s> pu
-3.484196	<s> pun
-3.78307	<s> pus
-2.255785	<s> p{
-3.484196	<s> p{N
-3.78307	<s> p{S
-3.78307	<s> p{ks
-3.78307	<s> p{kt
-3.484196	<s> p{m
-3.008517	<s> p{n
-3.78307	<s> p{nt
-3.78307	<s> p{z
-2.941674	<s> r#
-2.941674	<s> r#I
-3.78307	<s> r#ID
-3.78307	<s> r#Id
-3.78307	<s> r#If
-3.78307	<s> r#Il
-3.78307	<s> r#Im
-3.78307	<s> r#Ind
-3.78307	<s> r#Is
-3.78307	<s> r#It
-3.484196	<s> r#Iv
-3.78307	<s> r#Iz
-3.78307	<s> r#U
-3.78307	<s> r#Un
-3.78307	<s> r#Und
-3.78307	<s> r#Ut
-3.484196	<s> r#Uz
-3.78307	<s> r#f
-3.78307	<s> r#ft
-3.78307	<s> r#l
-3.78307	<s> r#n
-3.78307	<s> r#s
-3.78307	<s> r#sp
-3.484196	<s> r$
-3.78307	<s> r$R
-3.78307	<s> r$d
-2.832667	<s> r1
-3.484196	<s> r1d
-3.78307	<s> r1n_
-2.50841	<s> r5
-3.308825	<s> r5l
-3.78307	<s> r5n
-3.78307	<s> r5st
-2.196216	<s> r@
-3.484196	<s> r@R
-3.484196	<s> r@b
-3.78307	<s> r@f
-3.484196	<s> r@k
-2.832667	<s> r@l
-3.484196	<s> r@ld
-3.484196	<s> r@m
-3.087554	<s> r@n
-3.308825	<s> r@nt
-3.78307	<s> r@p
-2.832667	<s> r@s
-3.087554	<s> r@t
-2.941674	<s> rE
-3.78307	<s> rE@R
-3.484196	<s> rEkt
-3.78307	<s> rEl
-3.78307	<s> rEnJ
-3.78307	<s> rEnd
-3.78307	<s> rEp
-3.484196	<s> rEst
-3.484196	<s> rEt
-2.115201	<s> rI
-3.308825	<s> rI@
-3.484196	<s> rI@R
-3.484196	<s> rI@d
-3.308825	<s> rI@l
-3.78307	<s> rI@nt
-3.78307	<s> rI@t
-3.78307	<s> rIN
-3.78307	<s> rINk
-3.78307	<s> rINks
-3.78307	<s> rIS
-3.78307	<s> rI_
-3.484196	<s> rId
-3.484196	<s> rIf
-3.78307	<s> rIft
-3.78307	<s> rIg
-3.484196	<s> rIk
-3.78307	<s> rIks
-3.78307	<s> rIl
-3.484196	<s> rIm
-3.184247	<s> rIn
-3.78307	<s> rInT
-3.484196	<s> rIn_
-3.78307	<s> rIsk
-3.78307	<s> rIst
-3.184247	<s> rIt
-3.78307	<s> rIz
-2.941674	<s> rQ
-3.78307	<s> rQk
-3.78307	<s> rQks
-3.78307	<s> rQmp
-3.484196	<s> rQn
-3.484196	<s> rU
-3.308825	<s> rV
-3.78307	<s> rVg
-3.308825	<s> rVm
-3.78307	<s> rVnt
-2.883759	<s> ri
-3.78307	<s> rim
-3.308825	<s> rin
-3.78307	<s> rit
-3.484196	<s> riz
-3.78307	<s> rju
-2.941674	<s> ru
-3.78307	<s> rust
-3.78307	<s> rut
-2.673115	<s> r{
-3.78307	<s> r{Nk
-3.484196	<s> r{f
-3.78307	<s> r{k
-3.78307	<s> r{ks
-3.78307	<s> r{kt
-3.484196	<s> r{m
-3.484196	<s> r{n
-3.78307	<s> r{nd
-3.78307	<s> r{nt
-3.78307	<s> r{pt
-3.484196	<s> r{s
-3.78307	<s> r{t
-3.184247	<s> s#
-2.941674	<s> s#I
-3.78307	<s> s#ID
-3.184247	<s> s#Id
-3.78307	<s> s#Il
-3.78307	<s> s#In
-3.78307	<s> s#Is
-3.308825	<s> s#It
-3.78307	<s> s#Iz
-3.78307	<s> s#U
-3.78307	<s> s#UT
-3.78307	<s> s#m
-3.484196	<s> s$
-3.78307	<s> s$R
-3.308825	<s> s$lt
-3.78307	<s> s$n
-3.308825	<s> s1
-3.78307	<s> s1d
-3.484196	<s> s1l
-3.78307	<s> s1nt
-2.707849	<s> s3
-3.78307	<s> s3n
-3.484196	<s> s3t
-2.883759	<s> s5
-3.484196	<s> s5l
-3.78307	<s> s5t
-2.583	<s> s@
-3.78307	<s> s@R
-3.184247	<s> s@k
-3.308825	<s> s@l
-3.308825	<s> s@m
-3.78307	<s> s@ns
-3.484196	<s> s@p
-3.087554	<s> s@s
-3.78307	<s> s@t
-2.611011	<s> sE
-3.78307	<s> sEN
-3.78307	<s> sEks
-3.484196	<s> sEkt
-3.78307	<s> sEl
-3.087554	<s> sEn
-3.78307	<s> sEns
-3.308825	<s> sEnt
-3.78307	<s> sEp
-3.78307	<s> sEps
-3.484196	<s> sEs
-3.78307	<s> sEst
-3.78307	<s> sEt
-2.832667	<s> sH
-2.088335	<s> sI
-3.484196	<s> sI@
-3.78307	<s> sI@R
-3.484196	<s> sI@m
-3.484196	<s> sIN
-3.78307	<s> sINk
-3.087554	<s> sId
-3.78307	<s> sIft
-3.484196	<s> sIg
-3.78307	<s> sIks
-3.78307	<s> sIl
-3.78307	<s> sIlt
-3.308825	<s> sIm
-3.78307	<s> sImp
-3.308825	<s> sIn
-3.78307	<s> sInJ
-3.484196	<s> sInT
-3.78307	<s> sIp
-3.484196	<s> sIs
-3.484196	<s> sIst
-3.008517	<s> sIt
-2.425475	<s> sP
-2.786958	<s> sQ
-3.78307	<s> sQI
-3.78307	<s> sQIl
-3.78307	<s> sQl
-3.78307	<s> sQlv
-3.78307	<s> sQn
-3.484196	<s> sU
-2.883759	<s> sV
-3.78307	<s> sVl
-3.78307	<s> sVmp
-3.78307	<s> sfINk
-2.786958	<s> si
-3.484196	<s> sid
-3.78307	<s> sil
-3.484196	<s> sin
-3.78307	<s> sit
-3.78307	<s> siz
-3.78307	<s> sju
-3.78307	<s> sjul
-3.484196	<s> sjut
-3.308825	<s> sk#
-3.78307	<s> sk#Iv
-3.78307	<s> sk#R
-3.484196	<s> sk#U
-3.78307	<s> sk#Ul
-3.78307	<s> sk#Ut
-3.78307	<s> sk#f
-3.78307	<s> sk#p
-3.78307	<s> sk$J
-3.78307	<s> sk$R
-3.78307	<s> sk$ld
-3.78307	<s> sk$t
-3.78307	<s> sk1
-3.78307	<s> sk1d
-3.78307	<s> sk1n
-3.78307	<s> sk1t
-3.78307	<s> sk3
-3.78307	<s> sk3_
-3.78307	<s> sk3f
-3.78307	<s> sk3l
-3.78307	<s> sk3t
-3.78307	<s> sk5p
-3.78307	<s> sk@R
-3.484196	<s> sk@s
-3.484196	<s> sk@t
-3.78307	<s> skE
-3.78307	<s> skE@s
-3.78307	<s> skEJ
-3.78307	<s> skEp
-3.78307	<s> skI
-3.78307	<s> skId
-3.78307	<s> skIf
-3.78307	<s> skIm
-3.78307	<s> skIp
-3.484196	<s> skIt
-3.78307	<s> skQ
-3.78307	<s> skQJ
-3.78307	<s> skQn
-3.78307	<s> skQns
-3.78307	<s> skV
-3.78307	<s> skVNk
-3.78307	<s> skVd
-3.78307	<s> skVf
-3.78307	<s> skVl
-3.78307	<s> skVlk
-3.78307	<s> skVlpt
-3.78307	<s> skVm
-3.78307	<s> ski
-3.78307	<s> skim
-3.78307	<s> skit
-3.484196	<s> skju
-3.78307	<s> skjul
-3.78307	<s> skr#Ib
-3.78307	<s> skr#Un_
-3.78307	<s> skr$l
-3.78307	<s> skrI
-3.78307	<s> skrImp
-3.78307	<s> skrIp
-3.78307	<s> skrIpt
-3.78307	<s> skrVm
-3.78307	<s> skrVnJ
-3.78307	<s> skri
-3.78307	<s> skriJ
-3.78307	<s> skrim
-3.484196	<s> skru
-3.78307	<s> skru_
-3.78307	<s> skr{
-3.78307	<s> skr{J
-3.78307	<s> skr{g
-3.484196	<s> skr{m
-3.78307	<s> skr{p
-3.78307	<s> skup
-3.78307	<s> skw#I
-3.78307	<s> skw$
-3.78307	<s> skw$k
-3.78307	<s> skw3m
-3.78307	<s> skw3t
-3.78307	<s> skwE@R
-3.78307	<s> skwElJ
-3.78307	<s> skwI
-3.78307	<s> skwIb
-3.78307	<s> skwId
-3.78307	<s> skwInt
-3.484196	<s> skwQ
-3.78307	<s> skwQS
-3.78307	<s> skwQn
-3.78307	<s> skwQt
-3.78307	<s> skwil
-3.78307	<s> skwiz
-3.087554	<s> sk{
-3.78307	<s> sk{b
-3.78307	<s> sk{l
-3.78307	<s> sk{lp
-3.78307	<s> sk{m
-3.484196	<s> sk{n
-3.78307	<s> sk{ns
-3.78307	<s> sk{nt
-3.78307	<s> sl#
-3.78307	<s> sl#I
-3.78307	<s> sl#Id
-3.78307	<s> sl#Im
-3.78307	<s> sl#U
-3.78307	<s> sl#UJ
-3.78307	<s> sl#nt
-3.78307	<s> sl$t
-3.78307	<s> sl1k
-3.78307	<s> sl1t
-3.78307	<s> sl1v
-3.78307	<s> sl3R
-3.78307	<s> sl3p
-3.78307	<s> sl5T
-3.78307	<s> sl5p
-3.78307	<s> slE_
-3.78307	<s> slEd
-3.78307	<s> slEn
-3.78307	<s> slI
-3.78307	<s> slINk
-3.78307	<s> slIk
-3.78307	<s> slIm
-3.78307	<s> slIp
-3.78307	<s> slQS
-3.78307	<s> slQb
-3.78307	<s> slQt
-3.78307	<s> slVf
-3.78307	<s> slVg
-3.484196	<s> slVm
-3.78307	<s> slVmp
-3.78307	<s> slik
-3.78307	<s> slip
-3.78307	<s> sliv
-3.78307	<s> slup
-3.78307	<s> slus
-3.78307	<s> sl{
-3.78307	<s> sl{N
-3.78307	<s> sl{S
-3.78307	<s> sl{b
-3.78307	<s> sl{g
-3.78307	<s> sl{k
-3.78307	<s> sl{m
-3.78307	<s> sl{p
-3.78307	<s> sl{t
-3.78307	<s> sm#Il
-3.78307	<s> sm#It
-3.78307	<s> sm#t
-3.78307	<s> sm$l
-3.78307	<s> sm3k
-3.78307	<s> sm5k
-3.78307	<s> smEl
-3.78307	<s> smElt
-3.78307	<s> smI@R
-3.78307	<s> smIT
-3.484196	<s> smV
-3.78307	<s> smV_
-3.78307	<s> smVg
-3.78307	<s> smVt
