
\data\
ngram 1=43
ngram 2=807
ngram 3=4517
ngram 4=9072
ngram 5=9938

\1-grams:
-1.556868	#	-3.044335
-2.090598	$	-2.521962
-2.01142	1	-2.50007
-2.278417	3	-2.516059
-1.811346	5	-2.696258
-0.7842152	</s>
-99	<s>	-4.128282
-1.253587	@	-3.447
-3.027659	D	-1.684672
-1.675637	E	-3.110285
-2.62319	H	-2.108048
-1.158592	I	-3.484008
-2.284407	J	-2.444817
-2.25808	N	-2.408958
-1.855078	P	-2.868241
-1.735221	Q	-3.018417
-1.891338	R	-2.8612
-2.325495	S	-2.390527
-2.460483	T	-2.237296
-2.139582	U	-2.330691
-1.843998	V	-2.954887
-3.663925	Z	-1.108129
-2.182704	_	-2.538777
-1.657463	b	-2.99494
-1.587275	d	-3.098134
-1.806302	f	-2.889562
-1.81338	g	-2.863391
-2.241375	h	-2.610346
-1.962778	i	-2.694435
-2.185097	j	-2.645568
-1.31634	k	-3.214765
-1.363977	l	-3.085485
-1.504776	m	-2.861263
-1.31699	n	-3.367074
-1.493405	p	-2.962454
-1.38475	r	-3.453537
-1.238135	s	-3.33641
-1.246068	t	-3.325082
-1.974438	u	-2.57542
-1.992535	v	-2.728601
-2.036242	w	-2.796952
-2.124716	z	-2.589283
-1.539162	{	-3.296005

\2-grams:
-2.107289	# </s>
-0.314443	# I	-2.15379
-2.881842	# J	-0.2573061
-1.524247	# R	1.182375
-2.407597	# S	-0.864071
-0.7927068	# U	-1.681016
-2.881842	# Z	-0.3764081
-2.186326	# _	-1.005681
-1.844376	# b	-1.21039
-1.63065	# d	-1.305333
-1.739725	# f	-1.45453
-1.771886	# g	-1.368709
-2.407597	# h	-0.8172047
-1.844376	# k	-1.262347
-1.524247	# l	-1.536122
-1.563737	# m	-1.253073
-1.306266	# n	-1.323273
-2.040446	# p	-1.124466
-2.107289	# r	-0.9586891
-1.354557	# s	-1.34286
-1.471023	# t	-1.222885
-2.283019	# v	-0.8323501
-2.881842	# w	-0.5360734
-2.407597	# z	-0.8811365
-1.311205	$ </s>
-2.348671	$ J	-0.2573061
-0.9548787	$ R	1.146787
-1.874426	$ T	-0.7142118
-1.574118	$ b	-1.057582
-0.9548787	$ d	-1.337502
-1.653155	$ f	-0.9952668
-1.574118	$ g	-1.091205
-1.749848	$ k	-0.884601
-0.8213858	$ l	-1.75535
-1.311205	$ m	-1.229053
-0.834347	$ n	-1.417892
-1.653155	$ p	-1.09173
-1.07401	$ r	-1.404072
-1.398268	$ s	-1.223848
-0.9378521	$ t	-1.187279
-2.049796	$ z	-0.539909
-2.427717	1 $	-0.486259
-0.819149	1 </s>
-2.128843	1 @	-0.6967851
-2.427717	1 E	-0.4380024
-2.427717	1 I	-0.5074288
-2.427717	1 Q	-0.4994126
-2.128843	1 S	-0.7138603
-2.128843	1 T	-0.7525833
-1.828894	1 _	-0.7968104
-1.285601	1 b	-1.45483
-1.051647	1 d	-1.38452
-2.128843	1 f	-0.710936
-1.477314	1 g	-1.217502
-1.431605	1 k	-1.287604
-1.153057	1 l	-1.424093
-1.828894	1 m	-0.9459181
-0.8637197	1 n	-1.606801
-1.201334	1 p	-1.250539
-1.153057	1 s	-1.402075
-0.9267532	1 t	-1.427342
-1.285601	1 v	-1.170751
-1.285601	1 z	-1.093796
-1.862404	3 D	-0.6995406
-1.687034	3 J	-0.8153079
-1.086057	3 R	1.45784
-1.319882	3 _	-0.9069515
-1.210876	3 b	-1.247072
-1.261968	3 d	-1.190086
-1.862404	3 f	-0.7099857
-1.562456	3 g	-0.8738289
-1.123813	3 k	-1.214475
-1.165166	3 l	-1.27669
-0.9348961	3 m	-1.373227
-1.165166	3 n	-1.102865
-1.210876	3 p	-1.248905
-1.210876	3 s	-1.15356
-0.8431743	3 t	-1.388147
-1.165166	3 v	-1.147312
-1.862404	3 z	-0.727196
-2.627548	5 #	-0.5263185
-0.3988482	5 </s>
-2.627548	5 @	-0.5113683
-2.627548	5 I	-0.5151352
-2.328674	5 J	-0.4888331
-2.627548	5 S	-0.5294419
-2.028725	5 T	-0.8574246
-1.517592	5 b	-1.300961
-1.631436	5 d	-1.064297
-1.932032	5 f	-1.028978
-1.590082	5 g	-1.062865
-1.28925	5 k	-1.488424
-0.8993956	5 l	-1.799564
-1.376356	5 m	-1.362223
-1.200345	5 n	-1.524958
-1.427478	5 p	-1.365509
-1.251478	5 s	-1.537686
-1.126584	5 t	-1.427233
-1.631436	5 v	-1.071336
-1.932032	5 z	-0.8232999
-2.196076	<s> #	-1.158541
-2.196076	<s> $	-1.391833
-2.482243	<s> 1	-1.455884
-3.180057	<s> 3	-0.8915216
-2.454232	<s> 5	-1.531082
-1.845644	<s> @	-1.950334
-3.055479	<s> D	-0.982479
-2.211311	<s> E	-1.220663
-1.826051	<s> I	-1.838746
-1.942537	<s> J	-1.977517
-2.227099	<s> Q	-1.333285
-1.902673	<s> S	-1.943597
-2.056455	<s> T	-1.797026
-2.579081	<s> V	-1.189727
-1.795241	<s> _	-1.900672
-1.152105	<s> b	-2.396314
-1.344736	<s> d	-2.645254
-1.291249	<s> f	-2.377937
-1.364136	<s> g	-2.26467
-1.500231	<s> h	-0.8678581
-2.579081	<s> i	-1.394505
-2.196076	<s> j	-0.9677331
-0.9246165	<s> k	-2.878691
-1.521871	<s> l	-2.215369
-1.246987	<s> m	-2.590755
-1.772077	<s> n	-2.305448
-1.065327	<s> p	-2.564806
-1.503257	<s> r	-0.9287779
-0.7693164	<s> s	-2.971675
-1.208359	<s> t	-2.7433
-3.654302	<s> u	-0.50256
-1.680854	<s> v	-2.02998
-1.699535	<s> w	-0.4383891
-2.579081	<s> z	-1.416499
-1.699535	<s> {	-1.181036
-0.8090981	@ </s>
-2.586183	@ J	-0.9297196
-0.7180211	@ R	0.08005452
-2.710761	@ S	-0.6899368
-2.343609	@ T	-0.9799275
-3.185006	@ Z	-0.4651667
-2.343609	@ _	-1.201223
-1.791214	@ b	-1.471034
-1.507996	@ d	-1.410909
-2.188893	@ f	-1.153595
-2.07505	@ g	-1.413433
-2.410453	@ h	-1.022508
-3.185006	@ j	-0.534666
-1.526475	@ k	-1.559417
-1.155864	@ l	-1.580421
-1.202511	@ m	-1.223601
-0.8037033	@ n	-2.069637
-1.587159	@ p	-1.272014
-1.102932	@ r	-0.5210068
-1.092383	@ s	-2.041091
-1.314208	@ t	-1.392686
-2.14754	@ v	-1.393826
-2.886131	@ w	-0.731896
-1.984936	@ z	-1.143811
-1.417611	D #	-0.2514856
-0.5762148	D </s>
-0.3801455	D @	-1.328259
-1.118737	D E	-0.6306584
-0.8187885	D H	0.05646324
-1.417611	D I	-0.5372396
-1.068411	E @	-1.761357
-2.288901	E D	-0.6871121
-2.164323	E J	-0.6858243
-2.763146	E N	-0.3926796
-2.06763	E S	-0.8848506
-1.92175	E T	-0.9232432
-1.863835	E _	-0.9618598
-1.863835	E b	-1.099731
-1.46622	E d	-1.301718
-1.92175	E f	-1.195572
-2.763146	E g	-0.5364281
-0.9413279	E k	-1.93752
-0.8329186	E l	-1.945327
-1.335943	E m	-1.458562
-0.6810721	E n	-1.782112
-1.591087	E p	-1.353719
-1.235861	E r	-1.639485
-1.003965	E s	-1.635083
-1.114159	E t	-1.473413
-1.621029	E v	-1.466961
-2.288901	E z	-0.8595253
-0.03689785	H </s>
-1.519103	H d	-0.568866
-1.343732	H t	-0.6671049
-2.981104	I #	-0.7458705
-3.279979	I $	-0.4884315
-2.584462	I 1	-1.050923
-1.903908	I 5	-1.331844
-1.043726	I </s>
-1.088373	I @	-1.59953
-2.283866	I D	-0.9181543
-2.380667	I E	-1.123553
-2.283866	I J	-0.9720079
-1.513374	I N	-0.7285737
-2.981104	I Q	-0.7077
-2.380667	I S	-1.115352
-2.584462	I T	-0.8524064
-2.981104	I Z	-0.6079351
-2.005318	I _	-1.189874
-1.640749	I b	-1.564668
-1.375761	I d	-1.718656
-1.585243	I f	-1.760078
-1.602968	I g	-1.524341
-2.981104	I h	-0.6525643
-2.981104	I i	-0.6443565
-1.10818	I k	-1.738572
-1.091147	I l	-1.847632
-1.263069	I m	-1.715047
-0.8218869	I n	-1.834892
-1.621448	I p	-1.697648
-2.079909	I r	-1.089279
-1.147548	I s	-1.887997
-0.9662157	I t	-1.993586
-1.585243	I v	-1.488318
-2.981104	I w	-0.7057253
-1.660947	I z	-1.25359
-2.329575	I {	-1.160644
-1.11784	J #	-1.123811
-2.155306	J $	-0.486259
-1.856431	J 1	-0.6809414
-2.155306	J 3	-0.5087503
-1.856431	J 5	-0.5216922
-0.3207153	J </s>
-1.080084	J @	-1.010401
-1.255995	J E	-1.117749
-0.8170073	J I	-1.394063
-1.856431	J Q	-0.6912475
-1.856431	J V	-0.7295416
-1.856431	J i	-0.7283064
-2.155306	J u	-0.4550878
-1.204903	J {	-1.075419
-0.863456	N </s>
-1.882686	N @	-0.6626137
-0.5423306	N g	-1.757765
-0.2667516	N k	-1.896253
-1.882686	N s	-0.6708822
-2.181561	N t	-0.4999383
-0.003839503	P </s>
-2.583861	P j	-0.1222414
-2.583861	P n	-0.5388508
-2.583861	P t	-0.5277513
-0.9835699	Q I	-1.647794
-1.929053	Q J	-0.9125527
-1.56149	Q N	-0.1136078
-1.86221	Q S	-1.060177
-1.929053	Q T	-1.009476
-2.104783	Q _	-0.8629164
-1.260615	Q b	-1.650187
-1.428946	Q d	-1.173628
-1.503536	Q f	-1.40185
-1.59365	Q g	-1.183463
-1.074358	Q k	-1.759983
-1.017643	Q l	-1.804611
-1.064376	Q m	-1.664073
-0.8817881	Q n	-1.571197
-1.365308	Q p	-1.539659
-1.276403	Q r	-1.525483
-1.054619	Q s	-1.528811
-1.139609	Q t	-1.537499
-2.00809	Q v	-0.989559
-2.00809	Q z	-1.080208
-0.0004998688	R </s>
-1.815465	S #	-0.4677663
-1.640095	S $	-0.8994948
-1.640095	S 1	-0.8498158
-2.11434	S 3	-0.5119225
-2.11434	S 5	-0.5281976
-0.4373298	S </s>
-1.163937	S @	-1.17384
-1.515517	S E	-0.901727
-2.11434	S H	0.5495971
-1.118227	S I	-1.241241
-2.11434	S P	1.515923
-2.11434	S U	-0.5373213
-1.418824	S V	-1.015826
-1.272943	S i	-1.121754
-2.11434	S m	-0.4902461
-2.11434	S p	-0.5316247
-0.9722233	S r	-1.224471
-1.640095	S u	-0.8022515
-0.9142701	S {	-1.333116
-1.680971	T #	-0.6947037
-1.680971	T $	-0.7327698
-1.680971	T 3	-0.6967815
-0.4788814	T </s>
-1.205293	T @	-1.033776
-1.979846	T E	-0.5342728
-1.979846	T H	0.5495971
-0.837729	T I	-1.373879
-1.505601	T P	1.134185
-1.381023	T Q	-0.9925464
-1.680971	T V	-0.6841127
-1.680971	T i	-0.7413011
-1.979846	T l	-0.5251447
-0.6617411	T r	-1.287674
-1.680971	T w	-0.731896
-1.979846	T {	-0.5080396
-1.40047	U </s>
-0.6605512	U @	-1.683244
-2.299781	U E	-0.5047603
-1.604265	U I	-1.022977
-1.458385	U J	-0.9744126
-2.000906	U T	-0.5958177
-2.299781	U _	-0.3697824
-1.700958	U b	-0.9309105
-1.458385	U d	-0.9182627
-2.299781	U g	-0.4724474
-1.458385	U k	-1.145031
-0.9237104	U l	-1.566293
-1.525228	U m	-0.9835827
-0.7129266	U n	-1.577688
-2.299781	U p	-0.5107684
-1.825536	U r	-0.8603666
-1.40047	U s	-1.087146
-0.9816765	U t	-1.474121
-1.22456	U z	-1.140238
-2.296054	V D	-0.5369014
-2.296054	V J	-0.4888331
-1.237333	V N	-0.1328381
-1.519707	V S	-1.21476
-1.695617	V _	-1.0767
-1.276824	V b	-1.520275
-1.484972	V d	-1.102771
-1.136702	V f	-1.564931
-1.422869	V g	-1.480919
-1.25663	V k	-1.505037
-0.9970812	V l	-1.824197
-0.7418569	V m	-1.89576
-0.9270595	V n	-1.53438
-1.899412	V p	-1.111968
-1.695617	V r	-1.099118
-0.9970812	V s	-1.609134
-1.343736	V t	-1.334263
-1.644525	V v	-0.9858365
-1.557462	V z	-1.390362
-0.504339	Z 1	-0.699605
-0.504339	Z </s>
-0.8032137	Z @	-0.4472295
-0.8032137	Z i	-0.4434446
-1.219285	_ #	-0.980786
-1.782506	_ $	-0.8524774
-1.782506	_ 3	-0.8915216
-1.657928	_ 5	-0.6811014
-0.4901468	_ </s>
-0.9598253	_ @	-1.334547
-1.084692	_ E	-1.103263
-0.8459321	_ I	-1.374457
-1.260638	_ Q	-1.194092
-1.482198	_ V	-1.075692
-1.306348	_ i	-1.199895
-1.35744	_ u	-1.176772
-1.35744	_ {	-1.144659
-1.21731	b #	-1.270539
-1.785195	b $	-1.218463
-1.881996	b 1	-1.266249
-1.706086	b 3	-1.305358
-1.530115	b 5	-1.224361
-1.13232	b </s>
-1.007405	b @	-1.493733
-1.405237	b E	-1.030634
-1.007405	b I	-1.669388
-0.9594891	b P	-0.01875782
-1.530115	b Q	-1.149539
-1.939911	b U	-1.090481
-1.323081	b V	-1.172588
-2.781307	b _	-0.4726966
-1.706086	b i	-1.392385
-1.939911	b j	-0.6051549
-1.113438	b l	-1.845667
-2.781307	b n	-0.5326227
-0.8460596	b r	0.4684081
-2.307062	b s	-0.8853786
-1.671351	b u	-1.326135
-2.781307	b z	-0.308382
-1.152059	b {	-1.212395
-1.378507	d #	-1.311046
-1.625069	d $	-1.362596
-1.709335	d 1	-1.092882
-2.252629	d 3	-0.9316871
-1.576791	d 5	-1.154537
-0.4292459	d </s>
-1.063312	d @	-1.614019
-1.45766	d E	-1.181014
-2.076899	d H	-0.1056495
-0.9749027	d I	-1.14421
-1.115332	d P	-0.07545519
-1.60026	d Q	-1.294916
-2.552577	d U	-0.6606379
-1.576791	d V	-1.201207
-1.952141	d i	-1.121106
-1.952141	d j	-0.6600631
-2.552577	d l	-0.6543159
-2.851452	d m	-0.4806061
-2.252629	d n	-1.011331
-2.851452	d p	-0.5065793
-1.092271	d r	-0.199713
-2.552577	d u	-0.7415707
-2.377207	d w	-0.8373117
-2.851452	d z	-0.308382
-1.679393	d {	-1.381481
-1.274992	f #	-1.269647
-1.557366	f $	-1.272466
-1.858034	f 1	-1.097011
-2.033765	f 3	-0.9309618
-1.937071	f 5	-1.010021
-0.8515079	f </s>
-1.314483	f @	-1.082444
-1.238795	f E	-1.366295
-2.158342	f H	0.1678594
-0.8886434	f I	-1.640509
-1.357927	f P	0.3799622
-1.381395	f Q	-1.358373
-2.333713	f T	-0.7430809
-2.333713	f U	-0.715907
-1.791191	f V	-1.072854
-1.557366	f i	-1.181209
-1.636475	f j	-0.7523361
-0.8586853	f l	-1.951249
-0.9836	f r	-1.082238
-1.159643	f t	-1.468745
-1.557366	f {	-1.212454
-1.287217	g #	-0.9859368
-2.026693	g $	-0.9250948
-2.625516	g 1	-0.5362644
-2.326642	g 3	-0.7445543
-1.287217	g 5	-1.367844
-1.006485	g </s>
-0.8444365	g @	-1.431356
-2.026693	g E	-0.9053463
-1.425446	g I	-1.269026
-1.006485	g P	0.1824603
-1.453457	g Q	-1.331007
-2.326642	g U	-0.6663002
-1.425446	g V	-1.401148
-2.151271	g j	-0.5039791
-1.111192	g l	-1.585431
-1.93	g m	-1.062317
-1.726205	g n	-1.268343
-0.6566635	g r	-0.747232
-1.850963	g u	-0.9915079
-1.93	g w	-0.9076694
-2.625516	g z	-0.5373948
-1.287217	g {	-1.345295
-0.6583507	h #	-1.243223
-1.356825	h $	-1.072378
-1.723976	h 1	-0.8501553
-1.502705	h 3	-0.9159662
-1.502705	h 5	-1.039197
-1.899347	h @	-0.735339
-0.9981515	h E	-1.171831
-1.247818	h I	-1.220292
-1.088266	h Q	-1.289644
-1.899347	h U	-0.6663002
-0.9012957	h V	-1.279824
-1.723976	h i	-0.9276074
-1.423668	h j	-0.777488
-1.723976	h u	-0.7865733
-0.7252768	h {	-1.082896
-2.476289	i #	-0.4631768
-2.002044	i 5	-0.8346301
-1.06547	i </s>
-1.877466	i @	-0.8807316
-2.177414	i D	-0.6995406
-1.701736	i J	-0.9125527
-2.177414	i Q	-0.7309395
-1.701736	i S	-0.9565392
-2.177414	i T	-0.7525833
-2.476289	i _	-0.4726966
-1.634892	i b	-1.17589
-1.179363	i d	-1.15412
-2.476289	i f	-0.4736169
-1.780773	i g	-0.7971013
-2.476289	i h	-0.5199752
-2.476289	i j	-0.4993811
-1.13799	i k	-1.506714
-1.225097	i l	-1.423189
-1.13799	i m	-1.570117
-0.7023869	i n	-1.783452
-1.525886	i p	-1.255832
-1.179363	i s	-1.458957
-1.082497	i t	-1.40188
-1.525886	i v	-1.168603
-2.476289	i w	-0.5113919
-1.033297	i z	-1.413184
-1.955489	j #	-0.6931365
-2.254364	j $	-0.4884315
-2.254364	j 3	-0.5023357
-1.558847	j 5	-0.8535301
-1.054294	j @	-1.166414
-1.655541	j E	-0.9333332
-2.254364	j I	-0.502542
-1.955489	j Q	-0.7254934
-0.7814192	j U	-1.706831
-2.254364	j V	-0.5147607
-1.955489	j i	-0.7234064
-0.2094284	j u	-1.014643
-1.655541	j {	-0.9382343
-1.427536	k #	-1.031183
-1.695068	k $	-0.9508528
-1.783972	k 1	-1.471122
-2.012315	k 3	-1.204021
-1.524424	k 5	-1.453293
-0.7743906	k </s>
-0.9117221	k @	-1.163342
-1.84761	k E	-1.284519
-1.402235	k I	-1.723907
-1.483041	k P	0.02063274
-1.223448	k Q	-1.129989
-2.648026	k S	-0.8975233
-2.823396	k U	-0.7556475
-1.50324	k V	-1.346168
-2.648026	k d	-0.9095948
-2.04705	k i	-1.332197
-1.895888	k j	-0.9757993
-1.306983	k l	-1.894734
-2.648026	k m	-0.8161663
-2.426755	k n	-1.096314
-1.065857	k r	0.3477366
-1.167503	k s	-2.024406
-1.386151	k t	-1.704313
-1.922201	k u	-1.194202
-3.122271	k v	-0.5125263
-1.218054	k w	-0.8121479
-1.177154	k {	-1.358697
-1.175827	l #	-1.497767
-1.999428	l $	-1.164192
-1.601705	l 1	-1.08413
-2.175339	l 3	-1.168398
-1.425662	l 5	-1.541611
-0.7608871	l </s>
-0.9855146	l @	-1.674688
-1.279562	l E	-1.607718
-0.8212687	l I	-1.661037
-2.379133	l J	-0.7744011
-1.425662	l Q	-1.594485
-2.775775	l S	-0.5735881
-2.475827	l T	-0.8574246
-2.600405	l U	-0.814172
-1.39764	l V	-1.459996
-2.475827	l _	-0.7708489
-2.300097	l b	-1.128411
-1.522548	l d	-1.681987
-2.037184	l f	-1.264842
-2.600405	l g	-0.7357384
-1.487795	l i	-1.467557
-1.999428	l j	-0.5856603
-1.848267	l k	-1.459664
-2.124247	l m	-1.125708
-2.775775	l n	-0.562363
-1.902591	l p	-1.298515
-3.07465	l r	-0.4775521
-1.902591	l s	-1.283952
-1.406781	l t	-1.568325
-1.717055	l u	-1.232639
-2.175339	l v	-1.024457
-1.110442	l {	-1.581031
-1.230574	m #	-1.274863
-1.896442	m $	-0.9501864
-1.761849	m 1	-1.024096
-2.335085	m 3	-0.9621689
-1.615803	m 5	-0.7908995
-0.7423021	m </s>
-0.8967972	m @	-1.424069
-1.336061	m E	-1.304377
-0.9696998	m I	-1.594455
-2.092511	m P	0.7978075
-1.636982	m Q	-1.225119
-2.635033	m S	-0.7609689
-2.933908	m U	-0.4324343
-1.30466	m V	-1.364192
-1.174727	m b	-1.732466
-2.459663	m d	-0.882644
-2.092511	m f	-0.9448913
-1.858686	m i	-1.222979
-1.791791	m j	-0.8937162
-2.933908	m k	-0.5219538
-2.933908	m l	-0.5160683
-2.335085	m n	-0.9805275
-0.8774938	m p	-1.971953
-2.933908	m r	-0.5136797
-2.635033	m s	-0.7558606
-2.635033	m t	-0.7654729
-2.238392	m u	-1.126352
-2.238392	m z	-0.9794766
-1.145768	m {	-1.40468
-1.594336	n #	-1.206737
-2.347069	n $	-1.082609
-2.125509	n 1	-1.188973
-1.694418	n 5	-1.46304
-0.4698352	n </s>
-1.239396	n @	-1.3614
-1.870429	n E	-1.371757
-1.113064	n I	-1.609692
-1.67863	n J	-1.419478
-1.949562	n P	0.480127
-1.803517	n Q	-1.288941
-2.647377	n S	-0.7016137
-2.125509	n T	-0.9108356
-2.822747	n U	-0.7556475
-2.171218	n V	-1.237396
-1.67863	n _	-1.524006
-0.9891907	n d	-1.799639
-2.084156	n f	-1.367804
-2.822747	n h	-0.6804565
-2.347069	n i	-1.017288
-1.694418	n j	-0.7488859
-2.522799	n k	-1.008533
-3.121622	n l	-0.4684559
-1.212076	n s	-1.753041
-0.9164011	n t	-1.832119
-2.084156	n u	-1.263764
-1.979505	n v	-1.383134
-1.895239	n z	-1.23683
-1.870429	n {	-1.342455
-1.193644	p #	-1.412178
-1.949161	p $	-1.078734
-1.606975	p 1	-1.313152
-1.907808	p 3	-1.231809
-1.773214	p 5	-1.103285
-0.7705892	p </s>
-1.136615	p @	-1.469959
-1.250538	p E	-1.40429
-1.074476	p I	-1.587374
-1.502282	p P	0.2145873
-1.268263	p Q	-1.508202
-2.17072	p U	-1.086689
-1.569203	p V	-1.344587
-1.745204	p i	-1.38894
-1.670613	p j	-0.8075298
-2.471028	p k	-0.9036915
-1.074476	p l	-1.977777
-2.945274	p m	-0.5174183
-2.471028	p n	-0.9163368
-0.9242481	p r	-1.392904
-1.949161	p s	-1.188352
-1.870052	p t	-1.079706
-1.773214	p u	-1.286815
-1.117022	p {	-1.559026
-0.9310686	r #	-1.729799
-1.779224	r $	-1.020149
-1.238596	r 1	-1.295029
-1.128736	r 5	-1.007263
-0.8763337	r @	-1.781178
-1.219294	r E	-1.335234
-0.6761707	r I	-1.583865
-1.194823	r Q	-1.342574
-2.154573	r U	-1.18453
-1.194823	r V	-1.724759
-1.219294	r i	-1.273464
-3.053885	r j	-0.1222414
-1.386016	r u	-1.404731
-1.032859	r {	-1.607033
-1.571207	s #	-1.556444
-2.250051	s $	-1.099625
-2.250051	s 1	-1.087319
-1.974072	s 3	-1.42542
-1.974072	s 5	-1.271307
-0.6707376	s </s>
-1.464335	s @	-1.161334
-1.591887	s E	-1.400637
-2.125233	s H	-0.04997396
-1.100938	s I	-1.700999
-1.773252	s P	0.3719634
-1.974072	s Q	-1.387601
-2.90158	s U	-0.7600925
-2.058338	s V	-1.264343
-3.200455	s b	-0.5220771
-2.504939	s f	-1.046968
-1.84286	s i	-1.198872
-2.504939	s j	-0.6007953
-0.9352401	s k	-2.18253
-1.398529	s l	-1.979087
-1.824384	s m	-1.575121
-1.602608	s n	-2.017023
-1.121955	s p	-1.400298
-0.6862493	s t	-1.725338
-2.301144	s u	-1.082913
-1.581424	s w	-0.7690115
-1.88235	s {	-1.328945
-1.440894	t #	-1.046517
-2.082567	t $	-1.15977
-1.854225	t 1	-1.179265
-1.895598	t 3	-1.314889
-1.573492	t 5	-1.174679
-0.3536057	t </s>
-1.060092	t @	-1.342166
-1.448579	t E	-1.266417
-1.992453	t H	-0.5134877
-1.17977	t I	-1.503393
-1.605669	t P	0.07249475
-1.895598	t Q	-1.242096
-2.718278	t U	-0.814172
-1.874419	t V	-1.263551
-3.192523	t f	-0.5273004
-1.705343	t i	-1.319792
-1.941331	t j	-1.00004
-3.192523	t k	-0.5256545
-2.893649	t l	-0.7236343
-2.893649	t m	-0.7121331
-3.192523	t n	-0.504669
-0.9899918	t r	-0.6411095
-2.117302	t s	-1.391984
-2.020464	t u	-1.303825
-1.798731	t w	-1.026826
-1.440894	t {	-1.267062
-2.464646	u #	-0.517502
-2.464646	u $	-0.4884315
-0.7528805	u </s>
-1.865823	u @	-0.9326367
-2.464646	u D	-0.4055973
-2.464646	u E	-0.5047603
-1.690093	u I	-1.061019
-1.990401	u J	-0.574428
-2.464646	u T	-0.3642907
-2.464646	u Z	-0.3764081
-1.690093	u _	-0.9066869
-1.389424	u b	-1.157639
-1.189985	u d	-1.241526
-2.165771	u f	-0.7099857
-1.690093	u g	-1.053337
-2.464646	u h	-0.5312262
-1.389424	u k	-1.273322
-1.35469	u l	-1.294288
-1.189985	u m	-1.381832
-0.7699105	u n	-1.740345
-1.107051	u p	-1.501657
-1.238263	u s	-1.250091
-1.088575	u t	-1.286668
-1.623249	u v	-0.9730959
-1.389424	u z	-1.160976
-1.220191	v #	-1.076956
-1.847751	v $	-0.9089054
-1.847751	v 1	-0.9343693
-1.220191	v 3	-1.378644
-1.847751	v 5	-0.9388779
-0.7184213	v </s>
-0.9322499	v @	-1.367751
-1.108275	v E	-1.253105
-1.547263	v H	-0.2234266
-0.6949444	v I	-1.666929
-1.088979	v P	0.2986245
-1.496171	v Q	-1.275149
-2.446574	v U	-0.4324343
-1.972329	v V	-0.8751592
-2.147699	v i	-0.6749715
-2.147699	v j	-0.1185665
-2.147699	v l	-0.6999829
-1.847751	v r	-0.8604494
-1.246504	v {	-1.219768
-0.9157531	w #	-1.548004
-1.064635	w $	-1.320637
-1.503622	w 1	-1.133865
-1.327712	w 3	-1.207021
-1.62838	w 5	-1.083448
-2.104059	w @	-0.6710298
-0.9599418	w E	-1.473212
-0.5498621	w I	-1.829145
-0.7839022	w Q	-1.412883
-1.928688	w U	-0.8618743
-1.202864	w i	-1.14735
-1.928688	w u	-0.8081764
-1.406821	w {	-1.3253
-1.619102	z #	-0.8179501
-1.840373	z 1	-0.8229731
-1.540065	z 3	-1.041608
-2.015743	z 5	-0.5290098
-0.3843904	z </s>
-1.088235	z @	-1.369655
-1.239396	z E	-1.184254
-1.142559	z H	0.6342145
-1.017692	z I	-1.245961
-1.088235	z P	0.4271632
-1.840373	z Q	-0.8329921
-2.314618	z V	-0.4526857
-2.015743	z _	-0.7490332
-2.015743	z b	-0.6866772
-1.715795	z i	-0.8947031
-1.715795	z l	-0.9615898
-1.540065	z m	-1.13339
-2.015743	z u	-0.7529443
-2.314618	z {	-0.4974236
-2.600664	{ D	-0.5369014
-1.903426	{ J	-0.8846232
-1.155595	{ N	0.4344473
-1.673156	{ S	-1.390053
-2.899539	{ T	-0.5349313
-2.899539	{ Z	-0.4651667
-2.300716	{ _	-0.9507874
-1.602613	{ b	-1.484474
-1.648346	{ d	-1.313148
-1.56124	{ f	-1.429046
-1.335541	{ g	-1.479098
-1.03457	{ k	-2.047787
-1.0587	{ l	-1.851152
-0.9306861	{ m	-2.00927
-0.8000222	{ n	-1.749415
-1.426594	{ p	-1.734657
-1.140357	{ r	-1.950988
-1.09088	{ s	-1.660808
-1.140357	{ t	-1.615427
-1.581434	{ v	-1.526
-1.699469	{ z	-1.123208

\3-grams:
-0.147967	5 # l	-0.2636894
-0.3222045	<s> # I	-1.252128
-0.9900762	<s> # U	-0.8473759
-1.464321	<s> # _	0.04527563
-1.165447	<s> # g	-0.6271307
-1.165447	<s> # k	-0.686955
-1.165447	<s> # m	-0.6092985
-1.464321	<s> # n	-0.4234422
-1.464321	<s> # s	-0.5265701
-0.9900762	<s> # t	-0.7643632
-0.147967	D # I	-0.4810704
-0.379494	I # R	1.217299
-0.379494	I # n	-0.4234422
-0.1540336	J # I	-1.135878
-0.5790996	J # n	-0.7522425
-0.379494	S # I	-0.4521902
-0.379494	S # l	-0.2636894
-0.08061931	T # U	-0.7269462
-0.1540336	_ # I	-1.122375
-0.7544701	_ # U	-0.7258826
-1.053345	_ # m	-0.3964877
-0.3423995	b # I	-1.234306
-1.269908	b # R	0.9857715
-0.7942293	b # U	-0.9327528
-0.873266	b # b	-0.806667
-1.568782	b # g	-0.4690377
-1.269908	b # l	-0.5892472
-1.269908	b # n	-0.6349487
-1.269908	b # s	-0.5753584
-0.1819121	d # I	-1.420505
-1.004593	d # R	0.8355608
-0.8800148	d # U	-0.7614883
-1.478838	d # b	-0.3516566
-1.478838	d # f	-0.02497786
-1.478838	d # n	-0.4234422
-0.1651956	f # I	-1.190353
-0.5907124	f # U	-1.004901
-1.365265	f # s	-0.4406027
-1.04744	g # </s>
-1.04744	g # I	-0.7111648
-0.8720691	g # R	0.8355608
-0.8720691	g # U	-0.736756
-1.346314	g # b	-0.4554281
-1.346314	g # d	-0.4893235
-0.8720691	g # g	-0.7773415
-0.7474912	g # l	-0.3172281
-1.04744	g # n	-0.7077431
-1.346314	g # s	-0.4711887
-1.544927	h # </s>
-0.3728679	h # I	-1.260325
-0.7703741	h # U	-0.8520267
-1.544927	h # d	-0.3679867
-1.544927	h # f	-0.02497786
-1.544927	h # h	-0.3874955
-1.246053	h # l	-0.05562121
-1.246053	h # m	-0.7387377
-1.544927	h # p	-0.4759586
-1.544927	h # r	-0.4651667
-1.544927	h # s	-0.4711887
-1.246053	h # t	-0.6003719
-1.544927	h # v	-0.4268366
-0.147967	i # U	-0.5106046
-0.379494	j # U	-0.5143194
-0.379494	j # d	-0.3679867
-1.698282	k # </s>
-0.7021688	k # I	-1.208939
-0.6608155	k # U	-0.8887755
-1.224036	k # b	-0.8090572
-0.8568848	k # d	-1.030665
-1.698282	k # f	-0.39799
-1.698282	k # g	-0.336548
-1.698282	k # k	-0.4554281
-1.698282	k # l	-0.2636894
-1.698282	k # m	-0.3964877
-1.698282	k # n	-0.5161679
-1.399407	k # p	-0.6437453
-1.224036	k # r	-0.6464616
-1.224036	k # s	-0.7933623
-1.099458	k # t	-0.9626358
-0.3141881	l # I	-0.9772257
-0.7009727	l # U	-0.8400514
-1.602168	l # d	-0.5995136
-1.602168	l # g	-0.568075
-1.901043	l # l	-0.2636894
-1.30222	l # m	-0.6962039
-1.059646	l # n	-0.9934164
-1.12649	l # s	-0.558997
-1.901043	l # t	-0.3826255
-1.602168	l # z	-0.3862245
-1.706811	m # </s>
-0.4556184	m # I	-1.311023
-0.8654141	m # U	-1.09462
-1.407936	m # _	0.3501837
-1.706811	m # b	-0.4554281
-1.706811	m # d	-0.4016437
-1.706811	m # g	-0.5055238
-1.407936	m # h	-0.3862245
-1.407936	m # k	-0.686955
-1.107988	m # m	-0.6962039
-1.706811	m # n	-0.5161679
-1.706811	m # r	-0.4651667
-1.407936	m # s	-0.5753584
-1.011294	m # t	-0.9613013
-1.407936	m # v	-0.5076263
-1.706811	m # z	-0.3874955
-0.3324195	n # I	-1.295891
-1.058244	n # R	0.8355608
-0.8369731	n # U	-0.8143829
-1.233615	n # l	-0.6894702
-1.058244	n # n	-0.8051799
-1.53249	n # r	-0.4651667
-1.233615	n # s	-0.7312886
-1.233615	n # t	-0.6797153
-1.754742	p # </s>
-0.378671	p # I	-1.395803
-1.455867	p # R	0.9857715
-1.455867	p # S	-0.3862245
-0.8043384	p # U	-0.974972
-1.455867	p # d	-0.7039865
-1.455867	p # k	-0.5302693
-1.155919	p # l	-0.7568233
-1.754742	p # m	-0.4237936
-1.059225	p # s	-0.8317186
-1.059225	p # t	-0.814073
-0.2958911	r # I	-0.9364983
-0.6369621	r # U	-0.4183044
-2.124142	r # _	0.04527563
-1.173739	r # f	0.1849144
-1.825268	r # g	-0.568075
-1.649897	r # l	-0.6192841
-1.825268	r # m	-0.5443577
-1.173739	r # n	-0.9903451
-1.282746	r # s	-0.900589
-1.825268	r # t	-0.5746665
-0.09349771	s # I	-1.376724
-1.334494	s # U	-0.5405635
-1.633368	s # Z	0
-1.633368	s # _	0.04527563
-1.633368	s # d	-0.5150137
-1.334494	s # m	-0.7282376
-1.633368	s # v	-0.4268366
-0.4164431	t # I	-1.384851
-1.754742	t # J	0
-0.9801887	t # R	0.5620519
-1.754742	t # S	-0.3874955
-0.8554307	t # U	-0.8568046
-1.455867	t # d	-0.5995136
-1.754742	t # f	-0.39799
-1.754742	t # g	-0.4690377
-1.280497	t # k	-0.6066938
-1.455867	t # l	-0.5892472
-1.754742	t # m	-0.4737388
-1.455867	t # n	-0.7209445
-1.155919	t # p	-0.7044374
-1.754742	t # s	-0.4561649
-1.455867	t # t	-0.6246405
-0.147967	u # n	-0.4234422
-0.1267709	v # I	-1.28408
-1.236727	v # U	-0.4876227
-1.236727	v # n	-0.4234422
-0.9378521	v # s	-0.5097624
-0.116814	w # I	-1.440438
-1.492885	w # f	-0.02497786
-1.492885	w # k	-0.3516566
-1.492885	w # m	-0.4737388
-1.01864	w # n	-0.7522425
-1.492885	w # w	0
-0.4308032	z # I	-0.7471128
-0.2554328	z # R	0.8355608
-0.147967	1 $ t	-0.4680136
-1.165447	<s> $ T	-0.3862245
-1.165447	<s> $ b	-0.3544317
-0.3890997	<s> $ d	-1.188022
-0.8654983	<s> $ g	-0.3898375
-1.464321	<s> $ l	-0.4857101
-1.464321	<s> $ m	-0.4554281
-1.464321	<s> $ n	-0.512566
-0.768805	<s> $ r	-0.005845428
-1.464321	<s> $ t	-0.4680136
-0.147967	I $ R	1.252887
-0.147967	J $ t	-0.5225764
-0.05545961	S $ </s>
-0.08061931	T $ r	-0.6414462
-0.05545961	_ $ n	-0.7771755
-1.013546	b $ b	-0.3764081
-1.013546	b $ d	-0.5218968
-0.5393012	b $ l	-0.7155677
-0.7146717	b $ r	-0.6414462
-0.5393012	b $ s	-0.7540494
-0.7624816	d $ </s>
-0.3374156	d $ R	0.4798634
-1.236727	d $ d	-0.5218968
-1.236727	d $ f	-0.3382596
-0.9378521	d $ n	-0.4161115
-0.9378521	d $ r	-0.6414462
-1.0898	f $ </s>
-1.0898	f $ f	-0.3382596
-0.6155551	f $ l	-0.8484736
-0.3942839	f $ m	-0.6254662
-1.0898	f $ n	-0.512566
-1.0898	f $ s	-0.4352718
-0.6411009	g $ g	-0.2647239
-0.6411009	g $ n	-0.4205027
-0.3422262	g $ r	-0.5765541
-0.8660825	h $ </s>
-0.8660825	h $ l	-0.4244621
-0.8660825	h $ m	-0.4554281
-0.2672595	h $ n	-0.7449303
-0.147967	j $ d	-0.4223545
-1.433746	k $ </s>
-1.433746	k $ J	0
-1.134871	k $ R	1.02136
-1.134871	k $ b	-0.4962508
-0.959501	k $ d	-0.6958466
-1.433746	k $ g	-0.4651667
-1.433746	k $ k	-0.4268366
-1.433746	k $ l	-0.5133727
-0.659193	k $ n	-0.9462863
-0.8349231	k $ p	0.08857691
-1.433746	k $ r	-0.3450271
-1.134871	k $ s	-0.6138845
-1.134871	k $ t	-0.5473434
-0.7909256	l $ R	1.02136
-0.7909256	l $ d	-0.5036846
-0.7909256	l $ n	-0.5673792
-1.0898	l $ r	-0.3450271
-0.6155551	l $ t	-0.6683958
-0.7909256	l $ z	0
-0.7544701	m $ R	1.02136
-1.053345	m $ d	-0.5218968
-0.5790996	m $ l	-0.4520601
-0.7544701	m $ n	-0.6954995
-1.053345	m $ r	-0.5163091
-0.7544701	m $ t	-0.6995406
-0.504339	n $ R	1.02136
-0.8032137	n $ k	-0.4268366
-0.8032137	n $ s	-0.4902496
-0.504339	n $ t	-0.6995406
-1.013546	p $ R	1.252887
-0.5393012	p $ l	-0.6357045
-1.013546	p $ n	-0.3659399
-1.013546	p $ p	-0.1875223
-1.013546	p $ s	-0.4902496
-0.5393012	p $ t	-0.7356075
-1.283928	r $ </s>
-1.283928	r $ R	1.252887
-0.9850532	r $ d	-0.6538815
-0.3846167	r $ l	-1.063743
-1.283928	r $ m	-0.4554281
-0.6851048	r $ n	-0.8590739
-1.283928	r $ r	-0.3450271
-1.283928	r $ t	-0.3826255
-0.6708549	s $ R	1.02136
-0.4954844	s $ l	-0.8061998
-0.6708549	s $ n	-0.6520297
-0.6708549	s $ r	-0.362738
-0.649186	t $ R	0.8711494
-0.8245565	t $ l	-0.5222462
-0.8245565	t $ m	-0.5933211
-0.649186	t $ n	-0.8457103
-1.123431	t $ s	-0.4902496
-0.8245565	t $ t	-0.6902364
-0.147967	u $ R	1.252887
-0.6411009	v $ l	-0.4244621
-0.1668558	v $ t	-0.697554
-1.346314	w $ </s>
-1.346314	w $ T	-0.3874955
-1.346314	w $ b	-0.3764081
-1.04744	w $ d	-0.6171291
-0.8720691	w $ f	-0.56926
-1.04744	w $ k	-0.5076263
-0.6507979	w $ l	-0.7641846
-1.346314	w $ m	-0.4066344
-1.346314	w $ n	-0.3659399
-0.6507979	w $ t	-0.9082404
-1.183763	<s> 1 $	0
-0.8848883	<s> 1 f	0
-0.7095179	<s> 1 g	-0.7640952
-0.8848883	<s> 1 k	-0.6331195
-0.8848883	<s> 1 l	-0.6518687
-0.8848883	<s> 1 n	-0.7470536
-0.7095179	<s> 1 p	-0.8492805
-0.4308032	I 1 t	-0.6106604
-0.2554328	I 1 z	-0.4164535
-0.379494	J 1 n	-0.4902772
-0.379494	J 1 s	-0.3085409
-0.05545961	S 1 </s>
-0.08061931	Z 1 </s>
-0.9209907	b 1 @	0.231527
-0.622116	b 1 T	0
-0.9209907	b 1 g	-0.3723117
-0.9209907	b 1 l	-0.4390579
-0.4467456	b 1 s	-0.578474
-0.8557692	d 1 </s>
-1.154644	d 1 I	0
-1.154644	d 1 b	-0.5079681
-0.8557692	d 1 d	-0.7139025
-1.154644	d 1 g	-0.3723117
-1.154644	d 1 k	-0.4464328
-1.154644	d 1 n	-0.06017253
-0.6803988	d 1 t	-0.7608711
-1.154644	d 1 v	-0.4743111
-1.154644	d 1 z	-0.5079681
-0.504339	f 1 b	-0.4818844
-0.504339	f 1 n	-0.07788336
-0.504339	f 1 v	-0.705838
-0.147967	g 1 S	-0.3049083
-0.5297047	h 1 l	-0.5163091
-0.5297047	h 1 s	-0.3085409
-0.5297047	h 1 v	-0.4743111
-0.5717611	k 1 </s>
-1.346314	k 1 E	0
-1.346314	k 1 Q	0
-1.04744	k 1 b	-0.3551839
-0.8720691	k 1 d	-0.5907822
-0.8720691	k 1 l	-0.2871696
-0.7474912	k 1 p	-0.9063809
-1.04744	k 1 t	-0.003336191
-0.7042847	l 1 </s>
-1.478838	l 1 S	-0.3049083
-1.478838	l 1 b	-0.2503575
-0.8800148	l 1 d	-0.3982009
-1.478838	l 1 g	-0.4902496
-1.478838	l 1 k	-0.05439121
-1.179963	l 1 l	-0.4075783
-1.004593	l 1 m	0.1113962
-1.179963	l 1 n	-0.07788336
-1.478838	l 1 s	-0.3085409
-0.8800148	l 1 t	-0.6909119
-1.179963	l 1 v	-0.4818844
-1.179963	l 1 z	-0.2662429
-1.183763	m 1 </s>
-1.183763	m 1 _	-0.4268366
-1.183763	m 1 d	-0.5211603
-1.183763	m 1 g	-0.4352718
-0.58494	m 1 n	-0.3945379
-1.183763	m 1 p	-0.4571204
-0.8848883	m 1 s	-0.5400679
-0.8848883	m 1 t	-0.7432349
-1.183763	m 1 v	-0.4743111
-1.183763	m 1 z	-0.1873973
-0.7146717	n 1 b	-0.6398236
-0.7146717	n 1 d	-0.634559
-1.013546	n 1 k	-0.05439121
-0.7146717	n 1 l	-0.4075783
-1.013546	n 1 p	-0.5135649
-1.013546	n 1 t	-0.2164941
-1.013546	n 1 v	-0.5079681
-1.04744	p 1 </s>
-1.346314	p 1 d	-0.2090445
-1.346314	p 1 g	-0.4352718
-1.346314	p 1 k	-0.05439121
-0.5717611	p 1 n	-0.501603
-0.4470031	p 1 s	-0.1890129
-1.04744	p 1 t	-0.003336191
-1.346314	p 1 z	-0.5079681
-0.7805116	r 1 </s>
-1.817978	r 1 @	0.231527
-1.817978	r 1 b	-0.4743111
-0.9186664	r 1 d	-0.5992569
-1.519103	r 1 k	-0.2859182
-1.817978	r 1 l	-0.1760513
-1.817978	r 1 m	0.4931339
-0.7080216	r 1 n	-0.8768681
-1.122461	r 1 p	-0.9843127
-1.519103	r 1 s	-0.5400679
-0.8218648	r 1 t	-0.6373885
-1.122461	r 1 v	-0.7053677
-1.043424	r 1 z	-0.6899625
-0.6708549	s 1 </s>
-0.6708549	s 1 b	-0.2662429
-0.9697295	s 1 d	-0.2090445
-0.9697295	s 1 g	-0.3723117
-0.6708549	s 1 l	-0.4075783
-0.9697295	s 1 n	-0.4770798
-1.346314	t 1 </s>
-1.04744	t 1 _	-0.2748283
-0.8720691	t 1 b	-0.4164535
-1.346314	t 1 d	-0.2090445
-1.346314	t 1 k	-0.05439121
-1.346314	t 1 l	-0.5163091
-0.8720691	t 1 n	-0.228094
-0.8720691	t 1 p	-0.7478228
-0.5717611	t 1 t	-0.2358572
-1.346314	t 1 v	-0.2503575
-0.1668558	v 1 </s>
-0.6411009	v 1 l	-0.1760513
-0.9209907	w 1 _	-0.04330134
-0.9209907	w 1 d	-0.2090445
-0.9209907	w 1 k	-0.05439121
-0.622116	w 1 l	-0.4075783
-0.622116	w 1 n	-0.2655565
-0.9209907	w 1 s	-0.3085409
-0.23083	z 1 </s>
-0.5297047	z 1 l	-0.5163091
-0.5297047	<s> 3 J	-0.3874955
-0.23083	<s> 3 n	-0.622982
-0.147967	J 3 v	-0.3284948
-0.147967	S 3 b	-0.09820801
-0.379494	T 3 m	-0.5135649
-0.379494	T 3 s	-0.2986509
-0.5297047	_ 3 k	-0.4554281
-0.23083	_ 3 z	0
-0.7909256	b 3 D	0
-0.6155551	b 3 b	-0.3381265
-1.0898	b 3 d	-0.4840106
-0.7909256	b 3 g	-0.2824612
-1.0898	b 3 l	-0.4952264
-0.7909256	b 3 s	-0.5301778
-1.0898	b 3 t	-0.4494838
-0.3422262	d 3 b	-0.6667988
-0.6411009	d 3 m	-0.4571204
-0.6411009	d 3 n	-0.4952264
-0.6411009	f 3 l	-0.4952264
-0.6411009	f 3 n	-0.4952264
-0.6411009	f 3 s	-0.2986509
-0.6411009	f 3 v	-0.3284948
-0.379494	g 3 d	-0.3473897
-0.379494	g 3 g	-0.2760993
-0.7296779	h 3 d	-0.3473897
-0.7296779	h 3 m	-0.1682746
-0.7296779	h 3 p	-0.4902496
-0.7296779	h 3 s	-0.4902496
-0.7296779	h 3 t	-0.4737388
-0.147967	j 3 R	0.9418333
-1.123431	k 3 R	0.9418333
-0.8245565	k 3 _	-0.433382
-1.123431	k 3 d	-0.3473897
-1.123431	k 3 f	-0.3049083
-0.8245565	k 3 l	-0.4073404
-0.8245565	k 3 m	-0.3468873
-1.123431	k 3 n	-0.4952264
-0.649186	k 3 t	-0.3437306
-0.4467456	l 3 R	0.5600955
-0.622116	l 3 _	-0.433382
-0.9209907	l 3 p	-0.2986509
-0.622116	l 3 t	-0.5339838
-0.6411009	m 3 J	-0.1546975
-0.6411009	m 3 d	-0.4210505
-0.6411009	m 3 k	-0.4554281
-0.6411009	m 3 s	-0.4902496
-1.053345	p 3 J	-0.1546975
-1.053345	p 3 R	0.9418333
-1.053345	p 3 d	-0.4210505
-1.053345	p 3 g	-0.4268366
-1.053345	p 3 m	-0.4571204
-0.7544701	p 3 n	-0.5600218
-0.7544701	p 3 p	-0.6138845
-0.7544701	p 3 s	-0.6667988
-1.236727	s 3 _	-0.4022979
-1.236727	s 3 d	-0.4840106
-1.236727	s 3 f	-0.3049083
-0.5412104	s 3 k	-0.8168573
-1.236727	s 3 p	-0.4352718
-0.6379037	s 3 t	-0.6368222
-0.6379037	s 3 v	-0.6689473
-0.610218	t 3 R	0.3601223
-1.305734	t 3 _	-0.4022979
-0.8314893	t 3 b	-0.4799457
-1.00686	t 3 k	-0.686955
-0.7069114	t 3 m	-0.6084942
-0.8314893	t 3 n	-0.4455773
-1.305734	t 3 p	-0.4902496
-1.305734	t 3 t	-0.4737388
-1.236727	v 3 R	0.9418333
-1.236727	v 3 _	-0.4759586
-1.236727	v 3 d	-0.4840106
-0.4621737	v 3 m	-0.7706069
-1.236727	v 3 s	-0.4902496
-0.3953301	v 3 t	-0.8278569
-1.0898	w 3 k	-0.4554281
-0.3152471	w 3 l	-0.7190862
-1.0898	w 3 m	-0.4571204
-1.0898	w 3 p	-0.2986509
-1.0898	w 3 t	-0.3024569
-0.7909256	w 3 v	-0.5600218
-0.8032137	z 3 k	-0.4992892
-0.504339	z 3 p	-0.5301778
-0.8032137	z 3 t	-0.3024569
-0.504339	z 3 v	-0.5600218
-0.6122288	<s> 5 b	-0.7321061
-1.211052	<s> 5 d	-0.2548341
-1.211052	<s> 5 g	-0.2886965
-1.211052	<s> 5 k	-0.3766716
-0.9121771	<s> 5 m	-0.6748283
-1.211052	<s> 5 n	-0.5232055
-0.7368066	<s> 5 p	-0.8436978
-0.7368066	<s> 5 v	-0.7202784
-0.1570413	I 5 </s>
-1.383424	I 5 d	-0.4464328
-1.383424	I 5 k	-0.3766716
-1.08455	I 5 l	-0.7111429
-0.9091792	I 5 t	-0.7307833
-0.379494	J 5 </s>
-0.379494	J 5 k	-0.3766716
-0.147967	S 5 g	-0.4992892
-0.6411009	_ 5 </s>
-0.3422262	_ 5 k	-0.6854497
-0.6411009	_ 5 l	-0.3649667
-0.4195716	b 5 </s>
-1.260968	b 5 @	0
-1.260968	b 5 g	-0.2886965
-0.6621453	b 5 l	-0.7867988
-0.6621453	b 5 n	-0.4849347
-1.260968	b 5 s	-0.3395615
-0.2087062	d 5 </s>
-1.283928	d 5 b	-0.4292027
-0.9850532	d 5 l	-0.7290878
-1.283928	d 5 m	-0.5150137
-1.283928	d 5 n	-0.1587227
-0.9850532	d 5 t	-0.5357603
-0.7296779	f 5 k	-0.3766716
-0.4308032	f 5 l	-0.6523782
-0.7296779	f 5 m	-0.4620175
-0.7296779	f 5 n	-0.5232055
-0.1199313	g 5 </s>
-1.346314	g 5 d	-0.2548341
-1.346314	g 5 l	-0.4208512
-0.8720691	g 5 s	-0.6713252
-0.7296779	h 5 b	-0.5055238
-0.4308032	h 5 l	-0.6523782
-0.4308032	h 5 s	-0.5710885
-0.5297047	i 5 l	-0.3649667
-0.23083	i 5 t	-0.7432349
-0.7296779	j 5 </s>
-0.7296779	j 5 d	-0.4952264
-0.4308032	j 5 g	-0.4564831
-0.7296779	j 5 k	-0.5194856
-1.602275	k 5 #	0
-0.4302156	k 5 </s>
-1.602275	k 5 b	-0.5055238
-1.3034	k 5 d	-0.4863611
-1.12803	k 5 k	-0.6089413
-0.7608783	k 5 l	-1.026311
-1.003452	k 5 m	-0.8246344
-1.3034	k 5 p	-0.4906616
-0.9067586	k 5 s	-0.5503734
-0.209934	l 5 </s>
-1.354051	l 5 T	0.2616069
-1.652926	l 5 b	-0.4690377
-1.652926	l 5 g	-0.2886965
-0.9574094	l 5 k	-0.3324965
-1.178681	l 5 n	-0.5404605
-1.354051	l 5 p	-0.612944
-1.652926	l 5 s	-0.3395615
-1.354051	l 5 t	-0.4293049
-1.027623	m 5 </s>
-1.326498	m 5 d	-0.4464328
-1.326498	m 5 g	-0.4992892
-1.326498	m 5 k	-0.3766716
-0.7276751	m 5 l	-0.8533666
-1.326498	m 5 m	-0.3315005
-0.7276751	m 5 n	-0.5295742
-1.027623	m 5 p	-0.6830871
-1.326498	m 5 s	-0.3395615
-0.852253	m 5 t	-0.6724479
-1.326498	m 5 z	-0.3382596
-0.2616868	n 5 </s>
-1.134871	n 5 d	-0.5700677
-0.8349231	n 5 m	-0.1769261
-1.134871	n 5 s	-0.7337277
-0.959501	n 5 t	-0.7307833
-1.433746	n 5 v	-0.391455
-0.58494	p 5 </s>
-1.183763	p 5 I	0
-0.4882466	p 5 l	-1.054461
-1.183763	p 5 m	-0.4620175
-1.183763	p 5 s	-0.3395615
-1.183763	p 5 t	-0.4162593
-0.8848883	p 5 z	0.3501838
-0.5511674	r 5 </s>
-1.628363	r 5 J	0
-1.927238	r 5 S	0
-1.628363	r 5 T	0.2616069
-1.927238	r 5 b	-0.4690377
-1.328415	r 5 f	-0.4554912
-1.452993	r 5 g	-0.7985793
-1.452993	r 5 k	-0.5056098
-0.8897722	r 5 l	-1.230393
-1.452993	r 5 m	-0.4092605
-0.9768348	r 5 n	-0.8582026
-1.628363	r 5 p	-0.612944
-1.328415	r 5 s	-0.4617966
-0.9311255	r 5 t	-0.6799169
-1.328415	r 5 v	-0.747968
-1.628363	r 5 z	-0.4190492
-0.6379037	s 5 </s>
-0.7624816	s 5 b	-0.7773415
-1.236727	s 5 d	-0.2548341
-1.236727	s 5 f	-0.4499438
-0.3953301	s 5 l	-0.9482433
-1.236727	s 5 v	-0.4952264
-0.2849506	t 5 </s>
-1.623249	t 5 b	-0.4292027
-1.623249	t 5 g	-0.2886965
-1.324375	t 5 k	-0.3553991
-1.324375	t 5 l	-0.5964936
-1.324375	t 5 n	-0.3902497
-0.9277329	t 5 p	-0.9840851
-1.324375	t 5 s	-0.2001897
-1.024426	t 5 t	-0.6366161
-1.623249	t 5 v	-0.2548341
-0.6411009	v 5 k	-0.5194856
-0.6411009	v 5 l	-0.4975609
-0.3422262	v 5 s	-0.7337277
-0.504339	w 5 l	-0.6523782
-0.504339	w 5 n	-0.7379687
-0.504339	w 5 t	-0.4293049
-0.379494	z 5 </s>
-0.379494	z 5 m	-0.4620175
-0.08061931	1 @ n	-0.4182398
-0.147967	5 @ m	-0.1983372
-1.811389	<s> @ J	-0.4268366
-1.811389	<s> @ _	-0.201855
-1.115873	<s> @ b	-0.9746706
-1.337144	<s> @ d	-0.8533227
-1.212566	<s> @ f	-0.7578884
-1.115873	<s> @ k	-1.047727
-0.912078	<s> @ l	-1.285299
-0.9699925	<s> @ m	-1.251589
-1.115873	<s> @ n	-1.115541
-0.912078	<s> @ p	-1.104046
-1.115873	<s> @ r	-0.9319409
-0.8609858	<s> @ s	-1.332496
-1.811389	<s> @ t	-0.5336493
-1.512514	<s> @ v	-0.686955
-1.811389	<s> @ z	-0.511934
-0.1029413	D @ R	1.497857
-0.7544701	D @ m	-0.4298642
-0.1342838	E @ R	0.8988038
-1.698282	E @ d	-0.2594844
-1.399407	E @ n	-0.4393266
-0.8568848	E @ r	-0.6967942
-1.698282	E @ s	-0.002358437
-1.399407	E @ t	-0.7579671
-1.050622	I @ </s>
-0.3908121	I @ R	0.6628869
-2.192739	I @ S	-0.3874955
-2.192739	I @ b	-0.5037304
-1.418185	I @ d	-0.7717451
-1.196626	I @ l	-0.9979675
-1.418185	I @ m	-0.8543167
-1.155273	I @ n	-0.8724194
-1.893864	I @ p	-0.7135611
-0.8544399	I @ r	-1.289166
-1.242335	I @ s	-0.7419714
-1.196626	I @ t	-0.9431549
-2.192739	I @ v	-0.4992892
-1.0898	J @ </s>
-0.3942839	J @ R	1.737908
-1.0898	J @ d	-0.2594844
-1.0898	J @ l	-0.2782547
-1.0898	J @ n	-0.4843933
-0.7909256	J @ p	-0.6474516
-1.0898	J @ s	-0.002358437
-0.379494	N @ R	2.319619
-0.379494	N @ t	-0.5277732
-0.4954844	S @ </s>
-0.2742132	S @ l	-1.102868
-0.9697295	S @ n	-0.5286473
-0.504339	T @ </s>
-0.3289685	T @ d	-0.5773551
-0.8032137	T @ n	-0.5304728
-0.3049585	U @ R	1.121272
-1.344383	U @ d	-0.4910114
-0.8018605	U @ l	-0.9963703
-1.169012	U @ n	-0.5684505
-0.743946	U @ r	-1.086207
-1.344383	U @ s	-0.2338854
-0.147967	Z @ R	2.319619
-1.305734	_ @ </s>
-1.305734	_ @ R	2.319619
-0.2305127	_ @ n	-0.9579974
-0.8314893	_ @ p	-0.8743731
-0.8314893	_ @ r	-0.7755716
-1.081343	b @ </s>
-0.8775482	b @ R	1.546595
-1.776859	b @ Z	0
-1.477985	b @ b	-0.6538815
-1.776859	b @ d	-0.2594844
-1.081343	b @ l	-0.7647853
-0.6669034	b @ n	-1.094205
-1.178036	b @ r	-0.8078023
-0.8775482	b @ s	-0.6405435
-0.826456	b @ t	-0.8555536
-1.178036	b @ z	-0.932056
-0.6189431	d @ </s>
-0.4149316	d @ R	1.084162
-1.791002	d @ d	-0.2594844
-1.316757	d @ k	-0.751605
-1.095486	d @ l	-0.667864
-0.9496058	d @ m	-0.8525673
-1.095486	d @ n	-0.6719253
-1.492128	d @ r	-0.6202455
-1.027623	f @ </s>
-0.551945	f @ R	1.664373
-1.326498	f @ b	-0.5037304
-1.027623	f @ d	-0.7441136
-1.027623	f @ g	-0.5782822
-1.027623	f @ l	-0.5055579
-1.326498	f @ m	-0.5165754
-1.027623	f @ n	-0.7159203
-1.326498	f @ r	-0.5024571
-1.027623	f @ t	-0.36204
-1.009435	g @ </s>
-0.6418717	g @ R	1.312942
-1.309743	g @ l	-0.8827779
-1.783988	g @ m	-0.1983372
-0.5576055	g @ n	-1.245627
-1.088472	g @ r	-0.7886547
-1.185165	g @ s	-0.4954923
-1.088472	g @ t	-0.6760566
-1.009435	g @ z	-0.9737628
-0.08061931	h @ r	-0.7339841
-0.3422262	i @ </s>
-0.3422262	i @ n	-0.4393266
-0.4364987	j @ </s>
-0.9121771	j @ R	2.088092
-0.9121771	j @ d	-0.4910114
-1.211052	j @ m	-0.1983372
-0.6122288	j @ n	-0.7009335
-1.211052	j @ s	-0.002358437
-0.8935286	k @ </s>
-1.174167	k @ R	1.414241
-1.912759	k @ T	-0.6338249
-2.211633	k @ _	-0.4759586
-1.912759	k @ b	-0.6538815
-1.912759	k @ d	-0.3615485
-1.912759	k @ h	-0.6176731
-2.211633	k @ k	-0.5103891
-1.215521	k @ l	-0.8824607
-0.9852504	k @ m	-0.9970492
-0.475513	k @ n	-1.202192
-1.737388	k @ p	-0.8619283
-0.9604409	k @ r	-1.098358
-1.136412	k @ s	-0.8030046
-1.516117	k @ t	-0.6455736
-2.211633	k @ v	-0.4992892
-2.211633	k @ z	-0.4515601
-0.5506981	l @ </s>
-1.094456	l @ R	1.45404
-1.491746	l @ b	-0.8894818
-1.395052	l @ d	-0.7971625
-1.791694	l @ g	-0.6168686
-1.616324	l @ k	-0.6976956
-1.140165	l @ m	-0.7587013
-0.8159081	l @ n	-1.027154
-1.249172	l @ p	-1.115066
-1.316016	l @ r	-0.7460653
-1.015347	l @ s	-0.7459786
-1.015347	l @ t	-0.9946004
-0.537762	m @ </s>
-2.038726	m @ J	-0.4268366
-1.088323	m @ R	1.497857
-2.038726	m @ S	-0.3874955
-1.34321	m @ T	-0.6417465
-2.038726	m @ _	-0.201855
-1.739852	m @ d	-0.703112
-1.739852	m @ g	-0.7005646
-1.564481	m @ h	-0.6464616
-2.038726	m @ j	0
-1.34321	m @ k	-0.7967146
-1.564481	m @ l	-0.9095424
-2.038726	m @ m	-0.1983372
-0.6626556	m @ n	-1.199378
-1.088323	m @ r	-0.734045
-1.264173	m @ s	-0.4982291
-1.439903	m @ t	-0.5707096
-2.038726	m @ z	-0.511934
-0.3205341	n @ </s>
-1.585657	n @ J	-0.5076263
-1.585657	n @ R	2.088092
-1.585657	n @ d	-0.4841205
-1.189015	n @ k	-0.9185525
-1.585657	n @ l	-0.7245256
-1.109979	n @ m	-0.7382332
-1.043135	n @ n	-0.7279754
-1.585657	n @ r	-0.66425
-0.8470659	n @ s	-0.8255867
-1.884532	n @ t	-0.5157771
-1.115873	p @ </s>
-0.8152764	p @ R	1.45404
-1.811389	p @ _	-0.4022979
-1.811389	p @ d	-0.2594844
-1.811389	p @ g	-0.5055238
-1.512514	p @ l	-0.4576092
-0.8609858	p @ n	-0.8606646
-1.212566	p @ p	-0.9978675
-0.7739232	p @ r	-1.018298
-0.6393299	p @ s	-0.8191382
-1.337144	p @ t	-0.9020523
-1.811389	p @ v	-0.4992892
-1.512514	p @ z	-0.4906616
-0.8026498	r @ </s>
-1.579898	r @ R	1.826485
-2.17872	r @ S	-0.3874955
-2.17872	r @ _	-0.201855
-1.279409	r @ b	-0.9964952
-1.404168	r @ d	-0.8190234
-1.579898	r @ f	-0.8525918
-1.483204	r @ g	-0.7365805
-2.17872	r @ h	-0.4651667
-1.036604	r @ k	-0.987846
-0.7849283	r @ l	-1.526918
-1.228317	r @ m	-0.9664817
-0.9523376	r @ n	-1.169114
-1.483204	r @ p	-0.9410009
-1.036604	r @ s	-0.8222011
-1.141255	r @ t	-0.9763268
-1.704475	r @ v	-0.7435317
-1.44047	s @ </s>
-1.44047	s @ R	2.088092
-1.739345	s @ _	-0.201855
-1.739345	s @ f	-0.391455
-1.739345	s @ g	-0.5055238
-0.8979485	s @ k	-1.028406
-0.840034	s @ l	-0.9056948
-0.8979485	s @ m	-0.896696
-1.140522	s @ n	-1.011193
-1.043829	s @ p	-0.934653
-1.140522	s @ r	-0.801498
-0.840034	s @ s	-0.7753822
-1.44047	s @ t	-0.36204
-1.2651	s @ v	-0.68048
-0.8825362	t @ </s>
-0.4847409	t @ R	0.8146605
-1.834854	t @ b	-0.5914237
-1.359175	t @ d	-0.8190235
-2.133729	t @ f	-0.4952264
-1.834854	t @ k	-0.5683687
-1.438212	t @ l	-1.040168
-0.9916118	t @ m	-1.140234
-0.8825362	t @ n	-1.122861
-2.133729	t @ p	-0.5285146
-1.137616	t @ r	-0.9222249
-1.058507	t @ s	-0.9441917
-2.133729	t @ t	-0.5277732
-1.834854	t @ w	0
-0.3422262	u @ </s>
-0.3422262	u @ l	-0.5097817
-0.9208621	v @ </s>
-0.5692816	v @ R	1.497857
-1.519685	v @ _	-0.4022979
-1.22081	v @ d	-0.7031119
-1.519685	v @ k	-0.3698673
-0.9208621	v @ l	-0.9705373
-0.8241687	v @ n	-0.7710568
-1.519685	v @ r	-0.5024571
-0.8241687	v @ t	-0.6868876
-1.519685	v @ z	-0.4515601
-0.379494	w @ </s>
-0.379494	w @ l	-0.2782547
-0.9378521	z @ </s>
-0.3374156	z @ m	-0.9713609
-0.6379037	z @ n	-0.7009335
-0.9378521	z @ r	-0.7454225
-1.236727	z @ t	-0.130513
-0.08061931	3 D H	0.2616069
-0.6411009	<s> D #	0
-0.3422262	<s> D E	0
-0.6411009	<s> D I	0
-0.05545961	E D @	-0.2455932
-0.2389932	I D </s>
-0.4147233	I D @	-0.3569894
-0.08061931	V D @	-0.09538245
-0.08061931	i D H	0.2616069
-0.147967	u D </s>
-0.08061931	{ D @	-0.686955
-0.147967	1 E n	-0.5024571
-1.150428	<s> E @	-0.6961529
-1.449303	<s> E S	-0.4499438
-1.449303	<s> E T	-0.4022979
-1.449303	<s> E b	-0.4840106
-1.449303	<s> E d	-0.4445574
-1.150428	<s> E f	-0.5548042
-0.9750576	<s> E k	-0.676049
-0.9750576	<s> E l	-0.84905
-0.7537863	<s> E m	-0.2553598
-0.9750576	<s> E n	-0.875118
-1.449303	<s> E p	-0.4451919
-0.9750576	<s> E s	-0.4750347
-1.150428	<s> E v	-0.6693519
-0.379494	D E @	0.03566957
-0.379494	D E n	-0.5024571
-0.3221677	I E n	-0.8551903
-0.9209907	I E s	-0.1233848
-0.4467456	I E t	-0.5946118
-0.9209907	J E @	0.03566957
-0.9209907	J E d	-0.5174744
-0.9209907	J E l	-0.5188702
-0.3221677	J E r	-0.1500041
-0.9209907	J E s	-0.1233848
-0.6411009	S E @	0.03566957
-0.6411009	S E l	-0.5241084
-0.6411009	S E r	-0.2178022
-0.6411009	S E v	-0.4378249
-0.147967	T E f	-0.201855
-0.147967	U E t	-0.2128741
-1.183763	_ E k	-0.3581966
-0.7095179	_ E l	-0.8734251
-0.4092099	_ E n	-0.9023313
-1.183763	_ E r	-0.3531355
-0.7095179	_ E s	-0.5051225
-1.183763	_ E t	-0.4667017
-1.08455	b E @	-0.1360574
-1.383424	b E T	-0.4759586
-1.383424	b E d	-0.5174744
-1.383424	b E k	-0.2951601
-0.4841132	b E l	-0.9691313
-1.08455	b E n	-0.4820714
-0.6088712	b E r	0.1773257
-1.383424	b E s	-0.1233848
-1.383424	b E t	-0.2128741
-1.383424	b E v	-0.4743111
-1.101979	d E @	-0.1958574
-1.400854	d E b	-0.4840106
-1.400854	d E f	-0.201855
-1.400854	d E k	-0.2951601
-0.7053378	d E l	-0.8954203
-0.926609	d E m	-0.7087425
-0.8020312	d E n	-0.821206
-0.926609	d E p	-0.7609151
-1.400854	d E r	-0.2178022
-0.926609	d E s	-0.4302224
-1.400854	d E z	-0.3874955
-0.6263011	f E @	-0.3090522
-0.8020312	f E l	-0.982601
-0.8020312	f E n	-0.9079672
-1.101979	f E r	-0.4493292
-0.8020312	f E s	-0.6165187
-0.8020312	f E t	-0.9226737
-1.400854	f E z	-0.1546975
-0.6411009	g E k	-0.5329493
-0.6411009	g E s	-0.1233848
-0.3422262	g E t	-0.3893261
-0.9121771	h E @	-0.1958574
-0.6122288	h E k	-0.831574
-0.7368066	h E l	-0.8840928
-0.9121771	h E m	-0.5737628
-1.211052	h E n	-0.4946606
-0.7368066	h E r	-0.0386079
-1.211052	h E v	-0.4378249
-0.3422262	j E l	-0.7338821
-0.3422262	j E t	-0.6982287
-0.4425312	k E @	0.2636806
-0.8096827	k E J	0.1113963
-0.9850532	k E _	-0.5789167
-0.8096827	k E l	-0.84905
-1.283928	k E n	-0.5323147
-1.283928	k E p	-0.4087058
-1.283928	k E s	-0.1233848
-1.283928	k E t	-0.4993626
-1.102389	l E @	-0.1719206
-1.797905	l E S	0.04527563
-1.797905	l E T	-0.4022979
-1.199082	l E _	-0.2641783
-1.797905	l E b	-0.4840106
-1.797905	l E d	-0.2030384
-1.797905	l E f	-0.201855
-1.797905	l E g	0
-0.5467125	l E k	-0.9019604
-1.32366	l E m	-0.7087425
-0.6879489	l E n	-0.9658997
-1.32366	l E p	-0.8007866
-1.797905	l E r	-0.2178022
-1.199082	l E s	-0.3337057
-1.32366	l E t	-0.5395368
-1.32366	l E v	-0.4264606
-1.3034	m E @	-0.1958574
-1.12803	m E T	-0.5930412
-1.3034	m E d	-0.712249
-1.602275	m E k	-0.5196691
-0.7029638	m E l	-1.036075
-0.3276142	m E n	-0.9079677
-1.602275	m E r	-0.2178022
-1.3034	m E s	-0.2800117
-1.3034	m E t	-0.7415087
-1.260968	n E @	0.03566957
-1.260968	n E D	0.3817377
-1.260968	n E b	-0.4840106
-0.5654519	n E k	-0.4906712
-0.9620936	n E l	-0.6607189
-0.9620936	n E s	-0.07209873
-0.6621453	n E t	-0.706008
-0.9620936	n E v	-0.5470695
-0.7478781	p E @	-0.4755679
-1.698282	p E N	0
-1.698282	p E b	-0.4210505
-1.002765	p E d	-0.5542773
-0.8568848	p E k	-0.3850752
-0.7478781	p E l	-1.065659
-0.7989703	p E n	-0.8529518
-1.224036	p E r	-0.0386079
-1.099458	p E s	-0.5523779
-1.399407	p E t	-0.7200046
-1.698282	p E z	-0.1546975
-1.538289	r E @	-0.1958574
-1.837163	r E J	-0.2760993
-1.362918	r E S	-0.3364621
-1.837163	r E T	-0.4022979
-1.538289	r E _	-0.3879223
-1.837163	r E b	-0.4210505
-0.9378521	r E d	-0.5543915
-0.9957666	r E k	-0.9835557
-1.06261	r E l	-0.9284266
-1.23834	r E m	-0.7743511
-1.06261	r E n	-0.7771885
-1.23834	r E p	-0.7900354
-0.6950465	r E s	-0.543402
-0.9378521	r E t	-0.7044787
-1.538289	r E v	-0.5856559
-1.138644	s E k	-0.7201777
-0.7135776	s E l	-1.015662
-1.314014	s E m	-0.5585318
-0.5029328	s E n	-0.9045438
-1.314014	s E p	-0.6870928
-1.314014	s E r	-0.5753583
-1.014066	s E s	-0.3044118
-0.9173723	s E t	-0.7002665
-1.314014	s E v	-0.4289702
-1.148289	t E @	-0.4574643
-1.747112	t E d	-0.2030384
-0.7096457	t E k	-0.7958735
-1.148289	t E l	-0.9223258
-0.8478006	t E m	-1.043547
-0.5470418	t E n	-0.8920177
-1.747112	t E p	-0.4087058
-0.8478006	t E r	0.05954885
-1.747112	t E s	-0.1233848
-1.448237	t E t	-0.41231
-0.147967	u E t	-0.2128741
-1.346314	v E @	-0.4744915
-0.7474912	v E k	-0.4020943
-1.346314	v E l	-0.5241084
-0.3502015	v E n	-0.9225567
-1.346314	v E r	-0.2178022
-0.6507979	v E s	-0.6409549
-1.150428	w E @	-0.1958574
-1.150428	w E D	0.1502107
-1.449303	w E f	-0.201855
-0.3393468	w E l	-1.293964
-0.607906	w E n	-0.859632
-1.150428	w E s	-0.3549118
-1.449303	w E t	-0.2128741
-0.7909256	z E b	-0.6525775
-1.0898	z E f	-0.4022979
-0.7909256	z E l	-0.6566507
-0.6155551	z E n	-0.8831311
-0.7909256	z E s	-0.07209873
-0.7909256	z E t	-0.444401
-0.04227789	D H </s>
-0.147967	S H </s>
-0.147967	T H </s>
-0.02866056	d H </s>
-0.05545961	f H </s>
-0.05233428	s H </s>
-1.0898	s H t	0.3817377
-0.01098182	t H </s>
-0.02167957	v H </s>
-0.1462971	z H </s>
-0.8848883	z H d	0
-0.8848883	z H t	0.1502107
-2.269001	# I 1	-0.5697866
-2.269001	# I 5	-0.7139025
-1.27095	# I </s>
-0.7396248	# I @	-0.51037
-1.72648	# I D	0.147464
-2.567876	# I J	-0.4952264
-2.567876	# I Q	-0.3049083
-2.567876	# I T	-0.4499438
-2.269001	# I _	-0.7340555
-1.53041	# I b	-0.7323067
-1.229578	# I d	-0.7944288
-1.45792	# I f	-1.098667
-2.269001	# I i	0
-1.229578	# I k	-1.331261
-1.015774	# I l	-1.472458
-1.27095	# I m	-1.473613
-0.9000073	# I n	-1.452803
-1.668565	# I p	-0.9321241
-2.567876	# I r	-0.511934
-1.293216	# I s	-1.465237
-1.080696	# I t	-0.985517
-1.191805	# I v	-0.8361418
-1.668565	# I z	-1.083071
-1.87236	# I {	-0.6990834
-0.147967	1 I s	-0.3810485
-0.147967	5 I m	-0.3882128
-1.830862	<s> I @	-0.4740953
-1.531987	<s> I N	-0.6346886
-1.830862	<s> I b	-0.4763703
-1.356617	<s> I d	-0.8879401
-1.056309	<s> I g	-1.115366
-1.356617	<s> I k	-0.9067605
-1.356617	<s> I l	-0.8394209
-0.7209058	<s> I m	-1.322021
-0.3579171	<s> I n	-1.753329
-1.830862	<s> I p	-0.5002677
-1.830862	<s> I r	-0.4827954
-1.531987	<s> I s	-0.7170572
-1.830862	<s> I v	-0.5307165
-1.830862	<s> I z	-0.5075403
-0.147967	D I D	-0.3284948
-1.346314	J I @	-0.312838
-1.346314	J I N	-0.2034809
-0.8720691	J I k	-0.8130866
-1.04744	J I l	-0.6571313
-0.8720691	J I m	-0.8036293
-0.6507979	J I n	-0.7824338
-1.346314	J I p	-0.5299509
-1.04744	J I t	-0.1092436
-1.346314	J I v	-0.4325081
-1.346314	J I w	-0.3049083
-1.04744	J I z	-0.6907432
-1.723382	Q I 5	-0.4823755
-0.6481609	Q I </s>
-1.424508	Q I @	-0.730551
-1.723382	Q I E	-0.258631
-1.723382	Q I N	-0.2034809
-1.723382	Q I b	-0.4531466
-1.424508	Q I d	-0.2820688
-1.424508	Q I f	-0.5063377
-0.7272698	Q I l	-1.13214
-0.9488294	Q I n	-0.8577262
-1.723382	Q I p	-0.5299509
-0.9488294	Q I s	-0.8338379
-1.424508	Q I t	0.02663893
-0.9488294	Q I z	-0.9083182
-0.7146717	S I 5	-0.253104
-1.013546	S I @	-0.312838
-1.013546	S I N	-0.4031617
-1.013546	S I b	-0.4410519
-0.7146717	S I f	-0.685534
-1.013546	S I l	-0.4736438
-1.013546	S I n	-0.5101038
-1.013546	S I v	-0.4940532
-1.154644	T I </s>
-0.5558209	T I @	-0.9156859
-1.154644	T I N	-0.2034809
-0.8557692	T I l	-0.5913017
-0.8557692	T I m	-0.736712
-0.5558209	T I s	-0.8912338
-0.4308032	U I n	-0.5265667
-0.2554328	U I s	-0.7354276
-1.118737	_ I @	-0.5443649
-1.118737	_ I N	-0.6346886
-1.417611	_ I _	-0.5163091
-1.118737	_ I b	-0.6831802
-1.417611	_ I d	-0.05054185
-1.417611	_ I h	-0.3049083
-1.118737	_ I k	-0.6189704
-1.118737	_ I l	-0.7272193
-1.417611	_ I m	-0.5140116
-0.7220951	_ I n	-0.8767507
-1.417611	_ I r	-0.4515601
-1.118737	_ I s	-0.4101183
-0.8187885	_ I t	-0.3308043
-1.002306	b I </s>
-1.178036	b I @	-0.7229347
-1.776859	b I N	-0.4031617
-1.477985	b I S	-0.2277364
-1.477985	b I d	-0.2820688
-1.002306	b I k	-1.108796
-1.081343	b I l	-1.086683
-0.8775482	b I n	-0.9520961
-1.776859	b I r	-0.4827954
-1.081343	b I s	-0.8826303
-0.5504764	b I t	-0.9583078
-1.302614	b I z	-0.8772671
-1.037489	d I 5	-0.6231822
-1.037489	d I </s>
-1.280063	d I @	-0.6705311
-1.280063	d I N	-0.7799748
-1.878886	d I _	-0.4099193
-1.878886	d I b	-0.4531466
-1.878886	d I d	-0.4825325
-1.878886	d I f	-0.5218368
-1.104333	d I g	-0.8727343
-1.183369	d I k	-1.078588
-1.183369	d I l	-0.8950454
-1.580011	d I m	-0.6064051
-1.104333	d I n	-0.7956483
-1.878886	d I p	-0.5202802
-0.882773	d I s	-0.6531165
-0.882773	d I t	-0.7442513
-1.280063	d I v	-0.9686503
-1.878886	d I z	-0.5075403
-1.272867	f I </s>
-1.448237	f I @	-0.5110379
-1.747112	f I E	-0.4840106
-1.148289	f I N	-0.6966149
-1.747112	f I _	-0.4099193
-1.747112	f I b	-0.5193942
-1.148289	f I d	-0.3308653
-1.148289	f I k	-0.7056476
-0.6718901	f I l	-1.438207
-0.6718901	f I n	-1.19351
-1.051595	f I s	-0.9463465
-0.9725586	f I t	-0.3970807
-1.747112	f I {	-0.4902496
-0.7368066	g I </s>
-1.211052	g I @	-0.312838
-1.211052	g I b	-0.4410519
-1.211052	g I f	-0.4540069
-1.211052	g I l	-0.4956924
-1.211052	g I m	-0.5051851
-0.7368066	g I n	-0.6424693
-0.5155354	g I t	-0.4300002
-0.9697295	h I @	-0.312838
-0.9697295	h I D	-0.3284948
-0.6708549	h I b	-0.7078972
-0.6708549	h I l	-0.7272193
-0.6708549	h I n	-0.7068301
-0.9697295	h I p	-0.5202802
-0.147967	j I @	-0.312838
-1.249137	k I </s>
-1.723382	k I @	-0.5367091
-1.723382	k I J	-0.4952264
-1.723382	k I N	-0.2034809
-1.249137	k I d	-0.4194421
-1.723382	k I f	-0.4843825
-1.424508	k I l	-0.7348303
-1.424508	k I m	-0.618571
-0.6134266	k I n	-1.120507
-1.723382	k I p	-0.203416
-1.424508	k I r	-0.5395101
-0.3657873	k I t	-0.967517
-2.254364	l I #	-0.3049083
-1.780119	l I 1	-0.56926
-1.780119	l I 5	-0.4033148
-1.027981	l I </s>
-1.355053	l I @	-0.7325736
-2.254364	l I D	-0.3284948
-1.955489	l I J	-0.2859182
-1.355053	l I N	-0.7641632
-1.780119	l I _	-0.6065826
-1.655541	l I b	-0.8443713
-1.955489	l I d	-0.2820688
-1.412967	l I f	-0.7639749
-2.254364	l I g	-0.5116313
-0.8435448	l I k	-1.317036
-1.780119	l I l	-0.8553815
-1.179142	l I m	-0.9971975
-0.7533995	l I n	-1.442627
-1.258251	l I p	-0.9473364
-1.216898	l I s	-0.8596895
-0.878293	l I t	-0.638311
-1.955489	l I v	-0.2666733
-2.254364	l I w	-0.3049083
-1.667244	m I 5	-0.253104
-1.066807	m I </s>
-1.124722	m I @	-0.9249821
-1.367296	m I N	-0.3263347
-1.966118	m I S	0.003790557
-1.491873	m I T	-0.3440949
-1.966118	m I _	-0.2248449
-1.270602	m I d	-0.2156874
-1.966118	m I f	-0.5307165
-1.667244	m I g	-0.670451
-1.966118	m I k	-0.4052073
-1.124722	m I l	-1.206103
-1.966118	m I m	-0.5140116
-0.5231268	m I n	-1.222823
-1.966118	m I r	-0.4515601
-0.9286525	m I s	-1.000403
-1.124722	m I t	-0.4599494
-1.966118	m I z	-0.4963782
-1.667244	m I {	-0.6769363
-0.7590908	n I </s>
-1.05988	n I @	-0.9967452
-2.010283	n I N	-0.450507
-2.010283	n I Q	-0.3049083
-2.010283	n I S	-0.4840106
-2.010283	n I T	-0.3382596
-2.010283	n I _	-0.2248449
-1.536038	n I b	-0.7221381
-1.536038	n I f	-0.4275972
-1.168887	n I g	-1.043029
-0.8102132	n I k	-1.088944
-1.711408	n I l	-0.5239769
-1.110972	n I m	-1.062526
-1.536038	n I n	-0.6767775
-1.536038	n I p	-0.5300788
-1.110972	n I s	-0.8024713
-0.8681664	n I t	-0.8843935
-1.711408	n I v	-0.7255802
-1.711408	n I z	-0.7279052
-1.031769	p I </s>
-1.177649	p I @	-0.7268397
-1.574291	p I N	-0.4350079
-1.574291	p I _	-0.6414462
-1.031769	p I d	-0.5724566
-0.8770524	p I k	-0.9687458
-0.8356992	p I l	-1.207766
-1.574291	p I m	-0.6304054
-1.274342	p I n	-0.7448107
-1.873165	p I p	-0.5002677
-1.574291	p I r	-0.5395101
-1.098612	p I s	-0.8058803
-0.7310484	p I t	-0.6815168
-1.574291	p I v	-0.4095663
-1.682935	r I 5	-0.603288
-0.8912715	r I </s>
-1.206393	r I @	-0.9700517
-2.079577	r I J	-0.2859182
-1.30323	r I N	0.67981
-2.378452	r I S	0.003790557
-1.682935	r I _	-0.4871426
-1.428048	r I b	-1.057075
-1.428048	r I d	-0.6099923
-1.340986	r I f	-0.6022177
-1.340986	r I g	-1.044239
-2.378452	r I h	-0.3049083
-0.9846596	r I k	-1.143005
-1.479141	r I l	-1.065474
-1.081526	r I m	-1.266161
-1.002381	r I n	-1.251284
-1.537055	r I p	-0.9002118
-1.127259	r I s	-0.8348103
-1.382339	r I t	-0.5404195
-1.603899	r I v	-1.010659
-1.340986	r I z	-0.8450688
-1.25952	s I </s>
-1.104804	s I @	-0.858665
-1.626671	s I E	-0.6403687
-1.326363	s I N	-0.4884472
-1.4054	s I d	-0.6012338
-1.502093	s I g	-0.9753379
-1.06345	s I k	-1.239774
-1.104804	s I l	-1.273949
-1.150513	s I m	-0.8679971
-0.743321	s I n	-1.085536
-1.626671	s I p	-0.4634948
-1.502093	s I r	-0.7627466
-0.9909603	s I s	-1.10347
-0.9288569	s I t	-0.650609
-1.802042	s I v	-0.615711
-1.802042	s I z	-0.4638149
-2.014462	t I $	0
-0.7398016	t I </s>
-1.715588	t I @	-0.5443649
-1.715588	t I J	-0.144099
-1.415639	t I N	1.128509
-1.715588	t I S	-0.002571344
-1.715588	t I Z	0
-2.014462	t I _	-0.2248449
-1.715588	t I b	-0.7405583
-1.540217	t I d	-0.4322796
-1.318946	t I f	-0.8509402
-1.415639	t I g	-0.9753379
-1.01835	t I k	-0.9291292
-0.9392407	t I l	-1.112448
-1.239909	t I m	-0.5579107
-0.842403	t I n	-1.051621
-1.415639	t I p	-0.9936576
-1.415639	t I s	-0.8709844
-1.540217	t I t	-0.8881077
-1.540217	t I v	-0.6404078
-0.504339	u I d	-0.2820688
-0.504339	u I n	-0.5265667
-0.504339	u I t	-0.1092436
-1.754742	v I #	-0.3049083
-1.455867	v I 5	-0.7337277
-1.155919	v I </s>
-1.280497	v I @	-0.6347267
-1.280497	v I E	-0.7291274
-0.9801887	v I d	-0.6043742
-1.059225	v I k	-1.024017
-0.8554307	v I l	-0.9487735
-1.059225	v I n	-1.069278
-1.754742	v I r	-0.4515601
-1.059225	v I s	-0.7008315
-0.7586291	v I t	-0.4283489
-1.455867	v I v	-0.6640351
-1.754742	v I z	-0.5290391
-1.754742	v I {	-0.3723117
-1.256714	w I @	-0.7678689
-1.556662	w I J	-0.2859182
-1.381292	w I N	-0.3728774
-1.855537	w I S	0.003790557
-1.855537	w I _	-0.5163091
-1.160021	w I b	-0.8255668
-1.256714	w I d	-0.5436758
-1.381292	w I f	-0.4941811
-1.080984	w I g	-1.044197
-0.9051337	w I l	-1.114985
-1.855537	w I m	-0.4218916
-0.7455812	w I n	-0.9553968
-1.381292	w I p	-0.5851538
-1.556662	w I r	-0.7143223
-1.256714	w I s	-0.8212397
-1.01414	w I t	-0.2808847
-1.256714	w I z	-0.7143649
-0.4064232	z I </s>
-1.305734	z I @	-0.4740953
-1.305734	z I N	-0.2034809
-1.305734	z I g	-0.438924
-1.305734	z I k	-0.4052073
-0.8314893	z I l	-0.8553815
-1.305734	z I m	-0.4961754
-1.305734	z I n	-0.2950398
-1.305734	z I p	-0.5299509
-1.00686	z I t	-0.1092436
-0.147967	# J </s>
-0.147967	$ J </s>
-0.23083	3 J @	-0.7046672
-0.5297047	3 J I	-0.4296677
-0.08061931	5 J </s>
-0.6777097	<s> J #	0
-1.715176	<s> J $	0
-1.416301	<s> J 1	0
-1.715176	<s> J 3	0
-0.8158645	<s> J E	0
-0.5151057	<s> J I	-0.7250754
-1.416301	<s> J Q	0
-1.416301	<s> J V	0
-0.7647722	<s> J {	0
-0.3422262	@ J @	-0.5467281
-0.6411009	@ J I	-0.4987119
-0.6411009	@ J i	-0.3049083
-0.3422262	E J </s>
-0.3422262	E J @	-0.6943606
-1.013546	I J 5	-0.3049083
-0.1721497	I J </s>
-1.013546	I J I	-0.4296677
-1.013546	I J i	-0.3049083
-0.02866056	Q J </s>
-0.8660825	U J 5	-0.3049083
-0.09152944	U J </s>
-0.08061931	V J </s>
-0.02866056	i J </s>
-0.1308549	l J </s>
-0.7296779	l J @	-0.5026686
-0.02209949	n J </s>
-1.449303	n J I	-0.4987119
-0.23083	u J </s>
-0.5297047	u J @	-0.3152011
-0.5393012	{ J </s>
-0.4147233	{ J @	-0.6918249
-0.7146717	{ J I	-0.7302389
-1.013546	{ J u	0
-0.147967	E N g	-0.5193942
-0.7321453	I N </s>
-0.5695413	I N g	-0.8453748
-0.268647	I N k	-0.9554473
-0.5558209	Q N </s>
-0.6803988	Q N g	-0.7781135
-0.3132472	Q N k	-0.6323805
-1.365265	V N </s>
-0.7664425	V N g	-0.463303
-0.1388826	V N k	-0.9690132
-1.365265	V N s	0.231527
-1.051595	{ N </s>
-1.448237	{ N @	0
-0.450186	{ N g	-0.2397135
-0.3199085	{ N k	-0.8390168
-1.747112	{ N s	0.231527
-1.747112	{ N t	0
-0.147967	S P </s>
-0.05545961	T P </s>
-0.009179016	b P </s>
-1.824467	b P j	0
-0.003224876	d P </s>
-0.009267109	f P </s>
-0.0146809	g P </s>
-1.623249	g P n	0
-0.004027185	k P </s>
-0.02468589	m P </s>
-0.01170368	n P </s>
-0.006310965	p P </s>
-0.0229271	s P </s>
-1.433746	s P t	0
-0.00454067	t P </s>
-0.007670272	v P </s>
-0.01034384	z P </s>
-0.147967	1 Q s	-0.3929364
-1.134871	<s> Q I	-0.7205696
-0.8349231	<s> Q b	-0.9879455
-0.5344349	<s> Q k	-1.076683
-1.433746	<s> Q l	-0.4300461
-1.134871	<s> Q m	-0.7509212
-1.134871	<s> Q n	-0.7012303
-1.433746	<s> Q p	-0.4987119
-0.7382298	<s> Q r	0.1521178
-1.134871	<s> Q s	-0.6108523
-0.379494	I Q k	-0.4124937
-0.379494	I Q t	-0.4902772
-0.379494	J Q I	-0.4876706
-0.379494	J Q k	-0.4748024
-0.04227789	T Q s	-0.8860703
-0.31803	_ Q I	-1.021236
-1.013546	_ Q d	-0.5163091
-1.013546	_ Q k	-0.4748024
-0.7146717	_ Q n	-0.7304819
-1.013546	_ Q s	-0.5097257
-1.260968	b Q I	-0.4493904
-1.260968	b Q N	-0.4378249
-1.260968	b Q S	0.7181156
-1.260968	b Q b	-0.3957235
-1.260968	b Q f	-0.1939496
-1.260968	b Q g	-0.5055238
-0.9620936	b Q k	-0.6304096
-0.6621453	b Q l	-0.817807
-1.260968	b Q m	-0.4763703
-1.260968	b Q n	-0.4301299
-0.9620936	b Q p	-0.3939855
-0.9620936	b Q t	-0.676999
-1.260968	d Q I	-0.5312148
-1.260968	d Q N	-0.2503575
-0.9620936	d Q b	-0.6868088
-0.9620936	d Q d	-0.500233
-1.260968	d Q g	-0.4690377
-0.7867231	d Q k	-0.7475947
-0.6621453	d Q l	-0.8136204
-0.9620936	d Q m	-0.7190594
-0.9620936	d Q n	-0.5897235
-0.9620936	f Q I	-0.6814174
-0.9620936	f Q k	-0.6304096
-0.7867231	f Q l	-0.7870666
-0.6621453	f Q n	-0.6127808
-0.6621453	f Q r	-0.2487476
-1.260968	f Q s	-0.5097257
-0.9620936	f Q z	-0.5697866
-0.7095179	g Q I	-0.8212626
-0.58494	g Q b	-0.9201521
-0.8848883	g Q g	-0.3764763
-1.183763	g Q l	-0.5214717
-0.8848883	g Q n	-0.421314
-0.7095179	g Q s	-0.8358204
-1.123431	h Q I	-0.4876706
-0.649186	h Q b	-0.7661438
-0.649186	h Q l	-0.6362704
-1.123431	h Q m	-0.4763703
-0.8245565	h Q r	0.01285928
-0.8245565	h Q s	-0.6108523
-1.123431	h Q v	-0.1875223
-0.08061931	i Q s	-0.7412527
-0.379494	j Q g	-0.4690377
-0.379494	j Q l	-0.4300461
-1.001732	k Q I	-1.137682
-1.901043	k Q J	0.6552466
-1.205526	k Q N	-0.6164266
-1.901043	k Q b	-0.3957235
-1.901043	k Q d	-0.268706
-1.30222	k Q f	-0.4714419
-1.901043	k Q g	-0.5055238
-1.205526	k Q k	-0.8038796
-1.059646	k Q l	-1.006876
-0.7009727	k Q m	-1.127631
-0.6746597	k Q n	-0.7898788
-1.426798	k Q p	-0.8069047
-1.602168	k Q r	-0.5020505
-1.30222	k Q s	-0.8077192
-1.30222	k Q t	-0.6684926
-1.901043	k Q z	-0.4499438
-0.9574094	l Q I	-0.9532385
-1.652926	l Q J	0.6552466
-1.652926	l Q N	-0.2503575
-1.178681	l Q S	0.3363779
-1.652926	l Q T	-0.1139866
-1.354051	l Q _	0.2616069
-1.354051	l Q b	-0.6272504
-1.354051	l Q d	-0.6705849
-1.054103	l Q g	-0.6380832
-1.354051	l Q k	-0.6440207
-1.054103	l Q n	-0.6829209
-1.178681	l Q p	-0.5441962
-1.354051	l Q r	0.01285928
-1.054103	l Q s	-0.8689888
-0.7025223	l Q t	-0.8264981
-1.00686	m Q I	-0.6269232
-1.305734	m Q N	-0.4378249
-0.8314893	m Q d	-0.578474
-0.8314893	m Q k	-0.7158803
-1.305734	m Q l	-0.4300461
-1.00686	m Q n	-0.7340037
-1.00686	m Q p	-0.6854497
-1.00686	m Q r	-0.4371097
-1.00686	m Q s	-0.5928556
-1.00686	m Q t	-0.6464022
-0.852253	n Q I	-0.7532655
-0.7276751	n Q b	-0.6831599
-1.326498	n Q d	-0.268706
-1.326498	n Q f	-0.1939496
-1.326498	n Q k	-0.486259
-1.326498	n Q l	-0.5027533
-0.852253	n Q n	-0.6397358
-0.7276751	n Q s	-0.8724592
-1.326498	n Q t	-0.2762437
-1.027623	n Q v	-0.4190492
-0.9851871	p Q I	-0.8198935
-1.680703	p Q g	-0.5055238
-1.381829	p Q k	-0.6440207
-1.08188	p Q l	-0.6480328
-0.9061503	p Q m	-0.9379221
-0.4806335	p Q n	-0.6337391
-1.206458	p Q p	-0.7795644
-1.381829	p Q r	-0.5480726
-0.9851871	p Q s	-0.8547176
-1.206458	p Q t	-0.6466641
-1.680703	p Q z	-0.3382596
-1.562618	r Q I	-0.5509812
-1.562618	r Q J	0.4237196
-1.26267	r Q N	-0.415876
-1.165977	r Q T	0.07353568
-1.562618	r Q b	-0.5156521
-1.861493	r Q d	-0.4390579
-1.08694	r Q f	-0.3794951
-1.562618	r Q g	-0.3764763
-0.9621819	r Q k	-1.037846
-1.165977	r Q l	-0.7476667
-0.9621819	r Q m	-0.8356634
-1.165977	r Q n	-0.6752869
-1.08694	r Q p	-0.8177052
-1.020096	r Q s	-0.7801527
-0.9621819	r Q t	-0.5772454
-1.861493	r Q v	-0.4499438
-1.861493	r Q z	-0.3382596
-0.9378521	s Q I	-0.7543752
-0.9378521	s Q f	-0.6934871
-1.236727	s Q k	-0.4748024
-0.3953301	s Q l	-0.6355579
-1.236727	s Q n	-0.3581966
-0.7624816	s Q r	-0.5873203
-1.236727	s Q v	-0.4499438
-1.305734	t Q I	-0.4493904
-1.305734	t Q N	-0.39799
-1.00686	t Q _	0.2616069
-1.00686	t Q d	-0.500233
-0.8314893	t Q k	-0.6039065
-0.610218	t Q m	-0.8643862
-1.305734	t Q n	-0.3581966
-1.305734	t Q p	-0.1624585
-1.00686	t Q r	0.01285928
-1.305734	t Q s	-0.3929364
-1.305734	t Q t	-0.5030854
-0.1283329	v Q I	-1.075252
-0.6708549	v Q l	-0.7437403
-1.324375	w Q I	-0.7191976
-1.324375	w Q J	0.4237196
-1.149004	w Q S	0.3363779
-0.9277329	w Q b	-0.7717369
-0.8486962	w Q d	-0.4584209
-1.324375	w Q f	-0.659804
-0.9277329	w Q l	-0.6893315
-1.149004	w Q m	-0.6717774
-1.024426	w Q n	-0.6127808
-1.623249	w Q p	-0.1624585
-1.149004	w Q r	-0.6982834
-1.324375	w Q s	-0.7308897
-1.024426	w Q t	-0.6577793
-0.5297047	z Q n	-0.3581966
-0.23083	z Q t	-0.7086067
-0.007670272	# R </s>
-0.007061854	$ R </s>
-0.01457859	3 R </s>
-0.00060112	@ R </s>
-0.23083	# S @	-0.6038386
-0.5297047	# S I	-0.4464328
-0.379494	1 S @	-0.3723117
-0.379494	1 S I	-0.4464328
-0.147967	5 S 1	0.3817377
-1.455867	<s> S #	0
-1.754742	<s> S 3	0
-1.754742	<s> S 5	0
-1.155919	<s> S @	-0.7030261
-1.155919	<s> S E	0
-0.8554307	<s> S I	-0.7344444
-1.754742	<s> S U	0
-1.059225	<s> S V	0
-1.754742	<s> S i	-0.3135392
-1.754742	<s> S p	0
-0.6447859	<s> S r	-0.5460242
-0.5546719	<s> S {	0
-0.5297047	@ S </s>
-0.5297047	@ S i	-0.4759586
-0.5297047	@ S u	-0.3874955
-0.1308549	E S </s>
-0.7296779	E S @	-0.2098922
-0.1464376	I S </s>
-0.9209907	I S P	0
-0.9209907	I S u	-0.1546975
-0.02468589	Q S </s>
-0.05233428	V S </s>
-1.0898	V S r	-0.5079681
-0.8032137	i S 1	0.3817377
-0.504339	i S </s>
-0.504339	i S i	-0.5450662
-0.8032137	i S u	-0.1546975
-0.5297047	k S $	0.3817377
-0.23083	k S i	-0.5450662
-0.08061931	l S </s>
-0.08061931	m S $	0.1502107
-0.5297047	n S </s>
-0.5297047	n S H	0
-0.5297047	n S i	-0.3135392
-1.236727	{ S 1	0.3817377
-0.09461001	{ S </s>
-1.236727	{ S @	-0.4902496
-1.236727	{ S m	0
-0.5297047	$ T </s>
-0.23083	$ T @	-0.4962508
-0.08061931	1 T Q	0.2616069
-0.04227789	5 T </s>
-1.3034	<s> T #	0
-1.3034	<s> T $	0
-1.3034	<s> T 3	0
-1.602275	<s> T E	0
-0.7029638	<s> T I	-0.7154799
-1.3034	<s> T V	0
-0.3053492	<s> T r	0.02076519
-1.3034	<s> T w	0
-1.602275	<s> T {	0
-0.2672595	@ T </s>
-0.8660825	@ T I	-0.5079681
-0.5672079	@ T i	0
-0.5672079	E T </s>
-0.5672079	E T @	-0.3544317
-0.5672079	E T I	-0.705838
-0.8660825	E T P	0.3817377
-0.4308032	I T </s>
-0.7296779	I T H	0
-0.4308032	I T I	-0.629517
-0.2043907	Q T </s>
-0.504339	Q T P	0.1502107
-0.08061931	U T </s>
-0.08061931	f T @	-0.6079351
-0.08061931	i T Q	0.2616069
-0.04227789	l T </s>
-0.1142352	n T </s>
-1.013546	n T I	-0.39799
-1.013546	n T r	-0.4967106
-0.147967	u T </s>
-0.147967	{ T l	0
-1.191258	# U </s>
-0.9484521	# U @	-1.013393
-2.090569	# U I	-0.1875223
-1.249172	# U J	0
-1.791694	# U T	0
-2.090569	# U _	0
-1.316016	# U d	-0.4811991
-1.249172	# U l	-1.110673
-0.5037143	# U n	0
-1.191258	# U s	0
-0.8159081	# U t	-0.493865
-1.015347	# U z	0
-0.147967	S U g	0
-0.1705662	b U @	-0.7939909
-0.8660825	b U l	-0.4616019
-0.8660825	b U r	-0.3874955
-0.379494	d U @	-0.2423678
-0.379494	d U I	-0.3382596
-0.08061931	f U l	-0.7337277
-0.379494	g U @	-0.5193942
-0.379494	g U r	-0.3874955
-0.379494	h U @	-0.4531466
-0.379494	h U r	-0.3874955
-0.4036162	j U @	-0.9485499
-1.478838	j U E	0
-1.004593	j U b	-0.4326719
-0.4827251	j U l	-1.084967
-1.004593	j U m	-0.5046424
-1.478838	j U p	0
-0.08061931	k U k	-0.6437453
-0.05545961	l U @	-0.4427501
-0.147967	m U @	-0.2423678
-0.08061931	n U k	-0.2826447
-0.8032137	p U d	-0.4759586
-0.3289685	p U l	-0.8320222
-0.504339	p U t	0.947004
-0.622116	r U @	-0.6964406
-0.9209907	r U I	-0.3382596
-0.9209907	r U b	-0.4268366
-0.4467456	r U k	-0.4328554
-0.9209907	r U m	-0.3764081
-0.08061931	s U I	-0.4190492
-0.05545961	t U @	-0.5721893
-0.147967	v U @	-0.4531466
-0.5297047	w U l	-0.5211603
-0.23083	w U m	-0.6079351
-1.0898	<s> V D	0.231527
-1.0898	<s> V N	0.02322435
-1.0898	<s> V k	-0.4768944
-0.6155551	<s> V l	-0.7578044
-0.6155551	<s> V m	-0.7639004
-0.7909256	<s> V n	-0.6441959
-1.0898	<s> V t	-0.4893235
-0.379494	J V N	0.02322435
-0.379494	J V k	-0.3766716
-0.7296779	S V d	-0.5055238
-0.7296779	S V f	-0.4014785
-0.7296779	S V n	-0.4365307
-0.7296779	S V t	-0.4328789
-0.7296779	S V v	-0.4902496
-0.379494	T V m	-0.3734609
-0.379494	T V r	-0.4210505
-0.504339	_ V N	0.2076201
-0.8032137	_ V g	-0.4451919
-0.3289685	_ V m	-0.5098582
-0.9900762	b V N	0.05740947
-0.9900762	b V b	-0.6477084
-1.165447	b V f	-0.7179465
-1.165447	b V g	-0.3898052
-0.768805	b V k	-0.8089145
-0.8654983	b V l	-0.9581724
-1.464321	b V m	-0.3734609
-0.9900762	b V n	-0.7243519
-1.464321	b V r	-0.4210505
-0.9900762	b V s	-0.1418659
-1.464321	b V v	-0.3723117
-1.464321	b V z	-0.4554281
-1.283928	d V _	-0.258631
-0.8096827	d V b	-0.6945683
-1.283928	d V f	-0.4014785
-1.283928	d V k	-0.5194856
-0.8096827	d V l	-0.7410277
-0.5884115	d V m	-0.8319566
-0.9850532	d V n	-0.7121753
-0.9850532	d V s	-0.2685809
-1.283928	d V z	-0.4066344
-0.5672079	f V N	0.2076201
-0.8660825	f V d	-0.21861
-0.8660825	f V m	-0.3821627
-0.5672079	f V n	-0.6027235
-0.8660825	f V r	-0.4840106
-1.211052	g V _	-0.258631
-1.211052	g V f	-0.5243331
-0.4364987	g V l	-1.058589
-0.7368066	g V n	-0.8515008
-0.7368066	g V s	-0.6244889
-1.211052	g V v	-0.3723117
-1.211052	g V z	-0.3516566
-1.305734	h V N	0.02322435
-1.305734	h V b	-0.518528
-1.305734	h V d	-0.21861
-1.305734	h V l	-0.4820341
-0.5311813	h V m	-0.7438236
-0.7069114	h V n	-0.708607
-1.00686	h V r	-0.3784738
-0.8314893	h V s	-0.7469738
-1.305734	h V z	-0.4554281
-0.147967	j V k	-0.4768944
-1.623249	k V N	0.02322435
-1.324375	k V d	-0.03421414
-1.149004	k V f	-0.3876027
-1.324375	k V k	-0.7084214
-0.6728459	k V l	-0.997543
-0.9277329	k V m	-1.026507
-1.623249	k V n	-0.4365307
-1.324375	k V p	-0.4190492
-1.623249	k V r	-0.1469468
-0.9277329	k V s	-0.6943991
-0.8486962	k V t	-0.6827696
-1.149004	k V v	-0.611375
-1.324375	k V z	-0.6381614
-1.680703	l V J	0.231527
-1.680703	l V N	0.02322435
-0.9061503	l V S	-0.2498487
-1.381829	l V _	0.5414965
-1.680703	l V b	-0.2659707
-1.381829	l V d	-0.6168686
-0.9851871	l V f	-0.8676814
-1.206458	l V g	-0.5400159
-1.206458	l V k	-0.7503865
-0.6845907	l V m	-0.5615472
-1.08188	l V n	-0.8643305
-1.206458	l V s	-0.5128906
-1.08188	l V t	-0.6473045
-1.206458	l V v	-0.4893942
-1.633368	m V D	0.231527
-0.9378521	m V N	0.08363736
-1.633368	m V S	-0.5026686
-1.334494	m V _	0.5414965
-1.334494	m V d	-0.450137
-1.034545	m V f	-0.800294
-1.159123	m V g	0.654058
-1.034545	m V l	-0.8278869
-1.334494	m V m	-0.5884149
-1.034545	m V n	-0.9272768
-1.633368	m V r	-0.1469468
-0.7340573	m V s	-0.533152
-1.159123	m V t	-0.5359082
-1.159123	m V z	-0.6066938
-0.9697295	n V b	-0.2659707
-0.4954844	n V f	-0.3876027
-0.6708549	n V g	-0.12515
-0.9697295	n V k	-0.3766716
-0.9697295	n V l	-0.5285146
-0.9697295	n V r	-0.1469468
-0.7846013	p V N	-0.4699095
-1.08455	p V d	-0.450137
-1.383424	p V f	-0.4926303
-0.7846013	p V l	-0.8900844
-0.7846013	p V m	-0.8665948
-0.7846013	p V n	-0.5766336
-0.9091792	p V s	-0.4837323
-1.08455	p V z	-0.5831836
-1.861493	r V J	0.231527
-1.861493	r V N	0.02322435
-1.165977	r V S	-0.176313
-1.562618	r V _	-0.490158
-0.9110896	r V b	-0.4305645
-1.08694	r V f	-0.6611116
-1.26267	r V g	0.5426615
-1.387248	r V k	-0.7084353
-0.5645673	r V m	-0.9631348
-0.8653803	r V n	-0.949079
-1.562618	r V p	-0.5697866
-0.9621819	r V s	0.1211886
-1.562618	r V t	-0.5231926
-1.154644	s V f	-0.5243331
-0.6803988	s V k	-0.6488494
-0.8557692	s V l	-0.6883116
-0.5558209	s V m	-0.8308868
-0.6803988	s V n	-0.7944067
-1.154644	s V p	-0.1875223
-1.326498	t V N	-0.5203595
-0.852253	t V b	-0.2546064
-1.027623	t V d	-0.5782822
-1.326498	t V f	-0.2859704
-1.326498	t V k	-0.4768944
-0.551945	t V m	-0.7066661
-0.7276751	t V n	-0.8465958
-1.027623	t V s	-0.5967631
-1.326498	t V t	-0.4893235
-0.05545961	v V l	-0.8359149
-0.147967	z V m	-0.3734609
-0.147967	# Z </s>
-0.147967	@ Z i	0
-0.08061931	I Z 1	0
-0.147967	u Z </s>
-0.147967	{ Z @	0
-0.1308549	# _ @	-0.3867666
-0.7296779	# _ I	-0.4481884
-0.1668558	1 _ </s>
-0.6411009	1 _ @	-0.5174744
-0.2672595	3 _ </s>
-0.5672079	3 _ @	-0.3857718
-0.8660825	3 _ I	-0.4481884
-0.9621819	<s> _ #	-0.4117141
-1.387248	<s> _ $	0
-1.387248	<s> _ 3	0
-1.562618	<s> _ 5	-0.5076263
-1.387248	<s> _ @	-0.8519853
-0.8240271	<s> _ E	-0.4381006
-0.8240271	<s> _ I	-1.22941
-0.8653803	<s> _ Q	0
-1.08694	<s> _ V	0
-1.387248	<s> _ i	-0.4799457
-1.08694	<s> _ u	-0.4423184
-1.020096	<s> _ {	0.05490863
-0.5672079	@ _ #	-0.1043006
-0.8660825	@ _ 5	-0.4268366
-0.2672595	@ _ E	-0.5978622
-0.3221677	E _ </s>
-0.4467456	E _ @	-0.3543041
-0.9209907	E _ I	-0.5225764
-0.2878152	I _ </s>
-1.283928	I _ @	-0.1542448
-0.5884115	I _ I	-0.9355807
-1.283928	I _ i	-0.09820801
-1.283928	I _ u	-0.3473897
-1.283928	I _ {	-0.3473897
-0.04227789	Q _ </s>
-0.147967	U _ </s>
-0.3221677	V _ </s>
-0.3221677	V _ @	-0.6473787
-0.147967	b _ I	-0.5051395
-0.147967	i _ I	-0.5051395
-0.1668558	l _ </s>
-0.6411009	l _ I	-0.5051395
-1.449303	n _ #	-0.01459283
-1.449303	n _ 5	-0.4268366
-0.111004	n _ </s>
-1.150428	n _ @	-0.3857718
-1.150428	n _ i	-0.6667988
-0.2043907	u _ </s>
-0.8032137	u _ I	-0.4680136
-0.8032137	u _ u	-0.4840106
-0.08061931	z _ i	-0.329735
-0.1668558	{ _ I	-0.7082672
-0.6411009	{ _ i	-0.4902496
-1.053345	# b #	-0.2762437
-0.7544701	# b </s>
-1.053345	# b @	-0.4341938
-0.4545217	# b I	-0.947027
-0.7544701	# b P	0.9085381
-1.053345	# b V	-0.4926303
-0.3289685	$ b @	-0.7781513
-0.8032137	$ b I	-0.3959136
-0.504339	$ b P	0.9085381
-0.6803988	1 b @	-0.8594757
-0.3132472	1 b P	0.4219495
-1.154644	1 b Q	-0.5150137
-0.8557692	1 b i	-0.6504995
-1.154644	1 b j	-0.201855
-0.6708549	3 b #	-0.7470536
-0.1951764	3 b @	-1.008626
-0.9697295	3 b P	1.140065
-1.123431	5 b $	-0.391455
-1.123431	5 b 5	-0.3315005
-0.8245565	5 b </s>
-0.8245565	5 b @	-0.7115378
-0.649186	5 b I	-0.8532159
-0.8245565	5 b i	-0.5467281
-0.8245565	5 b r	-0.6770551
-1.05976	<s> b #	-0.70752
-1.552348	<s> b $	0.04381716
-1.661355	<s> b 1	-0.505187
-1.465286	<s> b 3	0.03645468
-1.552348	<s> b 5	-1.052222
-1.392796	<s> b @	-0.9886125
-1.276369	<s> b E	-0.8342798
-1.164453	<s> b I	-1.06504
-1.360635	<s> b Q	-1.011649
-1.807235	<s> b U	0.1364044
-1.184647	<s> b V	-1.145066
-1.661355	<s> b i	0.2237179
-2.203877	<s> b j	-0.433382
-0.8735034	<s> b l	0.03826904
-0.6436905	<s> b r	0.07579875
-2.028507	<s> b u	-0.7389708
-0.9387538	<s> b {	-0.5722374
-1.400854	@ b #	-0.4634687
-1.400854	@ b 5	-0.5150137
-0.7053378	@ b </s>
-1.400854	@ b E	-0.5211603
-1.101979	@ b I	-0.719906
-1.101979	@ b P	0.9085381
-0.926609	@ b V	-0.8681571
-1.400854	@ b l	-0.4806482
-0.6263011	@ b u	-0.6189175
-0.926609	@ b {	-0.8288879
-0.9209907	E b @	-0.4341938
-0.9209907	E b I	-0.3959136
-0.622116	E b P	0.9085381
-0.9209907	E b j	-0.3135392
-0.622116	E b r	-0.7347308
-0.9209907	E b z	0
-1.344383	I b #	-0.5077707
-0.8687041	I b </s>
-0.6928537	I b @	-0.8644681
-1.044434	I b E	-0.6392777
-0.8687041	I b I	-0.9962718
-0.743946	I b P	0.3670413
-1.643257	I b Q	-0.5150137
-1.643257	I b V	-0.4926303
-1.643257	I b i	-0.3152011
-1.344383	I b j	0.4865884
-1.169012	I b r	-0.7924446
-1.643257	I b u	-0.336548
-0.5499915	Q b </s>
-1.449303	Q b @	-0.5019119
-0.7537863	Q b I	-0.8997619
-0.5499915	Q b P	0.3670413
-1.449303	Q b _	0
-1.150428	Q b l	-0.7121752
-1.449303	Q b n	0
-1.150428	Q b s	0.1502107
-0.6411009	U b @	-0.477738
-0.6411009	U b E	-0.3668675
-0.3422262	U b P	0.9085381
-0.3303854	V b </s>
-1.326498	V b @	-0.4341938
-0.852253	V b I	-0.8532159
-0.551945	V b P	1.021254
-1.326498	V b V	-0.4926303
-0.8660825	i b 5	-0.3315005
-0.5672079	i b </s>
-0.8660825	i b @	-0.5019119
-0.5672079	i b Q	-0.7208505
-0.8660825	i b u	-0.336548
-0.8032137	l b </s>
-0.2043907	l b @	-0.9625053
-0.8032137	l b j	-0.3135392
-1.76224	m b #	-0.2762437
-1.76224	m b 1	-0.4840106
-1.76224	m b 3	-0.4628337
-0.9876871	m b 5	-0.8094172
-0.8118368	m b @	-1.161844
-1.163417	m b I	-0.8890475
-0.4239415	m b P	-0.05828214
-1.463366	m b U	-0.2826447
-1.463366	m b V	-0.7402979
-1.066724	m b r	-0.9676622
-1.463366	m b u	-0.5232346
-1.287995	m b {	-0.8180228
-0.147967	s b E	-0.5211603
-0.7909256	u b #	-0.7086067
-0.7909256	u b </s>
-1.0898	u b @	-0.5019119
-0.4909772	u b I	-0.7699684
-1.0898	u b P	1.140065
-0.7909256	u b r	-0.6770551
-0.379494	z b @	-0.4341938
-0.379494	z b I	-0.4940025
-0.4643377	{ b </s>
-0.8314893	{ b @	-0.828205
-0.7069114	{ b I	-0.8111849
-0.7069114	{ b P	0.6469312
-1.305734	{ b l	-0.5206945
-1.305734	{ b s	0.3817377
-1.260968	# d 5	-0.1210735
-0.4864151	# d </s>
-0.5654519	# d @	-0.5621899
-0.9620936	# d H	0.4237196
-0.9620936	# d I	-0.7354588
-1.260968	# d i	-0.258631
-1.260968	# d n	-0.04330134
-1.400854	$ d 1	-0.5079681
-0.6263011	$ d </s>
-0.926609	$ d @	-0.6977438
-1.400854	$ d E	-0.444172
-1.101979	$ d H	0.4237196
-0.6263011	$ d I	-1.060723
-1.400854	$ d P	1.591378
-1.400854	$ d i	-0.4840106
-1.400854	$ d j	-0.4840106
-1.400854	$ d l	-0.3049083
-1.101979	$ d n	-0.2748283
-1.383424	1 d #	-0.4942544
-1.383424	1 d 1	-0.4743111
-0.9091792	1 d 5	-0.5028112
-0.2734684	1 d </s>
-0.7846013	1 d I	-0.9374892
-1.08455	1 d P	1.359851
-0.9209907	3 d #	-0.4942544
-0.622116	3 d @	-0.3556475
-0.9209907	3 d H	0.6552466
-0.9209907	3 d I	-0.5100565
-0.4467456	3 d P	1.209641
-0.7146717	5 d #	-0.167828
-0.7146717	5 d </s>
-0.31803	5 d @	-0.9639813
-1.013546	5 d P	1.591378
-0.9721317	<s> d #	-0.8269052
-1.614914	<s> d $	-0.9693097
-1.314318	<s> d 1	-0.9533236
-1.836185	<s> d 3	-0.4326719
-1.711607	<s> d 5	-0.9241693
-1.013505	<s> d E	-0.5203035
-0.7961063	<s> d I	-1.277366
-1.168314	<s> d Q	-0.7314124
-2.31043	<s> d U	-0.3049083
-1.168314	<s> d V	-0.4663416
-1.614914	<s> d i	-0.3606372
-1.469034	<s> d j	-0.4815271
-0.6244671	<s> d r	0.07265329
-2.011556	<s> d u	0
-1.836185	<s> d w	0
-1.168314	<s> d {	0.02911937
-1.08188	@ d #	-0.5669299
-0.8393068	@ d $	-0.8965274
-1.680703	@ d 5	-0.5163091
-0.3231082	@ d </s>
-1.381829	@ d @	-0.5101781
-1.680703	@ d E	-0.444172
-1.206458	@ d I	-0.8643368
-1.08188	@ d Q	-0.9051776
-1.680703	@ d V	-0.5163091
-1.680703	@ d i	-0.258631
-1.680703	@ d r	-0.4488129
-0.2682684	E d </s>
-1.305734	E d @	-0.3286251
-0.7069114	E d I	-0.9066698
-1.00686	E d P	1.359851
-1.305734	E d U	-0.3049083
-1.305734	E d l	-0.3049083
-0.08061931	H d </s>
-1.90641	I d $	-0.272046
-1.90641	I d 1	-0.5079681
-1.90641	I d 3	-0.4268366
-0.1702895	I d </s>
-1.607535	I d @	-0.5101781
-1.90641	I d H	0.6552466
-1.131857	I d I	-1.071923
-0.910297	I d P	0.7257988
-1.90641	I d n	-0.4268366
-1.90641	I d r	-0.4839906
-1.90641	I d z	0
-1.90641	I d {	-0.4788489
-0.6851048	Q d </s>
-1.283928	Q d @	-0.5031683
-1.283928	Q d I	-0.478531
-0.3335244	Q d P	0.7696157
-1.283928	Q d p	0
-0.8096827	Q d r	-0.8502499
-0.2672595	U d </s>
-0.5672079	U d @	-0.6515777
-0.8660825	U d I	-0.5160961
-0.5246081	V d </s>
-1.123431	V d @	-0.3286251
-1.123431	V d I	-0.4977196
-0.2820345	V d P	0.8732626
-1.00686	i d 5	-0.3526005
-0.3096217	i d </s>
-1.00686	i d @	-0.5601521
-1.00686	i d I	-0.7074343
-1.00686	i d P	1.359851
-1.00686	i d r	-0.7155175
-0.23083	k d $	-0.6886473
-0.5297047	k d 5	-0.4920541
-1.258144	l d 5	-0.3526005
-0.09879221	l d </s>
-0.8615022	l d @	-0.8335452
-0.23083	m d V	-0.6414462
-0.5297047	m d r	-0.4839906
-1.834854	n d $	-0.3468873
-2.133729	n d 1	-0.4743111
-1.659483	n d 5	-0.4498969
-0.2403679	n d </s>
-0.7399362	n d @	-0.5908282
-1.834854	n d E	-0.7069937
-1.096263	n d I	-1.190249
-1.058507	n d P	0.649545
-2.133729	n d V	-0.4663639
-2.133729	n d r	-0.4839906
-0.9850532	u d 5	-0.3526005
-0.2464619	u d </s>
-1.283928	u d @	-0.4200507
-1.283928	u d I	-0.4977196
-0.6851048	u d P	1.098244
-0.3616571	{ d </s>
-0.5654519	{ d @	-1.055947
-1.260968	{ d E	-0.4847708
-0.9620936	{ d P	1.359851
-1.260968	{ d V	-0.4663639
-1.260968	{ d m	0
-0.5558209	# f </s>
-0.1585312	# f t	-0.6551219
-0.2554328	$ f </s>
-0.4308032	$ f I	-0.6146536
-0.08061931	1 f I	-0.7390126
-0.379494	3 f I	-0.4905881
-0.379494	3 f j	0.09634614
-0.4308032	5 f #	-0.2712628
-0.7296779	5 f @	-0.4967106
-0.4308032	5 f I	-0.747221
-1.137434	<s> f #	0.1285386
-1.367704	<s> f $	-0.4922651
-1.6683	<s> f 1	0.07353568
-1.889572	<s> f 3	-0.4405538
-2.064942	<s> f 5	-0.5792351
-1.764994	<s> f @	-0.9491332
-1.112624	<s> f E	0.1398872
-0.9877459	<s> f I	-1.113901
-1.137434	<s> f Q	0.02424014
-2.064942	<s> f U	0
-1.52242	<s> f V	0
-1.326351	<s> f i	0.03645492
-1.464506	<s> f j	0.09255552
-0.5972124	<s> f l	0.007252216
-0.8239459	<s> f r	-0.5074252
-1.326351	<s> f {	0.03645492
-1.013546	@ f 1	-0.3764081
-1.013546	@ f </s>
-1.013546	@ f @	-0.3964877
-0.7146717	@ f E	-0.6538815
-1.013546	@ f I	-0.4355522
-1.013546	@ f i	-0.4189726
-0.5393012	@ f r	-0.785264
-0.5672079	E f @	-0.5780408
-0.8660825	E f E	-0.4649456
-0.2672595	E f t	-0.2826765
-0.3406862	I f </s>
-1.224036	I f @	-0.8416959
-1.224036	I f H	0
-1.399407	I f I	-0.6367037
-0.9237283	I f P	0.4807142
-1.698282	I f Q	-0.4328789
-1.698282	I f j	0.09634614
-1.698282	I f r	-0.4778638
-0.7478781	I f t	-0.5322843
-1.698282	I f {	-0.4189726
-0.7368066	Q f </s>
-1.211052	Q f @	-0.4967106
-0.2606484	Q f I	-0.918525
-1.211052	Q f P	1.135961
-0.9121771	Q f t	-0.02106953
-1.464321	V f $	-0.5026686
-0.3543654	V f </s>
-1.464321	V f @	-0.4967106
-0.9900762	V f I	-0.7648643
-0.5650101	V f P	0.3629371
-1.464321	V f r	-0.5297382
-1.165447	V f t	-0.7413435
-0.147967	i f </s>
-0.2787916	l f </s>
-0.5790996	l f @	-0.7282515
-1.053345	l f I	-0.4355522
-1.053345	l f t	0.2104574
-0.5672079	m f </s>
-0.5672079	m f @	-0.5780408
-0.8660825	m f I	-0.499119
-0.8660825	m f l	-0.5019119
-0.8660825	m f r	-0.4313833
-0.5790996	n f #	0.2914928
-1.053345	n f 3	-0.4268366
-0.4545217	n f E	-0.7057059
-0.5790996	n f r	-0.7984655
-0.7296779	s f @	-0.4967106
-0.1308549	s f I	-0.9943599
-0.147967	t f $	-0.3152011
-0.379494	u f 5	-0.4499438
-0.379494	u f </s>
-1.346314	{ f #	-0.03973582
-1.04744	{ f 5	-0.5697866
-0.7474912	{ f </s>
-1.04744	{ f @	-0.5780408
-0.7474912	{ f I	-0.9301881
-0.7474912	{ f P	0.6428269
-1.04744	{ f T	0
-1.346314	{ f r	-0.4667017
-1.04744	{ f t	-0.7413435
-0.4279148	# g 5	-0.5037771
-1.123431	# g @	-0.5025508
-0.8245565	# g I	-0.4906616
-1.123431	# g P	0.9388471
-0.649186	# g Q	-0.7609151
-1.123431	# g j	0.3817377
-0.3289685	$ g @	-0.7804132
-0.8032137	$ g I	-0.4515601
-0.8032137	$ g V	-0.4515601
-0.8032137	$ g {	-0.5194856
-0.6708549	1 g #	-0.7084214
-0.4954844	1 g 5	-0.3038039
-0.9697295	1 g </s>
-0.6708549	1 g @	-0.599827
-0.9697295	1 g j	0.3817377
-0.6411009	3 g </s>
-0.6411009	3 g @	-0.5176819
-0.3422262	3 g P	0.7073201
-1.053345	5 g </s>
-0.3578284	5 g @	-0.6751099
-1.053345	5 g I	-0.4515601
-1.053345	5 g P	0.9388471
-1.053345	5 g V	-0.4515601
-0.7544701	5 g r	-0.7226186
-1.11901	<s> g #	-1.03351
-1.992195	<s> g $	-0.5165444
-2.29107	<s> g 1	0
-1.992195	<s> g 3	0
-1.992195	<s> g 5	-0.6959376
-1.391759	<s> g @	-1.221624
-1.816825	<s> g E	0.1113964
-1.391759	<s> g I	-0.690916
-1.294957	<s> g Q	-0.6363302
-1.992195	<s> g U	0
-1.148953	<s> g V	0.05640841
-0.848078	<s> g l	-0.7899548
-0.3922469	<s> g r	0.06970096
-2.29107	<s> g w	-0.1875223
-0.9729651	<s> g {	-0.5855207
-1.123431	@ g #	-0.4987119
-1.123431	@ g 5	-0.5194856
-0.5246081	@ g @	-0.8614339
-1.123431	@ g E	-0.2760993
-0.8245565	@ g Q	-0.7103759
-0.5246081	@ g u	-0.6071205
-0.147967	E g j	0.3817377
-1.381829	I g #	-0.6716691
-1.206458	I g 5	-0.3038039
-0.6432375	I g </s>
-0.6845907	I g @	-0.9371281
-1.08188	I g P	0.4457132
-1.206458	I g l	-0.8295636
-1.08188	I g m	0.08857703
-0.9851871	I g n	-0.3687826
-1.206458	I g r	-0.8673964
-1.381829	I g w	-0.4190492
-1.680703	I g z	0
-1.344383	N g $	-0.5076263
-0.8687041	N g 5	-0.5773128
-0.8018605	N g @	-0.9511667
-0.2671864	N g P	0.2398249
-1.344383	N g r	-0.7119475
-1.643257	N g u	-0.4651667
-1.344383	N g w	-0.5697866
-0.22412	Q g </s>
-0.8245565	Q g @	-0.7044088
-1.123431	Q g P	0.9388471
-1.123431	Q g n	-0.4840106
-1.123431	Q g r	-0.5254343
-0.147967	U g @	-0.4270647
-0.2333596	V g </s>
-0.7095179	V g I	-0.6408722
-0.7095179	V g P	0.5571094
-0.7296779	i g </s>
-0.7296779	i g @	-0.4270647
-0.7296779	i g P	0.9388471
-0.4308032	i g r	-0.6675988
-0.23083	l g @	-0.7290446
-0.5297047	l g r	-0.4360718
-0.504339	u g #	-0.7302389
-0.504339	u g @	-0.6585916
-0.8032137	u g I	-0.4515601
-0.8032137	u g P	0.9388471
-1.269908	{ g 5	-0.7084214
-0.5726697	{ g </s>
-0.4935608	{ g @	-1.013382
-0.9699594	{ g P	0.4457132
-1.269908	{ g l	-0.744093
-1.568782	{ g m	0.5817109
-1.269908	{ g n	-0.5789167
-1.094537	{ g r	-0.7724799
-1.568782	{ g u	-0.4651667
-0.5297047	# h #	-0.5269406
-0.23083	# h @	0
-0.6823614	<s> h #	-0.8061612
-1.380753	<s> h $	-0.4890813
-1.681061	<s> h 1	0
-1.45979	<s> h 3	0
-1.45979	<s> h 5	0
-0.955236	<s> h E	0
-1.255995	<s> h I	0.04873824
-1.080084	<s> h Q	0.03363204
-1.856431	<s> h U	0
-0.8583803	<s> h V	0
-1.681061	<s> h i	0
-1.45979	<s> h j	0.07353568
-2.155306	<s> h u	-0.3874955
-0.7123142	<s> h {	-0.8679016
-0.3289685	@ h #	-0.8204681
-0.8032137	@ h I	-0.4352718
-0.8032137	@ h Q	-0.4292027
-0.8032137	@ h u	-0.3874955
-0.379494	I h #	-0.5269406
-0.379494	I h j	0.6552466
-0.147967	i h $	-0.4759586
-0.08061931	n h {	-0.7413435
-0.147967	u h u	-0.3874955
-0.7909256	<s> i T	0
-1.0898	<s> i _	0
-1.0898	<s> i d	-0.4945026
-1.0898	<s> i g	-0.3382596
-0.7909256	<s> i l	-0.6935445
-0.7909256	<s> i m	-0.7302389
-1.0898	<s> i p	-0.4352718
-0.7909256	<s> i s	-0.5182614
-0.379494	I i k	0.004273057
-0.379494	I i n	-0.477738
-0.379494	J i </s>
-0.379494	J i v	-0.2098922
-0.3918374	S i </s>
-0.3918374	S i S	-0.5046424
-0.8660825	S i n	-0.1458916
-0.08061931	T i d	-0.7260296
-0.147967	Z i n	-0.1458916
-0.9697295	_ i </s>
-0.6708549	_ i l	-0.4793315
-0.1951764	_ i n	-0.4627681
-0.7909256	b i b	-0.6338249
-1.0898	b i d	-0.4945026
-1.0898	b i g	-0.4499438
-0.3942839	b i s	-0.4653362
-0.6155551	b i z	-0.2107358
-0.9209907	d i k	-0.4987119
-0.9209907	d i l	-0.2478045
-0.622116	d i m	-0.6355045
-0.3221677	d i n	-0.6124297
-1.0898	f i S	-0.4651667
-1.0898	f i k	-0.4987119
-1.0898	f i l	-0.4620175
-1.0898	f i m	-0.4039775
-0.7909256	f i n	-0.7361736
-0.6155551	f i s	-0.5950382
-0.6155551	f i t	-0.7673398
-0.23083	h i D	0
-0.5297047	h i h	0
-0.379494	j i l	-0.4620175
-0.379494	j i s	-0.2867344
-1.0898	k i @	-0.2760993
-0.7909256	k i Q	0
-0.6155551	k i m	-0.2247832
-0.6155551	k i n	-0.4385871
-0.7909256	k i t	-0.3394456
-1.0898	k i w	0
-1.292521	l i 5	-0.3862245
-1.292521	l i J	0.4237196
-1.591395	l i S	-0.4651667
-1.591395	l i b	-0.4022979
-0.9925722	l i d	-0.6575859
-1.11715	l i k	-0.3774647
-1.292521	l i m	-0.0745725
-0.8168421	l i n	-0.6391382
-1.292521	l i p	-0.4414192
-1.11715	l i s	-0.265363
-0.7499986	l i t	-0.3946472
-1.292521	l i v	-0.4414192
-0.9925722	l i z	-0.3858724
-1.0898	m i #	0
-1.0898	m i b	-0.4759586
-1.0898	m i d	-0.4945026
-0.7909256	m i g	-0.4279674
-0.7909256	m i l	-0.7208505
-0.7909256	m i n	-0.7440845
-0.7909256	m i t	-0.6171291
-1.0898	m i z	-0.5237895
-0.8032137	n i </s>
-0.8032137	n i d	-0.4945026
-0.504339	n i k	-0.2272539
-0.8032137	n i t	-0.5218968
-0.8032137	n i z	0.1072615
-0.9121771	p i </s>
-0.7368066	p i @	0.1113963
-1.211052	p i S	-0.3764081
-1.211052	p i d	-0.2468995
-0.9121771	p i k	-0.2272539
-0.9121771	p i l	-0.4793315
-0.9121771	p i t	0.09194118
-0.7368066	p i z	-0.2744762
-1.837163	r i 5	-0.3874955
-0.7996973	r i </s>
-1.23834	r i J	0.1621127
-1.837163	r i b	-0.4022979
-1.538289	r i d	-0.395979
-1.837163	r i f	0
-1.837163	r i g	-0.4499438
-1.141647	r i k	-0.5136973
-1.837163	r i l	-0.2478045
-0.9378521	r i m	-0.9793434
-0.7619416	r i n	-0.9257246
-1.837163	r i p	-0.2098922
-1.06261	r i s	-0.2942727
-1.141647	r i t	-0.6896296
-1.538289	r i v	-0.4414192
-0.9378521	r i z	-0.6020218
-1.066391	s i </s>
-1.365265	s i b	-0.4759586
-0.6697491	s i d	-0.7461628
-0.8910204	s i k	-0.8691323
-1.066391	s i l	-0.3226458
-0.8910204	s i m	-0.739693
-0.8910204	s i n	-0.2548519
-1.365265	s i p	-0.4352718
-1.365265	s i t	-0.1079186
-1.066391	s i z	-0.1242654
-1.01864	t i </s>
-1.492885	t i d	-0.2468995
-1.492885	t i j	0
-1.19401	t i k	-0.2272539
-1.19401	t i l	-0.4407451
-1.492885	t i m	-0.2063196
-0.3829289	t i n	-0.9958067
-1.01864	t i p	-0.3473083
-1.492885	t i t	-0.4223545
-1.19401	t i v	-0.6667988
-1.19401	t i z	-0.06052512
-0.08061931	v i n	-0.7412069
-1.211052	w i </s>
-1.211052	w i d	-0.2468995
-0.9121771	w i k	-0.2272539
-0.9121771	w i l	-0.3226458
-0.9121771	w i n	-0.3774185
-1.211052	w i p	-0.2098922
-1.211052	w i t	-0.1079186
-0.9121771	w i v	-0.6667988
-0.6122288	w i z	-0.233191
-0.6411009	z i </s>
-0.6411009	z i b	-0.4759586
-0.3422262	z i n	-0.3774185
-1.464321	<s> j #	-0.3049083
-0.8654983	<s> j 5	-0.4633733
-0.8654983	<s> j E	0
-1.464321	<s> j I	0
-1.464321	<s> j Q	-0.3049083
-1.165447	<s> j U	-0.5529261
-1.464321	<s> j V	0
-1.165447	<s> j i	0
-0.4682086	<s> j u	-1.27022
-0.9900762	<s> j {	-0.4326719
-0.147967	@ j Q	-0.3049083
-0.147967	P j u	-0.440047
-0.3918374	b j U	-0.6893561
-0.2672595	b j u	-0.8028221
-0.9209907	d j U	-0.3213991
-0.07959408	d j u	-1.128557
-1.013546	f j $	0
-1.013546	f j U	-0.3213991
-0.1142352	f j u	-0.9673898
-0.05545961	g j u	-0.7698635
-0.02866056	h j u	-1.04294
-0.147967	i j @	-0.3415821
-0.4621737	k j U	-0.891372
-0.1992608	k j u	-0.9714426
-1.0898	l j #	-0.3049083
-0.4909772	l j @	-0.4814491
-0.6155551	l j U	-0.6363276
-0.4909772	l j u	-0.8571516
-0.5558209	m j U	-0.8593222
-0.1585312	m j u	-1.146001
-1.433746	n j 3	0
-1.433746	n j 5	-0.4499438
-0.5344349	n j @	0.2900612
-1.433746	n j U	-0.5248404
-0.2616868	n j u	-1.24975
-1.433746	n j {	-0.4268366
-0.9850532	p j @	-0.5731091
-0.8096827	p j U	-0.3730862
-0.1418111	p j u	-1.180529
-0.147967	r j u	-0.5355851
-0.7296779	s j @	-0.3415821
-0.1308549	s j u	-0.8571516
-0.5654519	t j U	-0.3913641
-0.1510123	t j u	-0.9620314
-0.379494	v j U	-0.3661883
-0.379494	v j u	-0.440047
-1.053345	# k 1	-0.4039775
-0.4545217	# k </s>
-0.7544701	# k @	-0.7459267
-0.7544701	# k I	-0.5263441
-0.7544701	# k w	-0.5361704
-0.3422262	$ k </s>
-0.6411009	$ k @	-0.5065634
-0.6411009	$ k P	1.49529
-0.7146717	1 k $	-0.6314898
-0.1721497	1 k </s>
-1.013546	1 k r	-0.5082682
-0.7544701	3 k </s>
-0.5790996	3 k @	-0.8346068
-0.7544701	3 k I	-0.2946008
-1.053345	3 k P	1.49529
-1.053345	3 k Q	-0.4362982
-0.7544701	3 k w	-0.6692537
-1.346314	5 k #	-0.4744915
-0.7474912	5 k 5	-0.7463962
-0.5049176	5 k </s>
-0.5049176	5 k @	-0.8901103
-1.346314	5 k P	1.49529
-1.346314	5 k s	-0.1023398
-1.346314	5 k w	-0.4377267
-1.22905	<s> k #	-1.116878
-1.529944	<s> k $	-0.985519
-1.733902	<s> k 1	-1.082206
-1.888618	<s> k 3	-0.7126877
-1.557955	<s> k 5	-1.235834
-0.8204689	<s> k @	-1.78533
-1.620058	<s> k E	-0.4257692
-1.692548	<s> k I	-0.6641794
-0.8954237	<s> k Q	-0.6085578
-2.43114	<s> k U	0
-1.372419	<s> k V	-0.8851302
-2.255769	<s> k i	-0.8109724
-1.888618	<s> k j	0.3706445
-0.9783847	<s> k l	-0.5521901
-0.8257971	<s> k r	0.1515448
-2.255769	<s> k u	-0.8100147
-2.730014	<s> k v	0
-1.132167	<s> k w	-0.9040792
-0.8891756	<s> k {	-0.5563117
-1.063561	@ k $	-0.8565899
-1.662384	@ k 3	-0.5055238
-1.363509	@ k 5	-0.7256559
-0.4903244	@ k </s>
-1.662384	@ k @	-0.5094035
-1.188139	@ k P	1.113553
-1.188139	@ k Q	-0.8531086
-1.662384	@ k V	-0.4849216
-1.363509	@ k i	-0.6607617
-1.363509	@ k j	-0.3368414
-1.662384	@ k r	-0.5082682
-1.063561	@ k s	-0.3446473
-1.188139	@ k u	-0.7734978
-1.662384	@ k w	-0.4377267
-1.188139	@ k {	-0.8462275
-1.824467	E k 5	-0.3379129
-1.225644	E k </s>
-1.350222	E k @	-0.6624638
-1.350222	E k P	1.113553
-1.824467	E k l	-0.4761932
-1.824467	E k n	-0.4499438
-0.366241	E k s	-0.9000205
-0.4668721	E k t	-0.7664448
-1.525593	E k w	-0.5361704
-1.87411	I k #	-0.7060184
-1.477468	I k 1	-0.9856884
-1.574161	I k 5	-0.7463962
-0.575137	I k </s>
-0.7299924	I k @	-0.9695897
-1.273673	I k I	-0.7105452
-1.000925	I k P	0.4594942
-1.87411	I k Q	-0.6501778
-2.172984	I k S	-0.3874955
-2.172984	I k d	-0.3874955
-1.87411	I k i	-0.6504995
-1.698739	I k j	0.7070221
-1.574161	I k l	-0.9344032
-1.698739	I k n	-0.3440949
-2.172984	I k r	-0.4702627
-1.030867	I k s	-0.6742824
-1.331588	I k t	-0.712198
-1.698739	I k u	-0.7336263
-1.477468	I k w	-0.8863543
-1.87411	I k {	-0.6653769
-1.618074	N k 5	-0.5694399
-0.2051833	N k </s>
-1.142396	N k @	-1.116898
-1.618074	N k I	-0.4918021
-1.017638	N k P	0.7222666
-1.618074	N k l	-0.6950555
-1.618074	N k r	-0.7017897
-1.318126	N k s	-0.5954736
-1.442704	N k t	-0.0575313
-1.618074	N k w	-0.5361704
-1.334494	Q k 5	-0.5694399
-0.5959025	Q k </s>
-0.8588154	Q k @	-0.8183544
-1.159123	Q k I	-0.6765548
-1.334494	Q k V	-0.6673373
-1.633368	Q k j	-0.355742
-1.633368	Q k l	-0.4685618
-0.5581468	Q k s	-0.8065972
-0.9378521	Q k t	0.06053424
-0.1705662	U k </s>
-0.8660825	U k r	-0.4568174
-0.8660825	U k u	-0.4827954
-0.8720691	V k 5	-0.5901877
-1.04744	V k </s>
-0.8720691	V k @	-0.8378994
-1.04744	V k I	-0.5263441
-0.5049176	V k P	0.7771747
-1.346314	V k j	-0.355742
-0.8720691	V k s	-0.3865828
-1.346314	V k t	-0.06089178
-0.1462443	i k </s>
-1.04744	i k @	-0.5941339
-1.346314	i k P	1.49529
-1.346314	i k r	-0.4568174
-1.04744	i k w	-0.5375423
-0.2863234	l k </s>
-0.4621737	l k @	-0.9169447
-1.236727	l k I	-0.4182895
-1.236727	l k t	-0.06089178
-0.147967	m k I	-0.4182895
-0.6411009	n k Q	-0.5115694
-0.3422262	n k V	-0.7164485
-0.6411009	n k i	-0.4189726
-0.05545961	p k I	-0.8000272
-1.124054	s k #	-1.249531
-1.570655	s k $	-0.9144039
-1.491618	s k 1	-0.9698365
-1.570655	s k 3	-0.6679372
-1.570655	s k 5	-0.7509173
-0.7932265	s k </s>
-1.36686	s k @	-1.231252
-1.491618	s k E	-0.6702845
-1.124054	s k I	-0.6273233
-1.667348	s k Q	-0.8710688
-1.156215	s k V	-1.157663
-1.667348	s k i	-0.8184725
-1.791926	s k j	-0.4870521
-0.8723788	s k r	-1.251379
-1.491618	s k u	-0.9845811
-0.8901004	s k w	-0.7992352
-1.124054	s k {	-1.10042
-0.147967	t k V	-0.4358104
-0.3942839	u k </s>
-0.4909772	u k @	-0.727088
-1.0898	u k l	-0.4685618
-0.7909256	u k r	-0.7478074
-1.867368	{ k #	-0.5307165
-1.568494	{ k 5	-0.5694399
-0.7252516	{ k </s>
-1.568494	{ k @	-0.512253
-1.268545	{ k I	-0.753409
-1.268545	{ k P	1.002156
-1.568494	{ k S	-0.3862245
-1.568494	{ k d	-0.3862245
-1.393123	{ k m	0
-1.867368	{ k n	-0.1875223
-0.4912975	{ k s	-0.792608
-0.695309	{ k t	-0.658854
-0.7664425	# l </s>
-0.3277996	# l @	-1.076544
-0.4659544	# l I	-1.191945
-0.3604302	$ l </s>
-1.233615	$ l I	-0.686726
-1.233615	$ l d	-0.07950974
-1.233615	$ l k	-0.587269
-1.53249	$ l r	0
-0.9336665	$ l s	-0.5978622
-0.6331784	$ l t	-0.5613627
-1.283928	1 l 5	-0.1230562
-0.2464619	1 l </s>
-1.283928	1 l @	-0.4954193
-0.6851048	1 l I	-0.9430088
-1.283928	1 l i	-0.4544669
-1.283928	1 l j	-0.3701789
-1.013546	3 l 5	-0.1230562
-0.31803	3 l </s>
-0.7146717	3 l d	-0.07950974
-1.013546	3 l j	-0.3701789
-1.013546	3 l {	-0.5155661
-1.132614	5 l 5	-0.6161901
-0.4802448	5 l </s>
-0.8900405	5 l @	-0.9654139
-1.432562	5 l E	-0.7308083
-1.132614	5 l I	-0.9272592
-0.6214812	5 l d	-0.8234469
-1.035921	5 l t	-0.37005
-1.731437	5 l u	-0.5005343
-0.7576578	<s> l #	-0.9814583
-2.133729	<s> l $	-0.4628337
-1.438212	<s> l 1	-0.9899862
-1.534906	<s> l 5	-0.9704465
-1.359175	<s> l @	-1.105247
-0.8825362	<s> l E	-0.8780373
-0.5697309	<s> l I	-1.387188
-1.659483	<s> l Q	-0.7539138
-1.659483	<s> l U	0
-1.438212	<s> l V	-0.9547011
-1.359175	<s> l i	-0.9734212
-2.133729	<s> l j	-0.3701789
-1.534906	<s> l u	-0.8830082
-0.8368028	<s> l {	-1.150092
-1.034675	@ l #	-0.6904789
-2.030788	@ l $	-0.4628337
-2.030788	@ l 1	-0.4439131
-2.030788	@ l 3	-0.4210505
-1.731913	@ l 5	-0.3545831
-0.3448247	@ l </s>
-1.131477	@ l @	-1.005696
-1.556543	@ l E	-0.7361211
-0.9933221	@ l I	-1.292476
-1.335272	@ l Q	-0.9538871
-1.731913	@ l V	-0.670451
-1.731913	@ l d	-0.07950974
-1.335272	@ l i	-1.00457
-2.030788	@ l j	-0.4189726
-2.030788	@ l t	0.211661
-1.431965	@ l u	-0.8720095
-1.731913	@ l {	-0.7112694
-1.932293	E l 1	-0.5248404
-1.33347	E l 5	-0.6161901
-0.6353672	E l </s>
-0.9818895	E l @	-0.9840428
-1.932293	E l E	-0.3944298
-0.9361802	E l I	-1.210322
-1.633418	E l J	-0.1862513
-1.932293	E l S	0.231527
-1.633418	E l T	0.2616069
-1.932293	E l V	-0.5116313
-1.236777	E l d	0.04918945
-1.458048	E l f	-0.5177527
-1.932293	E l i	-0.5050086
-1.633418	E l k	-0.409939
-1.33347	E l m	-0.6007904
-1.236777	E l p	-0.7399892
-1.932293	E l s	-0.5100842
-0.9361802	E l t	-0.2713251
-1.932293	E l u	-0.4797606
-1.458048	E l v	-0.3868653
-1.891096	I l #	-0.6746207
-1.715726	I l 1	-0.7584371
-1.591148	I l 5	-0.6161901
-0.4699345	I l </s>
-0.9635879	I l @	-1.069699
-1.29066	I l E	-0.9235429
-0.8516722	I l I	-1.470775
-1.891096	I l J	0.3501837
-2.189971	I l Q	-0.4993626
-1.891096	I l T	0.2616069
-2.189971	I l _	-0.04330134
-1.891096	I l b	-0.3455135
-1.348574	I l d	-0.4393975
-1.891096	I l f	-0.6381614
-2.189971	I l g	-0.3874955
-2.189971	I l i	-0.4929138
-1.891096	I l j	-0.5568656
-1.591148	I l k	-0.7163863
-1.891096	I l m	-0.5301778
-2.189971	I l n	-0.3049083
-2.189971	I l s	-0.4788489
-1.017912	I l t	-0.7792945
-2.189971	I l u	-0.5203595
-1.891096	I l {	-0.7615854
-1.215336	Q l 5	-0.5047939
-1.090758	Q l </s>
-0.438389	Q l @	-0.9880034
-0.6521154	Q l I	-1.244239
-1.390707	Q l d	-0.7067595
-1.390707	Q l f	-0.367542
-1.689581	Q l i	-0.4676644
-1.215336	Q l j	-0.5702383
-1.689581	Q l m	-0.4902496
-1.390707	Q l s	-0.6767189
-1.689581	Q l t	-0.5301545
-1.689581	Q l v	-0.258631
-0.147967	T l i	-0.4544669
-0.5420277	U l </s>
-0.4330209	U l @	-1.217763
-0.7846013	U l I	-0.9709856
-1.383424	U l f	-0.2150357
-1.08455	U l m	-0.6667988
-1.383424	U l p	-0.5100842
-1.602275	V l </s>
-1.602275	V l @	-0.3960004
-1.003452	V l I	-0.8540606
-1.602275	V l J	0.04527563
-1.602275	V l S	0.231527
-1.3034	V l _	-0.2748283
-1.602275	V l b	-0.4651667
-1.3034	V l f	-0.4465627
-0.9067586	V l k	-0.7601228
-1.602275	V l n	-0.3049083
-0.8277218	V l p	-0.5585858
-0.8277218	V l s	-0.7599747
-0.7608783	V l t	0.0182246
-1.3034	V l v	-0.6525775
-0.8302435	b l #	-0.6253056
-1.197395	b l 1	-0.7900129
-1.67164	b l 3	-0.3473897
-1.372766	b l 5	-0.21793
-1.072817	b l E	-0.869027
-0.8970871	b l I	-0.96459
-0.8302435	b l Q	-1.03181
-0.8302435	b l V	-1.102248
-0.8970871	b l i	-1.000879
-1.072817	b l {	-0.770794
-0.379494	d l @	-0.5030783
-0.379494	d l I	-0.455199
-1.002306	f l #	-0.5986843
-1.302614	f l $	-0.7174842
-1.178036	f l 1	-0.9584103
-1.776859	f l 3	-0.4210505
-1.776859	f l 5	-0.5198472
-1.081343	f l E	-0.912852
-1.081343	f l I	-0.8840002
-1.081343	f l Q	-1.020455
-0.8775482	f l V	-1.013586
-1.477985	f l i	-0.6543862
-1.178036	f l u	-0.9361017
-0.5767894	f l {	-1.087364
-0.8241687	g l #	-0.6907359
-1.519685	g l 1	-0.5098165
-1.519685	g l 5	-0.5297382
-1.22081	g l @	-0.6990231
-0.9208621	g l E	-0.6897236
-0.9208621	g l I	-0.9207959
-1.519685	g l Q	-0.4993626
-0.745132	g l V	-1.028237
-1.22081	g l i	-0.7471402
-1.04544	g l u	-0.7606131
-0.9208621	g l {	-0.9252148
-0.3105648	i l </s>
-0.7867231	i l @	-0.8473759
-1.260968	i l I	-0.4967476
-0.7867231	i l d	-0.2297205
-0.9620936	i l j	-0.6017059
-0.8218648	k l #	-0.8090168
-1.519103	k l $	-0.6943606
-1.519103	k l 1	-0.7034299
-1.122461	k l 5	-1.04667
-1.817978	k l @	-0.5068578
-1.122461	k l E	-1.007133
-0.8218648	k l I	-1.256822
-0.8675741	k l Q	-1.036371
-1.519103	k l V	-0.7632486
-1.122461	k l i	-0.9273435
-0.6459182	k l {	-1.153626
-0.147967	m l E	-0.3944298
-0.147967	n l I	-0.4967476
-1.098612	p l #	-0.575688
-1.574291	p l $	-0.6943606
-1.098612	p l 1	-0.9702227
-1.574291	p l 3	-0.6525775
-1.274342	p l @	-0.929768
-0.9227617	p l E	-1.029474
-1.031769	p l I	-1.075229
-0.9227617	p l Q	-1.147178
-1.098612	p l V	-0.8531131
-1.274342	p l i	-0.8387667
-1.574291	p l u	-0.7112876
-0.6219728	p l {	-1.21839
-0.9053882	s l #	-0.6802142
-1.330454	s l $	-0.8007103
-1.505825	s l 1	-0.685986
-1.330454	s l 3	-0.6501067
-1.109183	s l 5	-1.091961
-1.330454	s l E	-0.7976953
-0.9053882	s l I	-1.043465
-1.205876	s l Q	-0.8614041
-0.7672334	s l V	-1.014682
-1.205876	s l i	-0.9690521
-1.330454	s l u	-0.7879534
-0.8085867	s l {	-1.051749
-0.08061931	t l @	-0.7269462
-0.1273184	u l </s>
-1.123431	u l @	-0.3960004
-0.8245565	u l I	-0.7463825
-0.08061931	v l I	-0.686726
-0.04227789	z l I	-0.9065652
-1.5445	{ l #	-0.7600389
-1.5445	{ l 1	-0.6754401
-0.9440635	{ l 5	-0.8960799
-1.5445	{ l </s>
-0.4857794	{ l @	-1.361811
-0.7334187	{ l I	-1.101294
-1.843375	{ l Q	-0.4887463
-1.843375	{ l _	-0.4268366
-1.36913	{ l b	-0.2705591
-1.843375	{ l f	-0.4066344
-1.5445	{ l g	-0.3862245
-1.843375	{ l j	-0.3701789
-1.244552	{ l k	-0.8488759
-1.36913	{ l p	-0.3973415
-1.843375	{ l s	-0.4788489
-1.5445	{ l v	-0.490158
-1.843375	{ l {	-0.4743747
-1.326498	# m #	-0.5308892
-1.326498	# m 1	-0.5100842
-0.6309817	# m </s>
-0.551945	# m @	-0.875767
-0.852253	# m I	-0.8826923
-1.326498	# m Q	-0.4945026
-1.027623	# m p	-0.7316322
-1.326498	# m z	-0.4499438
-1.326498	# m {	-0.510668
-0.7544701	$ m 5	-0.5780408
-0.5790996	$ m </s>
-0.7544701	$ m @	-0.5800672
-1.053345	$ m E	-0.2635249
-0.7544701	$ m j	-0.629517
-1.053345	$ m {	-0.510668
-0.04227789	1 m </s>
-1.236727	3 m 5	-0.518528
-0.7624816	3 m </s>
-1.236727	3 m @	-0.5193386
-0.2406141	3 m I	-1.135995
