
\data\
ngram 1=5359
ngram 2=23168

\1-grams:
-2.91996	#	-0.3190442
-2.978928	#I	-0.1201199
-4.416173	#Id	0.1457653
-4.715048	#Idz	0.1527099
-4.715048	#Il	0.1527099
-3.940495	#Is	0.1153075
-4.240803	#J	0.1511676
-4.416173	#R	0.1448249
-4.715048	#S	0.1527099
-3.572931	#U	0.07226308
-4.715048	#UJ	0.1527099
-4.715048	#Ul	0.1527099
-4.715048	#Uns	0.1527099
-4.715048	#Ust	0.1527099
-2.880457	#Ut	-0.1830713
-3.815737	#f	-0.05687862
-4.715048	#ft	0.1527099
-4.019532	#k	0.1226851
-3.764644	#m	0.09567565
-4.416173	#md	0.1448249
-4.715048	#mz	0.1527099
-4.116225	#n	-0.0261725
-4.715048	#s	-0.00791286
-4.715048	#sk	0.1527099
-4.715048	#skt	0.1527099
-4.019532	#t	-0.03625451
-4.715048	#ts	0.1527099
-2.78482	$	-0.3893904
-4.416173	$R	0.1448249
-4.715048	$b	0.1527099
-4.715048	$d	-0.00803721
-4.715048	$g	-0.00803721
-4.416173	$k	0.1452844
-3.440387	$l	0.04085337
-4.715048	$t	0.1527099
-2.816225	1	-0.1967618
-4.416173	1J	0.1451882
-4.715048	1_	-0.006725607
-4.416173	1_d	0.1448249
-4.416173	1d	0.1448249
-3.940495	1k	0.114643
-4.715048	1l	-0.007780182
-4.416173	1m	-0.01461062
-4.416173	1n	-0.01597195
-4.715048	1p	0.1527099
-3.187762	1t	-0.05266148
-4.715048	1tT	0.1527099
-3.376749	3	-0.134921
-4.715048	3R	0.1527099
-3.873651	3T	0.1206634
-4.715048	3_	0.1527099
-4.715048	3g	0.1527099
-4.715048	3k	0.1527099
-4.416173	3l	0.144936
-4.715048	3nd	0.1527099
-2.454528	5	-0.4346733
-4.715048	5T	0.1527099
-4.715048	5f	0.1527099
-4.416173	5l	0.144912
-4.715048	5ld	0.1527099
-4.715048	5m	0.1527099
-4.416173	5n	0.1448249
-4.715048	5st	0.1527099
-4.240803	5t	0.1370746
-4.715048	5ts	0.1527099
-0.5093717	</s>
-99	<s>	-2.702816
-1.957434	@	-0.7842904
-2.702294	@R	-0.3077576
-4.715048	@T	0.1527099
-3.227867	@b	-0.1975318
-3.418122	@d	0.03861685
-4.715048	@g	-0.008053787
-4.416173	@k	-0.01511541
-3.357453	@l	0.0178095
-4.715048	@ld	0.1527099
-4.416173	@m	0.1448249
-4.715048	@mf	0.1527099
-3.488665	@n	0.04540709
-3.764644	@ns	0.0933079
-3.815737	@nt	0.1122946
-4.715048	@nz	0.1527099
-3.815737	@s	0.1123301
-4.715048	@st	0.1527099
-3.873651	@t	0.1194104
-4.416173	@z	0.1448249
-4.715048	D#I	-0.008053787
-4.715048	D#In	0.1527099
-4.715048	D#U	0.1527099
-4.715048	D#Ut	0.1527099
-4.416173	D$l	0.1448249
-4.715048	D1	0.1527099
-4.416173	D5	0.1448249
-4.715048	D5z	0.1527099
-3.304229	D@	-0.1584845
-3.272056	D@R	-0.02184024
-4.116225	D@m	0.1313549
-4.715048	D@md	0.1527099
-4.240803	D@z	0.1370805
-4.019532	DE@	0.1219463
-4.715048	DE@z	0.1527099
-4.715048	DEm	0.1527099
-4.715048	DEn	0.1527099
-4.416173	DEns	0.144816
-4.240803	DH	0.1370805
-3.718935	DI	0.09867842
-3.873651	DIN	0.119405
-4.715048	DIs	0.1527099
-4.715048	DP	0.1527099
-4.715048	DVs	0.1527099
-4.715048	Di	0.1527099
-4.715048	Diz	0.1527099
-4.715048	Dr@n	0.1527099
-4.715048	D{n	0.1527099
-2.579459	E	-0.5128255
-3.162946	E@	-0.212649
-4.416173	E@R	0.1448249
-4.715048	E@Z	0.1527099
-4.715048	EJ	0.1527099
-4.416173	ET	-0.01386776
-4.240803	E_	0.1371107
-4.715048	Ed	0.1527099
-4.715048	Ef	0.1527099
-4.715048	Eft	0.1527099
-3.873651	Eg	0.1079856
-3.418122	Ek	-0.133944
-4.715048	Eks	-0.008103514
-3.940495	El	0.1182046
-4.715048	Elf	0.1527099
-4.715048	Elk	0.1527099
-4.715048	Elm	0.1527099
-4.416173	Els	0.14496
-3.639826	Em	0.07810301
-4.240803	Emp	-0.02000416
-3.200724	En	-0.02746658
-4.715048	EnT	0.1527099
-4.416173	End	0.1467528
-4.416173	Ept	0.1568157
-4.240803	Es	0.1370266
-3.764644	Et	0.0933079
-2.317951	I	-0.5126097
-3.639826	I@	-0.08165938
-4.715048	I@R	0.1527099
-2.978928	IN	-0.1317783
-4.416173	INk	0.144888
-4.240803	INz	0.1370805
-3.605092	IS	0.07016417
-4.715048	IT	0.1527099
-4.019532	I_	0.1219941
-4.116225	Id	0.1414626
-3.287845	Ig	-0.1736002
-3.0858	Ik	-0.09427962
-4.715048	Iks	-0.008045498
-4.416173	Il	0.1485894
-2.906389	Im	-0.1717823
-4.715048	Imp	0.1527099
-2.232217	In	-0.6059253
-4.019532	Is	0.1220242
-3.815737	Ist	0.1003038
-3.940495	It	0.1149493
-4.715048	Its	0.1527099
-3.718935	J#	-0.07081408
-4.715048	J#I	-0.006684035
-4.715048	J#Il	-0.007995764
-4.416173	J#Ild	-0.01456689
-4.715048	J#Im	0.1527099
-4.715048	J#In	0.1527099
-4.715048	J#Iv	0.1527099
-4.715048	J#Iz	0.1527099
-4.715048	J#U	-0.007340395
-4.116225	J#_	0.1294718
-4.416173	J#_d	0.1448249
-4.715048	J#f	0.1527099
-3.873651	J#n	-0.04673594
-4.715048	J#nd	-0.007406806
-4.416173	J#ns	0.1448249
-4.416173	J#nt	0.1448249
-4.715048	J#t	0.1527099
-4.416173	J$	-0.01436725
-4.715048	J$R	0.1527099
-4.715048	J$k	0.1527099
-4.116225	J1	-0.03079034
-4.416173	J1m	-0.0152981
-4.416173	J1n	0.1452123
-4.116225	J1n_	0.1331833
-4.416173	J1s	0.1448249
-4.715048	J1st	0.1527099
-3.873651	J3	-0.05208143
-4.116225	J3J	0.1302743
-4.715048	J3p	0.1527099
-4.240803	J5	0.1394462
-4.416173	J5k	0.1448249
-3.272056	J@	-0.003051892
-2.971104	J@R	-0.1499878
-4.416173	J@d	0.1448249
-4.715048	J@l	0.1527099
-4.019532	J@n	0.1219941
-4.240803	J@nt	0.1370805
-4.715048	J@nz	0.1527099
-4.715048	J@p	0.1527099
-4.240803	J@z	0.1370805
-3.815737	JE	-0.05536257
-4.240803	JE@	-0.02285776
-4.019532	JE@R	0.1219941
-3.764644	JEk	0.09524441
-4.416173	JEkt	0.1448249
-4.416173	JEs	0.144816
-3.15105	JI	-0.03555708
-3.873651	JI@	-0.04569017
-3.639826	JIN	0.08496286
-4.715048	JINk	0.1527099
-4.416173	JId	0.1485894
-4.240803	JIf	0.1370805
-4.715048	JIk	-0.007805062
-4.416173	JIl	0.144756
-4.416173	JIm	-0.01397603
-4.715048	JImp	0.1527099
-4.116225	JIn	0.1298022
-4.416173	JIp	0.1450561
-4.116225	JIt	0.1294148
-3.873651	JIz	0.1083546
-4.240803	JQ	-0.02023304
-4.715048	JQIs	0.1527099
-4.715048	JQmp	0.1527099
-4.416173	JQp	0.1452243
-4.019532	JU	-0.03391593
-3.940495	JU@	-0.0331608
-3.940495	JU@l	0.114643
-4.116225	JU@s	0.1414626
-4.240803	JV	-0.01954717
-4.715048	JVN	-0.007033109
-4.715048	JVg	0.1527099
-4.715048	JVk	0.1527099
-4.715048	JVm	0.1527099
-4.715048	JVmp	0.1527099
-4.715048	JVt	-0.006168222
-3.940495	Ji	0.1283383
-4.240803	Jif	0.1372156
-4.416173	Jik	0.144912
-4.116225	Jip	0.1414734
-4.715048	Jit	0.1527099
-4.416173	Jiv	0.1454045
-4.416173	Jiz	0.144852
-4.715048	Jn@t	0.1527099
-4.715048	Jr@	0.0001880461
-4.715048	Jr@l	0.1527099
-4.116225	Ju	0.1305445
-4.715048	Juz	0.1527099
-3.514978	J{	-0.1023325
-4.416173	J{m	-0.01598664
-4.715048	J{mp	0.1527099
-4.715048	J{n	-0.006026682
-4.240803	J{p	0.1372637
-4.416173	J{t	0.1448249
-4.715048	N@	-0.006126597
-3.873651	N@R	0.1074142
-4.715048	N@m	0.1527099
-4.116225	NI	0.1414626
-3.940495	NIN	0.1266338
-4.416173	NINz	0.1448249
-4.715048	NIS	0.1527099
-4.240803	P	-0.02250252
-2.84425	Q	-0.3449368
-4.416173	QI	-0.01486617
-4.715048	QINk	0.1527099
-4.019532	QIl	-0.03803148
-4.715048	QIlz	0.1527099
-4.715048	QInt	-0.007655759
-4.715048	QN	-0.008095227
-4.715048	QS	0.1527099
-3.605092	Qb	-0.08910129
-4.240803	Qd	0.1496696
-4.715048	Qdz	0.1527099
-3.639826	Qf	0.07367022
-4.715048	Qft	0.1527099
-3.873651	Qk	0.1151624
-4.116225	Qks	0.130178
-4.416173	Qm	-0.01382611
-3.677582	Qn	0.0811992
-3.815737	Qp	0.1112133
-4.715048	Qs	0.1527099
-4.715048	Qv	0.1527099
-4.715048	Qz	-0.007655759
-4.116225	S#	0.1315876
-3.815737	S#I	0.1216734
-4.416173	S#In	0.1448249
-4.240803	S#U	-0.01766803
-4.715048	S#Ut	0.1527099
-4.715048	S#d	0.1527099
-4.416173	S#ft	0.1448249
-4.715048	S#k	-0.007995764
-4.240803	S#p	0.1415639
-3.677582	S$	0.1031941
-3.873651	S$R	0.1074142
-4.416173	S$d	0.1448249
-4.715048	S$l	0.1527099
-3.764644	S$t	0.110758
-4.715048	S$ts	0.1527099
-3.572931	S1	0.07174941
-4.019532	S1d	0.1219941
-4.116225	S1k	0.1297301
-4.715048	S1ks	0.1527099
-4.715048	S1l	0.1527099
-4.116225	S1m	-0.02897691
-4.715048	S1md	0.1527099
-4.019532	S1p	0.1359696
-4.416173	S1v	0.1448249
-4.715048	S1z	0.1527099
-4.715048	S3	-0.008070364
-4.715048	S3k	0.1527099
-4.019532	S3t	0.1219162
-3.605092	S5	-0.09014233
-4.416173	S5l	0.1458615
-3.06606	S@	-0.07322079
-3.488665	S@R	0.0410618
-4.416173	S@m	0.1448249
-4.715048	S@n	-0.00340403
-4.715048	S@ns	0.1527099
-4.416173	S@p	0.1448249
-2.941146	S@s	-0.1496942
-3.764644	SE	-0.05867814
-4.715048	SE@R	0.1527099
-4.019532	SEd	0.1219941
-4.715048	SEf	0.1527099
-3.764644	SEl	0.09587751
-4.715048	SElf	0.1527099
-4.715048	SElv	0.1527099
-4.715048	SEn	-0.007697237
-4.416173	SEt	0.1448249
-2.095077	SH	-0.7724745
-4.416173	SHd	0.1448249
-4.416173	SHs	0.1448249
-3.815737	SHt	0.1003038
-3.639826	SHz	0.07297204
-3.096017	SI	-0.06173548
-4.416173	SI@R	0.1448249
-4.416173	SI@t	0.1448249
-4.715048	SI@z	0.1527099
-3.440387	SIN	0.04140434
-4.416173	SINz	0.1448249
-4.240803	SIf	-0.02000416
-4.240803	SIft	0.1390085
-4.116225	SIn	0.1351863
-3.187762	SIp	-0.04855502
-4.416173	SIps	0.1448249
-4.715048	SIs	0.1527099
-4.416173	SIst	0.1448249
-4.116225	SIt	0.1294718
-4.715048	SIz	0.1527099
-3.272056	SP	-0.01339166
-4.715048	SPz	0.1527099
-3.764644	SQ	-0.06209552
-4.416173	SQd	0.1448249
-4.416173	SQk	0.1448249
-3.815737	SQp	0.1002769
-3.718935	SQt	0.08649804
-4.240803	SU	-0.02285981
-4.715048	SU@	0.0001880461
-4.416173	SU@l	0.1448249
-4.715048	SUd	0.1527099
-4.715048	SUf	-0.004374754
-3.815737	SV	-0.05796748
-4.715048	SVk	0.1527099
-4.715048	SVn	0.1527099
-4.715048	SVnt	0.1527099
-4.715048	SVt	-0.007954314
-4.715048	SVv	0.1527099
-3.677582	Si	0.08188889
-4.715048	SiS	0.1527099
-4.715048	SiT	0.1527099
-4.715048	Sif	0.1527099
-4.715048	Sik	0.1527099
-4.416173	Sild	0.1448249
-4.240803	Sin	0.1370986
-4.416173	Sip	-0.01585399
-4.019532	Sit	0.1219941
-4.715048	Siz	0.1527099
-4.416173	Sn@R	0.1448249
-4.715048	Sn@t	0.1527099
-4.715048	SnIt	-0.007780182
-4.715048	Sn{ps	0.1527099
-4.715048	Spil	0.1527099
-4.715048	Sr#Ik	0.1527099
-4.416173	Sr#In	0.1448249
-4.416173	Sr#Ud	0.1448249
-4.715048	SrE	-0.007340395
-4.715048	SrEd	0.1527099
-4.715048	SrI	-0.007763594
-4.715048	SrIN	-0.008053787
-4.715048	SrINk	0.1527099
-4.416173	SrIl	0.1568157
-4.715048	SrV	-0.007348697
-4.715048	SrVb	0.1527099
-4.715048	SrVg	0.1527099
-4.715048	Srik	0.1527099
-4.416173	Sru	0.1449
-4.240803	Srud	0.1529447
-4.715048	Sr{p	-0.00760598
-3.514978	Su	0.05073963
-4.240803	Sut	0.1370805
-3.418122	S{	-0.1263992
-4.715048	S{Nk	0.1527099
-4.715048	S{g	0.1527099
-4.715048	S{k	0.1527099
-4.715048	S{l	0.1527099
-3.940495	S{m	0.1144301
-4.715048	S{n	-0.008086939
-4.416173	T#	-0.01547241
-4.715048	T#I	-0.008095227
-4.416173	T#U	-0.01604466
-4.240803	T$	0.1397602
-4.116225	T$n	0.1294718
-3.940495	T$t	0.118076
-3.873651	T3	-0.04720432
-4.715048	T3d	0.1527099
-4.715048	T3m	0.1527099
-4.715048	T3st	0.1527099
-4.715048	T5	-0.008028921
-3.815737	T@	-0.05739833
-4.715048	T@R	0.1527099
-4.715048	T@d	0.1527099
-4.715048	T@m	0.1527099
-4.715048	T@n	0.1527099
-4.240803	TE	-0.02193467
-4.715048	TEft	0.1527099
-4.715048	TEn	-0.007539599
-4.715048	TEt	0.1527099
-4.116225	TH	0.1294718
-3.15105	TI	-0.04065482
-4.019532	TI@	-0.03341226
-4.715048	TI@m	0.1527099
-3.815737	TIN	0.1071757
-4.240803	TINk	0.1370805
-4.715048	TINz	0.1527099
-4.019532	TIk	0.134428
-4.715048	TIks	0.1527099
-4.416173	TIl	0.1448249
-4.715048	TIm	-0.006076642
-4.715048	TIn	0.1527099
-4.715048	TIst	0.1527099
-4.715048	TIz	0.1527099
-4.240803	TP	0.1370805
-4.240803	TQ	-0.02112043
-4.715048	TQN	0.1527099
-4.715048	TQl	0.1527099
-4.416173	TQs	0.1448249
-4.019532	TV	-0.03696505
-4.715048	TVd	0.1527099
-4.019532	TVm	0.1222346
-4.240803	TVn	-0.02192857
-3.873651	Ti	-0.04971344
-4.715048	Tim	0.1527099
-4.715048	Tjuz	0.1527099
-4.715048	Tr#I	-0.007979184
-4.715048	Tr#Is	0.1527099
-4.715048	Tr#Iv	0.1527099
-4.715048	Tr$	-0.007523002
-4.240803	Tr$l	0.1371916
-3.940495	Tr5	0.1286177
-4.240803	Tr5n	0.1370805
-4.416173	Tr5t	0.1448249
-4.715048	Tr5z	0.1527099
-4.116225	TrE	-0.02768033
-4.715048	TrES	-0.008004053
-4.416173	TrEd	0.144936
-4.416173	TrI	-0.01491603
-4.416173	TrIf	-0.01225976
-4.715048	TrIft	0.1527099
-4.715048	TrIl	0.1527099
-4.416173	TrQ	-0.01536451
-4.715048	TrQN	0.1527099
-4.715048	TrV	-0.00760598
-4.715048	TrVS	0.1527099
-4.715048	TrVm	0.1527099
-4.715048	TrVst	0.1527099
-4.715048	Tri	0.1527099
-4.019532	Tru	0.123266
-4.715048	Tr{	-0.007954314
-4.715048	Tr{S	0.1527099
-4.715048	Tw$t	0.1527099
-4.715048	Tw{k	0.1527099
-4.240803	T{Nk	0.138578
-4.715048	T{Nks	0.1527099
-4.715048	T{l	-0.007979184
-4.715048	Ups	0.1527099
-3.718935	V	-0.068282
-4.416173	VN	-0.01503235
-4.715048	VNk	-0.004608741
-4.715048	Vg	0.0001880461
-4.116225	Vl	-0.02582286
-4.715048	Vlt	0.1527099
-4.240803	Vm	-0.02354672
-4.416173	Vmp	-0.01588716
-2.378905	Vn	-0.6606403
-4.715048	Vnt	0.1527099
-3.056517	Vp	-0.1072452
-4.715048	Vs	0.1527099
-4.240803	Z1	0.1370805
-3.815737	Z@	-0.04515967
-3.815737	Z@R	0.1003038
-4.240803	Z@d	0.1370805
-3.175177	ZH	-0.04381505
-4.715048	ZHz	0.1527099
-4.715048	ZP	0.1527099
-4.715048	ZU@	0.0001880461
-4.240803	ZU@l	0.142422
-4.715048	Zim	0.1527099
-4.715048	Zu	0.1527099
-4.416173	Zw#	0.14478
-4.019532	_#	-0.03681897
-3.940495	_#I	-0.03958087
-4.715048	_#Ib	0.1527099
-4.416173	_#Il	0.1568157
-4.715048	_#Iv	0.1527099
-4.416173	_#Iz	0.1448249
-4.240803	_#R	0.1370805
-4.715048	_#U	0.0001880461
-4.715048	_#Ul	0.1527099
-4.416173	_$	-0.0159369
-4.715048	_$R	0.1527099
-4.240803	_$n	-0.02000416
-4.715048	_$nt	0.1527099
-4.019532	_1	0.1228896
-4.715048	_1d	0.1527099
-4.715048	_1ks	0.1527099
-4.715048	_1l	0.1527099
-4.715048	_1n	0.1527099
-4.715048	_1p	0.1527099
-3.639826	_3	-0.0803198
-4.715048	_3k	0.1527099
-4.416173	_3n	0.1448249
-4.019532	_5	0.1228086
-4.715048	_5k	0.1527099
-4.715048	_5l	0.1527099
-4.715048	_5lt	0.1527099
-3.128193	_@	-0.0373967
-3.200724	_@R	-0.04767412
-4.715048	_@d	0.1527099
-4.240803	_@l	0.1370805
-3.605092	_@n	0.0707982
-4.715048	_@nd	0.1527099
-4.019532	_@ns	0.1219941
-3.572931	_@nt	0.07191608
-3.677582	_@s	0.09550961
-3.214084	_E	-0.1813346
-4.019532	_Ek	-0.033765
-3.764644	_Ekt	0.1052987
-4.715048	_El	0.1527099
-4.715048	_Em	0.1527099
-4.715048	_Emd	0.1527099
-3.677582	_En	0.09107083
-4.715048	_Ent	0.1527099
-4.240803	_Es	0.1376513
-3.940495	_Est	0.114643
-4.240803	_Et	0.1374559
-2.719326	_I	-0.2391565
-4.715048	_I@	-0.007589385
-4.715048	_I@R	0.1527099
-4.715048	_I@t	0.1527099
-3.718935	_IN	0.09937617
-4.715048	_INz	0.1527099
-4.715048	_Ib	0.1527099
-3.940495	_Id	0.1266338
-4.240803	_Ig	0.1372877
-4.116225	_Ik	0.1301476
-4.715048	_Ikt	0.1527099
-4.715048	_Ilt	0.1527099
-4.116225	_Im	0.1293729
-3.677582	_In	0.08048721
-4.240803	_Ip	0.1412244
-4.416173	_Is	0.1448249
-3.873651	_It	0.110396
-4.715048	_Its	0.1527099
-4.715048	_Iz	0.1527099
-3.572931	_Q	-0.08391766
-3.764644	_QI	0.0968854
-4.715048	_QId	0.1527099
-3.940495	_QIn	0.114643
-4.116225	_QInt	0.1414626
-4.715048	_QIs	0.1527099
-4.715048	_QIst	0.1527099
-4.715048	_QS	0.1527099
-4.715048	_Qb	0.1527099
-4.715048	_Qg	0.1527099
-4.715048	_Qk	-0.008078652
-4.416173	_Qn	0.1448249
-4.715048	_Qt	0.1527099
-3.764644	_U	-0.06614801
-4.116225	_U@	-0.01755345
-4.715048	_U@R	0.1527099
-4.715048	_U@t	0.1527099
-3.940495	_V	-0.04464031
-4.116225	_VN	-0.02985744
-4.240803	_VNk	-0.01985104
-4.715048	_VNkt	0.1527099
-4.715048	_V_	0.1527099
-4.416173	_Vg	-0.0146251
-3.940495	_Vm	-0.0422917
-4.715048	_Vmp	0.1527099
-4.715048	_Vmps	0.1527099
-4.715048	_Vn	-0.006026682
-4.240803	_Vst	0.1370805
-3.718935	_i	0.08673558
-4.715048	_il	0.1527099
-4.240803	_in	0.1370805
-4.715048	_inz	0.1527099
-4.715048	_ip	0.1527099
-3.488665	_u	0.05987896
-4.715048	_ub	0.1527099
-4.715048	_uk	-0.007970895
-4.715048	_un	0.1527099
-4.416173	_us	0.1448249
-4.715048	_ut	0.1527099
-3.677582	_{	-0.07431493
-4.715048	_{N	-0.007730417
-4.715048	_{g	0.1527099
-3.718935	_{k	0.0866875
-4.240803	_{m	0.1381051
-4.715048	_{s	-0.007589385
-4.715048	_{v	-0.007929442
-4.715048	_{z	0.1527099
-3.338977	b#	-0.1426326
-4.715048	b#Dz	0.1527099
-3.139471	b#I	-0.04897155
-4.240803	b#Id	0.1370805
-4.715048	b#Ik	0.1527099
-4.416173	b#Il	0.1448249
-4.116225	b#In	0.1315359
-4.416173	b#Ind	0.144792
-4.715048	b#It	0.1527099
-3.873651	b#R	0.1074142
-3.873651	b#T	0.1075795
-4.116225	b#U	0.1368442
-4.715048	b#UJ	0.1527099
-4.416173	b#Ud	0.1448249
-4.019532	b#Un	-0.03515546
-3.764644	b#Und	0.0933079
-4.715048	b#Undz	0.1527099
-4.715048	b#Uns	0.1527099
-3.940495	b#Ut	0.114643
-4.715048	b#_	0.1527099
-4.715048	b#b	0.1527099
-4.715048	b#ft	0.1527099
-4.116225	b#k	0.1294718
-4.416173	b#m	0.1448249
-4.416173	b#n	0.144816
-4.715048	b#sk	0.1527099
-3.440387	b$	-0.122037
-4.715048	b$J	0.1527099
-4.715048	b$R	0.1527099
-4.715048	b$S	0.1527099
-3.304229	b$d	-0.01079012
-4.240803	b$dz	0.1370805
-4.416173	b$k	0.144912
-3.488665	b$l	0.04185547
-4.116225	b$ld	0.145336
-4.715048	b$lt	0.1527099
-3.605092	b$n	0.06639967
-4.715048	b$st	0.1527099
-4.715048	b$t	0.1527099
-3.175177	b1	-0.01685983
-4.715048	b1D	0.1527099
-4.715048	b1Z	0.1527099
-4.715048	b1b	0.1527099
-4.715048	b1k	0.1527099
-4.715048	b1kt	0.1527099
-4.116225	b1n	0.1414626
-3.815737	b1s	0.1030475
-4.416173	b1st	0.1448249
-3.718935	b1t	0.08700258
-3.321255	b3	-0.1524393
-4.715048	b3J	0.1527099
-4.715048	b3R	0.1527099
-3.815737	b3T	0.1012451
-4.715048	b3b	0.1527099
-4.715048	b3bz	0.1527099
-3.639826	b3d	0.07296311
-4.240803	b3g	0.1370805
-4.715048	b3k	0.1527099
-4.240803	b3n	0.1370805
-4.715048	b3nd	0.1527099
-4.715048	b3nz	0.1527099
-4.715048	b3p	0.1527099
-4.416173	b3s	0.1448249
-4.240803	b3st	0.1370805
-3.214084	b5	-0.0184522
-4.715048	b5T	0.1527099
-4.240803	b5d	0.1370805
-3.940495	b5l	0.1163487
-4.240803	b5ld	0.1490027
-4.715048	b5lt	0.1527099
-4.715048	b5lz	0.1527099
-3.572931	b5n	0.06272941
-4.715048	b5nd	0.1527099
-4.715048	b5s	0.1527099
-4.240803	b5st	0.138578
-3.677582	b5t	0.08108263
-2.755534	b@	-0.2099062
-3.227867	b@R	-0.03752422
-3.940495	b@d	0.114643
-4.116225	b@l	0.1295349
-4.715048	b@ld	0.1527099
-4.715048	b@m	0.1527099
-3.718935	b@n	0.09841375
-4.416173	b@nd	0.1448249
-4.715048	b@nt	0.1527099
-3.718935	b@s	0.086426
-4.019532	b@t	0.1219941
-4.416173	b@z	0.1448249
-3.200724	bE	-0.1831645
-3.718935	bE@	-0.06485948
-4.240803	bE@R	0.1370805
-4.715048	bE@n	0.1527099
-3.488665	bEd	0.05238503
-4.715048	bEk	0.1527099
-3.764644	bEl	0.09476385
-4.715048	bElJ	0.1527099
-4.416173	bElt	0.1453925
-4.019532	bEn	0.1233055
-4.240803	bEnJ	0.1370805
-4.416173	bEnd	0.1448249
-4.715048	bEndz	0.1527099
-4.715048	bEnt	0.1527099
-4.416173	bEs	0.1448249
-4.715048	bEsk	0.1527099
-4.715048	bEst	0.1527099
-4.240803	bEt	0.1370805
-2.473832	bI	-0.4066129
-4.116225	bI@	0.1364736
-4.715048	bI@R	0.1527099
-4.240803	bI@d	0.1390085
-4.715048	bI@n	0.1527099
-4.715048	bI@ns	0.1527099
-4.715048	bI@nt	0.1527099
-4.715048	bI@s	0.1527099
-4.715048	bIJ	0.1527099
-3.718935	bIN	0.09841375
-4.019532	bIS	0.1339849
-4.240803	bI_	0.1370805
-4.715048	bIb	0.1527099
-3.873651	bId	0.119405
-4.715048	bIf	0.1527099
-4.416173	bIg	-0.01340105
-4.019532	bIk	0.1219941
-4.715048	bIks	0.1527099
-3.639826	bIl	0.07585112
-4.715048	bIl_	0.1527099
-4.715048	bIld	0.1527099
-4.715048	bIlk	0.1527099
-4.715048	bIlt	0.1527099
-3.873651	bIn	0.1077295
-4.715048	bIn_	0.1527099
-4.416173	bIs	0.1448249
-4.715048	bIsk	0.1527099
-4.715048	bIst	0.1527099
-3.572931	bIt	0.05992527
-4.116225	bIz	0.129574
-2.330185	bP	-0.5749034
-4.240803	bPd	0.1370805
-4.416173	bPz	0.1448249
-3.128193	bQ	-0.2194358
-3.440387	bQI	0.03095959
-4.416173	bQIl	0.1448249
-4.715048	bQIz	0.1527099
-4.715048	bQJ	0.1527099
-4.715048	bQN	-0.008045498
-4.416173	bQS	0.1448249
-4.240803	bQb	0.1370116
-4.715048	bQbz	0.1527099
-4.715048	bQg	0.1527099
-4.116225	bQk	0.1300907
-3.488665	bQks	0.04224612
-4.715048	bQl	-0.007763594
-3.940495	bQm	0.1147153
-4.019532	bQn	0.1231609
-4.416173	bQnd	0.1448249
-4.715048	bQndz	0.1527099
-4.416173	bQp	0.1448249
-4.715048	bQs	0.1527099
-4.715048	bQt	0.1527099
-3.605092	bU	-0.08080328
-4.416173	bU@R	0.1448249
-4.715048	bU@s	0.1527099
-4.715048	bUJ	0.1527099
-4.416173	bUS	0.1451642
-4.715048	bUSt	0.1527099
-3.304229	bUk	-0.005422145
-3.677582	bUl	0.08067204
-4.715048	bUts	0.1527099
-3.162946	bV	-0.2078776
-3.815737	bVN	-0.05806882
-4.416173	bVNk	0.1452243
-4.715048	bV_	0.1527099
-4.715048	bVb	0.1527099
-4.416173	bVd	0.1448249
-4.416173	bVf	0.1448249
-4.019532	bVg	0.1219492
-4.019532	bVk	0.1224029
-4.715048	bVkt	0.1527099
-4.116225	bVl	-0.02958278
-4.715048	bVl_	0.1527099
-4.715048	bVlb	0.1527099
-4.715048	bVlk	0.1527099
-4.240803	bVm	-0.02169545
-4.715048	bVmf	0.1527099
-4.240803	bVmp	0.1378076
-4.019532	bVn	0.1230405
-4.715048	bVnJ	0.1527099
-4.416173	bVnd	0.1448249
-4.240803	bVs	0.1381171
-4.416173	bVst	0.1568157
-4.116225	bVt	0.1309934
-4.416173	bVv	0.1450561
-4.416173	bVz	0.1468614
-3.227867	bi	-0.009890571
-4.240803	biJ	-0.02285776
-4.715048	bid	0.1527099
-4.240803	bif	-0.02328122
-4.715048	bik	0.1527099
-4.715048	bil	0.1527099
-4.715048	bim	0.1527099
-4.416173	bin	0.1448249
-4.715048	bip	0.1527099
-4.715048	bis	0.1527099
-4.240803	bist	0.1490713
-3.940495	bit	0.1149493
-4.116225	biz	0.1294148
-4.715048	bj@	0.1527099
-4.416173	bj@l	0.1448249
-4.715048	bj@s	0.1527099
-3.940495	bjU	-0.04396782
-4.715048	bjU@	-0.007431708
-3.764644	bju	0.1021335
-4.715048	bjun	0.1527099
-4.715048	bjus	0.1527099
-4.240803	bjut	0.1370805
-4.715048	bjuz	0.1527099
-4.116225	bl#	0.1321793
-4.416173	bl#I	-0.01245777
-4.416173	bl#ID	0.1568157
-4.715048	bl#Im	0.1527099
-4.240803	bl#Ind	0.1490713
-4.715048	bl#It	0.1527099
-4.715048	bl#U	-0.007315488
-4.715048	bl#Uz	0.1527099
-4.715048	bl#nJ	0.1527099
-3.940495	bl1	-0.0424313
-4.715048	bl1d	0.1527099
-4.416173	bl1m	0.1449841
-4.715048	bl1n	0.1527099
-4.715048	bl3R	0.1527099
-4.715048	bl3b	0.1527099
-3.572931	bl5	0.06584764
-4.715048	bl5k	0.1527099
-4.715048	bl5t	0.1527099
-4.715048	bl@	-0.008103514
-4.116225	bl@R	0.1294718
-4.715048	bl@ns	0.1527099
-4.715048	bl@z	0.1527099
-4.240803	blE	-0.02342423
-4.715048	blE@R	0.1527099
-4.715048	blEn	-0.007340395
-4.715048	blEnd	0.1527099
-4.416173	blEs	0.1448249
-2.978928	blI	-0.1429554
-4.715048	blI@	-0.00340403
-3.940495	blIN	0.1151087
-4.715048	blINk	0.1527099
-4.715048	blIS	0.1527099
-4.715048	blI_	0.1527099
-4.416173	blIk	0.1568157
-4.715048	blIn	0.1527099
-4.715048	blIp	0.1527099
-4.416173	blIs	0.1453204
-4.416173	blIt	0.1448249
-4.416173	blIts	0.1448249
-4.116225	blQ	-0.03085476
-4.715048	blQJ	0.1527099
-4.715048	blQN	0.1527099
-4.019532	blQk	0.1227693
-4.019532	blV	-0.03461685
-4.715048	blVS	0.1527099
-3.815737	blVd	0.102192
-4.715048	blVf	0.1527099
-4.715048	blVn	-0.007340395
-4.240803	blVnt	0.1529447
-4.240803	bli	-0.02245051
-4.715048	bliJ	0.1527099
-4.416173	blik	0.1448249
-4.715048	blit	0.1527099
-3.542989	blu	0.06354618
-4.715048	blum	0.1527099
-4.116225	bl{	-0.0295578
-4.715048	bl{N	-0.007937733
-4.416173	bl{Nk	0.1485894
-4.715048	bl{b	0.1527099
-3.639826	bl{k	0.07909372
-4.416173	bl{nd	0.1485894
-4.416173	bl{s	-0.01547241
-4.240803	br#	0.140982
-3.940495	br#I	-0.04186209
-4.715048	br#Ib	0.1527099
-4.715048	br#Id	0.1527099
-4.715048	br#Il	0.1527099
-4.715048	br#In	0.1527099
-4.416173	br#It	0.1568157
-4.019532	br#U	0.1219941
-4.715048	br#Un	0.1527099
-4.715048	br#nJ	0.1527099
-4.715048	br#s	0.1527099
-4.416173	br$	-0.01504896
-3.873651	br$d	0.1237022
-4.715048	br$l	0.1527099
-4.715048	br$n	0.1527099
-3.639826	br1	-0.08150776
-4.416173	br1d	0.1448249
-3.718935	br1k	0.0935434
-4.116225	br1n	0.1314032
-4.715048	br1nz	0.1527099
-4.715048	br1s	-0.007805062
-4.240803	br1t	0.1370805
-4.416173	br1v	0.1568157
-4.715048	br1z	0.1527099
-3.873651	br5	-0.05069134
-4.715048	br5J	0.1527099
-4.715048	br5k	0.1527099
-3.940495	br@	0.1213886
-4.240803	br@l	0.1370805
-4.715048	br@m	0.1527099
-4.715048	br@nt	0.1527099
-4.715048	br@s	0.1527099
-3.873651	brE	-0.05130494
-4.416173	brET	0.1467528
-4.019532	brEd	0.1222164
-4.715048	brEk	-0.008103514
-4.416173	brEst	0.144912
-4.715048	brEt	0.1527099
-4.416173	brEtT	0.1448249
-3.718935	brI	-0.07192588
-4.715048	brI@	-0.007564493
-4.715048	brI@t	0.1527099
-4.715048	brIN	0.1527099
-4.019532	brI_	0.1223694
-4.715048	brI_d	0.1527099
-4.715048	brIg	0.1527099
-3.718935	brIk	0.08757772
-4.416173	brIl	0.144768
-4.715048	brIm	0.1527099
-4.715048	brIn	-0.008095227
-4.416173	brIs	0.1568157
-4.240803	brIsk	0.1529447
-4.240803	brQ	-0.01369857
-4.416173	brQIl	0.1448249
-4.116225	brQN	-0.03087966
-4.715048	brQT	0.1527099
-4.715048	brUk	0.1527099
-4.416173	brV	-0.01578129
-3.873651	brVS	0.1080691
-4.715048	brVnt	0.1527099
-4.416173	brVpt	0.1568157
-3.764644	bri	0.09743476
-4.715048	briD	0.1527099
-4.240803	brid	0.1370805
-4.116225	brif	0.1414927
-4.715048	brifs	0.1527099
-4.715048	brim	0.1527099
-4.715048	briz	0.1527099
-3.605092	bru	-0.08405973
-4.715048	brum	-0.007896278
-4.715048	brusk	0.1527099
-4.715048	brut	0.1527099
-4.019532	br{	-0.03665003
-4.416173	br{S	0.1485894
-4.416173	br{d	0.144972
-4.715048	br{g	0.1527099
-4.715048	br{kt	0.1527099
-4.715048	br{m	-0.006076642
-4.416173	br{n	-0.01199791
-4.715048	br{nd	0.1527099
-3.542989	bu	0.06032228
-4.715048	buZ	0.1527099
-4.715048	bub	0.1527099
-4.715048	bubz	0.1527099
-4.715048	bum	0.1527099
-4.715048	bun	0.1527099
-4.715048	bus	0.1527099
-3.940495	but	0.1172246
-4.715048	buz	0.1527099
-2.971104	b{	-0.2755221
-4.715048	b{J	0.1527099
-3.940495	b{N	0.1158941
-4.019532	b{Nk	0.1222044
-4.116225	b{S	0.1309693
-4.715048	b{St	0.1527099
-4.715048	b{_	0.1527099
-4.416173	b{b	0.1448249
-4.715048	b{d	-0.005460062
-3.572931	b{g	0.06090824
-4.715048	b{gz	0.1527099
-3.106479	b{k	-0.08329929
-4.116225	b{kt	0.1294718
-4.416173	b{l	0.1474165
-4.715048	b{m	-0.007987474
-3.639826	b{n	0.08174807
-3.764644	b{nd	0.09343102
-4.715048	b{ndz	-0.007340395
-4.715048	b{p	-0.008070364
-4.715048	b{s	0.1527099
-4.416173	b{st	0.1448249
-4.019532	b{t	0.1219941
-4.715048	b{ts	-0.007340395
-4.240803	d#	-0.02222594
-3.162946	d#I	-0.2098555
-4.715048	d#Ik	0.1527099
-4.416173	d#Im	0.1448249
-4.715048	d#In	0.1527099
-4.715048	d#Is	0.1527099
-4.240803	d#It	0.1370805
-4.715048	d#Iv	0.1527099
-4.416173	d#Iz	0.1448249
-4.715048	d#R	0.1527099
-3.677582	d#U	0.1057649
-3.440387	d#Un	0.02921243
-4.715048	d#Us	0.1527099
-4.116225	d#Ut	0.1329049
-4.715048	d#ft	-0.005460062
-4.240803	d#k	0.1529447
-4.416173	d#n	0.1451282
-4.715048	d#ns	0.1527099
-4.715048	d#t	-0.007896278
-3.418122	d$	0.03664885
-3.542989	d$R	0.05354598
-4.715048	d$b	0.1527099
-4.715048	d$m	0.1527099
-4.116225	d$n	0.1306922
-4.416173	d$nt	0.1467528
-4.715048	d$s	0.1527099
-4.416173	d$z	0.1448249
-3.020312	d1	-0.1058483
-4.715048	d1l	0.1527099
-3.764644	d1n	0.09936324
-4.715048	d1s	0.1527099
-3.718935	d1t	0.08665414
-4.715048	d1ts	0.1527099
-4.416173	d1z	0.1448249
-4.019532	d3	-0.03360825
-4.715048	d3T	0.1527099
-4.715048	d3_	0.1527099
-4.715048	d3m	0.1527099
-4.715048	d3n	-0.007415107
-4.715048	d3t	0.1527099
-3.020312	d5	-0.1040908
-4.715048	d5_	0.1527099
-4.715048	d5d	0.1527099
-4.116225	d5l	0.1300426
-4.715048	d5lt	0.1527099
-4.715048	d5m	0.1527099
-4.715048	d5n	0.1527099
-4.715048	d5p	0.1527099
-4.715048	d5s	0.1527099
-4.715048	d5t	0.1527099
-4.715048	d5z	0.1527099
-2.589003	d@	-0.3262116
-2.75084	d@R	-0.2763312
-4.116225	d@d	0.1294718
-4.240803	d@k	0.1370805
-4.715048	d@l	0.1527099
-3.514978	d@m	0.04725904
-3.815737	d@n	0.1040683
-3.764644	d@ns	0.0933079
-3.572931	d@nt	0.05992527
-4.116225	d@s	0.1300995
-4.715048	d@t	0.1527099
-4.416173	d@z	0.1448249
-2.880457	dE	-0.3144394
-3.815737	dE@	-0.05466029
-4.715048	dE@R	0.1527099
-4.416173	dET	-0.007659682
-4.116225	dEd	-0.02277752
-4.416173	dEf	0.1485894
-4.240803	dEft	0.1529447
-4.019532	dEk	0.1222524
-4.240803	dEks	0.1370116
-4.715048	dEkt	0.1527099
-4.416173	dEl	0.1448249
-4.416173	dEm	0.1448249
-4.715048	dEmp	-0.004608741
-3.764644	dEn	0.09734984
-4.715048	dEnd	0.1527099
-4.240803	dEns	0.1490713
-4.715048	dEnt	0.1527099
-4.715048	dEpT	0.1527099
-4.416173	dEs	0.1448249
-4.715048	dEsk	0.1527099
-4.416173	dEt	0.1448249
-3.128193	dH	-0.04784484
-4.416173	dHs	0.1448249
-4.019532	dHt	0.1339849
-2.041753	dI	-0.7294208
-4.019532	dI@	-0.02782968
-4.416173	dI@R	0.1448249
-4.715048	dI@l	0.1527099
-4.116225	dI@m	0.1294718
-4.416173	dI@s	0.1448249
-4.715048	dI@t	0.1527099
-4.715048	dIJ	0.1527099
-3.020312	dIN	-0.1231717
-4.416173	dINz	0.1448249
-3.572931	dIS	0.07233448
-3.940495	dI_	0.114643
-3.287845	dId	-0.004492998
-4.240803	dIg	0.139817
-3.440387	dIk	0.03926057
-4.715048	dIks	0.1527099
-4.116225	dIkt	0.1294718
-4.116225	dIl	0.1299913
-4.240803	dIm	0.1493977
-4.116225	dIn	0.1305927
-4.715048	dIp	-0.007896278
-3.011714	dIs	-0.1001554
-4.715048	dIsk	0.1527099
-3.940495	dIst	0.1266338
-3.940495	dIt	0.114643
-4.715048	dIv	0.1527099
-4.715048	dIz	-0.006559298
-2.795038	dP	-0.2391981
-4.416173	dPd	0.1448249
-4.715048	dPz	0.1527099
-3.287845	dQ	-0.1551433
-4.416173	dQI	-0.007499111
-4.416173	dQN	0.146307
-4.715048	dQf	0.1527099
-3.639826	dQg	0.07660178
-4.715048	dQgz	-0.007788476
-3.873651	dQk	0.1163944
-4.416173	dQks	0.1448249
-4.240803	dQl	-0.02362965
-4.715048	dQn	0.1527099
-4.416173	dQp	-0.0120481
-4.715048	dQpt	0.1527099
-4.416173	dQs	0.1452243
-4.715048	dQt	0.1527099
-4.715048	dU	-0.005560108
-4.715048	dU@R	0.1527099
-3.488665	dV	-0.1132959
-4.240803	dVN	-0.02314211
-4.715048	dVb	0.1527099
-4.715048	dVd	0.1527099
-4.715048	dVdz	0.1527099
-4.715048	dVf	0.1527099
-4.715048	dVg	-0.007539599
-3.639826	dVk	0.07867858
-3.815737	dVkt	0.1003038
-4.240803	dVl	-0.01076155
-4.715048	dVl_	0.1527099
-3.718935	dVm	0.09321926
-4.715048	dVmps	0.1527099
-4.019532	dVn	0.1220692
-4.715048	dVns	0.1527099
-4.715048	dVs	-0.007033109
-4.715048	dVsk	0.1527099
-3.815737	dVst	0.1023541
-4.116225	dVv	0.1296251
-2.995011	di	-0.1174099
-4.240803	did	0.140845
-4.416173	dil	0.1448249
-4.416173	dim	0.1448249
-4.116225	din	0.1294718
-4.715048	dip	0.1527099
-4.416173	dj@	-0.005074894
-4.240803	dj@l	0.1370805
-4.116225	dj@m	0.1294718
-4.240803	dj@n	0.1370805
-4.416173	dj@ns	0.1448249
-4.416173	dj@nt	0.1448249
-3.940495	dj@s	0.1266338
-3.940495	djU	-0.04505013
-4.240803	djU@	-0.02204288
-4.416173	djU@R	0.1448249
-4.416173	djU@s	0.1568157
-3.376749	dju	0.04038608
-4.416173	djud	0.1448249
-4.715048	djuk	-0.007979184
-4.715048	djuks	0.1527099
-4.416173	djul	0.1448249
-3.815737	djus	0.1003038
-4.715048	djust	0.1527099
-4.240803	dr#I	0.1384093
-4.240803	dr#Iv	0.1376481
-4.416173	dr#U	-0.0152005
-4.715048	dr#Un	0.1527099
-4.715048	dr#Uz	0.1527099
-4.240803	dr#f	-0.01929597
-4.416173	dr#ft	0.1448249
-4.715048	dr#s	0.1527099
-3.940495	dr$	0.1163279
-4.715048	dr$l	0.1527099
-4.416173	dr$n	0.1448249
-4.715048	dr$z	0.1527099
-4.116225	dr1	0.1323847
-4.715048	dr1k	0.1527099
-4.416173	dr1n	0.144864
-4.715048	dr1t	0.1527099
-4.240803	dr5	-0.01366463
-4.715048	dr5g	0.1527099
-4.715048	dr5l	0.1527099
-4.715048	dr5m	0.1527099
-4.715048	dr5v	0.1527099
-4.240803	dr@	0.1381685
-4.715048	dr@l	0.1527099
-4.715048	dr@mz	0.1527099
-4.416173	dr@n	0.1448249
-4.715048	dr@ns	0.1527099
-4.416173	dr@nt	0.1448249
-4.715048	dr@s	0.1527099
-4.715048	dr@tT	0.1527099
-4.019532	drE	-0.03504671
-4.715048	drE_	0.1527099
-4.240803	drEd	0.1375671
-4.715048	drEgz	0.1527099
-4.715048	drEnJ	0.1527099
-3.940495	drEs	0.114643
-4.715048	drEst	0.1527099
-3.639826	drI	0.07813945
-4.416173	drI@	-0.01003594
-4.416173	drIN	-0.01384277
-4.715048	drINk	0.1527099
-4.715048	drIf	-0.006484439
-4.416173	drIft	0.1450081
-4.715048	drIl	0.1527099
-4.715048	drIp	0.1527099
-4.416173	drIs	0.1448249
-4.715048	drIz	0.1527099
-4.240803	drQ	-0.02333931
-4.416173	drQIt	0.1568157
-4.715048	drQS	-0.007033109
-3.815737	drQp	0.1003038
-4.715048	drQps	0.1527099
-4.715048	drQs	0.1527099
-4.715048	drU	-0.007838233
-4.116225	drV	-0.03114521
-4.416173	drVN	-0.01514033
-4.715048	drVb	0.1527099
-4.715048	drVf	0.1527099
-4.715048	drVg	0.1527099
-4.019532	drVm	0.1225921
-4.019532	dri	-0.03653196
-3.940495	drim	0.1167467
-4.715048	dru	-0.008078652
-4.715048	drun	0.1527099
-4.715048	drup	0.1527099
-4.116225	dr{	-0.03112225
-4.416173	dr{b	0.1485894
-4.416173	dr{g	0.144864
-4.715048	dr{m	0.1527099
-4.715048	dr{t	0.1527099
-3.677582	du	0.08221503
-4.715048	duS	0.1527099
-4.715048	dum	0.1527099
-4.715048	dumd	0.1527099
-4.715048	dw#R	0.1527099
-4.715048	dw$	-0.007937733
-4.715048	dw$f	0.1527099
-3.514978	d{	-0.1065619
-4.416173	d{N	-0.01532301
-4.715048	d{Nk	0.1527099
-4.240803	d{S	0.1373117
-4.715048	d{St	0.1527099
-4.715048	d{bz	0.1527099
-4.416173	d{d	0.1448249
-4.715048	d{k	-0.007539599
-4.715048	d{ks	-0.008103514
-3.639826	d{m	0.07670254
-4.715048	d{md	0.1527099
-4.416173	d{mp	0.1485894
-3.873651	d{n	0.1212269
-4.416173	d{p	-0.01351778
-4.715048	d{t	0.1527099
-3.677582	f#	-0.07027742
-2.838499	f#I	-0.2097986
-4.240803	f#Id	0.1370805
-4.416173	f#If	0.144756
-4.116225	f#Il	0.1294718
-3.815737	f#In	0.1172466
-4.416173	f#Ind	0.1448249
-4.715048	f#Inz	0.1527099
-4.019532	f#It	0.1219941
-4.715048	f#Iv	-0.008004053
-4.416173	f#R	0.1448249
-4.715048	f#U	-0.007406806
-4.240803	f#Ul	0.1490713
-4.715048	f#Un	-0.008012342
-4.240803	f#Und	0.1378525
-4.715048	f#Unt	0.1527099
-4.240803	f#m	-0.02322313
-4.240803	f#s	0.1381806
-4.240803	f#st	0.140845
-4.715048	f#t	0.1527099
-2.800239	f$	-0.2206415
-4.715048	f$J	-0.008070364
-3.873651	f$R	0.1074142
-3.940495	f$T	0.1274286
-4.715048	f$_	0.1527099
-4.416173	f$d	0.1448249
-4.240803	f$k	0.1380482
-3.488665	f$l	0.05550101
-4.240803	f$ls	-0.01277278
-4.416173	f$lt	0.1467528
-3.718935	f$m	0.08835088
-4.240803	f$md	0.1370805
-4.715048	f$n	0.1527099
-3.815737	f$s	0.1018046
-4.715048	f$st	0.1527099
-4.416173	f$t	0.1450561
-4.715048	f$z	0.1527099
-3.463856	f1	0.05335069
-4.240803	f1T	0.138578
-4.715048	f1k	0.1527099
-4.715048	f1l	0.1527099
-4.416173	f1m	0.1448249
-4.715048	f1md	0.1527099
-4.116225	f1n	0.1414626
-4.715048	f1nd	0.1527099
-4.715048	f1nt	0.0001880461
-3.940495	f1s	0.1165709
-4.715048	f1st	0.1527099
-4.240803	f1t	0.1380811
-4.715048	f1z	0.1527099
-3.242103	f3	-0.1745078
-3.940495	f3R	0.114643
-4.715048	f3T	0.1527099
-4.416173	f3l	0.1448249
-4.116225	f3m	0.1332363
-4.715048	f3md	0.1527099
-4.116225	f3st	0.1298262
-4.416173	f3z	0.1448249
-3.304229	f5	0.01473296
-3.764644	f5k	0.09744354
-4.715048	f5ks	0.1527099
-4.715048	f5l	0.1527099
-3.605092	f5ld	0.06639967
-4.715048	f5m	0.1527099
-3.873651	f5n	0.1074293
-4.715048	f5nz	0.1527099
-2.861976	f@	-0.1510363
-3.357453	f@R	0.005628094
-4.240803	f@l	0.1370805
-4.416173	f@n	-0.01293384
-4.416173	f@nt	0.1448249
-4.715048	f@s	0.1527099
-4.715048	f@st	0.1527099
-4.416173	f@t	0.1448249
-4.715048	f@z	0.1527099
-3.175177	fE	-0.1954011
-3.639826	fE@	-0.07048924
-3.815737	fE@R	0.1003038
-4.715048	fEJ	0.1527099
-4.715048	fEd	0.1527099
-3.605092	fEk	-0.08636837
-4.019532	fEkt	0.1219941
-4.715048	fEl	0.1527099
-4.715048	fElt	0.1527099
-4.019532	fEn	-0.03363343
-4.240803	fEnd	0.1370805
-4.240803	fEns	0.1370805
-4.715048	fEs	0.1527099
-4.240803	fEst	0.1370805
-4.416173	fEt	0.144936
-4.715048	fEz	0.1527099
-3.940495	fH	0.1152226
-2.681903	fI	-0.2511804
-3.873651	fI@	0.111958
-4.416173	fI@R	0.1448249
-4.416173	fI@s	-0.005074894
-3.815737	fIN	0.1135664
-4.715048	fINk	0.1527099
-3.396943	fIS	0.02100222
-4.416173	fI_	0.1448249
-4.715048	fIb	0.1527099
-4.715048	fId	0.1527099
-4.416173	fIf	-0.01597835
-4.715048	fIfT	0.1527099
-4.416173	fIg	0.1454045
-3.572931	fIk	0.07080308
-4.240803	fIks	0.1376722
-4.715048	fIkst	0.1527099
-4.416173	fIkt	0.1448249
-3.764644	fIl	0.09867793
-4.715048	fIlT	0.1527099
-4.715048	fIlm	0.1527099
-3.815737	fIn	0.1003038
-4.116225	fInJ	0.1294718
-3.815737	fIs	0.1003038
-4.715048	fIst	0.1527099
-3.639826	fIt	0.07824876
-4.715048	fIz	0.1527099
-3.376749	fP	0.01436196
-4.715048	fPd	0.1527099
-4.240803	fPz	0.1370805
-3.418122	fQ	-0.1163612
-4.715048	fQI	-0.006076642
-4.715048	fQId	0.1527099
-4.416173	fQIl	0.1448249
-4.240803	fQg	0.1371196
-4.715048	fQk	-0.005460062
-4.416173	fQks	0.144768
-4.240803	fQn	-0.0229076
-4.416173	fQnd	0.1485894
-4.715048	fQp	0.1527099
-4.715048	fQs	-0.008086939
-4.715048	fQz	-0.008086939
-3.038038	fU	-0.2675599
-2.765079	fUl	-0.2623695
-3.304229	fUt	-0.005754679
-3.488665	fV	-0.1117652
-4.715048	fVN	-0.007033109
-4.416173	fVNk	-0.01249375
-4.715048	fVNkt	0.1527099
-4.715048	fV_	0.1527099
-4.715048	fVg	0.1527099
-4.715048	fVk	0.1527099
-4.416173	fVl	-0.01405098
-4.715048	fVm	-0.006076642
-4.416173	fVn	0.14484
-4.416173	fVnd	0.1448249
-4.240803	fVs	0.1374229
-4.715048	fVsk	0.1527099
-4.715048	fVt	0.1527099
-4.715048	fVz	0.1527099
-3.357453	fi	-0.1443405
-4.240803	fid	0.1374919
-4.416173	fil	0.1458615
-3.764644	fild	0.09374647
-4.715048	fim	0.1527099
-4.240803	fin	0.1371676
-4.715048	find	0.1527099
-4.715048	fist	0.1527099
-4.116225	fit	0.1332363
-4.715048	fj@	0.1527099
-4.715048	fjU	-0.008028921
-4.116225	fjU@	-0.03110373
-4.715048	fjU@d	0.1527099
-4.416173	fjU@l	0.1448249
-3.418122	fju	0.02976534
-4.416173	fju_	0.1448249
-4.715048	fjud	0.1527099
-4.715048	fjug	0.1527099
-4.240803	fjum	0.1370805
-4.715048	fjumz	0.1527099
-4.116225	fjus	0.1414626
-4.116225	fjuz	0.1294718
-4.715048	fjuzd	0.1527099
-3.572931	fl#I	0.06813549
-4.715048	fl#It	0.1527099
-4.715048	fl#Iz	0.1527099
-3.940495	fl#U	-0.04057069
-4.715048	fl#Un	-0.007340395
-4.715048	fl#Uns	0.1527099
-4.715048	fl#Ut	0.1527099
-4.715048	fl#Z	0.1527099
-4.715048	fl#sk	0.1527099
-3.639826	fl$	0.07915042
-4.715048	fl$R	0.1527099
-4.715048	fl$nt	0.1527099
-3.873651	fl1	0.1168287
-4.240803	fl1k	0.1370805
-4.715048	fl1l	0.1527099
-4.416173	fl1m	0.1448249
-4.715048	fl1md	0.1527099
-4.416173	fl1t	0.1448249
-4.715048	fl3	-0.007639166
-4.715048	fl3t	0.1527099
-3.940495	fl5	0.1182092
-4.715048	fl5n	0.1527099
-4.715048	fl5t	0.1527099
-4.240803	fl@	-0.02346377
-4.715048	flE	-0.007763594
-4.715048	flE@d	0.1527099
-4.240803	flES	0.1370805
-4.715048	flE_	-0.007523002
-4.416173	flEk	0.1498262
-4.416173	flEks	0.1448249
-4.715048	flEkt	0.1527099
-4.715048	flEm	0.1527099
-3.873651	flI	0.1087102
-4.715048	flIJ	0.1527099
-4.240803	flIN	0.1370805
-4.416173	flIk	0.1498262
-4.715048	flIks	0.1527099
-4.416173	flIkt	0.1448249
-4.416173	flIm	-0.0152005
-4.715048	flIn	-0.004374754
-4.715048	flInJ	0.1527099
-4.715048	flIp	0.1527099
-4.715048	flIt	0.1527099
-4.019532	flQ	-0.03744331
-4.715048	flQg	0.1527099
-4.715048	flQk	0.1527099
-4.715048	flQks	0.1527099
-4.715048	flQp	0.1527099
-4.715048	flQs	0.1527099
-4.715048	flQt	-0.007796769
-4.715048	flU	-0.008045498
-4.416173	flU@ns	0.1448249
-4.416173	flU@nt	0.1448249
-3.873651	flV	-0.04443869
-4.715048	flVN	-0.007033109
-4.715048	flVS	0.1527099
-4.715048	flVSt	0.1527099
-4.240803	flVd	0.1375551
-4.715048	flVf	0.1527099
-4.715048	flVk	-0.008070364
-4.240803	flVks	0.1370805
-4.240803	fli	0.1415518
-4.715048	flis	0.1527099
-4.715048	flit	-0.005460062
-3.815737	flu	0.1013688
-4.715048	flut	0.1527099
-3.572931	fl{	-0.09418368
-4.715048	fl{Nk	0.1527099
-4.715048	fl{S	-0.007771888
-4.416173	fl{g	-0.01582083
-4.240803	fl{k	0.1371347
-4.715048	fl{ks	0.1527099
-4.715048	fl{m	-0.007846526
-4.715048	fl{n	0.1527099
-4.715048	fl{n_	0.1527099
-4.416173	fl{p	0.144864
-3.940495	fl{t	0.131068
-4.116225	fr#I	0.1367954
-4.116225	fr#It	0.1308642
-4.416173	fr#U	-0.01491603
-4.715048	fr#Un	0.1527099
-4.715048	fr$d	0.1527099
-3.940495	fr1	0.1168191
-4.715048	fr1d	0.1527099
-4.715048	fr1l	-0.004374754
-4.116225	fr1m	0.1299433
-4.715048	fr1mz	0.1527099
-4.715048	fr1n	0.1527099
-4.240803	fr1z	0.1373117
-4.019532	fr@	0.1228238
-4.715048	fr@n	0.1527099
-4.416173	fr@ns	0.1448249
-4.715048	fr@nt	0.1527099
-3.940495	frE	-0.04162748
-4.715048	frE@R	0.1527099
-4.116225	frES	0.1425308
-4.416173	frEn	-0.01525659
-4.019532	frEnd	0.1363104
-4.715048	frEndz	0.1527099
-4.715048	frEs	-0.0075313
-4.116225	frEt	0.1311534
-3.764644	frI	0.1116724
-4.416173	frI_	0.1448249
-4.715048	frIk	-0.004608741
-4.715048	frIl	0.1527099
-4.416173	frIn_	0.1448249
-4.715048	frIz	0.1527099
-4.240803	frQ	-0.0233891
-4.715048	frQT	0.1527099
-4.019532	frQg	0.1218802
-4.715048	frQgd	0.1527099
-4.715048	frQk	0.1527099
-4.715048	frQm	0.1527099
-4.715048	frQnd	0.1527099
-4.715048	frQst	0.1527099
-4.715048	frV	-0.008070364
-4.715048	frVm	-0.008020632
-4.715048	frVmp	0.1527099
-4.240803	frVn	-0.02312351
-4.116225	frVnt	0.1294718
-3.418122	fri	0.03834191
-4.715048	frik	0.1527099
-4.715048	friz	0.1527099
-4.240803	fru	-0.01766803
-4.019532	frut	0.1244479
-4.715048	fruts	0.1527099
-4.416173	fr{	-0.01547241
-4.715048	fr{N	-0.008103514
-4.416173	fr{Nk	0.1485894
-4.416173	fr{g	-0.01554709
-3.873651	fr{k	-0.04880035
-4.715048	fr{kt	0.1527099
-4.715048	fr{m	0.1527099
-4.715048	fr{n	-0.008103514
-4.715048	fr{s	0.1527099
-4.019532	fu	-0.03531946
-4.240803	fud	0.1370356
-4.416173	ful	0.1451402
-4.715048	fuls	-0.007937733
-4.416173	fun	0.1448249
-4.715048	fut	-0.007523002
-3.162946	f{	-0.1975333
-4.416173	f{b	0.1448249
-4.715048	f{d	0.1527099
-4.715048	f{g	0.1527099
-4.715048	f{gd	0.1527099
-3.873651	f{k	-0.04175884
-4.416173	f{kt	0.1448249
-4.715048	f{lk	0.1527099
-4.715048	f{lt	0.1527099
-3.677582	f{n	0.08758329
-4.715048	f{nt	0.1527099
-4.416173	f{t	0.1452003
-3.396943	g#	0.02757503
-4.116225	g#I	0.1296701
-4.240803	g#Id	0.1373117
-4.416173	g#Il	0.1458254
-4.416173	g#Iz	0.1448249
-4.416173	g#R	0.1448249
-4.715048	g#U	-0.004374754
-4.715048	g#U_	0.1527099
-4.416173	g#Un	0.1448249
-3.542989	g#d	0.05680493
-4.715048	g#dz	-0.007340395
-4.715048	g#st	0.0001880461
-3.764644	g$	0.1025506
-4.715048	g$R	0.1527099
-4.715048	g$_	0.1527099
-4.715048	g$k	0.1527099
-4.715048	g$l	0.1527099
-4.416173	g$nt	0.1451882
-4.715048	g$p	0.1527099
-4.715048	g$s	0.1527099
-4.715048	g$z	0.1527099
-3.287845	g1	0.01885112
-4.240803	g1_	0.1370805
-4.715048	g1_d	0.1527099
-4.416173	g1d	0.1448249
-4.715048	g1l	0.1527099
-4.240803	g1m	0.1492249
-4.416173	g1mz	0.1458615
-3.940495	g1n	0.1285185
-4.715048	g1p	0.1527099
-3.338977	g1t	0.0004683137
-4.715048	g1z	0.1527099
-3.873651	g3	-0.04406962
-4.715048	g3T	0.1527099
-4.715048	g3d	0.1527099
-3.940495	g3l	0.1147421
-4.715048	g3t	0.1527099
-3.06606	g5	-0.08156666
-4.715048	g5d	0.1527099
-4.116225	g5l	0.1297092
-3.873651	g5ld	0.1075737
-4.715048	g5st	0.1527099
-4.416173	g5t	0.144912
-2.84425	g@	-0.1800215
-3.106479	g@R	-0.08605586
-4.116225	g@d	0.1414626
-4.715048	g@l	-0.0077553
-4.240803	g@m	0.1370805
-3.440387	g@n	0.03459617
-4.715048	g@nd	0.1527099
-4.416173	g@ns	0.1448249
-4.240803	g@nt	0.1370805
-4.116225	g@s	0.1294718
-3.764644	g@t	0.0933079
-4.416173	g@z	0.1448249
-4.240803	gE	-0.02020796
-4.715048	gE@	-0.008004053
-4.715048	gEn	0.1527099
-4.715048	gEnst	0.1527099
-4.715048	gEs	0.1527099
-4.240803	gEst	0.1377355
-4.019532	gEt	0.1293865
-3.15105	gI	-0.03656039
-4.715048	gI@	-0.007970895
-4.416173	gI@R	0.1448249
-3.815737	gIN	0.1003038
-4.715048	gINz	0.1527099
-3.718935	gIS	0.1022871
-4.416173	gI_	0.1448249
-3.764644	gId	0.1091721
-4.715048	gIft	0.1527099
-4.416173	gIg	0.1448249
-3.940495	gIl	0.1212832
-4.715048	gIlt	-0.006725607
-4.715048	gIm	-0.007805062
-4.240803	gIn	0.1370805
-4.715048	gInz	0.1527099
-4.715048	gIs	0.1527099
-4.715048	gIst	0.1527099
-4.116225	gIt	0.1294718
-4.240803	gIv	0.140845
-3.056517	gP	-0.1017275
-4.416173	gPd	0.1448249
-4.416173	gPz	0.1448249
-3.488665	gQ	-0.1037891
-4.715048	gQI	-0.006484439
-4.715048	gQN	0.1527099
-4.715048	gQS	0.1527099
-4.715048	gQb	0.1527099
-3.677582	gQd	0.09432669
-4.715048	gQdz	0.1527099
-4.116225	gQg	0.1294718
-4.715048	gQl	-0.007921151
-4.715048	gQlf	0.1527099
-3.940495	gQn	0.1161852
-4.715048	gQnz	0.1527099
-4.715048	gQz	-0.007523002
-4.240803	gU	-0.01981495
-4.416173	gU@	-0.01561347
-4.715048	gU@d	0.1527099
-4.116225	gUd	-0.0200457
-4.715048	gUdz	0.1527099
-4.715048	gUz	-0.007348697
-3.488665	gV	-0.09905079
-4.715048	gVS	0.1527099
-4.416173	gVl	0.1448249
-4.715048	gVlS	0.1527099
-4.715048	gVlp	0.1527099
-4.240803	gVm	0.1371347
-4.715048	gVmp	-0.004608741
-3.605092	gVn	0.06861041
-4.240803	gVst	0.1370805
-4.240803	gVt	0.140845
-3.940495	gVv	0.1215604
-4.416173	gi	0.1450801
-4.240803	gjU	-0.02266043
-4.416173	gjU@	-0.01358446
-4.715048	gjU@R	0.1527099
-4.240803	gju	0.1371076
-4.715048	gjum	0.1527099
-4.416173	gl#	-0.01330098
-4.715048	gl#I	-0.007697237
-4.715048	gl#Id	0.1527099
-4.715048	gl#U	-0.007249062
-4.715048	gl#ns	0.1527099
-3.873651	gl#s	0.1085504
-4.019532	gl$	-0.03359986
-4.416173	gl1	-0.01592861
-4.715048	gl1d	0.1527099
-4.715048	gl1z	0.1527099
-3.940495	gl5	0.1188028
-4.715048	gl5b	0.1527099
-4.715048	gl5t	0.1527099
-4.416173	gl@R	0.1448249
-4.715048	gl@n	0.1527099
-4.715048	glE@R	0.1527099
-4.715048	glEkt	0.1527099
-4.715048	glEn	0.1527099
-3.639826	glI	0.08168943
-4.416173	glIN	0.1448249
-4.416173	glIb	0.1485894
-4.715048	glImps	0.1527099
-4.715048	glInt	0.1527099
-4.715048	glIt	0.1527099
-4.019532	glQ	-0.03429862
-4.715048	glQs	0.1527099
-4.240803	glV	-0.02338471
-4.240803	glVm	0.1529447
-4.715048	glVt	0.1527099
-4.116225	gli	0.1309244
-4.715048	glim	0.1527099
-4.715048	glin	0.1527099
-3.940495	glu	0.1205321
-4.715048	glum	0.1527099
-4.240803	gl{	-0.02328952
-4.416173	gl{d	0.1568157
-4.715048	gl{nd	0.1527099
-4.715048	gr#	-0.005460062
-4.715048	gr#I	-0.006126597
-4.715048	gr#Imd	0.1527099
-4.715048	gr#In	-0.007340395
-4.715048	gr#Ind	0.1527099
-4.715048	gr#Ip	0.1527099
-4.715048	gr#Ips	0.1527099
-4.715048	gr#U	-0.007406806
-4.715048	gr#UJ	0.1527099
-4.715048	gr#Ul	0.1527099
-4.715048	gr#Un	-0.007697237
-4.240803	gr#Und	0.1370805
-4.715048	gr#Undz	0.1527099
-4.715048	gr#Us	0.1527099
-3.718935	gr#f	0.08870068
-4.715048	gr#ft	0.1527099
-4.715048	gr#nt	0.1527099
-4.240803	gr#s	0.1371436
-3.396943	gr1	0.03144002
-4.116225	gr1d	0.1294718
-4.715048	gr1l	0.1527099
-4.715048	gr1n	0.1527099
-4.715048	gr1n_	0.1527099
-4.715048	gr1nd	0.1527099
-4.240803	gr1p	-0.02375402
-4.240803	gr1s	0.137576
-3.873651	gr1t	0.1237955
-4.116225	gr1v	0.1416902
-4.715048	gr1z	0.1527099
-3.718935	gr5	0.09097464
-4.240803	gr5T	0.1370805
-4.240803	gr5n	0.1370805
-4.715048	gr5p	0.1527099
-4.116225	gr5s	0.145336
-4.715048	gr5t	0.1527099
-4.416173	gr5v	0.1448249
-4.019532	gr@	-0.02959506
-4.416173	gr@l	0.1448249
-4.715048	gr@m	0.1527099
-4.715048	gr@n	-0.005460062
-4.715048	gr@ns	0.1527099
-4.116225	gr@nt	0.1294718
-3.873651	grE	-0.04895117
-4.715048	grEm	-0.007929442
-4.116225	grEs	0.1294718
-4.416173	grEt	0.1448249
-4.715048	grEts	0.1527099
-3.718935	grI	0.09286534
-4.240803	grI@	0.1405341
-4.715048	grIN	-0.007738711
-4.416173	grId	0.1454045
-4.116225	grIm	0.145336
-4.416173	grIn	0.1448249
-4.715048	grIp	0.1527099
-4.240803	grIs	0.1370805
-4.715048	grIst	0.1527099
-4.715048	grIt	0.1527099
-4.715048	grIts	0.1527099
-4.715048	grIz	0.0001880461
-3.873651	grQ	-0.0473787
-4.715048	grQg	0.1527099
-4.715048	grQt	0.1527099
-4.715048	grU@	-0.007523002
-4.715048	grU@l	0.1527099
-4.240803	grV	-0.02227802
-4.715048	grV_	0.1527099
-4.416173	grVf	-0.005074894
-4.116225	grVm	-0.02812582
-4.715048	grVnt	0.1527099
-3.572931	gri	0.07127668
-4.715048	grib	0.1527099
-3.940495	grin	0.1189401
-4.240803	gris	0.1370356
-4.715048	grit	0.1527099
-4.416173	griv	0.1448249
-4.715048	grivd	0.1527099
-4.715048	grivz	0.1527099
-4.116225	gru	-0.02995943
-4.715048	grum	0.1527099
-4.240803	grup	0.1370805
-4.715048	gruv	0.1527099
-3.605092	gr{	-0.08419189
-4.715048	gr{d	0.1527099
-3.764644	gr{m	0.09344301
-4.240803	gr{n	0.1373388
-4.416173	gr{nd	0.1485894
-4.715048	gr{p	-0.00760598
-3.940495	gu	0.1188674
-4.715048	guf	0.1527099
-4.416173	gul	0.1448249
-4.416173	gun	0.1448249
-4.416173	gus	0.14478
-4.240803	gw#	-0.02031661
-4.715048	gw@nt	0.1527099
-4.715048	gwId	0.1527099
-4.715048	gwIn	0.1527099
-4.715048	gwIst	0.1527099
-3.162946	g{	-0.1949059
-3.873651	g{N	0.108512
-4.715048	g{S	0.1527099
-4.715048	g{b	0.1527099
-4.240803	g{d	0.1440822
-4.715048	g{f	0.1527099
-4.715048	g{g	0.1527099
-4.416173	g{l	0.1450441
-4.116225	g{m	-0.02938291
-4.715048	g{n	-0.007622574
-4.416173	g{p	0.1448249
-4.019532	g{s	0.1226434
-4.715048	g{t	0.1527099
-3.200724	h#	-0.02440582
-3.214084	h#I	-0.01178536
-4.416173	h#Id	0.1448249
-4.416173	h#Ik	0.1448249
-4.715048	h#Ind	0.1527099
-4.715048	h#Iv	0.1527099
-4.416173	h#S	0.1568157
-4.416173	h#T	0.144768
-3.815737	h#U	0.11019
-4.715048	h#Ul	0.1527099
-4.416173	h#Und	0.1448249
-3.117201	h#Us	-0.07886422
-3.605092	h#d	0.08434469
-3.940495	h#f	0.1156741
-4.715048	h#ft	0.1527099
-4.116225	h#m	0.1324053
-4.715048	h#ns	0.1527099
-4.416173	h#p	0.1485894
-3.605092	h#t	0.07109689
-4.715048	h#v	0.1527099
-3.418122	h$	0.04759982
-4.416173	h$R	0.1448249
-4.715048	h$S	-0.007979184
-4.715048	h$d	0.1527099
-4.416173	h$k	0.1448249
-4.019532	h$l	0.1232419
-4.715048	h$m	0.1527099
-3.718935	h$n	0.08915816
-4.715048	h$nJ	0.1527099
-3.542989	h$s	0.06678072
-4.715048	h$t	0.1527099
-3.605092	h1	0.06940221
-4.715048	h1k	0.1527099
-4.240803	h1l	0.1373028
-4.715048	h1p	-0.006168222
-4.715048	h1st	0.1527099
-4.240803	h1t	0.138578
-4.416173	h1v	0.1448249
-4.715048	h1z	0.1527099
-3.572931	h3	-0.09572379
-4.715048	h3R	0.1527099
-4.416173	h3b	0.1448249
-4.240803	h3d	0.1370805
-4.715048	h3dz	-0.007340395
-4.715048	h3l	0.1527099
-4.715048	h3s	0.1527099
-4.416173	h3t	0.1453204
-4.416173	h3ts	0.1448249
-3.572931	h5	0.07670055
-4.715048	h5k	-0.007846526
-4.715048	h5ks	0.1527099
-3.338977	h5l	0.01499832
-3.605092	h5ld	0.06915547
-3.718935	h5m	0.09950333
-4.715048	h5n	0.1527099
-4.019532	h5p	0.1254272
-4.715048	h5st	0.1527099
-4.715048	h5v	0.1527099
-4.416173	h5z	0.144864
-3.873651	h@	-0.05085468
-3.187762	hE	-0.1932703
-3.572931	hE@	-0.09470842
-4.240803	hE@R	0.1370805
-4.715048	hE@d	0.1527099
-4.240803	hE_	0.1382287
-3.139471	hEd	-0.06839345
-4.715048	hEdz	0.1527099
-4.715048	hEf	-0.004374754
-3.940495	hEk	0.1195511
-4.715048	hEks	0.1527099
-3.873651	hEl	0.1086172
-4.416173	hElT	0.1458254
-4.715048	hElmz	-0.007340395
-4.116225	hElp	0.131986
-4.116225	hEm	0.1299616
-3.940495	hEn	0.119543
-4.715048	hEnd	0.1527099
-4.715048	hEns	0.1527099
-4.715048	hEp	0.1527099
-4.715048	hEst	0.1527099
-4.715048	hF	0.1527099
-3.463856	hI	-0.1108157
-3.873651	hI@	-0.05224142
-4.019532	hI@R	0.1219941
-4.715048	hIJ	-0.008095227
-4.715048	hIb	0.1527099
-3.873651	hIl	0.1077535
-4.715048	hIlt	0.1527099
-4.416173	hIm	0.144828
-4.416173	hIn	-0.0152981
-4.715048	hIn_	0.1527099
-4.715048	hInt	0.1527099
-4.116225	hIp	0.130539
-4.715048	hIst	0.1527099
-4.416173	hIt	0.1448249
-4.715048	hIz	0.1527099
-3.287845	hQ	-0.1525912
-4.715048	hQIst	0.1527099
-4.715048	hQJ	-0.008103514
-4.715048	hQN	-0.007033109
-4.715048	hQNk	0.1527099
-4.715048	hQ_	-0.008103514
-4.116225	hQb	0.1293129
-4.240803	hQg	0.1371436
-4.715048	hQgz	-0.007796769
-4.715048	hQk	0.1527099
-4.715048	hQm	-0.008086939
-4.715048	hQp	-0.008095227
-4.416173	hQs	-0.01474981
-3.940495	hQt	0.1278055
-4.116225	hU	-0.02853246
-4.715048	hU@	-0.00340403
-3.542989	hUd	0.05348903
-4.116225	hUk	0.1299825
-4.715048	hUnd	0.1527099
-3.376749	hV	0.03380506
-4.715048	hVJ	0.1527099
-4.116225	hVN	-0.03106224
-4.715048	hVNk	0.1527099
-4.715048	hVS	0.1527099
-4.416173	hVb	0.1449961
-4.715048	hVf	0.1527099
-4.715048	hVl	0.1527099
-4.715048	hVlk	0.1527099
-4.416173	hVm	0.144804
-4.715048	hVmf	0.1527099
-4.715048	hVmp	0.1527099
-4.240803	hVn	-0.02172649
-4.416173	hVnJ	0.1452363
-4.715048	hVnts	-0.007340395
-4.715048	hVs	-0.007033109
-4.715048	hVt	-0.007655759
-3.514978	hi	0.0560003
-4.715048	hiT	0.1527099
-4.116225	hid	0.1324053
-4.715048	hil	0.1527099
-4.715048	hip	0.1527099
-4.240803	hit	0.1369666
-3.639826	hju	0.08081961
-4.240803	hju_	0.1529447
-4.715048	hjum	0.1527099
-3.718935	hu	0.09576868
-4.715048	huJ	0.1527099
-4.715048	hud	-0.007995764
-4.715048	huf	0.1527099
-4.416173	hum	0.1464033
-4.715048	hup	0.1527099
-4.715048	hut	0.1527099
-4.715048	huz	0.1527099
-3.162946	h{	-0.2037127
-4.715048	h{J	-0.007771888
-4.116225	h{N	0.1335832
-4.715048	h{S	0.1527099
-4.116225	h{k	0.1328928
-4.416173	h{l	-0.01604466
-3.940495	h{m	0.1165123
-3.815737	h{n	-0.05555025
-3.242103	h{nd	-0.02847278
-4.116225	h{p	0.131753
-4.240803	h{t	0.139036
-4.715048	h{v	0.1527099
-4.715048	h{vz	0.1527099
-2.926908	i	-0.1503308
-4.715048	iJ	0.1527099
-4.715048	ig	-0.007805062
-4.715048	ik	0.1527099
-4.715048	il	0.1527099
-4.019532	is	-0.03899608
-4.240803	ist	0.1371076
-4.715048	it	0.1527099
-4.715048	its	0.1527099
-4.019532	iv	0.1394367
-4.416173	ivz	0.14484
-4.416173	iz	0.1448249
-4.715048	j#	-0.008062075
-4.715048	j#Ul	0.1527099
-3.940495	j#d	0.114643
-4.715048	j#dz	0.1527099
-4.240803	j$	0.1379158
-4.715048	j$R	0.1527099
-4.715048	j$l	0.1527099
-4.715048	j$n	0.1527099
-4.715048	j$z	0.1527099
-4.416173	j1	0.1448249
-4.715048	j3	-0.007788476
-4.715048	j3R	0.1527099
-3.940495	j5	-0.04305826
-4.019532	j@	0.1220153
-4.715048	j@R	0.1527099
-4.240803	j@d	0.1370805
-4.715048	j@l	0.1527099
-3.873651	j@n	0.1074142
-4.416173	j@ns	0.1448249
-4.116225	jE	-0.02683767
-4.715048	jE@	0.1527099
-4.715048	jEl	0.1527099
-4.715048	jEn	0.1527099
-4.416173	jEs	0.1448249
-4.715048	jEt	0.1527099
-4.715048	jI	-0.006817048
-4.116225	jI@	-0.02232058
-4.715048	jI@R	0.1527099
-4.715048	jId	0.1527099
-4.715048	jIn	0.1527099
-4.240803	jQ	-0.01525689
-4.715048	jQNks	0.1527099
-4.715048	jQb	0.1527099
-4.416173	jQn	0.1448249
-4.715048	jQnd	0.1527099
-4.715048	jQt	-0.007655759
-4.715048	jQts	-0.007340395
-4.116225	jU	-0.02920795
-4.240803	jU@	-0.01699493
-4.715048	jV	-0.006268105
-4.240803	jVN	-0.02294913
-4.715048	ji	-0.007747006
-4.715048	jil	-0.007697237
-4.715048	jild	0.1527099
-3.106479	ju	-0.06503713
-4.240803	juT	0.138578
-4.715048	jud	0.1527099
-4.416173	jul	0.144792
-4.019532	jus	0.1254272
-4.416173	just	0.1448249
-4.416173	juz	0.1448249
-4.416173	juzd	0.1448249
-4.715048	j{	-0.007431708
-4.715048	j{Nk	0.1527099
-4.715048	j{m	0.1527099
-4.715048	j{p	0.1527099
-3.06606	k#	-0.06533675
-4.240803	k#I	0.1369546
-4.715048	k#Ik	0.1527099
-4.715048	k#In	-0.006991568
-4.416173	k#Ind	0.1568157
-4.715048	k#It	0.1527099
-4.240803	k#R	0.1370805
-3.440387	k#U	0.03969921
-4.715048	k#UJ	0.1527099
-4.715048	k#Ul	0.1527099
-4.019532	k#Un	-0.03118962
-4.019532	k#Unt	0.123922
-3.940495	k#d	0.1148742
-4.715048	k#dz	0.1527099
-4.715048	k#f	0.1527099
-4.416173	k#m	-0.005074894
-4.715048	k#p	0.1527099
-4.715048	k#sk	0.1527099
-3.764644	k#st	0.1002852
-3.940495	k#t	0.1147061
-4.715048	k#v	0.1527099
-2.995011	k$	-0.09845182
-4.416173	k$R	0.1448249
-3.873651	k$d	0.1074142
-4.715048	k$dz	0.1527099
-4.416173	k$k	0.144816
-4.715048	k$kt	0.1527099
-3.815737	k$l	0.1002468
-4.715048	k$m	0.1527099
-3.873651	k$n	0.1072793
-4.715048	k$ps	0.1527099
-3.815737	k$s	0.116168
-4.715048	k$st	0.1527099
-4.019532	k$t	0.1229683
-4.416173	k$z	0.1467528
-2.926908	k1	-0.1466137
-4.715048	k1_	0.1527099
-3.873651	k1d	0.1074142
-4.715048	k1dz	0.1527099
-3.764644	k1k	0.0933079
-4.715048	k1l	0.1527099
-4.715048	k1m	-0.008028921
-4.019532	k1n	0.1219941
-4.715048	k1p	0.1527099
-3.764644	k1s	0.09401095
-3.321255	k1t	-0.005568564
-4.240803	k1v	0.1375159
-3.488665	k3	-0.1022001
-4.019532	k3R	0.1219941
-4.715048	k3b	0.1527099
-4.715048	k3l	0.1527099
-4.715048	k3s	0.1527099
-4.416173	k3st	0.1448249
-4.416173	k3t	0.1485894
-4.715048	k3v	0.1527099
-2.874209	k5	-0.1624082
-4.240803	k5J	0.137552
-4.116225	k5d	0.1294718
-4.416173	k5k	0.1451402
-4.715048	k5ks	0.1527099
-3.718935	k5l	0.08716928
-4.240803	k5ld	0.1529447
-4.715048	k5lt	0.1527099
-4.116225	k5m	0.1294718
-4.715048	k5md	0.1527099
-4.240803	k5n	0.1370805
-4.416173	k5p	0.1448249
-4.019532	k5s	0.1339849
-4.416173	k5st	-0.01573789
-3.764644	k5t	0.0933079
-4.715048	k5v	0.1527099
-2.372997	k@	-0.4779249
-2.816225	k@R	-0.235998
-4.116225	k@d	0.1294718
-4.416173	k@l	0.1448249
-3.396943	k@m	0.01903681
-2.681903	k@n	-0.2964177
-4.240803	k@nd	0.1490713
-4.240803	k@nt	0.1490713
-3.605092	k@s	0.07839047
-4.715048	k@st	0.1527099
-4.116225	k@t	0.1294718
-3.815737	k@z	0.1003038
-3.572931	kE	-0.09188768
-4.019532	kE@	-0.03631649
-4.715048	kE@n	0.1527099
-4.715048	kEJ	0.1527099
-4.715048	kEmpt	0.1527099
-4.715048	kEn	0.1527099
-4.116225	kEt	0.1294718
-4.416173	kH	-0.01554077
-2.605392	kI	-0.3239271
-4.715048	kI@	0.1527099
-4.715048	kI@S	0.1527099
-4.715048	kIJ	0.1527099
-3.047179	kIN	-0.09765759
-4.715048	kINk	0.1527099
-4.240803	kINz	0.1370805
-3.718935	kIS	0.1022871
-3.873651	kI_	0.1074142
-3.677582	kId	0.09830898
-4.116225	kIk	0.1299464
-4.240803	kIl	0.1371076
-4.416173	kIln	0.1448249
-4.715048	kIlt	0.1527099
-3.572931	kIn	0.06110743
-4.715048	kInt	0.1527099
-4.416173	kInz	-0.01523168
-4.715048	kIp	0.1527099
-4.240803	kIs	0.1371676
-4.116225	kIst	0.1294718
-3.396943	kIt	0.01812162
-4.416173	kIts	0.1448249
-2.622425	kP	-0.3561797
-4.240803	kPd	0.1370805
-4.240803	kPz	0.1370805
-2.719326	kQ	-0.4099583
-3.940495	kQI	0.1326801
-4.416173	kQIl	0.1448249
-4.715048	kQIn	0.1527099
-4.715048	kQIts	0.1527099
-3.764644	kQN	-0.06508503
-4.715048	kQS	0.1527099
-4.116225	kQb	0.1303432
-4.240803	kQd	0.1380241
-4.715048	kQf	0.1527099
-4.240803	kQg	0.1381084
-3.440387	kQk	0.03176802
-4.715048	kQks	-0.008078652
-4.715048	kQkt	0.1527099
-4.240803	kQl	0.1376393
-3.514978	kQm	0.05093947
-3.128193	kQn	-0.06648701
-4.715048	kQnJ	0.1527099
-4.715048	kQnd	0.1527099
-4.715048	kQp	0.1527099
-4.715048	kQps	0.1527099
-4.715048	kQs	0.1527099
-4.416173	kQst	0.1568157
-3.940495	kQt	0.114643
-4.116225	kQz	0.1325056
-3.764644	kU	-0.0605525
-2.933968	kV	-0.3059756
-4.416173	kVd	0.1568157
-4.416173	kVf	0.1448249
-4.416173	kVfs	0.1448249
-3.764644	kVl	0.1016283
-4.715048	kVlt	0.1527099
-3.488665	kVm	0.04726092
-4.116225	kVn	-0.0304997
-4.715048	kVnt	0.1527099
-3.873651	kVp	0.1095541
-4.416173	kVs	0.1466202
-3.718935	kVt	0.08895631
-3.376749	ki	0.02568755
-4.715048	kiS	0.1527099
-4.715048	kil	0.1527099
-4.116225	kin	0.145336
-4.416173	kip	0.144792
-4.715048	kit	0.1527099
-4.715048	kj#d	0.1527099
-4.416173	kj@l	0.1448249
-3.572931	kjU	-0.09395918
-3.873651	kjU@	-0.04319208
-4.116225	kjU@R	0.1294718
-4.715048	kjU@m	0.1527099
-4.416173	kjU@s	0.1448249
-3.418122	kju	0.04618032
-4.715048	kjub	0.1527099
-4.416173	kjul	0.1448249
-3.873651	kjut	0.1232784
-4.715048	kjuzd	0.1527099
-4.240803	kl#	0.146235
-4.240803	kl#I	-0.0236877
-4.715048	kl#Im	0.1527099
-4.240803	kl#In	0.1370805
-4.715048	kl#Ind	0.1527099
-4.715048	kl#U	-0.004149002
-4.715048	kl#Ud	0.1527099
-4.715048	kl#Un	0.1527099
-4.715048	kl#k	0.1527099
-4.240803	kl#s	0.1371676
-4.240803	kl$	0.1370746
-4.715048	kl$z	0.1527099
-4.240803	kl1	0.1376513
-4.019532	kl1m	0.1219941
-4.715048	kl1md	0.1527099
-4.416173	kl1v	0.1448249
-4.416173	kl3	-0.01516729
-4.416173	kl5	-0.01548901
-4.715048	kl5D	0.1527099
-4.416173	kl5Dz	0.144924
-4.416173	kl5k	0.1450801
-4.416173	kl5n	0.1448249
-4.416173	kl5s	0.1568157
-4.240803	kl5z	0.1370805
-4.416173	kl@	-0.01485786
-3.873651	klE	-0.04453183
-4.416173	klE@R	0.1448249
-4.715048	klEft	0.1527099
-4.715048	klEk	-0.007539599
-4.240803	klEn	-0.0117939
-4.715048	klEnJ	0.1527099
-3.764644	klI	0.1032975
-4.019532	klI@	-0.02705943
-4.416173	klI@R	0.1448249
-4.116225	klIN	0.130352
-4.715048	klINk	0.1527099
-4.715048	klIf	0.1527099
-4.416173	klIk	0.1448249
-4.715048	klIn	0.1527099
-4.715048	klInJ	0.1527099
-4.416173	klIp	0.1450561
-4.715048	klIps	0.1527099
-4.416173	klIt	0.1448249
-4.416173	klQ	-0.01450035
-4.416173	klQI	0.1454767
-4.715048	klQS	0.1527099
-3.677582	klQT	0.07964542
-4.416173	klQg	0.1448249
-4.416173	klQk	0.1452964
-4.715048	klQp	0.1527099
-4.240803	klV	-0.02170983
-4.715048	klVJ	0.1527099
-4.416173	klVb	0.1452243
-4.715048	klVm	-0.007315488
-4.715048	klVmp	0.1527099
-3.940495	kli	-0.04518107
-4.715048	klik	0.1527099
-4.240803	klin	0.1495584
-4.715048	klit	0.1527099
-4.715048	kliv	0.1527099
-3.873651	klu	-0.05099648
-4.240803	klud	0.1370805
-4.715048	klus	0.1527099
-3.542989	kl{	-0.09193002
-4.715048	kl{N	0.1527099
-4.715048	kl{Nk	0.1527099
-4.715048	kl{S	0.1527099
-4.715048	kl{d	0.1527099
-4.416173	kl{k	0.1451282
-4.416173	kl{m	0.1451162
-4.715048	kl{mp	0.1527099
-4.715048	kl{n	0.1527099
-4.715048	kl{nz	-0.007340395
-4.416173	kl{p	0.144804
-4.116225	kr#I	-0.03008204
-4.715048	kr#Ips	0.1527099
-4.416173	kr#U	-0.0155305
-4.715048	kr#Ud	0.1527099
-4.715048	kr#Un	0.1527099
-4.715048	kr#Und	0.1527099
-4.715048	kr#f	-0.004374754
-4.416173	kr#ft	0.1448249
-4.715048	kr#l	0.1527099
-4.416173	kr$	-0.01536451
-3.605092	kr1	-0.08981501
-4.715048	kr1S	0.1527099
-4.416173	kr1k	0.1448249
-4.715048	kr1n	0.1527099
-4.715048	kr1p	0.1527099
-4.416173	kr1t	0.1448249
-4.715048	kr1v	0.1527099
-4.715048	kr1z	0.1527099
-3.605092	kr5	0.0726677
-4.715048	kr5J	0.1527099
-4.715048	kr5b	0.1527099
-4.715048	kr5k	0.1527099
-4.715048	kr5m	0.1527099
-4.715048	kr5n	0.1527099
-4.715048	kr5s	0.1527099
-3.815737	kr@	-0.05342498
-4.715048	kr@l	0.1527099
-4.715048	kr@m	0.1527099
-4.715048	kr@s	0.1527099
-3.815737	krE	-0.05317708
-4.715048	krEs	0.1527099
-3.376749	krI	0.02580953
-4.715048	krI@s	0.1527099
-4.715048	krIN	-0.007074647
-4.416173	krId	0.1448249
-4.715048	krImp	0.1527099
-4.715048	krIn_	0.1527099
-4.715048	krIp	-0.007539599
-4.715048	krIpt	0.1527099
-4.416173	krIsp	-0.005074894
-4.416173	krIt	0.1448249
-4.116225	krQ	-0.02888285
-4.715048	krQJ	0.1527099
-4.715048	krQf	-0.006484439
-4.715048	krQk	0.1527099
-4.715048	krQn	0.1527099
-4.416173	krQp	0.1448249
-3.605092	krQs	0.08472741
-4.715048	krQst	0.1527099
-4.715048	krQt	-0.008078652
-4.240803	krU	-0.02372275
-4.715048	krU@	0.0001880461
-4.715048	krU@l	-0.004374754
-4.019532	krV	-0.03671899
-4.715048	krVJ	0.1527099
-4.715048	krVS	0.1527099
-4.715048	krVks	0.1527099
-3.940495	krVm	0.11854
-4.715048	krVnJ	0.1527099
-4.715048	krVpt	0.1527099
-4.240803	krVst	0.1370805
-3.542989	kri	0.07001526
-4.715048	krik	0.1527099
-4.715048	krips	0.1527099
-4.240803	kris	0.1370805
-4.715048	krit	0.1527099
-3.572931	kru	0.07405256
-4.715048	krud	0.1527099
-4.715048	krun	0.1527099
-4.715048	krup	0.1527099
-4.715048	krut	0.1527099
-4.715048	kruz	0.1527099
-4.019532	kr{	-0.03551496
-4.715048	kr{N	-0.007033109
-4.715048	kr{Nk	0.1527099
-4.715048	kr{S	0.1527099
-4.240803	kr{b	0.1370626
-4.715048	kr{g	0.1527099
-4.019532	kr{k	0.1227364
-4.715048	kr{ks	-0.007340395
-4.416173	kr{m	0.144888
-4.715048	kr{mp	0.1527099
-4.715048	kr{mps	0.1527099
-4.715048	kr{mpt	0.1527099
-4.715048	kr{n	-0.007348697
-4.715048	kr{p	0.1527099
-4.416173	kr{s	0.1568157
-4.715048	kr{t	0.1527099
-3.815737	ku	0.1013961
-4.416173	kuT	0.1485894
-4.240803	kul	0.1529447
-4.715048	kum	0.1527099
-4.240803	kun	0.1370805
-4.416173	kup	0.1448249
-4.715048	kut	0.1527099
-4.715048	kw#	-0.008103514
-3.718935	kw#I	-0.06729221
-4.715048	kw#In	0.1527099
-4.715048	kw#It	0.1527099
-4.715048	kw#k	0.1527099
-4.715048	kw#m	0.1527099
-3.815737	kw$	-0.0565754
-4.715048	kw$t	0.1527099
-4.715048	kw$ts	0.1527099
-3.873651	kw1	0.1148612
-4.416173	kw1k	0.1448249
-4.715048	kw1l	0.1527099
-4.240803	kw1nt	0.1529447
-4.715048	kw3k	0.1527099
-4.240803	kw5	-0.02127649
-4.416173	kw5t	0.1448249
-3.718935	kw@	-0.05773064
-4.715048	kw@d	-0.005460062
-4.240803	kw@l	0.1370805
-4.715048	kw@ld	0.1527099
-4.416173	kw@ns	0.1448249
-4.240803	kw@nt	0.1370805
-4.715048	kw@t	0.1527099
-4.416173	kwE	-0.01129463
-4.715048	kwEl	0.1527099
-4.715048	kwEn	-0.007879694
-4.715048	kwEnt	0.1527099
-4.240803	kwEs	0.1369906
-4.116225	kwEst	0.1294718
-3.376749	kwI	0.02895235
-4.240803	kwI@	-0.008071059
-4.715048	kwI@R	0.1527099
-4.715048	kwI@m	0.1527099
-4.715048	kwI@s	0.1527099
-4.416173	kwId	0.1448249
-3.940495	kwIk	0.1305507
-4.240803	kwIl	0.1377203
-4.715048	kwIlt	0.1527099
-4.116225	kwIn	0.1305237
-4.715048	kwInd	0.1527099
-4.715048	kwIns	0.1527099
-4.715048	kwIp	0.1527099
-4.715048	kwIpt	0.1527099
-4.715048	kwIs	0.1527099
-4.240803	kwIt	0.1370805
-4.715048	kwIts	0.1527099
-4.416173	kwIz	0.1455969
-3.940495	kwQ	-0.040088
-4.715048	kwQI	-0.003295108
-4.416173	kwQS	0.1448249
-4.715048	kwQd	0.1527099
-4.240803	kwQn	-0.02158488
-4.416173	kwQt	0.1448249
-4.416173	kwi	-0.0152005
-4.715048	kwiD	0.1527099
-4.416173	kwin	0.1568157
-4.416173	kw{	-0.01365947
-4.715048	kw{N	-0.007738711
-4.715048	kw{k	0.1527099
-2.737053	k{	-0.4020445
-4.240803	k{J	-0.02333931
-4.416173	k{N	-0.01479137
-4.416173	k{S	0.14478
-4.715048	k{T	-0.007962604
-4.715048	k{_	0.1527099
-4.240803	k{b	0.1381171
-4.715048	k{d	-0.008095227
-4.416173	k{f	0.144852
-4.416173	k{l	-0.01443381
-3.940495	k{m	0.1156083
-4.240803	k{mp	0.1371676
-3.440387	k{n	0.04804628
-4.715048	k{nT	0.1527099
-4.240803	k{nt	0.1370805
-3.396943	k{p	0.03578182
-4.715048	k{s	-0.007970895
-4.715048	k{sk	0.1527099
-3.718935	k{t	0.08653438
-3.572931	l#	0.06877971
-3.139471	l#I	-0.04647565
-4.416173	l#ID	0.1568157
-4.240803	l#Id	0.1370805
-3.639826	l#If	0.07588257
-3.514978	l#Ik	0.06315432
-4.715048	l#Iks	0.1527099
-4.715048	l#Il	0.1527099
-3.940495	l#Im	0.1147482
-3.304229	l#In	-0.01106048
-3.256822	l#It	-0.0136354
-4.715048	l#Its	0.1527099
-4.416173	l#Iv	0.144852
-3.463856	l#Iz	0.03495176
-4.715048	l#J	0.1527099
-3.815737	l#U	0.1096078
-4.715048	l#Ud	0.1527099
-4.715048	l#Un	-0.007838233
-4.715048	l#Un_	0.1527099
-4.240803	l#Us	0.1370805
-4.715048	l#Ut	0.1527099
-4.715048	l#Z	0.1527099
-4.416173	l#_	0.1568157
-4.116225	l#d	0.1294718
-4.715048	l#f	0.1527099
-4.416173	l#k	0.1448249
-4.240803	l#n	-0.02347207
-4.715048	l#nJ	0.1527099
-4.416173	l#ns	0.1448249
-4.240803	l#st	0.1490713
-3.677582	l$	0.0845211
-4.116225	l$R	0.1294718
-4.019532	l$d	0.1343237
-3.815737	l$n	0.1149672
-2.89976	l1	-0.1388012
-4.715048	l1D	0.1527099
-4.715048	l1b	0.1527099
-4.116225	l1d	0.1294718
-4.715048	l1k	0.1527099
-4.240803	l1m	0.1529447
-4.416173	l1n	0.1448249
-4.416173	l1s	0.1448249
-3.214084	l1t	-0.03063801
-4.715048	l1v	0.1527099
-4.416173	l1z	0.1448249
-4.240803	l3	-0.02284945
-4.416173	l3n	0.1448249
-4.715048	l3t	0.0001880461
-2.805502	l5	-0.1957306
-4.416173	l5D	-0.007456846
-4.715048	l5T	0.1527099
-4.416173	l5b	0.1448249
-4.715048	l5bd	0.1527099
-3.873651	l5d	0.1075884
-4.715048	l5f	0.1527099
-4.019532	l5n	0.1343731
-4.416173	l5p	0.1448249
-4.715048	l5s	0.1527099
-4.416173	l5z	0.1448249
-2.499235	l@	-0.3875593
-2.789899	l@R	-0.2519571
-4.019532	l@d	0.1219941
-4.116225	l@k	0.1332363
-4.715048	l@ks	0.1527099
-3.572931	l@m	0.07473227
-3.440387	l@n	0.04728429
-3.815737	l@nd	0.1003038
-3.572931	l@ns	0.05992527
-4.715048	l@nst	0.1527099
-3.677582	l@nt	0.09163623
-3.940495	l@p	0.114643
-3.321255	l@s	0.01265639
-4.715048	l@sk	0.1527099
-4.715048	l@st	0.1527099
-3.677582	l@t	0.07964542
-4.715048	l@z	0.1527099
-2.926908	lE	-0.317539
-4.416173	lE@	-0.01527319
-4.715048	lE@d	0.1527099
-4.715048	lEN	-0.008103514
-4.416173	lENT	-0.01594519
-4.715048	lET	0.1527099
-4.715048	lE_	0.1527099
-4.715048	lEdz	0.1527099
-4.715048	lEf	-0.008045498
-4.240803	lEft	-0.02209281
-4.019532	lEg	0.123922
-4.715048	lEgd	0.1527099
-3.572931	lEk	-0.09186105
-4.416173	lEks	0.1448249
-4.116225	lEkt	0.1294718
-4.715048	lEn	-0.008095227
-4.715048	lEnt	0.1527099
-4.715048	lEnz	0.1527099
-4.019532	lEs	0.1219941
-4.715048	lEsk	0.1527099
-4.416173	lEst	0.1448249
-3.815737	lEt	0.1009226
-4.715048	lEz	-0.008103514
-1.722853	lI	-1.03532
-4.116225	lI@	0.1398347
-4.116225	lI@R	0.1294718
-4.416173	lI@m	0.1448249
-4.715048	lI@n	0.1527099
-4.715048	lI@nd	0.1527099
-4.416173	lI@nt	0.1448249
-4.715048	lI@s	0.1527099
-4.715048	lIJ	-0.00791286
-2.86805	lIN	-0.1927787
-4.416173	lINk	-0.01533961
-4.715048	lINks	0.1527099
-4.240803	lINz	0.1370805
-3.488665	lIS	0.056926
-4.416173	lIT	0.1448249
-3.514978	lI_	0.04725904
-4.715048	lIb	0.1527099
-3.718935	lId	0.1022871
-4.715048	lIf	0.1527099
-4.116225	lIft	0.1294718
-3.542989	lIk	0.05384925
-4.416173	lIks	0.1448249
-4.416173	lIkt	0.1448249
-4.715048	lIlt	0.1527099
-3.940495	lIm	0.1175752
-4.715048	lImf	0.1527099
-4.416173	lImp	0.1568157
-3.376749	lIn	0.01748203
-4.416173	lInJ	0.144948
-4.715048	lIndz	0.1527099
-4.715048	lInt	0.1527099
-3.873651	lIp	0.1082287
-4.715048	lIps	0.1527099
-2.496627	lIs	-0.4379585
-4.240803	lIsk	0.1370805
-4.715048	lIsp	0.1527099
-3.440387	lIst	0.03085443
-3.15105	lIt	-0.06722577
-4.019532	lIv	0.1221292
-4.715048	lIz	-0.007340395
-3.272056	lQ	-0.1633376
-3.873651	lQI	0.1145258
-4.715048	lQId	0.1527099
-4.240803	lQIn	0.1370805
-4.715048	lQInz	0.1527099
-3.463856	lQN	0.03604412
-4.715048	lQNd	0.1527099
-4.715048	lQS	0.1527099
-4.240803	lQ_	0.1376602
-4.416173	lQb	0.1454767
-4.416173	lQf	-0.01183893
-4.416173	lQft	0.1448249
-3.873651	lQg	0.1076005
-4.715048	lQgd	0.1527099
-3.514978	lQk	0.04770074
-4.715048	lQks	0.1527099
-4.715048	lQkt	0.1527099
-4.715048	lQl	0.1527099
-4.715048	lQm	0.1527099
-4.715048	lQn	0.1527099
-4.715048	lQnz	0.1527099
-4.416173	lQp	0.1448249
-4.240803	lQt	0.1376602
-4.715048	lU	-0.007448308
-4.416173	lU@	-0.01584762
-4.715048	lU@R	0.1527099
-4.116225	lUk	0.1302197
-4.715048	lUks	0.1527099
-3.572931	lV	-0.09452926
-4.240803	lVN	0.1372517
-4.715048	lVS	0.1527099
-4.715048	lVg	0.1527099
-4.116225	lVk	0.1318617
-4.715048	lVl	0.1527099
-4.019532	lVm	-0.0363999
-4.715048	lVmf	0.1527099
-4.715048	lVn	-0.008070364
-4.416173	lVnJ	0.1450081
-4.715048	lVn_	0.1527099
-4.715048	lVs	-0.008078652
-4.416173	lVst	0.1448249
-3.940495	lVv	-0.03649328
-3.139471	li	-0.04754281
-4.416173	liS	0.1448249
-4.715048	lid	0.1527099
-4.019532	lif	0.123922
-4.715048	lig	0.1527099
-4.715048	lik	0.1527099
-3.873651	lin	0.1074142
-4.416173	lip	0.144804
-3.940495	lis	0.1157551
-4.416173	list	0.144828
-4.240803	lit	0.1370805
-4.240803	liv	0.1370805
-4.240803	livd	0.1370805
-4.240803	liz	0.1370805
-4.715048	lj#d	0.1527099
-4.715048	lj5	0.1527099
-3.764644	lj@	0.1010637
-4.416173	lj@R	0.1448249
-4.715048	lj@d	0.1527099
-4.715048	lj@m	0.1527099
-3.815737	lj@n	0.1003038
-4.416173	lj@nT	0.1448249
-4.715048	lj@nt	0.1527099
-4.715048	lj@s	0.1527099
-4.116225	ljU	-0.02875178
-4.715048	ljU@	-0.007589385
-4.715048	ljU@R	0.1527099
-4.715048	lju	0.1527099
-4.715048	lju_	0.1527099
-4.116225	ljud	0.145336
-4.715048	ljum	0.1527099
-4.715048	ljumz	0.1527099
-3.029084	lu	-0.08537018
-4.715048	luZ	0.1527099
-4.240803	lud	0.1370805
-4.416173	luf	0.1568157
-4.715048	luk	-0.008095227
-4.240803	lum	0.1370805
-4.116225	lun	0.1294718
-4.240803	lup	0.1372877
-4.240803	lus	0.1529447
-4.116225	lut	0.1294718
-3.200724	l{	-0.1855819
-4.416173	l{J	0.1450081
-4.116225	l{N	-0.02954114
-4.116225	l{S	0.1294718
-4.715048	l{b	0.1527099
-4.715048	l{d	0.1527099
-4.715048	l{f	0.1527099
-4.715048	l{g	0.1527099
-3.815737	l{k	0.1035469
-4.240803	l{ks	0.140845
-4.116225	l{m	0.1298174
-4.116225	l{mp	0.1297181
-3.873651	l{n	-0.05135038
-3.639826	l{nd	0.07720423
-4.019532	l{p	0.1220362
-4.240803	l{ps	0.1370805
-4.715048	l{s	0.1527099
-4.715048	l{v	0.1527099
-3.075818	m#	-0.07087559
-3.376749	m#I	0.02651989
-4.715048	m#Id	0.1527099
-4.715048	m#Il	-0.007904569
-4.416173	m#Ild	-0.005074894
-4.715048	m#Im	0.1527099
-3.815737	m#In	0.1020543
-4.240803	m#Ind	0.1390085
-4.240803	m#It	0.1370805
-4.715048	m#Iz	0.1527099
-4.416173	m#J	0.1448249
-4.715048	m#R	0.1527099
-4.416173	m#S	0.1459698
-4.416173	m#U	-0.01334507
-4.715048	m#UD	0.1527099
-4.019532	m#UT	0.1231456
-4.715048	m#Un	-0.008004053
-4.715048	m#Und	0.1527099
-4.240803	m#Unt	0.1370805
-4.116225	m#Us	0.1294718
-4.715048	m#Uz	0.1527099
-4.715048	m#_	0.1527099
-3.677582	m#k	0.08011689
-4.715048	m#ks	-0.007340395
-4.416173	m#kt	0.1448249
-4.715048	m#l	0.1527099
-4.416173	m#m	0.1448249
-4.116225	m#n	-0.02990952
-4.240803	m#nd	0.1370805
-4.240803	m#sk	0.1370805
-4.240803	m#st	0.1374559
-4.715048	m#t	0.1527099
-3.214084	m$	-0.02409872
-3.940495	m$R	0.114643
-4.715048	m$d	-0.007929442
-4.715048	m$g	0.1527099
-4.715048	m$l	0.1527099
-4.715048	m$lt	0.1527099
-4.116225	m$n	0.1372108
-4.416173	m$s	0.1467528
-2.986895	m1	-0.1102288
-3.764644	m1d	0.0933079
-4.116225	m1k	0.1294539
-3.873651	m1l	0.1076066
-4.715048	m1ld	0.1527099
-4.715048	m1m	0.1527099
-3.488665	m1n	0.05569281
-4.715048	m1n_	0.1527099
-4.416173	m1nz	0.1448249
-4.715048	m1s	0.1527099
-3.572931	m1t	0.05992527
-4.416173	m1z	0.1454045
-4.715048	m1zd	0.1527099
-3.418122	m3	-0.1288414
-4.416173	m3R	0.1448249
-4.240803	m3T	0.140014
-4.715048	m3_	0.1527099
-4.715048	m3_d	0.1527099
-4.715048	m3k	0.1527099
-4.416173	m3s	0.1448249
-2.978928	m5	-0.1103175
-4.416173	m5d	0.1448249
-3.940495	m5l	0.1210724
-4.715048	m5ld	0.1527099
-4.240803	m5n	0.1370805
-4.715048	m5p	0.1527099
-3.639826	m5st	0.08496287
-4.116225	m5t	0.1414626
-4.715048	m5v	0.1527099
-2.447505	m@	-0.4206365
-3.047179	m@R	-0.1127682
-4.240803	m@T	0.1370805
-4.240803	m@d	0.1370805
-4.116225	m@k	0.1294629
-4.715048	m@ks	0.1527099
-4.116225	m@m	0.1294718
-2.75084	m@n	-0.2599561
-4.416173	m@nd	0.1448249
-4.715048	m@ns	0.1527099
-2.978928	m@nt	-0.1460064
-4.715048	m@nz	0.1527099
-3.639826	m@s	0.08496287
-3.873651	m@t	0.1074142
-4.416173	m@z	0.1448249
-2.880457	mE	-0.3296292
-4.240803	mE@	-0.02337446
-4.416173	mE@R	0.1448249
-4.715048	mEN	-0.0075313
-4.416173	mES	0.1448249
-4.715048	mETs	0.1527099
-4.715048	mEd	-0.007406806
-4.715048	mEg	0.1527099
-4.715048	mEl	-0.007572791
-4.715048	mEld	0.1527099
-4.715048	mElt	0.1527099
-4.019532	mEm	-0.03798162
-3.338977	mEn	0.01577011
-4.240803	mEnd	0.1370805
-4.715048	mEndz	0.1527099
-4.240803	mEns	0.1490713
-3.764644	mEnt	0.0933079
-4.240803	mEs	0.1397602
-4.416173	mEt	-0.01434229
-4.715048	mEz	-0.007539599
-2.340953	mI	-0.4803204
-4.019532	mI@	0.1340698
-4.240803	mI@R	0.1370805
-4.416173	mI@m	0.1448249
-4.416173	mI@n	0.1448249
-3.418122	mIN	0.03600441
-4.715048	mINk	0.1527099
-4.715048	mINks	0.1527099
-4.416173	mIS	0.1448249
-4.715048	mISt	0.1527099
-4.715048	mIT	0.1527099
-4.019532	mI_	0.1219941
-3.542989	mId	0.05488934
-4.416173	mIdst	0.1448249
-4.715048	mIft	0.1527099
-3.514978	mIk	0.04756229
-4.019532	mIks	0.1225857
-3.514978	mIl	0.05027002
-3.873651	mIlk	0.1084157
-4.715048	mIlt	0.1527099
-3.542989	mIn	0.05492092
-4.715048	mInd	0.1527099
-4.715048	mIns	-0.008053787
-4.240803	mInt	0.1370805
-3.287845	mIs	-0.003977865
-4.019532	mIst	0.1219941
-4.715048	mIsts	0.1527099
-3.488665	mIt	0.04298975
-3.440387	mP	0.03588386
-2.926908	mQ	-0.303867
-4.715048	mQI	-0.007846526
-4.715048	mQIl	0.1527099
-4.715048	mQIs	-0.007647463
-4.715048	mQIst	0.0001880461
-4.240803	mQT	0.1372187
-4.416173	mQb	0.1454767
-4.715048	mQk	0.1527099
-4.715048	mQm	0.1527099
-4.416173	mQn	-0.01485786
-4.715048	mQn_	0.1527099
-4.715048	mQns	-0.008078652
-4.715048	mQp	0.1527099
-4.416173	mQs	0.1448249
-4.416173	mQt	0.1568157
-4.715048	mU	-0.007887986
-4.416173	mU@R	0.1448249
-3.106479	mV	-0.2299191
-4.240803	mVJ	0.140845
-4.019532	mVN	-0.03755356
-4.715048	mVNk	0.1527099
-4.715048	mVNst	0.1527099
-4.416173	mVS	0.1450801
-4.240803	mVd	0.1371707
-4.240803	mVf	0.1380209
-4.715048	mVg	0.1527099
-4.416173	mVk	0.145633
-4.240803	mVl	-0.0165517
-4.715048	mVlJ	0.1527099
-4.715048	mVlt	0.1527099
-4.715048	mVn	-0.00803721
-4.416173	mVnT	0.1568157
-4.715048	mVs	-0.008095227
-4.416173	mVsk	0.14478
-4.715048	mVt	0.1527099
-3.200724	mi	-0.01727264
-4.715048	mid	0.1527099
-4.416173	mik	-0.005074894
-4.116225	mil	0.129655
-4.019532	min	0.1380513
-4.715048	minz	0.1527099
-3.873651	mit	0.1094662
-4.416173	miz	0.1568157
-4.715048	mj5	-0.008095227
-4.240803	mj@	-0.02132886
-4.416173	mj@m	0.1448249
-4.715048	mj@n	0.1527099
-3.815737	mjU	-0.05642737
-4.416173	mjU@	-0.007414576
-3.376749	mju	-0.1380213
-4.715048	mjul	0.1527099
-4.416173	mjun	0.1448249
-4.416173	mjut	0.1568157
-4.715048	mjuz	0.1527099
-3.488665	mu	0.05617169
-4.715048	muJ	0.1527099
-4.715048	mud	0.1527099
-3.940495	mun	0.1171486
-4.715048	mus	0.1527099
-4.715048	mut	0.1527099
-4.416173	muv	0.1454045
-4.416173	muvd	0.1448249
-4.715048	mw#	-0.007498106
-2.710726	m{	-0.430982
-3.873651	m{J	0.1084486
-4.715048	m{Jt	0.1527099
-4.116225	m{N	-0.03019845
-4.416173	m{T	0.1448249
-4.416173	m{d	-0.007634332
-3.764644	m{g	-0.0629878
-3.940495	m{k	0.1184234
-4.715048	m{ks	0.1527099
-4.116225	m{l	-0.03131939
-4.416173	m{m	0.1458495
-3.0858	m{n	-0.0605554
-4.715048	m{nd	0.1527099
-4.715048	m{ns	0.1527099
-4.240803	m{s	0.1396721
-4.715048	m{t	0.1527099
-3.639826	n#	-0.06667098
-3.488665	n#I	0.05513939
-4.416173	n#If	0.1448249
-4.715048	n#Il	0.1527099
-3.572931	n#In	0.0776633
-4.715048	n#InT	0.1527099
-4.715048	n#Inz	0.1527099
-4.416173	n#Is	0.1485894
-3.304229	n#It	0.002289519
-4.715048	n#Its	0.1527099
-4.715048	n#Iv	0.1527099
-3.677582	n#Iz	0.07964542
-4.715048	n#Izd	0.1527099
-4.416173	n#R	0.1448249
-4.416173	n#U	0.1517368
-4.715048	n#Un	0.1527099
-4.715048	n#Und	0.1527099
-4.116225	n#Uns	0.1294718
-4.715048	n#Us	0.1527099
-4.715048	n#Ut	0.1527099
-4.416173	n#Z	0.1448249
-4.715048	n#_	0.1527099
-4.416173	n#d	0.1448249
-4.416173	n#l	0.1448249
-4.715048	n#ld	0.1527099
-3.440387	n$	0.04256375
-4.416173	n$R	0.1448249
-3.940495	n$T	0.115488
-4.715048	n$m	0.1527099
-3.940495	n$t	0.114643
-3.003282	n1	-0.1173181
-4.715048	n1_	0.1527099
-3.873651	n1d	0.1074142
-4.240803	n1l	0.1370805
-4.715048	n1ld	0.1527099
-3.764644	n1m	0.1072702
-3.227867	n1t	-0.02166003
-4.715048	n1v	0.1527099
-4.416173	n1z	0.1448249
-3.718935	n3	-0.07113454
-4.416173	n3s	0.1455969
-4.416173	n3t	0.1485894
-4.416173	n3v	0.1467528
-4.715048	n3vz	0.1527099
-2.886796	n5	-0.1606073
-4.416173	n5d	0.1448249
-4.715048	n5l	0.1527099
-4.416173	n5m	0.1448249
-4.416173	n5n	0.1448249
-4.019532	n5t	0.1226731
-3.873651	n5z	0.1083074
-2.483815	n@	-0.39711
-2.89976	n@R	-0.1879151
-4.240803	n@d	0.1370805
-4.715048	n@dz	0.1527099
-4.416173	n@k	0.1448249
-4.715048	n@l	0.1527099
-3.815737	n@m	0.1003038
-4.116225	n@n	0.1339956
-3.764644	n@ns	0.0933079
-3.605092	n@nt	0.06639967
-3.396943	n@s	0.03298527
-4.019532	n@t	0.1219941
-4.715048	n@z	0.1527099
-3.287845	nE	-0.1697845
-3.605092	nEk	0.07832807
-4.715048	nEkst	0.1527099
-4.715048	nEkt	0.1527099
-4.240803	nEl	0.1373838
-4.715048	nEnt	0.1527099
-4.116225	nEs	0.1302438
-4.715048	nEst	0.1527099
-3.718935	nEt	0.08701777
-4.715048	nEts	0.1527099
-2.350135	nI	-0.4940057
-3.873651	nI@	0.1240203
-3.873651	nI@R	0.1074142
-4.416173	nI@l	0.1448249
-4.240803	nI@m	0.1370805
-4.715048	nI@n	0.1527099
-4.715048	nI@s	0.1527099
-3.128193	nIN	-0.0617619
-4.715048	nINks	0.1527099
-4.240803	nINz	0.1370805
-3.572931	nIS	0.07191608
-4.240803	nISt	0.1370805
-4.715048	nIT	0.1527099
-3.873651	nI_	0.1074142
-4.715048	nIb	0.1527099
-4.715048	nIbz	0.1527099
-4.019532	nId	0.1219941
-4.715048	nIf	-0.004374754
-4.240803	nIg	0.1392049
-3.214084	nIk	-0.04267071
-4.116225	nIks	0.1294718
-4.416173	nIl	0.1448249
-3.718935	nIm	0.0900936
-4.416173	nIn	0.1448249
-4.416173	nIp	0.1448249
-2.215565	nIs	-0.6808484
-3.440387	nIst	0.04479069
-3.338977	nIt	0.002342328
-4.715048	nIts	0.1527099
-4.240803	nIz	0.1370805
-2.933968	nP	-0.1593489
-4.116225	nPz	0.1294718
-3.187762	nQ	-0.1982228
-3.764644	nQI	0.1032679
-4.416173	nQId	0.1448249
-4.715048	nQIdz	0.1527099
-4.715048	nQInt	0.1527099
-4.715048	nQIz	0.1527099
-4.715048	nQJ	0.1527099
-4.715048	nQS	0.1527099
-4.240803	nQb	0.1371676
-4.715048	nQd	0.1527099
-4.715048	nQg	0.1527099
-3.873651	nQk	-0.04729154
-4.715048	nQks	0.1527099
-4.715048	nQl	0.1527099
-4.116225	nQn	-0.02979087
-4.715048	nQns	0.1527099
-4.416173	nQp	-0.01533131
-4.416173	nQs	-0.01599493
-4.240803	nQt	0.1370805
-4.240803	nUk	0.1370805
-3.940495	nV	-0.04313096
-4.715048	nV_	0.1527099
-4.715048	nVb	0.1527099
-4.715048	nVf	0.1527099
-4.416173	nVl	0.1454045
-3.940495	nVm	0.1186045
-4.116225	nVn	-0.02822355
-4.416173	nVp	-0.01583741
-3.940495	nVt	0.114574
-4.715048	nVts	0.1527099
-3.418122	ni	0.03381354
-4.416173	niT	0.1448249
-4.240803	nid	0.140014
-4.715048	nig	0.1527099
-4.240803	nik	0.1490713
-4.240803	nil	0.1370805
-4.715048	nim	0.1527099
-4.416173	nin	0.1448249
-4.715048	nip	0.1527099
-4.416173	nit	-0.005074894
-4.416173	niz	0.1448249
-4.416173	nj$	-0.01467712
-4.715048	nj$R	0.1527099
-3.815737	nj@	0.1122946
-4.715048	nj@R	0.1527099
-3.873651	nj@l	0.1074142
-4.240803	nj@m	0.1370805
-4.116225	nj@n	0.1332363
-4.715048	nj@nt	0.1527099
-3.940495	nj@s	0.114643
-4.715048	njEt	0.1527099
-4.019532	njU	-0.03078428
-4.416173	njU@	-0.007414576
-4.416173	njU@R	0.1448249
-4.416173	njU@l	0.1448249
-4.715048	njU@s	0.1527099
-3.227867	nju	-0.001479745
-4.715048	njud	0.1527099
-4.715048	njul	0.1527099
-4.416173	njut	0.1448249
-4.116225	njuz	0.129541
-4.240803	nu	-0.02250871
-4.240803	nun	0.1376001
-4.715048	nunz	0.1527099
-4.715048	nus	0.1527099
-4.715048	nw#R	0.1527099
-3.214084	n{	-0.1866151
-4.715048	n{S	0.1527099
-4.715048	n{b	0.1527099
-4.715048	n{d	0.1527099
-4.715048	n{g	0.1527099
-4.715048	n{k	0.1527099
-4.715048	n{kt	0.1527099
-4.416173	n{n	-0.01555539
-4.715048	n{ns	0.1527099
-4.240803	n{p	0.1371676
-4.715048	n{st	0.1527099
-4.715048	n{t	0.1527099
-3.128193	p#	-0.04142909
-3.418122	p#I	0.03662004
-4.416173	p#Ik	0.1448249
-4.240803	p#Il	0.1370805
-4.715048	p#Ilz	0.1527099
-3.764644	p#In	0.1107885
-3.718935	p#Ip	0.08664523
-4.416173	p#Ips	0.1448249
-4.715048	p#R	0.1527099
-4.240803	p#T	0.1395791
-3.718935	p#U	-0.06813751
-4.715048	p#UJ	0.1527099
-4.416173	p#Un	-0.01561347
-4.116225	p#Und	0.1294718
-4.715048	p#Uns	0.1527099
-4.715048	p#Ut	0.1527099
-4.416173	p#d	0.1455368
-4.416173	p#k	0.144888
-4.416173	p#m	0.1448249
-3.639826	p#s	0.08589262
-4.416173	p#st	0.1448249
-3.764644	p#t	0.107947
-4.715048	p#z	0.1527099
-3.117201	p$	-0.04278798
-4.240803	p$R	0.1370805
-4.715048	p$k	0.1527099
-4.116225	p$l	0.1311293
-4.416173	p$n	-0.01570472
-4.715048	p$nJ	0.1527099
-3.572931	p$t	0.07349661
-4.416173	p$z	0.1448249
-3.020312	p1	-0.09874633
-4.416173	p1_	0.1448249
-4.715048	p1d	0.1527099
-4.416173	p1k	0.1485894
-4.019532	p1l	0.1388995
-3.815737	p1n	0.1045728
-4.715048	p1nd	0.1527099
-4.240803	p1nt	0.1370836
-4.715048	p1nts	0.1527099
-4.715048	p1nz	0.1527099
-4.116225	p1s	0.1363072
-4.416173	p1st	0.1450561
-4.416173	p1t	0.1448249
-4.715048	p1v	-0.007655759
-4.715048	p1vd	0.1527099
-4.715048	p1z	0.0001880461
-3.038038	p3	-0.2490694
-4.715048	p3J	0.1527099
-4.715048	p3_	0.1527099
-4.715048	p3b	0.1527099
-4.715048	p3l	0.1527099
-4.715048	p3s	0.1527099
-4.416173	p3t	0.1568157
-3.075818	p5	-0.06036925
-4.715048	p5J	0.1527099
-4.715048	p5k	0.1527099
-3.940495	p5l	0.1189886
-4.715048	p5n	0.1527099
-4.715048	p5s	0.1527099
-3.605092	p5st	0.0675194
-4.240803	p5z	0.1370805
-4.416173	p5zd	0.1448249
-2.436045	p@	-0.4194259
-2.91996	p@R	-0.1768806
-4.416173	p@d	0.1448249
-4.715048	p@l	-0.007448308
-4.715048	p@m	0.1527099
-3.440387	p@n	0.04059868
-4.116225	p@ns	0.1294718
-4.416173	p@nt	0.1448249
-3.463856	p@s	0.04892726
-4.715048	p@t	0.1527099
-4.019532	p@z	0.1219941
-2.978928	pE	-0.2647163
-4.715048	pE@	-0.007589385
-4.019532	pE@R	0.1219941
-4.715048	pE@d	0.1527099
-4.416173	pEd	0.1448249
-4.715048	pEg	0.1527099
-4.240803	pEk	0.1371556
-4.715048	pEks	0.1527099
-4.715048	pEkt	0.1527099
-3.873651	pEl	0.1075164
-4.715048	pElt	0.1527099
-3.605092	pEn	0.07542858
-4.240803	pEnd	0.1370805
-4.715048	pEns	0.1527099
-4.715048	pEnt	0.1527099
-4.416173	pEp	0.1455729
-4.715048	pEs	-0.007033109
-4.715048	pEst	0.1527099
-4.416173	pEt	0.1448249
-4.416173	pH	-0.01483293
-2.526217	pI	-0.3712412
-3.677582	pI@	0.09356818
-4.019532	pI@R	0.1219941
-4.416173	pI@s	0.1448249
-4.715048	pI@t	0.1527099
-4.715048	pIJt	0.1527099
-3.227867	pIN	-0.02323343
-4.715048	pINk	0.1527099
-4.116225	pINz	0.1294718
-3.677582	pIS	0.09550961
-4.715048	pIT	0.1527099
-4.715048	pI_	0.1527099
-3.677582	pId	0.09243227
-4.715048	pIf	-0.008086939
-3.815737	pIg	0.1045763
-3.605092	pIk	0.07949354
-4.715048	pIks	0.1527099
-4.715048	pIkt	0.1527099
-4.019532	pIl	-0.03810827
-4.416173	pIm	-0.01578766
-4.715048	pImp	0.1527099
-3.488665	pIn	0.04240723
-4.715048	pInJ	0.1527099
-4.715048	pInJt	0.1527099
-4.715048	pInz	0.1527099
-4.416173	pIp	0.144756
-4.116225	pIs	0.1326955
-3.815737	pIst	0.1003038
-3.488665	pIt	0.04247493
-3.200724	pP	-0.0476169
-4.416173	pPd	0.1448249
-3.003282	pQ	-0.2652456
-4.240803	pQI	0.1373237
-4.715048	pQIN	-0.007614277
-4.240803	pQIn	-0.02145155
-3.815737	pQInt	0.1022317
-4.416173	pQIz	0.1449961
-4.715048	pQJ	0.1527099
-4.416173	pQN	0.1448249
-4.715048	pQS	0.1527099
-4.715048	pQ_	0.1527099
-4.416173	pQd	0.1448249
-4.240803	pQk	0.1370746
-4.715048	pQks	0.1527099
-4.715048	pQkt	0.1527099
-4.416173	pQl	-0.01422579
-3.940495	pQm	0.1148323
-4.715048	pQmp	0.1527099
-3.639826	pQn	0.07537605
-4.416173	pQnd	0.1448249
-4.019532	pQp	0.1230132
-4.116225	pQs	0.1303192
-4.416173	pQst	0.1448249
-3.488665	pQt	0.04195264
-4.715048	pS$	0.1527099
-3.718935	pU	-0.06203789
-4.715048	pU@	-0.00340403
-4.715048	pUJ	0.1527099
-4.240803	pUS	0.1370506
-4.715048	pUSt	0.1527099
-4.715048	pUd	0.1527099
-4.715048	pUf	-0.006484439
-4.116225	pUl	0.1327717
-4.416173	pUs	0.1448249
-4.240803	pUt	0.1370805
-3.376749	pV	-0.1357487
-4.116225	pVNk	0.1300337
-4.715048	pVb	0.1527099
-4.416173	pVf	0.144948
-4.715048	pVft	0.1527099
-4.416173	pVg	0.1453685
-3.815737	pVl	-0.05536834
-4.715048	pVlp	0.1527099
-4.715048	pVls	0.1527099
-4.715048	pVlt	0.1527099
-4.416173	pVmp	0.144912
-3.940495	pVn	0.117672
-4.715048	pVnJ	0.1527099
-4.715048	pVnt	0.1527099
-4.715048	pVp	0.1527099
-4.715048	pVs	0.1527099
-4.715048	pVt	0.1527099
-4.715048	pfE	-0.008086939
-4.715048	phu	0.1527099
-3.15105	pi	-0.03749625
-4.715048	piJ	0.1527099
-4.240803	pid	0.1370805
-4.715048	pik	0.1527099
-4.416173	pil	0.1448249
-4.416173	pip	0.1450321
-3.463856	pis	0.0376785
-4.019532	pit	0.1239341
-4.715048	pivd	0.1527099
-4.240803	piz	0.1370805
-4.715048	pj#	-0.007547897
-4.116225	pj@	0.1362252
-4.715048	pj@R	0.1527099
-4.715048	pj@m	0.1527099
-4.240803	pj@n	0.1370805
-4.416173	pj@s	0.1568157
-3.815737	pjU	-0.05857974
-4.019532	pjU@	-0.03702495
-4.416173	pjU@R	0.1448249
-3.718935	pju	0.1036794
-4.715048	pjul	0.1527099
-4.416173	pjun	0.1448249
-4.240803	pjut	0.1370805
-4.240803	pl#	-0.02306539
-3.764644	pl#I	0.1003962
-4.715048	pl#Id	0.1527099
-4.715048	pl#It	0.1527099
-4.116225	pl#U	0.1304395
-4.715048	pl#Z	0.1527099
-4.715048	pl#k	0.1527099
-4.715048	pl#n	-0.008095227
-4.416173	pl#nt	0.1448249
-4.715048	pl$	-0.007821648
-4.715048	pl$R	0.1527099
-4.715048	pl$d	0.1527099
-4.715048	pl$z	0.1527099
-3.256822	pl1	-0.01511556
-4.715048	pl1g	0.1527099
-3.718935	pl1n	0.1029417
-3.764644	pl1s	0.09492585
-4.416173	pl1st	0.1448249
-3.940495	pl1t	0.1156435
-4.240803	pl5	-0.02164319
-3.940495	pl@	-0.0451977
-4.715048	pl@R	0.1527099
-4.715048	pl@s	0.1527099
-3.815737	plE	-0.05901894
-4.715048	plE_	0.1527099
-4.715048	plEbz	0.1527099
-4.715048	plEk	-0.008053787
-4.416173	plEks	0.1448249
-4.715048	plEkst	0.1527099
-4.715048	plEn	-0.004374754
-3.639826	plI	0.07768163
-4.715048	plIN	0.1527099
-4.715048	plId	0.1527099
-4.715048	plIm	-0.008086939
-4.416173	plIn	0.1448249
-4.715048	plInT	0.1527099
-4.715048	plIs	0.1527099
-4.715048	plIt	0.1527099
-4.240803	plQ	-0.02108468
-3.940495	plQI	0.1164779
-4.715048	plQd	0.1527099
-4.715048	plQm	0.1527099
-4.715048	plQp	0.1527099
-4.715048	plQt	0.1527099
-4.416173	plU@	-0.01440053
-4.116225	plV	-0.02764688
-4.715048	plVS	0.1527099
-4.416173	plVg	0.1450321
-4.715048	plVk	0.1527099
-4.416173	plVm	0.1451642
-4.715048	plVmd	0.1527099
-4.416173	plVmp	0.1485894
-4.416173	plVn	-0.01503235
-4.715048	plVn_	0.1527099
-4.715048	plVs	0.1527099
-3.940495	pli	0.1204062
-4.715048	pliJ	0.1527099
-4.416173	plit	0.1448249
-4.416173	pliz	0.1448249
-4.715048	plizd	0.1527099
-4.715048	plum	0.1527099
-4.715048	plumd	0.1527099
-3.764644	pl{	-0.06270261
-4.715048	pl{N	-0.007962604
-4.416173	pl{Nk	0.1448249
-4.715048	pl{S	0.1527099
-4.715048	pl{d	0.1527099
-4.019532	pl{n	0.1246931
-4.715048	pl{t	0.1527099
-3.677582	pr#I	0.0889862
-4.715048	pr#Id	0.1527099
-4.416173	pr#Is	0.1467528
-4.240803	pr#Iz	0.1370805
-4.715048	pr#Izd	0.1527099
-4.416173	pr#U	0.144804
-4.715048	pr#Ud	0.1527099
-4.715048	pr#Ul	0.1527099
-4.715048	pr#ns	0.1527099
-4.715048	pr$n	0.1527099
-4.116225	pr1	0.1305029
-4.715048	pr1v	0.1527099
-4.240803	pr1z	0.1372397
-3.272056	pr5	-0.006926075
-4.416173	pr5J	0.1448249
-4.715048	pr5b	0.1527099
-4.715048	pr5l	0.1527099
-4.715048	pr5n	0.1527099
-4.715048	pr5z	0.1527099
-3.117201	pr@	-0.2310611
-4.715048	pr@n	0.1527099
-4.715048	pr@s	0.1527099
-4.715048	pr@t	0.1527099
-4.715048	pr@ts	0.1527099
-3.304229	prE	-0.1643527
-4.715048	prE@	-0.00340403
-4.715048	prE@R	0.1527099
-4.715048	prEg	-0.008004053
-4.715048	prEl	-0.008103514
-4.715048	prEn	-0.007979184
-4.715048	prEp	0.1527099
-3.873651	prEs	0.1078528
-4.416173	prEst	0.1448249
-3.06606	prI	-0.07912001
-4.715048	prINk	0.1527099
-4.715048	prIg	0.1527099
-4.240803	prIk	0.1490713
-4.240803	prIm	-0.0128493
-4.715048	prImp	0.1527099
-4.240803	prIn	-0.02033332
-4.240803	prIns	0.1491878
-3.940495	prInt	0.114643
-4.715048	prIs	0.1527099
-4.715048	prIt	0.1527099
-3.376749	prQ	-0.1354318
-4.715048	prQd	0.1527099
-4.715048	prQf	0.1527099
-4.416173	prQk	-0.01178872
-4.715048	prQmp	-0.006484439
-4.416173	prQmpt	0.1568157
-4.715048	prQn	-0.00760598
-4.416173	prQp	0.1448249
-4.715048	prU	-0.00803721
-3.357453	pri	-0.1432561
-4.715048	priJ	0.1527099
-4.416173	prim	0.1568157
-4.715048	prin	0.1527099
-4.416173	pris	0.144936
-4.240803	prist	0.1491755
-4.715048	priv	0.1527099
-3.873651	pru	-0.05180468
-4.715048	prud	0.1527099
-3.815737	pruf	0.1002588
-4.715048	prun	0.1527099
-4.019532	pruv	0.1219941
-4.715048	pr{	-0.007481507
-4.715048	pr{Nk	0.1527099
-4.240803	pr{k	-0.02353013
-4.715048	pr{m	0.1527099
-4.416173	pr{t	0.144948
-4.715048	ps	0.1527099
-4.715048	psju	-0.007697237
-4.240803	pu	0.1380089
-4.416173	pul	0.1450801
-4.416173	pun	0.1448249
-4.715048	pup	0.1527099
-4.715048	pupt	0.1527099
-4.715048	pus	0.1527099
-4.715048	puv	0.1527099
-4.715048	pwE	-0.007995764
-2.755534	p{	-0.3870254
-4.416173	p{J	0.1452964
-4.416173	p{N	-0.01544751
-4.416173	p{T	0.1448249
-4.416173	p{d	0.144936
-4.116225	p{k	0.1301115
-4.715048	p{ks	0.1527099
-4.240803	p{kt	0.1370805
-4.019532	p{l	0.1259722
-4.416173	p{m	-0.01540602
-3.440387	p{n	0.04218963
-4.715048	p{nt	0.1527099
-4.715048	p{nts	0.1527099
-4.715048	p{p	0.1527099
-4.240803	p{s	-0.02019961
-4.416173	p{t	0.1448249
-4.715048	p{z	0.1527099
-3.639826	r#	0.07947978
-3.287845	r#I	0.007511541
-4.715048	r#ID	0.1527099
-4.116225	r#Id	0.1294718
-4.116225	r#Il	0.1294718
-4.715048	r#Im	0.1527099
-4.715048	r#Imd	0.1527099
-4.416173	r#In	0.1450441
-4.715048	r#Ip	-0.005460062
-3.396943	r#It	0.03481498
-4.715048	r#Its	0.1527099
-4.416173	r#Iv	0.1448249
-3.605092	r#Iz	0.06639967
-4.715048	r#J	0.1527099
-4.240803	r#U	-0.01971721
-4.715048	r#Un	-0.007415107
-3.940495	r#Und	0.1309994
-4.715048	r#Undz	0.1527099
-4.715048	r#Ut	0.1527099
-4.416173	r#Uz	0.1448249
-4.416173	r#Z	0.1448249
-4.715048	r#_	0.1527099
-4.715048	r#d	0.1527099
-4.715048	r#dz	0.1527099
-4.416173	r#f	0.1471027
-4.715048	r#ft	0.1527099
-4.116225	r#l	0.1294718
-4.416173	r#m	0.1448249
-4.416173	r#n	-0.01557199
-4.416173	r#s	-0.01421747
-4.715048	r#z	-0.007348697
-3.639826	r$	0.09976426
-4.240803	r$R	0.1370805
-4.715048	r$l	0.1527099
-4.715048	r$lz	0.1527099
-4.715048	r$n	-0.007805062
-4.715048	r$st	0.1527099
-4.416173	r$t	0.1448249
-2.850079	r1	-0.1905062
-4.715048	r1T	0.1527099
-4.240803	r1_	0.1370805
-4.019532	r1d	0.1339849
-4.416173	r1k	0.1448249
-4.116225	r1l	0.1300394
-3.605092	r1n	0.06917348
-4.019532	r1n_	0.1219941
-4.715048	r1nz	0.1527099
-4.715048	r1p	0.1527099
-3.940495	r1s	0.1148083
-3.396943	r1t	0.01712109
-4.715048	r1z	0.1527099
-2.805502	r5	-0.2008325
-4.416173	r5J	0.1448249
-4.715048	r5T	0.1527099
-4.116225	r5b	0.1294718
-3.764644	r5d	0.09572045
-4.715048	r5dz	0.1527099
-4.715048	r5g	0.1527099
-4.116225	r5l	0.1294718
-4.715048	r5m	0.1527099
-4.416173	r5n	0.1448249
-4.116225	r5p	0.1294869
-4.715048	r5ps	0.1527099
-4.240803	r5s	0.1529447
-4.715048	r5st	0.1527099
-3.940495	r5z	0.1169398
-2.517945	r@	-0.3699335
-3.162946	r@R	-0.0624676
-4.416173	r@b	0.1568157
-4.715048	r@f	0.1527099
-4.240803	r@k	0.1393583
-3.0858	r@l	-0.08980231
-4.715048	r@ld	0.1527099
-3.940495	r@m	0.114643
-3.677582	r@n	0.09304997
-4.416173	r@nd	0.1448249
-3.677582	r@ns	0.07964542
-3.605092	r@nt	0.07839047
-4.416173	r@p	0.1448249
-3.162946	r@s	-0.05047679
-3.463856	r@t	0.03495176
-4.715048	r@z	0.1527099
-2.755534	rE	-0.3908482
-4.416173	rE@	-0.006432766
-4.715048	rE@R	0.1527099
-4.715048	rEJ	0.1527099
-3.764644	rEd	0.09792031
-4.715048	rEf	0.1527099
-4.715048	rEft	0.1527099
-4.715048	rEg	-0.008004053
-3.718935	rEk	-0.06751855
-3.815737	rEkt	0.1122946
-4.715048	rEl	0.1527099
-4.715048	rEm	-0.008004053
-3.815737	rEn	-0.05358192
-4.715048	rEnJ	0.1527099
-4.715048	rEnd	0.1527099
-4.715048	rEnt	0.1527099
-4.416173	rEp	0.14484
-4.416173	rEs	0.1457653
-4.019532	rEst	0.1244202
-3.718935	rEt	0.08725506
-4.715048	rEv	0.1527099
-1.967313	rI	-0.7999396
-3.542989	rI@	0.06886206
-3.873651	rI@R	0.1074142
-4.715048	rI@d	0.1527099
-3.639826	rI@l	0.08062094
-4.416173	rI@m	0.1448249
-4.240803	rI@n	0.1370805
-4.715048	rI@ns	0.1527099
-4.416173	rI@nt	0.1448249
-3.815737	rI@s	0.1003038
-4.240803	rI@t	0.1370805
-4.715048	rI@z	0.1527099
-4.715048	rID	-0.006126597
-4.116225	rIJ	0.145336
-2.91996	rIN	-0.1622609
-4.416173	rINz	0.1448249
-3.605092	rIS	0.07839047
-3.287845	rI_	-0.01592505
-4.715048	rIb	0.1527099
-3.463856	rId	0.04694258
-4.240803	rIf	0.1370116
-4.715048	rIft	0.1527099
-4.240803	rIg	0.1392497
-3.488665	rIk	0.04111288
-4.715048	rIks	0.1527099
-4.715048	rIl	-0.008053787
-4.416173	rIm	0.1458495
-3.815737	rIn	0.1003038
-4.416173	rIn_	0.144768
-4.715048	rInd	0.1527099
-4.416173	rIp	0.144792
-3.677582	rIs	0.08341753
-4.240803	rIsk	0.1370805
-3.572931	rIst	0.06031577
-3.815737	rIt	0.1003038
-4.715048	rIz	-0.006559298
-3.272056	rQ	-0.1538855
-4.116225	rQI	0.129667
-4.416173	rQId	0.1448249
-3.940495	rQN	0.1279913
-4.240803	rQT	0.138578
-4.416173	rQd	0.1448249
-4.116225	rQk	0.1294989
-4.416173	rQks	0.1448249
-4.416173	rQm	-0.01587887
-4.715048	rQmp	0.1527099
-3.940495	rQn	0.1208402
-4.416173	rQs	0.144792
-4.240803	rQt	0.1370805
-4.416173	rQv	0.1448249
-3.764644	rU	-0.05996706
-4.715048	rU@	-0.0077553
-4.715048	rUk	0.1527099
-3.272056	rUm	-0.02175315
-3.256822	rV	-0.1742065
-4.715048	rVN	0.1527099
-4.240803	rVS	0.1370805
-4.715048	rVb	-0.007954314
-4.019532	rVf	0.1261942
-4.416173	rVg	0.1468614
-4.416173	rVk	-0.01555539
-4.240803	rVm	0.1400865
-4.715048	rVmp	0.1527099
-3.940495	rVn	0.1222475
-4.715048	rVnt	0.1527099
-4.116225	rVp	-0.02745976
-4.240803	rVpt	0.1370805
-4.416173	rVs	-0.01478306
-4.715048	rVsk	0.1527099
-4.715048	rVt	0.1527099
-2.674007	ri	-0.2868545
-4.715048	riD	0.1527099
-4.715048	riJ	0.1527099
-4.715048	riT	0.1527099
-4.240803	rid	0.1378285
-4.715048	rik	0.1527099
-4.416173	ril	0.1448249
-4.240803	rim	0.1370805
-3.764644	rin	0.0933079
-4.715048	rit	0.1527099
-4.715048	riv	0.1527099
-4.240803	riz	0.1370805
-4.715048	rju	-0.007589385
-3.200724	ru	-0.01405968
-4.715048	ruT	-0.006725607
-4.715048	ruZ	0.1527099
-4.416173	rud	0.1485894
-4.240803	ruf	0.1390085
-4.416173	rul	0.1448249
-4.240803	rum	0.1380811
-4.416173	run	0.1448249
-4.715048	rust	0.1527099
-3.873651	rut	0.1093421
-4.715048	ruts	0.1527099
-4.715048	ruz	0.1527099
-3.011714	r{	-0.2599113
-4.715048	r{J	0.1527099
-3.940495	r{N	0.1205241
-4.416173	r{Nk	0.1448249
-4.715048	r{Nks	0.1527099
-4.240803	r{S	0.1490713
-4.715048	r{f	0.1527099
-4.240803	r{g	0.1372067
-4.416173	r{k	0.1448249
-4.416173	r{ks	0.1448249
-4.416173	r{kt	0.1448249
-4.715048	r{l	-0.007954314
-3.718935	r{m	0.08687153
-4.715048	r{mp	0.1527099
-3.815737	r{n	-0.0536325
-4.715048	r{nt	0.1527099
-4.116225	r{p	0.1320066
-4.715048	r{pt	0.0001880461
-4.416173	r{s	0.1448249
-4.240803	r{t	0.1370805
-4.715048	r{z	0.1527099
-3.639826	s#	-0.0779293
-3.15105	s#I	-0.04481851
-4.715048	s#ID	0.1527099
-3.175177	s#Id	-0.05662489
-4.715048	s#Idz	0.1527099
-3.940495	s#Il	0.114643
-3.873651	s#In	0.1074893
-4.715048	s#Is	0.1527099
-3.572931	s#It	0.0747631
-3.873651	s#Iz	0.1075253
-4.416173	s#R	0.1448249
-3.940495	s#U	0.1227442
-4.116225	s#UT	0.1295891
-4.715048	s#Un	-0.008095227
-4.116225	s#Und	0.145336
-4.715048	s#Ust	0.1527099
-4.416173	s#Z	0.1448249
-4.715048	s#_	0.1527099
-4.715048	s#b	0.1527099
-4.240803	s#m	0.1373268
-3.338977	s$	0.02633695
-4.019532	s$R	0.1219941
-4.715048	s$b	0.1527099
-4.240803	s$d	-0.02327292
-4.715048	s$dz	-0.007340395
-4.416173	s$l	-0.01225976
-4.019532	s$lt	0.1221412
-4.715048	s$lts	0.1527099
-4.715048	s$n	-0.006484439
-4.715048	s$p	-0.004608741
-4.416173	s$s	-0.01517355
-4.240803	s$t	0.1376602
-3.187762	s1	-0.02867286
-4.240803	s1_	0.1490767
-4.416173	s1d	0.1448249
-4.116225	s1f	0.1351012
-4.116225	s1k	0.1294718
-4.019532	s1l	0.1223005
-4.240803	s1lz	-0.02307369
-4.416173	s1m	0.1485894
-4.116225	s1n	0.1421227
-4.240803	s1nt	0.1491755
-4.240803	s1t	0.1370805
-4.715048	s1v	0.1527099
-3.056517	s3	-0.2455086
-4.416173	s3J	0.1450921
-4.715048	s3R	0.1527099
-4.416173	s3_	0.1448249
-4.416173	s3d	0.1568157
-4.416173	s3f	0.1450561
-4.116225	s3n	0.1294718
-4.715048	s3nd	0.1527099
-4.715048	s3p	-0.006725607
-4.715048	s3pt	0.1527099
-4.240803	s3t	0.1370805
-4.416173	s3v	0.1448249
-3.106479	s5	-0.06650189
-4.715048	s5d	0.1527099
-4.715048	s5k	0.1527099
-4.715048	s5kt	0.1527099
-3.605092	s5l	0.08157884
-4.715048	s5ld	0.1527099
-4.715048	s5m	0.1527099
-4.116225	s5p	0.1297573
-2.494034	s@	-0.394582
-3.214084	s@R	-0.04262882
-3.677582	s@b	-0.07847551
-4.715048	s@d	0.1527099
-3.815737	s@k	0.101371
-4.240803	s@l	0.1370805
-3.139471	s@m	-0.06006637
-4.240803	s@n	0.1374679
-4.019532	s@ns	0.1219941
-4.715048	s@nst	0.1527099
-4.240803	s@nt	0.1490713
-3.873651	s@s	0.1074142
-4.715048	s@t	0.1527099
-4.416173	s@z	0.1448249
-2.805502	sE	-0.3566733
-4.715048	sE@R	0.1527099
-4.715048	sEN	0.1527099
-4.715048	sE_	0.1527099
-4.715048	sEd	0.1527099
-4.416173	sEg	-0.01554709
-3.572931	sEk	0.07090497
-4.416173	sEks	0.1467528
-4.416173	sEkst	0.1448249
-3.940495	sEkt	0.114643
-3.815737	sEl	0.100442
-3.873651	sElf	0.1073572
-4.240803	sElvz	0.1370805
-3.940495	sEm	-0.04397615
-3.256822	sEn	-0.172232
-4.116225	sEnd	0.1294718
-4.416173	sEns	0.1467528
-3.873651	sEnt	0.1093421
-3.605092	sEp	-0.08746593
-4.416173	sEps	0.1448249
-4.116225	sEpt	0.1294718
-3.677582	sEs	0.08097757
-4.715048	sEst	0.1527099
-3.542989	sEt	0.05489889
-4.715048	sF	0.1527099
-3.214084	sH	-0.02304076
-3.605092	sHs	0.06639967
-3.488665	sHt	0.05305261
-2.215565	sI	-0.5635519
-3.718935	sI@	0.1001355
-4.019532	sI@R	0.1219941
-4.416173	sI@m	0.1448249
-4.715048	sI@n	0.1527099
-4.416173	sI@ns	0.1448249
-4.715048	sI@nt	0.1527099
-3.200724	sIN	-0.03271885
-4.715048	sINk	0.1527099
-4.715048	sINkt	0.1527099
-4.715048	sINz	0.1527099
-4.116225	sI_	0.1300394
-4.416173	sIb	0.1455969
-3.542989	sId	0.06941017
-4.715048	sIf	-0.006484439
-4.715048	sIft	0.1527099
-3.873651	sIg	-0.04923054
-3.542989	sIk	0.06954093
-3.940495	sIks	0.1201427
-4.715048	sIksT	0.1527099
-3.873651	sIl	0.1130477
-4.416173	sIlk	0.144864
-4.715048	sIlt	0.1527099
-3.815737	sIm	0.1068839
-3.418122	sIn	0.03852941
-4.715048	sInT	0.1527099
-4.715048	sIp	0.1527099
-3.396943	sIs	0.01764064
-3.815737	sIst	0.1003038
-3.463856	sIt	0.04694258
-3.020312	sIv	-0.1096683
-3.542989	sIz	0.05469091
-3.117201	sP	-0.07605737
-4.416173	sPd	0.1448249
-3.139471	sQ	-0.2121887
-4.416173	sQI	-0.01124435
-4.715048	sQIl	0.1527099
-3.940495	sQN	0.1155898
-4.715048	sQb	0.1527099
-4.240803	sQf	-0.01950531
-4.019532	sQft	-0.02766402
-4.715048	sQk	0.1527099
-3.873651	sQl	0.1113272
-4.116225	sQm	-0.03043324
-4.240803	sQn	0.1370476
-4.715048	sQp	0.1527099
-3.940495	sU	-0.04050596
-4.715048	sU@	-0.007887986
-4.715048	sU@R	0.1527099
-4.715048	sUt	0.1527099
-3.038038	sV	-0.2577662
-4.416173	sVJ	0.144936
-4.416173	sVN	0.1460541
-3.639826	sVb	0.0805641
-4.416173	sVdz	0.1448249
-4.715048	sVf	0.1527099
-4.240803	sVk	0.1428639
-3.815737	sVl	-0.05695192
-4.715048	sVlk	0.1527099
-4.715048	sVlt	0.1527099
-3.815737	sVm	0.1011914
-4.416173	sVmp	0.1498262
-3.357453	sVn	0.01118612
-4.240803	sVp	0.149015
-4.715048	sVt	0.0001880461
-4.715048	sfE	-0.00340403
-4.715048	sfI@	-0.008095227
-4.715048	sfI@R	0.1527099
-4.715048	sfINk	-0.006484439
-4.715048	sf{g	-0.008045498
-2.838499	si	-0.1910903
-4.715048	siD	0.1527099
-4.416173	si_	0.1448249
-3.514978	sid	0.05011513
-4.416173	sidz	0.1458615
-4.715048	sik	0.1527099
-4.116225	sil	0.1295589
-4.715048	sim	-0.006725607
-4.019532	sin	0.1339849
-4.715048	sip	0.1527099
-4.019532	sis	0.123922
-4.715048	sist	0.1527099
-3.873651	sit	0.1084147
-4.715048	sits	0.1527099
-4.240803	siv	0.1370805
-4.240803	siz	0.1370805
-4.715048	sj@R	0.1527099
-4.240803	sjU	-0.02274975
-4.715048	sjU@l	0.1527099
-4.715048	sjU@ns	0.1527099
-4.715048	sjU@s	0.1527099
-4.715048	sju	-0.007249062
-4.715048	sjul	0.1527099
-4.416173	sjum	0.1448249
-4.416173	sjut	0.1448249
-4.240803	sk#	-0.02241107
-4.116225	sk#I	-0.03093776
-4.715048	sk#Iv	0.1527099
-4.240803	sk#U	0.1451817
-4.715048	sk#Ut	0.1527099
-4.715048	sk#f	0.1527099
-4.715048	sk#p	0.1527099
-4.019532	sk$	-0.03737459
-4.416173	sk$R	0.1448249
-4.715048	sk$l	-0.007697237
-4.715048	sk$ld	0.1527099
-4.416173	sk$n	0.1458254
-4.715048	sk$t	0.1527099
-3.815737	sk1	0.1012845
-4.715048	sk1Dd	0.1527099
-4.715048	sk1l	0.1527099
-4.715048	sk1n	0.1527099
-4.715048	sk1p	0.1527099
-4.116225	sk1t	0.129703
-4.240803	sk3	-0.01939647
-4.715048	sk3f	0.1527099
-4.715048	sk3l	0.1527099
-4.416173	sk3t	0.1448249
-4.715048	sk3ts	0.1527099
-4.416173	sk5	0.14484
-4.715048	sk5l	-0.007697237
-4.715048	sk5ld	0.1527099
-4.416173	sk5p	0.1448249
-4.019532	sk@	-0.03808133
-4.240803	sk@R	0.1370805
-4.416173	sk@s	0.1448249
-4.416173	sk@t	0.1448249
-4.240803	skE	-0.0230508
-4.416173	skE@	-0.01126111
-4.715048	skE@R	0.1527099
-4.715048	skE@d	0.1527099
-4.715048	skE@s	0.1527099
-4.715048	skE@t	-0.007771888
-4.416173	skEJ	0.1450561
-4.416173	skEp	0.1501664
-3.677582	skI	0.08500758
-4.715048	skId	0.1527099
-4.715048	skIf	0.1527099
-4.240803	skIl	0.138578
-4.416173	skIld	0.1448249
-4.416173	skIm	-0.01470206
-4.715048	skImp	0.1527099
-3.572931	skIn	0.06185321
-4.715048	skInt	0.1527099
-4.715048	skIp	0.1527099
-4.116225	skIt	0.1294718
-4.416173	skQ	-0.01465004
-4.416173	skQJ	0.1448249
-4.715048	skQf	0.1527099
-4.715048	skQn	0.1527099
-4.416173	skQns	0.1448249
-3.764644	skV	-0.05861036
-4.715048	skVNk	0.1527099
-4.715048	skVd	0.1527099
-4.715048	skVf	0.1527099
-4.116225	skVl	0.129646
-4.715048	skVlk	0.1527099
-4.715048	skVlp	-0.007647463
-4.715048	skVlpt	0.1527099
-4.715048	skVm	0.1527099
-4.715048	skVs	0.1527099
