
\data\
ngram 1=43
ngram 2=794
ngram 3=4358

\1-grams:
-1.563338	#	-1.91777
-2.07524	$	-1.422656
-2.004449	1	-1.390694
-2.261241	3	-1.422645
-1.813241	5	-1.576201
-0.7848689	</s>
-99	<s>	-3.004771
-1.248821	@	-2.292392
-3.015331	D	-0.6468022
-1.671046	E	-1.993003
-2.601689	H	-1.035461
-1.162857	I	-2.354244
-2.280702	J	-1.330698
-2.224755	N	-1.331031
-1.858983	P	-1.746399
-1.745539	Q	-1.888198
-1.882205	R	-1.752159
-2.296924	S	-1.309903
-2.504946	T	-1.117815
-2.147972	U	-1.209501
-1.848557	V	-1.830707
-3.610956	Z	-0.2589919
-2.1752	_	-1.433972
-1.657566	b	-1.87535
-1.577296	d	-2.007593
-1.80651	f	-1.770649
-1.818702	g	-1.731383
-2.257451	h	-1.484197
-1.958502	i	-1.599695
-2.187871	j	-1.526882
-1.314592	k	-2.094221
-1.360871	l	-1.967831
-1.500235	m	-1.745557
-1.321534	n	-2.240275
-1.496293	p	-1.839358
-1.384483	r	-2.331672
-1.239309	s	-2.214628
-1.248452	t	-2.25474
-1.985886	u	-1.434196
-1.985886	v	-1.618351
-2.055838	w	-1.661991
-2.130724	z	-1.469331
-1.533126	{	-2.162164

\2-grams:
-2.145522	# </s>
-0.3203971	# I	-1.039922
-2.716913	# J	0.1645857
-1.55148	# R	1.137442
-2.436087	# S	-0.1343803
-0.8133303	# U	-0.6669229
-2.716913	# Z	0.00931
-2.050736	# _	-0.2310907
-1.907048	# b	-0.2766331
-1.675521	# d	-0.2543329
-1.753985	# f	-0.4494091
-1.712983	# g	-0.4137033
-2.266944	# h	-0.1234789
-1.907048	# k	-0.2518043
-1.55148	# l	-0.4813187
-1.55148	# m	-0.2415795
-1.251801	# n	-0.3007823
-2.050736	# p	-0.2108628
-2.050736	# r	-0.1188804
-1.3096	# s	-0.317392
-1.45511	# t	-0.1886907
-2.266944	# v	-0.03568029
-2.716913	# w	-0.09832005
-2.436087	# z	-0.13414
-1.344853	$ </s>
-2.211945	$ J	0.1645857
-0.9290556	$ R	1.041393
-1.931119	$ T	0.01630597
-1.640554	$ b	-0.1683303
-0.950142	$ d	-0.3214818
-1.640554	$ f	-0.1799003
-1.468008	$ g	-0.2922397
-1.761976	$ k	-0.09556535
-0.8203687	$ l	-0.7272676
-1.294297	$ m	-0.2805976
-0.871321	$ n	-0.3443563
-1.545768	$ p	-0.3229901
-1.074361	$ r	-0.3956735
-1.344853	$ s	-0.3389965
-1.020342	$ t	-0.1329567
-2.211945	$ z	0.104318
-2.28124	1 $	-0.05966449
-0.8440662	1 </s>
-2.000413	1 @	-0.1062555
-2.28124	1 E	-0.005751953
-2.28124	1 I	-0.07051774
-2.28124	1 Q	-0.0684478
-2.28124	1 S	-0.06543091
-2.28124	1 T	-0.0898359
-1.831271	1 _	0.003043413
-1.205361	1 b	-0.5284481
-1.041599	1 d	-0.367067
-2.28124	1 f	-0.04680775
-1.414148	1 g	-0.3322592
-1.414148	1 k	-0.3516718
-1.173414	1 l	-0.4265979
-1.709849	1 m	-0.2109038
-0.8587397	1 n	-0.5655587
-1.239847	1 p	-0.217493
-1.27731	1 s	-0.3532508
-0.922959	1 t	-0.3875294
-1.363591	1 v	-0.1902887
-1.239847	1 z	-0.1639175
-2.031225	3 D	-0.06379639
-1.581256	3 J	-0.1556686
-1.113576	3 R	1.322219
-1.365047	3 _	0.005793005
-1.287288	3 b	-0.2903988
-1.164132	3 d	-0.3531492
-1.750398	3 f	-0.1200299
-1.459834	3 g	-0.1414045
-1.113576	3 k	-0.2767457
-1.287288	3 l	-0.2687409
-0.8936405	3 m	-0.4037682
-1.164132	3 n	-0.1693918
-1.221359	3 p	-0.3232825
-1.365047	3 s	-0.2712278
-0.7915841	3 t	-0.4247701
-1.287288	3 v	-0.1445095
-2.031225	3 z	-0.05354001
-2.46942	5 #	-0.09084646
-0.4032639	5 </s>
-2.46942	5 @	-0.07579485
-2.46942	5 I	-0.07859877
-2.46942	5 J	0.1645857
-2.46942	5 S	-0.09071223
-2.188594	5 T	-0.003202647
-1.602328	5 b	-0.2693766
-1.551772	5 d	-0.17619
-2.019451	5 f	-0.155178
-1.551772	5 g	-0.1698218
-1.22978	5 k	-0.508131
-0.929888	5 l	-0.7052296
-1.331836	5 m	-0.367808
-1.22978	5 n	-0.462622
-1.551772	5 p	-0.2681349
-1.303987	5 s	-0.4603858
-1.077844	5 t	-0.4027773
-1.551772	5 v	-0.1580356
-1.898029	5 z	-0.02103239
-2.152161	<s> #	-0.1338998
-2.152161	<s> $	-0.4131971
-2.488856	<s> 1	-0.4502754
-3.211959	<s> 3	-0.147098
-2.451393	<s> 5	-0.5220996
-1.777542	<s> @	-0.9163224
-2.921395	<s> D	-0.237787
-2.209896	<s> E	-0.1677726
-1.793027	<s> I	-0.7818817
-1.931034	<s> J	-0.8951531
-2.253145	<s> Q	-0.2748621
-1.861158	<s> S	-0.9014962
-2.101209	<s> T	-0.6715728
-2.529857	<s> V	-0.2511845
-1.834341	<s> _	-0.7911314
-1.150184	<s> b	-1.308523
-1.340776	<s> d	-1.531812
-1.283514	<s> f	-1.275549
-1.381584	<s> g	-1.135612
-1.512576	<s> h	-0.1960291
-2.625694	<s> i	-0.3923567
-2.253145	<s> j	0.04481232
-0.9341863	<s> k	-1.750636
-1.504389	<s> l	-1.120489
-1.237294	<s> m	-1.4798
-1.785216	<s> n	-1.182715
-1.070136	<s> p	-1.439001
-1.525153	<s> r	0.108355
-0.7632529	<s> s	-1.848572
-1.217998	<s> t	-1.616718
-3.492786	<s> u	-0.065791
-1.68846	<s> v	-0.9363781
-1.707456	<s> w	0.1979767
-2.529857	<s> z	-0.4695129
-1.707456	<s> {	-0.09010518
-0.8205551	@ </s>
-2.579857	@ J	-0.1564104
-0.7150019	@ R	0.07880533
-2.749	@ S	0.0349776
-2.285889	@ T	-0.1202549
-2.219961	@ _	-0.3810295
-1.768023	@ b	-0.4622991
-1.501845	@ d	-0.3526757
-2.219961	@ f	-0.1985434
-2.162734	@ g	-0.3924048
-2.458435	@ h	-0.1032019
-1.468075	@ k	-0.5442221
-1.151618	@ l	-0.7069958
-1.213284	@ m	-0.4823164
-0.8085307	@ n	-0.9810942
-1.578459	@ p	-0.1635928
-1.111701	@ r	0.4345962
-1.075145	@ s	-0.9589927
-1.330067	@ t	-0.2941785
-2.162734	@ v	-0.4390561
-3.029826	@ w	-0.06416365
-1.988434	@ z	-0.1757419
-1.342423	D #	0.1792703
-0.6762452	D </s>
-0.424774	D @	-0.3912838
-1.061596	D E	-0.04265051
-1.061596	D H	0.7847987
-1.342423	D I	-0.1007615
-1.059295	E @	-0.6942409
-2.329252	E D	0.0252306
-2.16011	E J	0.07429802
-2.610079	E N	0.03107893
-2.038688	E S	-0.09960602
-1.866142	E T	-0.07726121
-1.866142	E _	-0.03901935
-1.800213	E b	-0.2200786
-1.444646	E d	-0.30476
-1.866142	E f	-0.3344849
-2.610079	E g	-0.09899439
-0.9516341	E k	-0.8455752
-0.8446139	E l	-0.8625672
-1.348276	E m	-0.4072343
-0.6967471	E n	-0.6884795
-1.606149	E p	-0.3366878
-1.28786	E r	-0.6233127
-0.9877709	E s	-0.5763108
-1.106165	E t	-0.4157538
-1.568686	E v	-0.5064887
-2.329252	E z	-0.1149768
-0.04989859	H </s>
-1.708344	H d	0.09579915
-1.708344	H t	0.1487583
-2.834693	I #	-0.1521848
-3.11552	I $	-0.04881335
-2.665551	I 1	-0.1706859
-1.950087	I 5	-0.2379071
-1.063141	I </s>
-1.088356	I @	-0.5307976
-2.248427	I D	-0.1004845
-2.371583	I E	-0.2083866
-2.371583	I J	-0.1188014
-1.512474	I N	0.06651568
-2.834693	I Q	-0.1150373
-2.305654	I S	-0.2518005
-2.544129	I T	-0.02546859
-2.834693	I Z	-0.06707834
-2.007693	I _	-0.1669192
-1.624158	I b	-0.5082982
-1.356883	I d	-0.6747025
-1.587538	I f	-0.682898
-1.611605	I g	-0.4359812
-3.11552	I h	-0.08801855
-3.11552	I i	-0.01218247
-1.143654	I k	-0.586251
-1.127123	I l	-0.7221982
-1.258736	I m	-0.6241791
-0.828329	I n	-0.7845596
-1.587538	I p	-0.6912674
-2.007693	I r	-0.1193433
-1.139462	I s	-0.7886312
-0.9444585	I t	-0.9442823
-1.553768	I v	-0.516177
-2.834693	I w	-0.1111504
-1.637084	I z	-0.2243671
-2.197871	I {	-0.3145354
-1.094805	J #	-0.186719
-1.731627	J 1	-0.0981479
-2.012454	J 3	-0.08020762
-1.731627	J 5	0.07250808
-0.3370087	J </s>
-1.145361	J @	-0.1728326
-1.268517	J E	-0.2033986
-0.8748695	J I	-0.4653883
-1.731627	J Q	-0.1011609
-1.731627	J V	-0.1326714
-1.731627	J i	-0.1364704
-2.012454	J u	-0.01789264
-1.202588	J {	-0.1737188
-0.8502095	N </s>
-1.785669	N @	-0.07142067
-0.5751336	N g	-0.6894261
-0.2811655	N k	-0.82764
-1.785669	N s	-0.07941252
-2.066495	N t	-0.06308088
-0.01068299	P </s>
-2.424288	P j	0.2914569
-2.424288	P n	-0.1023039
-2.424288	P t	-0.09274507
-0.9967965	Q I	-0.5856717
-1.964938	Q J	-0.03322476
-1.46045	Q N	0.5140342
-1.792392	Q S	-0.2094633
-2.08636	Q T	-0.05861908
-2.255502	Q _	-0.01088403
-1.320043	Q b	-0.5416848
-1.46045	Q d	-0.1261821
-1.494936	Q f	-0.4019208
-1.61868	Q g	-0.1858849
-1.071216	Q k	-0.6860682
-0.9967965	Q l	-0.7544253
-1.084961	Q m	-0.609924
-0.88664	Q n	-0.4849051
-1.344725	Q p	-0.5093193
-1.195704	Q r	-0.5329257
-1.113829	Q s	-0.3980748
-1.129015	Q t	-0.4748318
-1.964938	Q v	-0.1719601
-1.964938	Q z	-0.2503234
-0.006471526	R </s>
-1.99683	S #	-0.09084646
-1.716003	S $	-0.1595198
-1.546861	S 1	-0.1774296
-1.99683	S 3	-0.08020762
-1.99683	S 5	-0.09085488
-0.4572977	S </s>
-1.425439	S @	-0.2029042
-1.425439	S E	-0.1736398
-1.99683	S H	0.861187
-1.079181	S I	-0.349373
-1.99683	S P	1.511202
-1.99683	S U	-0.1000693
-1.330652	S V	-0.247392
-1.252893	S i	-0.2590539
-1.99683	S m	-0.05462537
-1.99683	S p	-0.09462061
-0.9209514	S r	-0.302508
-1.716003	S u	-0.09428099
-0.9928997	S {	-0.2972619
-1.798713	T #	-0.03074457
-1.798713	T $	-0.06499006
-1.798713	T 3	-0.04386067
-0.4764941	T </s>
-1.348744	T @	-0.08708782
-1.798713	T H	0.861187
-0.8357847	T I	-0.3733698
-1.517887	T P	1.434814
-1.517887	T Q	-0.1448361
-1.517887	T V	-0.09458134
-1.798713	T i	-0.07613331
-0.6332802	T r	-0.2652934
-1.798713	T w	-0.06416365
-1.798713	T {	-0.06856931
-1.397085	U </s>
-0.7038482	U @	-0.5669906
-2.141022	U E	-0.06780282
-1.569631	U I	-0.2032832
-1.474844	U J	-0.07873341
-2.141022	U T	0.0731857
-2.141022	U _	0.06550431
-1.569631	U b	-0.2006203
-1.474844	U d	-0.01726252
-2.141022	U g	-0.03570719
-1.397085	U k	-0.2798379
-0.9013813	U l	-0.5533788
-1.569631	U m	-0.08370973
-0.7185217	U n	-0.5052378
-2.141022	U p	-0.07772249
-1.691053	U r	-0.186825
-1.397085	U s	-0.1746463
-1.033195	U t	-0.4053093
-1.27393	U z	-0.1647332
-2.153742	V D	0.0252306
-2.153742	V J	0.0881974
-1.194928	V N	0.4896747
-1.567477	V S	-0.2095052
-1.624703	V _	-0.1888421
-1.269136	V b	-0.5532189
-1.51692	V d	-0.105545
-1.11235	V f	-0.541833
-1.393176	V g	-0.5020179
-1.218283	V k	-0.5023781
-0.9973951	V l	-0.749404
-0.7591239	V m	-0.7889088
-0.9184544	V n	-0.4603937
-2.153742	V p	-0.1729602
-1.624703	V r	-0.2226592
-1.042992	V s	-0.4962413
-1.47164	V t	-0.2125558
-1.567477	V v	-0.08419108
-1.624703	V z	-0.3801438
-0.6415685	Z 1	-0.1124888
-0.6415685	Z </s>
-0.9223952	Z @	-0.01022664
-1.247458	_ #	-0.02680084
-1.833724	_ $	-0.1168816
-1.833724	_ 3	-0.151138
-1.664581	_ 5	0.1018429
-0.4922421	_ </s>
-0.8982645	_ @	-0.3768996
-1.073158	_ E	-0.1466261
-0.8749096	_ I	-0.3627345
-1.448373	_ Q	-0.2081337
-1.370613	_ V	-0.2758266
-1.304685	_ i	-0.2719826
-1.448373	_ u	-0.2357311
-1.370613	_ {	-0.2269298
-1.320438	b #	-0.1302499
-1.813572	b $	-0.2527253
-1.8795	b 1	-0.3575656
-1.705788	b 3	-0.339579
-1.547559	b 5	-0.2199513
-1.107323	b </s>
-1.030353	b @	-0.3813263
-1.407151	b E	-0.01058924
-1.030353	b I	-0.5739343
-0.9479922	b P	0.5398526
-1.515611	b Q	-0.139727
-2.052046	b U	-0.1399001
-1.361634	b V	-0.1163299
-2.623437	b _	-0.04104824
-1.660509	b i	-0.458651
-1.813572	b j	0.2051195
-1.095456	b l	-0.786822
-2.623437	b n	-0.09747644
-0.8253519	b r	0.9429356
-2.342611	b s	-0.1442713
-1.660509	b u	-0.366117
-2.623437	b z	0.104318
-1.145002	b {	-0.176564
-1.380837	d #	-0.2831216
-1.59523	d $	-0.3879488
-1.661664	d 1	-0.1236715
-2.253088	d 3	-0.1425522
-1.565472	d 5	-0.1636193
-0.4346065	d </s>
-1.071429	d @	-0.5321063
-1.441253	d E	-0.1908594
-2.036879	d H	0.6134025
-0.972862	d I	-0.2772731
-1.130608	d P	0.5720673
-1.627178	d Q	-0.2737888
-2.42223	d U	-0.07979904
-1.537624	d V	-0.2262756
-2.036879	d i	-0.1586651
-1.893191	d j	0.2051195
-2.42223	d l	-0.06956706
-2.703057	d m	-0.04272818
-2.253088	d n	-0.2240382
-1.100011	d r	0.7301862
-2.42223	d u	-0.1439574
-2.42223	d w	-0.1027173
-2.703057	d z	0.104318
-1.740128	d {	-0.3417022
-1.284464	f #	-0.2391787
-1.513138	f $	-0.3365248
-1.904676	f 1	-0.2012405
-1.904676	f 3	-0.2289608
-1.904676	f 5	-0.1902002
-0.8537589	f </s>
-1.284464	f @	-0.2068663
-1.259781	f E	-0.3164035
-2.026098	f H	0.7198578
-0.9143155	f I	-0.5484258
-1.368241	f P	0.9671343
-1.400189	f Q	-0.3861607
-2.476067	f T	-0.08331484
-2.476067	f U	-0.04498289
-1.666201	f V	-0.2498264
-1.558418	f i	-0.2557276
-1.558418	f j	0.1384587
-0.8632833	f l	-0.8605355
-1.010955	f r	0.004847527
-1.173068	f t	-0.4072128
-1.558418	f {	-0.2528347
-1.298595	g #	0.03279275
-2.01406	g $	-0.1397105
-2.183202	g 3	-0.1430201
-1.247743	g 5	-0.3789544
-1.056715	g </s>
-0.8417204	g @	-0.3596796
-1.892637	g E	-0.1721996
-1.422636	g I	-0.3423897
-0.9601142	g P	0.6963029
-1.54638	g Q	-0.2801335
-2.183202	g U	-0.083464
-1.460098	g V	-0.3738535
-2.01406	g j	0.1501277
-1.123404	g l	-0.5112908
-1.797851	g m	-0.2905127
-1.720091	g n	-0.3515465
-0.6786988	g r	0.1753197
-2.01406	g u	-0.1624052
-1.892637	g w	-0.09635286
-2.464029	g z	-0.1001892
-1.272425	g {	-0.314639
-0.6123832	h #	-0.2857106
-1.368706	h $	-0.2589495
-2.034883	h 1	-0.08399884
-1.368706	h 3	-0.127108
-1.754057	h 5	-0.1108824
-1.754057	h @	-0.1446583
-1.117235	h E	-0.2922865
-1.225018	h I	-0.2991295
-1.030953	h Q	-0.3512007
-2.034883	h U	-0.09428247
-0.8972993	h V	-0.3549385
-1.754057	h i	-0.1862151
-1.463492	h j	0.09364638
-2.034883	h u	-0.08065101
-0.7519938	h {	0.009290934
-2.045509	i 5	-0.09281842
-1.023336	i </s>
-1.876367	i @	-0.09627555
-2.326336	i D	-0.06379639
-1.754945	i J	-0.03322476
-2.326336	i Q	-0.0684478
-1.660158	i S	-0.1224827
-2.326336	i T	-0.0898359
-2.326336	i _	-0.04104824
-1.582399	i b	-0.3142679
-1.218509	i d	-0.1194877
-2.326336	i f	-0.03769952
-1.754945	i g	-0.05260381
-2.326336	i h	-0.08422887
-2.326336	i j	-0.06372579
-1.064533	i k	-0.5380287
-1.188752	i l	-0.4533252
-1.188752	i m	-0.4972148
-0.72329	i n	-0.6885861
-1.459244	i p	-0.3663356
-1.218509	i s	-0.4157875
-1.064533	i t	-0.3864282
-1.660158	i v	-0.1521275
-2.326336	i w	-0.07419978
-1.064533	i z	-0.3811228
-2.102247	j #	-0.09395356
-2.102247	j $	-0.05155165
-2.102247	j 3	-0.06842675
-1.652278	j 5	-0.2131855
-1.060854	j @	-0.1636019
-1.652278	j E	-0.1466261
-2.102247	j I	-0.06625541
-0.7439655	j U	-0.6932768
-2.102247	j V	-0.07611874
-2.102247	j i	-0.0741466
-0.2240382	j u	-0.1012709
-1.652278	j {	-0.1518081
-1.448188	k #	-0.1609488
-1.681413	k $	-0.1023052
-1.748017	k 1	-0.4672134
-1.960372	k 3	-0.234803
-1.527129	k 5	-0.4094146
-0.762409	k </s>
-0.922551	k @	-0.1110994
-1.856476	k E	-0.3398429
-1.391853	k I	-0.6681207
-1.485867	k P	0.6566628
-1.226821	k Q	-0.3511178
-2.683476	k S	-0.1564304
-2.683476	k U	-0.1618434
-1.572726	k V	-0.4755701
-2.683476	k d	-0.166868
-2.046654	k i	-0.3685618
-1.888424	k j	0.01880902
-1.297274	k l	-0.8161378
-2.683476	k m	-0.07349303
-2.392911	k n	-0.2747698
-1.055817	k r	0.8380307
-1.192114	k s	-0.9215009
-1.391853	k t	-0.6178674
-1.960372	k u	-0.181097
-2.964303	k v	-0.08065101
-1.226821	k w	0.104874
-1.159977	k {	-0.2495203
-1.152756	l #	-0.4348394
-1.955292	l $	-0.2489829
-1.542973	l 1	-0.1082759
-2.174284	l 3	-0.2471787
-1.414307	l 5	-0.4999698
-0.7634375	l </s>
-0.9860241	l @	-0.5773101
-1.268532	l E	-0.5322054
-0.8554682	l I	-0.5738055
-2.252043	l J	-0.0321573
-1.402107	l Q	-0.5575102
-2.637394	l S	0.006745219
-2.637394	l T	-0.003202647
-2.637394	l U	-0.08390884
-1.414307	l V	-0.3760301
-2.34683	l _	-0.04790545
-2.468252	l b	-0.2053398
-1.577597	l d	-0.5754826
-2.000572	l f	-0.3325347
-2.468252	l g	-0.06582151
-1.510907	l i	-0.4173018
-1.955292	l j	0.3207145
-1.876828	l k	-0.4426377
-2.174284	l m	-0.1541232
-2.637394	l n	0.02312075
-1.876828	l p	-0.312036
-2.918221	l r	-0.03932261
-1.876828	l s	-0.3141381
-1.453109	l t	-0.4588732
-1.656418	l u	-0.2786773
-2.051129	l v	-0.1752301
-1.107744	l {	-0.5120634
-1.263482	m #	-0.1831944
-1.969731	m $	0.0232299
-1.738204	m 1	-0.1486858
-2.329628	m 3	-0.1844331
-1.587993	m 5	0.03448886
-0.7272174	m </s>
-0.885986	m @	-0.6200769
-1.342423	m E	-0.2578021
-0.9752712	m I	-0.6966667
-2.208205	m P	1.313392
-1.614163	m Q	-0.2056549
-2.779597	m S	-0.09478631
-2.779597	m U	-0.007520497
-1.288235	m V	-0.3473636
-1.207147	m b	-0.7006168
-2.49877	m d	-0.1404874
-2.208205	m f	-0.1039242
-1.816668	m i	-0.2799059
-1.816668	m j	0.1020492
-2.779597	m k	-0.08523524
-2.779597	m l	-0.07916342
-2.329628	m n	-0.1919975
-0.8910596	m p	-0.8575538
-2.779597	m r	-0.07991444
-2.779597	m s	-0.08962893
-2.779597	m t	-0.09799521
-2.329628	m u	-0.2474398
-2.208205	m z	-0.1510211
-1.121151	m {	-0.3724328
-1.63517	n #	-0.1151307
-2.291212	n $	-0.2439409
-2.090297	n 1	-0.2815093
-1.6745	n 5	-0.4120163
-0.4788231	n </s>
-1.249819	n @	-0.2548405
-1.819805	n E	-0.3845555
-1.100606	n I	-0.5359783
-1.65439	n J	-0.5377122
-1.994461	n P	1.074917
-1.881511	n Q	-0.217863
-2.507421	n S	-0.03354615
-2.090297	n T	0.04595783
-2.676563	n U	-0.1618434
-2.039741	n V	-0.3729662
-1.616765	n _	-0.5092931
-0.9609575	n d	-0.7191191
-2.090297	n f	-0.4003993
-2.95739	n h	-0.01861223
-2.291212	n i	-0.194677
-1.695586	n j	0.1607084
-2.507421	n k	-0.2228947
-2.95739	n l	-0.03797722
-1.227195	n s	-0.6390965
-0.9265324	n t	-0.7044116
-2.090297	n u	-0.2847348
-2.090297	n v	-0.3278352
-1.953459	n z	-0.197624
-1.881511	n {	-0.3244459
-1.243981	p #	-0.3255225
-1.865865	p $	-0.1951623
-1.64593	p 1	-0.2578495
-1.916421	p 3	-0.2486762
-1.742121	p 5	-0.1300658
-0.7638311	p </s>
-1.125069	p @	-0.3987643
-1.243981	p E	-0.3522973
-1.053319	p I	-0.5225726
-1.567228	p P	0.8808527
-1.243981	p Q	-0.4488807
-2.117336	p U	-0.2468323
-1.64593	p V	-0.2554091
-1.707635	p i	-0.390934
-1.779583	p j	0.2763985
-2.502687	p k	-0.1616236
-1.053319	p l	-0.9005405
-2.783514	p m	-0.0802591
-2.502687	p n	-0.1751867
-0.9212739	p r	-0.269426
-1.973648	p s	-0.22373
-1.916421	p t	-0.07527134
-1.820585	p u	-0.2652029
-1.116486	p {	-0.5079814
-0.9145087	r #	-0.6333037
-1.757134	r $	-0.071356
-1.281935	r 1	-0.4362792
-1.136082	r 5	-0.06593561
-0.8638616	r @	-0.6712856
-1.202914	r E	-0.2584286
-0.6805977	r I	-0.5351212
-1.211017	r Q	-0.3195534
-2.150782	r U	-0.2737626
-1.24503	r V	-0.6064377
-1.227691	r i	-0.2793065
-2.894719	r j	0.2914569
-1.378604	r u	-0.3883242
-1.01651	r {	-0.5040314
-1.587938	s #	-0.5005119
-2.22944	s $	-0.1789391
-2.172214	s 1	-0.1924017
-1.963427	s 3	-0.407718
-1.931479	s 5	-0.3021968
-0.6825849	s </s>
-1.511325	s @	-0.06309903
-1.587938	s E	-0.3601831
-2.121657	s H	0.4566164
-1.107109	s I	-0.6009243
-1.777503	s P	0.9057736
-1.931479	s Q	-0.394759
-3.039306	s U	-0.09135988
-2.076377	s V	-0.2533215
-3.039306	s b	-0.08587031
-2.589337	s f	-0.1723816
-1.847703	s i	-0.2745141
-2.467915	s j	0.1884327
-0.9101436	s k	-1.091591
-1.372278	s l	-0.9105092
-1.799665	s m	-0.5514995
-1.587938	s n	-0.9554698
-1.125974	s p	-0.3054914
-0.6860719	s t	-0.6089113
-2.295369	s u	-0.1706417
-1.631992	s w	0.2203816
-1.901722	s {	-0.3774824
-1.447305	t #	-0.002601743
-2.026264	t $	-0.2331398
-1.838591	t 1	-0.2279143
-1.864762	t 3	-0.2967511
-1.622881	t 5	-0.1800969
-0.3563364	t </s>
-1.054137	t @	-0.5336318
-1.417411	t E	-0.261255
-1.988802	t H	0.3676753
-1.184533	t I	-0.423901
-1.607695	t P	0.7060676
-1.922368	t Q	-0.1957393
-2.749368	t U	-0.08390884
-1.813909	t V	-0.2978382
-3.030195	t f	-0.08968645
-1.638618	t i	-0.3172094
-1.954316	t j	0.01880908
-3.030195	t k	-0.09144526
-2.749368	t m	-0.1191165
-3.030195	t n	-0.0673272
-0.9993376	t r	0.3261627
-2.067266	t s	-0.4551059
-2.067266	t u	-0.2829025
-1.864762	t w	0.0300861
-1.447305	t {	-0.270663
-2.299448	u #	-0.07819083
-2.299448	u $	-0.04881335
-0.7486638	u </s>
-1.849479	u @	-0.1464228
-2.299448	u D	-0.0004374832
-2.299448	u E	-0.06780282
-1.63327	u I	-0.2140265
-2.018621	u J	0.1392388
-2.299448	u T	0.0731857
-2.299448	u Z	0.00931
-1.63327	u _	-0.09787941
-1.432356	u b	-0.1588109
-1.134015	u d	-0.268472
-2.018621	u f	-0.1184761
-1.728057	u g	-0.1524795
-1.381799	u k	-0.2961204
-1.295518	u l	-0.3578109
-1.223569	u m	-0.3139949
-0.8480802	u n	-0.5834605
-1.107844	u p	-0.48692
-1.295518	u s	-0.187692
-1.083162	u t	-0.2507077
-1.555511	u v	-0.09387508
-1.381799	u z	-0.2096403
-1.295518	v #	-0.09468648
-2.018621	v $	-0.06732744
-1.728057	v 1	-0.2092292
-1.191621	v 3	-0.3839678
-1.849479	v 5	-0.1549556
-0.7269987	v </s>
-0.8769476	v @	-0.3667019
-1.134015	v E	-0.2298366
-1.489582	v H	0.5279723
-0.696402	v I	-0.5995138
-1.107844	v P	0.9008698
-1.728057	v Q	-0.2140393
-2.299448	v U	-0.007520497
-2.018621	v V	-0.1335599
-2.299448	v i	-0.01218247
-2.018621	v j	0.4619458
-2.299448	v l	-0.03797722
-1.849479	v r	-0.07120954
-1.223569	v {	-0.3280322
-0.8902888	w #	-0.508811
-1.06548	w $	-0.3742326
-1.421047	w 1	-0.2692724
-1.363821	w 3	-0.2025146
-1.659522	w 5	-0.1919665
-1.950087	w @	-0.081482
-1.014627	w E	-0.369611
-0.5812244	w I	-0.6849426
-0.7658008	w Q	-0.4433848
-1.950087	w U	-0.1185067
-1.18952	w i	-0.1314836
-1.950087	w u	-0.08248725
-1.421047	w {	-0.3590636
-1.707845	z #	0.05124724
-1.876987	z 1	-0.08780706
-1.586423	z 3	-0.146774
-1.876987	z 5	0.06280275
-0.420332	z </s>
-1.081935	z @	-0.3733169
-1.290721	z E	-0.178746
-1.116421	z H	0.5402213
-0.9662104	z I	-0.2793814
-1.116421	z P	1.017691
-1.876987	z Q	-0.09117665
-2.157814	z V	-0.02013063
-2.157814	z _	-0.08113459
-1.876987	z b	-0.1006896
-1.586423	z i	-0.1615768
-1.707845	z l	-0.1793064
-1.413877	z m	-0.3312662
-2.157814	z u	-0.08480498
-2.157814	z {	-0.06394993
-2.746917	{ D	0.1016189
-1.937051	{ J	0.01856422
-1.115289	{ N	0.398618
-1.639091	{ S	-0.4562103
-2.746917	{ Z	-0.04791667
-2.296948	{ _	-0.1675153
-1.530631	{ b	-0.5207218
-1.581484	{ d	-0.3579385
-1.639091	{ f	-0.434888
-1.388636	{ g	-0.3846511
-1.063215	{ k	-0.9373376
-1.031674	{ l	-0.7842661
-0.9303746	{ m	-0.9216778
-0.8055864	{ n	-0.6704714
-1.424698	{ p	-0.6880752
-1.164028	{ r	-0.8484113
-1.106165	{ s	-0.567095
-1.143871	{ t	-0.5199447
-1.530631	{ v	-0.5305572
-1.742987	{ z	-0.1107918

\3-grams:
-0.6746107	5 # l
-0.4049261	<s> # I
-1.12803	<s> # U
-1.408856	<s> # _
-1.12803	<s> # g
-1.408856	<s> # k
-1.12803	<s> # m
-1.408856	<s> # n
-1.408856	<s> # s
-0.9588874	<s> # t
-0.6746107	D # I
-0.750999	I # R
-0.750999	I # n
-0.3352441	J # I
-0.6292123	J # n
-0.6746107	S # l
-0.6746107	T # U
-0.3787897	_ # I
-0.7641405	_ # U
-1.044967	_ # m
-0.4139799	b # I
-1.376909	b # R
-0.8055174	b # U
-1.096082	b # b
-1.376909	b # g
-1.376909	b # l
-1.376909	b # n
-1.096082	b # s
-0.255592	d # I
-0.9432072	d # R
-1.11235	d # U
-1.393176	d # b
-1.393176	d # f
-1.393176	d # n
-0.2435505	f # I
-0.713552	f # U
-1.284943	f # s
-1.263959	g # </s>
-1.263959	g # I
-0.9831321	g # R
-0.8139897	g # U
-1.263959	g # b
-1.263959	g # d
-0.9831321	g # g
-0.9831321	g # l
-0.9831321	g # n
-1.263959	g # s
-1.479745	h # </s>
-0.4038668	h # I
-0.9083542	h # U
-1.479745	h # f
-1.479745	h # h
-1.198919	h # l
-1.479745	h # m
-1.479745	h # p
-1.479745	h # r
-1.479745	h # s
-1.198919	h # t
-1.479745	h # v
-0.6746107	j # d
-1.562833	k # </s>
-0.8188962	k # I
-0.6451846	k # U
-1.282007	k # b
-0.9914422	k # d
-1.562833	k # f
-1.562833	k # g
-1.562833	k # l
-1.562833	k # n
-1.282007	k # p
-1.282007	k # r
-1.112864	k # s
-1.112864	k # t
-0.3139564	l # I
-0.7884614	l # U
-1.511565	l # d
-1.792392	l # g
-1.792392	l # l
-1.342423	l # m
-1.048455	l # n
-1.126214	l # s
-1.792392	l # t
-1.792392	l # z
-0.4869547	m # I
-0.9914422	m # U
-1.282007	m # _
-1.562833	m # b
-1.562833	m # d
-1.562833	m # g
-1.282007	m # h
-1.562833	m # k
-1.112864	m # m
-1.562833	m # n
-1.562833	m # r
-1.562833	m # s
-1.112864	m # t
-1.562833	m # v
-1.562833	m # z
-0.3517835	n # I
-1.393176	n # R
-0.821785	n # U
-1.393176	n # l
-1.11235	n # n
-1.393176	n # r
-1.393176	n # s
-1.393176	n # t
-1.58392	p # </s>
-0.4463355	p # I
-1.58392	p # R
-1.58392	p # S
-0.9177423	p # U
-1.303093	p # d
-1.303093	p # k
-1.133951	p # l
-1.58392	p # m
-1.012529	p # s
-1.133951	p # t
-0.3131281	r # I
-0.6562056	r # U
-1.99683	r # _
-1.252893	r # f
-1.716003	r # g
-1.716003	r # l
-1.716003	r # m
-1.129738	r # n
-1.330652	r # s
-1.716003	r # t
-0.1468689	s # I
-1.224323	s # U
-1.50515	s # Z
-1.50515	s # _
-1.50515	s # m
-1.50515	s # v
-0.485665	t # I
-1.623249	t # J
-0.9570718	t # R
-1.623249	t # S
-0.8793122	t # U
-1.623249	t # d
-1.623249	t # f
-1.623249	t # g
-1.342423	t # k
-1.623249	t # l
-1.623249	t # m
-1.342423	t # n
-1.342423	t # p
-1.623249	t # s
-1.342423	t # t
-0.6746107	u # n
-0.2733586	v # I
-1.140451	v # U
-0.8596243	v # s
-0.1692157	w # I
-1.408856	w # k
-1.408856	w # m
-1.12803	w # n
-1.408856	w # w
-0.8159398	z # I
-0.5351132	z # R
-0.6746107	1 $ t
-1.408856	<s> $ T
-1.12803	<s> $ b
-0.5417641	<s> $ d
-0.8374652	<s> $ g
-1.408856	<s> $ l
-1.408856	<s> $ m
-1.408856	<s> $ n
-0.7426789	<s> $ r
-1.408856	<s> $ t
-0.6746107	I $ R
-0.4701724	S $ </s>
-0.6746107	T $ r
-0.4701724	_ $ n
-1.007825	b $ d
-0.5578563	b $ l
-1.007825	b $ r
-0.7269987	b $ s
-0.9378521	d $ </s>
-0.408813	d $ R
-1.218679	d $ d
-1.218679	d $ f
-0.9378521	d $ n
-1.218679	d $ r
-1.110896	f $ </s>
-1.110896	f $ f
-0.8300691	f $ l
-0.5395045	f $ m
-1.110896	f $ n
-1.110896	f $ s
-0.8159398	g $ g
-0.8159398	g $ n
-0.8159398	g $ r
-0.9223952	h $ </s>
-0.9223952	h $ m
-0.4724261	h $ n
-0.6746107	j $ d
-1.360008	k $ J
-1.079181	k $ R
-1.360008	k $ b
-1.079181	k $ d
-1.360008	k $ g
-1.360008	k $ k
-1.360008	k $ l
-0.7886167	k $ n
-0.7886167	k $ p
-1.360008	k $ r
-1.079181	k $ s
-1.360008	k $ t
-0.8300691	l $ R
-0.8300691	l $ d
-0.8300691	l $ n
-1.110896	l $ r
-0.8300691	l $ t
-1.110896	l $ z
-1.007825	m $ R
-1.007825	m $ d
-0.7269987	m $ l
-1.007825	m $ n
-1.007825	m $ r
-1.007825	m $ t
-0.6415685	n $ R
-0.9223952	n $ k
-0.9223952	n $ s
-0.9223952	n $ t
-1.079181	p $ R
-0.7983546	p $ l
-1.079181	p $ n
-1.079181	p $ p
-1.079181	p $ s
-0.6292123	p $ t
-1.241909	r $ </s>
-1.241909	r $ R
-0.9610819	r $ d
-0.4979714	r $ l
-1.241909	r $ m
-0.9610819	r $ n
-1.241909	r $ r
-1.241909	r $ t
-1.007825	s $ R
-0.5578563	s $ l
-1.007825	s $ n
-0.7269987	s $ r
-0.8596243	t $ R
-0.8596243	t $ l
-0.8596243	t $ m
-0.8596243	t $ n
-1.140451	t $ s
-0.8596243	t $ t
-0.6746107	u $ R
-0.750999	v $ l
-0.750999	v $ t
-1.263959	w $ </s>
-1.263959	w $ T
-1.263959	w $ b
-0.9831321	w $ d
-0.9831321	w $ f
-1.263959	w $ k
-0.6925675	w $ l
-1.263959	w $ n
-0.8139897	w $ t
-1.140451	<s> 1 $
-1.140451	<s> 1 f
-0.8596243	<s> 1 g
-1.140451	<s> 1 k
-0.8596243	<s> 1 l
-1.140451	<s> 1 n
-0.6904819	<s> 1 p
-0.8159398	I 1 t
-0.5351132	I 1 z
-0.750999	J 1 n
-0.750999	J 1 s
-0.3659708	S 1 </s>
-0.4701724	Z 1 </s>
-0.9672075	b 1 @
-0.9672075	b 1 T
-0.9672075	b 1 g
-0.9672075	b 1 l
-0.6863809	b 1 s
-0.8872957	d 1 </s>
-1.168122	d 1 I
-1.168122	d 1 b
-1.168122	d 1 d
-1.168122	d 1 g
-1.168122	d 1 k
-1.168122	d 1 n
-0.8872957	d 1 t
-1.168122	d 1 v
-1.168122	d 1 z
-0.8724211	f 1 b
-0.5915946	f 1 n
-0.8724211	f 1 v
-0.6746107	h 1 v
-0.7335691	k 1 </s>
-1.30496	k 1 E
-1.30496	k 1 Q
-1.024134	k 1 b
-1.024134	k 1 d
-0.8549913	k 1 l
-0.8549913	k 1 p
-1.024134	k 1 t
-0.8672231	l 1 </s>
-1.438614	l 1 S
-1.438614	l 1 b
-0.9886453	l 1 d
-1.438614	l 1 g
-1.438614	l 1 k
-1.438614	l 1 l
-0.9886453	l 1 m
-1.157788	l 1 n
-1.438614	l 1 s
-0.8672231	l 1 t
-1.157788	l 1 v
-1.157788	l 1 z
-1.168122	m 1 </s>
-1.168122	m 1 _
-1.168122	m 1 d
-1.168122	m 1 g
-0.7181533	m 1 n
-1.168122	m 1 p
-1.168122	m 1 s
-0.8872957	m 1 t
-1.168122	m 1 z
-0.7641405	n 1 b
-0.7641405	n 1 d
-1.044967	n 1 k
-1.044967	n 1 l
-1.044967	n 1 p
-1.044967	n 1 t
-1.241909	p 1 </s>
-1.241909	p 1 d
-1.241909	p 1 g
-1.241909	p 1 k
-0.6705174	p 1 n
-0.6705174	p 1 s
-0.9610819	p 1 t
-1.241909	p 1 z
-0.8407068	r 1 </s>
-1.650572	r 1 @
-1.650572	r 1 b
-0.9066353	r 1 d
-1.369746	r 1 k
-1.650572	r 1 m
-0.7329237	r 1 n
-1.369746	r 1 p
-1.650572	r 1 s
-0.8407068	r 1 t
-1.200603	r 1 v
-0.9843949	r 1 z
-1.044967	s 1 </s>
-0.7641405	s 1 b
-1.044967	s 1 d
-1.044967	s 1 g
-0.7641405	s 1 l
-1.044967	s 1 n
-1.284943	t 1 </s>
-1.284943	t 1 _
-0.8349742	t 1 b
-1.284943	t 1 d
-1.284943	t 1 l
-0.8349742	t 1 n
-1.004117	t 1 p
-0.713552	t 1 t
-1.284943	t 1 v
-0.4224522	v 1 </s>
-0.8724211	v 1 l
-1.007825	w 1 _
-1.007825	w 1 d
-1.007825	w 1 k
-1.007825	w 1 l
-0.7269987	w 1 n
-1.007825	w 1 s
-0.750999	z 1 </s>
-0.750999	z 1 l
-0.750999	<s> 3 J
-0.750999	<s> 3 n
-0.6746107	J 3 v
-0.6746107	S 3 b
-0.6746107	T 3 m
-0.750999	_ 3 k
-0.750999	_ 3 z
-1.079181	b 3 D
-0.7983546	b 3 b
-1.079181	b 3 d
-0.7983546	b 3 g
-1.079181	b 3 l
-1.079181	b 3 s
-1.079181	b 3 t
-0.8159398	d 3 b
-0.8159398	d 3 m
-0.8159398	d 3 n
-0.8724211	f 3 l
-0.8724211	f 3 n
-0.8724211	f 3 s
-0.8724211	f 3 v
-0.750999	g 3 d
-0.750999	g 3 g
-0.9223952	h 3 d
-0.9223952	h 3 m
-0.9223952	h 3 p
-0.9223952	h 3 s
-0.9223952	h 3 t
-0.6746107	j 3 R
-1.140451	k 3 R
-1.140451	k 3 _
-1.140451	k 3 d
-1.140451	k 3 f
-1.140451	k 3 l
-0.8596243	k 3 m
-1.140451	k 3 n
-0.6904819	k 3 t
-0.6863809	l 3 R
-0.9672075	l 3 _
-0.9672075	l 3 p
-0.6863809	l 3 t
-0.8159398	m 3 J
-0.8159398	m 3 d
-0.8159398	m 3 k
-1.044967	p 3 J
-1.044967	p 3 R
-1.044967	p 3 d
-1.044967	p 3 g
-1.044967	p 3 m
-1.044967	p 3 n
-1.044967	p 3 p
-1.044967	p 3 s
-1.194136	s 3 _
-1.194136	s 3 d
-1.194136	s 3 f
-0.6227446	s 3 k
-1.194136	s 3 p
-0.7441667	s 3 t
-0.9133092	s 3 v
-0.8139897	t 3 R
-1.263959	t 3 _
-0.9831321	t 3 b
-1.263959	t 3 k
-0.6925675	t 3 m
-0.8139897	t 3 n
-1.263959	t 3 p
-1.263959	t 3 t
-1.218679	v 3 R
-1.218679	v 3 _
-1.218679	v 3 d
-0.6472875	v 3 m
-1.218679	v 3 s
-0.4747415	v 3 t
-1.044967	w 3 k
-0.5949981	w 3 l
-1.044967	w 3 m
-1.044967	w 3 p
-1.044967	w 3 t
-1.044967	w 3 v
-0.8724211	z 3 k
-0.8724211	z 3 p
-0.8724211	z 3 t
-0.8724211	z 3 v
-1.168122	<s> 5 b
-1.168122	<s> 5 d
-1.168122	<s> 5 g
-1.168122	<s> 5 k
-0.8872957	<s> 5 m
-1.168122	<s> 5 n
-0.8872957	<s> 5 p
-0.7181533	<s> 5 v
-0.2600284	I 5 </s>
-1.263959	I 5 d
-1.263959	I 5 k
-1.263959	I 5 l
-0.9831321	I 5 t
-0.750999	J 5 </s>
-0.750999	J 5 k
-0.6746107	S 5 g
-0.8159398	_ 5 </s>
-0.8159398	_ 5 k
-0.8159398	_ 5 l
-0.6227446	b 5 </s>
-1.194136	b 5 @
-1.194136	b 5 g
-0.7441667	b 5 l
-0.7441667	b 5 n
-1.194136	b 5 s
-0.3242598	d 5 </s>
-1.241909	d 5 b
-1.241909	d 5 l
-1.241909	d 5 m
-1.241909	d 5 n
-0.9610819	d 5 t
-0.8724211	f 5 k
-0.8724211	f 5 l
-0.8724211	f 5 m
-0.8724211	f 5 n
-0.1971339	g 5 </s>
-1.30496	g 5 d
-1.30496	g 5 l
-1.024134	g 5 s
-0.750999	h 5 l
-0.750999	h 5 s
-0.750999	i 5 l
-0.750999	i 5 t
-0.8159398	j 5 d
-0.8159398	j 5 g
-0.8159398	j 5 k
-1.492633	k 5 #
-0.384807	k 5 </s>
-1.492633	k 5 b
-1.492633	k 5 d
-1.042664	k 5 k
-0.826456	k 5 l
-1.211807	k 5 m
-1.492633	k 5 p
-1.211807	k 5 s
-0.2488938	l 5 </s>
-1.551893	l 5 T
-1.551893	l 5 b
-1.551893	l 5 g
-0.9805022	l 5 k
-1.271067	l 5 n
-1.551893	l 5 p
-1.551893	l 5 s
-1.271067	l 5 t
-1.004117	m 5 </s>
-1.284943	m 5 d
-1.284943	m 5 g
-1.284943	m 5 k
-0.713552	m 5 l
-1.004117	m 5 n
-1.284943	m 5 p
-1.284943	m 5 s
-0.8349742	m 5 t
-1.284943	m 5 z
-0.3560776	n 5 </s>
-1.079181	n 5 d
-0.7886167	n 5 m
-1.360008	n 5 s
-1.079181	n 5 t
-1.360008	n 5 v
-0.7181533	p 5 </s>
-1.168122	p 5 I
-0.7181533	p 5 l
-1.168122	p 5 m
-1.168122	p 5 s
-1.168122	p 5 t
-0.8872957	p 5 z
-0.5696907	r 5 </s>
-1.785977	r 5 J
-1.785977	r 5 S
-1.785977	r 5 T
-1.785977	r 5 b
-1.50515	r 5 f
-1.336008	r 5 g
-1.50515	r 5 k
-0.9188843	r 5 l
-1.336008	r 5 m
-1.042039	r 5 n
-1.785977	r 5 p
-1.336008	r 5 s
-0.8683279	r 5 t
-1.336008	r 5 v
-1.785977	r 5 z
-0.6472875	s 5 </s>
-0.9378521	s 5 b
-1.218679	s 5 d
-1.218679	s 5 f
-0.5525012	s 5 l
-1.218679	s 5 v
-0.3905846	t 5 </s>
-1.466463	t 5 b
-1.185637	t 5 k
-1.466463	t 5 l
-1.185637	t 5 n
-1.016494	t 5 p
-1.185637	t 5 s
-1.016494	t 5 t
-1.466463	t 5 v
-0.8159398	v 5 k
-0.8159398	v 5 l
-0.8159398	v 5 s
-0.8724211	w 5 l
-0.8724211	w 5 n
-0.5915946	w 5 t
-0.750999	z 5 </s>
-0.750999	z 5 m
-0.4701724	1 @ n
-0.6746107	5 @ m
-1.745359	<s> @ J
-1.745359	<s> @ _
-1.079181	<s> @ b
-1.29539	<s> @ d
-1.745359	<s> @ f
-1.079181	<s> @ k
-0.9354931	<s> @ l
-1.001422	<s> @ m
-1.29539	<s> @ n
-0.8782664	<s> @ p
-1.173968	<s> @ r
-0.82771	<s> @ s
-1.745359	<s> @ t
-1.464532	<s> @ v
-1.745359	<s> @ z
-0.2120889	D @ R
-1.079181	D @ m
-0.2025145	E @ R
-1.594091	E @ d
-1.313264	E @ n
-0.8501539	E @ r
-1.594091	E @ s
-1.313264	E @ t
-1.079181	I @ </s>
-0.4104817	I @ R
-2.04211	I @ S
-2.04211	I @ b
-1.375932	I @ d
-1.232244	I @ l
-1.375932	I @ m
-1.124461	I @ n
-2.04211	I @ p
-0.9045257	I @ r
-1.175018	I @ s
-1.175018	I @ t
-0.5949981	J @ R
-1.044967	J @ d
-1.044967	J @ l
-1.044967	J @ n
-1.044967	J @ p
-1.044967	J @ s
-0.750999	N @ R
-0.750999	N @ t
-0.8724211	S @ </s>
-0.4224522	S @ l
-0.8159398	T @ </s>
-0.8159398	T @ d
-0.8159398	T @ n
-0.3550492	U @ R
-1.211807	U @ d
-0.826456	U @ l
-1.211807	U @ n
-0.826456	U @ r
-1.492633	U @ s
-0.6746107	Z @ R
-1.30496	_ @ </s>
-1.30496	_ @ R
-0.2635676	_ @ n
-1.024134	_ @ p
-1.024134	_ @ r
-1.061158	b @ </s>
-0.8226836	b @ R
-1.632549	b @ b
-1.632549	b @ d
-1.061158	b @ l
-0.765457	b @ n
-1.18258	b @ r
-0.9663718	b @ s
-0.8226836	b @ t
-1.18258	b @ z
-0.663947	d @ </s>
-0.4515914	d @ R
-1.667877	d @ d
-1.387051	d @ k
-1.217908	d @ l
-1.0017	d @ m
-1.0017	d @ n
-1.387051	d @ r
-1.004117	f @ </s>
-0.6187657	f @ R
-1.284943	f @ b
-1.004117	f @ d
-1.004117	f @ g
-1.004117	f @ l
-1.284943	f @ n
-1.284943	f @ r
-1.284943	f @ t
-1.08792	g @ </s>
-0.7416623	g @ R
-1.209342	g @ l
-1.659311	g @ m
-0.6179184	g @ n
-0.9931335	g @ r
-1.08792	g @ s
-1.08792	g @ t
-1.08792	g @ z
-0.4701724	h @ r
-0.5351132	i @ </s>
-0.8159398	i @ n
-0.5019448	j @ </s>
-1.168122	j @ R
-0.8872957	j @ d
-1.168122	j @ m
-0.8872957	j @ n
-1.168122	j @ s
-0.980333	k @ </s>
-1.093283	k @ R
-2.056212	k @ T
-2.056212	k @ _
-2.056212	k @ b
-1.775385	k @ d
-2.056212	k @ h
-2.056212	k @ k
-1.312274	k @ l
-1.014819	k @ m
-0.4837625	k @ n
-1.775385	k @ p
-0.980333	k @ r
-1.052281	k @ s
-1.390034	k @ t
-2.056212	k @ z
-0.5591422	l @ </s>
-1.03307	l @ R
-1.50075	l @ b
-1.50075	l @ d
-1.950719	l @ g
-1.50075	l @ k
-1.083627	l @ m
-0.8428923	l @ n
-1.206782	l @ p
-1.379328	l @ r
-1.083627	l @ s
-1.083627	l @ t
-0.5385661	m @ </s>
-1.913814	m @ J
-1.103948	m @ R
-1.913814	m @ S
-1.247636	m @ T
-1.913814	m @ _
-1.632987	m @ d
-1.913814	m @ g
-1.632987	m @ h
-1.342423	m @ k
-1.632987	m @ l
-0.6975279	m @ n
-1.046722	m @ r
-1.342423	m @ s
-1.463845	m @ t
-1.913814	m @ z
-0.3466272	n @ </s>
-1.738204	n @ J
-1.457377	n @ R
-1.457377	n @ d
-1.166813	n @ k
-1.738204	n @ l
-1.288235	n @ m
-1.072026	n @ n
-1.738204	n @ r
-0.8205551	n @ s
-1.738204	n @ t
-1.121215	p @ </s>
-0.8255143	p @ R
-1.692607	p @ _
-1.692607	p @ d
-1.692607	p @ g
-1.41178	p @ l
-1.026429	p @ n
-1.242638	p @ p
-0.7749579	p @ r
-0.6512139	p @ s
-1.41178	p @ t
-1.692607	p @ v
-1.692607	p @ z
-0.8540751	r @ </s>
-1.59571	r @ R
-2.045679	r @ _
-1.301741	r @ b
-1.474287	r @ d
-1.474287	r @ f
-1.59571	r @ g
-2.045679	r @ h
-1.004286	r @ k
-0.7426789	r @ l
-1.235813	r @ m
-0.8802453	r @ n
-1.59571	r @ p
-1.041748	r @ s
-1.379501	r @ t
-1.59571	r @ v
-1.573505	s @ </s>
-1.292678	s @ R
-1.573505	s @ _
-1.573505	s @ f
-0.8295674	s @ k
-1.002113	s @ l
-0.9073271	s @ m
-1.123536	s @ n
-1.002113	s @ p
-1.292678	s @ r
-0.9073271	s @ s
-1.573505	s @ t
-1.292678	s @ v
-0.8850082	t @ </s>
-0.4889202	t @ R
-1.712008	t @ b
-1.542866	t @ d
-1.992835	t @ f
-1.712008	t @ k
-1.326657	t @ l
-0.9889043	t @ m
-0.9169559	t @ n
-1.992835	t @ p
-1.182969	t @ r
-1.075186	t @ s
-1.992835	t @ w
-0.8159398	u @ </s>
-0.5351132	u @ l
-0.9083542	v @ </s>
-0.6126531	v @ R
-1.479745	v @ _
-1.479745	v @ d
-1.479745	v @ k
-1.029776	v @ l
-0.9083542	v @ n
-1.479745	v @ r
-0.8135679	v @ t
-1.479745	v @ z
-0.750999	w @ </s>
-0.750999	w @ l
-0.9133092	z @ </s>
-0.4501986	z @ m
-0.7441667	z @ n
-1.194136	z @ r
-1.194136	z @ t
-0.6746107	3 D H
-0.8724211	<s> D #
-0.5915946	<s> D E
-0.8724211	<s> D I
-0.4701724	E D @
-0.473576	I D </s>
-0.473576	I D @
-0.4701724	V D @
-0.6746107	i D H
-0.6746107	u D </s>
-0.6746107	{ D @
-0.6746107	1 E n
-1.079181	<s> E @
-1.360008	<s> E S
-1.360008	<s> E T
-1.360008	<s> E b
-1.360008	<s> E d
-1.079181	<s> E f
-1.079181	<s> E k
-1.079181	<s> E l
-0.7886167	<s> E m
-1.079181	<s> E n
-1.360008	<s> E p
-1.360008	<s> E s
-1.360008	<s> E v
-0.750999	D E @
-0.750999	D E n
-0.5172385	I E n
-0.9672075	I E s
-0.6863809	I E t
-0.9672075	J E @
-0.9672075	J E d
-0.9672075	J E l
-0.6863809	J E r
-0.9672075	J E s
-0.8724211	S E @
-0.8724211	S E l
-0.8724211	S E r
-0.8724211	S E v
-0.6746107	U E t
-1.168122	_ E k
-0.8872957	_ E l
-0.5019448	_ E n
-1.168122	_ E r
-0.8872957	_ E s
-1.168122	_ E t
-1.024134	b E @
-1.30496	b E T
-1.30496	b E d
-1.30496	b E k
-0.6387828	b E l
-1.024134	b E n
-0.8549913	b E r
-1.30496	b E s
-1.30496	b E t
-1.30496	b E v
-1.342423	d E @
-1.342423	d E b
-1.342423	d E f
-1.342423	d E k
-0.6762452	d E l
-1.061596	d E m
-0.8924537	d E n
-1.061596	d E p
-1.342423	d E r
-1.061596	d E s
-1.342423	d E z
-0.7335691	f E @
-0.7335691	f E l
-0.8549913	f E n
-1.30496	f E r
-1.024134	f E s
-0.7335691	f E t
-0.8724211	g E k
-0.8724211	g E s
-0.5915946	g E t
-1.079181	h E @
-0.7983546	h E k
-0.7983546	h E l
-1.079181	h E m
-0.7983546	h E r
-1.079181	h E v
-0.5351132	j E l
-0.8159398	j E t
-0.4747415	k E @
-0.9378521	k E J
-1.218679	k E _
-0.9378521	k E l
-1.218679	k E n
-1.218679	k E p
-1.218679	k E s
-1.018341	l E @
-1.684519	l E S
-1.684519	l E T
-1.23455	l E _
-1.684519	l E b
-1.684519	l E d
-1.684519	l E f
-1.684519	l E g
-0.6805887	l E k
-1.23455	l E m
-0.7215903	l E n
-1.403692	l E p
-1.684519	l E r
-1.23455	l E s
-1.403692	l E t
-1.23455	l E v
-1.492633	m E @
-1.211807	m E T
-1.211807	m E d
-1.492633	m E k
-0.826456	m E l
-0.384807	m E n
-1.492633	m E r
-1.211807	m E s
-1.211807	m E t
-1.241909	n E @
-1.241909	n E D
-1.241909	n E b
-0.6705174	n E k
-1.241909	n E l
-0.9610819	n E s
-0.7919396	n E t
-0.9610819	n E v
-0.8399826	p E @
-1.58392	p E N
-1.58392	p E b
-1.133951	p E d
-0.9177423	p E k
-0.666271	p E l
-0.9177423	p E n
-1.303093	p E r
-1.133951	p E s
-1.303093	p E t
-1.58392	p E z
-1.72353	r E @
-1.72353	r E J
-1.442704	r E S
-1.72353	r E T
-1.442704	r E _
-1.72353	r E b
-0.9795932	r E d
-0.9795932	r E k
-1.152139	r E l
-1.152139	r E m
-1.057353	r E n
-1.273561	r E p
-0.6821376	r E s
-1.057353	r E t
-1.72353	r E v
-1.055181	s E k
-0.8389725	s E l
-1.50515	s E m
-0.5422213	s E n
-1.50515	s E p
-1.50515	s E r
-0.9337588	s E s
-0.9337588	s E t
-1.224323	s E v
-1.200603	t E @
-1.650572	t E d
-0.7329237	t E k
-1.079181	t E l
-0.9843949	t E m
-0.5746938	t E n
-1.650572	t E p
-0.9066353	t E r
-1.650572	t E s
-1.369746	t E t
-0.6746107	u E t
-1.263959	v E @
-0.8139897	v E k
-1.263959	v E l
-0.5200216	v E n
-1.263959	v E r
-0.6925675	v E s
-1.024134	w E @
-1.30496	w E D
-1.30496	w E f
-0.437868	w E l
-0.7335691	w E n
-1.30496	w E s
-1.30496	w E t
-1.044967	z E b
-1.044967	z E f
-1.044967	z E l
-0.7641405	z E n
-0.7641405	z E s
-1.044967	z E t
-0.4701724	D H </s>
-0.6746107	S H </s>
-0.6746107	T H </s>
-0.2562177	d H </s>
-0.3659708	f H </s>
-0.1615325	s H </s>
-0.1267296	t H </s>
-0.1979597	v H </s>
-0.2051936	z H </s>
-1.168122	z H d
-1.168122	z H t
-2.402964	# I 1
-2.402964	# I 5
-1.295138	# I </s>
-0.762212	# I @
-1.736787	# I D
-2.402964	# I J
-2.402964	# I Q
-2.402964	# I T
-2.122138	# I _
-1.485316	# I b
-1.26538	# I d
-1.485316	# I f
-2.402964	# I i
-1.327086	# I k
-1.080745	# I l
-1.26538	# I m
-0.8749832	# I n
-1.659027	# I p
-2.402964	# I r
-1.295138	# I s
-1.027717	# I t
-1.163324	# I v
-1.593099	# I z
-1.736787	# I {
-0.6746107	1 I s
-0.6746107	5 I m
-1.730929	<s> I @
-1.450102	<s> I N
-1.730929	<s> I b
-1.28096	<s> I d
-1.064752	<s> I g
-1.28096	<s> I k
-1.450102	<s> I l
-0.8132803	<s> I m
-0.3903047	<s> I n
-1.730929	<s> I p
-1.730929	<s> I r
-1.730929	<s> I s
-1.730929	<s> I v
-1.730929	<s> I z
-0.6746107	D I D
-1.241909	J I N
-0.9610819	J I k
-0.9610819	J I m
-0.7919396	J I n
-1.241909	J I p
-0.9610819	J I t
-1.241909	J I v
-1.241909	J I w
-0.9610819	J I z
-1.58392	Q I 5
-0.666271	Q I </s>
-1.58392	Q I @
-1.58392	Q I E
-1.58392	Q I b
-1.58392	Q I d
-1.58392	Q I f
-0.7168275	Q I l
-1.012529	Q I n
-1.58392	Q I p
-1.012529	Q I s
-1.303093	Q I t
-1.012529	Q I z
-0.7983546	S I 5
-1.079181	S I @
-1.079181	S I N
-1.079181	S I b
-1.079181	S I f
-1.079181	S I l
-1.079181	S I n
-1.079181	S I v
-1.110896	T I </s>
-0.6609266	T I @
-1.110896	T I N
-0.8300691	T I l
-1.110896	T I m
-0.8300691	T I s
-0.5915946	U I n
-0.5915946	U I s
-1.324095	_ I @
-1.324095	_ I N
-1.324095	_ I _
-1.043269	_ I b
-1.043269	_ I k
-1.324095	_ I l
-1.324095	_ I m
-0.7527041	_ I n
-1.324095	_ I r
-1.043269	_ I s
-0.8741263	_ I t
-0.8886122	b I </s>
-1.351723	b I @
-1.632549	b I N
-1.632549	b I S
-1.351723	b I d
-1.18258	b I k
-0.9663718	b I l
-0.9663718	b I n
-1.632549	b I r
-1.061158	b I s
-0.628619	b I t
-1.351723	b I z
-1.015387	d I 5
-1.093147	d I </s>
-1.187933	d I @
-1.309355	d I N
-1.759324	d I _
-1.759324	d I b
-1.759324	d I d
-1.187933	d I g
-1.187933	d I k
-1.187933	d I l
-1.478498	d I m
-1.187933	d I n
-1.759324	d I p
-0.8922321	d I s
-0.8922321	d I t
-1.478498	d I v
-1.759324	d I z
-1.60403	f I </s>
-1.323203	f I @
-1.60403	f I E
-1.323203	f I N
-1.60403	f I _
-1.60403	f I b
-1.154061	f I d
-1.323203	f I k
-0.7369372	f I l
-0.6411009	f I n
-1.032638	f I s
-1.032638	f I t
-1.60403	f I {
-0.8872957	g I </s>
-1.168122	g I @
-1.168122	g I f
-1.168122	g I m
-0.7181533	g I n
-0.5967312	g I t
-1.007825	h I @
-1.007825	h I D
-0.7269987	h I b
-1.007825	h I l
-1.007825	h I n
-1.007825	h I p
-0.6746107	j I @
-1.163777	k I </s>
-1.613746	k I @
-1.613746	k I N
-1.332919	k I d
-1.332919	k I l
-1.613746	k I m
-0.650817	k I n
-1.613746	k I p
-1.332919	k I r
-0.3974599	k I t
-2.076541	l I #
-1.795714	l I 1
-2.076541	l I 5
-1.035149	l I </s>
-1.410364	l I @
-2.076541	l I D
-2.076541	l I J
-1.266675	l I N
-1.795714	l I _
-1.626572	l I b
-1.795714	l I d
-1.410364	l I f
-2.076541	l I g
-0.8849377	l I k
-2.076541	l I l
-1.266675	l I m
-0.7735416	l I n
-1.209449	l I p
-1.113612	l I s
-0.911108	l I t
-1.795714	l I v
-2.076541	l I w
-1.829011	m I 5
-1.085074	m I </s>
-1.085074	m I @
-1.379042	m I N
-1.829011	m I S
-1.548185	m I T
-1.162834	m I d
-1.829011	m I f
-1.548185	m I g
-1.829011	m I k
-1.162834	m I l
-0.5893705	m I n
-1.829011	m I r
-0.9113625	m I s
-1.162834	m I t
-1.829011	m I z
-1.548185	m I {
-0.7709042	n I </s>
-1.134794	n I @
-1.878731	n I N
-1.878731	n I Q
-1.878731	n I S
-1.878731	n I T
-1.878731	n I _
-1.597904	n I b
-1.428762	n I f
-1.212553	n I g
-0.9158019	n I k
-1.597904	n I l
-1.212553	n I m
-1.597904	n I n
-1.428762	n I p
-1.134794	n I s
-0.837338	n I t
-1.597904	n I v
-1.597904	n I z
-1.093147	p I </s>
-1.187933	p I @
-1.478498	p I N
-1.759324	p I _
-1.015387	p I d
-0.8922321	p I k
-0.9494587	p I l
-1.759324	p I m
-1.187933	p I n
-1.759324	p I p
-1.478498	p I r
-1.093147	p I s
-0.7553941	p I t
-1.478498	p I v
-1.773928	r I 5
-0.9410072	r I </s>
-1.148018	r I @
-2.223897	r I J
-1.414031	r I N
-2.223897	r I S
-1.773928	r I _
-1.47996	r I b
-1.414031	r I d
-1.260968	r I f
-1.414031	r I g
-2.223897	r I h
-1.007611	r I k
-1.47996	r I l
-1.058464	r I m
-1.007611	r I n
-1.47996	r I p
-1.086313	r I s
-1.306248	r I t
-1.557719	r I v
-1.414031	r I z
-1.50075	s I </s>
-1.083627	s I @
-1.669892	s I E
-1.379328	s I N
-1.379328	s I d
-1.50075	s I g
-1.083627	s I k
-1.206782	s I l
-1.03307	s I m
-0.7591154	s I n
-1.669892	s I p
-1.50075	s I r
-1.083627	s I s
-0.8748402	s I t
-1.669892	s I v
-1.669892	s I z
-1.868163	t I $
-0.7922847	t I </s>
-1.587337	t I @
-1.587337	t I J
-1.296772	t I N
-1.587337	t I S
-1.587337	t I Z
-1.868163	t I _
-1.587337	t I b
-1.587337	t I d
-1.296772	t I f
-1.418194	t I g
-1.058298	t I k
-0.9505146	t I l
-1.124226	t I m
-1.001071	t I n
-1.587337	t I p
-1.418194	t I s
-1.587337	t I t
-1.587337	t I v
-0.6415685	u I d
-0.9223952	u I n
-0.6415685	u I t
-1.641654	v I #
-1.641654	v I 5
-1.191685	v I </s>
-1.360828	v I @
-1.360828	v I E
-0.9754769	v I d
-1.070263	v I k
-0.8977172	v I l
-1.191685	v I n
-1.641654	v I r
-1.191685	v I s
-0.6787257	v I t
-1.641654	v I v
-1.641654	v I z
-1.641654	v I {
-1.23455	w I @
-1.684519	w I J
-1.403692	w I N
-1.684519	w I S
-1.684519	w I _
-1.23455	w I b
-1.23455	w I d
-1.403692	w I f
-1.113128	w I g
-0.9405818	w I l
-1.684519	w I m
-0.7215903	w I n
-1.403692	w I p
-1.684519	w I r
-1.23455	w I s
-1.23455	w I t
-1.23455	w I z
-0.541006	z I </s>
-1.284943	z I @
-1.284943	z I N
-1.284943	z I g
-1.284943	z I k
-1.004117	z I l
-1.284943	z I m
-1.284943	z I n
-1.284943	z I p
-1.004117	z I t
-0.6746107	# J </s>
-0.6746107	$ J </s>
-0.5351132	3 J @
-0.8159398	3 J I
-0.6746107	5 J </s>
-0.6863809	<s> J #
-1.323203	<s> J 1
-1.60403	<s> J 3
-0.8600925	<s> J E
-0.6000993	<s> J I
-1.323203	<s> J Q
-1.323203	<s> J V
-0.7941639	<s> J {
-0.8159398	@ J @
-0.8159398	@ J I
-0.8159398	@ J i
-0.5351132	E J </s>
-0.8159398	E J @
-0.9672075	I J 5
-0.3958163	I J </s>
-0.9672075	I J i
-0.30103	Q J </s>
-0.9223952	U J 5
-0.351004	U J </s>
-0.4701724	V J </s>
-0.30103	i J </s>
-0.351004	l J </s>
-0.9223952	l J @
-0.07390901	n J </s>
-0.750999	u J </s>
-0.750999	u J @
-0.7269987	{ J </s>
-0.7269987	{ J @
-0.7269987	{ J I
-1.007825	{ J u
-0.6746107	E N g
-0.7240056	I N </s>
-0.637724	I N g
-0.30103	I N k
-0.6227446	Q N </s>
-0.7441667	Q N g
-0.4501986	Q N k
-1.324095	V N </s>
-0.7527041	V N g
-0.2482167	V N k
-1.324095	V N s
-1.096486	{ N </s>
-1.387051	{ N @
-0.530293	{ N g
-0.3272529	{ N k
-1.667877	{ N s
-1.667877	{ N t
-0.6746107	S P </s>
-0.4701724	T P </s>
-0.04131541	b P </s>
-1.708344	b P j
-0.04129661	d P </s>
-0.1108523	f P </s>
-0.06053169	g P </s>
-1.551893	g P n
-0.05071495	k P </s>
-0.30103	m P </s>
-0.147967	n P </s>
-0.0886744	p P </s>
-0.102782	s P </s>
-1.342423	s P t
-0.05724509	t P </s>
-0.09333975	v P </s>
-0.1267296	z P </s>
-0.6746107	1 Q s
-1.324095	<s> Q I
-0.8741263	<s> Q b
-0.6579178	<s> Q k
-1.324095	<s> Q l
-1.324095	<s> Q m
-1.324095	<s> Q n
-1.324095	<s> Q p
-0.6579178	<s> Q r
-1.324095	<s> Q s
-0.750999	I Q k
-0.750999	I Q t
-0.750999	J Q I
-0.750999	J Q k
-0.4701724	T Q s
-0.4724261	_ Q I
-0.9223952	_ Q k
-0.9223952	_ Q n
-1.218679	b Q I
-1.218679	b Q N
-1.218679	b Q S
-1.218679	b Q b
-1.218679	b Q f
-1.218679	b Q g
-1.218679	b Q k
-0.9378521	b Q l
-1.218679	b Q m
-1.218679	b Q n
-1.218679	b Q p
-0.9378521	b Q t
-1.194136	d Q I
-1.194136	d Q N
-1.194136	d Q b
-1.194136	d Q d
-1.194136	d Q g
-0.9133092	d Q k
-0.7441667	d Q l
-0.9133092	d Q m
-1.194136	d Q n
-0.9133092	f Q I
-1.194136	f Q k
-0.9133092	f Q l
-0.6227446	f Q n
-0.7441667	f Q r
-1.194136	f Q z
-0.7983546	g Q I
-0.7983546	g Q b
-1.079181	g Q g
-1.079181	g Q l
-0.7983546	g Q n
-1.079181	g Q s
-1.140451	h Q I
-0.8596243	h Q b
-0.6904819	h Q l
-1.140451	h Q m
-0.8596243	h Q r
-1.140451	h Q s
-1.140451	h Q v
-0.6746107	i Q s
-1.099965	k Q I
-1.766142	k Q J
-1.194751	k Q N
-1.766142	k Q d
-1.485316	k Q f
-1.766142	k Q g
-1.099965	k Q k
-1.022205	k Q l
-0.8032137	k Q m
-0.6902637	k Q n
-1.316173	k Q p
-1.485316	k Q r
-1.316173	k Q s
-1.316173	k Q t
-1.766142	k Q z
-0.8966559	l Q I
-1.562833	l Q J
-1.562833	l Q N
-1.112864	l Q S
-1.562833	l Q T
-1.562833	l Q _
-1.282007	l Q b
-1.562833	l Q d
-1.112864	l Q g
-1.562833	l Q k
-1.112864	l Q n
-1.112864	l Q p
-1.282007	l Q r
-1.112864	l Q s
-0.8188962	l Q t
-0.9831321	m Q I
-1.263959	m Q N
-0.8139897	m Q d
-0.9831321	m Q k
-1.263959	m Q l
-1.263959	m Q n
-1.263959	m Q p
-0.9831321	m Q r
-0.9831321	m Q s
-1.263959	m Q t
-0.9133092	n Q I
-0.9133092	n Q b
-1.194136	n Q d
-1.194136	n Q f
-1.194136	n Q k
-1.194136	n Q l
-1.194136	n Q n
-0.9133092	n Q s
-1.194136	n Q t
-1.194136	n Q v
-1.012529	p Q I
-1.58392	p Q g
-1.303093	p Q k
-1.012529	p Q l
-0.9177423	p Q m
-0.6209911	p Q n
-1.133951	p Q p
-1.58392	p Q r
-1.012529	p Q s
-1.133951	p Q t
-1.58392	p Q z
-1.435177	r Q I
-1.716003	r Q J
-1.144612	r Q N
-1.435177	r Q T
-1.716003	r Q b
-1.716003	r Q d
-1.144612	r Q f
-1.716003	r Q g
-0.9720662	r Q k
-1.435177	r Q l
-0.9061377	r Q m
-1.049826	r Q n
-1.144612	r Q p
-1.049826	r Q s
-0.9720662	r Q t
-1.716003	r Q v
-1.716003	r Q z
-1.218679	s Q I
-0.9378521	s Q f
-1.218679	s Q k
-0.4747415	s Q l
-1.218679	s Q n
-0.9378521	s Q r
-1.218679	s Q v
-1.218679	t Q I
-1.218679	t Q N
-1.218679	t Q _
-1.218679	t Q d
-0.9378521	t Q k
-0.9378521	t Q m
-1.218679	t Q n
-1.218679	t Q p
-0.9378521	t Q r
-1.218679	t Q s
-1.218679	t Q t
-0.4224522	v Q I
-0.8724211	v Q l
-1.517316	w Q I
-1.517316	w Q J
-1.236489	w Q S
-0.9459247	w Q b
-0.9459247	w Q d
-1.236489	w Q f
-0.8511384	w Q l
-1.236489	w Q m
-1.067347	w Q n
-1.067347	w Q r
-1.236489	w Q s
-1.067347	w Q t
-0.750999	z Q n
-0.750999	z Q t
-0.09852549	# R </s>
-0.07711808	$ R </s>
-0.1615325	3 R </s>
-0.007770696	@ R </s>
-0.750999	# S @
-0.750999	# S I
-0.6746107	1 S I
-0.6746107	5 S 1
-1.667877	<s> S #
-1.667877	<s> S 3
-1.667877	<s> S 5
-1.387051	<s> S @
-1.096486	<s> S E
-0.8580116	<s> S I
-1.667877	<s> S U
-1.0017	<s> S V
-1.667877	<s> S i
-1.667877	<s> S p
-0.6264846	<s> S r
-0.663947	<s> S {
-0.750999	@ S </s>
-0.750999	@ S i
-0.4224522	E S </s>
-0.8724211	E S @
-0.3416478	I S </s>
-1.007825	I S P
-1.007825	I S u
-0.2232703	Q S </s>
-0.2351015	V S </s>
-1.044967	V S r
-0.9223952	i S 1
-0.9223952	i S </s>
-0.6415685	i S i
-0.9223952	i S u
-0.750999	k S $
-0.750999	k S i
-0.4701724	l S </s>
-0.6746107	m S $
-0.8159398	n S </s>
-0.8159398	n S H
-0.8159398	n S i
-1.218679	{ S 1
-0.177286	{ S </s>
-1.218679	{ S m
-0.750999	$ T </s>
-0.750999	$ T @
-0.6746107	1 T Q
-0.4701724	5 T </s>
-1.452762	<s> T #
-1.452762	<s> T $
-1.452762	<s> T 3
-0.7865844	<s> T I
-1.171935	<s> T V
-0.3151776	<s> T r
-1.452762	<s> T w
-1.452762	<s> T {
-0.3958163	@ T </s>
-0.9672075	@ T I
-0.9672075	@ T i
-0.6863809	E T </s>
-0.9672075	E T @
-0.6863809	E T I
-0.9672075	E T P
-0.5915946	I T </s>
-0.8724211	I T H
-0.8724211	I T I
-0.5351132	Q T </s>
-0.8159398	Q T P
-0.6746107	U T </s>
-0.6746107	f T @
-0.6746107	i T Q
-0.4701724	l T </s>
-0.30103	n T </s>
-1.044967	n T I
-1.044967	n T r
-0.6746107	u T </s>
-1.179401	# U </s>
-0.9604095	# U @
-1.923338	# U I
-1.257161	# U J
-1.923338	# U T
-1.923338	# U _
-1.351947	# U d
-1.257161	# U l
-0.5008379	# U n
-1.179401	# U s
-0.8819456	# U t
-1.056246	# U z
-0.6746107	S U g
-0.5915946	b U @
-0.8724211	b U l
-0.8724211	b U r
-0.750999	d U @
-0.750999	d U I
-0.6746107	f U l
-0.750999	g U @
-0.750999	g U r
-0.6746107	h U r
-0.5063415	j U @
-1.42399	j U E
-0.9740211	j U b
-0.5063415	j U l
-1.143164	j U m
-1.42399	j U p
-0.4701724	k U k
-0.4701724	l U @
-0.6746107	m U @
-0.4701724	n U k
-0.9223952	p U d
-0.6415685	p U l
-0.6415685	p U t
-0.9672075	r U @
-0.9672075	r U I
-0.9672075	r U b
-0.6863809	r U k
-0.9672075	r U m
-0.6746107	s U I
-0.4701724	t U @
-0.6746107	v U @
-0.750999	w U l
-0.750999	w U m
-1.110896	<s> V D
-1.110896	<s> V N
-1.110896	<s> V k
-0.6609266	<s> V l
-0.8300691	<s> V m
-1.110896	<s> V n
-1.110896	<s> V t
-0.750999	J V N
-0.750999	J V k
-0.9223952	S V d
-0.9223952	S V f
-0.9223952	S V n
-0.9223952	S V t
-0.9223952	S V v
-0.750999	T V m
-0.750999	T V r
-0.6863809	_ V N
-0.9672075	_ V g
-0.5172385	_ V m
-0.8924537	b V N
-1.061596	b V b
-1.061596	b V f
-1.342423	b V g
-0.8924537	b V k
-1.061596	b V l
-1.342423	b V m
-1.061596	b V n
-1.061596	b V s
-1.342423	b V v
-1.342423	b V z
-1.263959	d V _
-0.8139897	d V b
-1.263959	d V f
-1.263959	d V k
-0.8139897	d V l
-0.8139897	d V m
-0.9831321	d V n
-1.263959	d V s
-1.263959	d V z
-0.7269987	f V N
-1.007825	f V d
-1.007825	f V m
-0.7269987	f V n
-1.007825	f V r
-1.140451	g V _
-1.140451	g V f
-0.5690597	g V l
-0.8596243	g V n
-0.8596243	g V s
-1.140451	g V v
-1.241909	h V b
-1.241909	h V l
-0.6705174	h V m
-0.7919396	h V n
-0.9610819	h V r
-0.7919396	h V s
-1.241909	h V z
-0.6746107	j V k
-1.452762	k V N
-1.171935	k V d
-1.171935	k V f
-1.452762	k V k
-0.6428962	k V l
-1.002793	k V m
-1.452762	k V p
-1.452762	k V r
-1.002793	k V s
-1.171935	k V t
-1.002793	k V v
-1.452762	k V z
-1.551893	l V J
-1.551893	l V N
-0.9805022	l V S
-1.271067	l V _
-1.551893	l V b
-1.551893	l V d
-1.101924	l V f
-1.271067	l V g
-1.101924	l V k
-0.684801	l V m
-1.101924	l V n
-1.271067	l V s
-1.271067	l V t
-1.271067	l V v
-1.540671	m V D
-0.9692795	m V N
-1.540671	m V S
-1.259844	m V _
-1.540671	m V d
-1.090702	m V f
-1.090702	m V g
-0.9692795	m V l
-1.540671	m V m
-1.090702	m V n
-1.540671	m V r
-0.7967335	m V s
-1.259844	m V t
-1.259844	m V z
-1.079181	n V b
-0.6292123	n V f
-0.7983546	n V g
-1.079181	n V k
-1.079181	n V l
-1.079181	n V r
-0.9610819	p V N
-1.241909	p V d
-1.241909	p V f
-0.9610819	p V l
-0.9610819	p V m
-0.6705174	p V n
-0.9610819	p V s
-1.241909	p V z
-1.684519	r V J
-1.684519	r V N
-1.23455	r V S
-1.684519	r V _
-0.9405818	r V b
-1.113128	r V f
-1.23455	r V g
-1.403692	r V k
-0.5766925	r V m
-0.8746533	r V n
-1.684519	r V p
-1.018341	r V s
-1.684519	r V t
-1.110896	s V f
-0.6609266	s V k
-1.110896	s V l
-0.6609266	s V m
-0.8300691	s V n
-1.30496	t V N
-1.024134	t V b
-1.024134	t V d
-1.30496	t V f
-1.30496	t V k
-0.6387828	t V m
-0.7335691	t V n
-1.30496	t V s
-1.30496	t V t
-0.4701724	v V l
-0.6746107	z V m
-0.6746107	# Z </s>
-0.4701724	I Z 1
-0.6746107	u Z </s>
-0.6746107	{ Z @
-0.351004	# _ @
-0.9223952	# _ I
-0.5351132	1 _ </s>
-0.8159398	1 _ @
-0.6415685	3 _ </s>
-0.6415685	3 _ @
-0.9223952	3 _ I
-1.026429	<s> _ #
-1.41178	<s> _ $
-1.41178	<s> _ 3
-1.692607	<s> _ 5
-1.41178	<s> _ @
-0.8255143	<s> _ E
-0.8827409	<s> _ I
-1.026429	<s> _ Q
-0.9486694	<s> _ V
-1.242638	<s> _ i
-1.121215	<s> _ u
-1.026429	<s> _ {
-0.7269987	@ _ #
-1.007825	@ _ 5
-0.4364342	@ _ E
-0.5172385	E _ </s>
-0.6863809	E _ @
-0.9672075	E _ I
-0.408813	I _ </s>
-1.218679	I _ @
-0.7687097	I _ I
-1.218679	I _ i
-1.218679	I _ u
-1.218679	I _ {
-0.4701724	Q _ </s>
-0.6746107	U _ </s>
-0.5578563	V _ </s>
-0.4364342	V _ @
-0.6746107	b _ I
-0.6746107	i _ I
-0.4224522	l _ </s>
-0.8724211	l _ I
-1.408856	n _ #
-1.408856	n _ 5
-0.1692157	n _ </s>
-1.12803	n _ @
-1.408856	n _ i
-0.351004	u _ </s>
-0.9223952	u _ I
-0.6746107	z _ i
-0.5351132	{ _ I
-0.8159398	{ _ i
-1.007825	# b #
-1.007825	# b </s>
-0.7269987	# b I
-0.7269987	# b P
-1.007825	# b V
-0.5915946	$ b @
-0.8724211	$ b I
-0.8724211	$ b P
-0.7441667	1 b @
-0.4501986	1 b P
-1.194136	1 b Q
-0.9133092	1 b i
-1.194136	1 b j
-0.9672075	3 b #
-0.3958163	3 b @
-0.9672075	3 b P
-1.044967	5 b $
-0.7641405	5 b </s>
-1.044967	5 b @
-0.7641405	5 b I
-1.044967	5 b i
-1.044967	5 b r
-1.158292	<s> b #
-1.605958	<s> b $
-1.683718	<s> b 1
-1.482803	<s> b 3
-1.54003	<s> b 5
-1.386967	<s> b @
-1.274017	<s> b E
-1.158292	<s> b I
-1.345965	<s> b Q
-1.899926	<s> b U
-1.242069	<s> b V
-1.605958	<s> b i
-2.069069	<s> b j
-0.8585337	<s> b l
-0.6197006	<s> b r
-2.069069	<s> b u
-0.9425817	<s> b {
-1.342423	@ b #
-1.342423	@ b 5
-0.8924537	@ b </s>
-1.342423	@ b E
-1.061596	@ b I
-1.061596	@ b P
-1.061596	@ b V
-1.342423	@ b l
-0.7710315	@ b u
-0.8924537	@ b {
-1.007825	E b @
-1.007825	E b I
-0.7269987	E b P
-1.007825	E b j
-1.007825	E b r
-1.007825	E b z
-1.540671	I b #
-0.8744932	I b </s>
-0.7967335	I b @
-1.259844	I b E
-0.8744932	I b I
-0.7967335	I b P
-1.540671	I b Q
-1.540671	I b V
-1.540671	I b i
-1.259844	I b j
-1.090702	I b r
-1.540671	I b u
-0.4950946	Q b </s>
-1.30496	Q b @
-1.024134	Q b I
-0.7335691	Q b P
-1.30496	Q b _
-1.30496	Q b l
-1.30496	Q b n
-1.30496	Q b s
-0.8724211	U b @
-0.8724211	U b E
-0.5915946	U b P
-0.3968664	V b </s>
-0.9831321	V b I
-0.5977812	V b P
-1.263959	V b V
-0.9672075	i b 5
-0.6863809	i b </s>
-0.9672075	i b @
-0.9672075	i b Q
-0.9672075	i b u
-0.5351132	l b @
-0.8159398	l b j
-1.613746	m b 1
-1.613746	m b 3
-1.042355	m b 5
-0.8698086	m b @
-1.332919	m b I
-0.4221423	m b P
-1.613746	m b U
-1.613746	m b V
-1.042355	m b r
-1.332919	m b u
-1.332919	m b {
-0.6746107	s b E
-1.044967	u b #
-1.044967	u b </s>
-1.044967	u b @
-0.5949981	u b I
-1.044967	u b P
-1.044967	u b r
-0.750999	z b @
-0.750999	z b I
-0.4950946	{ b </s>
-0.8549913	{ b @
-0.8549913	{ b I
-0.8549913	{ b P
-1.30496	{ b l
-1.30496	{ b s
-1.168122	# d 5
-0.5967312	# d </s>
-0.7181533	# d @
-0.8872957	# d H
-1.168122	# d I
-1.168122	# d n
-1.342423	$ d 1
-0.5984855	$ d </s>
-1.061596	$ d @
-1.342423	$ d E
-1.342423	$ d H
-0.7710315	$ d I
-1.342423	$ d P
-1.342423	$ d i
-1.342423	$ d j
-1.342423	$ d l
-1.342423	$ d n
-1.324095	1 d #
-1.324095	1 d 1
-1.043269	1 d 5
-0.320165	1 d </s>
-0.8741263	1 d I
-1.324095	1 d P
-1.044967	3 d #
-0.7641405	3 d @
-1.044967	3 d H
-1.044967	3 d I
-0.5949981	3 d P
-0.7983546	5 d #
-0.7983546	5 d </s>
-0.5077901	5 d @
-1.079181	5 d P
-0.9716664	<s> d #
-1.591879	<s> d $
-1.296178	<s> d 1
-1.882443	<s> d 3
-1.713301	<s> d 5
-1.025686	<s> d E
-0.8410505	<s> d I
-1.15934	<s> d Q
-2.16327	<s> d U
-1.121877	<s> d V
-1.713301	<s> d i
-1.419333	<s> d j
-0.6352886	<s> d r
-1.882443	<s> d u
-1.882443	<s> d w
-1.200341	<s> d {
-1.292678	@ d #
-0.8295674	@ d $
-1.573505	@ d 5
-0.3338639	@ d </s>
-1.573505	@ d @
-1.573505	@ d E
-1.292678	@ d I
-1.292678	@ d Q
-1.573505	@ d V
-1.573505	@ d i
-1.573505	@ d r
-0.454093	E d </s>
-1.263959	E d @
-0.6925675	E d I
-0.9831321	E d P
-1.263959	E d U
-1.263959	E d l
-0.6746107	H d </s>
-1.785977	I d $
-1.785977	I d 1
-1.785977	I d 3
-0.2242249	I d </s>
-1.50515	I d @
-1.785977	I d H
-1.042039	I d I
-0.9188843	I d P
-1.785977	I d n
-1.785977	I d r
-1.785977	I d z
-0.7441667	Q d </s>
-1.194136	Q d @
-1.194136	Q d I
-0.4501986	Q d P
-0.9133092	Q d r
-0.4724261	U d </s>
-0.9223952	U d @
-0.9223952	U d I
-0.6292123	V d </s>
-1.079181	V d @
-1.079181	V d I
-0.5077901	V d P
-1.218679	i d 5
-0.3515864	i d </s>
-1.218679	i d @
-0.9378521	i d I
-1.218679	i d P
-1.218679	i d r
-0.750999	k d $
-0.750999	k d 5
-1.408856	l d 5
-0.147053	l d </s>
-0.9588874	l d @
-0.750999	m d V
-0.750999	m d r
-1.731627	n d $
-2.012454	n d 1
-1.562485	n d 5
-0.2678052	n d </s>
-0.7506503	n d @
-1.731627	n d E
-1.094805	n d I
-1.094805	n d P
-2.012454	n d V
-2.012454	n d r
-0.9831321	u d 5
-0.34631	u d </s>
-1.263959	u d @
-1.263959	u d I
-0.8139897	u d P
-0.454093	{ d </s>
-0.6925675	{ d @
-1.263959	{ d E
-0.9831321	{ d P
-1.263959	{ d V
-1.263959	{ d m
-0.5395045	# f </s>
-0.3669585	# f t
-0.5915946	$ f </s>
-0.5915946	$ f I
-0.6746107	1 f I
-0.750999	3 f I
-0.750999	3 f j
-0.8159398	5 f #
-0.8159398	5 f @
-0.8159398	5 f I
-1.143277	<s> f #
-1.352063	<s> f $
-1.769187	<s> f 1
-1.769187	<s> f 3
-1.938329	<s> f 5
-1.769187	<s> f @
-1.143277	<s> f E
-0.979515	<s> f I
-1.177763	<s> f Q
-2.219156	<s> f U
-1.40929	<s> f V
-1.352063	<s> f i
-1.40929	<s> f j
-0.6063718	<s> f l
-0.8439079	<s> f r
-1.352063	<s> f {
-1.007825	@ f 1
-1.007825	@ f </s>
-1.007825	@ f @
-1.007825	@ f E
-1.007825	@ f I
-1.007825	@ f i
-1.007825	@ f r
-0.6863809	E f @
-0.9672075	E f E
-0.5172385	E f t
-0.4080713	I f </s>
-1.292678	I f @
-1.123536	I f H
-1.573505	I f I
-1.123536	I f P
-1.573505	I f Q
-1.573505	I f j
-1.573505	I f r
-0.7064122	I f t
-1.573505	I f {
-0.7181533	Q f </s>
-1.168122	Q f @
-0.5019448	Q f I
-1.168122	Q f P
-0.8872957	Q f t
-1.393176	V f $
-0.4755275	V f </s>
-1.393176	V f @
-0.9432072	V f I
-0.5833105	V f P
-1.393176	V f r
-1.393176	V f t
-0.6746107	i f </s>
-0.4130037	l f </s>
-0.7983546	l f @
-1.079181	l f I
-1.079181	l f t
-0.8724211	m f </s>
-0.8724211	m f @
-0.8724211	m f I
-0.8724211	m f r
-0.7641405	n f #
-1.044967	n f 3
-0.5949981	n f E
-0.7641405	n f r
-0.8159398	s f @
-0.5351132	s f I
-0.6746107	t f $
-0.750999	u f 5
-0.750999	u f </s>
-1.218679	{ f #
-1.218679	{ f 5
-0.7687097	{ f </s>
-0.9378521	{ f @
-0.9378521	{ f I
-0.7687097	{ f P
-1.218679	{ f T
-1.218679	{ f t
-0.5690597	# g 5
-1.140451	# g @
-0.8596243	# g I
-1.140451	# g P
-0.8596243	# g Q
-1.140451	# g j
-0.5172385	$ g @
-0.9672075	$ g I
-0.9672075	$ g V
-0.9672075	$ g {
-1.044967	1 g #
-0.5949981	1 g 5
-1.044967	1 g </s>
-0.7641405	1 g @
-1.044967	1 g j
-0.8724211	3 g </s>
-0.8724211	3 g @
-0.5915946	3 g P
-1.079181	5 g </s>
-0.5077901	5 g @
-1.079181	5 g P
-1.079181	5 g V
-0.7983546	5 g r
-1.082162	<s> g #
-1.842728	<s> g $
-1.842728	<s> g 3
-1.842728	<s> g 5
-1.379618	<s> g @
-1.673586	<s> g E
-1.457377	<s> g I
-1.379618	<s> g Q
-1.842728	<s> g U
-1.205906	<s> g V
-0.8406649	<s> g l
-0.4237958	<s> g r
-2.123555	<s> g w
-0.9581215	<s> g {
-1.044967	@ g 5
-0.5949981	@ g @
-1.044967	@ g E
-1.044967	@ g Q
-0.7641405	@ g u
-0.6746107	E g j
-1.271067	I g #
-1.271067	I g 5
-0.8079562	I g </s>
-0.7420277	I g @
-0.9805022	I g P
-1.271067	I g l
-0.9805022	I g m
-0.9805022	I g n
-1.271067	I g r
-1.551893	I g w
-1.551893	I g z
-1.540671	N g $
-0.8744932	N g 5
-0.8744932	N g @
-0.3243848	N g P
-1.259844	N g r
-1.540671	N g u
-1.259844	N g w
-0.4130037	Q g </s>
-1.079181	Q g @
-1.079181	Q g P
-1.079181	Q g n
-1.079181	Q g r
-0.6746107	U g @
-0.4241852	V g </s>
-0.7181533	V g I
-0.7181533	V g P
-0.8724211	i g @
-0.8724211	i g P
-0.5915946	i g r
-0.5351132	l g @
-0.8159398	l g r
-0.8724211	u g #
-0.8724211	u g @
-0.8724211	u g I
-0.8724211	u g P
-1.42399	{ g 5
-0.5568978	{ g </s>
-0.5568978	{ g @
-0.9740211	{ g P
-1.42399	{ g l
-1.42399	{ g m
-1.42399	{ g n
-1.143164	{ g r
-0.8159398	# h #
-0.5351132	# h @
-0.6215822	<s> h #
-1.425439	<s> h $
-1.99683	<s> h 1
-1.330652	<s> h 3
-1.716003	<s> h 5
-1.079181	<s> h E
-1.252893	<s> h I
-1.033901	<s> h Q
-1.99683	<s> h U
-0.8592457	<s> h V
-1.716003	<s> h i
-1.546861	<s> h j
-1.99683	<s> h u
-0.7350266	<s> h {
-0.5915946	@ h #
-0.8724211	@ h I
-0.8724211	@ h Q
-0.6746107	I h j
-0.6746107	i h $
-0.6746107	n h {
-1.044967	<s> i T
-1.044967	<s> i _
-1.044967	<s> i d
-1.044967	<s> i g
-1.044967	<s> i l
-1.044967	<s> i m
-1.044967	<s> i p
-1.044967	<s> i s
-0.6746107	I i n
-0.750999	J i </s>
-0.750999	J i v
-0.5172385	S i </s>
-0.6863809	S i S
-0.9672075	S i n
-0.6746107	T i d
-1.007825	_ i </s>
-1.007825	_ i l
-0.3416478	_ i n
-1.110896	b i b
-1.110896	b i d
-1.110896	b i g
-0.5395045	b i s
-0.6609266	b i z
-0.9223952	d i k
-0.9223952	d i l
-0.9223952	d i m
-0.6415685	d i n
-1.079181	f i S
-1.079181	f i k
-1.079181	f i l
-0.7983546	f i n
-0.7983546	f i s
-0.7983546	f i t
-0.750999	h i D
-0.750999	h i h
-0.6746107	j i l
-1.079181	k i @
-1.079181	k i Q
-0.7983546	k i m
-0.7983546	k i n
-0.7983546	k i t
-1.079181	k i w
-1.466463	l i 5
-1.185637	l i J
-1.466463	l i S
-1.466463	l i b
-1.016494	l i d
-1.016494	l i k
-1.185637	l i m
-0.895072	l i n
-1.466463	l i p
-1.185637	l i s
-0.8002857	l i t
-1.466463	l i v
-1.185637	l i z
-1.110896	m i b
-1.110896	m i d
-0.8300691	m i g
-1.110896	m i l
-0.8300691	m i n
-0.8300691	m i t
-1.110896	m i z
-0.9223952	n i </s>
-0.6415685	n i k
-0.9223952	n i t
-0.9223952	n i z
-0.9133092	p i </s>
-0.9133092	p i @
-1.194136	p i S
-1.194136	p i d
-1.194136	p i k
-0.9133092	p i l
-0.9133092	p i t
-0.9133092	p i z
-1.700546	r i 5
-0.8906807	r i </s>
-1.41972	r i J
-1.700546	r i b
-1.700546	r i d
-1.700546	r i f
-1.034369	r i k
-1.700546	r i l
-0.9566092	r i m
-0.7828977	r i n
-1.700546	r i p
-1.034369	r i s
-1.129155	r i t
-1.700546	r i v
-0.9566092	r i z
-1.004117	s i </s>
-1.284943	s i b
-0.8349742	s i d
-0.8349742	s i k
-1.004117	s i l
-1.004117	s i m
-1.004117	s i n
-1.284943	s i p
-1.284943	s i z
-1.002793	t i </s>
-1.452762	t i d
-1.452762	t i j
-1.171935	t i k
-1.171935	t i l
-1.452762	t i m
-0.4898332	t i n
-1.002793	t i p
-1.452762	t i t
-1.452762	t i v
-1.171935	t i z
-0.6746107	v i n
-1.168122	w i </s>
-1.168122	w i d
-0.8872957	w i k
-0.8872957	w i l
-1.168122	w i n
-1.168122	w i p
-1.168122	w i t
-1.168122	w i v
-0.8872957	w i z
-0.8724211	z i </s>
-0.8724211	z i b
-0.5915946	z i n
-0.8741263	<s> j 5
-0.8741263	<s> j E
-1.324095	<s> j I
-1.324095	<s> j U
-1.324095	<s> j V
-1.324095	<s> j i
-0.5142297	<s> j u
-1.043269	<s> j {
-0.6746107	P j u
-0.5578563	b j U
-0.4364342	b j u
-1.007825	d j U
-0.2638882	d j u
-1.079181	f j $
-1.079181	f j U
-0.2693156	f j u
-0.3659708	g j u
-0.30103	h j u
-0.6746107	i j @
-0.5279583	k j U
-0.3270434	k j u
-1.110896	l j #
-0.6609266	l j @
-0.6609266	l j U
-0.6609266	l j u
-0.6609266	m j U
-0.30103	m j u
-1.342423	n j 3
-0.5984855	n j @
-1.342423	n j U
-0.3384924	n j u
-1.342423	n j {
-1.140451	p j @
-0.8596243	p j U
-0.2733586	p j u
-0.6746107	r j u
-0.8724211	s j @
-0.4224522	s j u
-0.6227446	t j U
-0.2764871	t j u
-0.750999	v j U
-0.750999	v j u
-1.007825	# k 1
-0.5578563	# k </s>
-1.007825	# k @
-1.007825	# k I
-1.007825	# k w
-0.8159398	$ k </s>
-0.8159398	$ k @
-0.8159398	$ k P
-1.044967	1 k $
-0.30103	1 k </s>
-1.044967	1 k r
-0.7983546	3 k </s>
-0.7983546	3 k @
-0.7983546	3 k I
-1.079181	3 k P
-1.079181	3 k Q
-1.079181	3 k w
-1.324095	5 k #
-0.8741263	5 k 5
-0.6579178	5 k </s>
-0.5142297	5 k @
-1.324095	5 k P
-1.324095	5 k s
-1.324095	5 k w
-1.24083	<s> k #
-1.455223	<s> k $
-1.645401	<s> k 1
-1.753184	<s> k 3
-1.600121	<s> k 5
-0.8402659	<s> k @
-1.695957	<s> k E
-1.695957	<s> k I
-0.9133606	<s> k Q
-2.282223	<s> k U
-1.455223	<s> k V
-2.282223	<s> k i
-1.896872	<s> k j
-0.9699648	<s> k l
-0.8113505	<s> k r
-2.563049	<s> k u
-2.563049	<s> k v
-1.140549	<s> k w
-0.8793476	<s> k {
-1.323203	@ k $
-1.60403	@ k 3
-1.60403	@ k 5
-0.5626369	@ k </s>
-1.60403	@ k @
-1.154061	@ k P
-1.154061	@ k Q
-1.60403	@ k V
-1.323203	@ k i
-1.323203	@ k j
-1.60403	@ k r
-1.032638	@ k s
-1.154061	@ k u
-1.60403	@ k w
-1.154061	@ k {
-1.692607	E k 5
-1.242638	E k </s>
-1.242638	E k @
-1.41178	E k P
-1.692607	E k l
-1.692607	E k n
-0.4097168	E k s
-0.5010032	E k t
-1.692607	E k w
-1.988802	I k #
-1.538833	I k 1
-1.707976	I k 5
-0.6135543	I k </s>
-0.7971987	I k @
-1.178936	I k I
-1.025873	I k P
-1.707976	I k Q
-1.988802	I k S
-1.988802	I k d
-1.988802	I k i
-1.707976	I k j
-1.538833	I k l
-1.707976	I k n
-1.988802	I k r
-0.9474094	I k s
-1.322625	I k t
-1.707976	I k u
-1.538833	I k w
-1.707976	I k {
-1.530261	N k 5
-0.2281979	N k </s>
-1.239696	N k @
-1.530261	N k I
-1.001222	N k P
-1.530261	N k l
-1.811087	N k r
-1.361118	N k s
-1.530261	N k t
-1.530261	N k w
-1.236489	Q k 5
-0.6502236	Q k </s>
-0.7733787	Q k @
-1.236489	Q k I
-1.517316	Q k V
-1.517316	Q k j
-1.517316	Q k l
-0.7074502	Q k s
-0.9459247	Q k t
-0.3958163	U k </s>
-0.9672075	U k r
-0.9672075	U k u
-1.024134	V k 5
-1.024134	V k </s>
-0.8549913	V k @
-1.30496	V k I
-0.6387828	V k P
-1.30496	V k j
-0.8549913	V k s
-1.30496	V k t
-0.2345963	i k </s>
-1.061596	i k @
-1.342423	i k P
-1.342423	i k r
-1.061596	i k w
-0.3582567	l k </s>
-0.5967312	l k @
-1.168122	l k t
-0.6746107	m k I
-0.8159398	n k Q
-0.8159398	n k V
-0.8159398	n k i
-0.4701724	p k I
-1.178093	s k #
-1.569631	s k $
-1.474844	s k 1
-1.691053	s k 3
-1.474844	s k 5
-0.8003976	s k </s>
-1.331156	s k @
-1.397085	s k E
-1.137092	s k I
-1.569631	s k Q
-1.223373	s k V
-1.691053	s k i
-1.860195	s k j
-0.8792186	s k r
-1.569631	s k u
-0.9013813	s k w
-1.099629	s k {
-0.6746107	t k V
-0.5077901	u k </s>
-0.6292123	u k @
-1.079181	u k l
-1.079181	u k r
-1.716003	{ k #
-1.435177	{ k 5
-0.6746107	{ k </s>
-1.435177	{ k @
-1.144612	{ k I
-1.435177	{ k P
-1.716003	{ k S
-1.716003	{ k d
-1.435177	{ k m
-1.716003	{ k n
-0.6081769	{ k s
-0.712073	{ k t
-0.8139897	# l </s>
-0.34631	# l @
-0.6925675	# l I
-0.4113692	$ l </s>
-1.452762	$ l I
-1.171935	$ l d
-1.452762	$ l k
-1.452762	$ l r
-0.8813707	$ l s
-0.7088248	$ l t
-0.408813	1 l </s>
-1.218679	1 l @
-0.6472875	1 l I
-1.218679	1 l i
-1.218679	1 l j
-0.9672075	3 l 5
-0.6863809	3 l </s>
-0.9672075	3 l d
-0.9672075	3 l j
-0.9672075	3 l {
-1.303093	5 l 5
-0.5080411	5 l </s>
-0.9177423	5 l @
-1.303093	5 l E
-1.133951	5 l I
-0.7168275	5 l d
-1.012529	5 l t
-1.58392	5 l u
-0.7218223	<s> l #
-2.004712	<s> l $
-1.433321	<s> l 1
-1.433321	<s> l 5
-1.338535	<s> l @
-0.8968857	<s> l E
-0.6464311	<s> l I
-1.554743	<s> l Q
-1.723886	<s> l U
-1.554743	<s> l V
-1.338535	<s> l i
-2.004712	<s> l j
-1.554743	<s> l u
-0.8392789	<s> l {
-1.089258	@ l #
-1.899124	@ l $
-1.899124	@ l 3
-1.618297	@ l 5
-0.3373721	@ l </s>
-1.155187	@ l @
-1.449155	@ l E
-1.032031	@ l I
-1.449155	@ l Q
-1.618297	@ l V
-1.618297	@ l d
-1.449155	@ l i
-1.899124	@ l j
-1.449155	@ l u
-1.899124	@ l {
-1.792392	E l 1
-1.221001	E l 5
-0.7165131	E l </s>
-1.048455	E l @
-1.792392	E l E
-0.982526	E l I
-1.511565	E l J
-1.792392	E l S
-1.792392	E l T
-1.792392	E l V
-1.342423	E l d
-1.342423	E l f
-1.792392	E l i
-1.792392	E l k
-1.342423	E l m
-1.221001	E l p
-1.792392	E l s
-0.982526	E l t
-1.792392	E l u
-1.342423	E l v
-2.004712	I l #
-1.723886	I l 1
-1.554743	I l 5
-0.453928	I l </s>
-0.9633194	I l @
-1.338535	I l E
-0.9288335	I l I
-1.723886	I l J
-2.004712	I l Q
-2.004712	I l T
-2.004712	I l _
-2.004712	I l b
-1.433321	I l d
-2.004712	I l f
-2.004712	I l g
-2.004712	I l i
-1.723886	I l j
-1.554743	I l k
-2.004712	I l m
-2.004712	I l n
-2.004712	I l s
-1.087063	I l t
-2.004712	I l u
-2.004712	I l {
-1.133951	Q l 5
-1.012529	Q l </s>
-0.4760934	Q l @
-0.7740541	Q l I
-1.58392	Q l d
-1.303093	Q l f
-1.58392	Q l i
-1.303093	Q l j
-1.58392	Q l m
-1.58392	Q l s
-1.58392	Q l t
-1.58392	Q l v
-0.6579178	U l </s>
-0.457003	U l @
-0.8741263	U l I
-1.324095	U l f
-1.324095	U l m
-1.324095	U l p
-1.492633	V l </s>
-1.492633	V l @
-1.042664	V l I
-1.492633	V l J
-1.492633	V l S
-1.211807	V l _
-1.492633	V l f
-0.9212422	V l k
-1.492633	V l n
-0.9212422	V l p
-0.9212422	V l s
-0.826456	V l t
-1.211807	V l v
-0.9073271	b l #
-1.123536	b l 1
-1.573505	b l 3
-1.573505	b l 5
-1.002113	b l E
-0.9073271	b l I
-0.9073271	b l Q
-1.002113	b l V
-0.9073271	b l i
-1.002113	b l {
-0.750999	d l @
-0.750999	d l I
-0.9843949	f l #
-1.200603	f l $
-1.200603	f l 1
-1.650572	f l 3
-1.650572	f l 5
-1.079181	f l E
-1.200603	f l I
-1.200603	f l Q
-0.9066353	f l V
-1.650572	f l i
-1.079181	f l u
-0.6466421	f l {
-0.9588874	g l #
-1.408856	g l 1
-1.408856	g l 5
-1.408856	g l @
-0.9588874	g l E
-0.9588874	g l I
-1.408856	g l Q
-0.9588874	g l V
-1.12803	g l i
-0.9588874	g l u
-0.9588874	g l {
-0.3748162	i l </s>
-0.9610819	i l @
-1.241909	i l I
-0.7919396	i l d
-1.241909	i l j
-0.8906807	k l #
-1.700546	k l $
-1.41972	k l 1
-1.129155	k l 5
-1.700546	k l @
-1.129155	k l E
-0.8334541	k l I
-0.8334541	k l Q
-1.41972	k l V
-1.250577	k l i
-0.6966161	k l {
-0.6746107	m l E
-0.6746107	n l I
-1.015387	p l #
-1.478498	p l $
-1.015387	p l 1
-1.759324	p l 3
-1.187933	p l @
-1.093147	p l E
-1.187933	p l I
-0.9494587	p l Q
-1.015387	p l V
-1.478498	p l i
-1.759324	p l u
-0.6217401	p l {
-0.8906807	s l #
-1.41972	s l $
-1.41972	s l 1
-1.41972	s l 3
-1.250577	s l 5
-1.250577	s l E
-0.8906807	s l I
-1.129155	s l Q
-0.8334541	s l V
-1.250577	s l i
-1.250577	s l u
-0.8906807	s l {
-0.2733586	u l </s>
-1.140451	u l @
-0.8596243	u l I
-0.6746107	v l I
-0.3659708	z l I
-1.464532	{ l #
-1.464532	{ l 1
-1.001422	{ l 5
-1.464532	{ l </s>
-0.5537553	{ l @
-0.7824301	{ l I
-1.745359	{ l Q
-1.745359	{ l _
-1.464532	{ l b
-1.745359	{ l f
-1.464532	{ l g
-1.745359	{ l j
-1.29539	{ l k
-1.29539	{ l p
-1.745359	{ l s
-1.464532	{ l v
-1.745359	{ l {
-1.263959	# m #
-1.263959	# m 1
-0.8139897	# m </s>
-0.5977812	# m @
-0.8139897	# m I
-1.263959	# m p
-1.263959	# m z
-1.263959	# m {
-0.7983546	$ m 5
-0.7983546	$ m </s>
-0.7983546	$ m @
-1.079181	$ m E
-1.079181	$ m j
-1.079181	$ m {
-0.30103	1 m </s>
-1.241909	3 m 5
-0.7919396	3 m </s>
-1.241909	3 m @
-0.3748162	3 m I
-1.241909	3 m Q
-1.241909	3 m V
-1.241909	5 m 1
-0.7919396	5 m </s>
-0.6705174	5 m @
-0.7919396	5 m E
-1.241909	5 m I
-0.7919396	5 m {
-0.8418882	<s> m #
-1.598211	<s> m $
-1.454523	<s> m 1
-1.983562	<s> m 3
-1.34674	<s> m 5
-1.18851	<s> m @
-1.156562	<s> m E
-0.8272147	<s> m I
-1.18851	<s> m Q
-0.9061074	<s> m V
-1.454523	<s> m i
-1.692997	<s> m j
-2.264389	<s> m u
-0.7136044	<s> m {
-1.390593	@ m #
-1.840562	@ m $
-1.840562	@ m 1
-1.559736	@ m 5
-0.2897782	@ m </s>
-1.174385	@ m @
-1.390593	@ m E
-1.390593	@ m I
-1.840562	@ m Q
-1.840562	@ m U
-1.840562	@ m V
-1.840562	@ m f
-1.390593	@ m i
-1.840562	@ m j
-1.174385	@ m p
-1.559736	@ m {
-0.8924537	E m </s>
-0.532557	E m @
-1.061596	E m I
-1.061596	E m b
-1.342423	E m f
-0.6762452	E m p
-1.878731	I m #
-1.878731	I m 1
-1.878731	I m 5
-0.5204496	I m </s>
-0.9610819	I m @
-1.212553	I m E
-1.134794	I m I
-1.878731	I m S
-1.212553	I m b
-1.597904	I m j
-0.6390899	I m p
-1.878731	I m s
-1.878731	I m z
-1.597904	I m {
-0.9337588	Q m </s>
-1.055181	Q m @
-0.9337588	Q m I
-1.50515	Q m P
-0.9337588	Q m b
-1.50515	Q m l
-1.50515	Q m n
-0.5012197	Q m p
-1.50515	Q m r
-1.50515	Q m t
-0.6746107	S m I
-0.5915946	U m </s>
-0.8724211	U m @
-0.8724211	U m I
-0.790695	V m </s>
-1.136952	V m @
-1.708344	V m I
-0.5429105	V m b
-1.427517	V m d
-1.708344	V m f
-1.427517	V m n
-0.5167402	V m p
-0.6746107	d m @
-0.2562177	g m @
-0.3242598	i m </s>
-0.6705174	i m @
-1.241909	i m E
-1.241909	i m j
-0.750999	k m @
-0.750999	k m I
-0.5172385	l m </s>
-0.9672075	l m @
-0.9672075	l m E
-0.9672075	l m I
-0.6746107	p m V
-1.043269	s m #
-1.324095	s m $
-1.324095	s m 3
-1.324095	s m 5
-1.324095	s m @
-1.043269	s m E
-0.8741263	s m I
-0.6579178	s m V
-1.043269	s m u
-1.324095	s m {
-0.4701724	t m @
-1.194136	u m 1
-0.3842701	u m </s>
-0.9133092	u m @
-1.194136	u m I
-1.194136	u m V
-1.194136	u m {
-0.9672075	z m 5
-0.3958163	z m @
-0.9672075	z m Q
-0.97347	{ m </s>
-0.836632	{ m @
-1.269171	{ m I
-1.390593	{ m P
-0.7327359	{ m b
-1.840562	{ m f
-1.840562	{ m j
-1.840562	{ m k
-0.4489857	{ m p
-1.559736	{ m z
-1.067347	# n 5
-1.517316	# n </s>
-0.7733787	# n @
-1.236489	# n I
-0.9459247	# n J
-1.236489	# n d
-1.517316	# n i
-1.517316	# n j
-0.6502236	# n s
-0.9459247	# n t
-1.408856	$ n 1
-0.5989907	$ n </s>
-1.12803	$ n @
-0.8374652	$ n I
-0.9588874	$ n J
-1.408856	$ n d
-0.6649193	$ n t
-0.2634595	1 n </s>
-1.479745	1 n @
-0.9083542	1 n _
-1.479745	1 n s
-0.8135679	1 n t
-1.044967	3 n 5
-0.5949981	3 n </s>
-0.7641405	3 n I
-1.044967	3 n P
-1.044967	3 n d
-1.324095	5 n 5
-0.2827026	5 n </s>
-1.043269	5 n @
-1.324095	5 n j
-1.324095	5 n l
-1.324095	5 n t
-1.324095	5 n {
-0.7342735	<s> n #
-1.457377	<s> n $
-1.166813	<s> n 1
-1.288235	<s> n 5
-0.8711115	<s> n E
-1.072026	<s> n I
-0.9283382	<s> n Q
-1.166813	<s> n V
-0.9942666	<s> n j
-1.457377	<s> n u
-1.166813	<s> n {
-1.780944	@ n #
-1.950087	@ n 5
-0.2806368	@ n </s>
-1.780944	@ n E
-1.421047	@ n I
-2.230913	@ n P
-1.780944	@ n Q
-2.230913	@ n _
-1.155035	@ n d
-1.659522	@ n f
-2.230913	@ n i
-2.230913	@ n j
-1.780944	@ n k
-1.226983	@ n s
-0.9086939	@ n t
-2.230913	@ n u
-1.659522	@ n v
-1.950087	@ n z
-1.950087	@ n {
-1.932658	E n #
-1.01501	E n </s>
-1.065566	E n @
-0.9697295	E n I
-1.188721	E n J
-1.932658	E n P
-1.651832	E n S
-0.7410548	E n d
-1.651832	E n j
-1.065566	E n s
-0.5920339	E n t
-1.651832	E n z
-1.845498	I n #
-2.295467	I n 1
-1.62929	I n 5
-0.3773414	I n </s>
-1.219589	I n @
-1.845498	I n E
-1.157883	I n I
-1.724076	I n J
-1.724076	I n T
-2.295467	I n U
-2.295467	I n V
-1.377818	I n _
-1.157883	I n d
-1.845498	I n f
-1.845498	I n j
-1.157883	I n s
-0.9371861	I n t
-2.295467	I n v
-2.295467	I n z
-0.6746107	P n U
-0.468233	Q n </s>
-1.684519	Q n @
-1.23455	Q n I
-1.684519	Q n J
-0.6086403	Q n d
-1.403692	Q n j
-1.018341	Q n s
-1.23455	Q n t
-1.403692	Q n v
-1.684519	Q n z
-0.6698797	U n </s>
-1.479745	U n _
-0.4758151	U n d
-0.8135679	U n s
-0.8135679	U n t
-1.282007	V n </s>
-1.112864	V n I
-0.9914422	V n J
-1.112864	V n P
-1.562833	V n T
-0.8966559	V n _
-0.5999047	V n d
-1.562833	V n s
-0.7529677	V n t
-0.6746107	b n Q
-0.5351132	d n @
-0.8159398	d n {
-0.9672075	g n #
-0.9672075	g n $
-0.9672075	g n 5
-0.9672075	g n @
-0.6863809	g n I
-1.641654	i n #
-1.191685	i n 5
-0.2833733	i n </s>
-0.8317887	i n @
-1.070263	i n I
-1.641654	i n d
-1.641654	i n j
-1.641654	i n z
-1.641654	i n {
-0.5915946	k n I
-0.8724211	k n i
-0.8724211	k n j
-0.750999	l n </s>
-0.750999	l n @
-0.5351132	m n @
-0.8159398	m n I
-0.4701724	p n P
-1.055181	s n #
-1.224323	s n $
-1.224323	s n 1
-1.50515	s n E
-0.6952843	s n I
-1.50515	s n Q
-0.9337588	s n V
-1.224323	s n i
-0.8389725	s n u
-0.9337588	s n {
-0.6746107	t n I
-0.1645256	u n </s>
-0.9337588	u n @
-1.50515	u n I
-1.50515	u n d
-1.50515	u n j
-1.678648	{ n 5
-0.8218908	{ n </s>
-1.215538	{ n @
-0.9965463	{ n I
-1.678648	{ n P
-1.959475	{ n Q
-1.959475	{ n S
-1.509506	{ n T
-1.388084	{ n _
-0.6188507	{ n d
-1.959475	{ n f
-1.959475	{ n h
-1.959475	{ n j
-1.293298	{ n s
-0.8218908	{ n t
-1.959475	{ n v
-1.388084	{ n z
-0.9223952	# p $
-0.9223952	# p </s>
-0.9223952	# p I
-0.9223952	# p Q
-0.9223952	# p u
-0.4724261	$ p @
-0.9223952	$ p V
-0.9223952	$ p s
-1.168122	1 p #
-0.8872957	1 p </s>
-0.8872957	1 p @
-1.168122	1 p E
-1.168122	1 p I
-0.8872957	1 p P
-1.168122	1 p Q
-0.8872957	1 p r
-0.5578563	3 p </s>
-1.007825	3 p @
-1.007825	3 p P
-1.007825	3 p i
-1.007825	3 p s
-1.079181	5 p 1
-0.6292123	5 p </s>
-1.079181	5 p @
-1.079181	5 p E
-1.079181	5 p I
-1.079181	5 p j
-1.079181	5 p {
-1.125724	<s> p #
-1.857332	<s> p $
-1.684787	<s> p 1
-1.762546	<s> p 3
-1.618858	<s> p 5
-1.291139	<s> p @
-1.125724	<s> p E
-1.070443	<s> p I
-1.125724	<s> p Q
-1.978755	<s> p U
-1.387331	<s> p V
-2.147897	<s> p i
-1.618858	<s> p j
-0.8458343	<s> p l
-0.6840751	<s> p r
-2.428724	<s> p u
-0.9248092	<s> p {
-1.224323	@ p #
-1.50515	@ p $
-1.50515	@ p 1
-1.50515	@ p 5
-0.6380576	@ p </s>
-1.50515	@ p @
-1.224323	@ p E
-1.055181	@ p I
-1.224323	@ p Q
-1.50515	@ p U
-1.224323	@ p i
-1.055181	@ p l
-1.50515	@ p r
-1.50515	@ p u
-1.224323	@ p {
-0.8596243	E p 5
-0.6904819	E p </s>
-0.8596243	E p @
-1.140451	E p I
-1.140451	E p r
-0.8596243	E p t
-1.292678	I p 5
-0.3117011	I p </s>
-1.573505	I p @
-1.002113	I p I
-1.292678	I p P
-1.573505	I p Q
-1.292678	I p l
-1.573505	I p m
-1.573505	I p s
-1.573505	I p t
-1.573505	I p u
-1.573505	I p {
-0.3672945	Q p </s>
-1.004117	Q p @
-0.8349742	Q p I
-1.284943	Q p j
-1.284943	Q p l
-1.284943	Q p s
-0.6746107	S p i
-0.6746107	U p #
-0.750999	V p P
-0.750999	V p t
-0.473576	i p </s>
-1.044967	i p P
-0.7641405	i p Q
-1.044967	i p i
-0.3582567	l p </s>
-1.168122	l p @
-1.168122	l p I
-1.168122	l p r
-1.168122	l p t
-1.168122	l p {
-1.337581	m p #
-1.459003	m p 1
-0.4438598	m p </s>
-0.9460435	m p @
-1.337581	m p E
-1.165035	m p I
-1.099107	m p P
-1.165035	m p Q
-1.908972	m p i
-1.908972	m p k
-1.459003	m p l
-1.908972	m p s
-1.628146	m p t
-1.628146	m p u
-1.459003	m p {
-1.065566	s p #
-1.482689	s p $
-1.482689	s p 1
-1.482689	s p 3
-1.122793	s p </s>
-1.361267	s p @
-1.065566	s p E
-0.9697295	s p I
-1.932658	s p P
-1.482689	s p Q
-1.932658	s p U
-1.651832	s p V
-1.482689	s p i
-1.932658	s p j
-1.122793	s p l
-0.8248318	s p r
-1.361267	s p u
-1.065566	s p {
-1.284943	u p 1
-0.4750775	u p </s>
-0.713552	u p @
-1.284943	u p I
-1.284943	u p P
-1.004117	u p i
-1.284943	u p l
-0.4755275	{ p </s>
-0.9432072	{ p @
-1.11235	{ p I
-1.11235	{ p P
-1.393176	{ p j
-1.393176	{ p k
-1.11235	{ p n
-1.11235	{ p s
-1.393176	{ p t
-0.9223952	# r 1
-0.6415685	# r @
-0.9223952	# r I
-0.9223952	# r i
-1.241909	$ r $
-0.4979714	$ r @
-0.6705174	$ r I
-1.241909	$ r Q
-0.7919396	$ r {
-0.7018421	<s> r #
-1.318554	<s> r 1
-1.413341	<s> r 5
-1.984732	<s> r @
-0.9433392	<s> r E
-0.7018421	<s> r I
-1.413341	<s> r Q
-1.703905	<s> r U
-1.021803	<s> r V
-1.984732	<s> r i
-1.174866	<s> r u
-0.8769054	<s> r {
-1.019596	@ r #
-1.937244	@ r $
-1.487275	@ r 1
-0.8958516	@ r 5
-0.7209584	@ r @
-1.365853	@ r E
-0.6754409	@ r I
-1.127379	@ r Q
-1.937244	@ r V
-0.933314	@ r i
-1.937244	@ r u
-1.365853	@ r {
-1.11235	E r 1
-0.4302475	E r @
-0.3892459	E r I
-0.7687097	I r #
-0.7687097	I r @
-0.9378521	I r E
-0.7687097	I r I
-1.218679	I r Q
-1.218679	I r i
-1.218679	I r {
-1.408856	Q r #
-0.9588874	Q r 5
-0.4459277	Q r @
-0.4459277	Q r I
-0.6227446	S r #
-0.6227446	S r I
-1.194136	S r U
-1.194136	S r V
-1.194136	S r i
-1.194136	S r u
-1.194136	S r {
-1.263959	T r #
-0.9831321	T r 5
-0.8139897	T r E
-0.9831321	T r I
-0.8139897	T r Q
-0.8139897	T r V
-0.9831321	T r {
-0.8159398	U r 1
-0.8159398	U r 5
-0.8159398	U r u
-1.007825	V r 5
-1.007825	V r @
-0.3416478	V r I
-0.8601897	b r #
-1.373149	b r $
-1.251727	b r 1
-1.373149	b r 5
-1.079181	b r @
-1.373149	b r E
-0.7472398	b r I
-1.079181	b r Q
-1.823118	b r U
-1.542292	b r V
-1.251727	b r i
-1.079181	b r u
-0.9560261	b r {
-0.774562	d r #
-1.641654	d r $
-1.641654	d r 1
-1.191685	d r 5
-0.9754769	d r @
-1.070263	d r E
-0.8977172	d r I
-1.641654	d r Q
-0.8977172	d r V
-1.641654	d r i
-1.360828	d r u
-0.8977172	d r {
-1.067347	f r #
-1.236489	f r $
-1.067347	f r 1
-1.517316	f r @
-0.8511384	f r E
-0.8511384	f r I
-1.236489	f r Q
-1.236489	f r V
-1.067347	f r i
-1.517316	f r u
-0.8511384	f r {
-0.8481586	g r #
-1.14491	g r 1
-1.06715	g r 5
-1.361118	g r @
-1.530261	g r E
-0.673503	g r I
-1.361118	g r Q
-1.361118	g r V
-0.943995	g r i
-1.361118	g r u
-0.8934386	g r {
-1.118158	k r #
-1.647197	k r $
-1.118158	k r 1
-1.356632	k r 5
-1.928023	k r @
-1.647197	k r E
-0.790439	k r I
-1.184086	k r Q
-1.647197	k r U
-0.9240929	k r V
-0.8521446	k r i
-1.184086	k r u
-0.8521446	k r {
-0.6746107	l r @
-0.6746107	m r 1
-0.8425267	p r #
-1.603093	p r $
-1.43395	p r 1
-0.8425267	p r 5
-1.074054	p r @
-1.312528	p r E
-0.6676335	p r I
-0.8425267	p r Q
-1.603093	p r i
-1.312528	p r u
-1.312528	p r {
-0.8802453	t r #
-1.59571	t r $
-1.12803	t r 1
-1.301741	t r 5
-0.8802453	t r @
-0.9697999	t r E
-0.8802453	t r I
-1.235813	t r Q
-1.08275	t r V
-1.379501	t r i
-1.474287	t r u
-0.9697999	t r {
-0.8159398	v r @
-0.5351132	v r I
-0.8793122	{ r 5
-0.2480015	{ r @
-0.7056006	{ r I
-1.623249	{ r j
-0.6565975	# s </s>
-1.466463	# s @
-1.466463	# s H
-1.185637	# s I
-1.466463	# s P
-0.722526	# s k
-1.466463	# s l
-0.895072	# s p
-0.8002857	# s t
-1.044967	$ s #
-1.044967	$ s 5
-1.044967	$ s @
-0.7641405	$ s I
-1.044967	$ s j
-0.7641405	$ s t
-0.4742734	1 s </s>
-1.140451	1 s H
-0.4742734	1 s t
-0.9223952	3 s 5
-0.9223952	3 s H
-0.9223952	3 s j
-0.6415685	3 s t
-1.263959	5 s #
-1.263959	5 s $
-0.5200216	5 s </s>
-1.263959	5 s E
-0.454093	5 s t
-1.470737	<s> s #
-2.73254	<s> s $
-2.161149	<s> s 1
-1.72861	<s> s 3
-1.922674	<s> s 5
-1.656661	<s> s @
-1.470737	<s> s E
-1.100912	<s> s I
-1.72861	<s> s Q
-2.73254	<s> s U
-1.769611	<s> s V
-2.451713	<s> s f
-1.922674	<s> s i
-0.7649069	<s> s k
-1.082851	<s> s l
-1.540937	<s> s m
-1.281172	<s> s n
-0.892548	<s> s p
-0.7128573	<s> s t
-2.066362	<s> s u
-1.340963	<s> s w
-1.624714	<s> s {
-1.69146	@ s #
-1.69146	@ s $
-1.972287	@ s 1
-0.1742017	@ s </s>
-1.400896	@ s E
-1.22835	@ s I
-1.972287	@ s Q
-1.522318	@ s i
-1.972287	@ s j
-1.522318	@ s k
-1.30611	@ s t
-1.972287	@ s w
-1.972287	@ s {
-0.6963823	E s </s>
-1.659311	E s @
-1.378484	E s I
-1.378484	E s P
-1.08792	E s k
-1.659311	E s p
-0.2840632	E s t
-1.326657	I s #
-1.992835	I s $
-1.992835	I s 1
-1.992835	I s 5
-0.5556608	I s </s>
-1.712008	I s @
-1.992835	I s E
-1.712008	I s H
-1.248897	I s I
-1.421443	I s P
-1.992835	I s Q
-1.542866	I s i
-0.8274014	I s k
-1.992835	I s p
-0.5556608	I s t
-0.4701724	N s t
-1.479745	Q s 1
-0.5168167	Q s </s>
-1.479745	Q s @
-1.198919	Q s I
-1.479745	Q s P
-1.198919	Q s k
-1.029776	Q s p
-0.5620967	Q s t
-0.3958163	U s </s>
-0.6863809	U s t
-1.002793	V s </s>
-0.7088248	V s P
-0.7865844	V s k
-1.452762	V s p
-0.4113692	V s t
-0.4701724	b s I
-0.6472875	i s </s>
-1.218679	i s @
-1.218679	i s Q
-1.218679	i s i
-0.408813	i s t
-1.798713	k s #
-1.798713	k s $
-0.1956675	k s </s>
-1.227322	k s @
-1.798713	k s E
-1.517887	k s H
-0.8810647	k s I
-1.798713	k s i
-1.517887	k s t
-1.168122	l s 5
-0.5967312	l s </s>
-0.8872957	l s @
-1.168122	l s H
-0.8872957	l s I
-0.8872957	l s t
-0.6746107	m s @
-1.759324	n s #
-1.478498	n s 3
-1.478498	n s 5
-0.3079567	n s </s>
-1.093147	n s @
-1.309355	n s E
-1.187933	n s I
-1.187933	n s P
-1.759324	n s i
-1.759324	n s k
-1.759324	n s l
-1.187933	n s t
-0.3416478	p s </s>
-1.007825	p s j
-1.007825	p s t
-1.110896	t s 5
-0.4447182	t s </s>
-1.110896	t s @
-1.110896	t s H
-1.110896	t s i
-1.110896	t s u
-0.2733586	u s </s>
-1.140451	u s I
-1.140451	u s k
-1.140451	u s t
-1.676278	{ s $
-1.676278	{ s 1
-1.0101	{ s </s>
-1.104887	{ s @
-1.676278	{ s E
-0.7586291	{ s I
-1.395451	{ s P
-1.676278	{ s b
-1.676278	{ s f
-0.8091855	{ s k
-1.395451	{ s m
-1.104887	{ s p
-0.7586291	{ s t
-1.342423	# t 5
-1.061596	# t </s>
-0.8924537	# t @
-1.342423	# t E
-0.532557	# t I
-1.061596	# t i
-1.342423	# t m
-1.061596	# t r
-1.342423	# t u
-1.284943	$ t 5
-0.713552	$ t </s>
-0.713552	$ t @
-1.004117	$ t E
-1.004117	$ t I
-1.284943	$ t i
-1.284943	$ t k
-1.284943	$ t r
-1.284943	$ t s
-1.42399	1 t 5
-0.3161637	1 t </s>
-0.6141245	1 t @
-1.42399	1 t E
-1.143164	1 t r
-0.4064466	3 t </s>
-1.324095	3 t E
-0.8741263	3 t H
-1.043269	3 t I
-0.8741263	3 t P
-1.324095	3 t u
-1.452762	5 t #
-1.452762	5 t 1
-0.5856696	5 t </s>
-0.6428962	5 t @
-1.452762	5 t E
-0.8813707	5 t I
-1.452762	5 t Q
-1.171935	5 t V
-1.171935	5 t i
-1.043661	<s> t #
-1.617124	<s> t $
-1.617124	<s> t 1
-1.365653	<s> t 3
-1.539364	<s> t 5
-1.71191	<s> t @
-0.9426768	<s> t E
-1.175475	<s> t I
-1.473436	<s> t Q
-2.002475	<s> t U
-1.617124	<s> t V
-1.833332	<s> t i
-1.617124	<s> t j
-0.5458195	<s> t r
-1.833332	<s> t u
-1.145717	<s> t w
-1.000412	<s> t {
-1.450102	@ t #
-1.730929	@ t 1
-1.730929	@ t 3
-1.730929	@ t 5
-0.2658167	@ t </s>
-1.28096	@ t @
-1.28096	@ t E
-1.730929	@ t I
-1.159538	@ t i
-1.730929	@ t j
-1.450102	@ t r
-1.730929	@ t s
-1.730929	@ t u
-1.450102	@ t {
-1.271067	E t 5
-0.3356075	E t </s>
-1.271067	E t @
-0.8857159	E t I
-1.101924	E t P
-1.551893	E t i
-1.271067	E t r
-1.271067	E t s
-0.6746107	H t </s>
-1.731875	I t #
-2.181844	I t 1
-2.181844	I t 3
-2.181844	I t 5
-0.108959	I t </s>
-1.264195	I t @
-1.901017	I t H
-2.181844	I t I
-1.515666	I t P
-1.610452	I t r
-1.610452	I t s
-2.181844	I t u
-2.181844	I t w
-0.6746107	N t @
-0.6746107	P t 5
-1.016494	Q t 5
-0.3905846	Q t </s>
-1.016494	Q t @
-1.466463	Q t H
-1.016494	Q t I
-0.895072	Q t P
-1.466463	Q t i
-0.1428001	U t </s>
-1.218679	U t n
-0.5395045	V t </s>
-0.8300691	V t @
-0.8300691	V t H
-0.8300691	V t P
-0.1372679	f t </s>
-1.376909	f t @
-1.376909	f t I
-1.376909	f t {
-1.342423	i t 5
-0.30103	i t </s>
-0.6762452	i t @
-1.061596	i t I
-1.613746	k t 3
-1.613746	k t 5
-0.2064321	k t </s>
-0.7466534	k t @
-1.613746	k t E
-1.332919	k t I
-0.1420681	l t </s>
-1.067347	l t @
-1.517316	l t I
-1.517316	l t Q
-1.517316	l t r
-0.6746107	m t Q
-2.045679	n t $
-2.045679	n t 3
-1.59571	n t 5
-0.2114313	n t </s>
-1.004286	n t @
-1.764852	n t E
-1.08275	n t I
-1.59571	n t P
-1.59571	n t i
-2.045679	n t j
-2.045679	n t m
-1.59571	n t r
-2.045679	n t s
-1.764852	n t {
-1.044967	p t #
-0.3787897	p t </s>
-1.044967	p t @
-1.044967	p t I
-1.222768	s t #
-1.694175	s t $
-1.49326	s t 1
-1.910383	s t 3
-1.694175	s t 5
-0.5035686	s t </s>
-1.168749	s t @
-1.442704	s t E
-1.194919	s t I
-1.694175	s t P
-1.788961	s t Q
-1.356422	s t V
-1.49326	s t i
-1.694175	s t j
-0.8095683	s t r
-1.910383	s t u
-1.194919	s t {
-1.30496	u t #
-1.30496	u t 5
-0.3420316	u t </s>
-0.7335691	u t @
-1.30496	u t i
-1.30496	u t r
-1.641654	{ t 1
-0.4500509	{ t </s>
-0.774562	{ t @
-1.070263	{ t H
-0.9754769	{ t I
-1.070263	{ t P
-1.641654	{ t f
-1.641654	{ t i
-1.641654	{ t j
-1.641654	{ t r
-1.641654	{ t s
-0.6746107	<s> u t
-0.6746107	J u </s>
-0.4701724	S u </s>
-0.9223952	_ u _
-0.9223952	_ u d
-0.9223952	_ u l
-0.6415685	_ u n
-0.4447182	b u </s>
-1.110896	b u Z
-1.110896	b u g
-1.110896	b u n
-0.8300691	b u s
-0.750999	d u d
-0.750999	d u v
-0.5351132	g u n
-0.8159398	g u s
-0.6746107	h u l
-1.899124	j u #
-0.7615395	j u </s>
-1.449155	j u @
-1.899124	j u I
-1.899124	j u J
-1.618297	j u _
-1.618297	j u b
-1.232946	j u d
-1.899124	j u f
-1.899124	j u g
-1.618297	j u k
-1.155187	j u l
-1.032031	j u m
-0.9361951	j u n
-1.155187	j u p
-1.618297	j u s
-0.9814751	j u t
-1.899124	j u v
-1.089258	j u z
-0.8596243	k u </s>
-1.140451	k u b
-1.140451	k u d
-1.140451	k u g
-1.140451	k u l
-0.6904819	k u n
-1.140451	k u p
-1.140451	k u t
-1.342423	l u $
-1.061596	l u </s>
-1.342423	l u E
-1.342423	l u I
-1.342423	l u T
-1.342423	l u d
-1.342423	l u k
-1.061596	l u m
-1.342423	l u n
-0.8924537	l u p
-1.061596	l u s
-0.8924537	l u t
-1.342423	l u v
-0.8159398	m u D
-0.8159398	m u J
-0.8159398	m u v
-1.044967	n u </s>
-0.7641405	n u d
-1.044967	n u g
-0.7641405	n u k
-1.044967	n u p
-1.044967	n u z
-0.8300691	p u </s>
-1.110896	p u d
-1.110896	p u f
-1.110896	p u k
-1.110896	p u l
-0.6609266	p u n
-1.110896	p u s
-0.8188962	r u </s>
-1.112864	r u I
-1.562833	r u _
-0.9914422	r u b
-0.9914422	r u d
-1.282007	r u m
-0.9914422	r u n
-1.112864	r u p
-1.112864	r u s
-1.112864	r u t
-1.282007	r u v
-1.562833	r u z
-0.9672075	s u </s>
-0.9672075	s u b
-0.9672075	s u k
-0.9672075	s u m
-0.9672075	s u p
-0.9672075	s u t
-0.8300691	t u </s>
-1.110896	t u _
-1.110896	t u k
-1.110896	t u l
-0.5395045	t u n
-1.110896	t u p
-0.750999	w u n
-0.750999	w u p
-0.6746107	z u k
-0.8159398	# v @
-0.8159398	# v I
-0.8159398	# v P
-0.3352441	1 v </s>
-1.079181	1 v @
-1.079181	1 v H
-1.079181	1 v I
-0.6863809	3 v </s>
-0.5172385	3 v I
-0.9672075	3 v P
-1.079181	5 v 3
-0.5077901	5 v </s>
-0.6292123	5 v @
-1.079181	5 v I
-0.9113625	<s> v #
-1.548185	<s> v $
-0.8250809	<s> v 3
-1.829011	<s> v 5
-1.162834	<s> v @
-0.7211848	<s> v E
-0.663578	<s> v I
-1.548185	<s> v Q
-1.829011	<s> v V
-1.829011	<s> v i
-0.9619189	<s> v {
-1.044967	@ v 1
-0.7641405	@ v 3
-1.044967	@ v Q
-1.044967	@ v U
-0.5949981	@ v {
-0.5967312	E v @
-0.7181533	E v H
-0.8872957	E v P
-1.168122	E v j
-0.8872957	E v r
-0.3877437	I v </s>
-0.9378521	I v @
-1.60403	I v E
-0.6863809	I v I
-0.9378521	I v P
-1.323203	I v {
-0.8724211	Q v I
-0.5915946	Q v P
-0.8724211	Q v r
-0.7641405	V v </s>
-1.044967	V v @
-0.5949981	V v H
-1.044967	V v I
-1.044967	V v P
-0.4724261	i v </s>
-0.9223952	i v @
-0.9223952	i v P
-0.6746107	k v #
-0.473576	l v </s>
-0.7641405	l v @
-0.7641405	l v I
-1.044967	n v #
-1.044967	n v 1
-1.044967	n v E
-0.5949981	n v I
-1.044967	n v Q
-1.044967	n v V
-0.9672075	u v 1
-0.6863809	u v </s>
-0.9672075	u v @
-0.9672075	u v I
-0.9672075	u v j
-1.30496	{ v 1
-1.024134	{ v 5
-0.6387828	{ v @
-0.6387828	{ v I
-0.7335691	{ v P
-1.30496	{ v l
-0.6746107	# w @
-0.8481586	<s> w #
-1.239696	<s> w $
-1.530261	<s> w 1
-1.811087	<s> w 3
-1.530261	<s> w 5
-0.807157	<s> w E
-0.7352087	<s> w I
-0.673503	<s> w Q
-1.530261	<s> w U
-1.361118	<s> w i
-1.811087	<s> w u
-1.361118	<s> w {
-0.6746107	@ w $
-0.750999	I w #
-0.750999	I w {
-0.6746107	T w $
-0.750999	d w $
-0.750999	d w E
-0.5915946	g w #
-0.5915946	g w I
-0.6746107	i w i
-1.099965	k w #
-1.099965	k w $
-1.485316	k w 1
-1.316173	k w 3
-1.485316	k w 5
-1.766142	k w @
-1.316173	k w E
-0.4439231	k w I
-0.7247497	k w Q
-1.316173	k w i
-1.766142	k w {
-1.016494	s w #
-0.895072	s w $
-1.185637	s w 1
-1.185637	s w 3
-1.185637	s w E
-0.6565975	s w I
-0.895072	s w Q
-1.185637	s w i
-1.466463	s w u
-1.466463	s w {
-0.8139897	t w #
-1.263959	t w 1
-0.9831321	t w 3
-1.263959	t w E
-0.6925675	t w I
-1.263959	t w Q
-0.8139897	t w i
-1.263959	t w {
-0.750999	# z 1
-0.750999	# z I
-0.6746107	$ z </s>
-0.3582567	1 z </s>
-1.168122	1 z @
-0.8872957	1 z H
-1.168122	1 z I
-1.168122	1 z l
-0.6746107	3 z I
-0.5915946	5 z </s>
-0.5915946	5 z I
-1.110896	<s> z 3
-0.4447182	<s> z E
-0.6609266	<s> z I
-1.110896	<s> z i
-1.168122	@ z #
-1.168122	@ z 1
-0.8872957	@ z </s>
-1.168122	@ z @
-0.7181533	@ z E
-1.168122	@ z I
-1.168122	@ z V
-1.168122	@ z i
-1.168122	@ z u
-0.750999	E z @
-0.750999	E z H
-1.52915	I z #
-1.248324	I z 3
-1.52915	I z 5
-0.4877576	I z </s>
-1.248324	I z @
-0.9577591	I z H
-1.52915	I z I
-0.8629727	I z P
-1.52915	I z Q
-1.52915	I z i
-1.079181	I z m
-0.5915946	Q z I
-0.8724211	Q z _
-0.8724211	Q z m
-0.30103	U z </s>
-1.044967	U z H
-1.044967	U z P
-0.7269987	V z H
-0.7269987	V z P
-0.7269987	V z b
-1.007825	V z l
-0.6746107	b z </s>
-0.6746107	d z </s>
-0.6746107	g z {
-1.342423	i z 5
-0.2048384	i z </s>
-1.342423	i z @
-1.342423	i z H
-1.342423	i z P
-1.342423	i z Q
-0.8724211	m z @
-0.8724211	m z H
-0.8724211	m z I
-0.8724211	m z P
-1.140451	n z #
-0.3965138	n z </s>
-0.8596243	n z @
-1.140451	n z I
-1.140451	n z i
-1.079181	u z 3
-0.3352441	u z </s>
-1.079181	u z I
-1.079181	u z l
-1.140451	{ z </s>
-0.5690597	{ z @
-0.8596243	{ z I
-0.8596243	{ z P
-0.8596243	{ z m
-1.239696	<s> { N
-1.811087	<s> { Z
-1.530261	<s> { b
-1.361118	<s> { d
-1.811087	<s> { f
-1.811087	<s> { g
-1.361118	<s> { k
-0.8481586	<s> { l
-0.943995	<s> { m
-0.807157	<s> { n
-1.530261	<s> { p
-1.530261	<s> { r
-0.807157	<s> { s
-1.530261	<s> { t
-1.14491	<s> { v
-1.811087	<s> { z
-0.7983546	I { d
-1.079181	I { k
-1.079181	I { n
-1.079181	I { s
-0.6292123	I { t
-1.079181	I { z
-1.007825	J { l
-0.7269987	J { m
-0.7269987	J { n
-1.007825	J { r
-1.007825	J { t
-1.140451	S { N
-1.140451	S { d
-1.140451	S { g
-1.140451	S { k
-0.8596243	S { l
-0.6904819	S { m
-1.140451	S { p
-1.140451	S { s
-0.6746107	T { N
-0.9672075	_ { N
-0.6863809	_ { k
-0.9672075	_ { m
-0.9672075	_ { s
-0.9672075	_ { v
-1.079181	b { N
-1.52915	b { S
-1.52915	b { b
-1.52915	b { f
-1.52915	b { g
-1.248324	b { k
-0.8629727	b { l
-1.52915	b { m
-0.8629727	b { n
-0.9577591	b { r
-0.9577591	b { s
-1.079181	b { t
-1.248324	b { z
-1.110896	d { N
-1.110896	d { f
-0.5395045	d { m
-1.110896	d { n
-1.110896	d { p
-1.110896	d { v
-1.110896	d { z
-1.079181	f { D
-0.7983546	f { g
-0.7983546	f { k
-1.079181	f { l
-1.079181	f { n
-1.079181	f { r
-1.079181	f { s
-1.284943	g { N
-1.284943	g { g
-0.713552	g { l
-0.541006	g { m
-1.284943	g { n
-1.284943	g { r
-1.284943	g { s
-1.284943	g { v
-1.284943	g { z
-1.360008	h { J
-1.079181	h { N
-1.360008	h { _
-1.360008	h { b
-1.360008	h { d
-1.360008	h { g
-1.360008	h { k
-0.9100388	h { l
-1.360008	h { m
-1.079181	h { n
-0.9100388	h { r
-1.079181	h { s
-1.360008	h { t
-1.360008	h { v
-0.8159398	j { N
-0.8159398	j { k
-0.8159398	j { r
-1.548185	k { N
-1.548185	k { S
-1.379042	k { b
-1.829011	k { d
-1.379042	k { f
-1.548185	k { k
-0.9113625	k { l
-0.9619189	k { m
-0.7531326	k { n
-1.085074	k { p
-0.9619189	k { r
-1.162834	k { s
-1.25762	k { t
-1.379042	k { v
-1.829011	k { z
-0.8308949	l { N
-1.168648	l { S
-1.384856	l { b
-1.553999	l { d
-1.834825	l { f
-1.384856	l { g
-0.8718964	l { k
-1.263434	l { m
-0.7589465	l { n
-1.384856	l { p
-1.384856	l { r
-1.553999	l { s
-0.9677328	l { t
-1.834825	l { v
-1.553999	l { z
-1.692607	m { J
-1.41178	m { N
-1.692607	m { S
-1.41178	m { _
-1.41178	m { d
-1.692607	m { f
-1.121215	m { g
-1.41178	m { k
-1.242638	m { l
-1.026429	m { m
-0.616728	m { n
-1.121215	m { r
-0.9486694	m { s
-1.121215	m { t
-1.194136	n { J
-1.194136	n { d
-0.9133092	n { f
-1.194136	n { g
-1.194136	n { l
-1.194136	n { n
-0.7441667	n { p
-1.194136	n { r
-1.194136	n { s
-1.194136	n { t
-1.41972	p { N
-1.700546	p { S
-0.9566092	p { k
-0.8906807	p { l
-1.250577	p { m
-0.6966161	p { n
-0.7376177	p { r
-1.250577	p { s
-1.034369	p { t
-1.700546	p { v
-1.41972	p { z
-1.899124	r { J
-0.9814751	r { N
-1.449155	r { S
-1.155187	r { b
-1.618297	r { d
-1.449155	r { f
-1.155187	r { g
-0.8577311	r { k
-1.899124	r { l
-0.7336906	r { m
-1.232946	r { n
-1.155187	r { p
-1.327733	r { s
-1.155187	r { t
-1.449155	r { v
-1.241909	s { J
-1.241909	s { d
-1.241909	s { f
-0.7919396	s { l
-1.241909	s { m
-0.9610819	s { n
-0.9610819	s { s
-0.6705174	s { t
-1.342423	t { J
-1.17328	t { N
-1.623249	t { S
-1.342423	t { b
-1.342423	t { g
-0.9570718	t { k
-1.051858	t { l
-0.8133836	t { m
-0.6603206	t { n
-1.17328	t { r
-1.623249	t { s
-1.623249	t { t
-1.623249	t { v
-0.7441667	v { l
-0.9133092	v { m
-0.6227446	v { n
-1.194136	v { p
-0.9133092	v { s
-1.194136	v { t
-0.5578563	w { N
-0.7269987	w { g
-0.7269987	w { k
-0.6746107	z { k

\end\
